################################################################################
# Neural network connection values (weights and biases).
################################################################################
# Col  Name       Description
################################################################################
# 1    connection Neural network connection value.
# 2    t          Connection type (a = weight, b = bias).
# 3    index      Index enumerating weights.
# 4    l_s        Starting point layer (end point layer for biases).
# 5    n_s        Starting point neuron in starting layer (end point neuron for biases).
# 6    l_e        End point layer.
# 7    n_e        End point neuron in end layer.
################################################################################
#                      1 2         3     4     5     6     7
#             connection t     index   l_s   n_s   l_e   n_e
############################################################
 -3.5529535307974660E+00 a         1     0     1     1     1
  7.2419212968357530E-02 a         2     0     1     1     2
  6.6238167719007179E-01 a         3     0     1     1     3
  1.3187085002852068E+00 a         4     0     1     1     4
  8.0230438760649514E-01 a         5     0     1     1     5
  8.3955862269426929E-01 a         6     0     1     1     6
  6.0886672237242623E-01 a         7     0     1     1     7
  1.8038521037244075E+00 a         8     0     1     1     8
 -9.4212226737513360E-01 a         9     0     1     1     9
 -5.1556581063883433E-01 a        10     0     1     1    10
 -1.1787308470438386E-01 a        11     0     1     1    11
  2.7402309255936421E+00 a        12     0     1     1    12
 -1.4988157706430596E+00 a        13     0     1     1    13
 -1.4218948987030877E+00 a        14     0     1     1    14
 -3.1471248905197000E+00 a        15     0     1     1    15
 -2.7242744362012289E-01 a        16     0     1     1    16
 -1.4939110915197420E+00 a        17     0     1     1    17
 -4.5760625854044340E-01 a        18     0     1     1    18
  1.8320965746572428E+00 a        19     0     1     1    19
  1.4829292005742705E+00 a        20     0     1     1    20
 -4.7531481220841671E+00 a        21     0     1     1    21
  6.9284365000837844E-01 a        22     0     1     1    22
 -1.4360334184866708E+00 a        23     0     1     1    23
 -6.9988606086712224E-01 a        24     0     1     1    24
 -2.6821117310359570E+00 a        25     0     1     1    25
  1.2328185292695659E+00 a        26     0     2     1     1
  6.8539081540980901E-02 a        27     0     2     1     2
  1.1312525424757594E-01 a        28     0     2     1     3
  3.3791299053992763E-01 a        29     0     2     1     4
  1.3203780104475105E+00 a        30     0     2     1     5
 -1.4531712477250573E+00 a        31     0     2     1     6
  2.4379072742488564E-01 a        32     0     2     1     7
  7.2963026955779986E-01 a        33     0     2     1     8
 -1.2591734762557112E+00 a        34     0     2     1     9
 -4.7096176379988147E-01 a        35     0     2     1    10
  1.1052943930835461E-01 a        36     0     2     1    11
  1.2282514057948777E+00 a        37     0     2     1    12
 -5.8437787869506075E-01 a        38     0     2     1    13
  1.4166787422902487E+00 a        39     0     2     1    14
 -1.6938650584717402E-01 a        40     0     2     1    15
  2.3030826774815769E+00 a        41     0     2     1    16
 -1.4473769335578126E+00 a        42     0     2     1    17
  4.0195075881174241E-01 a        43     0     2     1    18
  1.1043558865793792E+00 a        44     0     2     1    19
 -3.4549061205961434E-01 a        45     0     2     1    20
  8.1879232157423720E-01 a        46     0     2     1    21
 -2.7007345535606064E-01 a        47     0     2     1    22
 -8.2869143511169474E-01 a        48     0     2     1    23
 -2.9469119089022022E-01 a        49     0     2     1    24
 -5.7206441642229700E-01 a        50     0     2     1    25
  7.7333844542414798E-01 a        51     0     3     1     1
 -2.8005034461966472E+00 a        52     0     3     1     2
 -2.0054154055351620E-01 a        53     0     3     1     3
 -2.3648818664674390E-01 a        54     0     3     1     4
 -6.4064022093719220E-01 a        55     0     3     1     5
  6.9876341352721461E-01 a        56     0     3     1     6
  1.2138517429043079E+00 a        57     0     3     1     7
 -1.0872828987358620E+00 a        58     0     3     1     8
  2.4009903950784475E+00 a        59     0     3     1     9
 -7.1414550990900871E-01 a        60     0     3     1    10
  4.8262298434516965E-01 a        61     0     3     1    11
  1.2017235942575036E-01 a        62     0     3     1    12
 -5.0067742187524500E-01 a        63     0     3     1    13
  1.6682617398315705E-01 a        64     0     3     1    14
 -1.9521789463955752E+00 a        65     0     3     1    15
  1.3587159322569415E+00 a        66     0     3     1    16
  1.9824040428450457E-01 a        67     0     3     1    17
  5.0478176436946609E-01 a        68     0     3     1    18
  1.7968971934667841E+00 a        69     0     3     1    19
 -2.6819167691107553E+00 a        70     0     3     1    20
  3.1361294632323173E+00 a        71     0     3     1    21
 -7.2813429885436576E-01 a        72     0     3     1    22
  7.9662962027149486E-01 a        73     0     3     1    23
  5.3906067437318705E-01 a        74     0     3     1    24
  1.8219650246428634E+00 a        75     0     3     1    25
  5.8927722128305347E-02 a        76     0     4     1     1
  3.4478358925805858E-01 a        77     0     4     1     2
  2.1711984340886667E-01 a        78     0     4     1     3
 -7.5943721634464512E-01 a        79     0     4     1     4
 -2.1415789791334832E+00 a        80     0     4     1     5
  3.0855930522672659E-01 a        81     0     4     1     6
 -7.4505867442699159E-01 a        82     0     4     1     7
 -4.1258347929987922E+00 a        83     0     4     1     8
 -8.9911876538844360E-02 a        84     0     4     1     9
  8.0135720853704462E-01 a        85     0     4     1    10
 -6.4314476008779209E-01 a        86     0     4     1    11
 -6.6301798112622423E-01 a        87     0     4     1    12
 -1.6975741162472407E-01 a        88     0     4     1    13
  1.5616634992334104E+00 a        89     0     4     1    14
  5.4073426424790072E-01 a        90     0     4     1    15
  1.1663760214127676E+00 a        91     0     4     1    16
 -7.2592084481083807E-01 a        92     0     4     1    17
  1.1933746575167552E+00 a        93     0     4     1    18
  5.8471587235867606E-01 a        94     0     4     1    19
  9.9434818278332526E-01 a        95     0     4     1    20
  3.0868993139314660E-01 a        96     0     4     1    21
 -4.1822451550640703E-02 a        97     0     4     1    22
  4.3484284598560397E-01 a        98     0     4     1    23
  3.4675230994513656E-01 a        99     0     4     1    24
 -7.9366614810023273E-01 a       100     0     4     1    25
 -7.1415208213408676E-01 a       101     0     5     1     1
  5.5359292712059338E-01 a       102     0     5     1     2
  4.6091614481806420E-01 a       103     0     5     1     3
  2.3210532804307410E-01 a       104     0     5     1     4
 -3.5974858266384940E-01 a       105     0     5     1     5
  8.7207348428923104E-01 a       106     0     5     1     6
 -2.6428893993697733E-01 a       107     0     5     1     7
  1.2687679723738343E+00 a       108     0     5     1     8
  3.0350814520079739E-01 a       109     0     5     1     9
  4.0127959961420190E-01 a       110     0     5     1    10
  2.5760664947260187E-01 a       111     0     5     1    11
  4.2946967545824394E-01 a       112     0     5     1    12
 -1.0634988452508982E+00 a       113     0     5     1    13
  4.6515867774306630E-01 a       114     0     5     1    14
 -2.8736739048858850E-01 a       115     0     5     1    15
  2.8035188791624133E-01 a       116     0     5     1    16
 -1.0594229785793945E+00 a       117     0     5     1    17
  3.5354003940634937E-01 a       118     0     5     1    18
 -8.7289990298234832E-01 a       119     0     5     1    19
  7.8608457073228855E-01 a       120     0     5     1    20
  9.4355555166717106E-02 a       121     0     5     1    21
  9.9737638938155973E-02 a       122     0     5     1    22
 -7.8895214776698941E-01 a       123     0     5     1    23
 -1.2779361627544823E+00 a       124     0     5     1    24
 -4.2088334339487055E-01 a       125     0     5     1    25
  5.2059728073400302E-01 a       126     0     6     1     1
  1.2883426208648746E-01 a       127     0     6     1     2
 -4.9580897905349969E-01 a       128     0     6     1     3
  1.6776623187927422E-01 a       129     0     6     1     4
 -6.5077910082100954E-01 a       130     0     6     1     5
 -9.1782164195337812E-01 a       131     0     6     1     6
 -9.9893198289281698E-02 a       132     0     6     1     7
  1.1906730008668573E+00 a       133     0     6     1     8
 -3.8989802389446832E-01 a       134     0     6     1     9
  1.3886401474352751E-02 a       135     0     6     1    10
  2.7533403615976892E-01 a       136     0     6     1    11
  5.7660493940017266E-01 a       137     0     6     1    12
 -3.2053245083521076E-01 a       138     0     6     1    13
  4.3970795055178880E-01 a       139     0     6     1    14
 -7.9864105962506288E-02 a       140     0     6     1    15
  9.7382737193720059E-01 a       141     0     6     1    16
 -8.5658306046211530E-01 a       142     0     6     1    17
  1.5643790938988367E-01 a       143     0     6     1    18
 -2.5167735297707738E-01 a       144     0     6     1    19
 -1.3069853795732567E-01 a       145     0     6     1    20
  7.8000882053071874E-01 a       146     0     6     1    21
 -2.6856201153034315E-01 a       147     0     6     1    22
  1.1807278898203291E-01 a       148     0     6     1    23
  2.5242500831158712E-02 a       149     0     6     1    24
 -8.5346790788586646E-01 a       150     0     6     1    25
 -8.9733899269900372E-02 a       151     0     7     1     1
 -2.4621073738354016E-01 a       152     0     7     1     2
  1.2689430212070580E+00 a       153     0     7     1     3
 -7.3802631961193998E-01 a       154     0     7     1     4
 -9.7615337015477688E-01 a       155     0     7     1     5
  2.7109179478947648E-01 a       156     0     7     1     6
  2.3548029013724467E-01 a       157     0     7     1     7
  1.4655340146839449E-01 a       158     0     7     1     8
 -2.0350083940408537E-01 a       159     0     7     1     9
  5.8221592234572916E-01 a       160     0     7     1    10
 -1.0467135467452260E+00 a       161     0     7     1    11
 -2.1386801245367279E-01 a       162     0     7     1    12
  4.2558128312039277E-02 a       163     0     7     1    13
  5.3748928034256782E-01 a       164     0     7     1    14
 -1.7269120724226789E-02 a       165     0     7     1    15
  6.6421501164575447E-01 a       166     0     7     1    16
 -2.5850929260200944E-01 a       167     0     7     1    17
  3.2925311607840746E-01 a       168     0     7     1    18
 -3.0577573703503680E-01 a       169     0     7     1    19
  4.8695198651531529E-01 a       170     0     7     1    20
  7.4087866583782069E-01 a       171     0     7     1    21
  1.7734438599316488E-01 a       172     0     7     1    22
  5.6894345574856953E-01 a       173     0     7     1    23
  4.9285983626005353E-01 a       174     0     7     1    24
  6.3200729719664417E-03 a       175     0     7     1    25
 -1.7617569900942873E+00 a       176     0     8     1     1
  1.4220311618738819E+00 a       177     0     8     1     2
 -2.4501149265242668E+00 a       178     0     8     1     3
 -5.0545837839511556E+00 a       179     0     8     1     4
 -1.7645033343378808E-01 a       180     0     8     1     5
  1.3769852598081192E+01 a       181     0     8     1     6
  3.8815382831918197E+00 a       182     0     8     1     7
 -9.1565791666651268E+00 a       183     0     8     1     8
 -6.6445523746613002E+00 a       184     0     8     1     9
  4.1183457973334745E+00 a       185     0     8     1    10
 -4.8398998716532038E+00 a       186     0     8     1    11
 -1.7865744432943083E+00 a       187     0     8     1    12
 -9.2281434127343620E-01 a       188     0     8     1    13
  6.7826244651543579E+00 a       189     0     8     1    14
  3.8103342672762732E+00 a       190     0     8     1    15
  3.7155412764725821E+00 a       191     0     8     1    16
  1.2429006294421866E+01 a       192     0     8     1    17
 -3.2517459187384183E+00 a       193     0     8     1    18
  1.9476003331008616E+00 a       194     0     8     1    19
  8.5227486538812744E+00 a       195     0     8     1    20
 -4.7789315012336493E+00 a       196     0     8     1    21
  2.9941636397592095E+00 a       197     0     8     1    22
 -1.1885333687519437E+00 a       198     0     8     1    23
 -1.1332843787549169E+01 a       199     0     8     1    24
  5.0153312192869837E-01 a       200     0     8     1    25
  7.4722999357864506E+00 a       201     0     9     1     1
 -2.3777849948944549E+01 a       202     0     9     1     2
  8.8870486206754951E+00 a       203     0     9     1     3
  1.8626697812589981E+01 a       204     0     9     1     4
  2.2496385360376436E+01 a       205     0     9     1     5
 -1.5297711462863226E+01 a       206     0     9     1     6
 -1.8873975192491958E+01 a       207     0     9     1     7
  9.1776030022838162E-01 a       208     0     9     1     8
 -4.7870031720620049E-01 a       209     0     9     1     9
 -4.7886428600136038E-01 a       210     0     9     1    10
 -3.3960444611141490E+01 a       211     0     9     1    11
  8.8598017927677120E+00 a       212     0     9     1    12
  3.3466500340439438E+01 a       213     0     9     1    13
 -6.5766820838692031E+00 a       214     0     9     1    14
  2.4614981192018091E+00 a       215     0     9     1    15
  7.6306096408681059E+00 a       216     0     9     1    16
  2.0708707128116487E+01 a       217     0     9     1    17
 -8.1806717492331522E+00 a       218     0     9     1    18
  1.9491502764938122E+01 a       219     0     9     1    19
 -8.3655166593794217E+00 a       220     0     9     1    20
  1.7053515068404014E+01 a       221     0     9     1    21
 -1.4635173441603170E+01 a       222     0     9     1    22
 -1.3359375391876583E+01 a       223     0     9     1    23
 -2.4371793022996105E+01 a       224     0     9     1    24
  5.3487991020403376E+00 a       225     0     9     1    25
  2.4177891616020482E+00 a       226     0    10     1     1
  5.9122239015738898E-01 a       227     0    10     1     2
  9.7908382291821816E+00 a       228     0    10     1     3
  8.2505919733543109E+00 a       229     0    10     1     4
  1.2420339101313549E+00 a       230     0    10     1     5
 -1.4926780364302127E+01 a       231     0    10     1     6
  3.2431057600682273E-01 a       232     0    10     1     7
  2.8419999104319329E+00 a       233     0    10     1     8
  2.0065943942656768E+00 a       234     0    10     1     9
  3.2674350168201109E+00 a       235     0    10     1    10
 -5.9216238213575556E-01 a       236     0    10     1    11
 -1.3899544926871774E+00 a       237     0    10     1    12
 -1.0775703831807862E+01 a       238     0    10     1    13
 -9.3988923859556295E-01 a       239     0    10     1    14
  3.7430810988209968E+00 a       240     0    10     1    15
  3.7408473714376704E+00 a       241     0    10     1    16
 -2.7000607336103264E+00 a       242     0    10     1    17
 -1.9236146778205050E+00 a       243     0    10     1    18
  9.2011655286909697E+00 a       244     0    10     1    19
 -3.1690951133737717E+00 a       245     0    10     1    20
  4.2959053913458856E-01 a       246     0    10     1    21
  6.9889817087979420E+00 a       247     0    10     1    22
 -2.9915057662727729E+00 a       248     0    10     1    23
 -5.0035650487018755E+00 a       249     0    10     1    24
 -1.6118452672537678E+00 a       250     0    10     1    25
  1.9302099303289417E+00 a       251     0    11     1     1
 -1.7299815638512361E+00 a       252     0    11     1     2
  1.4002391201862769E+01 a       253     0    11     1     3
  1.0950318345306144E+01 a       254     0    11     1     4
  3.9012176633377758E+00 a       255     0    11     1     5
 -1.9713399515922404E+01 a       256     0    11     1     6
 -5.7918579828306163E+00 a       257     0    11     1     7
  1.6024592633569130E+00 a       258     0    11     1     8
  5.7561425729691595E-01 a       259     0    11     1     9
  5.1720744581742240E-01 a       260     0    11     1    10
  5.7439223026196720E+00 a       261     0    11     1    11
  7.0554552694010092E-02 a       262     0    11     1    12
  1.0695834947571788E+01 a       263     0    11     1    13
 -1.2681042442537615E+01 a       264     0    11     1    14
 -3.5818562369769031E+00 a       265     0    11     1    15
  1.1787665915397847E+01 a       266     0    11     1    16
 -4.7915457873759859E+00 a       267     0    11     1    17
 -1.0589704722452362E+01 a       268     0    11     1    18
 -1.9707779887416639E+00 a       269     0    11     1    19
 -7.2516510554461622E+00 a       270     0    11     1    20
  1.1381609400973591E+01 a       271     0    11     1    21
  2.9301102530665307E+01 a       272     0    11     1    22
  2.2388459778557315E-01 a       273     0    11     1    23
  6.0386684248613207E+00 a       274     0    11     1    24
  6.1487651980417581E+00 a       275     0    11     1    25
 -6.3807192677184936E+00 a       276     0    12     1     1
  2.4118054351015672E+01 a       277     0    12     1     2
 -3.8371736445364576E+01 a       278     0    12     1     3
 -2.3688588365292091E+01 a       279     0    12     1     4
 -3.0314194583850998E+01 a       280     0    12     1     5
  5.9623052497691420E+00 a       281     0    12     1     6
  4.3180129486590602E+01 a       282     0    12     1     7
  3.5542271768923605E+01 a       283     0    12     1     8
  1.3740108503172854E+01 a       284     0    12     1     9
 -1.0502537196034396E+01 a       285     0    12     1    10
  4.1652786147580805E+01 a       286     0    12     1    11
 -1.2766036471283877E+01 a       287     0    12     1    12
 -1.0766380651679683E+01 a       288     0    12     1    13
  8.1858926220080104E+00 a       289     0    12     1    14
 -6.6201987203482417E+00 a       290     0    12     1    15
 -1.2358575634185870E+01 a       291     0    12     1    16
 -1.1293859023415806E+01 a       292     0    12     1    17
 -1.7065568381561662E+00 a       293     0    12     1    18
  5.8841077132952213E-01 a       294     0    12     1    19
  7.1333822714361528E-01 a       295     0    12     1    20
  1.0438089141870575E+01 a       296     0    12     1    21
 -5.3062897463421397E+00 a       297     0    12     1    22
  1.5738881379324759E+01 a       298     0    12     1    23
  3.0377623296541575E+01 a       299     0    12     1    24
 -7.5518396732269535E+00 a       300     0    12     1    25
  3.1435569526085871E-01 a       301     0    13     1     1
 -7.8881246326761074E+00 a       302     0    13     1     2
  3.9492977058299847E+00 a       303     0    13     1     3
 -1.0950044288681122E+01 a       304     0    13     1     4
  8.3929686185672701E+00 a       305     0    13     1     5
  1.4026679999371666E+01 a       306     0    13     1     6
 -3.8387721132171193E+00 a       307     0    13     1     7
  1.6541539452259716E+01 a       308     0    13     1     8
  4.6706404217093347E+00 a       309     0    13     1     9
  3.6502593347291218E-01 a       310     0    13     1    10
 -9.0107460887772604E+00 a       311     0    13     1    11
 -1.2689714816874879E+01 a       312     0    13     1    12
  1.1060416457674853E+01 a       313     0    13     1    13
  5.2860105532160684E-01 a       314     0    13     1    14
 -2.9562027551072259E+00 a       315     0    13     1    15
  9.8897575149932475E+00 a       316     0    13     1    16
 -3.1936614804931098E+00 a       317     0    13     1    17
  4.5809387548002425E+00 a       318     0    13     1    18
  6.1356982402867324E+00 a       319     0    13     1    19
 -1.0796054912812185E+01 a       320     0    13     1    20
  9.2659186845594235E+00 a       321     0    13     1    21
  1.0793078843228539E+01 a       322     0    13     1    22
  4.5680315768442208E+00 a       323     0    13     1    23
 -2.9095523542773667E+00 a       324     0    13     1    24
  9.8821017406186886E+00 a       325     0    13     1    25
 -2.0353833807880215E+00 a       326     0    14     1     1
 -2.1857815013423272E+00 a       327     0    14     1     2
 -8.8717992708081050E-01 a       328     0    14     1     3
  3.9419197284342786E+00 a       329     0    14     1     4
 -1.8191975894861065E-01 a       330     0    14     1     5
 -1.5771059356944379E+00 a       331     0    14     1     6
  1.0328388109251021E+00 a       332     0    14     1     7
  2.0975700387453551E+00 a       333     0    14     1     8
  1.1668245791227281E+00 a       334     0    14     1     9
 -3.6438842652502368E-01 a       335     0    14     1    10
  1.7597293234851461E-02 a       336     0    14     1    11
 -5.3138048093586976E-01 a       337     0    14     1    12
 -2.8855866805081321E+00 a       338     0    14     1    13
  1.7253258978538297E+00 a       339     0    14     1    14
  2.1806284499595519E+00 a       340     0    14     1    15
 -1.4570377730811535E+00 a       341     0    14     1    16
  2.3821524476710981E-01 a       342     0    14     1    17
  1.9923358567777016E+00 a       343     0    14     1    18
 -2.1978223896088087E+00 a       344     0    14     1    19
  2.5168674038666370E+00 a       345     0    14     1    20
 -5.9232403218461256E+00 a       346     0    14     1    21
 -2.4294615278786122E+00 a       347     0    14     1    22
  2.8890079092820469E+00 a       348     0    14     1    23
  1.7228803512270354E+00 a       349     0    14     1    24
 -2.1733690924220167E-01 a       350     0    14     1    25
 -6.9818171416780963E+00 a       351     0    15     1     1
  2.9014130375974467E+00 a       352     0    15     1     2
  6.6372408187426197E+00 a       353     0    15     1     3
 -3.0246606464616468E+00 a       354     0    15     1     4
 -6.2515690720832247E+00 a       355     0    15     1     5
  5.4061844452207115E+00 a       356     0    15     1     6
  7.5111662431613153E+00 a       357     0    15     1     7
 -3.2188213466506883E+00 a       358     0    15     1     8
 -6.2560131338429059E+00 a       359     0    15     1     9
  1.9819173769630987E+00 a       360     0    15     1    10
  1.5320971167727237E+01 a       361     0    15     1    11
  1.2226881310526998E+00 a       362     0    15     1    12
 -8.0899843927600958E+00 a       363     0    15     1    13
  2.9366129783215040E+00 a       364     0    15     1    14
 -1.4681617797492343E+00 a       365     0    15     1    15
 -7.9946586494303631E+00 a       366     0    15     1    16
 -1.0781100970809876E+00 a       367     0    15     1    17
  8.4031729086148523E+00 a       368     0    15     1    18
 -7.6484280286256352E+00 a       369     0    15     1    19
  2.6595498242856705E+00 a       370     0    15     1    20
 -2.1802924619743809E+01 a       371     0    15     1    21
  1.2551959085529342E+01 a       372     0    15     1    22
  1.2689918376827043E+01 a       373     0    15     1    23
  9.8486268305509217E+00 a       374     0    15     1    24
  1.5945215505608218E-01 a       375     0    15     1    25
 -7.6928305601605096E-01 a       376     0    16     1     1
 -1.0825217031474961E+00 a       377     0    16     1     2
  6.7493186406874878E-02 a       378     0    16     1     3
  1.2740084754505556E+00 a       379     0    16     1     4
 -2.3998985087243021E+00 a       380     0    16     1     5
  4.5938748161011951E+00 a       381     0    16     1     6
  1.3186262048323332E+00 a       382     0    16     1     7
 -2.0300543844214252E+00 a       383     0    16     1     8
 -1.8612397593185026E+00 a       384     0    16     1     9
 -2.1957824837047246E+00 a       385     0    16     1    10
 -4.5325933976278643E+00 a       386     0    16     1    11
 -4.8165800193111163E+00 a       387     0    16     1    12
  2.8112673254967007E+00 a       388     0    16     1    13
  6.9916650492547736E-02 a       389     0    16     1    14
 -5.2984617832446956E-01 a       390     0    16     1    15
 -1.2286315645086776E+00 a       391     0    16     1    16
  6.3692392904328565E-01 a       392     0    16     1    17
 -1.1922459854058518E+00 a       393     0    16     1    18
 -2.6127450444902482E+00 a       394     0    16     1    19
 -8.5624077142404043E-01 a       395     0    16     1    20
  8.1192763231267584E+00 a       396     0    16     1    21
 -2.7371490914842180E+00 a       397     0    16     1    22
  4.5511501279363525E-01 a       398     0    16     1    23
  2.8412907102652096E+00 a       399     0    16     1    24
 -1.0821458135111566E+00 a       400     0    16     1    25
 -2.8693377286398669E+00 a       401     0    17     1     1
  3.4343413746335685E+00 a       402     0    17     1     2
 -5.7198565564854151E+00 a       403     0    17     1     3
 -8.7992296676875070E-01 a       404     0    17     1     4
  1.2071815063650588E+00 a       405     0    17     1     5
  1.0648166832185364E+01 a       406     0    17     1     6
  7.1446064544500114E+00 a       407     0    17     1     7
  4.2326695033963588E+00 a       408     0    17     1     8
 -8.6813889165528102E-01 a       409     0    17     1     9
  1.2427896766396942E+00 a       410     0    17     1    10
 -3.1285834752243963E-01 a       411     0    17     1    11
  1.7585836816311717E+00 a       412     0    17     1    12
 -5.9176766353522015E-01 a       413     0    17     1    13
  5.9997967712836964E+00 a       414     0    17     1    14
 -1.8712170585420014E+00 a       415     0    17     1    15
 -2.3650312811928611E+00 a       416     0    17     1    16
 -2.7183999049405521E+00 a       417     0    17     1    17
  4.2788623256988760E+00 a       418     0    17     1    18
  1.6434325442605502E+00 a       419     0    17     1    19
  3.1792277167265839E+00 a       420     0    17     1    20
 -7.7957165636535377E+00 a       421     0    17     1    21
 -6.5993366407143652E+00 a       422     0    17     1    22
 -2.4506967554111454E+00 a       423     0    17     1    23
 -6.2120306818995159E+00 a       424     0    17     1    24
  1.3662400723988017E+00 a       425     0    17     1    25
  4.9594248480583127E+00 a       426     0    18     1     1
 -6.4370461879920109E+00 a       427     0    18     1     2
  5.4437118083154576E+00 a       428     0    18     1     3
  1.5291051111890607E+01 a       429     0    18     1     4
  2.4165682110936952E+01 a       430     0    18     1     5
 -1.7341950661666423E+00 a       431     0    18     1     6
 -2.2037641462125304E+01 a       432     0    18     1     7
 -8.0923046024845942E+00 a       433     0    18     1     8
 -7.1273466181751370E+00 a       434     0    18     1     9
  1.3331314096273163E+01 a       435     0    18     1    10
 -2.5021072201992851E+01 a       436     0    18     1    11
 -6.4618591212116758E+00 a       437     0    18     1    12
  2.5165915426163834E+00 a       438     0    18     1    13
 -7.4549626330945467E+00 a       439     0    18     1    14
  2.9753027804161762E+00 a       440     0    18     1    15
  1.2033288763193283E+01 a       441     0    18     1    16
  2.4592747872073653E-01 a       442     0    18     1    17
 -1.8758008484919659E+00 a       443     0    18     1    18
 -5.1491145462123100E+00 a       444     0    18     1    19
 -1.0349182984691755E+01 a       445     0    18     1    20
  2.5121799611817490E+00 a       446     0    18     1    21
 -8.6124488817369862E+00 a       447     0    18     1    22
 -8.5933375031696606E+00 a       448     0    18     1    23
 -2.0826993280509612E+01 a       449     0    18     1    24
  4.7286860885629949E+00 a       450     0    18     1    25
  9.8583385710993954E-02 a       451     0    19     1     1
  3.4458241801594300E+00 a       452     0    19     1     2
  6.9311143011650778E+00 a       453     0    19     1     3
  2.3845171026275787E+00 a       454     0    19     1     4
 -7.8546956428602377E-01 a       455     0    19     1     5
 -7.0369166840332609E+00 a       456     0    19     1     6
 -5.0738836961689877E+00 a       457     0    19     1     7
  5.7356740777532189E-01 a       458     0    19     1     8
 -1.0112128993889427E+00 a       459     0    19     1     9
  7.8441949879739834E+00 a       460     0    19     1    10
 -5.9137189820262348E+00 a       461     0    19     1    11
  9.4722305859582061E+00 a       462     0    19     1    12
 -1.0252649161959285E+01 a       463     0    19     1    13
  4.6524511560264048E-01 a       464     0    19     1    14
  2.7387107947722047E+00 a       465     0    19     1    15
 -9.5146486772291539E-01 a       466     0    19     1    16
 -5.3455223459756587E+00 a       467     0    19     1    17
  1.6518819710216490E+00 a       468     0    19     1    18
 -1.3446051997143030E+01 a       469     0    19     1    19
  3.8324527360266676E+00 a       470     0    19     1    20
  7.7324350733984815E-01 a       471     0    19     1    21
  1.7227245157519422E+00 a       472     0    19     1    22
  1.9082502119695666E-01 a       473     0    19     1    23
 -3.3361250733293630E+00 a       474     0    19     1    24
 -2.7359984071367474E+00 a       475     0    19     1    25
 -1.1554620808099951E+00 a       476     0    20     1     1
 -1.7054493213261583E+00 a       477     0    20     1     2
  8.3586542772156172E+00 a       478     0    20     1     3
  9.2738405896311296E+00 a       479     0    20     1     4
 -4.3938015456511028E+00 a       480     0    20     1     5
 -1.5880440437977553E+01 a       481     0    20     1     6
  1.0736521714563627E+00 a       482     0    20     1     7
  1.8162823277695828E+01 a       483     0    20     1     8
  1.0926950868777501E+01 a       484     0    20     1     9
 -6.9360929168356966E+00 a       485     0    20     1    10
 -1.9023830907034904E+00 a       486     0    20     1    11
  9.3450317831914305E+00 a       487     0    20     1    12
 -1.0499415161930820E+01 a       488     0    20     1    13
 -2.7316129353668721E+00 a       489     0    20     1    14
 -7.7308359929707358E+00 a       490     0    20     1    15
 -7.5112378965566160E+00 a       491     0    20     1    16
 -2.5381906950037749E+01 a       492     0    20     1    17
  6.6300634914582073E+00 a       493     0    20     1    18
 -5.7440354470995718E+00 a       494     0    20     1    19
 -1.1500212630548178E+01 a       495     0    20     1    20
 -1.1847190255844737E+01 a       496     0    20     1    21
 -1.3399544759843605E+01 a       497     0    20     1    22
  6.5709331570184926E+00 a       498     0    20     1    23
  1.7126912963213353E+01 a       499     0    20     1    24
 -3.5122003727013404E+00 a       500     0    20     1    25
 -9.5638893950434642E+00 a       501     0    21     1     1
  2.8270432374123573E+01 a       502     0    21     1     2
  6.9206908598365553E+00 a       503     0    21     1     3
 -1.8261790231652771E+01 a       504     0    21     1     4
 -2.2982762572277618E+01 a       505     0    21     1     5
  1.4223801510623412E+01 a       506     0    21     1     6
  1.3372546389551191E+01 a       507     0    21     1     7
 -5.5098066361515379E+00 a       508     0    21     1     8
 -3.2881239368680428E+00 a       509     0    21     1     9
  2.9495409652586733E+00 a       510     0    21     1    10
  3.5106310152535528E+01 a       511     0    21     1    11
 -4.8586661447542419E+00 a       512     0    21     1    12
 -5.5080213423967734E+01 a       513     0    21     1    13
  1.2683288848612520E+01 a       514     0    21     1    14
  3.7874299166313756E+00 a       515     0    21     1    15
 -1.2988032677395138E+01 a       516     0    21     1    16
 -3.0719280622622694E+01 a       517     0    21     1    17
  2.4421926546408823E+01 a       518     0    21     1    18
 -2.7663931376386749E+01 a       519     0    21     1    19
  1.4166161367791194E+01 a       520     0    21     1    20
 -1.5957649316393431E+01 a       521     0    21     1    21
  3.5063955992511453E+01 a       522     0    21     1    22
  2.6380260074392474E+01 a       523     0    21     1    23
  4.2411934920305420E+01 a       524     0    21     1    24
 -1.4887512191806531E+00 a       525     0    21     1    25
 -3.7330279250788294E+00 a       526     0    22     1     1
 -2.1010026546526479E+00 a       527     0    22     1     2
 -8.7652102884399827E+00 a       528     0    22     1     3
 -8.1181243111988588E-01 a       529     0    22     1     4
 -7.4025646718577551E+00 a       530     0    22     1     5
  1.4574800878261032E+01 a       531     0    22     1     6
 -1.1949227670821687E+00 a       532     0    22     1     7
 -5.7102284021682186E+00 a       533     0    22     1     8
 -1.8117256589831967E+00 a       534     0    22     1     9
 -1.4653005990283576E+00 a       535     0    22     1    10
 -1.2002290825035602E+00 a       536     0    22     1    11
 -8.3014116648218561E-01 a       537     0    22     1    12
  8.4170633672674899E+00 a       538     0    22     1    13
 -2.1197203849448618E+00 a       539     0    22     1    14
 -4.4196976922903222E+00 a       540     0    22     1    15
 -6.7219955148759141E+00 a       541     0    22     1    16
  1.7140506898374352E+00 a       542     0    22     1    17
 -6.0835734029747623E-01 a       543     0    22     1    18
 -1.4203132643093220E+01 a       544     0    22     1    19
  1.8173332154951751E+00 a       545     0    22     1    20
 -2.2018199779847878E+00 a       546     0    22     1    21
 -1.0648345727581443E+01 a       547     0    22     1    22
  2.1869398602086267E+00 a       548     0    22     1    23
  5.4020310177637105E+00 a       549     0    22     1    24
 -4.1461697223631244E+00 a       550     0    22     1    25
  3.9961354949042751E+00 a       551     0    23     1     1
  5.7850156365852792E+00 a       552     0    23     1     2
 -2.8999890755580367E+01 a       553     0    23     1     3
 -1.6846356291380950E+01 a       554     0    23     1     4
 -2.6124660762241274E+00 a       555     0    23     1     5
  2.6403791914895987E+01 a       556     0    23     1     6
 -6.1348112818208367E-01 a       557     0    23     1     7
 -1.0078050223341970E+01 a       558     0    23     1     8
 -3.5837410564532330E+00 a       559     0    23     1     9
  1.2598750041946516E+00 a       560     0    23     1    10
 -2.7533824150670481E+00 a       561     0    23     1    11
 -8.1579520884942589E+00 a       562     0    23     1    12
  6.8308609170346701E-01 a       563     0    23     1    13
  1.1842915827280674E+01 a       564     0    23     1    14
  1.0777607262980418E+01 a       565     0    23     1    15
 -9.3713246991546910E+00 a       566     0    23     1    16
  1.8844051242699098E+01 a       567     0    23     1    17
  6.0518586171925746E+00 a       568     0    23     1    18
  4.7081700532536601E+00 a       569     0    23     1    19
  1.0220382198957958E+01 a       570     0    23     1    20
  1.7543035019715045E+01 a       571     0    23     1    21
 -2.9577529898372916E+01 a       572     0    23     1    22
 -5.9266298615006425E+00 a       573     0    23     1    23
 -1.1634275879742543E+01 a       574     0    23     1    24
 -3.6060685768671434E+00 a       575     0    23     1    25
  9.6263888574271075E+00 a       576     0    24     1     1
 -2.8707635667077344E+01 a       577     0    24     1     2
  3.0883117806044531E+01 a       578     0    24     1     3
  3.0246095019964205E+01 a       579     0    24     1     4
  4.3630157913506018E+01 a       580     0    24     1     5
 -7.3354612013236897E+00 a       581     0    24     1     6
 -3.7113214620312363E+01 a       582     0    24     1     7
 -4.3677306555598079E+01 a       583     0    24     1     8
 -1.5522860766176342E+01 a       584     0    24     1     9
  7.5812839073508345E+00 a       585     0    24     1    10
 -5.3207244735767951E+01 a       586     0    24     1    11
  2.1526041045549974E+01 a       587     0    24     1    12
  2.3822773619403105E+01 a       588     0    24     1    13
 -1.0572331869123358E+01 a       589     0    24     1    14
  3.3244249892743141E+00 a       590     0    24     1    15
  1.8739697563625114E+01 a       591     0    24     1    16
  1.9583721234661972E+01 a       592     0    24     1    17
 -9.7261851465090992E+00 a       593     0    24     1    18
  6.7059115997555292E+00 a       594     0    24     1    19
 -1.0049166223966605E+01 a       595     0    24     1    20
 -2.8061948136092614E+00 a       596     0    24     1    21
 -7.1528397194179325E+00 a       597     0    24     1    22
 -3.0558502850914536E+01 a       598     0    24     1    23
 -4.7296639150925735E+01 a       599     0    24     1    24
  6.4154849454513947E+00 a       600     0    24     1    25
  5.6915503770035403E-01 a       601     0    25     1     1
  7.4452076906135218E+00 a       602     0    25     1     2
 -6.0874776173405625E+00 a       603     0    25     1     3
  1.0382168323340100E+01 a       604     0    25     1     4
  2.6995335935272555E+00 a       605     0    25     1     5
 -1.5521074636711298E+01 a       606     0    25     1     6
 -3.5930148462605921E-01 a       607     0    25     1     7
 -2.0935596560887106E+01 a       608     0    25     1     8
 -4.6025711433395387E+00 a       609     0    25     1     9
 -7.2994997466151135E-01 a       610     0    25     1    10
  9.3037679265496411E+00 a       611     0    25     1    11
  1.5226459764762208E+01 a       612     0    25     1    12
 -7.5725202000904046E+00 a       613     0    25     1    13
 -1.5882359608135401E+00 a       614     0    25     1    14
  2.7220114585610444E+00 a       615     0    25     1    15
 -6.4615422294156106E+00 a       616     0    25     1    16
  1.5013827548263239E+00 a       617     0    25     1    17
 -5.1968941046309434E+00 a       618     0    25     1    18
 -5.9699429971632412E-01 a       619     0    25     1    19
  1.2236101539885201E+01 a       620     0    25     1    20
 -1.0201708520456140E+01 a       621     0    25     1    21
 -6.1134740138567922E+00 a       622     0    25     1    22
 -7.7413497297754530E+00 a       623     0    25     1    23
  6.2306433230758929E-01 a       624     0    25     1    24
 -8.6747469752782074E+00 a       625     0    25     1    25
  2.1208902743694158E+00 a       626     0    26     1     1
  2.0907261498019674E+00 a       627     0    26     1     2
  6.8403969033754808E-01 a       628     0    26     1     3
 -2.8703587839775748E+00 a       629     0    26     1     4
 -9.7614590554535613E-02 a       630     0    26     1     5
  1.4145600789225805E+00 a       631     0    26     1     6
 -1.5172011457395389E+00 a       632     0    26     1     7
 -1.8225780725909302E+00 a       633     0    26     1     8
 -1.1004940651985948E+00 a       634     0    26     1     9
  2.1825218245507949E-01 a       635     0    26     1    10
  1.3651139669341239E+00 a       636     0    26     1    11
  1.3300970744892185E-01 a       637     0    26     1    12
  2.0344062584448603E+00 a       638     0    26     1    13
 -2.8808434148215585E+00 a       639     0    26     1    14
 -3.8359873569995795E+00 a       640     0    26     1    15
  1.9088081681882774E+00 a       641     0    26     1    16
  3.2922421143049063E-01 a       642     0    26     1    17
 -1.7687416179348823E+00 a       643     0    26     1    18
  2.0574798394453344E+00 a       644     0    26     1    19
 -2.4194078225928299E+00 a       645     0    26     1    20
  7.9088236843124298E+00 a       646     0    26     1    21
  2.2843609886946625E+00 a       647     0    26     1    22
 -2.4972353462339987E+00 a       648     0    26     1    23
 -1.5226441289392421E+00 a       649     0    26     1    24
  4.9806186949379544E-01 a       650     0    26     1    25
  6.2700910711328666E+00 a       651     0    27     1     1
 -3.7731206020142176E+00 a       652     0    27     1     2
 -1.2001599602415907E+00 a       653     0    27     1     3
  2.1978004548515275E+00 a       654     0    27     1     4
  2.8797959963398960E+00 a       655     0    27     1     5
 -3.4791804687030741E+00 a       656     0    27     1     6
 -6.3484411471208588E+00 a       657     0    27     1     7
  4.5052231881098610E+00 a       658     0    27     1     8
  4.3520514062611726E+00 a       659     0    27     1     9
 -9.5567209526907315E-01 a       660     0    27     1    10
 -1.1684605457805041E+01 a       661     0    27     1    11
 -1.5784811281290867E+00 a       662     0    27     1    12
  8.5351596618508054E+00 a       663     0    27     1    13
 -1.2133561517818070E+00 a       664     0    27     1    14
  3.2063371661584790E+00 a       665     0    27     1    15
  7.1236776436417415E+00 a       666     0    27     1    16
  1.8648840363362484E+00 a       667     0    27     1    17
 -6.5736310454421023E+00 a       668     0    27     1    18
  7.7241261408793802E+00 a       669     0    27     1    19
 -1.6169274584828452E+00 a       670     0    27     1    20
  1.2783536010140905E+01 a       671     0    27     1    21
 -9.4161747480358056E+00 a       672     0    27     1    22
 -1.3160314820837224E+01 a       673     0    27     1    23
 -1.2880062567919337E+01 a       674     0    27     1    24
  5.4408121133012128E-03 a       675     0    27     1    25
  5.7028940310575438E-01 a       676     0    28     1     1
  9.8817714148900948E-02 a       677     0    28     1     2
  1.3291741868996965E+00 a       678     0    28     1     3
 -6.2489838884072368E-01 a       679     0    28     1     4
  6.7053405642985431E-01 a       680     0    28     1     5
 -3.6950976341660708E+00 a       681     0    28     1     6
 -7.3354025337323492E-01 a       682     0    28     1     7
  2.9686192493895112E+00 a       683     0    28     1     8
  1.7987806614983655E+00 a       684     0    28     1     9
  2.0042567175054367E+00 a       685     0    28     1    10
  3.4867078989284277E+00 a       686     0    28     1    11
  2.9448267919931745E+00 a       687     0    28     1    12
 -2.2159394021667911E+00 a       688     0    28     1    13
 -1.9546456126949624E-01 a       689     0    28     1    14
  6.6211523342533307E-01 a       690     0    28     1    15
  1.7576336061012157E+00 a       691     0    28     1    16
 -9.0028050922108316E-01 a       692     0    28     1    17
  1.1455870771065586E+00 a       693     0    28     1    18
  2.6413030927609915E+00 a       694     0    28     1    19
 -4.7186120256456951E-02 a       695     0    28     1    20
 -9.7334806950842108E+00 a       696     0    28     1    21
  1.7639591400023422E+00 a       697     0    28     1    22
 -1.3514501426700062E-01 a       698     0    28     1    23
 -2.5610105221814385E+00 a       699     0    28     1    24
  1.4057231355925266E+00 a       700     0    28     1    25
  1.5255996256826452E+00 a       701     0    29     1     1
 -3.9639658971274843E+00 a       702     0    29     1     2
  8.5173045797525653E+00 a       703     0    29     1     3
  3.9342735919359448E+00 a       704     0    29     1     4
 -2.3808279365783780E+00 a       705     0    29     1     5
 -1.2437384808413848E+01 a       706     0    29     1     6
 -5.6159224611903662E+00 a       707     0    29     1     7
 -2.9432818619839658E+00 a       708     0    29     1     8
  2.2621628190465954E+00 a       709     0    29     1     9
 -1.5920443351975324E+00 a       710     0    29     1    10
 -1.2845875264022586E+00 a       711     0    29     1    11
  4.3945692339994619E-01 a       712     0    29     1    12
 -2.3090052682621467E+00 a       713     0    29     1    13
 -5.8719422958955549E+00 a       714     0    29     1    14
 -2.6460169432619307E-02 a       715     0    29     1    15
  2.8492614368525206E+00 a       716     0    29     1    16
 -1.5042341142081317E+00 a       717     0    29     1    17
 -4.6149984073106820E+00 a       718     0    29     1    18
 -3.0199059161699049E+00 a       719     0    29     1    19
 -4.9587936992348345E+00 a       720     0    29     1    20
  2.9183995518682759E-01 a       721     0    29     1    21
  7.2860562111568106E+00 a       722     0    29     1    22
  4.1748365129785379E+00 a       723     0    29     1    23
  6.8220140288158202E+00 a       724     0    29     1    24
 -2.9188698549885572E+00 a       725     0    29     1    25
 -6.6010464328461884E+00 a       726     0    30     1     1
  8.6573272713261513E+00 a       727     0    30     1     2
 -5.8499699808540884E+00 a       728     0    30     1     3
 -1.8260904028923353E+01 a       729     0    30     1     4
 -2.5261974224858122E+01 a       730     0    30     1     5
  2.3234310067910862E+00 a       731     0    30     1     6
  2.2156106891085255E+01 a       732     0    30     1     7
  9.1702572627957046E+00 a       733     0    30     1     8
  7.0839474935029516E+00 a       734     0    30     1     9
 -1.2465861080605135E+01 a       735     0    30     1    10
  3.0613046242872244E+01 a       736     0    30     1    11
  3.8080699700958713E+00 a       737     0    30     1    12
 -9.5027620738189178E+00 a       738     0    30     1    13
  1.0043740872166376E+01 a       739     0    30     1    14
 -3.6263592313944493E+00 a       740     0    30     1    15
 -1.2641073290867070E+01 a       741     0    30     1    16
 -2.5218456547757691E+00 a       742     0    30     1    17
  4.7935686076422783E+00 a       743     0    30     1    18
  4.5694350751614072E+00 a       744     0    30     1    19
  1.2772931772712569E+01 a       745     0    30     1    20
  5.5726461462786037E-01 a       746     0    30     1    21
  1.4464323916745165E+01 a       747     0    30     1    22
  1.3438217058240600E+01 a       748     0    30     1    23
  2.6678413846700384E+01 a       749     0    30     1    24
 -4.0421579484919805E+00 a       750     0    30     1    25
 -3.5629818260937801E-01 a       751     0    31     1     1
 -3.2000288812601481E+00 a       752     0    31     1     2
 -4.4422926294666940E+00 a       753     0    31     1     3
 -2.2731223758756522E+00 a       754     0    31     1     4
  2.0535062058572024E+00 a       755     0    31     1     5
  5.7589896260274163E+00 a       756     0    31     1     6
  3.1392221737566759E+00 a       757     0    31     1     7
 -5.0617611980527943E-01 a       758     0    31     1     8
  9.1223444887480232E-01 a       759     0    31     1     9
 -7.0229888630468631E+00 a       760     0    31     1    10
  4.2409593420968053E+00 a       761     0    31     1    11
 -7.9377901895921115E+00 a       762     0    31     1    12
  8.7493519220795850E+00 a       763     0    31     1    13
 -3.2657837744840812E-01 a       764     0    31     1    14
 -2.5632663425068261E+00 a       765     0    31     1    15
  2.1202386428693787E+00 a       766     0    31     1    16
  2.9438654516630529E+00 a       767     0    31     1    17
 -1.2049915819861208E+00 a       768     0    31     1    18
  1.0524358864104286E+01 a       769     0    31     1    19
 -2.6831443415517700E+00 a       770     0    31     1    20
 -1.6559855724358585E+00 a       771     0    31     1    21
 -1.8260004842231792E+00 a       772     0    31     1    22
 -2.3940844661131319E-02 a       773     0    31     1    23
  3.6251894992674143E+00 a       774     0    31     1    24
  2.0960630167539276E+00 a       775     0    31     1    25
 -2.1715871625905670E+01 a       776     0    32     1     1
 -8.7917319858832055E-01 a       777     0    32     1     2
  3.6752125407849467E+00 a       778     0    32     1     3
 -9.8647270470016686E+00 a       779     0    32     1     4
  3.4120963584634443E+00 a       780     0    32     1     5
  3.8217948628229614E-01 a       781     0    32     1     6
  9.5186370819685298E+00 a       782     0    32     1     7
 -2.7112228154620466E+00 a       783     0    32     1     8
 -9.7028565363881092E-01 a       784     0    32     1     9
 -3.7695582347213206E+00 a       785     0    32     1    10
 -1.0305592574765716E+00 a       786     0    32     1    11
  5.3135100170618879E+00 a       787     0    32     1    12
  2.1825062345060967E+01 a       788     0    32     1    13
  1.4420346139894813E+00 a       789     0    32     1    14
  2.8479092084676645E+00 a       790     0    32     1    15
  5.6685366961078953E+00 a       791     0    32     1    16
  6.3523793320127862E+00 a       792     0    32     1    17
 -2.3698498546920535E-01 a       793     0    32     1    18
  1.0322860481011476E+01 a       794     0    32     1    19
 -3.1849281067769373E+00 a       795     0    32     1    20
 -8.4211716724529389E+00 a       796     0    32     1    21
  4.1744168512480044E+00 a       797     0    32     1    22
  3.0236350780550980E+00 a       798     0    32     1    23
 -7.5525581751245436E+00 a       799     0    32     1    24
 -1.5277045754745002E+00 a       800     0    32     1    25
  2.6432214258814470E+00 a       801     0    33     1     1
 -2.7970331547859915E+00 a       802     0    33     1     2
  1.5061013330778966E-01 a       803     0    33     1     3
  1.6325179510543273E+00 a       804     0    33     1     4
 -9.7324874795067928E-01 a       805     0    33     1     5
  3.5363560126504785E+00 a       806     0    33     1     6
 -2.5193903309717225E+00 a       807     0    33     1     7
 -1.9287074816290428E-01 a       808     0    33     1     8
 -5.0373685346881258E-01 a       809     0    33     1     9
 -1.1640708116231568E+00 a       810     0    33     1    10
 -2.1541909730443800E+00 a       811     0    33     1    11
 -7.0718329266218544E-02 a       812     0    33     1    12
  3.2727019677340694E+00 a       813     0    33     1    13
  4.1402351099647206E+00 a       814     0    33     1    14
  6.2913443262405702E+00 a       815     0    33     1    15
  3.5420811891878495E-01 a       816     0    33     1    16
  8.2420793358196676E-01 a       817     0    33     1    17
  1.5823370757900996E+00 a       818     0    33     1    18
  2.3544930444083683E+00 a       819     0    33     1    19
  7.3629905104749527E-01 a       820     0    33     1    20
 -4.4073403668134254E+00 a       821     0    33     1    21
 -3.1069628300718679E+00 a       822     0    33     1    22
 -3.6919131562173119E-01 a       823     0    33     1    23
 -3.0053603325188822E+00 a       824     0    33     1    24
 -2.7415158760651872E+00 a       825     0    33     1    25
  2.7346251119181090E+01 a       826     0    34     1     1
 -1.4417104327580832E+00 a       827     0    34     1     2
 -4.1396543735843903E+00 a       828     0    34     1     3
  4.6161750872240317E+00 a       829     0    34     1     4
 -8.2906346821196273E+00 a       830     0    34     1     5
 -3.2944360301053384E+00 a       831     0    34     1     6
 -1.3223384095632028E+01 a       832     0    34     1     7
  3.0998597331306219E+00 a       833     0    34     1     8
  3.3932658703203065E+00 a       834     0    34     1     9
  4.8277386018360184E+00 a       835     0    34     1    10
 -2.9150387729629958E+00 a       836     0    34     1    11
 -2.4306221755516599E+00 a       837     0    34     1    12
 -3.8862746132454937E+01 a       838     0    34     1    13
 -3.5190625706949796E+00 a       839     0    34     1    14
  3.1686445374392642E+00 a       840     0    34     1    15
 -8.9950962889927215E+00 a       841     0    34     1    16
 -1.1348616089665107E+01 a       842     0    34     1    17
  1.8786988428343798E+00 a       843     0    34     1    18
 -1.8470667986156577E+01 a       844     0    34     1    19
  3.0629865672486125E+00 a       845     0    34     1    20
  1.8766745081797637E+01 a       846     0    34     1    21
 -7.2251726081015049E+00 a       847     0    34     1    22
  1.3152129553403493E+00 a       848     0    34     1    23
  1.9896267740194928E+00 a       849     0    34     1    24
  5.9993511970177815E-01 a       850     0    34     1    25
 -4.2596903296058626E+00 a       851     0    35     1     1
  5.2451739715956620E+00 a       852     0    35     1     2
  2.0209962051407859E+00 a       853     0    35     1     3
 -4.9936866991907749E+00 a       854     0    35     1     4
  1.1562663758274672E+00 a       855     0    35     1     5
 -3.3188955677104475E+00 a       856     0    35     1     6
  2.4850322743179074E+00 a       857     0    35     1     7
 -4.8766899473906324E+00 a       858     0    35     1     8
  2.9793363504760326E+00 a       859     0    35     1     9
  2.2166203891693956E+00 a       860     0    35     1    10
  3.4930092120518386E+00 a       861     0    35     1    11
 -3.6304091130779276E-01 a       862     0    35     1    12
 -7.0373016514062954E+00 a       863     0    35     1    13
 -2.2876642253677573E+00 a       864     0    35     1    14
 -7.0132305773958672E+00 a       865     0    35     1    15
 -2.3821826156555042E+00 a       866     0    35     1    16
 -4.0437272342602499E+00 a       867     0    35     1    17
  2.6866447663349263E-01 a       868     0    35     1    18
 -3.9552152747004308E+00 a       869     0    35     1    19
 -8.7756316382045840E-01 a       870     0    35     1    20
  3.3326662334019543E+00 a       871     0    35     1    21
  3.8970855033607417E+00 a       872     0    35     1    22
 -2.2956323067079518E+00 a       873     0    35     1    23
  4.5599036096441861E+00 a       874     0    35     1    24
 -9.4475176857527454E-01 a       875     0    35     1    25
 -5.3335482389019993E-02 a       876     0    36     1     1
 -8.6511267890635102E-01 a       877     0    36     1     2
 -3.0127788051002230E-01 a       878     0    36     1     3
 -2.3778621805325548E-01 a       879     0    36     1     4
  5.8773187210102695E-01 a       880     0    36     1     5
  1.2505246882341299E+00 a       881     0    36     1     6
 -3.3298091254999734E-01 a       882     0    36     1     7
  9.4535644868940516E-01 a       883     0    36     1     8
 -2.3828242693342314E-02 a       884     0    36     1     9
 -1.2820954221104205E-01 a       885     0    36     1    10
  4.8279321156739430E-01 a       886     0    36     1    11
  9.6390640836253483E-01 a       887     0    36     1    12
  9.2473975656546314E-01 a       888     0    36     1    13
 -3.9794973941312767E-01 a       889     0    36     1    14
 -7.4299373828670767E-01 a       890     0    36     1    15
  7.3313443709006063E-03 a       891     0    36     1    16
  6.6999500420149183E-01 a       892     0    36     1    17
  4.1244009233629514E-01 a       893     0    36     1    18
 -1.0120856629212931E+00 a       894     0    36     1    19
  9.5983083494099497E-01 a       895     0    36     1    20
  1.3208855273799895E+00 a       896     0    36     1    21
 -9.6732712518629227E-01 a       897     0    36     1    22
 -3.2004730473923804E-01 a       898     0    36     1    23
  9.5900870452090392E-01 a       899     0    36     1    24
 -8.0820196590957449E-01 a       900     0    36     1    25
 -5.4363491143535532E+00 a       901     0    37     1     1
  1.9325504495131145E+00 a       902     0    37     1     2
  5.4845277606960086E-01 a       903     0    37     1     3
 -1.4666330947620605E+00 a       904     0    37     1     4
  2.6882341508429608E+00 a       905     0    37     1     5
  2.7408679123187492E+00 a       906     0    37     1     6
  2.3886925214726298E+00 a       907     0    37     1     7
  1.0791768874428087E+00 a       908     0    37     1     8
 -1.8757956968448151E+00 a       909     0    37     1     9
 -1.2683917758154897E+00 a       910     0    37     1    10
  3.5029814796026870E+00 a       911     0    37     1    11
 -2.2901570970371528E+00 a       912     0    37     1    12
  9.7501823689267280E+00 a       913     0    37     1    13
  3.3036709805946187E+00 a       914     0    37     1    14
 -3.4053290482917067E+00 a       915     0    37     1    15
  2.0220519199902207E+00 a       916     0    37     1    16
  4.5110620310856531E+00 a       917     0    37     1    17
  4.9814263899051120E-01 a       918     0    37     1    18
  6.0649632630592327E+00 a       919     0    37     1    19
 -9.1023708108493517E-01 a       920     0    37     1    20
 -7.2143730399651040E-01 a       921     0    37     1    21
 -2.0880979905947972E-01 a       922     0    37     1    22
 -2.4340364463910045E+00 a       923     0    37     1    23
  9.8989165146893798E-01 a       924     0    37     1    24
  1.7762555163618252E+00 a       925     0    37     1    25
  2.3075111730298570E+00 a       926     0    38     1     1
 -2.4573405970825246E+00 a       927     0    38     1     2
 -1.3807727825099692E+00 a       928     0    38     1     3
  2.6458935283756495E+00 a       929     0    38     1     4
  2.3783075869565988E+00 a       930     0    38     1     5
  1.8682727794706724E+00 a       931     0    38     1     6
 -2.9318903205811906E+00 a       932     0    38     1     7
 -1.8350306031911416E+00 a       933     0    38     1     8
 -1.4522795088778515E+00 a       934     0    38     1     9
  4.0319320144369114E-01 a       935     0    38     1    10
 -2.5478959248811255E+00 a       936     0    38     1    11
  1.4487860095404790E+00 a       937     0    38     1    12
  3.6954948335745894E+00 a       938     0    38     1    13
  3.3283533108721536E-02 a       939     0    38     1    14
  2.9692976302316820E+00 a       940     0    38     1    15
  8.0314875542281683E-01 a       941     0    38     1    16
  1.5288978956162408E-01 a       942     0    38     1    17
 -1.2095765617605585E+00 a       943     0    38     1    18
  1.8019826350487504E+00 a       944     0    38     1    19
 -2.4886424690308000E+00 a       945     0    38     1    20
 -2.8351891890029624E+00 a       946     0    38     1    21
 -2.9504469666703956E+00 a       947     0    38     1    22
 -1.8916134252085453E+00 a       948     0    38     1    23
 -4.0727619399917216E+00 a       949     0    38     1    24
  9.5112865741770830E-02 a       950     0    38     1    25
 -9.4932711899393070E+00 a       951     0    39     1     1
 -2.5865420070030559E+01 a       952     0    39     1     2
  1.0940514181220133E+00 a       953     0    39     1     3
 -1.1135986884398154E+01 a       954     0    39     1     4
  1.4394615121600790E+01 a       955     0    39     1     5
  6.3270450559419382E+00 a       956     0    39     1     6
 -5.3041459180161592E+00 a       957     0    39     1     7
 -8.8020583280320697E+00 a       958     0    39     1     8
 -1.1575427124267121E+01 a       959     0    39     1     9
  1.3518028176893539E+01 a       960     0    39     1    10
 -2.4494510127565576E+01 a       961     0    39     1    11
  7.2936169673379281E+00 a       962     0    39     1    12
 -9.3561449825110068E-02 a       963     0    39     1    13
  8.6372791642032141E+00 a       964     0    39     1    14
 -7.8603989757937613E+00 a       965     0    39     1    15
 -3.1159300853527703E+00 a       966     0    39     1    16
  3.6442978112802691E+00 a       967     0    39     1    17
  8.9059384142146425E-01 a       968     0    39     1    18
  3.1149716071327599E-01 a       969     0    39     1    19
  3.2183210354424010E+00 a       970     0    39     1    20
 -1.0756727986445609E+01 a       971     0    39     1    21
  6.7407692325737223E+00 a       972     0    39     1    22
 -1.2384739583571974E-01 a       973     0    39     1    23
 -1.4022452350018243E+01 a       974     0    39     1    24
  2.5788693681139914E+00 a       975     0    39     1    25
  7.5632589944805586E+00 a       976     0    40     1     1
 -1.8546569815711042E+01 a       977     0    40     1     2
 -5.2807614716066842E-01 a       978     0    40     1     3
  8.5334994380668157E+00 a       979     0    40     1     4
  1.1446627886698000E+01 a       980     0    40     1     5
 -6.3380534319364532E+00 a       981     0    40     1     6
 -2.9270111277869024E+01 a       982     0    40     1     7
 -2.7489576879607377E+01 a       983     0    40     1     8
  1.0690789681376318E+01 a       984     0    40     1     9
 -1.4130554969135847E+00 a       985     0    40     1    10
  1.1131629787214281E+00 a       986     0    40     1    11
  1.3616692489300808E+00 a       987     0    40     1    12
  3.3913412283981863E+01 a       988     0    40     1    13
 -1.5852570407587818E+01 a       989     0    40     1    14
  3.4677028655058995E+00 a       990     0    40     1    15
 -1.3561660913863765E+01 a       991     0    40     1    16
  1.0893686947217452E+01 a       992     0    40     1    17
 -1.5570220601390444E+01 a       993     0    40     1    18
  1.1944913431279749E+01 a       994     0    40     1    19
  6.5637807800684325E+00 a       995     0    40     1    20
  6.7787847562565586E+00 a       996     0    40     1    21
 -2.4932243135245479E+01 a       997     0    40     1    22
 -1.0161537011667791E+01 a       998     0    40     1    23
 -8.5990568463731432E+00 a       999     0    40     1    24
 -1.2059566444411955E+01 a      1000     0    40     1    25
  1.8413404847115813E+00 a      1001     0    41     1     1
 -3.8475805628681981E+00 a      1002     0    41     1     2
  5.1211975887907766E+00 a      1003     0    41     1     3
  1.4256904778337207E+01 a      1004     0    41     1     4
  9.2547041875222504E+00 a      1005     0    41     1     5
  3.4042412454122282E+00 a      1006     0    41     1     6
 -1.3023938321847590E+00 a      1007     0    41     1     7
  2.2155886075941492E+01 a      1008     0    41     1     8
 -6.5342131557579792E+00 a      1009     0    41     1     9
 -8.3796684025779893E+00 a      1010     0    41     1    10
 -3.7980303499827855E+01 a      1011     0    41     1    11
  1.6831154032224269E+01 a      1012     0    41     1    12
 -1.4437594604617102E+01 a      1013     0    41     1    13
  1.1733880218469935E+01 a      1014     0    41     1    14
 -6.0025091405998445E+00 a      1015     0    41     1    15
  6.2570145124414003E+00 a      1016     0    41     1    16
  1.0384886414135490E+01 a      1017     0    41     1    17
 -2.5075017967909576E+00 a      1018     0    41     1    18
  1.4273720043226309E+01 a      1019     0    41     1    19
  1.6493280621743104E+01 a      1020     0    41     1    20
  2.6715789648552382E+00 a      1021     0    41     1    21
  5.0401772161378688E+01 a      1022     0    41     1    22
  6.5927033821900602E+00 a      1023     0    41     1    23
  7.3470055379644813E-03 a      1024     0    41     1    24
 -2.5776688656176381E+00 a      1025     0    41     1    25
  8.1499299378570580E+00 a      1026     0    42     1     1
  2.7160248039471171E+01 a      1027     0    42     1     2
 -1.3665983803648619E+01 a      1028     0    42     1     3
  1.6298607669974125E+01 a      1029     0    42     1     4
 -2.7347983443304553E+00 a      1030     0    42     1     5
  3.4405791115615187E+00 a      1031     0    42     1     6
  9.5290398906039560E+00 a      1032     0    42     1     7
  1.5746235064070706E+01 a      1033     0    42     1     8
  1.3661515875595043E-01 a      1034     0    42     1     9
 -1.9967907430067700E+00 a      1035     0    42     1    10
  9.7408007483198471E+00 a      1036     0    42     1    11
 -5.3801202233135770E-01 a      1037     0    42     1    12
 -1.7420124752446229E+00 a      1038     0    42     1    13
  4.8921057506192716E+00 a      1039     0    42     1    14
  3.3890069603618955E+00 a      1040     0    42     1    15
  5.3524119761038538E+00 a      1041     0    42     1    16
  1.2235151986210755E+00 a      1042     0    42     1    17
 -8.1161713690749480E+00 a      1043     0    42     1    18
 -4.1088697737358526E+00 a      1044     0    42     1    19
  1.1105280139337013E+00 a      1045     0    42     1    20
  9.1765114056102863E+00 a      1046     0    42     1    21
  1.0428631169083063E+01 a      1047     0    42     1    22
 -5.9428144005128847E-01 a      1048     0    42     1    23
 -1.2601736825642956E+01 a      1049     0    42     1    24
  1.6219225077264328E+00 a      1050     0    42     1    25
 -3.3057314121706813E+00 a      1051     0    43     1     1
  8.2281961417748306E+00 a      1052     0    43     1     2
 -3.2289451696116420E+00 a      1053     0    43     1     3
 -9.4755447493186047E+00 a      1054     0    43     1     4
  1.9613038420052945E+01 a      1055     0    43     1     5
 -4.9799494146710277E+00 a      1056     0    43     1     6
  2.7825831643051032E+01 a      1057     0    43     1     7
  1.5020036496608514E+01 a      1058     0    43     1     8
 -1.9980279538488926E+01 a      1059     0    43     1     9
  1.7569487144866969E+01 a      1060     0    43     1    10
 -4.6160248047585428E+00 a      1061     0    43     1    11
 -1.2805059476448148E+01 a      1062     0    43     1    12
 -2.4646241796309589E+01 a      1063     0    43     1    13
  2.1264676887200813E+00 a      1064     0    43     1    14
 -1.0004012783518781E+00 a      1065     0    43     1    15
  8.1828613477421470E+00 a      1066     0    43     1    16
  6.5685774941480091E-01 a      1067     0    43     1    17
  9.7570584022876208E+00 a      1068     0    43     1    18
  6.4380345023163266E-01 a      1069     0    43     1    19
 -2.0857037664390443E+01 a      1070     0    43     1    20
  1.2254974802654054E+01 a      1071     0    43     1    21
  7.6052573642248333E+00 a      1072     0    43     1    22
  8.5068571079445903E+00 a      1073     0    43     1    23
  7.4020233693380888E+00 a      1074     0    43     1    24
  3.8243641970702427E+01 a      1075     0    43     1    25
 -9.2261671687193436E-01 a      1076     0    44     1     1
  7.4779131488399706E+00 a      1077     0    44     1     2
  3.3591787892355880E+00 a      1078     0    44     1     3
  6.3836898118954011E+00 a      1079     0    44     1     4
  1.3763510892714936E+00 a      1080     0    44     1     5
 -1.5690857234983710E+01 a      1081     0    44     1     6
 -1.3155659017201073E+01 a      1082     0    44     1     7
 -9.3439234314369397E+00 a      1083     0    44     1     8
 -3.5106779239867230E+00 a      1084     0    44     1     9
  2.0502336951879734E+01 a      1085     0    44     1    10
  2.8134145458798447E+01 a      1086     0    44     1    11
  5.0103560986515054E+00 a      1087     0    44     1    12
  9.1609116945819693E+00 a      1088     0    44     1    13
 -1.4582196045768388E+01 a      1089     0    44     1    14
  7.3498378987018818E+00 a      1090     0    44     1    15
  3.7626360542823245E+00 a      1091     0    44     1    16
 -2.6890965192431729E+01 a      1092     0    44     1    17
 -5.1871401138603057E-01 a      1093     0    44     1    18
 -1.7993778061189868E+01 a      1094     0    44     1    19
 -2.1381697460215616E+01 a      1095     0    44     1    20
 -1.1615096040450485E+01 a      1096     0    44     1    21
 -2.9833245000603117E+01 a      1097     0    44     1    22
 -8.5131177845265533E+00 a      1098     0    44     1    23
 -2.6818678537988578E+01 a      1099     0    44     1    24
 -5.5455413661371811E-01 a      1100     0    44     1    25
  3.8209028166262127E+00 a      1101     0    45     1     1
  4.7511451368349666E+00 a      1102     0    45     1     2
  1.3267712069482267E+00 a      1103     0    45     1     3
 -2.3901093611205910E+00 a      1104     0    45     1     4
 -3.1415093784632755E+00 a      1105     0    45     1     5
 -6.8371955538323155E+00 a      1106     0    45     1     6
  5.9872017765930128E+00 a      1107     0    45     1     7
  4.3614971911359870E+00 a      1108     0    45     1     8
  5.8321575793036429E+00 a      1109     0    45     1     9
 -4.4987996579219791E+00 a      1110     0    45     1    10
  8.1020014531262130E-01 a      1111     0    45     1    11
  1.7555431491578526E+00 a      1112     0    45     1    12
  4.2146910055944895E+00 a      1113     0    45     1    13
 -4.4957829075279332E-01 a      1114     0    45     1    14
  4.2987744631208580E+00 a      1115     0    45     1    15
  1.5694572617945464E+00 a      1116     0    45     1    16
 -6.3785705923966782E+00 a      1117     0    45     1    17
 -2.0083542093010460E+00 a      1118     0    45     1    18
 -4.1444728985860078E+00 a      1119     0    45     1    19
  5.8794999997268151E+00 a      1120     0    45     1    20
  4.3497208260966307E+00 a      1121     0    45     1    21
 -5.5606378105144205E-01 a      1122     0    45     1    22
 -6.1548672171553420E+00 a      1123     0    45     1    23
  6.6048069642658742E+00 a      1124     0    45     1    24
 -3.1621087869072668E+00 a      1125     0    45     1    25
 -3.0513278391261867E-01 a      1126     0    46     1     1
  1.6126645206097532E+01 a      1127     0    46     1     2
 -1.0932095048270975E+01 a      1128     0    46     1     3
  6.9866506106279598E+00 a      1129     0    46     1     4
 -7.8051603859388763E+00 a      1130     0    46     1     5
  8.9379012133811486E-01 a      1131     0    46     1     6
  1.2931301131716559E+01 a      1132     0    46     1     7
  1.3070581370970940E+01 a      1133     0    46     1     8
  2.1328447586623303E+00 a      1134     0    46     1     9
 -7.1547491950691509E+00 a      1135     0    46     1    10
  5.2635855469281427E+00 a      1136     0    46     1    11
 -9.7965121001891953E-01 a      1137     0    46     1    12
 -8.8662557963287778E+00 a      1138     0    46     1    13
  1.0878474619604814E+00 a      1139     0    46     1    14
 -4.2084041689269185E+00 a      1140     0    46     1    15
  1.0009866071285551E+01 a      1141     0    46     1    16
  5.1900601595298135E-01 a      1142     0    46     1    17
  1.4511936008045356E-01 a      1143     0    46     1    18
 -8.3551844309419909E+00 a      1144     0    46     1    19
 -2.7976186182630101E+00 a      1145     0    46     1    20
  1.3435843750548059E+01 a      1146     0    46     1    21
  1.9345585098685079E+00 a      1147     0    46     1    22
  5.9054791107330684E-01 a      1148     0    46     1    23
  1.9864013010548867E+00 a      1149     0    46     1    24
  1.3572575773178723E+00 a      1150     0    46     1    25
  9.0919495207902412E-01 a      1151     0    47     1     1
  7.9450062839496005E-01 a      1152     0    47     1     2
 -2.1679438237936060E+00 a      1153     0    47     1     3
 -1.2684771158711163E+01 a      1154     0    47     1     4
 -5.0942136940348814E-01 a      1155     0    47     1     5
  1.7013851765690988E+00 a      1156     0    47     1     6
  5.9304632145418825E+00 a      1157     0    47     1     7
 -8.7647183616464197E+00 a      1158     0    47     1     8
  8.5800280358925296E-01 a      1159     0    47     1     9
  1.2821322404558705E-01 a      1160     0    47     1    10
 -3.9727863023022012E+00 a      1161     0    47     1    11
 -7.8528043442152518E+00 a      1162     0    47     1    12
  3.1805310186744280E+00 a      1163     0    47     1    13
 -2.5502536244952863E+00 a      1164     0    47     1    14
  1.9669913397956507E+00 a      1165     0    47     1    15
 -1.4837944407398429E+00 a      1166     0    47     1    16
  7.4903610518038521E-01 a      1167     0    47     1    17
  5.0950187731358410E-01 a      1168     0    47     1    18
 -2.9059196497160804E+00 a      1169     0    47     1    19
 -4.1850233459130592E+00 a      1170     0    47     1    20
  6.8924967541464675E+00 a      1171     0    47     1    21
 -1.7175477676724132E+01 a      1172     0    47     1    22
  2.1983974645248856E+00 a      1173     0    47     1    23
  6.6669992915359488E+00 a      1174     0    47     1    24
  4.2964049317219466E-01 a      1175     0    47     1    25
 -4.0509350846237047E-01 a      1176     0    48     1     1
 -5.5499659891252948E+00 a      1177     0    48     1     2
  5.1171641820943625E+00 a      1178     0    48     1     3
 -4.9862734821715238E+00 a      1179     0    48     1     4
 -3.0341320830847125E+00 a      1180     0    48     1     5
 -2.1135859908318735E+00 a      1181     0    48     1     6
 -5.2836899883640021E+00 a      1182     0    48     1     7
 -9.8757000800898354E+00 a      1183     0    48     1     8
  1.4881019754023055E+00 a      1184     0    48     1     9
 -4.6619287387889399E+00 a      1185     0    48     1    10
 -2.9345257408171124E+00 a      1186     0    48     1    11
  1.3340566181969180E+00 a      1187     0    48     1    12
  2.9182308231166241E+00 a      1188     0    48     1    13
 -1.6554015016503429E+00 a      1189     0    48     1    14
  2.4822877957073768E+00 a      1190     0    48     1    15
 -5.3500310624744856E+00 a      1191     0    48     1    16
  7.4974604674772372E-01 a      1192     0    48     1    17
  1.7269352611206550E+00 a      1193     0    48     1    18
  5.3224582273605436E-01 a      1194     0    48     1    19
 -6.1138321078265117E+00 a      1195     0    48     1    20
 -5.3832646706150831E+00 a      1196     0    48     1    21
 -1.0248739680878774E+01 a      1197     0    48     1    22
  2.1536736335270650E+00 a      1198     0    48     1    23
  1.2637163430754065E+01 a      1199     0    48     1    24
 -6.9872104195848435E+00 a      1200     0    48     1    25
 -3.2933751829976345E+00 a      1201     0    49     1     1
 -1.1331686078526250E+01 a      1202     0    49     1     2
  1.0820123786958398E+01 a      1203     0    49     1     3
 -2.6365177917907934E+00 a      1204     0    49     1     4
 -2.7207242235868346E+01 a      1205     0    49     1     5
  1.3962052048206410E+00 a      1206     0    49     1     6
 -1.3312912748235300E+01 a      1207     0    49     1     7
 -9.3545301985826370E+00 a      1208     0    49     1     8
  1.2855821681519597E+01 a      1209     0    49     1     9
 -1.8207806968855291E+01 a      1210     0    49     1    10
  1.3520931058412359E+01 a      1211     0    49     1    11
  1.7418380725409390E+00 a      1212     0    49     1    12
  1.4548405860423886E+01 a      1213     0    49     1    13
 -8.1018716296367616E-02 a      1214     0    49     1    14
  2.3940234792021675E+00 a      1215     0    49     1    15
 -5.3357218760736274E+00 a      1216     0    49     1    16
 -4.9571925967816153E+00 a      1217     0    49     1    17
  6.1963802973082425E+00 a      1218     0    49     1    18
  6.9969342137167487E+00 a      1219     0    49     1    19
  2.1437673094103367E+01 a      1220     0    49     1    20
  4.3690211549155555E-01 a      1221     0    49     1    21
  2.2250728073374553E+01 a      1222     0    49     1    22
  2.6594132145717704E+00 a      1223     0    49     1    23
  8.7518447591132844E+00 a      1224     0    49     1    24
 -1.8985461148218622E+01 a      1225     0    49     1    25
 -1.1938182887396585E+00 a      1226     0    50     1     1
 -2.2631123620156517E+00 a      1227     0    50     1     2
 -5.5077419790229403E+00 a      1228     0    50     1     3
 -1.1923773025948228E+00 a      1229     0    50     1     4
  1.4607124235179438E+00 a      1230     0    50     1     5
  6.6148696381605481E+00 a      1231     0    50     1     6
  7.9393607755884013E+00 a      1232     0    50     1     7
 -1.1308552151889197E+01 a      1233     0    50     1     8
  5.0040918296584644E+00 a      1234     0    50     1     9
 -1.3919665772141933E+01 a      1235     0    50     1    10
  2.3003878776094400E+00 a      1236     0    50     1    11
 -8.3467244113538772E+00 a      1237     0    50     1    12
  1.3024019907072895E+00 a      1238     0    50     1    13
  7.5944733675593890E+00 a      1239     0    50     1    14
 -4.1547847239325266E+00 a      1240     0    50     1    15
 -2.9424641304225219E+00 a      1241     0    50     1    16
  9.2084468998340121E+00 a      1242     0    50     1    17
 -4.6926858296506015E+00 a      1243     0    50     1    18
  1.4121208998038608E+01 a      1244     0    50     1    19
  9.4393643175339790E+00 a      1245     0    50     1    20
 -8.9692473225910287E+00 a      1246     0    50     1    21
  6.1157796270669555E+00 a      1247     0    50     1    22
 -2.9875220520675541E+00 a      1248     0    50     1    23
  1.6254589788986035E+01 a      1249     0    50     1    24
  8.9690309065560092E-01 a      1250     0    50     1    25
  9.6105131863380855E+00 a      1251     0    51     1     1
  2.7689778295427356E+01 a      1252     0    51     1     2
  2.6200398409674852E+00 a      1253     0    51     1     3
  1.3097303121065684E+01 a      1254     0    51     1     4
 -1.4943234930128652E+01 a      1255     0    51     1     5
 -5.4405034677215927E+00 a      1256     0    51     1     6
  6.5401863613749232E+00 a      1257     0    51     1     7
  7.6503618161079041E+00 a      1258     0    51     1     8
  1.1506738497760962E+01 a      1259     0    51     1     9
 -1.3976111920179756E+01 a      1260     0    51     1    10
  2.1132644111955930E+01 a      1261     0    51     1    11
 -4.2559659392900464E+00 a      1262     0    51     1    12
 -8.1424810938970882E-01 a      1263     0    51     1    13
 -6.9963310827623255E+00 a      1264     0    51     1    14
  6.7918740386003744E+00 a      1265     0    51     1    15
  3.9085298716819699E+00 a      1266     0    51     1    16
 -1.8398978590883328E+00 a      1267     0    51     1    17
 -2.6324557083062450E+00 a      1268     0    51     1    18
  1.6274531922316791E-02 a      1269     0    51     1    19
 -3.9739240028317222E+00 a      1270     0    51     1    20
  1.1674851289319792E+01 a      1271     0    51     1    21
 -3.5801396443012465E+00 a      1272     0    51     1    22
  1.7648265950098811E+00 a      1273     0    51     1    23
  1.3356464172712734E+01 a      1274     0    51     1    24
 -1.7051498758447070E+00 a      1275     0    51     1    25
 -7.7438756710696355E+00 a      1276     0    52     1     1
  2.1539055952127743E+01 a      1277     0    52     1     2
  3.3632592811914663E+00 a      1278     0    52     1     3
 -3.9943626797354979E+00 a      1279     0    52     1     4
 -1.3890621516939602E+01 a      1280     0    52     1     5
  6.6045266496257176E+00 a      1281     0    52     1     6
  2.8436080690482871E+01 a      1282     0    52     1     7
  3.3271704376566447E+01 a      1283     0    52     1     8
 -1.3000408577658840E+01 a      1284     0    52     1     9
  1.8758030742304983E+00 a      1285     0    52     1    10
 -9.5817667359988334E+00 a      1286     0    52     1    11
 -1.3639384754814712E+00 a      1287     0    52     1    12
 -4.0038557161396028E+01 a      1288     0    52     1    13
  1.2906956553664891E+01 a      1289     0    52     1    14
 -2.5846771677170697E+00 a      1290     0    52     1    15
  1.5965220356756852E+01 a      1291     0    52     1    16
 -1.2267636832378544E+01 a      1292     0    52     1    17
  2.0454003230258980E+01 a      1293     0    52     1    18
 -1.5283509075029265E+01 a      1294     0    52     1    19
 -4.6584391319767224E+00 a      1295     0    52     1    20
 -2.6878265107231627E+00 a      1296     0    52     1    21
  3.0476671983890050E+01 a      1297     0    52     1    22
  1.1864516758652064E+01 a      1298     0    52     1    23
  1.1429246080062891E+01 a      1299     0    52     1    24
  1.3715522515341812E+01 a      1300     0    52     1    25
 -1.9366690471064814E+00 a      1301     0    53     1     1
  3.3105401327689661E+00 a      1302     0    53     1     2
 -8.3160089446002896E+00 a      1303     0    53     1     3
 -5.7580393080026733E+00 a      1304     0    53     1     4
 -1.1850262550845583E+01 a      1305     0    53     1     5
 -5.2265393042289903E+00 a      1306     0    53     1     6
 -8.9919181870006570E-01 a      1307     0    53     1     7
 -2.1917596537588771E+01 a      1308     0    53     1     8
  7.1161910596040281E+00 a      1309     0    53     1     9
  1.0668718383933051E+01 a      1310     0    53     1    10
  3.9520611780080934E+01 a      1311     0    53     1    11
 -2.0670186472763511E+01 a      1312     0    53     1    12
  1.3262195777101555E+01 a      1313     0    53     1    13
 -1.2034757606962751E+01 a      1314     0    53     1    14
  6.4653703681054111E+00 a      1315     0    53     1    15
 -9.1737669490968781E+00 a      1316     0    53     1    16
 -1.1989819930081634E+01 a      1317     0    53     1    17
 -8.1547097013957104E-01 a      1318     0    53     1    18
 -1.6360578383275158E+01 a      1319     0    53     1    19
 -2.0263686383040216E+01 a      1320     0    53     1    20
 -3.7526897952017189E+00 a      1321     0    53     1    21
 -4.9668321280597837E+01 a      1322     0    53     1    22
 -9.6046863719618880E+00 a      1323     0    53     1    23
 -2.6061491411087809E+00 a      1324     0    53     1    24
  7.6852337512250768E-01 a      1325     0    53     1    25
 -7.1004203056299700E+00 a      1326     0    54     1     1
 -3.0038103823718206E+01 a      1327     0    54     1     2
  1.2517227055054065E+01 a      1328     0    54     1     3
 -1.7779113491384528E+01 a      1329     0    54     1     4
  3.8525771225158985E+00 a      1330     0    54     1     5
 -5.9733020818480913E+00 a      1331     0    54     1     6
 -1.2069797196800609E+01 a      1332     0    54     1     7
 -1.4649887821546132E+01 a      1333     0    54     1     8
  2.7965113405337685E+00 a      1334     0    54     1     9
  1.4657424006658863E+00 a      1335     0    54     1    10
 -5.6960259343528392E+00 a      1336     0    54     1    11
  9.2137713696437640E-01 a      1337     0    54     1    12
  1.6876676553595067E+00 a      1338     0    54     1    13
 -5.3303697464961104E+00 a      1339     0    54     1    14
 -2.0069385806480695E+00 a      1340     0    54     1    15
 -8.0344268540730432E+00 a      1341     0    54     1    16
 -2.6846759868028856E+00 a      1342     0    54     1    17
  1.2057761330506901E+01 a      1343     0    54     1    18
  3.8728664654050173E+00 a      1344     0    54     1    19
 -4.4455705590008057E+00 a      1345     0    54     1    20
 -9.6828839461871681E+00 a      1346     0    54     1    21
 -1.2901213606776285E+01 a      1347     0    54     1    22
 -1.5646923012321703E+00 a      1348     0    54     1    23
  1.7245632152962305E+01 a      1349     0    54     1    24
 -3.1900821938901447E+00 a      1350     0    54     1    25
  3.5307861095405613E-01 a      1351     0    55     1     1
 -1.1143075875847863E+01 a      1352     0    55     1     2
 -7.7304654131263195E-01 a      1353     0    55     1     3
  1.9183767391078850E+00 a      1354     0    55     1     4
 -2.0223138645524603E+01 a      1355     0    55     1     5
  1.2248950066999791E+01 a      1356     0    55     1     6
 -3.0423304521081338E+01 a      1357     0    55     1     7
 -2.7671085743657002E+01 a      1358     0    55     1     8
  1.9729564852280234E+01 a      1359     0    55     1     9
 -1.8364509655952510E+01 a      1360     0    55     1    10
  2.2471733720604014E+01 a      1361     0    55     1    11
  1.0506679977089831E+01 a      1362     0    55     1    12
  2.5871884444832979E+01 a      1363     0    55     1    13
  2.3911991358995741E+00 a      1364     0    55     1    14
 -9.0478494752366023E-01 a      1365     0    55     1    15
 -7.0553705688072199E+00 a      1366     0    55     1    16
 -5.9332933512839716E+00 a      1367     0    55     1    17
 -9.7560890806918774E+00 a      1368     0    55     1    18
 -1.0307457867768948E+00 a      1369     0    55     1    19
  2.2652884901175085E+01 a      1370     0    55     1    20
 -2.4268551585764463E+01 a      1371     0    55     1    21
 -1.8040488047702038E+01 a      1372     0    55     1    22
 -9.0394518616861621E+00 a      1373     0    55     1    23
 -7.4145662226211710E+00 a      1374     0    55     1    24
 -4.4323259830889604E+01 a      1375     0    55     1    25
  9.4032454643968810E-01 a      1376     0    56     1     1
 -5.1158187522903891E+00 a      1377     0    56     1     2
 -1.6606407819158484E+00 a      1378     0    56     1     3
 -1.6032319826182363E+01 a      1379     0    56     1     4
 -8.4211924112022674E-01 a      1380     0    56     1     5
  1.8327351991052300E+01 a      1381     0    56     1     6
  1.5057805575122060E+01 a      1382     0    56     1     7
  7.6128530541248649E+00 a      1383     0    56     1     8
  2.4061419296477422E+00 a      1384     0    56     1     9
 -2.6323905973135538E+01 a      1385     0    56     1    10
 -2.7079772568412274E+01 a      1386     0    56     1    11
  2.4307406622575618E+00 a      1387     0    56     1    12
 -6.3665209492061363E+00 a      1388     0    56     1    13
  1.7482486999202418E+01 a      1389     0    56     1    14
 -7.9419878235671302E+00 a      1390     0    56     1    15
 -5.8412253984968574E+00 a      1391     0    56     1    16
  2.8810930785875470E+01 a      1392     0    56     1    17
  3.0042139976003783E+00 a      1393     0    56     1    18
  1.6456587433985259E+01 a      1394     0    56     1    19
  2.8124055934552047E+01 a      1395     0    56     1    20
  6.4572346808887131E+00 a      1396     0    56     1    21
  2.5862423515022833E+01 a      1397     0    56     1    22
  9.0998380601539068E+00 a      1398     0    56     1    23
  3.3677763251485381E+01 a      1399     0    56     1    24
  6.2348141998467788E-01 a      1400     0    56     1    25
 -3.9525306577027810E+00 a      1401     0    57     1     1
 -4.6320570930312028E+00 a      1402     0    57     1     2
 -1.9323710078886147E+00 a      1403     0    57     1     3
  2.7914013211236708E+00 a      1404     0    57     1     4
  2.9504446359343590E+00 a      1405     0    57     1     5
  6.0017459019749664E+00 a      1406     0    57     1     6
 -6.8271523121308908E+00 a      1407     0    57     1     7
 -3.2902632207239009E+00 a      1408     0    57     1     8
 -5.3892993889404899E+00 a      1409     0    57     1     9
  4.2438119553470139E+00 a      1410     0    57     1    10
  9.9227470936148665E-01 a      1411     0    57     1    11
 -2.8225051310388372E+00 a      1412     0    57     1    12
 -5.1059738486087429E+00 a      1413     0    57     1    13
 -3.6469845628761949E-01 a      1414     0    57     1    14
 -4.3735256428027762E+00 a      1415     0    57     1    15
 -1.3642825165282304E+00 a      1416     0    57     1    16
  6.5134358657513838E+00 a      1417     0    57     1    17
  2.8285852132778446E+00 a      1418     0    57     1    18
  4.3866564303785740E+00 a      1419     0    57     1    19
 -5.6975735806102845E+00 a      1420     0    57     1    20
 -6.1772516216693827E+00 a      1421     0    57     1    21
  2.1352096022063130E-01 a      1422     0    57     1    22
  6.3534385941436655E+00 a      1423     0    57     1    23
 -6.3424459392147972E+00 a      1424     0    57     1    24
  2.5965324998530632E+00 a      1425     0    57     1    25
 -2.7498728384586790E-02 a      1426     0    58     1     1
 -1.8371839008100089E+01 a      1427     0    58     1     2
  1.1722706120167212E+01 a      1428     0    58     1     3
 -9.9672282391378211E+00 a      1429     0    58     1     4
  7.9101731822020405E+00 a      1430     0    58     1     5
 -5.6588630071407342E-01 a      1431     0    58     1     6
 -1.1870384858568727E+01 a      1432     0    58     1     7
 -1.3863072979720794E+01 a      1433     0    58     1     8
 -2.8178374954469114E+00 a      1434     0    58     1     9
  7.8484451271645570E+00 a      1435     0    58     1    10
 -4.8223799008496337E+00 a      1436     0    58     1    11
  4.3149421156245865E-01 a      1437     0    58     1    12
  9.2061110444668870E+00 a      1438     0    58     1    13
  1.1647397407178337E+00 a      1439     0    58     1    14
  4.9037565263251004E+00 a      1440     0    58     1    15
 -1.1770421018145360E+01 a      1441     0    58     1    16
 -8.1341126002278930E-01 a      1442     0    58     1    17
 -1.4008776116517034E+00 a      1443     0    58     1    18
  1.0814421379793307E+01 a      1444     0    58     1    19
  1.5346214096911162E+00 a      1445     0    58     1    20
 -1.8156289594823026E+01 a      1446     0    58     1    21
 -3.0704773734910105E+00 a      1447     0    58     1    22
  3.4992829407252002E-01 a      1448     0    58     1    23
 -4.7704581515000015E+00 a      1449     0    58     1    24
 -1.4179951555878838E+00 a      1450     0    58     1    25
 -7.5618982194938267E-01 a      1451     0    59     1     1
 -8.9957043188651598E-01 a      1452     0    59     1     2
  2.1068459219720190E+00 a      1453     0    59     1     3
  1.0199501783600070E+01 a      1454     0    59     1     4
  1.3908938421155741E+00 a      1455     0    59     1     5
 -1.2427152330829669E+00 a      1456     0    59     1     6
 -5.1516321382217747E+00 a      1457     0    59     1     7
  8.9631960888875408E+00 a      1458     0    59     1     8
 -5.0734133220787947E-01 a      1459     0    59     1     9
 -2.6314211248872177E-01 a      1460     0    59     1    10
  4.3544102734491084E+00 a      1461     0    59     1    11
  9.1173126819113381E+00 a      1462     0    59     1    12
 -4.7932258910904473E+00 a      1463     0    59     1    13
  2.6665193062621064E+00 a      1464     0    59     1    14
 -1.7111269619222462E+00 a      1465     0    59     1    15
  2.6689373074831204E+00 a      1466     0    59     1    16
 -3.8742041298418234E-01 a      1467     0    59     1    17
  2.1132248366322309E-01 a      1468     0    59     1    18
  2.4776886041192467E+00 a      1469     0    59     1    19
  4.7974713641682643E+00 a      1470     0    59     1    20
 -8.1133388141876672E+00 a      1471     0    59     1    21
  1.5545236519595765E+01 a      1472     0    59     1    22
 -2.0745413552700143E+00 a      1473     0    59     1    23
 -6.2823380995660107E+00 a      1474     0    59     1    24
 -3.5762893465040822E-02 a      1475     0    59     1    25
 -7.4689126978965115E-01 a      1476     0    60     1     1
  4.6180342341622831E+00 a      1477     0    60     1     2
 -2.3050890911521278E+00 a      1478     0    60     1     3
  3.7096913948910046E+00 a      1479     0    60     1     4
  2.5738154497861516E+00 a      1480     0    60     1     5
  1.9105189105910230E+00 a      1481     0    60     1     6
  5.5780376095314104E+00 a      1482     0    60     1     7
  1.0416713713078064E+01 a      1483     0    60     1     8
 -2.2239923905946162E+00 a      1484     0    60     1     9
  4.4700840256306646E+00 a      1485     0    60     1    10
  2.4213772439307708E+00 a      1486     0    60     1    11
 -1.7068131623478684E+00 a      1487     0    60     1    12
 -6.6523443891703291E+00 a      1488     0    60     1    13
  1.2622607687462817E+00 a      1489     0    60     1    14
 -3.2848042996094287E+00 a      1490     0    60     1    15
  3.0560943537154479E+00 a      1491     0    60     1    16
 -1.6059968991487003E-01 a      1492     0    60     1    17
  4.0588250570986389E-01 a      1493     0    60     1    18
 -3.0647514874691395E-01 a      1494     0    60     1    19
  8.6178922011245760E+00 a      1495     0    60     1    20
  2.3341046875839977E+00 a      1496     0    60     1    21
  9.2966863836522737E+00 a      1497     0    60     1    22
 -9.1453225602047461E-01 a      1498     0    60     1    23
 -1.2574437425420848E+01 a      1499     0    60     1    24
  6.8265149522601565E+00 a      1500     0    60     1    25
  4.9396561434548447E+00 a      1501     0    61     1     1
  1.2664242827402481E+01 a      1502     0    61     1     2
 -3.7641370857467633E+00 a      1503     0    61     1     3
  5.1047299246291278E+00 a      1504     0    61     1     4
  2.1839738894257351E+01 a      1505     0    61     1     5
 -3.1342408769781716E+00 a      1506     0    61     1     6
  8.0499183739117743E+00 a      1507     0    61     1     7
  1.2999494153268568E+01 a      1508     0    61     1     8
 -1.1346292979333851E+01 a      1509     0    61     1     9
  2.0300267292648844E+01 a      1510     0    61     1    10
 -2.2231294248118623E+01 a      1511     0    61     1    11
 -2.2373485034098581E+00 a      1512     0    61     1    12
 -1.0095041140347611E+01 a      1513     0    61     1    13
 -5.0613249375249323E+00 a      1514     0    61     1    14
  2.0915662702614823E-01 a      1515     0    61     1    15
  2.3006780167811725E+00 a      1516     0    61     1    16
  5.9470474565568923E+00 a      1517     0    61     1    17
 -5.0077661803999627E+00 a      1518     0    61     1    18
 -8.9308513721236498E+00 a      1519     0    61     1    19
 -1.8935523941336374E+01 a      1520     0    61     1    20
 -5.3250823432913927E+00 a      1521     0    61     1    21
 -2.1239239816536081E+01 a      1522     0    61     1    22
 -2.2333748048995199E+00 a      1523     0    61     1    23
 -1.1170900809273132E+01 a      1524     0    61     1    24
  2.1436115803185050E+01 a      1525     0    61     1    25
  1.1738491926341466E+00 a      1526     0    62     1     1
  1.8304985983887259E+00 a      1527     0    62     1     2
  2.5838200624369558E+00 a      1528     0    62     1     3
  3.0912038883972364E+00 a      1529     0    62     1     4
 -9.0264284091995446E+00 a      1530     0    62     1     5
 -5.6063023633050229E+00 a      1531     0    62     1     6
 -2.1686478519427830E+00 a      1532     0    62     1     7
  1.1725454247236438E+01 a      1533     0    62     1     8
 -4.8950496767411575E+00 a      1534     0    62     1     9
  1.4705571366142731E+01 a      1535     0    62     1    10
  2.6927385311684321E-01 a      1536     0    62     1    11
  5.3476017047864692E+00 a      1537     0    62     1    12
 -2.6017350490744975E+00 a      1538     0    62     1    13
 -7.6635587976882507E+00 a      1539     0    62     1    14
  3.6854999137387829E+00 a      1540     0    62     1    15
  4.6109520525948150E-01 a      1541     0    62     1    16
 -3.3264389827645950E+00 a      1542     0    62     1    17
  4.6704206769761125E+00 a      1543     0    62     1    18
 -1.2210836621506008E+01 a      1544     0    62     1    19
 -1.2301263036663121E+01 a      1545     0    62     1    20
  1.3072520735699596E+01 a      1546     0    62     1    21
 -5.9711939931615934E+00 a      1547     0    62     1    22
  4.6696118375626448E+00 a      1548     0    62     1    23
 -1.6408467376914107E+01 a      1549     0    62     1    24
 -8.7372021091410479E-01 a      1550     0    62     1    25
 -5.8640426516789379E-01 a      1551     0    63     1     1
 -2.6790614659502689E+00 a      1552     0    63     1     2
 -6.7341801977131810E-01 a      1553     0    63     1     3
 -3.0282811531430269E+00 a      1554     0    63     1     4
  2.0277691650845653E+00 a      1555     0    63     1     5
  3.8202676133635621E-01 a      1556     0    63     1     6
  1.1222166241966540E+00 a      1557     0    63     1     7
 -5.1745668995764438E-01 a      1558     0    63     1     8
 -1.7958011342487784E-01 a      1559     0    63     1     9
  9.0988003753193691E-01 a      1560     0    63     1    10
 -5.8448366322653857E+00 a      1561     0    63     1    11
  1.9758385476348512E+00 a      1562     0    63     1    12
  5.0167949801574929E+00 a      1563     0    63     1    13
  1.5994830748333406E+00 a      1564     0    63     1    14
  6.7763933902059958E-01 a      1565     0    63     1    15
 -1.4256049806450024E+00 a      1566     0    63     1    16
 -4.6489935364718757E+00 a      1567     0    63     1    17
  1.7423104669438094E-01 a      1568     0    63     1    18
  2.4284060803283228E-01 a      1569     0    63     1    19
  8.3627290164466472E-01 a      1570     0    63     1    20
 -1.0611700305483793E+00 a      1571     0    63     1    21
  1.2410220807856815E+00 a      1572     0    63     1    22
 -4.5944318868304128E+00 a      1573     0    63     1    23
  7.4855578173673143E-01 a      1574     0    63     1    24
 -1.2849628063935774E+00 a      1575     0    63     1    25
  3.7142269136314270E+00 a      1576     0    64     1     1
 -3.1823733574854161E+00 a      1577     0    64     1     2
 -1.4979028385337793E+01 a      1578     0    64     1     3
 -2.2361677661380241E+00 a      1579     0    64     1     4
  5.5869562730831763E+00 a      1580     0    64     1     5
  4.5050011636613913E-01 a      1581     0    64     1     6
  1.0989524464953648E+00 a      1582     0    64     1     7
 -1.2462682265783604E+01 a      1583     0    64     1     8
  4.1828736184139270E+00 a      1584     0    64     1     9
 -6.0261266229706312E-01 a      1585     0    64     1    10
  3.4113958608737156E+00 a      1586     0    64     1    11
 -2.7490677267298320E+00 a      1587     0    64     1    12
  1.3153069179330810E+01 a      1588     0    64     1    13
 -1.6831753407194605E+00 a      1589     0    64     1    14
  4.6834201319964341E-01 a      1590     0    64     1    15
 -2.0913992677014983E+00 a      1591     0    64     1    16
  4.1849240517462123E+00 a      1592     0    64     1    17
 -1.0515259611775962E+01 a      1593     0    64     1    18
 -5.6892952389514972E-02 a      1594     0    64     1    19
 -4.0530526279158261E+00 a      1595     0    64     1    20
  1.1629755974755067E+01 a      1596     0    64     1    21
 -1.6082616328012190E+01 a      1597     0    64     1    22
 -2.6278803875215478E-01 a      1598     0    64     1    23
 -3.1590279559899783E+00 a      1599     0    64     1    24
 -3.4246694517289131E+00 a      1600     0    64     1    25
  5.7180797442048570E-01 a      1601     0    65     1     1
  1.2960139934628900E+00 a      1602     0    65     1     2
 -2.9023978127073726E+00 a      1603     0    65     1     3
 -5.8905937134012287E+00 a      1604     0    65     1     4
  8.8861476208196812E+00 a      1605     0    65     1     5
  1.0742079868165686E+00 a      1606     0    65     1     6
 -5.4300348241479079E-01 a      1607     0    65     1     7
 -8.6937084267490849E-01 a      1608     0    65     1     8
 -5.3739774954540243E-01 a      1609     0    65     1     9
 -3.1022125036696515E+00 a      1610     0    65     1    10
 -8.1752794804945628E-01 a      1611     0    65     1    11
  7.0445850481386385E+00 a      1612     0    65     1    12
  1.8779906155988035E+00 a      1613     0    65     1    13
 -5.1392884307277118E-03 a      1614     0    65     1    14
 -2.1587553720119614E+00 a      1615     0    65     1    15
 -8.4137163966830819E-01 a      1616     0    65     1    16
  4.1585346541776556E+00 a      1617     0    65     1    17
  7.4317808115376294E-01 a      1618     0    65     1    18
  3.0948051388810764E+00 a      1619     0    65     1    19
  5.2389649963953842E+00 a      1620     0    65     1    20
  2.5140499142825221E+00 a      1621     0    65     1    21
  6.8554135131278198E+00 a      1622     0    65     1    22
  7.8184945627951086E-01 a      1623     0    65     1    23
