################################################################################
# Neural network connection values (weights and biases).
################################################################################
# Col  Name       Description
################################################################################
# 1    connection Neural network connection value.
# 2    t          Connection type (a = weight, b = bias).
# 3    index      Index enumerating weights.
# 4    l_s        Starting point layer (end point layer for biases).
# 5    n_s        Starting point neuron in starting layer (end point neuron for biases).
# 6    l_e        End point layer.
# 7    n_e        End point neuron in end layer.
################################################################################
#                      1 2         3     4     5     6     7
#             connection t     index   l_s   n_s   l_e   n_e
############################################################
 -9.1143913304911983E+00 a         1     0     1     1     1
  7.1337760328721667E-01 a         2     0     1     1     2
 -5.7748613150534407E+00 a         3     0     1     1     3
  1.0850639783007801E+00 a         4     0     1     1     4
 -1.0260659816523784E+01 a         5     0     1     1     5
 -1.2811971318150503E+00 a         6     0     1     1     6
  5.5886913912483056E+00 a         7     0     1     1     7
 -7.9388405531724819E+00 a         8     0     1     1     8
  1.1262820481786660E+01 a         9     0     1     1     9
  8.9443626756653529E+00 a        10     0     1     1    10
  3.1675484182177822E+00 a        11     0     1     1    11
 -2.6141155104283254E+01 a        12     0     1     1    12
 -6.0500623843897596E+00 a        13     0     1     1    13
  1.8946982199503002E+00 a        14     0     1     1    14
  1.2578839877176113E+01 a        15     0     1     1    15
  7.3769307178107457E-01 a        16     0     1     1    16
  8.4234881165673485E+00 a        17     0     1     1    17
  2.7820635048589720E-01 a        18     0     1     1    18
 -6.5776118717549688E+00 a        19     0     1     1    19
  2.5833138711474435E+00 a        20     0     1     1    20
  6.6472423084087078E+00 a        21     0     1     1    21
  2.0253727900732130E+00 a        22     0     1     1    22
  1.5709370986391862E+00 a        23     0     1     1    23
 -1.8747709266736472E+00 a        24     0     1     1    24
 -1.9234262413744815E+01 a        25     0     1     1    25
  1.2694021167495222E+01 a        26     0     2     1     1
 -9.8516927111118910E+00 a        27     0     2     1     2
  7.4521111471876909E+00 a        28     0     2     1     3
  1.1814112100017807E+01 a        29     0     2     1     4
  1.2651166432245091E+01 a        30     0     2     1     5
  1.7163065578207994E+00 a        31     0     2     1     6
  2.7257767723523068E+00 a        32     0     2     1     7
 -3.7932084710569409E+00 a        33     0     2     1     8
 -1.5668318556426462E+01 a        34     0     2     1     9
 -3.1155716549649703E+00 a        35     0     2     1    10
 -9.7953996251491873E+00 a        36     0     2     1    11
  2.9348329629948854E+01 a        37     0     2     1    12
 -1.0794040861830019E+00 a        38     0     2     1    13
 -7.9618258579850503E+00 a        39     0     2     1    14
 -8.9590585751802276E+00 a        40     0     2     1    15
  1.0063282974973005E+00 a        41     0     2     1    16
  6.4338769362774890E+00 a        42     0     2     1    17
 -1.2643063616314767E+00 a        43     0     2     1    18
  5.8694289979095826E+00 a        44     0     2     1    19
 -5.7173733498639576E+00 a        45     0     2     1    20
 -9.8112393475471347E+00 a        46     0     2     1    21
 -7.0997344443364225E+00 a        47     0     2     1    22
  8.0489172311170947E+00 a        48     0     2     1    23
 -9.1162902456405579E+00 a        49     0     2     1    24
  3.5391462588174313E+01 a        50     0     2     1    25
  1.1899170897245195E+01 a        51     0     3     1     1
 -4.7926226378542408E-01 a        52     0     3     1     2
  1.0132799630793809E+01 a        53     0     3     1     3
 -1.2928641172301191E+01 a        54     0     3     1     4
  9.2392024313726235E+00 a        55     0     3     1     5
  3.0954848253143172E+00 a        56     0     3     1     6
 -1.8453445767272090E+01 a        57     0     3     1     7
  1.9815347409426796E+01 a        58     0     3     1     8
 -1.1477825711643170E+01 a        59     0     3     1     9
 -1.6237921789827784E+01 a        60     0     3     1    10
  1.2111096138287880E+00 a        61     0     3     1    11
  3.2616412296689177E+01 a        62     0     3     1    12
  2.5056200828548385E+00 a        63     0     3     1    13
  6.8397479651721216E-01 a        64     0     3     1    14
 -1.8522578374484294E+01 a        65     0     3     1    15
 -3.0358653745330990E+00 a        66     0     3     1    16
 -1.8144075912238954E+01 a        67     0     3     1    17
 -1.1732268680661743E-01 a        68     0     3     1    18
  1.1811761667622768E+01 a        69     0     3     1    19
 -2.3416824344600640E+00 a        70     0     3     1    20
 -6.7547664049818028E+00 a        71     0     3     1    21
  1.3712363551418671E+00 a        72     0     3     1    22
 -5.2636620540601351E+00 a        73     0     3     1    23
  4.3843050280529337E+00 a        74     0     3     1    24
  2.2559932800103947E+01 a        75     0     3     1    25
 -1.8080778651019187E+01 a        76     0     4     1     1
  2.7574882090724735E+01 a        77     0     4     1     2
 -1.7448981638861177E+01 a        78     0     4     1     3
 -9.7309403936956507E+00 a        79     0     4     1     4
 -2.4823123312109121E+01 a        80     0     4     1     5
 -2.1931862381805973E+00 a        81     0     4     1     6
 -5.5147398633087530E+00 a        82     0     4     1     7
  5.1174781668471470E+00 a        83     0     4     1     8
  2.8448732771485776E+01 a        84     0     4     1     9
  4.6746551521332789E+00 a        85     0     4     1    10
  1.3599081362513250E+01 a        86     0     4     1    11
 -3.4500925007489407E+01 a        87     0     4     1    12
  1.7192045687957364E+01 a        88     0     4     1    13
  1.9323087231124322E+01 a        89     0     4     1    14
  1.5143686799123142E+01 a        90     0     4     1    15
  2.0663207171262727E+00 a        91     0     4     1    16
 -4.2593073275422659E+00 a        92     0     4     1    17
  4.0214411782296695E+00 a        93     0     4     1    18
 -8.1214847485434127E+00 a        94     0     4     1    19
  1.1204080980773362E+01 a        95     0     4     1    20
  1.5100588997810311E+01 a        96     0     4     1    21
  1.3020318635444134E+01 a        97     0     4     1    22
 -1.2814259825878647E+01 a        98     0     4     1    23
  1.9645843333227848E+01 a        99     0     4     1    24
 -4.8080953490894807E+01 a       100     0     4     1    25
 -9.6473137857589411E+00 a       101     0     5     1     1
 -7.4239549445593314E+00 a       102     0     5     1     2
 -5.2880045601251942E+00 a       103     0     5     1     3
  1.6988496512192448E+01 a       104     0     5     1     4
  5.5430504078881411E+00 a       105     0     5     1     5
 -9.9287044518837284E+00 a       106     0     5     1     6
  2.9432087748844928E+01 a       107     0     5     1     7
 -2.0016676987800913E+01 a       108     0     5     1     8
 -1.1267347331363604E+01 a       109     0     5     1     9
  1.6919167360492672E+01 a       110     0     5     1    10
 -6.8098744865111529E+00 a       111     0     5     1    11
 -1.9256926827722722E+01 a       112     0     5     1    12
  3.0273081564829596E+00 a       113     0     5     1    13
 -1.3074264937389710E+01 a       114     0     5     1    14
  1.4563725013946309E+01 a       115     0     5     1    15
  5.0939813567355641E-01 a       116     0     5     1    16
  1.4487931985839211E+01 a       117     0     5     1    17
 -2.9118683334916691E+00 a       118     0     5     1    18
 -7.3675410183671577E+00 a       119     0     5     1    19
 -1.0932973133543371E+00 a       120     0     5     1    20
 -4.0293313439750946E+00 a       121     0     5     1    21
 -1.4401160806863761E+01 a       122     0     5     1    22
  5.8577223382886698E+00 a       123     0     5     1    23
 -5.7271577291789457E+00 a       124     0     5     1    24
 -1.6568395037944708E+01 a       125     0     5     1    25
  1.5794353689615846E+01 a       126     0     6     1     1
 -3.4409666445017976E+01 a       127     0     6     1     2
  1.1786697054543627E+01 a       128     0     6     1     3
 -1.9727773976092882E+00 a       129     0     6     1     4
  1.8629039500374375E+01 a       130     0     6     1     5
  8.0013455667537716E+00 a       131     0     6     1     6
  6.9287843546414765E+00 a       132     0     6     1     7
 -2.6225119469237930E+00 a       133     0     6     1     8
 -2.4710220178533348E+01 a       134     0     6     1     9
 -8.5048541343946660E+00 a       135     0     6     1    10
 -5.5247025410136343E+00 a       136     0     6     1    11
  1.2015094866080064E+01 a       137     0     6     1    12
 -3.0355597248070655E+01 a       138     0     6     1    13
 -1.3157103825245644E+01 a       139     0     6     1    14
 -1.5935522325555125E+01 a       140     0     6     1    15
 -1.7893961161654182E+00 a       141     0     6     1    16
 -2.4102824844385147E-02 a       142     0     6     1    17
 -7.2547432195066390E+00 a       143     0     6     1    18
  9.2980356195845584E+00 a       144     0     6     1    19
 -9.6063380087135712E+00 a       145     0     6     1    20
  4.2402977752803643E+00 a       146     0     6     1    21
  7.3204446888275421E-01 a       147     0     6     1    22
  9.0148053253502312E+00 a       148     0     6     1    23
 -1.1123388363992992E+01 a       149     0     6     1    24
  3.4276423457639289E+01 a       150     0     6     1    25
  2.7271059653532084E+00 a       151     0     7     1     1
  8.8489139565207608E+00 a       152     0     7     1     2
  6.7882299601336875E+00 a       153     0     7     1     3
 -5.5948253126409284E+00 a       154     0     7     1     4
 -7.9800964404590022E+00 a       155     0     7     1     5
 -1.1385554964626055E+00 a       156     0     7     1     6
 -3.4686122824949592E+01 a       157     0     7     1     7
  7.3620652867420056E+00 a       158     0     7     1     8
  3.1351549347914681E+01 a       159     0     7     1     9
 -6.0424021744467824E+00 a       160     0     7     1    10
  4.6797419454744151E+00 a       161     0     7     1    11
  1.4021765775317293E+01 a       162     0     7     1    12
 -1.1786270630258777E+00 a       163     0     7     1    13
  1.5485978700715814E+01 a       164     0     7     1    14
 -1.0870698131845119E+01 a       165     0     7     1    15
  1.3668778509155242E+00 a       166     0     7     1    16
 -1.2887308975280243E+00 a       167     0     7     1    17
  6.6157308972358475E+00 a       168     0     7     1    18
 -6.3283736537953494E+00 a       169     0     7     1    19
  8.5857597160268573E-01 a       170     0     7     1    20
 -2.5657712749061012E+00 a       171     0     7     1    21
  1.0147128593510660E+01 a       172     0     7     1    22
 -3.6880664802445478E+00 a       173     0     7     1    23
  7.3557971719854001E+00 a       174     0     7     1    24
  4.9348448558036777E+00 a       175     0     7     1    25
 -1.1885146788687429E+01 a       176     0     8     1     1
  2.8712199698070531E+01 a       177     0     8     1     2
 -1.0868057336055893E+01 a       178     0     8     1     3
  5.5821621220813933E+00 a       179     0     8     1     4
 -6.1417079558209577E+00 a       180     0     8     1     5
 -7.7256608712901462E+00 a       181     0     8     1     6
 -3.0613516528820082E+00 a       182     0     8     1     7
  3.4086146963956847E+00 a       183     0     8     1     8
  1.7649383407954357E+01 a       184     0     8     1     9
  3.6439370725251252E+00 a       185     0     8     1    10
  1.7859710197683716E+00 a       186     0     8     1    11
  4.8807061725178134E+00 a       187     0     8     1    12
  2.4160349933862541E+01 a       188     0     8     1    13
  6.0804007783235559E+00 a       189     0     8     1    14
  5.5650929762092343E+00 a       190     0     8     1    15
 -2.9409264381909987E+00 a       191     0     8     1    16
 -3.7615778037173810E+00 a       192     0     8     1    17
  8.5477209944744406E+00 a       193     0     8     1    18
 -1.7104449360757034E+01 a       194     0     8     1    19
  8.0961531020564639E+00 a       195     0     8     1    20
 -1.7270583808270956E+01 a       196     0     8     1    21
 -2.9763770350703873E+00 a       197     0     8     1    22
 -1.1147048509023856E+01 a       198     0     8     1    23
 -3.6272720101981499E+00 a       199     0     8     1    24
 -1.5576181777784976E+01 a       200     0     8     1    25
  4.8154914813972249E+00 a       201     0     9     1     1
 -5.7197480162967054E+00 a       202     0     9     1     2
  2.0794826891236307E+00 a       203     0     9     1     3
 -1.2031624749902849E-02 a       204     0     9     1     4
 -2.3153594493636631E+00 a       205     0     9     1     5
  4.2479215297605268E+00 a       206     0     9     1     6
 -8.8606755598098064E-01 a       207     0     9     1     7
 -4.1674332099878892E+00 a       208     0     9     1     8
 -9.2376072539333638E+00 a       209     0     9     1     9
 -4.2084892588644616E+00 a       210     0     9     1    10
 -4.9110431668591987E+00 a       211     0     9     1    11
 -9.0300758363522586E+00 a       212     0     9     1    12
 -8.9900420179131295E+00 a       213     0     9     1    13
 -3.0634171701474209E+00 a       214     0     9     1    14
 -4.7465648175199151E+00 a       215     0     9     1    15
 -8.7024057279663525E-01 a       216     0     9     1    16
  3.1043924921212684E+00 a       217     0     9     1    17
 -1.6925651364111867E+00 a       218     0     9     1    18
  1.0958803359197342E+01 a       219     0     9     1    19
 -4.1979062801988700E+00 a       220     0     9     1    20
  9.2261096358385348E+00 a       221     0     9     1    21
  6.0432728860024492E+00 a       222     0     9     1    22
  7.0951775513293134E+00 a       223     0     9     1    23
  9.1915189381043199E+00 a       224     0     9     1    24
  7.1532569159597221E+00 a       225     0     9     1    25
 -5.1259244902428458E+00 a       226     0    10     1     1
 -5.5912971700876648E+00 a       227     0    10     1     2
  5.5733087595908071E-01 a       228     0    10     1     3
 -5.9470332335263629E+00 a       229     0    10     1     4
  1.3455939773693975E+00 a       230     0    10     1     5
  9.3099717398395203E+00 a       231     0    10     1     6
  1.3078175342937612E+01 a       232     0    10     1     7
 -5.2962256814946251E-01 a       233     0    10     1     8
 -1.6893582626162321E+01 a       234     0    10     1     9
  1.9102131451885587E+00 a       235     0    10     1    10
 -8.3484329792703027E-01 a       236     0    10     1    11
 -1.0945908135308043E+01 a       237     0    10     1    12
  3.6915309101194543E-01 a       238     0    10     1    13
 -1.2426333110080311E+01 a       239     0    10     1    14
  2.0927733792108349E+00 a       240     0    10     1    15
 -5.4058433750559087E-01 a       241     0    10     1    16
 -3.0795549637398185E+00 a       242     0    10     1    17
 -4.5174951596824151E+00 a       243     0    10     1    18
  1.1194614345830383E+01 a       244     0    10     1    19
 -2.6351030851160182E+00 a       245     0    10     1    20
 -1.1177493370043650E+00 a       246     0    10     1    21
 -1.0315184126760502E+00 a       247     0    10     1    22
 -1.5419701132577381E+00 a       248     0    10     1    23
 -2.4708814918726500E+00 a       249     0    10     1    24
 -6.1302519713398129E-01 a       250     0    10     1    25
 -2.0233124326340652E+00 a       251     0    11     1     1
  1.9067176057997498E-01 a       252     0    11     1     2
  1.8285292086128599E+00 a       253     0    11     1     3
  3.2569669208973118E-01 a       254     0    11     1     4
  5.3498773150821088E-01 a       255     0    11     1     5
  2.0613267947164937E+00 a       256     0    11     1     6
  1.4038944956895261E+00 a       257     0    11     1     7
  3.4745517391080458E+00 a       258     0    11     1     8
  3.0585348458462152E+00 a       259     0    11     1     9
 -1.6478907366877180E+00 a       260     0    11     1    10
 -9.7535959492445912E-01 a       261     0    11     1    11
  4.3870498512842788E+00 a       262     0    11     1    12
  2.3635026942870052E+00 a       263     0    11     1    13
 -3.3534385328161079E-03 a       264     0    11     1    14
 -4.1576825891265651E-01 a       265     0    11     1    15
 -1.4427916820260724E+00 a       266     0    11     1    16
  4.1990038113079803E-01 a       267     0    11     1    17
  1.0493366410534861E+00 a       268     0    11     1    18
 -2.6383155194967034E+00 a       269     0    11     1    19
  4.2469430269467683E+00 a       270     0    11     1    20
 -6.9175967006737271E-01 a       271     0    11     1    21
 -1.9313849030933532E+00 a       272     0    11     1    22
 -1.2295394197260490E+00 a       273     0    11     1    23
 -5.4690538238530841E+00 a       274     0    11     1    24
 -4.7378834903008160E+00 a       275     0    11     1    25
 -2.8065127209061730E-01 a       276     0    12     1     1
 -3.1183490795588513E+00 a       277     0    12     1     2
 -2.8099763020706376E+00 a       278     0    12     1     3
 -2.2505449621180931E-01 a       279     0    12     1     4
  6.3529414487420277E-01 a       280     0    12     1     5
 -2.8121264955882341E+00 a       281     0    12     1     6
  3.1105434868748644E-02 a       282     0    12     1     7
 -3.2614823128714704E-01 a       283     0    12     1     8
  6.2207269035462271E+00 a       284     0    12     1     9
  3.4185801318676385E+00 a       285     0    12     1    10
 -6.2500190921101470E-02 a       286     0    12     1    11
  4.5503940880163087E+00 a       287     0    12     1    12
 -3.4708286834731807E+00 a       288     0    12     1    13
  1.5646776539755987E+00 a       289     0    12     1    14
  5.0034303061657353E+00 a       290     0    12     1    15
  6.0212139135425091E-01 a       291     0    12     1    16
  4.4062567763701006E+00 a       292     0    12     1    17
 -6.1414026223565857E-02 a       293     0    12     1    18
 -9.9793632202520977E-01 a       294     0    12     1    19
  1.3793609103448152E+00 a       295     0    12     1    20
  6.7229210279169704E+00 a       296     0    12     1    21
 -4.1978464378918989E+00 a       297     0    12     1    22
  3.3726405181511061E+00 a       298     0    12     1    23
 -2.2673648633983827E+00 a       299     0    12     1    24
 -5.6952970201306974E-01 a       300     0    12     1    25
 -8.3228711729358695E-02 a       301     0    13     1     1
  6.8271937565406926E-01 a       302     0    13     1     2
 -1.1605163656643909E+00 a       303     0    13     1     3
 -6.3241456345398883E-01 a       304     0    13     1     4
  1.4770908357729133E+00 a       305     0    13     1     5
 -2.6776398315336136E+00 a       306     0    13     1     6
  2.6889251881221381E+00 a       307     0    13     1     7
 -9.2842480353502732E-01 a       308     0    13     1     8
 -1.5446839016088416E+00 a       309     0    13     1     9
  2.6662852337219789E+00 a       310     0    13     1    10
 -1.8852846972657784E+00 a       311     0    13     1    11
 -1.5832196175604494E+00 a       312     0    13     1    12
 -1.1484715443777420E+00 a       313     0    13     1    13
 -1.8474517806359236E-01 a       314     0    13     1    14
  1.2032264313558698E+00 a       315     0    13     1    15
  9.7548834284747377E-01 a       316     0    13     1    16
 -7.2536963294084544E-01 a       317     0    13     1    17
  3.3271493146924272E-03 a       318     0    13     1    18
  7.8300071439718655E-01 a       319     0    13     1    19
 -5.1316758156155851E-01 a       320     0    13     1    20
 -8.1740458410691696E-01 a       321     0    13     1    21
 -3.8108932553523256E-01 a       322     0    13     1    22
 -7.3913692063045100E-01 a       323     0    13     1    23
  8.4012181072148040E-01 a       324     0    13     1    24
  9.9257476665768896E-01 a       325     0    13     1    25
 -2.3032183391229268E+00 a       326     0    14     1     1
  1.5224069586112545E+00 a       327     0    14     1     2
 -2.5852405890660179E-01 a       328     0    14     1     3
 -6.9670685446867895E-03 a       329     0    14     1     4
 -5.6872788747299130E-01 a       330     0    14     1     5
  2.5159693962896288E+00 a       331     0    14     1     6
 -6.0627018407091081E-02 a       332     0    14     1     7
 -1.8110054705815354E-01 a       333     0    14     1     8
 -4.6660535840352129E+00 a       334     0    14     1     9
 -7.1934908221525562E-01 a       335     0    14     1    10
  1.0163079076203225E+00 a       336     0    14     1    11
 -2.0136784480116221E+00 a       337     0    14     1    12
  4.0346503332339916E+00 a       338     0    14     1    13
 -3.3428159548371248E+00 a       339     0    14     1    14
 -1.0661503688188842E-01 a       340     0    14     1    15
  9.5357885127435160E-01 a       341     0    14     1    16
  2.3842679773877813E+00 a       342     0    14     1    17
 -8.9121120062843118E-01 a       343     0    14     1    18
  5.6737504307411326E+00 a       344     0    14     1    19
 -2.0292736651745974E-01 a       345     0    14     1    20
 -4.6029720773842229E+00 a       346     0    14     1    21
  1.6163664918321525E+00 a       347     0    14     1    22
 -9.7086028112766798E-01 a       348     0    14     1    23
  2.1729408595505504E+00 a       349     0    14     1    24
  1.7837666778461320E-01 a       350     0    14     1    25
 -6.2869424430554577E-01 a       351     0    15     1     1
 -8.7162218208727368E-02 a       352     0    15     1     2
  3.7137034160006582E-01 a       353     0    15     1     3
 -3.5662360344281480E-01 a       354     0    15     1     4
  1.8686636258358271E+00 a       355     0    15     1     5
  1.0852843428666634E+00 a       356     0    15     1     6
 -2.7470670717722099E+00 a       357     0    15     1     7
 -7.8337210911550259E-01 a       358     0    15     1     8
  7.5103520515652988E-01 a       359     0    15     1     9
  1.5786477091633786E+00 a       360     0    15     1    10
  8.1322761149084544E-01 a       361     0    15     1    11
  3.8256961692315117E-01 a       362     0    15     1    12
 -4.9332405338983515E-01 a       363     0    15     1    13
 -5.9247753763243483E-02 a       364     0    15     1    14
  7.2083901284001994E-01 a       365     0    15     1    15
  1.6936690200238356E+00 a       366     0    15     1    16
  5.2414058438536049E-01 a       367     0    15     1    17
 -3.1099463449460294E+00 a       368     0    15     1    18
 -1.0123337414839306E+00 a       369     0    15     1    19
  8.4739192928309892E-01 a       370     0    15     1    20
 -4.4738320081986700E-02 a       371     0    15     1    21
  3.8193643300643243E-01 a       372     0    15     1    22
  8.8666267521870035E-01 a       373     0    15     1    23
 -3.0972850498860899E-01 a       374     0    15     1    24
  2.8766568246241198E-01 a       375     0    15     1    25
  1.0401263599267752E-01 a       376     0    16     1     1
 -9.6346666903905931E-01 a       377     0    16     1     2
  7.0548940082365408E-01 a       378     0    16     1     3
 -1.0133067689395825E+00 a       379     0    16     1     4
 -5.1320396343699526E-01 a       380     0    16     1     5
 -8.8351540658313765E-01 a       381     0    16     1     6
 -1.4052944611559021E-01 a       382     0    16     1     7
 -2.4250585189901153E-01 a       383     0    16     1     8
  1.5411493155853001E-01 a       384     0    16     1     9
  6.2771875466695237E-01 a       385     0    16     1    10
 -3.1559643956677613E-01 a       386     0    16     1    11
 -2.8797939730214644E-01 a       387     0    16     1    12
 -1.2401784211620652E+00 a       388     0    16     1    13
 -5.7282577602605311E-01 a       389     0    16     1    14
  7.1143628414054183E-01 a       390     0    16     1    15
 -3.4952090880423242E-01 a       391     0    16     1    16
  1.8731501402475687E-01 a       392     0    16     1    17
 -2.3492529479809430E-02 a       393     0    16     1    18
 -1.1874154538873867E+00 a       394     0    16     1    19
 -1.4340007662596332E-01 a       395     0    16     1    20
 -1.8049578091553592E+01 a       396     0    16     1    21
 -5.6363362317053622E-01 a       397     0    16     1    22
 -5.6165232193549297E-01 a       398     0    16     1    23
 -6.2841758641271017E-01 a       399     0    16     1    24
 -4.8124863362553373E-02 a       400     0    16     1    25
 -1.5846113402387276E+00 a       401     0    17     1     1
 -6.0145795689937120E-01 a       402     0    17     1     2
 -9.5877468268458188E-01 a       403     0    17     1     3
 -1.8302315734996202E+00 a       404     0    17     1     4
  2.3454528391745066E+00 a       405     0    17     1     5
 -1.7460096019414291E+00 a       406     0    17     1     6
 -2.9444903975482861E-01 a       407     0    17     1     7
  1.2530226582192288E+00 a       408     0    17     1     8
 -1.7721868174993738E+00 a       409     0    17     1     9
  1.0322077649678307E+00 a       410     0    17     1    10
 -3.1344118621594988E-02 a       411     0    17     1    11
  1.0913291059892390E-01 a       412     0    17     1    12
  1.9361616748059203E+00 a       413     0    17     1    13
 -1.1891033356293621E+00 a       414     0    17     1    14
  2.4510050469906669E-01 a       415     0    17     1    15
  2.9907201787688553E-01 a       416     0    17     1    16
 -2.5727248754814125E-01 a       417     0    17     1    17
 -5.9999797862059896E-02 a       418     0    17     1    18
  1.8560965655794921E+00 a       419     0    17     1    19
 -2.2172380929183635E-01 a       420     0    17     1    20
 -3.1411480052245113E+00 a       421     0    17     1    21
  1.3404704859581169E+00 a       422     0    17     1    22
 -7.6712025206578383E-02 a       423     0    17     1    23
 -1.6028125948410217E+00 a       424     0    17     1    24
  3.8499915090312720E+00 a       425     0    17     1    25
 -7.4207303958665136E+00 a       426     0    18     1     1
 -1.6750083145374339E+00 a       427     0    18     1     2
 -2.3006607099097582E+00 a       428     0    18     1     3
  1.4144199017551402E+00 a       429     0    18     1     4
  1.0892680675477623E+01 a       430     0    18     1     5
 -8.2821879962345548E+00 a       431     0    18     1     6
 -6.2767082372734144E+00 a       432     0    18     1     7
 -9.8797050310566110E+00 a       433     0    18     1     8
  8.7590122711674177E+00 a       434     0    18     1     9
  4.0720805581520416E+00 a       435     0    18     1    10
  2.7944414239334199E+00 a       436     0    18     1    11
  9.7079395639293153E-01 a       437     0    18     1    12
 -8.7853032230183850E+00 a       438     0    18     1    13
 -1.3037414066960613E+01 a       439     0    18     1    14
 -1.8635407100953874E+01 a       440     0    18     1    15
 -5.2639560388878781E+00 a       441     0    18     1    16
 -8.3800377734280804E+00 a       442     0    18     1    17
  4.6746464437972710E+00 a       443     0    18     1    18
 -1.6053299439963659E+01 a       444     0    18     1    19
  9.6683756677298816E-01 a       445     0    18     1    20
 -1.6560860010064452E+01 a       446     0    18     1    21
  1.6238159715120253E+00 a       447     0    18     1    22
 -3.3708845599691699E+00 a       448     0    18     1    23
 -4.2508173649707155E+00 a       449     0    18     1    24
 -1.8679072405226680E+01 a       450     0    18     1    25
  1.9021437660719891E+00 a       451     0    19     1     1
 -4.0056994274258473E-01 a       452     0    19     1     2
  2.8194324052304265E-01 a       453     0    19     1     3
  3.3781638478410838E+00 a       454     0    19     1     4
 -2.6768540144211848E+00 a       455     0    19     1     5
 -4.2232923005483491E-01 a       456     0    19     1     6
  1.0944781942609911E+00 a       457     0    19     1     7
 -8.1419079477827916E-01 a       458     0    19     1     8
 -3.4735409091966957E-02 a       459     0    19     1     9
 -3.1748823010911860E+00 a       460     0    19     1    10
  1.4538255839450862E+00 a       461     0    19     1    11
  9.2361831438057951E-01 a       462     0    19     1    12
 -3.3891532027470359E+00 a       463     0    19     1    13
  2.3060567489860868E+00 a       464     0    19     1    14
 -1.4373538715877479E+00 a       465     0    19     1    15
 -1.1291767720301333E+00 a       466     0    19     1    16
  2.2051423661918208E+00 a       467     0    19     1    17
 -3.0485320667044591E-01 a       468     0    19     1    18
 -3.9411179041998317E+00 a       469     0    19     1    19
  1.1962222871796804E+00 a       470     0    19     1    20
  2.2870365300444067E+00 a       471     0    19     1    21
 -2.7840672651617902E+00 a       472     0    19     1    22
  3.1692728524911534E-01 a       473     0    19     1    23
  1.0142923782441633E+01 a       474     0    19     1    24
 -2.1681880209312316E+00 a       475     0    19     1    25
  1.6473167164376711E+01 a       476     0    20     1     1
  8.9110814114042380E+00 a       477     0    20     1     2
  1.5080736409006125E+01 a       478     0    20     1     3
 -5.6534155208789176E+00 a       479     0    20     1     4
 -1.1433901385014853E+01 a       480     0    20     1     5
  1.4934928357954451E+01 a       481     0    20     1     6
  8.4940220749700330E+00 a       482     0    20     1     7
  1.4231154544057194E+01 a       483     0    20     1     8
 -3.3269772361476955E+00 a       484     0    20     1     9
 -6.4312411754191983E+00 a       485     0    20     1    10
 -9.6991268948055502E+00 a       486     0    20     1    11
 -1.6520582887161896E+00 a       487     0    20     1    12
  1.5347780602792406E+01 a       488     0    20     1    13
  9.7390546567637930E+00 a       489     0    20     1    14
  2.9233213167457428E+01 a       490     0    20     1    15
  8.5315406886805185E+00 a       491     0    20     1    16
 -3.4880462941829320E+00 a       492     0    20     1    17
 -5.1367253928339425E+00 a       493     0    20     1    18
  2.0974843970621205E+01 a       494     0    20     1    19
 -6.9889185751449538E+00 a       495     0    20     1    20
  1.2351530267935155E+01 a       496     0    20     1    21
 -2.7217008440551465E+00 a       497     0    20     1    22
 -4.4527505240024716E+00 a       498     0    20     1    23
 -1.1206748945365936E+01 a       499     0    20     1    24
  1.6226438425828587E+01 a       500     0    20     1    25
  5.9287903142349752E+00 a       501     0    21     1     1
  1.6031813811598930E+01 a       502     0    21     1     2
 -2.0163751691820262E+00 a       503     0    21     1     3
  7.2085072530358447E+00 a       504     0    21     1     4
 -9.7670623459307340E+00 a       505     0    21     1     5
 -2.5212716272725171E+00 a       506     0    21     1     6
  5.5464015186211562E+00 a       507     0    21     1     7
  1.6780484538247914E-01 a       508     0    21     1     8
  3.0484672417471002E+00 a       509     0    21     1     9
 -9.1229479423834299E+00 a       510     0    21     1    10
 -8.3721154599304334E-02 a       511     0    21     1    11
  3.6874401905391210E+00 a       512     0    21     1    12
  1.3538038748926526E+01 a       513     0    21     1    13
 -1.2614662366909148E+01 a       514     0    21     1    14
  2.6261932930964274E+00 a       515     0    21     1    15
 -1.0680424051678180E+01 a       516     0    21     1    16
 -1.1213365377950039E+01 a       517     0    21     1    17
  1.3132513865581566E-01 a       518     0    21     1    18
 -6.1972061255588073E+00 a       519     0    21     1    19
 -1.3345997764025765E+00 a       520     0    21     1    20
 -1.8739024214043322E+01 a       521     0    21     1    21
 -7.7523637246714534E+00 a       522     0    21     1    22
 -7.1247936692817753E+00 a       523     0    21     1    23
  1.0368394563487920E+01 a       524     0    21     1    24
  1.1187268016352615E+01 a       525     0    21     1    25
  1.4056397041270694E+00 a       526     0    22     1     1
 -1.4735717915094710E+01 a       527     0    22     1     2
  5.4934150482589592E+00 a       528     0    22     1     3
 -8.5298160462446457E+00 a       529     0    22     1     4
  6.8358685035620326E+00 a       530     0    22     1     5
 -1.9782180892685877E+00 a       531     0    22     1     6
 -2.6692976345934136E+00 a       532     0    22     1     7
 -6.3601208718372537E-01 a       533     0    22     1     8
  9.5513552326244735E+00 a       534     0    22     1     9
  5.5939314501712305E+00 a       535     0    22     1    10
  2.4799057415407035E+00 a       536     0    22     1    11
 -4.2388265097015392E+00 a       537     0    22     1    12
 -5.3466314165346294E+00 a       538     0    22     1    13
  4.1905436597682790E+00 a       539     0    22     1    14
  9.7618127282642533E+00 a       540     0    22     1    15
  1.1949702539777789E+01 a       541     0    22     1    16
  4.6781627273432680E-01 a       542     0    22     1    17
 -2.6084196489405724E+00 a       543     0    22     1    18
 -1.2600367614887422E+00 a       544     0    22     1    19
 -3.8035250471845705E+00 a       545     0    22     1    20
  6.2063051757098382E+00 a       546     0    22     1    21
  1.1580923507453447E+00 a       547     0    22     1    22
 -3.3796250988106542E+00 a       548     0    22     1    23
 -2.5329454345419791E+00 a       549     0    22     1    24
 -9.1610039617822174E+00 a       550     0    22     1    25
 -5.9944746279485073E-01 a       551     0    23     1     1
 -9.5999825037288389E+00 a       552     0    23     1     2
 -7.8199077317356238E+00 a       553     0    23     1     3
  4.8058696028742443E+00 a       554     0    23     1     4
  2.2929652803321734E+01 a       555     0    23     1     5
 -7.8908734973144830E+00 a       556     0    23     1     6
 -3.5012913734227120E+00 a       557     0    23     1     7
 -7.9014935884853683E+00 a       558     0    23     1     8
 -1.5032808036517030E+01 a       559     0    23     1     9
  7.1119753100112577E+00 a       560     0    23     1    10
  1.2126997976165381E+01 a       561     0    23     1    11
  3.4090108672265025E+00 a       562     0    23     1    12
 -2.9918295858333330E+01 a       563     0    23     1    13
  1.5461191172760698E+01 a       564     0    23     1    14
 -6.0368138544172396E+00 a       565     0    23     1    15
  8.9638247876881287E+00 a       566     0    23     1    16
  1.1797968455458081E+00 a       567     0    23     1    17
  2.7977355451161281E+00 a       568     0    23     1    18
  2.9076904232524639E+00 a       569     0    23     1    19
  1.8349856622679823E+01 a       570     0    23     1    20
  3.7371253394383885E+01 a       571     0    23     1    21
  8.1450453375845715E+00 a       572     0    23     1    22
  2.8194371217535590E+01 a       573     0    23     1    23
  1.8694006332597080E+00 a       574     0    23     1    24
 -1.3114290683963373E+01 a       575     0    23     1    25
 -5.6716469257350699E+00 a       576     0    24     1     1
  2.2890129542137170E+00 a       577     0    24     1     2
 -8.9828388155119949E+00 a       578     0    24     1     3
  1.2060480180269872E+00 a       579     0    24     1     4
 -1.6722590976216356E+01 a       580     0    24     1     5
  2.6020123471944920E+00 a       581     0    24     1     6
  1.5256953669043609E+00 a       582     0    24     1     7
  1.2772587794066590E+00 a       583     0    24     1     8
  2.4406735867783249E+00 a       584     0    24     1     9
  7.6410699473189780E-01 a       585     0    24     1    10
 -3.9344062361785177E+00 a       586     0    24     1    11
 -1.8062526343402699E-01 a       587     0    24     1    12
  8.5741385761734570E+00 a       588     0    24     1    13
 -3.6677018589401587E+00 a       589     0    24     1    14
  2.8183273064623210E-01 a       590     0    24     1    15
 -8.4306774543728036E+00 a       591     0    24     1    16
  2.1129514363799199E+01 a       592     0    24     1    17
 -2.5706230059907842E+00 a       593     0    24     1    18
  7.3283048759889304E+00 a       594     0    24     1    19
 -3.9915581849845001E+00 a       595     0    24     1    20
 -2.9504596660725650E+00 a       596     0    24     1    21
 -2.4744323890909197E+00 a       597     0    24     1    22
  1.0382290675811414E+00 a       598     0    24     1    23
  2.1701094593432400E+00 a       599     0    24     1    24
  1.3775278680111741E+01 a       600     0    24     1    25
  3.3345452761487437E+00 a       601     0    25     1     1
 -4.7868462307033216E-01 a       602     0    25     1     2
  3.6203952543668176E+00 a       603     0    25     1     3
  7.2714566213006320E+00 a       604     0    25     1     4
  2.2849955673080249E+00 a       605     0    25     1     5
  8.5806430097053565E-01 a       606     0    25     1     6
 -2.3836443572719430E-02 a       607     0    25     1     7
  3.5787278140327636E+00 a       608     0    25     1     8
 -7.0121009478315104E+00 a       609     0    25     1     9
 -8.5849248922961430E-01 a       610     0    25     1    10
 -2.0616098883627279E-01 a       611     0    25     1    11
 -3.2464139312660772E-01 a       612     0    25     1    12
 -5.8844612663621847E+00 a       613     0    25     1    13
  1.3409962625581700E+01 a       614     0    25     1    14
  1.3242655623926841E-01 a       615     0    25     1    15
  1.9908068274910358E+00 a       616     0    25     1    16
 -5.0008127803131277E+00 a       617     0    25     1    17
  1.3732775406863653E+00 a       618     0    25     1    18
  3.1228628064148833E+00 a       619     0    25     1    19
  3.5066985887495088E+00 a       620     0    25     1    20
  5.5711797617502121E+00 a       621     0    25     1    21
  3.3684117462553691E+00 a       622     0    25     1    22
  7.1049362336193775E+00 a       623     0    25     1    23
 -1.2305686835069668E+01 a       624     0    25     1    24
 -3.6107900077748600E+00 a       625     0    25     1    25
 -2.8920825797381569E+00 a       626     0    26     1     1
 -6.7823105287226737E-01 a       627     0    26     1     2
  2.2472972166300780E+00 a       628     0    26     1     3
  1.9461735327080329E+00 a       629     0    26     1     4
 -7.7664741185472641E-01 a       630     0    26     1     5
  4.3326463517525421E-02 a       631     0    26     1     6
 -8.4849597120099662E-01 a       632     0    26     1     7
 -8.0341400837263532E-01 a       633     0    26     1     8
  4.4291486213348570E+00 a       634     0    26     1     9
 -1.0876385604893490E-01 a       635     0    26     1    10
 -1.0773517593899371E+00 a       636     0    26     1    11
 -1.0712269357036246E+00 a       637     0    26     1    12
  1.5710218676005683E+01 a       638     0    26     1    13
 -9.8966228742657112E+00 a       639     0    26     1    14
 -1.1037764610149861E+01 a       640     0    26     1    15
 -3.5036353582919473E+00 a       641     0    26     1    16
 -3.6542136025698939E+00 a       642     0    26     1    17
 -5.0169964105998399E-01 a       643     0    26     1    18
 -1.3709531155763333E+01 a       644     0    26     1    19
 -9.3064767335556198E+00 a       645     0    26     1    20
 -2.5792491398741141E+01 a       646     0    26     1    21
 -3.6241483847447684E+00 a       647     0    26     1    22
 -1.9957449321516552E+01 a       648     0    26     1    23
  4.8005038964673385E-01 a       649     0    26     1    24
  1.3198151458807958E-01 a       650     0    26     1    25
  2.0103141610995459E+00 a       651     0    27     1     1
  2.0025247475157908E+00 a       652     0    27     1     2
 -8.0410695176014491E-01 a       653     0    27     1     3
  1.0020826777268941E+00 a       654     0    27     1     4
  1.6563365674833976E+00 a       655     0    27     1     5
  5.4332467623476155E-01 a       656     0    27     1     6
 -6.4973042026107242E-01 a       657     0    27     1     7
  2.8643721681365912E+00 a       658     0    27     1     8
  7.0047921774458599E-01 a       659     0    27     1     9
 -1.4740381638428455E+00 a       660     0    27     1    10
  4.0777039244190261E-01 a       661     0    27     1    11
  1.1716981486568692E+00 a       662     0    27     1    12
 -5.9598680574475891E+00 a       663     0    27     1    13
  1.9420793520485702E+00 a       664     0    27     1    14
  2.7700136891964394E-01 a       665     0    27     1    15
  1.2629844235739759E-01 a       666     0    27     1    16
 -7.4298231740961984E-01 a       667     0    27     1    17
  3.8088560930828508E-01 a       668     0    27     1    18
  1.8614887522365260E+00 a       669     0    27     1    19
  4.2164400520418549E-01 a       670     0    27     1    20
  6.8721596463526859E+00 a       671     0    27     1    21
  3.9479858113571903E-01 a       672     0    27     1    22
  1.4509622112386911E+00 a       673     0    27     1    23
  4.3141066605445026E-02 a       674     0    27     1    24
  5.4275499707984032E-01 a       675     0    27     1    25
  9.2946065855034743E-01 b       676     1     1
  1.7038898622186267E+00 b       677     1     2
 -3.2658296256245156E-01 b       678     1     3
  3.3648654544042839E-01 b       679     1     4
  2.1520441057205075E+00 b       680     1     5
 -1.7725310546987816E-01 b       681     1     6
  1.5383536541425888E+00 b       682     1     7
  1.0435071323788052E+00 b       683     1     8
 -1.7098734749381803E-01 b       684     1     9
  1.9086204304038701E+00 b       685     1    10
  9.2049876072120729E-01 b       686     1    11
  7.1114120957677918E-01 b       687     1    12
 -1.4407706668407718E+00 b       688     1    13
 -3.5986404141070627E-01 b       689     1    14
  8.0422192879795940E-01 b       690     1    15
  2.8339243408195763E-01 b       691     1    16
 -4.0093742598651905E-01 b       692     1    17
  2.1575307736978879E+00 b       693     1    18
 -1.1289605620011778E+00 b       694     1    19
  8.1168576692590166E-01 b       695     1    20
 -4.1346701271299455E+00 b       696     1    21
 -1.1941740266905601E+00 b       697     1    22
  5.8126776214933817E-01 b       698     1    23
 -2.1459860127767221E+00 b       699     1    24
  1.0763490800850848E+00 b       700     1    25
 -1.7146105998287873E+00 a       701     1     1     2     1
 -1.3166887302540984E+00 a       702     1     1     2     2
 -1.5263711124403703E+00 a       703     1     1     2     3
 -7.9096799839794651E-01 a       704     1     1     2     4
  2.1735292734738965E-01 a       705     1     1     2     5
  1.9000238853197846E-01 a       706     1     1     2     6
  1.1508877252021354E+00 a       707     1     1     2     7
 -3.0324522315158203E-01 a       708     1     1     2     8
  7.7680939623128886E-01 a       709     1     1     2     9
  6.4560172239269631E-02 a       710     1     1     2    10
  2.4929326491177625E-01 a       711     1     1     2    11
  1.1698135565096666E+00 a       712     1     1     2    12
  1.9552890793104920E+00 a       713     1     1     2    13
 -2.1908913680707723E-01 a       714     1     1     2    14
  3.1241455242651861E-01 a       715     1     1     2    15
 -6.0605378087049344E-01 a       716     1     1     2    16
 -1.0624552658499471E+00 a       717     1     1     2    17
 -2.9272719627071089E+00 a       718     1     1     2    18
 -6.9970057220790072E-01 a       719     1     1     2    19
  6.2566052215608370E-01 a       720     1     1     2    20
  7.2172395481770724E-01 a       721     1     1     2    21
  1.5940328041508314E-01 a       722     1     1     2    22
  1.3784842574702671E+00 a       723     1     1     2    23
  3.5042969952337404E+00 a       724     1     1     2    24
  7.4434577442582195E-01 a       725     1     1     2    25
 -8.1042580464139409E+00 a       726     1     2     2     1
  2.3809214555477056E+00 a       727     1     2     2     2
  1.0589267589845643E+00 a       728     1     2     2     3
  5.9941637591121673E+00 a       729     1     2     2     4
 -3.1943675447226710E-01 a       730     1     2     2     5
  9.8738201572901207E+00 a       731     1     2     2     6
  3.1830177358510943E+00 a       732     1     2     2     7
  2.5350592395057864E-01 a       733     1     2     2     8
  4.2100646206183773E-01 a       734     1     2     2     9
 -1.6706756207104427E+00 a       735     1     2     2    10
  5.2674991617418661E+00 a       736     1     2     2    11
 -3.3828292982112211E+00 a       737     1     2     2    12
  7.9321459702166952E-01 a       738     1     2     2    13
 -4.3985104753642840E-01 a       739     1     2     2    14
  2.8831583866061028E-01 a       740     1     2     2    15
 -1.8493899211159361E+00 a       741     1     2     2    16
  1.1219272788979313E-02 a       742     1     2     2    17
 -5.3661437193974688E+00 a       743     1     2     2    18
  1.4810807575469920E+00 a       744     1     2     2    19
 -1.1212163708289941E-01 a       745     1     2     2    20
  2.3571204207961269E+00 a       746     1     2     2    21
 -2.3180798776444274E+00 a       747     1     2     2    22
 -8.4172545343004535E-01 a       748     1     2     2    23
 -9.9215509850680679E+00 a       749     1     2     2    24
 -1.0005404159593239E+00 a       750     1     2     2    25
 -3.0104859676527784E+00 a       751     1     3     2     1
 -4.7503663612746366E-01 a       752     1     3     2     2
  9.7292806233820017E-01 a       753     1     3     2     3
 -7.0235778407528338E-01 a       754     1     3     2     4
  8.0733528305587221E-01 a       755     1     3     2     5
 -1.7697319661508366E+00 a       756     1     3     2     6
  2.9184915291317084E-02 a       757     1     3     2     7
  1.8067508212896494E-01 a       758     1     3     2     8
 -6.8274334191702424E-02 a       759     1     3     2     9
  2.7624049361610714E-01 a       760     1     3     2    10
  2.6634646423901887E-01 a       761     1     3     2    11
 -1.8460702381114419E-01 a       762     1     3     2    12
 -7.3917489386633273E-01 a       763     1     3     2    13
  1.1948606315504397E-01 a       764     1     3     2    14
  2.7109457456484798E-01 a       765     1     3     2    15
  6.7675711353404067E-01 a       766     1     3     2    16
  9.2731028428332574E-01 a       767     1     3     2    17
 -4.0996733523633261E-01 a       768     1     3     2    18
  6.1271812172611895E-01 a       769     1     3     2    19
  3.8651683624044564E-01 a       770     1     3     2    20
  1.6290036734373858E+00 a       771     1     3     2    21
  9.6976331910615621E-01 a       772     1     3     2    22
 -1.6799470113454795E+00 a       773     1     3     2    23
 -5.2015075917273634E-01 a       774     1     3     2    24
 -6.5318986260954204E-01 a       775     1     3     2    25
  1.6886557729655607E+00 a       776     1     4     2     1
 -2.1777056502449776E-02 a       777     1     4     2     2
 -1.3840940302081397E+00 a       778     1     4     2     3
 -3.0832902906199683E-01 a       779     1     4     2     4
 -1.1960708944232952E+00 a       780     1     4     2     5
 -1.8175664178482787E-01 a       781     1     4     2     6
  5.2122784646001230E-01 a       782     1     4     2     7
  3.0909186605157102E-01 a       783     1     4     2     8
  1.0762322100161388E+00 a       784     1     4     2     9
 -1.4918020274181649E+00 a       785     1     4     2    10
 -3.9290225398396261E-01 a       786     1     4     2    11
 -7.4795613280372331E-01 a       787     1     4     2    12
  1.7471553534678792E+00 a       788     1     4     2    13
 -7.5377973888859451E-01 a       789     1     4     2    14
 -1.0221205515963363E+00 a       790     1     4     2    15
 -1.1502281526583322E+00 a       791     1     4     2    16
 -4.3255468803311381E-01 a       792     1     4     2    17
 -1.7366737177965959E+00 a       793     1     4     2    18
  2.8470057625620759E-01 a       794     1     4     2    19
  4.9840850292756017E-01 a       795     1     4     2    20
  1.3740164509438797E+00 a       796     1     4     2    21
 -1.0284601442194432E+00 a       797     1     4     2    22
 -7.7367775738584210E-01 a       798     1     4     2    23
  3.7619755010085387E+00 a       799     1     4     2    24
 -2.0629469155664346E-01 a       800     1     4     2    25
 -4.5369193792191409E-01 a       801     1     5     2     1
 -2.5663584850196647E-01 a       802     1     5     2     2
  1.9672001210255157E+00 a       803     1     5     2     3
  4.3246399247020806E+00 a       804     1     5     2     4
  2.7714624187866792E+00 a       805     1     5     2     5
 -3.5355038221645412E+00 a       806     1     5     2     6
 -2.8433840967739239E+00 a       807     1     5     2     7
 -9.4162359267630447E-01 a       808     1     5     2     8
 -1.6665589613634333E+00 a       809     1     5     2     9
  1.6563451292782043E+00 a       810     1     5     2    10
  3.4296351767644353E+00 a       811     1     5     2    11
  2.4878244355527990E+00 a       812     1     5     2    12
  7.7575796747175990E-02 a       813     1     5     2    13
 -2.5610673520400473E-01 a       814     1     5     2    14
  2.3613348897766250E-02 a       815     1     5     2    15
  5.1336876423590538E-01 a       816     1     5     2    16
 -2.5781468575693731E+00 a       817     1     5     2    17
  1.7537976835760727E+00 a       818     1     5     2    18
 -1.5769880631553546E+00 a       819     1     5     2    19
 -1.8933723647218448E-02 a       820     1     5     2    20
 -1.6177332363489787E+00 a       821     1     5     2    21
 -7.1921483447088053E-01 a       822     1     5     2    22
  5.4856346310227551E+00 a       823     1     5     2    23
 -4.5578191167994353E+00 a       824     1     5     2    24
  4.9042911827324964E+00 a       825     1     5     2    25
 -3.7092684583481605E-01 a       826     1     6     2     1
 -8.6246926296618051E-02 a       827     1     6     2     2
  1.2710453456632415E-01 a       828     1     6     2     3
 -1.2138298446404177E+00 a       829     1     6     2     4
  1.5226133145260017E+00 a       830     1     6     2     5
  8.1993460161996726E-02 a       831     1     6     2     6
 -1.8416102655849254E-01 a       832     1     6     2     7
  3.8545126951518522E+00 a       833     1     6     2     8
 -3.2594694686719833E-01 a       834     1     6     2     9
 -2.9931537244206191E-01 a       835     1     6     2    10
  1.7162772815617688E+00 a       836     1     6     2    11
 -1.3365806203727568E-01 a       837     1     6     2    12
  1.1998307654719265E+00 a       838     1     6     2    13
 -5.8266860713774771E-01 a       839     1     6     2    14
 -3.3707600573612440E-01 a       840     1     6     2    15
  9.6599387716118779E-01 a       841     1     6     2    16
  8.0703891423224938E-01 a       842     1     6     2    17
 -1.6311264421480012E+00 a       843     1     6     2    18
 -1.3352617747641817E+00 a       844     1     6     2    19
  2.0724767774026884E-01 a       845     1     6     2    20
  5.0911911267009158E-01 a       846     1     6     2    21
  1.1841611451876817E+00 a       847     1     6     2    22
  9.5221910425189515E-01 a       848     1     6     2    23
 -2.2711930341705003E-01 a       849     1     6     2    24
 -6.1602805298713426E-01 a       850     1     6     2    25
  2.3871569254965297E+00 a       851     1     7     2     1
 -1.3310628675236980E-01 a       852     1     7     2     2
 -1.0885302547128735E+00 a       853     1     7     2     3
 -1.5000248127946406E-01 a       854     1     7     2     4
  2.0554066749521022E-01 a       855     1     7     2     5
  1.3743470447837280E+00 a       856     1     7     2     6
  4.8050762500216659E-01 a       857     1     7     2     7
 -4.1693476828340623E+00 a       858     1     7     2     8
  5.9227580826476833E-01 a       859     1     7     2     9
 -1.4052178015898302E+00 a       860     1     7     2    10
 -2.1893411200972768E+00 a       861     1     7     2    11
  7.1846276335344705E-01 a       862     1     7     2    12
 -2.5231544802138615E+00 a       863     1     7     2    13
  4.4140814501622289E-01 a       864     1     7     2    14
  1.7808959979710874E+00 a       865     1     7     2    15
 -1.1339622033561667E+00 a       866     1     7     2    16
 -6.2993448429476284E-01 a       867     1     7     2    17
 -1.1111123884212997E+00 a       868     1     7     2    18
 -7.9847719414756380E-01 a       869     1     7     2    19
  6.4336815831737626E-01 a       870     1     7     2    20
  8.4579678111167245E-01 a       871     1     7     2    21
  3.7926450454339444E-01 a       872     1     7     2    22
  1.1553113464852913E+00 a       873     1     7     2    23
 -1.7331479801605594E+00 a       874     1     7     2    24
  4.0300050049246022E-01 a       875     1     7     2    25
  2.8313828807309500E+00 a       876     1     8     2     1
 -3.1761528856856913E-01 a       877     1     8     2     2
 -1.1719854485396219E+00 a       878     1     8     2     3
  1.1461493274190249E+00 a       879     1     8     2     4
 -6.3747038229835495E-01 a       880     1     8     2     5
  1.0475054392386089E+00 a       881     1     8     2     6
 -9.2528919031559145E-02 a       882     1     8     2     7
 -2.0474103691783472E+00 a       883     1     8     2     8
  2.0802618849515735E+00 a       884     1     8     2     9
 -1.3776421075691363E+00 a       885     1     8     2    10
  3.2909206031872080E+00 a       886     1     8     2    11
  4.4477735571569321E-01 a       887     1     8     2    12
 -6.6322956045175896E-01 a       888     1     8     2    13
 -2.4493354450495944E-01 a       889     1     8     2    14
  2.6549053373172693E-01 a       890     1     8     2    15
 -3.2202066409286328E-01 a       891     1     8     2    16
 -2.2381664722617205E+00 a       892     1     8     2    17
  2.9272977926439232E+00 a       893     1     8     2    18
  1.3947703486144117E-01 a       894     1     8     2    19
  7.0353413923981811E-02 a       895     1     8     2    20
  1.0672898454475552E-01 a       896     1     8     2    21
 -1.1399465533622966E+00 a       897     1     8     2    22
 -9.8729074992679378E-01 a       898     1     8     2    23
  5.1860351535402760E+00 a       899     1     8     2    24
  1.5561584067887710E-01 a       900     1     8     2    25
  2.5531968156561766E+00 a       901     1     9     2     1
  8.1325293462992843E-01 a       902     1     9     2     2
 -5.0026383829353493E-01 a       903     1     9     2     3
  6.8064413148318414E-01 a       904     1     9     2     4
  6.1753275102991301E-01 a       905     1     9     2     5
 -1.5841730296348651E+00 a       906     1     9     2     6
  1.4739638629048630E+00 a       907     1     9     2     7
  1.5650136054100079E+00 a       908     1     9     2     8
  2.5640203500722991E-01 a       909     1     9     2     9
  1.4693541224743565E+00 a       910     1     9     2    10
 -3.1668189181769999E+00 a       911     1     9     2    11
  1.1313128961791404E-01 a       912     1     9     2    12
 -1.7863888410753674E+00 a       913     1     9     2    13
  1.4350370399600936E+00 a       914     1     9     2    14
  6.1688414772158773E-01 a       915     1     9     2    15
 -5.3708117752446299E-02 a       916     1     9     2    16
 -7.8359271123698793E-01 a       917     1     9     2    17
  5.3418294822734480E-01 a       918     1     9     2    18
  4.3806730593823739E-01 a       919     1     9     2    19
 -7.0535638827972758E-01 a       920     1     9     2    20
 -3.7830191224070575E-01 a       921     1     9     2    21
  5.2003195685020942E-01 a       922     1     9     2    22
  2.1517147674851809E+00 a       923     1     9     2    23
  5.6321356598464836E-02 a       924     1     9     2    24
  8.3505158465437701E-01 a       925     1     9     2    25
 -1.4328518204458118E+00 a       926     1    10     2     1
 -3.0206287098354179E+00 a       927     1    10     2     2
  2.7284056254298532E+00 a       928     1    10     2     3
 -6.9866344639237765E-01 a       929     1    10     2     4
 -3.4312003553053644E-01 a       930     1    10     2     5
 -2.6775531983928795E+00 a       931     1    10     2     6
 -8.7789453865756584E-01 a       932     1    10     2     7
 -9.5785538324856345E-01 a       933     1    10     2     8
  3.5705926865274862E-01 a       934     1    10     2     9
 -6.2144997477260600E-01 a       935     1    10     2    10
 -3.1925962018896431E-01 a       936     1    10     2    11
  9.7567633686699162E-01 a       937     1    10     2    12
 -2.5927403560781124E+00 a       938     1    10     2    13
 -6.3766954432513379E-01 a       939     1    10     2    14
  5.2147568508521946E-01 a       940     1    10     2    15
 -1.6943190326345552E+00 a       941     1    10     2    16
  3.4737220562219853E+00 a       942     1    10     2    17
  3.6565663203435078E-01 a       943     1    10     2    18
 -1.5616662366210519E+00 a       944     1    10     2    19
  1.7099718780612956E+00 a       945     1    10     2    20
  9.8080213225120116E-01 a       946     1    10     2    21
  1.8366489228410847E+00 a       947     1    10     2    22
  3.2038040994448935E-01 a       948     1    10     2    23
 -5.9545181602753612E+00 a       949     1    10     2    24
 -5.5921669361413766E+00 a       950     1    10     2    25
  2.1609300672421591E-01 a       951     1    11     2     1
 -9.6850563366078979E-01 a       952     1    11     2     2
  2.0356989044195530E+00 a       953     1    11     2     3
 -6.2641083122348529E-01 a       954     1    11     2     4
  2.1714704113020251E+00 a       955     1    11     2     5
 -2.8863699805430469E+00 a       956     1    11     2     6
 -2.5790362135928024E-01 a       957     1    11     2     7
  7.9839047479883698E+00 a       958     1    11     2     8
 -1.0637470569236422E+00 a       959     1    11     2     9
  8.5766236732198756E-02 a       960     1    11     2    10
  3.6882226473198587E-01 a       961     1    11     2    11
  1.2418472530740872E+00 a       962     1    11     2    12
 -6.1698411399493880E-01 a       963     1    11     2    13
  1.6225837426939378E+00 a       964     1    11     2    14
  3.0579594402716066E+00 a       965     1    11     2    15
 -9.2511100529687851E-01 a       966     1    11     2    16
  8.3575864203756489E-01 a       967     1    11     2    17
  2.1396146865549097E+00 a       968     1    11     2    18
 -2.9459882187978987E+00 a       969     1    11     2    19
  9.8635321496921377E-02 a       970     1    11     2    20
 -1.7756562245625902E+00 a       971     1    11     2    21
  2.1334907105042120E+00 a       972     1    11     2    22
  4.1120520009307249E-01 a       973     1    11     2    23
 -2.6931075095328487E+00 a       974     1    11     2    24
 -6.8248573877139040E-01 a       975     1    11     2    25
  4.4199043924256243E-01 a       976     1    12     2     1
 -5.1466474889717817E-01 a       977     1    12     2     2
  1.4621843808952986E+00 a       978     1    12     2     3
  9.9166284761354784E-01 a       979     1    12     2     4
 -8.3561289570567321E-01 a       980     1    12     2     5
  4.5082811128620492E-01 a       981     1    12     2     6
 -1.9059037250660802E+00 a       982     1    12     2     7
  2.3064654327046199E+00 a       983     1    12     2     8
 -9.5992866903070195E-01 a       984     1    12     2     9
 -8.2649642725499517E-02 a       985     1    12     2    10
  6.1508979868843638E-01 a       986     1    12     2    11
  8.0770977930508442E-02 a       987     1    12     2    12
 -1.9696393855322727E+00 a       988     1    12     2    13
 -1.3350147429760356E-01 a       989     1    12     2    14
 -2.1856701635883211E+00 a       990     1    12     2    15
  2.1338853310631802E+00 a       991     1    12     2    16
  3.4843905522092755E-01 a       992     1    12     2    17
  1.1264748721863400E+00 a       993     1    12     2    18
 -1.5349381731539793E+00 a       994     1    12     2    19
  2.5918501842392627E-01 a       995     1    12     2    20
  4.6165310606118570E-01 a       996     1    12     2    21
 -2.3811929746832949E-01 a       997     1    12     2    22
  1.0850677280093777E+00 a       998     1    12     2    23
 -2.6193501717228469E+00 a       999     1    12     2    24
  6.3983869098449453E-01 a      1000     1    12     2    25
  1.0870385906219797E+00 a      1001     1    13     2     1
 -8.4253741924913128E-01 a      1002     1    13     2     2
  3.8200137473392370E-01 a      1003     1    13     2     3
  1.0283813735982399E+00 a      1004     1    13     2     4
  1.4070309031719206E+00 a      1005     1    13     2     5
  1.2837154355422442E+00 a      1006     1    13     2     6
 -6.9186726416791022E-01 a      1007     1    13     2     7
  3.0530041777561494E+00 a      1008     1    13     2     8
 -1.9773406448918077E-01 a      1009     1    13     2     9
  7.8421983232369252E-01 a      1010     1    13     2    10
  4.0459285832427447E+00 a      1011     1    13     2    11
  1.4574655156839345E-01 a      1012     1    13     2    12
  8.0336143843128904E-01 a      1013     1    13     2    13
 -9.2764935576966179E-01 a      1014     1    13     2    14
  1.0483244395356223E-01 a      1015     1    13     2    15
 -9.3097631200941430E-02 a      1016     1    13     2    16
  1.7539827335434532E+00 a      1017     1    13     2    17
  7.5456111518215097E-01 a      1018     1    13     2    18
  8.3656935487281936E-01 a      1019     1    13     2    19
  2.1697710311927382E-01 a      1020     1    13     2    20
 -2.0751958395219594E-01 a      1021     1    13     2    21
 -1.5090235013516344E+00 a      1022     1    13     2    22
  9.5749558545695612E-01 a      1023     1    13     2    23
  8.1252719864975820E-01 a      1024     1    13     2    24
 -9.8986387092896848E+00 a      1025     1    13     2    25
  2.7945622355968047E-01 a      1026     1    14     2     1
  3.9284753612099399E-01 a      1027     1    14     2     2
  4.9772414488894090E-01 a      1028     1    14     2     3
 -2.0250213216414648E+00 a      1029     1    14     2     4
 -1.7582655712298326E-01 a      1030     1    14     2     5
 -1.7916323828136833E+00 a      1031     1    14     2     6
 -6.2454069040587745E-01 a      1032     1    14     2     7
 -1.7137161365051681E-01 a      1033     1    14     2     8
  4.6151173915953059E-01 a      1034     1    14     2     9
 -6.0075687947477674E-01 a      1035     1    14     2    10
  2.3364545624257489E+00 a      1036     1    14     2    11
  2.2936692684654644E-01 a      1037     1    14     2    12
 -9.8284861130554824E-01 a      1038     1    14     2    13
 -4.7075108247821115E-02 a      1039     1    14     2    14
  8.3249377582875284E-01 a      1040     1    14     2    15
  1.1492339301206154E+00 a      1041     1    14     2    16
  7.9362476878790100E-01 a      1042     1    14     2    17
  8.9388280061545344E-01 a      1043     1    14     2    18
 -1.6090556935185356E+00 a      1044     1    14     2    19
  1.0220687695193810E-01 a      1045     1    14     2    20
 -8.6228765245745564E-01 a      1046     1    14     2    21
  1.7624843968641206E+00 a      1047     1    14     2    22
  2.1714706257831979E+00 a      1048     1    14     2    23
  2.5036159667203288E-02 a      1049     1    14     2    24
  1.4404352332775126E+00 a      1050     1    14     2    25
 -4.7429470989588673E-01 a      1051     1    15     2     1
 -5.5262566416937897E-01 a      1052     1    15     2     2
  1.5177982216047367E-01 a      1053     1    15     2     3
  3.7188496241037004E-02 a      1054     1    15     2     4
  2.2146903857136224E+00 a      1055     1    15     2     5
  1.2590938232872877E+00 a      1056     1    15     2     6
 -8.9213360775747386E-01 a      1057     1    15     2     7
 -3.0750801889994475E+00 a      1058     1    15     2     8
  9.0118107300438155E-01 a      1059     1    15     2     9
 -4.2217741262742852E+00 a      1060     1    15     2    10
 -1.6453663617396959E+00 a      1061     1    15     2    11
  1.6039047628752761E+00 a      1062     1    15     2    12
  1.5853754163632567E+00 a      1063     1    15     2    13
  4.2552795682085059E-01 a      1064     1    15     2    14
  5.0398093327431182E-01 a      1065     1    15     2    15
  5.0917993469262957E-01 a      1066     1    15     2    16
 -3.9558223932390957E-01 a      1067     1    15     2    17
 -1.1264338092621649E-01 a      1068     1    15     2    18
 -1.4262718588317034E+00 a      1069     1    15     2    19
  1.8158861135538942E-01 a      1070     1    15     2    20
 -1.0823127577440628E+00 a      1071     1    15     2    21
 -1.2276603240648772E-01 a      1072     1    15     2    22
 -1.5411494484401176E+00 a      1073     1    15     2    23
 -4.4521871014986203E-01 a      1074     1    15     2    24
 -3.3365362281787397E-01 a      1075     1    15     2    25
 -3.8733304373317190E-01 a      1076     1    16     2     1
 -4.4389064894700642E-01 a      1077     1    16     2     2
  7.2532553327292670E-01 a      1078     1    16     2     3
  1.0440859881278015E+00 a      1079     1    16     2     4
  1.6231111264151805E+00 a      1080     1    16     2     5
 -1.3524806013175716E+00 a      1081     1    16     2     6
 -2.0075877398002664E-01 a      1082     1    16     2     7
  5.5837014744975288E+00 a      1083     1    16     2     8
 -2.7309585396653069E-01 a      1084     1    16     2     9
  9.6496540639817252E-01 a      1085     1    16     2    10
  2.0381754933160545E+00 a      1086     1    16     2    11
  1.1375542409230828E+00 a      1087     1    16     2    12
 -3.6628569989656573E-01 a      1088     1    16     2    13
  4.3191373979283587E-01 a      1089     1    16     2    14
  2.3227869187055576E+00 a      1090     1    16     2    15
  2.0329473381935356E-01 a      1091     1    16     2    16
 -4.0342190694018937E-01 a      1092     1    16     2    17
  3.1361773896965300E-01 a      1093     1    16     2    18
 -8.0670337666635095E-01 a      1094     1    16     2    19
  7.1889629620909015E-02 a      1095     1    16     2    20
 -5.1965283738031987E-01 a      1096     1    16     2    21
  1.4541435079064797E+00 a      1097     1    16     2    22
  1.7613281928638700E+00 a      1098     1    16     2    23
 -2.2869156963519672E+00 a      1099     1    16     2    24
 -1.3023846995836386E+00 a      1100     1    16     2    25
  9.1830800345038355E-01 a      1101     1    17     2     1
  4.3028985246478879E-01 a      1102     1    17     2     2
  2.6127116034516087E-02 a      1103     1    17     2     3
 -8.4089577229141885E-02 a      1104     1    17     2     4
  7.3255891941076057E-01 a      1105     1    17     2     5
 -3.7300270379492168E-01 a      1106     1    17     2     6
 -4.8461999571684428E-01 a      1107     1    17     2     7
  1.4479401572685560E+00 a      1108     1    17     2     8
 -1.2230475787629426E-01 a      1109     1    17     2     9
 -1.7766371313365034E-01 a      1110     1    17     2    10
  2.7721560797268427E+00 a      1111     1    17     2    11
  7.4501940187038096E-02 a      1112     1    17     2    12
  5.3395830479703171E-02 a      1113     1    17     2    13
 -3.5492648989802061E-01 a      1114     1    17     2    14
  5.0398363549275649E-01 a      1115     1    17     2    15
  1.1885403311070930E+00 a      1116     1    17     2    16
  4.7191374826793775E-01 a      1117     1    17     2    17
 -4.0579861015739999E-01 a      1118     1    17     2    18
 -2.5388466874489768E-01 a      1119     1    17     2    19
 -4.6795645688477144E-01 a      1120     1    17     2    20
 -1.5355955812292335E-01 a      1121     1    17     2    21
  5.7567669645543018E-01 a      1122     1    17     2    22
 -1.7282101847715994E+00 a      1123     1    17     2    23
 -2.6507003958106674E+00 a      1124     1    17     2    24
  6.1066104707664304E-01 a      1125     1    17     2    25
  7.7540540324573906E+00 a      1126     1    18     2     1
 -3.7347356979968138E+00 a      1127     1    18     2     2
 -6.3500123093304695E-01 a      1128     1    18     2     3
  4.3631875323082242E-01 a      1129     1    18     2     4
 -1.6547213485208521E+00 a      1130     1    18     2     5
 -2.6897866553791245E+00 a      1131     1    18     2     6
 -3.2014645282877918E+00 a      1132     1    18     2     7
 -2.1548647095530078E+00 a      1133     1    18     2     8
  1.8021360660785644E+00 a      1134     1    18     2     9
 -3.6872184110137690E-01 a      1135     1    18     2    10
  8.3102909743186815E-01 a      1136     1    18     2    11
  1.7504926054633483E+00 a      1137     1    18     2    12
 -1.0922144575838399E+00 a      1138     1    18     2    13
 -2.3210838290346261E+00 a      1139     1    18     2    14
  1.1608577604900376E+00 a      1140     1    18     2    15
  5.4513222628158020E-01 a      1141     1    18     2    16
 -1.3082019093526220E+00 a      1142     1    18     2    17
  1.9682601067403451E+00 a      1143     1    18     2    18
  9.1840427945528813E-01 a      1144     1    18     2    19
  1.6729538094977803E+00 a      1145     1    18     2    20
  1.9514627479321187E+00 a      1146     1    18     2    21
  1.3021464734305730E+00 a      1147     1    18     2    22
  5.4145064432429297E+00 a      1148     1    18     2    23
  3.1809138097883234E+00 a      1149     1    18     2    24
  2.7939556798911331E+00 a      1150     1    18     2    25
 -9.4646764580613246E-02 a      1151     1    19     2     1
  1.0160388467788467E-01 a      1152     1    19     2     2
  3.6596359043959337E-01 a      1153     1    19     2     3
  9.1615960705827615E-01 a      1154     1    19     2     4
 -1.2297734584424278E+00 a      1155     1    19     2     5
 -4.8122049493112123E-01 a      1156     1    19     2     6
  4.4093924564057885E-01 a      1157     1    19     2     7
 -2.5492033157352028E+00 a      1158     1    19     2     8
 -1.4774004717921563E-01 a      1159     1    19     2     9
  5.7805659181467117E-01 a      1160     1    19     2    10
  3.5075826824619211E-01 a      1161     1    19     2    11
  3.6627130733452151E-01 a      1162     1    19     2    12
 -1.7376231678091394E+00 a      1163     1    19     2    13
  4.4169564170393294E-01 a      1164     1    19     2    14
  1.0157216676234275E+00 a      1165     1    19     2    15
 -1.1240038073166908E-01 a      1166     1    19     2    16
 -3.0991174601967195E+00 a      1167     1    19     2    17
  1.7008072040292781E+00 a      1168     1    19     2    18
 -1.6593864749295031E+00 a      1169     1    19     2    19
 -1.0550384582054625E-01 a      1170     1    19     2    20
 -3.2142768338015293E-01 a      1171     1    19     2    21
  1.0117352568471173E-01 a      1172     1    19     2    22
  1.9853602334130092E+00 a      1173     1    19     2    23
  1.3997073686003441E+00 a      1174     1    19     2    24
  2.9117796217637570E+00 a      1175     1    19     2    25
 -4.5764753306962114E-01 a      1176     1    20     2     1
 -9.9891583313822530E-01 a      1177     1    20     2     2
 -5.1899573526722464E-01 a      1178     1    20     2     3
 -2.0567536492989977E+00 a      1179     1    20     2     4
  9.2352993174625033E-04 a      1180     1    20     2     5
  2.5540489726669571E+00 a      1181     1    20     2     6
 -7.6341773585261519E-01 a      1182     1    20     2     7
  2.3160576984664356E+00 a      1183     1    20     2     8
  6.0901481267781610E-01 a      1184     1    20     2     9
  1.2668445551264709E+00 a      1185     1    20     2    10
 -1.9419173240401806E+00 a      1186     1    20     2    11
 -6.9456390863435447E-01 a      1187     1    20     2    12
  6.4143514881624264E-01 a      1188     1    20     2    13
 -6.7523840606955088E-01 a      1189     1    20     2    14
  1.7060682681007883E-01 a      1190     1    20     2    15
 -8.6856242988024346E-01 a      1191     1    20     2    16
  2.3673702458697710E+00 a      1192     1    20     2    17
 -3.2896597513188691E-01 a      1193     1    20     2    18
  5.1483584590046283E-01 a      1194     1    20     2    19
  7.6283189486490477E-01 a      1195     1    20     2    20
  5.3126050517483481E-01 a      1196     1    20     2    21
  2.4156101559153187E-01 a      1197     1    20     2    22
  1.8659940946568193E-01 a      1198     1    20     2    23
 -4.8951004359865896E-01 a      1199     1    20     2    24
 -3.6955021845427987E+00 a      1200     1    20     2    25
  3.3026951503002977E-01 a      1201     1    21     2     1
  7.0085692638464550E-02 a      1202     1    21     2     2
  1.5350691308185720E+00 a      1203     1    21     2     3
  1.1399777563268440E+01 a      1204     1    21     2     4
 -1.4217252444130857E+00 a      1205     1    21     2     5
  1.2527106528056411E+00 a      1206     1    21     2     6
 -1.5196779747644091E+00 a      1207     1    21     2     7
  9.5752871668915926E-02 a      1208     1    21     2     8
 -4.0061418161332302E-01 a      1209     1    21     2     9
 -1.0608632679355677E-01 a      1210     1    21     2    10
  2.6130566666465588E-01 a      1211     1    21     2    11
 -1.5952333462368868E+00 a      1212     1    21     2    12
 -2.2407020474877495E+00 a      1213     1    21     2    13
 -6.7299305613294869E-01 a      1214     1    21     2    14
 -1.0452111276516422E-01 a      1215     1    21     2    15
 -5.7081790052659655E-02 a      1216     1    21     2    16
  5.9832663213416667E-02 a      1217     1    21     2    17
  6.7058028411858006E-01 a      1218     1    21     2    18
 -1.4106293179367038E+00 a      1219     1    21     2    19
 -7.0812356901514795E-01 a      1220     1    21     2    20
  3.4501537653459025E-01 a      1221     1    21     2    21
  6.5446998920641974E-01 a      1222     1    21     2    22
  3.0247903680236377E+00 a      1223     1    21     2    23
 -1.6407070736435441E+00 a      1224     1    21     2    24
 -7.7725075526767613E+00 a      1225     1    21     2    25
 -2.8878530004591241E+00 a      1226     1    22     2     1
 -1.8698056165949102E+00 a      1227     1    22     2     2
  4.4924020661855041E-01 a      1228     1    22     2     3
 -2.2767544595359457E+00 a      1229     1    22     2     4
 -3.5203493490546314E+00 a      1230     1    22     2     5
 -1.5448845050104911E+00 a      1231     1    22     2     6
 -1.8711260461891439E+00 a      1232     1    22     2     7
  1.7915140285640574E+00 a      1233     1    22     2     8
  2.1702350088264535E-01 a      1234     1    22     2     9
 -1.6234033665035481E+00 a      1235     1    22     2    10
 -1.8272803877438288E+00 a      1236     1    22     2    11
  8.7748384221966891E-01 a      1237     1    22     2    12
  8.2026308658672886E-01 a      1238     1    22     2    13
  7.0525549974537904E-01 a      1239     1    22     2    14
  1.9642126710202101E+00 a      1240     1    22     2    15
 -2.8076656872726771E+00 a      1241     1    22     2    16
  1.6471776166977137E+00 a      1242     1    22     2    17
 -1.2264587534374354E+00 a      1243     1    22     2    18
  7.9477289887119074E-01 a      1244     1    22     2    19
  1.7601454958853162E+00 a      1245     1    22     2    20
  4.6411919084624126E-01 a      1246     1    22     2    21
  5.7099382178715574E-01 a      1247     1    22     2    22
 -8.1530683478962396E-01 a      1248     1    22     2    23
  2.9156642967618962E-01 a      1249     1    22     2    24
 -1.2526998124140987E+00 a      1250     1    22     2    25
  1.0478264278181887E-01 a      1251     1    23     2     1
  3.9608457353426207E-01 a      1252     1    23     2     2
 -1.2882292956436900E-01 a      1253     1    23     2     3
  1.1091267211759670E+00 a      1254     1    23     2     4
 -6.2459439469257272E-01 a      1255     1    23     2     5
  9.1229401452426417E-01 a      1256     1    23     2     6
  2.3757654865086547E-01 a      1257     1    23     2     7
 -1.5619107257264000E+00 a      1258     1    23     2     8
  1.1216556938513151E+00 a      1259     1    23     2     9
  7.4093306485379359E-02 a      1260     1    23     2    10
 -6.1035293144195681E-02 a      1261     1    23     2    11
  7.9495775758148723E-01 a      1262     1    23     2    12
 -1.1412488529723912E+00 a      1263     1    23     2    13
 -1.0116655466000819E-01 a      1264     1    23     2    14
 -4.5418748411664689E-01 a      1265     1    23     2    15
  6.1440293007431523E-01 a      1266     1    23     2    16
 -1.8325049827486390E+00 a      1267     1    23     2    17
 -8.3037107885868891E-02 a      1268     1    23     2    18
  4.1048970459244100E-01 a      1269     1    23     2    19
 -7.4083051840981318E-01 a      1270     1    23     2    20
  2.2684747303480707E-01 a      1271     1    23     2    21
 -1.6657074727719456E-01 a      1272     1    23     2    22
  6.0817271713677801E-01 a      1273     1    23     2    23
  6.2317468332614229E-02 a      1274     1    23     2    24
  9.4826301215571840E-01 a      1275     1    23     2    25
  1.7828219847177271E+00 a      1276     1    24     2     1
 -5.6402037085176671E-01 a      1277     1    24     2     2
  5.0090814553239371E-01 a      1278     1    24     2     3
  4.6643369374498498E+00 a      1279     1    24     2     4
  4.5768439782483448E+00 a      1280     1    24     2     5
  1.6073879968363912E+01 a      1281     1    24     2     6
  2.8877098949089530E-01 a      1282     1    24     2     7
 -3.3565646725402574E+00 a      1283     1    24     2     8
  1.8100417343132675E+00 a      1284     1    24     2     9
  6.7461680565843309E+00 a      1285     1    24     2    10
 -7.7343382865417878E+00 a      1286     1    24     2    11
  4.9979223672006894E+00 a      1287     1    24     2    12
 -1.0848541560697336E+00 a      1288     1    24     2    13
  5.2479810290094298E+00 a      1289     1    24     2    14
 -1.9981826587599492E+00 a      1290     1    24     2    15
 -2.6969923727338534E+00 a      1291     1    24     2    16
 -1.9404419550513365E+00 a      1292     1    24     2    17
  1.4791992914782730E+00 a      1293     1    24     2    18
 -2.3874704344249218E+00 a      1294     1    24     2    19
  2.9468808712680268E+00 a      1295     1    24     2    20
 -1.4855192943853226E+00 a      1296     1    24     2    21
 -1.3424006004146218E+00 a      1297     1    24     2    22
  7.9949421059344745E+00 a      1298     1    24     2    23
 -4.8093133168450750E+00 a      1299     1    24     2    24
 -1.6597466852564802E+00 a      1300     1    24     2    25
 -1.0910586276756113E+00 a      1301     1    25     2     1
 -3.4433502201076144E-01 a      1302     1    25     2     2
 -6.6285126682363404E-01 a      1303     1    25     2     3
 -4.7482749805494090E-01 a      1304     1    25     2     4
 -6.5245880008824353E-01 a      1305     1    25     2     5
  2.6409758431487827E-02 a      1306     1    25     2     6
 -5.2948039292524962E-01 a      1307     1    25     2     7
 -8.3458707657186038E-01 a      1308     1    25     2     8
  2.4858998111555999E-01 a      1309     1    25     2     9
  3.5871106772312616E-01 a      1310     1    25     2    10
 -7.3676136442800622E-01 a      1311     1    25     2    11
 -5.9425437706499373E-01 a      1312     1    25     2    12
 -1.0199143185186738E-01 a      1313     1    25     2    13
 -1.6180272746809008E+00 a      1314     1    25     2    14
 -1.2358827926463216E+00 a      1315     1    25     2    15
 -1.1191208495389962E+00 a      1316     1    25     2    16
  1.9964316170681046E-01 a      1317     1    25     2    17
  1.1406020683721997E-01 a      1318     1    25     2    18
  2.2598447256515386E-02 a      1319     1    25     2    19
  3.1030356270689763E-01 a      1320     1    25     2    20
  1.8259747404299365E+00 a      1321     1    25     2    21
 -6.0540468896917365E-01 a      1322     1    25     2    22
 -1.5682830593662460E+00 a      1323     1    25     2    23
  4.3947973342355762E-01 a      1324     1    25     2    24
  3.1324829154084771E-01 a      1325     1    25     2    25
 -2.4279561882134963E+00 b      1326     2     1
  6.4544771292908134E+00 b      1327     2     2
  3.1751523607344467E-01 b      1328     2     3
  4.1646451924597958E+00 b      1329     2     4
 -2.5505795783784428E+00 b      1330     2     5
  1.5118415683213509E+01 b      1331     2     6
  5.3264683151142889E-01 b      1332     2     7
 -3.4845667923485748E+00 b      1333     2     8
 -3.7224368826418797E+00 b      1334     2     9
  1.3774457931632972E+01 b      1335     2    10
 -1.4848429288599934E+01 b      1336     2    11
 -2.5774099661328576E-01 b      1337     2    12
  7.8644553237853676E-01 b      1338     2    13
  8.5293687544107897E+00 b      1339     2    14
 -1.4623603002169225E+00 b      1340     2    15
 -1.4339071278876411E-01 b      1341     2    16
  5.6722952511658919E-01 b      1342     2    17
  2.9786494266751422E+00 b      1343     2    18
 -7.9846855691597938E+00 b      1344     2    19
 -1.2955913074824352E+00 b      1345     2    20
 -4.7974825361781406E+00 b      1346     2    21
 -6.1626840379483527E-01 b      1347     2    22
  7.0515771425272211E-01 b      1348     2    23
  4.0152920252762936E+00 b      1349     2    24
 -1.2433016957401415E+01 b      1350     2    25
 -3.3763339972210327E-01 a      1351     2     1     3     1
  1.8938721616986220E+00 a      1352     2     2     3     1
  8.7017936816667285E-01 a      1353     2     3     3     1
  1.2971932946441780E+00 a      1354     2     4     3     1
  4.1239553295611076E-01 a      1355     2     5     3     1
 -8.1737814804844422E-01 a      1356     2     6     3     1
  1.3270657878134318E+00 a      1357     2     7     3     1
 -2.9556400913726261E-02 a      1358     2     8     3     1
 -2.0033836586675555E+00 a      1359     2     9     3     1
  2.7255276248424019E+00 a      1360     2    10     3     1
 -4.2675239937851188E+00 a      1361     2    11     3     1
 -1.3918585258658327E+00 a      1362     2    12     3     1
  8.0720851022768825E-01 a      1363     2    13     3     1
  9.2170489192675709E-01 a      1364     2    14     3     1
 -3.7459111327023207E+00 a      1365     2    15     3     1
  1.0657447005945400E+00 a      1366     2    16     3     1
  1.1430249300083657E+00 a      1367     2    17     3     1
 -5.7830350135338193E-01 a      1368     2    18     3     1
 -9.0667957757811291E+00 a      1369     2    19     3     1
 -1.7467765897861225E+00 a      1370     2    20     3     1
 -2.8513695807952795E+00 a      1371     2    21     3     1
 -1.1467297140066941E+00 a      1372     2    22     3     1
 -4.0421959785178985E-01 a      1373     2    23     3     1
  1.2278189643341817E+00 a      1374     2    24     3     1
 -1.4668941896730936E+00 a      1375     2    25     3     1
 -2.2553111235809182E+00 b      1376     3     1
