################################################################################
# Neural network connection values (weights and biases).
################################################################################
# Col  Name       Description
################################################################################
# 1    connection Neural network connection value.
# 2    t          Connection type (a = weight, b = bias).
# 3    index      Index enumerating weights.
# 4    l_s        Starting point layer (end point layer for biases).
# 5    n_s        Starting point neuron in starting layer (end point neuron for biases).
# 6    l_e        End point layer.
# 7    n_e        End point neuron in end layer.
################################################################################
#                      1 2         3     4     5     6     7
#             connection t     index   l_s   n_s   l_e   n_e
############################################################
 -1.5291125647377135E+00 a         1     0     1     1     1
  4.8941164600852849E+00 a         2     0     1     1     2
 -1.6469277518153746E+01 a         3     0     1     1     3
  9.3464593610670370E+00 a         4     0     1     1     4
 -9.1766990158742079E+00 a         5     0     1     1     5
 -7.4138470381520953E+00 a         6     0     1     1     6
  9.4372339261784632E-01 a         7     0     1     1     7
  8.5526346644631381E+00 a         8     0     1     1     8
  2.4843297941317153E+00 a         9     0     1     1     9
  9.2051940446694114E-01 a        10     0     1     1    10
  2.5950406367783190E+00 a        11     0     1     1    11
  5.8577596799733218E+00 a        12     0     1     1    12
  3.1009420794845419E+00 a        13     0     1     1    13
 -8.9791935296470342E+00 a        14     0     1     1    14
 -8.1751091176467146E+00 a        15     0     1     1    15
 -1.2619434052408995E+01 a        16     0     1     1    16
 -2.0717905810964456E+01 a        17     0     1     1    17
 -4.5863690679420133E+00 a        18     0     1     1    18
  1.2729334422050142E+01 a        19     0     1     1    19
  1.3756988839635900E+01 a        20     0     1     1    20
  1.0727727778278526E+01 a        21     0     1     1    21
  1.4204001623378012E+01 a        22     0     1     1    22
  3.8516365427557107E+00 a        23     0     1     1    23
  2.2773193332610373E+00 a        24     0     1     1    24
  8.1032865253873236E+00 a        25     0     1     1    25
  2.8416128403455621E+00 a        26     0     2     1     1
  2.7517566180611825E+00 a        27     0     2     1     2
  2.2140744553823630E+00 a        28     0     2     1     3
 -1.3745935938357789E+00 a        29     0     2     1     4
  5.2246992458665416E+00 a        30     0     2     1     5
  9.4791657865247725E+00 a        31     0     2     1     6
  1.5523740885540910E-01 a        32     0     2     1     7
 -9.2405133690500225E+00 a        33     0     2     1     8
 -9.8757519660631079E+00 a        34     0     2     1     9
  9.0790561831707806E-02 a        35     0     2     1    10
 -5.6399363562884837E+00 a        36     0     2     1    11
  4.0991367982650813E+00 a        37     0     2     1    12
 -2.2824268140662554E+01 a        38     0     2     1    13
  1.2108080338939310E+01 a        39     0     2     1    14
  1.3482349498994678E+01 a        40     0     2     1    15
  7.6391741299165554E+00 a        41     0     2     1    16
  1.3508197164083491E+01 a        42     0     2     1    17
  5.6693857166351478E+00 a        43     0     2     1    18
 -1.7535047188442874E+01 a        44     0     2     1    19
 -1.1526524532008924E+01 a        45     0     2     1    20
 -1.2397725073717010E+00 a        46     0     2     1    21
 -2.1789900574242743E+01 a        47     0     2     1    22
  6.6603941660333881E+00 a        48     0     2     1    23
  8.6913560716304410E+00 a        49     0     2     1    24
 -1.3169815880547517E+01 a        50     0     2     1    25
 -2.1293094665492185E+00 a        51     0     3     1     1
 -4.3535914299560270E+00 a        52     0     3     1     2
  2.2512315123027285E+01 a        53     0     3     1     3
 -2.2015110854969091E+01 a        54     0     3     1     4
  8.9635117687491395E+00 a        55     0     3     1     5
  8.0699752599519350E+00 a        56     0     3     1     6
  2.4268177618207241E+00 a        57     0     3     1     7
 -4.4462063091756168E+00 a        58     0     3     1     8
 -2.0794088859281387E-01 a        59     0     3     1     9
  1.0532710811564059E+00 a        60     0     3     1    10
 -9.7190030919083288E+00 a        61     0     3     1    11
 -1.5674891463874149E+01 a        62     0     3     1    12
  4.2902789397156853E-02 a        63     0     3     1    13
  1.8257636409438316E+01 a        64     0     3     1    14
  1.1181213470869650E+01 a        65     0     3     1    15
  1.4862896133446190E+01 a        66     0     3     1    16
  2.1432202487656649E+01 a        67     0     3     1    17
  2.6284764500966959E+00 a        68     0     3     1    18
 -1.8557643122267159E+01 a        69     0     3     1    19
 -1.5126061121885657E+01 a        70     0     3     1    20
 -9.1081996326799075E+00 a        71     0     3     1    21
 -9.6762765409915836E+00 a        72     0     3     1    22
 -9.9845241522192207E+00 a        73     0     3     1    23
 -6.6919025680697128E+00 a        74     0     3     1    24
 -1.4230390287473387E+01 a        75     0     3     1    25
 -1.0175335633824076E+01 a        76     0     4     1     1
 -2.0988644727385996E+01 a        77     0     4     1     2
  2.9175513603316481E+00 a        78     0     4     1     3
  5.7996868438624176E+00 a        79     0     4     1     4
 -6.7725825988824413E+00 a        80     0     4     1     5
 -1.3481701835218235E+01 a        81     0     4     1     6
 -4.1255239916638914E-01 a        82     0     4     1     7
  1.3427739704788662E+01 a        83     0     4     1     8
  1.6806941495416556E+01 a        84     0     4     1     9
  1.8179788564191273E+00 a        85     0     4     1    10
  1.7444957083794780E+01 a        86     0     4     1    11
 -6.9536437147666179E+00 a        87     0     4     1    12
  3.6711985669713833E+01 a        88     0     4     1    13
 -2.7074669652898667E+01 a        89     0     4     1    14
 -2.6170680221739882E+01 a        90     0     4     1    15
 -7.6496896408423929E+00 a        91     0     4     1    16
 -2.0226632457104408E+01 a        92     0     4     1    17
 -5.7896066569283837E+00 a        93     0     4     1    18
  3.3189245034424005E+01 a        94     0     4     1    19
  1.3033725621345694E+01 a        95     0     4     1    20
 -6.8466841898584274E+00 a        96     0     4     1    21
  2.5839793640055969E+01 a        97     0     4     1    22
 -1.8914156666433989E+01 a        98     0     4     1    23
 -1.8423945364541119E+01 a        99     0     4     1    24
  2.7170784196502446E+01 a       100     0     4     1    25
  2.4296648741752218E+01 a       101     0     5     1     1
  1.3263716551090119E+00 a       102     0     5     1     2
 -1.9241462743297248E+01 a       103     0     5     1     3
  2.1207367452670724E+01 a       104     0     5     1     4
 -1.3975345317562511E+00 a       105     0     5     1     5
  8.5520109550308128E+00 a       106     0     5     1     6
 -4.3417658308757128E+00 a       107     0     5     1     7
 -4.7394236224490554E+00 a       108     0     5     1     8
 -4.1666734562827354E+00 a       109     0     5     1     9
 -8.6368913232611888E+00 a       110     0     5     1    10
  7.2023494652909648E+00 a       111     0     5     1    11
  3.0966286108748264E+01 a       112     0     5     1    12
  3.3515591756597725E+00 a       113     0     5     1    13
 -1.0809419213531767E+01 a       114     0     5     1    14
 -2.0033016499980474E+00 a       115     0     5     1    15
  1.1916827340063116E+00 a       116     0     5     1    16
 -6.2053608283888073E-01 a       117     0     5     1    17
  1.1540819381864277E-01 a       118     0     5     1    18
  9.4282190111216408E+00 a       119     0     5     1    19
  4.4547029212750111E+00 a       120     0     5     1    20
 -2.8175081498911716E+00 a       121     0     5     1    21
 -9.3170175433018745E+00 a       122     0     5     1    22
  1.7768498841229313E+01 a       123     0     5     1    23
  8.5522948638120280E+00 a       124     0     5     1    24
  2.9096964471577520E+00 a       125     0     5     1    25
  7.8495964609355884E+00 a       126     0     6     1     1
  2.9638320094745094E+01 a       127     0     6     1     2
 -2.2568389678045704E+00 a       128     0     6     1     3
 -6.3560587346192250E+00 a       129     0     6     1     4
  9.8145025125241432E+00 a       130     0     6     1     5
  1.0351471326507493E+00 a       131     0     6     1     6
 -1.2491522851041918E+01 a       132     0     6     1     7
 -1.7553280093131331E+01 a       133     0     6     1     8
 -1.2998282790101371E+01 a       134     0     6     1     9
  7.6317822973781679E-01 a       135     0     6     1    10
 -1.6004436978039145E+01 a       136     0     6     1    11
 -1.1589559533094784E+00 a       137     0     6     1    12
 -2.2252110596407139E+01 a       138     0     6     1    13
  1.7340494205723235E+01 a       139     0     6     1    14
  2.2760639459113911E+01 a       140     0     6     1    15
 -8.2191797647025684E+00 a       141     0     6     1    16
  1.5178390691312300E+01 a       142     0     6     1    17
 -1.1164076358709434E+00 a       143     0     6     1    18
 -2.9775954137607503E+01 a       144     0     6     1    19
 -1.2308515797912944E+01 a       145     0     6     1    20
  1.6805454571274648E+01 a       146     0     6     1    21
 -2.4899894496196877E+00 a       147     0     6     1    22
  2.3118986946472603E+01 a       148     0     6     1    23
  1.9225590906489028E+01 a       149     0     6     1    24
 -2.5978163294058081E+01 a       150     0     6     1    25
 -3.1812407870128922E+01 a       151     0     7     1     1
  7.9213900481305037E+00 a       152     0     7     1     2
  1.5921291595702575E+01 a       153     0     7     1     3
 -1.5862491270006926E+01 a       154     0     7     1     4
 -5.7507066427842499E+00 a       155     0     7     1     5
 -1.0020333019802209E+01 a       156     0     7     1     6
  7.6572178515784648E+00 a       157     0     7     1     7
  2.1791021613226778E+01 a       158     0     7     1     8
  3.6647303060166223E+00 a       159     0     7     1     9
  1.5633780323113463E+01 a       160     0     7     1    10
 -7.7596681215884971E+00 a       161     0     7     1    11
 -3.7921501140479052E+01 a       162     0     7     1    12
 -1.3548840826891873E+01 a       163     0     7     1    13
  2.5639180437469378E+00 a       164     0     7     1    14
 -5.7915563300388495E+00 a       165     0     7     1    15
 -6.8073877321990590E+00 a       166     0     7     1    16
 -8.5619509554112252E+00 a       167     0     7     1    17
  6.1158225793715359E-01 a       168     0     7     1    18
 -9.2864807161585912E+00 a       169     0     7     1    19
  8.5157210954947260E+00 a       170     0     7     1    20
  2.8035786489305803E+00 a       171     0     7     1    21
  1.0437322467705860E+01 a       172     0     7     1    22
 -2.1393297351299402E+01 a       173     0     7     1    23
 -6.4007720531967287E+00 a       174     0     7     1    24
  1.1427591885870683E+01 a       175     0     7     1    25
 -8.9533716499186067E+00 a       176     0     8     1     1
 -2.0149757684309062E+01 a       177     0     8     1     2
  7.3450952188196550E-01 a       178     0     8     1     3
  6.1123124468320960E+00 a       179     0     8     1     4
 -4.0242167099956081E+00 a       180     0     8     1     5
  1.6542965547813328E+01 a       181     0     8     1     6
  8.3539713583545083E+00 a       182     0     8     1     7
  1.3288317203892721E+01 a       183     0     8     1     8
  8.5354641603780159E+00 a       184     0     8     1     9
 -1.0677267396091560E+01 a       185     0     8     1    10
  1.1324635926501184E+01 a       186     0     8     1    11
  2.2708125444580807E+00 a       187     0     8     1    12
  9.5843914620353132E+00 a       188     0     8     1    13
  6.3582755889504960E-01 a       189     0     8     1    14
 -1.1003877390717358E+01 a       190     0     8     1    15
  1.3169084279635953E+01 a       191     0     8     1    16
 -7.3498911512132361E+00 a       192     0     8     1    17
  5.4028699090633419E+00 a       193     0     8     1    18
  2.1001466889531564E+01 a       194     0     8     1    19
  6.6364941236855577E+00 a       195     0     8     1    20
 -1.4440304072135316E+01 a       196     0     8     1    21
 -2.8889092774583811E+00 a       197     0     8     1    22
 -1.7690940623718738E+01 a       198     0     8     1    23
 -1.2563524504933390E+01 a       199     0     8     1    24
  1.7678933165057913E+01 a       200     0     8     1    25
  4.4206748249416072E-01 a       201     0     9     1     1
  9.7069238494199883E+00 a       202     0     9     1     2
  1.8028264522493105E+00 a       203     0     9     1     3
 -2.9883003065981611E-01 a       204     0     9     1     4
  7.1260817424437306E+00 a       205     0     9     1     5
 -1.2070190837640075E+01 a       206     0     9     1     6
 -4.8935067060958444E+00 a       207     0     9     1     7
 -1.3640415921893385E+00 a       208     0     9     1     8
 -2.3661782459999410E+00 a       209     0     9     1     9
  4.3055748149995177E+00 a       210     0     9     1    10
 -2.2786623380818662E+00 a       211     0     9     1    11
  7.5989301092504347E-01 a       212     0     9     1    12
 -1.1028686106126802E+01 a       213     0     9     1    13
 -4.6146862709544187E+00 a       214     0     9     1    14
  1.3981490167430686E+00 a       215     0     9     1    15
 -1.1976641957836833E+01 a       216     0     9     1    16
  3.0484115243269927E-01 a       217     0     9     1    17
  3.2419014063095779E+00 a       218     0     9     1    18
 -1.3160705031884500E+01 a       219     0     9     1    19
  1.0487301524903327E+00 a       220     0     9     1    20
  3.6504305140345692E+00 a       221     0     9     1    21
 -3.6504900707171051E+00 a       222     0     9     1    22
  1.3853187745563575E+01 a       223     0     9     1    23
  1.5837998790356538E+00 a       224     0     9     1    24
 -8.5740418871375788E+00 a       225     0     9     1    25
  1.4315607320423641E+01 a       226     0    10     1     1
 -9.2672556033837257E+00 a       227     0    10     1     2
 -2.0195855344056999E+00 a       228     0    10     1     3
  4.7942377600344868E+00 a       229     0    10     1     4
  2.3676231098069855E-01 a       230     0    10     1     5
 -2.6103776352193084E+00 a       231     0    10     1     6
 -1.0534476136555819E+01 a       232     0    10     1     7
 -1.5147696008388856E+01 a       233     0    10     1     8
 -1.6588081276463382E+00 a       234     0    10     1     9
 -8.0317082169618903E+00 a       235     0    10     1    10
  2.1828376794261972E+00 a       236     0    10     1    11
  2.3576016498083842E+01 a       237     0    10     1    12
  1.3543454533549834E+01 a       238     0    10     1    13
  8.5749440193070836E-01 a       239     0    10     1    14
  4.5711592914846806E+00 a       240     0    10     1    15
  7.1912658310831352E+00 a       241     0    10     1    16
  6.8414105103834411E+00 a       242     0    10     1    17
  3.1066920828663269E+00 a       243     0    10     1    18
  4.9752119796225465E+00 a       244     0    10     1    19
 -3.0509044678415602E+00 a       245     0    10     1    20
 -1.6037614646952509E+00 a       246     0    10     1    21
 -7.9176782459633257E+00 a       247     0    10     1    22
  9.5140122135039000E+00 a       248     0    10     1    23
  2.2049338542976384E+00 a       249     0    10     1    24
 -6.7120786265872692E+00 a       250     0    10     1    25
  4.0410348588827523E+00 a       251     0    11     1     1
 -3.9885194827030879E+00 a       252     0    11     1     2
 -2.2596480360160651E+00 a       253     0    11     1     3
 -8.7511275060941740E-01 a       254     0    11     1     4
  8.3535377874976890E-01 a       255     0    11     1     5
  2.7332342071095113E+00 a       256     0    11     1     6
  3.2943730325993621E+00 a       257     0    11     1     7
  4.9775849825208585E-01 a       258     0    11     1     8
  1.7545527616310828E+00 a       259     0    11     1     9
 -2.6430063054069350E+00 a       260     0    11     1    10
  1.1128877342611747E+00 a       261     0    11     1    11
 -1.6518609358889085E+00 a       262     0    11     1    12
  7.7511684959348006E+00 a       263     0    11     1    13
  2.6689561213979585E+00 a       264     0    11     1    14
 -3.1399103595610822E-01 a       265     0    11     1    15
  3.0925123557411660E+00 a       266     0    11     1    16
  2.0078680674492535E+00 a       267     0    11     1    17
 -2.1993479069500976E-01 a       268     0    11     1    18
  7.2843210939663763E+00 a       269     0    11     1    19
 -5.3621156033838107E+00 a       270     0    11     1    20
  1.3841184429129729E+00 a       271     0    11     1    21
 -5.9789698185303408E-01 a       272     0    11     1    22
 -1.0047096836058426E+01 a       273     0    11     1    23
  2.2247796859685263E+00 a       274     0    11     1    24
  5.9045375847620845E+00 a       275     0    11     1    25
  1.6405879845183757E+00 a       276     0    12     1     1
  8.6643701484324467E+00 a       277     0    12     1     2
 -2.6449814012098392E+00 a       278     0    12     1     3
 -1.4854854138531117E+00 a       279     0    12     1     4
 -2.0467576361038931E+00 a       280     0    12     1     5
 -1.4408316577051430E+00 a       281     0    12     1     6
  8.2460013080373731E+00 a       282     0    12     1     7
  8.3495124443283313E+00 a       283     0    12     1     8
 -7.4665260389970245E-01 a       284     0    12     1     9
  3.0269404011452337E+00 a       285     0    12     1    10
  4.4038519989899788E-01 a       286     0    12     1    11
 -7.5837427384658875E+00 a       287     0    12     1    12
 -2.9310561347474512E-01 a       288     0    12     1    13
  1.3908381484149059E+00 a       289     0    12     1    14
 -2.2457258013806252E+00 a       290     0    12     1    15
  5.0711372087889890E+00 a       291     0    12     1    16
 -5.0100230108086947E+00 a       292     0    12     1    17
 -7.6159919048554983E+00 a       293     0    12     1    18
 -1.6271599129557994E+00 a       294     0    12     1    19
  7.7957573386847169E-03 a       295     0    12     1    20
  8.8701026994877086E-01 a       296     0    12     1    21
 -2.0005222072612471E-02 a       297     0    12     1    22
 -2.6645218734181664E+00 a       298     0    12     1    23
  3.0740890225943160E+00 a       299     0    12     1    24
 -2.4205623668785790E+00 a       300     0    12     1    25
 -2.4657710421916330E+00 a       301     0    13     1     1
  2.1645061458132466E+00 a       302     0    13     1     2
  6.1043115878086118E-01 a       303     0    13     1     3
  1.2678352414725089E+00 a       304     0    13     1     4
 -3.1609301712777232E-01 a       305     0    13     1     5
  3.2121030803101641E-01 a       306     0    13     1     6
 -2.8838211177466055E-01 a       307     0    13     1     7
 -4.3871297772269208E-01 a       308     0    13     1     8
 -5.1499372713282821E-01 a       309     0    13     1     9
  1.1987399985294998E+00 a       310     0    13     1    10
 -2.0094179121026636E+00 a       311     0    13     1    11
  9.0157226034931348E-01 a       312     0    13     1    12
 -1.7311984369394171E+00 a       313     0    13     1    13
  1.8478306375087594E-01 a       314     0    13     1    14
 -9.7456108542298536E-01 a       315     0    13     1    15
  2.6935205757673114E-01 a       316     0    13     1    16
  3.1111803841762409E-01 a       317     0    13     1    17
  1.3979851817205818E-01 a       318     0    13     1    18
 -3.0435247314839415E+00 a       319     0    13     1    19
  3.9549186190667442E+00 a       320     0    13     1    20
  4.7390225587667117E-01 a       321     0    13     1    21
  5.1942543391155993E-01 a       322     0    13     1    22
  6.6757871512521367E+00 a       323     0    13     1    23
 -2.0608696596439962E+00 a       324     0    13     1    24
 -1.3452592798849485E+00 a       325     0    13     1    25
 -2.1584229228637158E-01 a       326     0    14     1     1
 -7.8814919509823200E+00 a       327     0    14     1     2
 -6.4922005755126300E-01 a       328     0    14     1     3
  3.7786753323333777E-01 a       329     0    14     1     4
 -2.2767789782499555E+00 a       330     0    14     1     5
  1.3168588096750797E+00 a       331     0    14     1     6
 -4.9511753753234833E-01 a       332     0    14     1     7
 -2.3863382488575211E+00 a       333     0    14     1     8
 -4.8131043081184188E-01 a       334     0    14     1     9
 -2.7076397241645065E+00 a       335     0    14     1    10
 -1.4681107722738138E+00 a       336     0    14     1    11
  9.0983287416995982E+00 a       337     0    14     1    12
  1.7864711867601710E+00 a       338     0    14     1    13
 -2.0166597088995517E+00 a       339     0    14     1    14
  7.8993170164548254E-01 a       340     0    14     1    15
  2.2797740219639731E+00 a       341     0    14     1    16
  2.1113732360244262E+00 a       342     0    14     1    17
  1.5084716017658362E+00 a       343     0    14     1    18
 -2.5692410864158954E-01 a       344     0    14     1    19
  5.3205901968792757E-01 a       345     0    14     1    20
 -1.1689046556775344E+00 a       346     0    14     1    21
 -4.9414705734058710E+00 a       347     0    14     1    22
  1.9461950865245590E+00 a       348     0    14     1    23
 -1.8010253083937919E+00 a       349     0    14     1    24
 -1.5649992477900432E+00 a       350     0    14     1    25
  7.1734506263944264E-01 a       351     0    15     1     1
 -1.8728840457599211E-01 a       352     0    15     1     2
 -5.5500585497418298E-01 a       353     0    15     1     3
  4.0906258807014834E-01 a       354     0    15     1     4
 -1.0326681759965430E+00 a       355     0    15     1     5
 -1.6009674241006641E-01 a       356     0    15     1     6
 -2.9533004811770225E-01 a       357     0    15     1     7
  1.3228676204572878E-01 a       358     0    15     1     8
 -2.5786432811592044E+00 a       359     0    15     1     9
  1.1770299973724634E+00 a       360     0    15     1    10
 -4.9882016513009214E-01 a       361     0    15     1    11
  1.5187690678394522E-01 a       362     0    15     1    12
  1.0794928651952156E-01 a       363     0    15     1    13
 -1.1367990915800992E+00 a       364     0    15     1    14
 -7.4097079543950140E-01 a       365     0    15     1    15
 -3.8236341364181642E-01 a       366     0    15     1    16
 -7.0322408335184416E-01 a       367     0    15     1    17
 -5.4999251792386727E-01 a       368     0    15     1    18
  1.0658584908467432E+00 a       369     0    15     1    19
 -1.9171000505176350E+00 a       370     0    15     1    20
  1.2195916487362035E+00 a       371     0    15     1    21
 -9.8712061358299630E-02 a       372     0    15     1    22
  4.7412636567539324E-01 a       373     0    15     1    23
  1.9610438347758150E-01 a       374     0    15     1    24
  8.5393756755804118E-01 a       375     0    15     1    25
  8.5231355683353416E-01 a       376     0    16     1     1
  6.0518444413920642E+00 a       377     0    16     1     2
  5.1019438449923038E-01 a       378     0    16     1     3
  4.0317600268367376E-01 a       379     0    16     1     4
  1.4910529094613847E-01 a       380     0    16     1     5
 -2.1559781578637773E-02 a       381     0    16     1     6
 -1.1613226395942584E+00 a       382     0    16     1     7
 -6.1837289064011991E-01 a       383     0    16     1     8
 -2.5345900218198203E-01 a       384     0    16     1     9
  1.2643175113334642E+00 a       385     0    16     1    10
  3.8277821552612346E-01 a       386     0    16     1    11
  2.1112014135568229E+00 a       387     0    16     1    12
 -6.0522309914613000E-02 a       388     0    16     1    13
  8.6874847057455740E-01 a       389     0    16     1    14
 -5.4259323238587465E-01 a       390     0    16     1    15
  1.0725830980640418E-02 a       391     0    16     1    16
 -2.4582158300001059E-02 a       392     0    16     1    17
 -2.8817466820670201E-01 a       393     0    16     1    18
 -7.8516657328428108E-02 a       394     0    16     1    19
  6.0869688560481150E-01 a       395     0    16     1    20
  7.7106815175430921E-01 a       396     0    16     1    21
  1.1313376017426455E+00 a       397     0    16     1    22
  1.1935964490085994E-01 a       398     0    16     1    23
 -3.2473523645695274E-01 a       399     0    16     1    24
  5.1092409194696975E-01 a       400     0    16     1    25
  3.4053670280453097E-01 a       401     0    17     1     1
 -8.8358528527946278E-01 a       402     0    17     1     2
 -2.8050551805217341E-02 a       403     0    17     1     3
 -6.3339552766035889E-01 a       404     0    17     1     4
  1.6180663374983648E-01 a       405     0    17     1     5
  1.5447023108417792E+00 a       406     0    17     1     6
  1.2152429413267918E+00 a       407     0    17     1     7
 -5.6531181445456069E-01 a       408     0    17     1     8
 -5.0688043335171495E-01 a       409     0    17     1     9
  1.4328191834098898E+00 a       410     0    17     1    10
 -1.9746960481636830E+00 a       411     0    17     1    11
  3.6909897156330231E-02 a       412     0    17     1    12
 -3.2400912787113717E-01 a       413     0    17     1    13
  3.8234323867074410E-01 a       414     0    17     1    14
 -1.4422264125476829E+00 a       415     0    17     1    15
  1.7131419605241025E+00 a       416     0    17     1    16
  1.6073937335252793E+00 a       417     0    17     1    17
  5.8969516757655875E-02 a       418     0    17     1    18
 -2.3580994443641381E+00 a       419     0    17     1    19
 -1.4920950725007737E-01 a       420     0    17     1    20
  2.8253006826359459E+00 a       421     0    17     1    21
 -1.3448193943854458E+00 a       422     0    17     1    22
 -1.0246035723982001E-01 a       423     0    17     1    23
  6.1956934287916676E-01 a       424     0    17     1    24
 -2.5087349829874834E+00 a       425     0    17     1    25
 -3.5571023658801413E+00 a       426     0    18     1     1
  1.5373153009476809E+01 a       427     0    18     1     2
  1.1134205923361856E+01 a       428     0    18     1     3
 -1.4147722956818645E+00 a       429     0    18     1     4
  1.5676556330802547E+00 a       430     0    18     1     5
  1.6518419047986953E+01 a       431     0    18     1     6
 -6.7992096158178175E+00 a       432     0    18     1     7
  1.2531677215255892E+01 a       433     0    18     1     8
  8.1285639501879003E-01 a       434     0    18     1     9
 -8.6454641790380471E+00 a       435     0    18     1    10
 -7.2258462087099291E+00 a       436     0    18     1    11
 -3.8344514748511620E+00 a       437     0    18     1    12
  1.3904327947334838E+00 a       438     0    18     1    13
 -3.3265647176044104E+00 a       439     0    18     1    14
  5.4643688310955456E+00 a       440     0    18     1    15
  5.6612859602312424E+00 a       441     0    18     1    16
  1.6730693771309684E+00 a       442     0    18     1    17
  1.8168707889260396E+01 a       443     0    18     1    18
 -2.8694749393586911E+00 a       444     0    18     1    19
  1.6237378537820401E+01 a       445     0    18     1    20
 -7.1169527562217585E+00 a       446     0    18     1    21
 -2.5467586043844364E+00 a       447     0    18     1    22
  2.2208227379134704E+00 a       448     0    18     1    23
  1.8080982425446905E+00 a       449     0    18     1    24
  3.2602542954080507E+00 a       450     0    18     1    25
  5.3527204025439321E+00 a       451     0    19     1     1
  9.0630792305744512E-01 a       452     0    19     1     2
  1.8018522226444202E+00 a       453     0    19     1     3
  8.9486689908461647E-01 a       454     0    19     1     4
  1.4183626579496624E+00 a       455     0    19     1     5
  2.0690594638653690E+00 a       456     0    19     1     6
 -1.0523831852536207E+00 a       457     0    19     1     7
  1.2953808351166354E-01 a       458     0    19     1     8
  4.2172355950810164E-01 a       459     0    19     1     9
 -3.2101404333149524E+00 a       460     0    19     1    10
  9.8878498309944796E-01 a       461     0    19     1    11
 -1.1808247858421355E+00 a       462     0    19     1    12
  9.4097442716193747E-01 a       463     0    19     1    13
 -1.1628637746354895E+00 a       464     0    19     1    14
  2.8548375958954888E+00 a       465     0    19     1    15
 -3.1489175827560918E+00 a       466     0    19     1    16
 -1.1750836342120738E+00 a       467     0    19     1    17
 -1.5753761553937404E+00 a       468     0    19     1    18
  2.6793579013844200E+00 a       469     0    19     1    19
 -2.3071187734302954E+00 a       470     0    19     1    20
 -5.1491684124151571E-01 a       471     0    19     1    21
  4.7448550830520242E+00 a       472     0    19     1    22
 -2.5427244925564221E+00 a       473     0    19     1    23
 -2.5991416528469320E+00 a       474     0    19     1    24
  1.7293461383508346E+00 a       475     0    19     1    25
 -1.0150083997013173E+00 a       476     0    20     1     1
 -1.5691985374837659E+01 a       477     0    20     1     2
 -1.8946023783736912E+01 a       478     0    20     1     3
 -1.9145870507574714E+00 a       479     0    20     1     4
 -4.5955717476105127E+00 a       480     0    20     1     5
 -3.0516933419735782E+01 a       481     0    20     1     6
  1.0473751675987121E+01 a       482     0    20     1     7
 -1.9798047665524891E+01 a       483     0    20     1     8
 -3.8167109112977077E-01 a       484     0    20     1     9
  1.5640518061020346E+01 a       485     0    20     1    10
  1.4040354254643761E+01 a       486     0    20     1    11
  5.6496788040668537E+00 a       487     0    20     1    12
 -6.2189446420858934E+00 a       488     0    20     1    13
  1.2323417674712308E+01 a       489     0    20     1    14
 -1.1567500702210506E+01 a       490     0    20     1    15
 -4.8493050254063039E+00 a       491     0    20     1    16
 -4.2968338389571761E+00 a       492     0    20     1    17
 -9.3429771569622098E+00 a       493     0    20     1    18
  4.9418946669560428E+00 a       494     0    20     1    19
 -8.9317074716264671E+00 a       495     0    20     1    20
  2.8644647389998075E+00 a       496     0    20     1    21
  3.9950316839452102E+00 a       497     0    20     1    22
 -1.2736509032061984E+00 a       498     0    20     1    23
 -6.0338159781773930E+00 a       499     0    20     1    24
 -4.1367511197293085E+00 a       500     0    20     1    25
  8.7085599663459696E+00 a       501     0    21     1     1
 -3.8518316240782715E+00 a       502     0    21     1     2
  1.7653493292426905E+00 a       503     0    21     1     3
  3.9770273118122432E+00 a       504     0    21     1     4
  4.4507973332003630E+00 a       505     0    21     1     5
  1.2951107848435555E+01 a       506     0    21     1     6
  6.5645786387018266E+00 a       507     0    21     1     7
 -9.0251940729674693E+00 a       508     0    21     1     8
 -1.2486083066904592E+00 a       509     0    21     1     9
  6.0145133072797234E+00 a       510     0    21     1    10
  8.7824282307067350E+00 a       511     0    21     1    11
  6.7357371442363041E+00 a       512     0    21     1    12
 -2.4328549121723757E+00 a       513     0    21     1    13
  6.3213701971856500E+00 a       514     0    21     1    14
  2.2224599499921540E+00 a       515     0    21     1    15
  9.8379334641726646E-01 a       516     0    21     1    16
 -8.7182978928077421E+00 a       517     0    21     1    17
  1.9722619003996630E+01 a       518     0    21     1    18
 -1.1741168324236444E+01 a       519     0    21     1    19
  1.0508912715450169E+01 a       520     0    21     1    20
  3.1921365744077841E+00 a       521     0    21     1    21
 -5.8758661461025685E+00 a       522     0    21     1    22
 -2.7013479919083836E+00 a       523     0    21     1    23
 -1.8450475392921661E+01 a       524     0    21     1    24
  4.1148273808351181E+00 a       525     0    21     1    25
 -3.0171506899594931E+00 a       526     0    22     1     1
 -1.0361589409572605E+00 a       527     0    22     1     2
 -3.4006457423579595E+00 a       528     0    22     1     3
 -6.1419776812578615E+00 a       529     0    22     1     4
 -9.2289803693833559E+00 a       530     0    22     1     5
 -3.8426605978325870E+00 a       531     0    22     1     6
 -4.6679641914664147E+00 a       532     0    22     1     7
 -4.1795612139908589E-01 a       533     0    22     1     8
 -4.7401265454874453E-01 a       534     0    22     1     9
  7.2779370308657070E+00 a       535     0    22     1    10
 -1.5185687777335419E+01 a       536     0    22     1    11
 -5.9161648078585805E-01 a       537     0    22     1    12
  7.2884034669208733E+00 a       538     0    22     1    13
 -4.6440767404359455E+00 a       539     0    22     1    14
 -7.3585764475326707E+00 a       540     0    22     1    15
  4.8252753286521104E+00 a       541     0    22     1    16
 -3.9148883683796654E+00 a       542     0    22     1    17
 -1.0429607902245824E+01 a       543     0    22     1    18
  7.1501514885878050E+00 a       544     0    22     1    19
  1.2233355842395575E+00 a       545     0    22     1    20
 -6.5149113872183877E+00 a       546     0    22     1    21
  8.3472844559029920E+00 a       547     0    22     1    22
 -5.2772308284112297E+00 a       548     0    22     1    23
  4.6699161556730227E+00 a       549     0    22     1    24
 -1.2226230012516339E+00 a       550     0    22     1    25
 -1.2922567416460471E+00 a       551     0    23     1     1
  8.8793734007030380E+00 a       552     0    23     1     2
  2.8213727315678514E+00 a       553     0    23     1     3
  4.4415390715824348E+00 a       554     0    23     1     4
  1.0679680329475645E+00 a       555     0    23     1     5
  6.4642433701865825E+00 a       556     0    23     1     6
  4.8839586804305046E+00 a       557     0    23     1     7
  9.4427141036872708E+00 a       558     0    23     1     8
  3.6201521397399832E+00 a       559     0    23     1     9
 -1.1968888313226581E-01 a       560     0    23     1    10
 -1.0103516375328498E+01 a       561     0    23     1    11
 -1.9388597571039728E+01 a       562     0    23     1    12
 -4.9846832642695240E+00 a       563     0    23     1    13
 -1.6782778895485208E+01 a       564     0    23     1    14
  8.7766218264276201E+00 a       565     0    23     1    15
 -1.2238680888537816E+01 a       566     0    23     1    16
  1.1582603551271731E+01 a       567     0    23     1    17
 -2.5622543106371069E+01 a       568     0    23     1    18
  1.8198559398325010E+01 a       569     0    23     1    19
 -1.8152644040435405E+01 a       570     0    23     1    20
  4.0455709047064339E+00 a       571     0    23     1    21
  1.6909574867870854E+00 a       572     0    23     1    22
  3.0998112491774088E+00 a       573     0    23     1    23
  9.5309792187658680E+00 a       574     0    23     1    24
 -1.1773169544561025E+01 a       575     0    23     1    25
  1.6321308421471823E+00 a       576     0    24     1     1
 -3.8120763573411320E+00 a       577     0    24     1     2
  2.8842137903492726E+00 a       578     0    24     1     3
  5.9661199410968879E-01 a       579     0    24     1     4
 -1.9042548111547566E-01 a       580     0    24     1     5
 -2.6360564572782552E+00 a       581     0    24     1     6
  9.1196994076984623E+00 a       582     0    24     1     7
  3.6555733924955107E+00 a       583     0    24     1     8
 -2.3499767750163691E+00 a       584     0    24     1     9
 -1.2319106637658107E+01 a       585     0    24     1    10
  4.7811994479487359E+00 a       586     0    24     1    11
  8.4433130344409637E+00 a       587     0    24     1    12
  3.2254963096310263E+00 a       588     0    24     1    13
  1.8086085338827537E-01 a       589     0    24     1    14
 -4.1614448043278172E+00 a       590     0    24     1    15
  9.5956577006456385E+00 a       591     0    24     1    16
 -1.0634064208506800E+01 a       592     0    24     1    17
  7.4563191506907756E-01 a       593     0    24     1    18
 -9.3641291458703524E+00 a       594     0    24     1    19
  8.4507429004407753E-01 a       595     0    24     1    20
  2.1372044179278800E+00 a       596     0    24     1    21
 -1.0094780849670929E+01 a       597     0    24     1    22
 -4.4818469413641454E-01 a       598     0    24     1    23
  4.2972524490117312E+00 a       599     0    24     1    24
  3.4273272571631690E+00 a       600     0    24     1    25
 -4.2333095536069694E+00 a       601     0    25     1     1
  3.4111244259755837E+00 a       602     0    25     1     2
 -2.0645766713139020E+00 a       603     0    25     1     3
 -1.2974627310457787E+00 a       604     0    25     1     4
  2.8928749561761777E+00 a       605     0    25     1     5
 -6.8011436766406259E+00 a       606     0    25     1     6
  9.0948998551893243E-02 a       607     0    25     1     7
 -1.5571319477904835E+00 a       608     0    25     1     8
  2.4377226022269864E+00 a       609     0    25     1     9
 -4.4927008825453605E+00 a       610     0    25     1    10
  3.7443820954929712E+00 a       611     0    25     1    11
 -6.0999405449727160E+00 a       612     0    25     1    12
 -4.7000278151027679E+00 a       613     0    25     1    13
 -5.6438576754187186E-01 a       614     0    25     1    14
  2.5493208943535470E+00 a       615     0    25     1    15
 -1.2697970252348942E+01 a       616     0    25     1    16
  4.2538928507359257E+00 a       617     0    25     1    17
 -3.2986723474643163E+00 a       618     0    25     1    18
  1.1558837899208349E+01 a       619     0    25     1    19
 -8.8945425958156683E+00 a       620     0    25     1    20
  1.3574913689331654E+00 a       621     0    25     1    21
  3.0555962552604106E+00 a       622     0    25     1    22
  2.0715736870003867E+00 a       623     0    25     1    23
  5.2433225595515989E+00 a       624     0    25     1    24
 -3.8134305177930783E-01 a       625     0    25     1    25
  6.0126386022482450E-03 a       626     0    26     1     1
 -5.8962248881600141E+00 a       627     0    26     1     2
  1.9071125906864430E+00 a       628     0    26     1     3
 -3.6911491148614181E-02 a       629     0    26     1     4
  4.7793087579937312E+00 a       630     0    26     1     5
  3.8094537072879548E+00 a       631     0    26     1     6
 -2.1659179723079859E+01 a       632     0    26     1     7
 -4.0215300104903422E+00 a       633     0    26     1     8
 -2.3749797372658308E+00 a       634     0    26     1     9
 -6.9081943764700728E+00 a       635     0    26     1    10
  2.1700660821365783E+00 a       636     0    26     1    11
  9.3396698635961837E+00 a       637     0    26     1    12
 -5.5477529665709013E-01 a       638     0    26     1    13
  4.0298087134033329E+00 a       639     0    26     1    14
  1.3596686194802889E+00 a       640     0    26     1    15
  5.1229763616351640E+00 a       641     0    26     1    16
  6.0260809927121750E+00 a       642     0    26     1    17
  1.6650340508219688E+01 a       643     0    26     1    18
 -1.2433671756757674E+01 a       644     0    26     1    19
  8.0031256122060661E+00 a       645     0    26     1    20
 -2.6100825923945830E+00 a       646     0    26     1    21
  8.6079115240247148E+00 a       647     0    26     1    22
  5.6279503165325337E+00 a       648     0    26     1    23
 -7.5873626915901093E+00 a       649     0    26     1    24
  9.3229714384559692E+00 a       650     0    26     1    25
 -4.5241961260967251E-01 a       651     0    27     1     1
  6.9421685176381933E+00 a       652     0    27     1     2
 -1.7600026325863083E-01 a       653     0    27     1     3
 -3.6228643910751974E+00 a       654     0    27     1     4
  1.7717236333529693E-01 a       655     0    27     1     5
 -1.3256630113566794E+00 a       656     0    27     1     6
  4.1837393099889271E+00 a       657     0    27     1     7
  1.2907337953830702E+00 a       658     0    27     1     8
  4.0033430811885740E-01 a       659     0    27     1     9
  5.4530506620304321E-02 a       660     0    27     1    10
 -5.8495481899733437E-01 a       661     0    27     1    11
 -3.4698733898227458E+00 a       662     0    27     1    12
  9.2228701956541995E-02 a       663     0    27     1    13
  5.3577630628786999E-01 a       664     0    27     1    14
  1.4413991835999524E+00 a       665     0    27     1    15
 -1.0772878455469979E+00 a       666     0    27     1    16
 -2.2214646131012357E+00 a       667     0    27     1    17
 -4.2695157977973414E-01 a       668     0    27     1    18
  1.9250158534384143E+00 a       669     0    27     1    19
 -7.5426968507521142E-01 a       670     0    27     1    20
 -3.9709661151846720E-01 a       671     0    27     1    21
 -7.8476161592156901E-01 a       672     0    27     1    22
 -2.6959575153984936E+00 a       673     0    27     1    23
  1.3552337816498836E+00 a       674     0    27     1    24
 -2.4405750032915066E+00 a       675     0    27     1    25
  1.0129046268321551E+00 b       676     1     1
  2.5447010269520716E+00 b       677     1     2
 -1.7474313270547759E-01 b       678     1     3
 -1.1861285886402897E+00 b       679     1     4
 -5.8583517623132519E-01 b       680     1     5
  9.0493133636450129E-01 b       681     1     6
  1.0924102743101665E+00 b       682     1     7
 -7.7315377278889975E-03 b       683     1     8
  1.8023786758115397E+00 b       684     1     9
 -1.8230675086723422E-01 b       685     1    10
 -1.0301338213570717E+00 b       686     1    11
  1.0299526727492796E+00 b       687     1    12
 -1.4121742143742835E-01 b       688     1    13
  4.6419734329517781E-01 b       689     1    14
 -1.1546729238991893E+00 b       690     1    15
 -1.6235323697890416E-01 b       691     1    16
 -6.0509474400638030E-01 b       692     1    17
  2.5124089640397562E-01 b       693     1    18
  1.6596670988253587E-01 b       694     1    19
 -5.5051517664312577E-01 b       695     1    20
  7.6393397390543216E-01 b       696     1    21
 -6.7205246220400783E-01 b       697     1    22
  1.9750638507632470E+00 b       698     1    23
 -1.0134764924150041E+00 b       699     1    24
  4.9973360614255030E-01 b       700     1    25
  9.7624951753691502E-01 a       701     1     1     2     1
 -2.0246290734367145E-01 a       702     1     1     2     2
 -6.2068133313653484E-01 a       703     1     1     2     3
 -7.4427135761825369E-01 a       704     1     1     2     4
 -5.3050825626026465E-01 a       705     1     1     2     5
 -9.1524742464210607E-02 a       706     1     1     2     6
 -3.2247454712437782E+00 a       707     1     1     2     7
  7.5152472181859298E-01 a       708     1     1     2     8
 -1.0753652266588692E-01 a       709     1     1     2     9
  1.1254467207084533E+00 a       710     1     1     2    10
 -2.0442775705759901E+00 a       711     1     1     2    11
 -1.6013358072934714E-01 a       712     1     1     2    12
 -1.8942685587219521E+00 a       713     1     1     2    13
  4.0571760924935091E-01 a       714     1     1     2    14
 -2.9934785023666127E-01 a       715     1     1     2    15
 -6.5105530445232407E-01 a       716     1     1     2    16
  9.7292465934760841E-01 a       717     1     1     2    17
 -9.0609497896825530E-01 a       718     1     1     2    18
 -9.6610899124539601E-02 a       719     1     1     2    19
 -1.3096054491293421E-01 a       720     1     1     2    20
  1.9099530173757165E-01 a       721     1     1     2    21
 -7.9800577528113803E-01 a       722     1     1     2    22
  6.5079318473860293E-01 a       723     1     1     2    23
  6.6487140969470926E-01 a       724     1     1     2    24
  1.1387234978611935E+00 a       725     1     1     2    25
 -7.4988883105055859E-01 a       726     1     2     2     1
  5.9425274810042394E-01 a       727     1     2     2     2
  7.3830949123590270E-02 a       728     1     2     2     3
 -9.2916736101517772E-01 a       729     1     2     2     4
  2.2254230005401721E+00 a       730     1     2     2     5
  7.0076338490886396E+00 a       731     1     2     2     6
 -2.8649672687456418E-01 a       732     1     2     2     7
 -2.3297965152790856E+00 a       733     1     2     2     8
  2.9742685290050719E-01 a       734     1     2     2     9
 -6.8681330971348709E-01 a       735     1     2     2    10
  1.4401673691037828E+00 a       736     1     2     2    11
 -1.0394154246514722E+01 a       737     1     2     2    12
 -1.5040930771484231E+00 a       738     1     2     2    13
  7.3579262846058993E-02 a       739     1     2     2    14
 -9.9205157361808567E+00 a       740     1     2     2    15
  4.4994218109862488E-01 a       741     1     2     2    16
  5.6179067910060143E-01 a       742     1     2     2    17
 -4.2511152555230824E-01 a       743     1     2     2    18
 -4.0933516567480921E-01 a       744     1     2     2    19
 -7.2131420079144148E-01 a       745     1     2     2    20
  1.2577821948042740E+00 a       746     1     2     2    21
  1.0112550493014916E+00 a       747     1     2     2    22
  1.4553157112126087E+00 a       748     1     2     2    23
  1.2186973544867428E+00 a       749     1     2     2    24
 -1.9296224003468361E+00 a       750     1     2     2    25
 -1.4388085331436020E+00 a       751     1     3     2     1
  4.5760185873875231E-01 a       752     1     3     2     2
 -1.1119803452308563E+00 a       753     1     3     2     3
  7.0589337546081632E-01 a       754     1     3     2     4
  2.1271851976883714E-02 a       755     1     3     2     5
  6.2991669490792135E-01 a       756     1     3     2     6
  1.2272537736486717E+00 a       757     1     3     2     7
 -1.9906084487229508E-01 a       758     1     3     2     8
 -1.4392262301475085E+00 a       759     1     3     2     9
 -3.1224953391896060E-01 a       760     1     3     2    10
  1.1849659404055568E+00 a       761     1     3     2    11
 -2.8630806876688251E+00 a       762     1     3     2    12
  3.3132141190374720E-01 a       763     1     3     2    13
  2.2870776476750562E-01 a       764     1     3     2    14
 -7.3777367150631668E-01 a       765     1     3     2    15
 -2.1823838096733900E-01 a       766     1     3     2    16
 -3.0854722497887455E-01 a       767     1     3     2    17
 -5.2555292197805650E-02 a       768     1     3     2    18
 -4.9773589508491978E-01 a       769     1     3     2    19
  3.7555099519165080E-01 a       770     1     3     2    20
  1.0846234289751666E-01 a       771     1     3     2    21
 -1.0301985041401631E+00 a       772     1     3     2    22
  9.6708374047426826E-04 a       773     1     3     2    23
 -3.5414081766341315E-01 a       774     1     3     2    24
 -1.0439896493491254E+00 a       775     1     3     2    25
 -1.3136373491712476E+00 a       776     1     4     2     1
  9.2321243397104258E-01 a       777     1     4     2     2
  1.9691607857886090E-01 a       778     1     4     2     3
 -1.6527461911062560E+00 a       779     1     4     2     4
 -1.1941720344939641E+00 a       780     1     4     2     5
  5.7196902616088907E-01 a       781     1     4     2     6
 -1.1389861013518516E+00 a       782     1     4     2     7
 -4.4031659148582070E-01 a       783     1     4     2     8
 -5.3955977846266612E-01 a       784     1     4     2     9
 -9.2610496667311082E-01 a       785     1     4     2    10
 -3.1327306013344667E+00 a       786     1     4     2    11
  3.0910907682419075E-01 a       787     1     4     2    12
 -2.0354906864109403E+00 a       788     1     4     2    13
 -1.7561229769129122E-01 a       789     1     4     2    14
 -2.7912454736565601E-01 a       790     1     4     2    15
  1.1818435253514088E-01 a       791     1     4     2    16
  5.8903955309936573E-01 a       792     1     4     2    17
 -1.3512724173252533E+00 a       793     1     4     2    18
  1.2363597547253029E+00 a       794     1     4     2    19
 -6.7618958628416637E-01 a       795     1     4     2    20
  8.4278803385415255E-02 a       796     1     4     2    21
 -3.8835131562028224E-01 a       797     1     4     2    22
  1.3876701516660990E+00 a       798     1     4     2    23
 -7.4039150837874712E-01 a       799     1     4     2    24
  8.1354787110759205E-02 a       800     1     4     2    25
 -1.2814438880485832E+00 a       801     1     5     2     1
  5.4382017385528958E-01 a       802     1     5     2     2
  2.2323044118001505E+00 a       803     1     5     2     3
  3.9351202730503781E-01 a       804     1     5     2     4
 -1.8723634105945750E+00 a       805     1     5     2     5
  1.7079468415814361E+00 a       806     1     5     2     6
 -2.1168538452001939E-01 a       807     1     5     2     7
 -5.2509166844658584E-01 a       808     1     5     2     8
  1.4232492516426880E+00 a       809     1     5     2     9
  1.2548552504894963E+00 a       810     1     5     2    10
 -5.4682708747430320E-01 a       811     1     5     2    11
 -2.4150665561887661E+00 a       812     1     5     2    12
 -1.3198488481522734E+00 a       813     1     5     2    13
 -1.3711755586790525E-01 a       814     1     5     2    14
 -6.7446826704643936E-01 a       815     1     5     2    15
  5.3133828382026327E-01 a       816     1     5     2    16
 -2.5202944136004271E+00 a       817     1     5     2    17
 -1.3006605494796115E+00 a       818     1     5     2    18
  1.3248872382487784E+00 a       819     1     5     2    19
 -1.0484024816077711E+00 a       820     1     5     2    20
  5.3970387053647007E-01 a       821     1     5     2    21
  8.2828940551517483E-01 a       822     1     5     2    22
  5.3736299837069479E-01 a       823     1     5     2    23
  3.8482955883606002E-01 a       824     1     5     2    24
  1.4805773445182289E+00 a       825     1     5     2    25
  2.3186246146525740E+00 a       826     1     6     2     1
 -1.5695579909170143E-01 a       827     1     6     2     2
 -1.6283498590608310E+00 a       828     1     6     2     3
  4.7837151465508565E-01 a       829     1     6     2     4
 -1.4876379997408709E+00 a       830     1     6     2     5
 -4.1174575699430227E-01 a       831     1     6     2     6
  5.7856745913882790E-01 a       832     1     6     2     7
 -1.0263697560184561E+00 a       833     1     6     2     8
  2.2240555722462965E+00 a       834     1     6     2     9
  9.3415021206681248E-01 a       835     1     6     2    10
  7.6769187350043966E-01 a       836     1     6     2    11
 -2.9665021629982435E+00 a       837     1     6     2    12
 -5.9015738473929746E-01 a       838     1     6     2    13
  4.2117076753359128E-01 a       839     1     6     2    14
  3.5225656950415862E-01 a       840     1     6     2    15
 -2.2538617290733079E-01 a       841     1     6     2    16
 -9.3656363351476857E-01 a       842     1     6     2    17
 -7.7932854466389112E-01 a       843     1     6     2    18
 -3.2916693707700728E-01 a       844     1     6     2    19
  1.1530349031623750E+00 a       845     1     6     2    20
  4.1263970120345717E-01 a       846     1     6     2    21
 -7.9765272402815252E-02 a       847     1     6     2    22
  1.1310760186653743E+00 a       848     1     6     2    23
  6.0745496445423230E-01 a       849     1     6     2    24
 -8.3333541787821244E-04 a       850     1     6     2    25
 -4.5634581630213494E-01 a       851     1     7     2     1
  8.9426572250947045E-01 a       852     1     7     2     2
 -6.9900321874497251E-01 a       853     1     7     2     3
 -1.4942257084253091E-01 a       854     1     7     2     4
 -1.1309891413336048E+00 a       855     1     7     2     5
 -5.3237490531405152E-01 a       856     1     7     2     6
 -3.7109583662887974E-01 a       857     1     7     2     7
  5.7880678417581051E-03 a       858     1     7     2     8
  1.4191940822506450E+00 a       859     1     7     2     9
  1.4865441949882174E+00 a       860     1     7     2    10
 -2.5142855879426476E+00 a       861     1     7     2    11
  2.3694362329539398E-01 a       862     1     7     2    12
  4.4317757806813357E-01 a       863     1     7     2    13
 -5.9175925502624327E-01 a       864     1     7     2    14
 -1.7903677519783963E+00 a       865     1     7     2    15
 -6.9064911925970363E-02 a       866     1     7     2    16
 -4.4544653852213545E-01 a       867     1     7     2    17
 -7.8065192426154473E-01 a       868     1     7     2    18
 -1.0886733993911928E+00 a       869     1     7     2    19
 -4.2505298308220052E-01 a       870     1     7     2    20
  9.9250294687615437E-01 a       871     1     7     2    21
  1.3757471459529241E-01 a       872     1     7     2    22
  1.6320810972161950E+00 a       873     1     7     2    23
  1.2479830762996367E+00 a       874     1     7     2    24
  1.4162592226401138E+00 a       875     1     7     2    25
  1.8907852635646554E+00 a       876     1     8     2     1
  4.5510898455582321E-01 a       877     1     8     2     2
  1.2039083466016558E+00 a       878     1     8     2     3
  8.6809580002218878E-01 a       879     1     8     2     4
 -1.3720567030482049E+00 a       880     1     8     2     5
 -4.9395016101082606E-01 a       881     1     8     2     6
  4.7383949232877648E-01 a       882     1     8     2     7
 -8.2446332485626550E-01 a       883     1     8     2     8
 -5.5343521107941537E-02 a       884     1     8     2     9
 -5.1972351847039056E-01 a       885     1     8     2    10
  2.5232014614932226E+00 a       886     1     8     2    11
  3.3894358994034902E-02 a       887     1     8     2    12
  2.2448142759262071E-01 a       888     1     8     2    13
  2.1497753372800171E-01 a       889     1     8     2    14
 -1.1226756628691605E-01 a       890     1     8     2    15
  8.9826989280784575E-01 a       891     1     8     2    16
  6.4017136940573405E-01 a       892     1     8     2    17
 -3.9141267682259184E-01 a       893     1     8     2    18
  1.2241794540525471E-01 a       894     1     8     2    19
  1.4692580415137506E+00 a       895     1     8     2    20
 -8.8429911473759962E-02 a       896     1     8     2    21
 -4.4524198776900870E-01 a       897     1     8     2    22
 -1.2449227732827473E-01 a       898     1     8     2    23
 -4.7744170130307406E-01 a       899     1     8     2    24
 -1.1019871173753373E+00 a       900     1     8     2    25
  2.5222454624458166E+00 a       901     1     9     2     1
 -2.3484519957088685E+00 a       902     1     9     2     2
  2.6970697228632541E+00 a       903     1     9     2     3
  2.8081735196055049E+00 a       904     1     9     2     4
  6.2193894744124723E-01 a       905     1     9     2     5
  1.2295159022155906E+00 a       906     1     9     2     6
  1.6609180537284753E+00 a       907     1     9     2     7
 -1.5132595138326781E+00 a       908     1     9     2     8
 -2.7066317499370718E+00 a       909     1     9     2     9
  2.5305011688103076E+00 a       910     1     9     2    10
  3.8364642623783016E+00 a       911     1     9     2    11
 -3.8853159468758185E+00 a       912     1     9     2    12
  3.1716032927501732E+00 a       913     1     9     2    13
  1.4927186477239571E+00 a       914     1     9     2    14
  6.3042425392671930E-01 a       915     1     9     2    15
  1.8664402343884781E+00 a       916     1     9     2    16
 -7.3669294907889274E-02 a       917     1     9     2    17
  1.9541477907081111E+00 a       918     1     9     2    18
  8.3480916435457420E-01 a       919     1     9     2    19
  3.5697291559602951E-01 a       920     1     9     2    20
  1.2433266069103175E+00 a       921     1     9     2    21
  1.6566707138543044E+00 a       922     1     9     2    22
 -1.2599631614969556E-01 a       923     1     9     2    23
  2.6320336847187322E+00 a       924     1     9     2    24
  4.1921323786359538E-01 a       925     1     9     2    25
 -3.3952492983287547E-01 a       926     1    10     2     1
 -4.2004682750905203E-01 a       927     1    10     2     2
 -9.9967308303298794E-02 a       928     1    10     2     3
  2.2425197541351860E-01 a       929     1    10     2     4
  1.4726674871175336E+00 a       930     1    10     2     5
  3.7504825851720730E-01 a       931     1    10     2     6
  5.3156349017550876E-02 a       932     1    10     2     7
  3.8588632887030677E-01 a       933     1    10     2     8
 -1.1285453048811271E+00 a       934     1    10     2     9
  3.7874588883468097E-01 a       935     1    10     2    10
  2.2764946322395989E+00 a       936     1    10     2    11
  1.6511474736552351E-01 a       937     1    10     2    12
 -3.6861944002765851E-02 a       938     1    10     2    13
 -4.5641636887302173E-01 a       939     1    10     2    14
  7.3201223640897950E-01 a       940     1    10     2    15
  3.7650035497997608E-01 a       941     1    10     2    16
 -5.5197196851440433E-01 a       942     1    10     2    17
  2.7595996723242844E-01 a       943     1    10     2    18
  2.1238426576166678E-02 a       944     1    10     2    19
  9.2522697961978151E-02 a       945     1    10     2    20
 -4.4341073916588003E-01 a       946     1    10     2    21
 -6.5603501580359116E-02 a       947     1    10     2    22
  8.2452953119205155E-02 a       948     1    10     2    23
 -6.5640910181180478E-01 a       949     1    10     2    24
 -9.2405940955408772E-01 a       950     1    10     2    25
 -9.2885102452382140E-01 a       951     1    11     2     1
  8.0459096335555522E-02 a       952     1    11     2     2
  3.0387849454915385E+00 a       953     1    11     2     3
 -7.6124905027356216E-01 a       954     1    11     2     4
 -2.7457243766763932E+00 a       955     1    11     2     5
  1.7282792310256321E+00 a       956     1    11     2     6
 -1.0961854161049116E+00 a       957     1    11     2     7
 -5.6940240173924135E-02 a       958     1    11     2     8
  1.7181954576460734E+00 a       959     1    11     2     9
  7.6874573865480011E-01 a       960     1    11     2    10
  5.3617947660854348E+00 a       961     1    11     2    11
 -4.8999297537746012E+00 a       962     1    11     2    12
 -1.7461551093099088E+00 a       963     1    11     2    13
 -5.3289896216852195E-01 a       964     1    11     2    14
  1.4691773526686003E+00 a       965     1    11     2    15
  1.6420717808750878E+00 a       966     1    11     2    16
 -1.2806550046609426E+00 a       967     1    11     2    17
 -2.2935145952458122E+00 a       968     1    11     2    18
  1.7216149576038136E+00 a       969     1    11     2    19
  6.9555671605303127E-02 a       970     1    11     2    20
  6.9101815036935887E-01 a       971     1    11     2    21
  6.3499371204353605E-01 a       972     1    11     2    22
  2.6532292795776025E-01 a       973     1    11     2    23
  4.2750549918064673E-01 a       974     1    11     2    24
  1.4105659738612950E+00 a       975     1    11     2    25
 -1.7591953623959011E-01 a       976     1    12     2     1
 -5.0082906174329833E-01 a       977     1    12     2     2
  1.2177533869256230E+00 a       978     1    12     2     3
 -2.6276522055753336E-02 a       979     1    12     2     4
 -9.6783302475615496E-01 a       980     1    12     2     5
  4.7445293142332128E+00 a       981     1    12     2     6
  1.4714863531192277E+00 a       982     1    12     2     7
  2.0450250657091575E+00 a       983     1    12     2     8
 -1.1893770974092455E+00 a       984     1    12     2     9
 -1.1278505348428311E-01 a       985     1    12     2    10
 -9.5479167313686535E+00 a       986     1    12     2    11
 -1.3346218696181156E+01 a       987     1    12     2    12
 -3.1706079236826223E+00 a       988     1    12     2    13
 -2.6289857449087689E-01 a       989     1    12     2    14
  6.2587991741201767E+00 a       990     1    12     2    15
 -3.1802072179187091E-01 a       991     1    12     2    16
 -1.2784372534534863E-01 a       992     1    12     2    17
 -1.5363862833265399E-01 a       993     1    12     2    18
  1.1047524626048064E-01 a       994     1    12     2    19
 -9.9666660560717912E-01 a       995     1    12     2    20
 -1.4840078490714397E+00 a       996     1    12     2    21
 -6.7937986490476643E-01 a       997     1    12     2    22
 -1.7870603657583013E+00 a       998     1    12     2    23
 -8.1656341075457872E-01 a       999     1    12     2    24
 -8.8686121607828017E-01 a      1000     1    12     2    25
 -4.2534623351269812E-01 a      1001     1    13     2     1
 -3.6951251808691887E-01 a      1002     1    13     2     2
  1.6147829904808084E-01 a      1003     1    13     2     3
 -3.1516462518972815E-01 a      1004     1    13     2     4
  8.4345424096178900E-01 a      1005     1    13     2     5
 -2.2024851731874098E-01 a      1006     1    13     2     6
 -1.2560870375331206E+00 a      1007     1    13     2     7
  1.1491348479719758E-01 a      1008     1    13     2     8
  1.2173047645681681E+00 a      1009     1    13     2     9
 -5.2289009306835232E-01 a      1010     1    13     2    10
  3.2409742848847349E+00 a      1011     1    13     2    11
  1.5759040798514790E+00 a      1012     1    13     2    12
  1.5907199043877358E+00 a      1013     1    13     2    13
  6.8161336950721196E-01 a      1014     1    13     2    14
  4.6455531555225543E-01 a      1015     1    13     2    15
 -4.3801505014727127E-01 a      1016     1    13     2    16
  1.2110481371878346E+00 a      1017     1    13     2    17
  6.7873679990034885E-01 a      1018     1    13     2    18
 -3.1076611579304797E-01 a      1019     1    13     2    19
 -5.8151848489523439E-01 a      1020     1    13     2    20
 -7.6879986195319894E-01 a      1021     1    13     2    21
 -2.8563972405412225E-01 a      1022     1    13     2    22
 -1.4362967757427296E+00 a      1023     1    13     2    23
  7.2953542021218544E-03 a      1024     1    13     2    24
 -9.9268269498773232E-01 a      1025     1    13     2    25
  8.5890907690863050E-01 a      1026     1    14     2     1
 -2.4183259777492843E-02 a      1027     1    14     2     2
  4.0962997023826353E-01 a      1028     1    14     2     3
 -5.7216792253425353E-01 a      1029     1    14     2     4
 -2.8472261727803222E-01 a      1030     1    14     2     5
  1.1904877876844864E+00 a      1031     1    14     2     6
 -3.9049267181220021E-01 a      1032     1    14     2     7
 -7.0480308277010670E-02 a      1033     1    14     2     8
 -4.9235761970079485E-02 a      1034     1    14     2     9
  1.3405296636603989E-01 a      1035     1    14     2    10
  4.7723957213123996E-01 a      1036     1    14     2    11
 -1.3527476788872250E+00 a      1037     1    14     2    12
 -8.2152414323874479E-01 a      1038     1    14     2    13
  1.0834832843035172E-03 a      1039     1    14     2    14
 -9.2980789502752625E-01 a      1040     1    14     2    15
  5.8722504082989968E-01 a      1041     1    14     2    16
 -1.1812069452026988E+00 a      1042     1    14     2    17
 -7.0196505648121121E-01 a      1043     1    14     2    18
 -6.5557263257064746E-01 a      1044     1    14     2    19
 -1.0437081767636955E+00 a      1045     1    14     2    20
  9.9467333546906922E-01 a      1046     1    14     2    21
 -1.3105384256316535E-01 a      1047     1    14     2    22
  3.8985799448786262E-01 a      1048     1    14     2    23
 -2.0428700804396466E-01 a      1049     1    14     2    24
 -1.8607262015694110E+00 a      1050     1    14     2    25
 -1.1351275929600782E-01 a      1051     1    15     2     1
  1.4734446847601095E+00 a      1052     1    15     2     2
  1.7891252308880738E+00 a      1053     1    15     2     3
  6.0928128285878902E-01 a      1054     1    15     2     4
 -2.2726977767462726E+00 a      1055     1    15     2     5
 -6.1874058653584008E-01 a      1056     1    15     2     6
  3.9123218434577756E-01 a      1057     1    15     2     7
 -3.9223262576032778E+00 a      1058     1    15     2     8
  3.9194467075841599E-01 a      1059     1    15     2     9
  5.3495353661490097E-01 a      1060     1    15     2    10
  3.9554983063907243E+00 a      1061     1    15     2    11
 -1.5517611998200478E+00 a      1062     1    15     2    12
 -3.8845431289532112E-01 a      1063     1    15     2    13
  1.4729521242233148E-01 a      1064     1    15     2    14
 -4.5673177506427241E+00 a      1065     1    15     2    15
  9.3862608890083021E-01 a      1066     1    15     2    16
 -2.7315700535162124E+00 a      1067     1    15     2    17
 -2.1469700153297011E+00 a      1068     1    15     2    18
 -1.5990687558081655E+00 a      1069     1    15     2    19
  3.0763791274984936E-01 a      1070     1    15     2    20
  2.6991570540758842E+00 a      1071     1    15     2    21
  1.1654949750052888E+00 a      1072     1    15     2    22
  3.9211507131414298E+00 a      1073     1    15     2    23
  1.4671590374395840E-01 a      1074     1    15     2    24
  2.3363591426800943E+00 a      1075     1    15     2    25
 -1.9344463776704245E-02 a      1076     1    16     2     1
 -4.7646181271062960E-02 a      1077     1    16     2     2
 -2.1880200149933953E+00 a      1078     1    16     2     3
  1.6132464653815801E-01 a      1079     1    16     2     4
  8.5036964489192868E-01 a      1080     1    16     2     5
 -3.6539967030609399E-01 a      1081     1    16     2     6
  2.2231847911922042E-01 a      1082     1    16     2     7
  9.0081513646957045E-01 a      1083     1    16     2     8
 -1.1780408047851207E+00 a      1084     1    16     2     9
  1.2361011995113486E-01 a      1085     1    16     2    10
  1.8198385126628587E+00 a      1086     1    16     2    11
  3.9883754644783993E+00 a      1087     1    16     2    12
  7.2371203662302008E-01 a      1088     1    16     2    13
  1.7599940785202293E-02 a      1089     1    16     2    14
  9.9709557115010572E-01 a      1090     1    16     2    15
 -1.4472610522677340E-01 a      1091     1    16     2    16
 -6.8049166231102065E-01 a      1092     1    16     2    17
  3.5276093707495154E-01 a      1093     1    16     2    18
 -1.9397394908831302E+00 a      1094     1    16     2    19
  4.2212040706759857E-01 a      1095     1    16     2    20
 -6.5714182410759570E-01 a      1096     1    16     2    21
 -7.0829342012388341E-01 a      1097     1    16     2    22
  8.8069994786018635E-01 a      1098     1    16     2    23
  1.5588025629765895E-01 a      1099     1    16     2    24
 -6.7180908296879760E-01 a      1100     1    16     2    25
  9.1174783001043047E-01 a      1101     1    17     2     1
 -1.2478150674674535E+00 a      1102     1    17     2     2
  5.3303080044686391E-01 a      1103     1    17     2     3
 -3.5217377664499316E-01 a      1104     1    17     2     4
 -3.2583022645163287E-02 a      1105     1    17     2     5
 -5.3469603556000045E-01 a      1106     1    17     2     6
 -2.1525992656780187E-02 a      1107     1    17     2     7
  1.2061705607057112E-01 a      1108     1    17     2     8
  5.8536702319496792E-01 a      1109     1    17     2     9
  3.4990622493142803E-01 a      1110     1    17     2    10
 -1.9667278548129012E+00 a      1111     1    17     2    11
 -2.5682270883575620E+00 a      1112     1    17     2    12
 -1.1987735246317477E-01 a      1113     1    17     2    13
  1.0574750382965392E+00 a      1114     1    17     2    14
  6.0096419341601959E-01 a      1115     1    17     2    15
  7.6571944653141233E-01 a      1116     1    17     2    16
  1.2073322826952468E+00 a      1117     1    17     2    17
  3.0289136068572958E-01 a      1118     1    17     2    18
 -7.5666423034691022E-01 a      1119     1    17     2    19
  1.1265574297936858E+00 a      1120     1    17     2    20
 -2.2899689692062217E-02 a      1121     1    17     2    21
 -6.3349296941295719E-01 a      1122     1    17     2    22
 -3.5368419391560990E-01 a      1123     1    17     2    23
  1.2353104742658318E-01 a      1124     1    17     2    24
 -1.3491244842429613E+00 a      1125     1    17     2    25
 -1.0002081735332582E+00 a      1126     1    18     2     1
  2.8874400554799196E-01 a      1127     1    18     2     2
  1.4154408019397398E+00 a      1128     1    18     2     3
 -1.1030468517624148E+00 a      1129     1    18     2     4
 -7.8591403045834918E-01 a      1130     1    18     2     5
 -3.3121055220825579E-01 a      1131     1    18     2     6
 -1.0712676193221522E+00 a      1132     1    18     2     7
  5.0691598659616677E-01 a      1133     1    18     2     8
  6.9989931890287227E-01 a      1134     1    18     2     9
  1.2701066463343078E+00 a      1135     1    18     2    10
  5.7323332234760107E+00 a      1136     1    18     2    11
 -1.2205760234064544E+00 a      1137     1    18     2    12
  2.8581963717542436E-01 a      1138     1    18     2    13
 -1.7152062802745360E-01 a      1139     1    18     2    14
  6.3013399337299214E-01 a      1140     1    18     2    15
  1.6032810237900064E+00 a      1141     1    18     2    16
 -1.8647290360209326E-01 a      1142     1    18     2    17
 -1.7552280630471995E+00 a      1143     1    18     2    18
 -1.6951526452572885E-01 a      1144     1    18     2    19
 -4.4310576767783283E-01 a      1145     1    18     2    20
  5.7194777698718280E-01 a      1146     1    18     2    21
 -6.7964545250772068E-01 a      1147     1    18     2    22
  1.1504718311537716E+00 a      1148     1    18     2    23
  1.8257036893647574E-01 a      1149     1    18     2    24
  1.4326883808776378E+00 a      1150     1    18     2    25
  1.0095242455639231E+00 a      1151     1    19     2     1
 -3.5498084342300873E-01 a      1152     1    19     2     2
 -7.9428413334335826E-02 a      1153     1    19     2     3
  4.1898410754671311E-01 a      1154     1    19     2     4
  5.7708594136156965E-01 a      1155     1    19     2     5
  3.4219888511005964E-02 a      1156     1    19     2     6
  2.0188343094068171E-02 a      1157     1    19     2     7
  3.7065388886596445E-01 a      1158     1    19     2     8
  4.0493838279888189E-01 a      1159     1    19     2     9
 -8.7880396095680291E-01 a      1160     1    19     2    10
 -4.2964998195714266E+00 a      1161     1    19     2    11
 -4.8622128295651041E+00 a      1162     1    19     2    12
 -3.2205422261123601E-01 a      1163     1    19     2    13
  1.0584833349789229E+00 a      1164     1    19     2    14
 -1.4768523757998540E+00 a      1165     1    19     2    15
 -8.2507826636001494E-02 a      1166     1    19     2    16
  1.9285629582200401E+00 a      1167     1    19     2    17
  7.8377063604115649E-01 a      1168     1    19     2    18
  8.6133987821315805E-01 a      1169     1    19     2    19
  7.9592312938402732E-01 a      1170     1    19     2    20
 -2.5571084159158464E-01 a      1171     1    19     2    21
  6.2094886044249265E-01 a      1172     1    19     2    22
  5.3204351131503980E-01 a      1173     1    19     2    23
 -3.5617867451003005E-01 a      1174     1    19     2    24
 -2.0865883598876050E-01 a      1175     1    19     2    25
  5.6090217480110005E-01 a      1176     1    20     2     1
 -3.7236626036363962E-01 a      1177     1    20     2     2
 -7.5321160552803912E-01 a      1178     1    20     2     3
 -1.4300947825026233E+00 a      1179     1    20     2     4
  4.4733116304615095E-01 a      1180     1    20     2     5
  5.9791755069591515E-02 a      1181     1    20     2     6
 -8.2957708933977192E-01 a      1182     1    20     2     7
  9.8699818003222917E-01 a      1183     1    20     2     8
  7.3205249269496386E-01 a      1184     1    20     2     9
 -9.9725723754597517E-01 a      1185     1    20     2    10
 -8.2488628446232382E-01 a      1186     1    20     2    11
  4.5610095255288158E-01 a      1187     1    20     2    12
 -1.7628107924627607E+00 a      1188     1    20     2    13
 -8.2186542845300609E-02 a      1189     1    20     2    14
 -3.6055995965540927E-01 a      1190     1    20     2    15
 -1.4535148754483196E+00 a      1191     1    20     2    16
  1.9834827817089609E+00 a      1192     1    20     2    17
  1.5590759923945524E-01 a      1193     1    20     2    18
 -1.8089019492132679E+00 a      1194     1    20     2    19
 -2.0320064387925313E-01 a      1195     1    20     2    20
 -6.5704555123077657E-01 a      1196     1    20     2    21
  2.5903822688616551E-01 a      1197     1    20     2    22
 -1.0926766728373481E-01 a      1198     1    20     2    23
 -2.4387082164113663E-01 a      1199     1    20     2    24
  1.8310568350376563E-01 a      1200     1    20     2    25
 -1.1443383178869819E+00 a      1201     1    21     2     1
 -4.8240031881640466E-01 a      1202     1    21     2     2
 -1.6025078168765597E-01 a      1203     1    21     2     3
  4.6860285112985678E-01 a      1204     1    21     2     4
 -1.4943224734368399E+00 a      1205     1    21     2     5
  6.0310645125947115E-01 a      1206     1    21     2     6
  1.5342424590210779E+00 a      1207     1    21     2     7
 -9.1876841319494015E-02 a      1208     1    21     2     8
 -1.0723209686020214E+00 a      1209     1    21     2     9
 -3.1633937830955072E-01 a      1210     1    21     2    10
 -9.5799913987291610E-02 a      1211     1    21     2    11
 -2.4276918623217019E+00 a      1212     1    21     2    12
 -8.9031087169682444E-01 a      1213     1    21     2    13
  4.1976311882324452E-01 a      1214     1    21     2    14
  7.4176975569635295E-01 a      1215     1    21     2    15
 -2.4366032697083659E-01 a      1216     1    21     2    16
 -1.6720736967996235E+00 a      1217     1    21     2    17
  6.1068748732900469E-02 a      1218     1    21     2    18
  1.9512673698321090E+00 a      1219     1    21     2    19
  6.2495016793255109E-01 a      1220     1    21     2    20
 -3.7646606875967575E-01 a      1221     1    21     2    21
  7.4097922589831255E-01 a      1222     1    21     2    22
 -3.5112553870551799E-01 a      1223     1    21     2    23
  6.4324641005764716E-01 a      1224     1    21     2    24
  1.3386547726530193E-01 a      1225     1    21     2    25
  1.0285452332062215E+00 a      1226     1    22     2     1
  2.4434658677842605E-01 a      1227     1    22     2     2
 -9.6585182096114375E-01 a      1228     1    22     2     3
  2.6806483614131288E-01 a      1229     1    22     2     4
  3.8615386441793476E-01 a      1230     1    22     2     5
  9.3970405934937040E-01 a      1231     1    22     2     6
  4.5241367422967926E-01 a      1232     1    22     2     7
  4.8536764991199000E-01 a      1233     1    22     2     8
 -6.2997571649537754E-01 a      1234     1    22     2     9
 -7.9936040474389480E-01 a      1235     1    22     2    10
  8.1401534272780207E-01 a      1236     1    22     2    11
  3.1280108687641361E-01 a      1237     1    22     2    12
  2.6904590239033954E-01 a      1238     1    22     2    13
 -5.1144640856624757E-01 a      1239     1    22     2    14
  6.7811492892143699E-01 a      1240     1    22     2    15
  5.7108139585521922E-01 a      1241     1    22     2    16
  1.1080703120399862E+00 a      1242     1    22     2    17
  4.7670726832084065E-01 a      1243     1    22     2    18
 -4.5995519499609921E-01 a      1244     1    22     2    19
 -3.1782137707150487E-01 a      1245     1    22     2    20
 -3.3906554048771365E-01 a      1246     1    22     2    21
 -8.7969853712123491E-01 a      1247     1    22     2    22
  2.2638773193566211E+00 a      1248     1    22     2    23
 -2.5836296258896285E-01 a      1249     1    22     2    24
 -8.1919752591959161E-01 a      1250     1    22     2    25
 -2.7014773844118425E+00 a      1251     1    23     2     1
 -7.1441002220235006E-01 a      1252     1    23     2     2
 -6.5036485079876993E-01 a      1253     1    23     2     3
  7.1704403318494092E-01 a      1254     1    23     2     4
  6.6326996093337454E-01 a      1255     1    23     2     5
 -4.0831021230041973E+00 a      1256     1    23     2     6
 -2.8684862549287655E+00 a      1257     1    23     2     7
 -7.2811828379705235E+00 a      1258     1    23     2     8
 -3.4833949995675884E+00 a      1259     1    23     2     9
  5.6782119119186542E-02 a      1260     1    23     2    10
 -2.9482764928488443E+00 a      1261     1    23     2    11
  6.5422977385931214E+00 a      1262     1    23     2    12
  2.5342339602002040E-01 a      1263     1    23     2    13
 -4.5200246119372553E-02 a      1264     1    23     2    14
  1.4304255659968039E+00 a      1265     1    23     2    15
  1.3106496800862921E+00 a      1266     1    23     2    16
 -9.4988955758206439E-01 a      1267     1    23     2    17
  5.0834093134680391E-01 a      1268     1    23     2    18
 -1.3936575354105005E+00 a      1269     1    23     2    19
  8.7259901855077782E-01 a      1270     1    23     2    20
 -7.1579191946859666E-01 a      1271     1    23     2    21
  6.7457806942142673E-01 a      1272     1    23     2    22
 -1.4469880866415772E+00 a      1273     1    23     2    23
  5.4276508028551884E-01 a      1274     1    23     2    24
  2.1582470198017671E+00 a      1275     1    23     2    25
  2.8287775908733287E-01 a      1276     1    24     2     1
 -1.6704216601267869E+00 a      1277     1    24     2     2
 -1.9838503924852646E+00 a      1278     1    24     2     3
  5.6723544039823492E-01 a      1279     1    24     2     4
  2.8400578570174539E-01 a      1280     1    24     2     5
  3.4744069274607328E+00 a      1281     1    24     2     6
  7.8530295085587662E-02 a      1282     1    24     2     7
  2.0792120025714032E+00 a      1283     1    24     2     8
 -3.5606074893224426E-01 a      1284     1    24     2     9
 -1.1122499039108911E+00 a      1285     1    24     2    10
 -8.4743164415355707E+00 a      1286     1    24     2    11
 -1.6299559460752531E+00 a      1287     1    24     2    12
 -5.5606401322839305E-01 a      1288     1    24     2    13
  8.2966102067866276E-01 a      1289     1    24     2    14
  9.8113447050164726E-01 a      1290     1    24     2    15
 -1.4170171193881071E+00 a      1291     1    24     2    16
  1.0858854247471748E+00 a      1292     1    24     2    17
  1.1271748129454626E+00 a      1293     1    24     2    18
 -3.8198288307381180E-02 a      1294     1    24     2    19
 -1.3223062528347609E-01 a      1295     1    24     2    20
 -2.1577871364654571E+00 a      1296     1    24     2    21
 -1.5769618283183986E+00 a      1297     1    24     2    22
 -3.0781877544146194E+00 a      1298     1    24     2    23
 -4.0850391768263439E-01 a      1299     1    24     2    24
 -5.8453687119858682E+00 a      1300     1    24     2    25
  3.9816952277708484E-01 a      1301     1    25     2     1
  1.1656391468336913E+00 a      1302     1    25     2     2
  1.4923207516303356E+00 a      1303     1    25     2     3
  6.8546428472474319E-01 a      1304     1    25     2     4
 -1.2018290790523090E+00 a      1305     1    25     2     5
 -7.3887071893846357E-01 a      1306     1    25     2     6
  2.4086894160842498E-01 a      1307     1    25     2     7
  2.2314977175886459E+00 a      1308     1    25     2     8
 -4.9317511194113461E-01 a      1309     1    25     2     9
  5.1774269531307637E-01 a      1310     1    25     2    10
  3.0831501653420368E+00 a      1311     1    25     2    11
  9.8513850324030960E-01 a      1312     1    25     2    12
 -6.8115031076679322E-01 a      1313     1    25     2    13
 -1.1334077077421534E-02 a      1314     1    25     2    14
  1.6103394399138287E+00 a      1315     1    25     2    15
  6.5207098932143981E-01 a      1316     1    25     2    16
 -1.8192436739280649E-01 a      1317     1    25     2    17
 -7.9141679410261589E-01 a      1318     1    25     2    18
 -3.6584193301853174E-01 a      1319     1    25     2    19
  5.5049201064094111E-01 a      1320     1    25     2    20
 -4.3362861886952719E-01 a      1321     1    25     2    21
 -2.1861922748081430E-01 a      1322     1    25     2    22
  7.5853857293977867E-01 a      1323     1    25     2    23
  5.4291221548244262E-01 a      1324     1    25     2    24
  3.6561633682078098E-01 a      1325     1    25     2    25
 -4.0396728803408957E+00 b      1326     2     1
  2.6343382465495226E+00 b      1327     2     2
  2.2004917393474663E+00 b      1328     2     3
 -4.0972446791290871E+00 b      1329     2     4
 -1.7874175341790259E+00 b      1330     2     5
 -3.3525872795516842E-01 b      1331     2     6
  1.4203207877473889E+00 b      1332     2     7
  4.2081004453336099E+00 b      1333     2     8
  4.0361490782145104E+00 b      1334     2     9
 -4.2977579408198858E+00 b      1335     2    10
  8.2115738927880066E+00 b      1336     2    11
  9.6833615154896009E+00 b      1337     2    12
 -3.8769073103950631E+00 b      1338     2    13
 -4.8294039065683342E-01 b      1339     2    14
 -5.2291425555689597E-01 b      1340     2    15
 -1.6877051122041389E+00 b      1341     2    16
 -3.4179794380380532E-02 b      1342     2    17
 -1.9962658102768114E+00 b      1343     2    18
 -2.5597431454969457E+00 b      1344     2    19
 -1.5109756638135570E+00 b      1345     2    20
 -6.3197184617712265E-01 b      1346     2    21
 -3.6805826525608869E+00 b      1347     2    22
  3.3216344767691788E+00 b      1348     2    23
 -3.8817768483696309E+00 b      1349     2    24
 -4.9398994006048476E+00 b      1350     2    25
 -1.3858564841975924E+00 a      1351     2     1     3     1
  1.3814083067655392E+00 a      1352     2     2     3     1
 -5.1946438339891154E-01 a      1353     2     3     3     1
 -1.3875503954089745E+00 a      1354     2     4     3     1
 -1.5317255631575561E+00 a      1355     2     5     3     1
 -1.0456495633347411E+00 a      1356     2     6     3     1
 -7.7201734796426036E-01 a      1357     2     7     3     1
  4.1167891312221236E+00 a      1358     2     8     3     1
  9.8434446339603243E-01 a      1359     2     9     3     1
 -9.9525894437711293E-01 a      1360     2    10     3     1
  1.0013888508395108E-01 a      1361     2    11     3     1
  2.1664425342990312E+00 a      1362     2    12     3     1
 -5.0675361856134780E+00 a      1363     2    13     3     1
 -1.2830087745571082E+00 a      1364     2    14     3     1
  1.3955578297628246E+00 a      1365     2    15     3     1
 -1.3797184261989368E+00 a      1366     2    16     3     1
  7.6413855696777355E-01 a      1367     2    17     3     1
 -2.0673807232977750E+00 a      1368     2    18     3     1
 -3.7942050094667299E+00 a      1369     2    19     3     1
  9.9671409667826649E-01 a      1370     2    20     3     1
 -8.6861298476234827E-01 a      1371     2    21     3     1
 -1.9382885369487628E+00 a      1372     2    22     3     1
  1.5836200651834991E+00 a      1373     2    23     3     1
 -6.3466789099515086E+00 a      1374     2    24     3     1
 -1.0471914942937510E+00 a      1375     2    25     3     1
  1.1916165890588871E+01 b      1376     3     1
