################################################################################
# Neural network connection values (weights and biases).
################################################################################
# Col  Name       Description
################################################################################
# 1    connection Neural network connection value.
# 2    t          Connection type (a = weight, b = bias).
# 3    index      Index enumerating weights.
# 4    l_s        Starting point layer (end point layer for biases).
# 5    n_s        Starting point neuron in starting layer (end point neuron for biases).
# 6    l_e        End point layer.
# 7    n_e        End point neuron in end layer.
################################################################################
#                      1 2         3     4     5     6     7
#             connection t     index   l_s   n_s   l_e   n_e
############################################################
  1.9442574313162528E-01 a         1     0     1     1     1
 -1.7117015148757753E+00 a         2     0     1     1     2
 -6.2994909353826856E+00 a         3     0     1     1     3
  1.1627499433425228E+01 a         4     0     1     1     4
 -6.0219169637828420E+00 a         5     0     1     1     5
 -2.9223097250964734E+00 a         6     0     1     1     6
  1.1702548523541207E+01 a         7     0     1     1     7
 -3.3114536763717579E+00 a         8     0     1     1     8
 -5.0711292392231639E+00 a         9     0     1     1     9
  3.4429945526141261E+00 a        10     0     1     1    10
  1.6718625920290851E+01 a        11     0     1     1    11
  9.7363080135101754E-01 a        12     0     1     1    12
  8.2993838599779546E-01 a        13     0     1     1    13
  2.4900895467502608E+00 a        14     0     1     1    14
  3.2680344169676723E-01 a        15     0     1     1    15
 -5.5066104008259060E+00 a        16     0     1     1    16
 -4.4481864397096382E+00 a        17     0     1     1    17
  2.5653733215502430E+00 a        18     0     1     1    18
  1.5826241018506206E+01 a        19     0     1     1    19
 -1.1217024562117681E+01 a        20     0     1     1    20
 -9.7815453171201998E+00 a        21     0     1     1    21
  1.1852021936516874E+00 a        22     0     1     1    22
  1.1921403232929260E+01 a        23     0     1     1    23
  8.9046315642032692E+00 a        24     0     1     1    24
  2.5840701626710079E+00 a        25     0     1     1    25
 -2.9868463405583594E+01 a        26     0     2     1     1
  3.2913264409866763E+00 a        27     0     2     1     2
 -5.2588058407721636E+00 a        28     0     2     1     3
 -1.1208964560609063E+01 a        29     0     2     1     4
  9.7379059423090037E+00 a        30     0     2     1     5
 -4.9659425953500769E+00 a        31     0     2     1     6
 -1.7267862502605237E+01 a        32     0     2     1     7
 -1.5410787530782722E+01 a        33     0     2     1     8
  3.8461293613159326E+00 a        34     0     2     1     9
  2.7740389628829334E+00 a        35     0     2     1    10
 -1.4099386838734130E+01 a        36     0     2     1    11
 -8.2401268623938406E-01 a        37     0     2     1    12
 -3.1237366192656717E+00 a        38     0     2     1    13
 -9.1323684221985104E+00 a        39     0     2     1    14
 -8.5412447633582875E+00 a        40     0     2     1    15
  4.9379427089451751E+00 a        41     0     2     1    16
  4.7761380020152142E+00 a        42     0     2     1    17
 -1.0884630161294250E+01 a        43     0     2     1    18
  7.3595288421646563E+00 a        44     0     2     1    19
 -1.7290406607417498E+01 a        45     0     2     1    20
  1.0432307361265176E+00 a        46     0     2     1    21
 -1.8769446744669867E+01 a        47     0     2     1    22
 -1.6382462429710110E+01 a        48     0     2     1    23
 -1.5723209809648685E+01 a        49     0     2     1    24
 -1.4664587900224365E+01 a        50     0     2     1    25
  1.1692317720365732E+01 a        51     0     3     1     1
  7.2759516959241228E+00 a        52     0     3     1     2
 -1.5972481354256223E+00 a        53     0     3     1     3
 -1.1565593706613393E+01 a        54     0     3     1     4
  8.3306711089308472E+00 a        55     0     3     1     5
  6.2416672752907028E+00 a        56     0     3     1     6
 -1.9938506171751662E+01 a        57     0     3     1     7
  1.4875165910058591E+01 a        58     0     3     1     8
  4.0774605012454792E+00 a        59     0     3     1     9
 -8.3061958124353055E+00 a        60     0     3     1    10
 -2.5493769536084251E+01 a        61     0     3     1    11
  5.3463914196544229E+00 a        62     0     3     1    12
  2.4189714734858252E+00 a        63     0     3     1    13
 -1.9922564708166397E+00 a        64     0     3     1    14
 -3.2559831960137604E+00 a        65     0     3     1    15
  3.6143621434445423E+00 a        66     0     3     1    16
  7.3592875014803836E+00 a        67     0     3     1    17
 -4.0626290140308132E+00 a        68     0     3     1    18
 -3.2080951770255723E+01 a        69     0     3     1    19
  2.9254358275583098E+01 a        70     0     3     1    20
  1.1149242791796743E+01 a        71     0     3     1    21
  1.5669808257375651E+01 a        72     0     3     1    22
 -1.9039102125976985E+01 a        73     0     3     1    23
 -4.0076437050770997E+00 a        74     0     3     1    24
  5.0214539955141835E-01 a        75     0     3     1    25
  5.2565045479373609E+01 a        76     0     4     1     1
 -1.5751719446393293E+01 a        77     0     4     1     2
  2.1301168620905450E+01 a        78     0     4     1     3
  1.4584697523018791E+01 a        79     0     4     1     4
 -1.2451938428375618E+01 a        80     0     4     1     5
 -6.4591150312018142E+00 a        81     0     4     1     6
  3.5297958281679186E+01 a        82     0     4     1     7
  2.0368243983778687E+01 a        83     0     4     1     8
  2.9710472432226065E-01 a        84     0     4     1     9
 -1.0641151157555706E+01 a        85     0     4     1    10
  1.9231171064662526E+01 a        86     0     4     1    11
  4.0797878871408004E+00 a        87     0     4     1    12
 -5.6499104773945277E+00 a        88     0     4     1    13
  1.5534775056298058E+01 a        89     0     4     1    14
  2.3577165668931844E+01 a        90     0     4     1    15
 -5.4888660392612980E+00 a        91     0     4     1    16
 -1.1813334524253591E+01 a        92     0     4     1    17
  1.4082922709491250E+01 a        93     0     4     1    18
 -7.5797250523718045E+00 a        94     0     4     1    19
  2.7836469918562521E+01 a        95     0     4     1    20
  2.1901006593812178E+00 a        96     0     4     1    21
  1.2911551434609532E+01 a        97     0     4     1    22
  2.7892410004851349E+01 a        98     0     4     1    23
  2.2162282175843377E+01 a        99     0     4     1    24
  1.8471624790861675E+01 a       100     0     4     1    25
 -1.8112540148179818E+01 a       101     0     5     1     1
 -7.9492633480455863E+00 a       102     0     5     1     2
 -1.1878150542752610E+00 a       103     0     5     1     3
 -4.1766926481693725E+00 a       104     0     5     1     4
 -1.2162023696993781E+01 a       105     0     5     1     5
 -5.5986215831856423E-01 a       106     0     5     1     6
  1.0196952664561985E+01 a       107     0     5     1     7
 -1.7126009810362905E+01 a       108     0     5     1     8
  6.8103172160661112E+00 a       109     0     5     1     9
  1.6077272096048723E+01 a       110     0     5     1    10
  1.5131553096112027E+01 a       111     0     5     1    11
 -1.8435456819207005E+01 a       112     0     5     1    12
 -2.9806576986202865E-01 a       113     0     5     1    13
  5.1248971490437807E+00 a       114     0     5     1    14
 -2.0015089953660792E+00 a       115     0     5     1    15
 -6.2640914584189566E-01 a       116     0     5     1    16
 -1.2242385358298646E+01 a       117     0     5     1    17
  1.3374939442045040E+01 a       118     0     5     1    18
  2.2935405281355763E+01 a       119     0     5     1    19
 -2.5004254171054320E+01 a       120     0     5     1    20
 -1.3805207886183739E+01 a       121     0     5     1    21
 -1.6425353880573763E+01 a       122     0     5     1    22
  1.6564462725606582E+01 a       123     0     5     1    23
 -1.4859315485441938E+01 a       124     0     5     1    24
  2.3283803207675029E+00 a       125     0     5     1    25
 -4.3194856371512714E+01 a       126     0     6     1     1
  2.2538464238581565E+01 a       127     0     6     1     2
 -2.0556418962808550E+01 a       128     0     6     1     3
 -1.3264351968826560E+00 a       129     0     6     1     4
  4.0102481705292554E+00 a       130     0     6     1     5
  1.5846615703147078E+01 a       131     0     6     1     6
 -2.9052041162780323E+01 a       132     0     6     1     7
 -7.7456789635063226E+00 a       133     0     6     1     8
 -7.6175419838583904E+00 a       134     0     6     1     9
  1.0590183565506411E+01 a       135     0     6     1    10
 -9.5732993404591049E+00 a       136     0     6     1    11
  7.0764690486384296E-01 a       137     0     6     1    12
  7.5709832681720881E+00 a       138     0     6     1    13
 -1.9699081743860692E+01 a       139     0     6     1    14
 -2.7179196998434342E+01 a       140     0     6     1    15
  6.4783730374172821E+00 a       141     0     6     1    16
  1.7481412610182378E+01 a       142     0     6     1    17
 -1.7726033073768967E+01 a       143     0     6     1    18
 -5.7046374545203120E+00 a       144     0     6     1    19
 -2.4738861258263238E+01 a       145     0     6     1    20
  4.8956918623725691E+00 a       146     0     6     1    21
  2.9407332120680989E+00 a       147     0     6     1    22
 -2.2073948750597491E+01 a       148     0     6     1    23
 -1.1521881138543264E+01 a       149     0     6     1    24
 -8.2254392067796900E+00 a       150     0     6     1    25
  1.2751636513949789E+01 a       151     0     7     1     1
  8.8502482162696463E+00 a       152     0     7     1     2
 -4.4060876832611244E+00 a       153     0     7     1     3
  1.9236367733149469E+00 a       154     0     7     1     4
  1.6175039738000446E+01 a       155     0     7     1     5
  1.3889587814542896E+00 a       156     0     7     1     6
  3.4962196634525389E-01 a       157     0     7     1     7
  8.1045167279428529E+00 a       158     0     7     1     8
 -1.6286872818737447E-01 a       159     0     7     1     9
 -1.3609719840815204E+01 a       160     0     7     1    10
 -1.0408287936215336E+01 a       161     0     7     1    11
  1.3816657732635184E+01 a       162     0     7     1    12
 -5.6557208441029061E-01 a       163     0     7     1    13
  2.4286036297896927E+00 a       164     0     7     1    14
  9.0799330229779667E+00 a       165     0     7     1    15
 -2.2434193978996868E+00 a       166     0     7     1    16
  1.1141781541867013E+01 a       167     0     7     1    17
 -7.5896767334125723E+00 a       168     0     7     1    18
 -4.1629650420011917E+00 a       169     0     7     1    19
  8.7015674918854859E+00 a       170     0     7     1    20
  6.7660069741398736E+00 a       171     0     7     1    21
  9.4870733678301828E+00 a       172     0     7     1    22
 -9.8318629432435802E+00 a       173     0     7     1    23
  2.5292727135114863E+01 a       174     0     7     1    24
  6.3912497782952915E+00 a       175     0     7     1    25
  1.3472704846188416E+01 a       176     0     8     1     1
 -5.9323041199495830E-01 a       177     0     8     1     2
  2.5005610600849536E+01 a       178     0     8     1     3
  1.9329361203949723E+01 a       179     0     8     1     4
  7.3639476553465846E+00 a       180     0     8     1     5
 -1.9931845923750293E+00 a       181     0     8     1     6
 -7.6799122672451583E+00 a       182     0     8     1     7
  2.2684983395153459E+01 a       183     0     8     1     8
 -3.6606218168343712E+00 a       184     0     8     1     9
 -1.0575470978092765E+01 a       185     0     8     1    10
 -7.5938156788677214E+00 a       186     0     8     1    11
  2.8696564318105788E+00 a       187     0     8     1    12
  1.0017918589679072E+01 a       188     0     8     1    13
  7.7942953773514390E+00 a       189     0     8     1    14
  1.3244363564210314E+01 a       190     0     8     1    15
  4.3823364429654408E+00 a       191     0     8     1    16
 -8.4842355490793704E+00 a       192     0     8     1    17
  6.0882279651004509E+00 a       193     0     8     1    18
  1.1663750143738467E+01 a       194     0     8     1    19
  3.9364869214757157E+01 a       195     0     8     1    20
 -9.7984753096245765E+00 a       196     0     8     1    21
 -7.7272800377112185E+00 a       197     0     8     1    22
 -8.7775493351577918E+00 a       198     0     8     1    23
 -3.3320698109103941E+00 a       199     0     8     1    24
 -1.5834946228374021E+00 a       200     0     8     1    25
 -5.0549447426200382E+00 a       201     0     9     1     1
 -5.3132787495026736E+00 a       202     0     9     1     2
 -7.6791729503610737E+00 a       203     0     9     1     3
 -7.8514347923315135E+00 a       204     0     9     1     4
 -8.8184105684676588E+00 a       205     0     9     1     5
 -9.9077271854886373E+00 a       206     0     9     1     6
  4.0768047746494736E+00 a       207     0     9     1     7
 -7.0486567608910331E+00 a       208     0     9     1     8
  3.1200143102106637E-01 a       209     0     9     1     9
  1.8138906898550100E+00 a       210     0     9     1    10
  3.4632273325824219E+00 a       211     0     9     1    11
 -6.6558802662447656E+00 a       212     0     9     1    12
  6.4717430111301049E+00 a       213     0     9     1    13
  9.9361337934496352E-01 a       214     0     9     1    14
 -9.3835185272405699E+00 a       215     0     9     1    15
  1.5588161117533608E+00 a       216     0     9     1    16
 -7.0446954038382916E+00 a       217     0     9     1    17
  3.1864238806620154E-01 a       218     0     9     1    18
 -1.0142540443488162E+00 a       219     0     9     1    19
  4.1078753522743456E+00 a       220     0     9     1    20
  2.3494825871292924E+00 a       221     0     9     1    21
  4.6217990679064744E+00 a       222     0     9     1    22
  7.0543396836299372E+00 a       223     0     9     1    23
 -9.2709753362781466E+00 a       224     0     9     1    24
 -2.3927394761249556E+00 a       225     0     9     1    25
  6.3883126219002211E+00 a       226     0    10     1     1
 -1.2721619302360313E+01 a       227     0    10     1     2
 -1.4835149255896679E+01 a       228     0    10     1     3
 -8.8940152835856914E+00 a       229     0    10     1     4
 -2.7637628574641528E+00 a       230     0    10     1     5
 -9.4790630813226660E+00 a       231     0    10     1     6
  1.0435727589922667E+01 a       232     0    10     1     7
 -1.1219272020256035E+01 a       233     0    10     1     8
  6.7316339170587245E+00 a       234     0    10     1     9
 -2.4223456161326773E+00 a       235     0    10     1    10
  6.5492265945912553E+00 a       236     0    10     1    11
  6.7613253798096828E-01 a       237     0    10     1    12
 -5.9452483179081437E+00 a       238     0    10     1    13
  6.1652990454741206E+00 a       239     0    10     1    14
 -3.5214120234773389E+00 a       240     0    10     1    15
  1.8978875669914855E-01 a       241     0    10     1    16
 -3.8117761056300878E+00 a       242     0    10     1    17
  2.2581759905160261E+00 a       243     0    10     1    18
 -3.9169479837507080E+00 a       244     0    10     1    19
 -8.0697469068053973E+00 a       245     0    10     1    20
 -2.0041797403907555E+00 a       246     0    10     1    21
 -4.2968907321923560E+00 a       247     0    10     1    22
  8.3912856222410515E+00 a       248     0    10     1    23
 -1.3040072733585848E+00 a       249     0    10     1    24
  4.1477173708879062E-01 a       250     0    10     1    25
  1.7958750470436919E+00 a       251     0    11     1     1
  2.5007136537974266E+00 a       252     0    11     1     2
  6.8756796465247882E+00 a       253     0    11     1     3
  3.8316298954198049E+00 a       254     0    11     1     4
  3.7592246098923345E+00 a       255     0    11     1     5
 -2.0467252482916885E-02 a       256     0    11     1     6
  8.2970687414572275E-01 a       257     0    11     1     7
  1.8332959651438197E+00 a       258     0    11     1     8
  1.2520633948079436E+00 a       259     0    11     1     9
 -2.0714890143831624E+00 a       260     0    11     1    10
 -4.4224523217843910E+00 a       261     0    11     1    11
 -6.0349223340482883E-01 a       262     0    11     1    12
 -6.9495705432522934E+00 a       263     0    11     1    13
 -6.7097121872130419E-02 a       264     0    11     1    14
  7.5562247747700626E+00 a       265     0    11     1    15
  1.4994904215258145E+00 a       266     0    11     1    16
  2.4259916750853834E+00 a       267     0    11     1    17
  1.7462846152585159E+00 a       268     0    11     1    18
  2.9420125423304451E+00 a       269     0    11     1    19
 -2.5529062616440270E+00 a       270     0    11     1    20
  8.0874585109328412E-01 a       271     0    11     1    21
 -4.2382959941892734E-01 a       272     0    11     1    22
  1.5325824066730867E+00 a       273     0    11     1    23
  5.8751549958977582E+00 a       274     0    11     1    24
 -4.5475106435483181E-01 a       275     0    11     1    25
 -1.8600767591636953E+00 a       276     0    12     1     1
  8.0151975914262277E+00 a       277     0    12     1     2
  6.0597069177987146E+00 a       278     0    12     1     3
  2.8318798241391154E+00 a       279     0    12     1     4
 -3.8761332636297534E+00 a       280     0    12     1     5
  1.0469866902649589E+00 a       281     0    12     1     6
 -1.3111536002928816E+00 a       282     0    12     1     7
 -2.0823866626085392E+00 a       283     0    12     1     8
 -2.9933644100539580E+00 a       284     0    12     1     9
  5.0880707135678467E+00 a       285     0    12     1    10
  7.9778583995688102E-02 a       286     0    12     1    11
 -2.4946789440105945E+00 a       287     0    12     1    12
 -4.4168406587868407E+00 a       288     0    12     1    13
 -7.1374241940979888E-01 a       289     0    12     1    14
  5.7600218473388907E+00 a       290     0    12     1    15
 -7.8978153736698058E+00 a       291     0    12     1    16
  1.2887948697731348E+00 a       292     0    12     1    17
 -6.7207858221506136E+00 a       293     0    12     1    18
  4.2664825752087712E+00 a       294     0    12     1    19
 -3.1004891779868187E+00 a       295     0    12     1    20
  2.6844452215097783E+00 a       296     0    12     1    21
  6.5501557701799831E+00 a       297     0    12     1    22
 -2.5153542681082663E-01 a       298     0    12     1    23
  1.1496772803635726E+00 a       299     0    12     1    24
 -1.5368070972597598E+00 a       300     0    12     1    25
 -1.7454081766183813E-01 a       301     0    13     1     1
 -1.6032440462645541E+00 a       302     0    13     1     2
 -1.8790702217890549E+00 a       303     0    13     1     3
 -1.9407389315766279E+00 a       304     0    13     1     4
 -3.6312660962474781E+00 a       305     0    13     1     5
  6.5423463247427083E-01 a       306     0    13     1     6
  1.7237679867049200E+00 a       307     0    13     1     7
 -2.1836535229331657E+00 a       308     0    13     1     8
 -6.8964670848780318E-01 a       309     0    13     1     9
  1.6161080332620799E+00 a       310     0    13     1    10
  2.4092311272843908E-01 a       311     0    13     1    11
 -1.0895170578583004E+00 a       312     0    13     1    12
  4.3606426729557510E+00 a       313     0    13     1    13
  1.8710023240228506E+00 a       314     0    13     1    14
 -3.1237266275570064E+00 a       315     0    13     1    15
 -2.4136157263882470E+00 a       316     0    13     1    16
  5.6087418782057086E-01 a       317     0    13     1    17
  7.8056398340887621E-03 a       318     0    13     1    18
  8.5581132593255504E-01 a       319     0    13     1    19
  6.6608828888577387E-01 a       320     0    13     1    20
 -1.2024112333433845E+00 a       321     0    13     1    21
  1.6460665504788192E+00 a       322     0    13     1    22
 -1.5293743622313654E+00 a       323     0    13     1    23
 -4.7752940276308191E+00 a       324     0    13     1    24
  9.4252539549522962E-01 a       325     0    13     1    25
  2.4420499427637252E+00 a       326     0    14     1     1
 -4.3054508026494140E+00 a       327     0    14     1     2
 -3.7256250253425778E+00 a       328     0    14     1     3
 -1.9622535061221578E+00 a       329     0    14     1     4
 -2.0418601825462880E-02 a       330     0    14     1     5
  3.1423417261974627E+00 a       331     0    14     1     6
  8.2814766587834576E-01 a       332     0    14     1     7
 -9.7210959381518613E-01 a       333     0    14     1     8
  2.2408537097079781E+00 a       334     0    14     1     9
 -1.1747581585452270E-01 a       335     0    14     1    10
  1.7710553673777703E+00 a       336     0    14     1    11
 -7.3339513739842077E-01 a       337     0    14     1    12
  1.8099161726097701E+00 a       338     0    14     1    13
  9.7180081921081174E-01 a       339     0    14     1    14
 -4.5873501193442232E+00 a       340     0    14     1    15
  3.6357207180448596E+00 a       341     0    14     1    16
 -1.7254325864235548E-01 a       342     0    14     1    17
  3.7031519732060723E+00 a       343     0    14     1    18
 -1.2144743310948003E+00 a       344     0    14     1    19
 -1.0255712617553694E+00 a       345     0    14     1    20
 -7.9607996159537631E-01 a       346     0    14     1    21
 -1.9765922654457735E+00 a       347     0    14     1    22
 -1.6491427533837906E+00 a       348     0    14     1    23
 -1.9657548619677832E+00 a       349     0    14     1    24
  2.3075067585962410E+00 a       350     0    14     1    25
  4.7311962125633816E-01 a       351     0    15     1     1
  1.4507868684510659E+00 a       352     0    15     1     2
  7.4952142290222634E-01 a       353     0    15     1     3
  1.8488777822179800E+00 a       354     0    15     1     4
  5.8551728667722569E-01 a       355     0    15     1     5
 -2.4670530485707909E-01 a       356     0    15     1     6
  1.9445805598214494E-01 a       357     0    15     1     7
 -7.1726389098032528E-01 a       358     0    15     1     8
 -3.1636702166657171E-01 a       359     0    15     1     9
  8.7237947836367469E-01 a       360     0    15     1    10
 -1.3077514960116432E-01 a       361     0    15     1    11
  6.2423138200730732E-01 a       362     0    15     1    12
 -2.3790320100796114E+00 a       363     0    15     1    13
 -6.4410775681275012E-01 a       364     0    15     1    14
 -7.1617254428752886E-02 a       365     0    15     1    15
  1.9590836256504456E+00 a       366     0    15     1    16
 -6.0802469414883686E-01 a       367     0    15     1    17
  2.1294895156504748E-01 a       368     0    15     1    18
 -1.7936552061127966E+00 a       369     0    15     1    19
 -1.2265732269182044E+00 a       370     0    15     1    20
  1.1816369576808186E-01 a       371     0    15     1    21
 -1.9974082685510675E+00 a       372     0    15     1    22
  2.5978108759363361E-01 a       373     0    15     1    23
  1.3056970982772238E+00 a       374     0    15     1    24
 -1.7219030833886899E+00 a       375     0    15     1    25
  7.4583383481346566E-01 a       376     0    16     1     1
  9.9245372486588934E-02 a       377     0    16     1     2
  3.6574036260963239E-01 a       378     0    16     1     3
 -1.7612946062054008E-01 a       379     0    16     1     4
 -5.2787328173111148E-01 a       380     0    16     1     5
 -7.4334684024142575E-02 a       381     0    16     1     6
  2.7401582807024882E-01 a       382     0    16     1     7
 -3.1085702479142996E+00 a       383     0    16     1     8
  3.1546259855535930E-01 a       384     0    16     1     9
  3.1868028415910943E-01 a       385     0    16     1    10
  2.8229667995788965E+00 a       386     0    16     1    11
 -6.2853470698337588E-01 a       387     0    16     1    12
 -1.5222465798025249E+00 a       388     0    16     1    13
 -1.1054954703439899E+00 a       389     0    16     1    14
  1.1404670697448784E+00 a       390     0    16     1    15
 -1.1670989800393536E+00 a       391     0    16     1    16
  5.8061795658201865E-01 a       392     0    16     1    17
 -4.7813640494656923E-01 a       393     0    16     1    18
  8.9586389555618784E-01 a       394     0    16     1    19
 -1.9842347263045073E+00 a       395     0    16     1    20
  7.2010722592519305E-01 a       396     0    16     1    21
 -5.0417756816128367E-01 a       397     0    16     1    22
 -1.8659301004972523E-01 a       398     0    16     1    23
 -2.7595693415987904E-01 a       399     0    16     1    24
 -5.3868703664110296E-01 a       400     0    16     1    25
 -1.2559217054000469E+00 a       401     0    17     1     1
 -1.4297286449119035E+00 a       402     0    17     1     2
 -1.3231200505218592E+00 a       403     0    17     1     3
 -8.7896997762016831E+00 a       404     0    17     1     4
  9.1454774223860369E+00 a       405     0    17     1     5
  7.2368065658426470E+00 a       406     0    17     1     6
  9.0513113986840281E+00 a       407     0    17     1     7
 -7.5247411244833788E+00 a       408     0    17     1     8
  2.2854308100881271E+00 a       409     0    17     1     9
  2.7454618569009881E+00 a       410     0    17     1    10
 -5.0945956658772440E+00 a       411     0    17     1    11
 -1.7040550920408712E+00 a       412     0    17     1    12
 -3.3364758526392397E+00 a       413     0    17     1    13
  3.1068808137478059E+00 a       414     0    17     1    14
  2.2914891397948973E+00 a       415     0    17     1    15
 -7.6117004969491244E+00 a       416     0    17     1    16
  1.3736129809247568E+00 a       417     0    17     1    17
  3.6698266284747133E-01 a       418     0    17     1    18
 -6.3370196200818141E+00 a       419     0    17     1    19
 -1.7675561666030473E+00 a       420     0    17     1    20
  1.2572414255178872E+01 a       421     0    17     1    21
 -5.0732653753538610E+00 a       422     0    17     1    22
  5.7762209628593224E+00 a       423     0    17     1    23
 -4.9911225826181332E-01 a       424     0    17     1    24
  7.2081458022374605E+00 a       425     0    17     1    25
 -5.0836544757147797E+00 a       426     0    18     1     1
 -3.7740187985279877E-01 a       427     0    18     1     2
  2.1087774007041022E+00 a       428     0    18     1     3
  3.3589531429512154E+00 a       429     0    18     1     4
 -5.2700063725156898E+00 a       430     0    18     1     5
 -1.0645990154249045E+01 a       431     0    18     1     6
 -5.1893960748739980E+00 a       432     0    18     1     7
  7.1248305708945390E+00 a       433     0    18     1     8
 -7.3975700053755800E-01 a       434     0    18     1     9
  3.5776780390201193E+00 a       435     0    18     1    10
  2.1439908108499144E+00 a       436     0    18     1    11
 -1.3898539662086620E+00 a       437     0    18     1    12
 -1.2014495285163063E+00 a       438     0    18     1    13
 -1.6175036861496834E+00 a       439     0    18     1    14
 -2.6205410212164337E+00 a       440     0    18     1    15
 -5.9838471320844882E+00 a       441     0    18     1    16
 -6.1265766462825679E+00 a       442     0    18     1    17
 -4.6475488018386653E+00 a       443     0    18     1    18
  1.1667712010828650E+00 a       444     0    18     1    19
  3.7344647725275784E+00 a       445     0    18     1    20
 -2.6113924166659275E+00 a       446     0    18     1    21
  5.8602747821812207E-01 a       447     0    18     1    22
 -7.6743210026997701E+00 a       448     0    18     1    23
 -5.5324327201878076E-01 a       449     0    18     1    24
 -3.5246748432516526E+00 a       450     0    18     1    25
  1.2128070030456046E+01 a       451     0    19     1     1
 -3.1893939579847874E+00 a       452     0    19     1     2
  5.1203581852550471E+01 a       453     0    19     1     3
 -7.3752243090440421E+00 a       454     0    19     1     4
 -4.8978005477839659E+00 a       455     0    19     1     5
  5.7382589838160580E+00 a       456     0    19     1     6
  3.2242112547924258E+00 a       457     0    19     1     7
  5.9918124269471287E+00 a       458     0    19     1     8
 -4.1404512168153591E+00 a       459     0    19     1     9
 -6.6526365373952401E-01 a       460     0    19     1    10
  9.1857899737149999E+00 a       461     0    19     1    11
 -6.9618797998409798E+00 a       462     0    19     1    12
  1.6736466114169566E+01 a       463     0    19     1    13
 -6.0063721465390341E-01 a       464     0    19     1    14
  1.3257547044750181E+01 a       465     0    19     1    15
  6.3049956330245083E+00 a       466     0    19     1    16
  6.7368952291189643E+00 a       467     0    19     1    17
  5.9741707256348704E+00 a       468     0    19     1    18
  1.3740705744481858E+01 a       469     0    19     1    19
 -8.7722138811003414E-01 a       470     0    19     1    20
  1.6364543771710203E+01 a       471     0    19     1    21
 -1.2351820868349595E+01 a       472     0    19     1    22
 -1.3350088665465393E+01 a       473     0    19     1    23
  1.8189417504343371E+01 a       474     0    19     1    24
 -2.4323617634321824E+01 a       475     0    19     1    25
 -1.4881091623797854E+01 a       476     0    20     1     1
  6.5621137941362644E+00 a       477     0    20     1     2
 -2.5401912897481594E+01 a       478     0    20     1     3
  4.7146472851983008E+00 a       479     0    20     1     4
  9.4499219556134992E+00 a       480     0    20     1     5
  2.7661507679944477E+00 a       481     0    20     1     6
 -3.4849357602795488E+00 a       482     0    20     1     7
 -4.8837667089316944E-01 a       483     0    20     1     8
  7.4194045481432163E+00 a       484     0    20     1     9
  1.8819488153234183E+00 a       485     0    20     1    10
 -5.5174068740603497E+00 a       486     0    20     1    11
 -5.2392951604315794E+00 a       487     0    20     1    12
 -7.8759850214086846E+00 a       488     0    20     1    13
 -1.3521653118821770E+00 a       489     0    20     1    14
 -9.6720481191672345E+00 a       490     0    20     1    15
 -1.1167180999336313E+01 a       491     0    20     1    16
 -1.1846015729923348E+01 a       492     0    20     1    17
 -5.2210703383452524E+00 a       493     0    20     1    18
 -7.8731141520900687E+00 a       494     0    20     1    19
  4.5487113939402946E+00 a       495     0    20     1    20
 -9.7543382065458371E+00 a       496     0    20     1    21
  8.0106841341791206E+00 a       497     0    20     1    22
  1.0551840340690580E+01 a       498     0    20     1    23
 -1.1555451336009684E+01 a       499     0    20     1    24
  1.3665320298785714E+01 a       500     0    20     1    25
 -8.7030382542133455E-01 a       501     0    21     1     1
  6.6036335355480688E-02 a       502     0    21     1     2
 -4.6019563812146980E-01 a       503     0    21     1     3
  1.4824753763609477E+00 a       504     0    21     1     4
 -3.6152834907335745E+00 a       505     0    21     1     5
 -2.1159493268765721E+00 a       506     0    21     1     6
 -4.4239859958221146E+00 a       507     0    21     1     7
  7.3137810200700173E+00 a       508     0    21     1     8
 -3.2416773421195211E-01 a       509     0    21     1     9
  3.0115898385203405E-01 a       510     0    21     1    10
  1.3015824808266465E+00 a       511     0    21     1    11
 -3.2441139732173180E-01 a       512     0    21     1    12
  1.8777520084229986E+00 a       513     0    21     1    13
 -1.5269134086260212E+00 a       514     0    21     1    14
  1.1628374787483782E+00 a       515     0    21     1    15
  1.0374834712550671E+00 a       516     0    21     1    16
  6.3840442866378144E-01 a       517     0    21     1    17
  1.3350280741511587E+00 a       518     0    21     1    18
 -8.3404787224473731E-01 a       519     0    21     1    19
  8.6993486958872102E-01 a       520     0    21     1    20
 -8.5106300595638711E+00 a       521     0    21     1    21
 -1.6592549484439989E+00 a       522     0    21     1    22
 -1.8771948617723706E+00 a       523     0    21     1    23
 -5.0209056921508322E-01 a       524     0    21     1    24
 -5.2429231585779501E+00 a       525     0    21     1    25
  3.9341203403960940E+00 a       526     0    22     1     1
  7.1407183064642188E-01 a       527     0    22     1     2
 -9.5685826493699704E+00 a       528     0    22     1     3
  3.0080453001030460E+00 a       529     0    22     1     4
  5.4607190902082825E-01 a       530     0    22     1     5
  2.1599478559943277E+00 a       531     0    22     1     6
 -8.4650591109390771E-01 a       532     0    22     1     7
 -6.6826993911877111E+00 a       533     0    22     1     8
 -8.4796117751463100E+00 a       534     0    22     1     9
  2.3915782161428383E+00 a       535     0    22     1    10
  6.3668001844614153E-01 a       536     0    22     1    11
  1.8679583984253374E+00 a       537     0    22     1    12
 -2.1856096218429117E+00 a       538     0    22     1    13
 -7.9689066849011936E-01 a       539     0    22     1    14
  8.1419577951583177E-01 a       540     0    22     1    15
 -1.2829333120153668E+00 a       541     0    22     1    16
  7.6997830214813083E+00 a       542     0    22     1    17
  1.8885877643031599E+00 a       543     0    22     1    18
  5.0613859968913850E+00 a       544     0    22     1    19
 -7.9084353610951181E+00 a       545     0    22     1    20
  4.7275727608526923E+00 a       546     0    22     1    21
  8.8787178715510535E+00 a       547     0    22     1    22
  4.9217353212559329E+00 a       548     0    22     1    23
 -4.1125858477135981E+00 a       549     0    22     1    24
  9.4059633054634428E+00 a       550     0    22     1    25
  7.5002185884901289E+00 a       551     0    23     1     1
  1.6709018581349003E-02 a       552     0    23     1     2
  1.3183493301046669E+01 a       553     0    23     1     3
  1.2548484285977812E+01 a       554     0    23     1     4
 -3.6913094984208485E+00 a       555     0    23     1     5
  1.3260558589912966E+01 a       556     0    23     1     6
 -5.7425646629750915E+00 a       557     0    23     1     7
 -1.2904899381974788E-01 a       558     0    23     1     8
 -1.1201004979475016E+01 a       559     0    23     1     9
 -5.7189818350442811E-01 a       560     0    23     1    10
  8.4631932254823798E+00 a       561     0    23     1    11
 -2.8100355078694212E+00 a       562     0    23     1    12
 -1.5614114978767478E+01 a       563     0    23     1    13
  1.5329873106234988E+00 a       564     0    23     1    14
  3.0916068794034199E+00 a       565     0    23     1    15
 -1.9836945188693531E+00 a       566     0    23     1    16
  3.7262803702495790E+00 a       567     0    23     1    17
  8.4259819340832056E+00 a       568     0    23     1    18
  3.8167559719038180E+00 a       569     0    23     1    19
 -9.6804012032416580E+00 a       570     0    23     1    20
 -7.4648155035428643E-01 a       571     0    23     1    21
 -4.6927325893558010E+00 a       572     0    23     1    22
 -7.2463632605070423E+00 a       573     0    23     1    23
 -1.3489324418884296E+01 a       574     0    23     1    24
  9.7479362363342599E+00 a       575     0    23     1    25
 -2.2450088541028772E+00 a       576     0    24     1     1
 -1.2619896975697346E+01 a       577     0    24     1     2
  2.4607607430700225E+00 a       578     0    24     1     3
 -7.2820792775119134E+00 a       579     0    24     1     4
  1.9912763989203384E+01 a       580     0    24     1     5
 -9.1062099438738446E+00 a       581     0    24     1     6
  1.6161676212664023E+01 a       582     0    24     1     7
 -1.6291951819051334E+01 a       583     0    24     1     8
  9.0571077555104011E+00 a       584     0    24     1     9
  8.4017891605408970E+00 a       585     0    24     1    10
 -7.7982557851536685E+00 a       586     0    24     1    11
  2.6929475631669537E+00 a       587     0    24     1    12
  3.5079057101918465E-01 a       588     0    24     1    13
 -4.0635861538746285E+00 a       589     0    24     1    14
 -1.4944012494544404E+01 a       590     0    24     1    15
 -8.8930487754228515E-01 a       591     0    24     1    16
  1.9654482550765056E+01 a       592     0    24     1    17
  4.7436907106696991E+00 a       593     0    24     1    18
 -4.6414336875902960E+00 a       594     0    24     1    19
 -6.7042558134786896E+00 a       595     0    24     1    20
  2.0575619447613960E+00 a       596     0    24     1    21
  2.6974486457055345E+01 a       597     0    24     1    22
  1.0871063654826573E+01 a       598     0    24     1    23
  1.5462460698977470E+01 a       599     0    24     1    24
 -4.0787782625114595E+00 a       600     0    24     1    25
 -9.9990127443850483E+00 a       601     0    25     1     1
  1.7239709058864197E+01 a       602     0    25     1     2
 -6.2392485857551216E+00 a       603     0    25     1     3
 -2.3782607609890931E+00 a       604     0    25     1     4
 -3.9760117436195372E+00 a       605     0    25     1     5
  3.0424653407123841E+00 a       606     0    25     1     6
 -6.1266724265191872E+00 a       607     0    25     1     7
  1.1050414511139133E+00 a       608     0    25     1     8
  6.5944516950250822E+00 a       609     0    25     1     9
 -6.9375120927322398E-01 a       610     0    25     1    10
  5.7010803255680988E+00 a       611     0    25     1    11
 -1.8176145778517942E+01 a       612     0    25     1    12
  1.6431352208372768E+01 a       613     0    25     1    13
 -1.0642040090529861E+00 a       614     0    25     1    14
  1.8238626693756398E+01 a       615     0    25     1    15
 -2.0087869273298256E+01 a       616     0    25     1    16
 -3.5220528857849231E+00 a       617     0    25     1    17
 -4.8587412369689700E+00 a       618     0    25     1    18
  4.3234064417176050E+00 a       619     0    25     1    19
  1.1701796348643120E+01 a       620     0    25     1    20
 -1.6736038599590288E+00 a       621     0    25     1    21
 -1.1844823519132403E+01 a       622     0    25     1    22
  1.6598246577279054E+00 a       623     0    25     1    23
 -1.1825253310891473E+01 a       624     0    25     1    24
  4.1878998081256729E+00 a       625     0    25     1    25
 -3.5471890483600488E+00 a       626     0    26     1     1
 -1.0782873210784094E+00 a       627     0    26     1     2
  5.5008741778542340E+00 a       628     0    26     1     3
  5.0622813358702414E+00 a       629     0    26     1     4
 -1.8255858268304530E+00 a       630     0    26     1     5
 -1.9680562541398135E+01 a       631     0    26     1     6
  1.3728720425028851E+00 a       632     0    26     1     7
  1.3680992138558004E+01 a       633     0    26     1     8
  7.0750656926033804E+00 a       634     0    26     1     9
  3.2320769281352355E+00 a       635     0    26     1    10
 -2.6085878710448673E+00 a       636     0    26     1    11
  2.9376375273741795E+00 a       637     0    26     1    12
 -8.9662333266615217E+00 a       638     0    26     1    13
 -4.4434813434666411E+00 a       639     0    26     1    14
 -1.3687234394211045E+00 a       640     0    26     1    15
  1.0360043243994266E+00 a       641     0    26     1    16
 -8.6907960574003518E+00 a       642     0    26     1    17
 -1.1957445860292031E+01 a       643     0    26     1    18
 -5.0561625753033237E+00 a       644     0    26     1    19
  1.9879290803192188E+01 a       645     0    26     1    20
 -8.2920632979362736E+00 a       646     0    26     1    21
 -4.2806792924318460E+00 a       647     0    26     1    22
 -1.2004156269760463E+01 a       648     0    26     1    23
 -6.4805971421258057E+00 a       649     0    26     1    24
 -1.3499078238798258E+01 a       650     0    26     1    25
 -1.9814523746365271E+01 a       651     0    27     1     1
 -2.0441056602730345E+00 a       652     0    27     1     2
 -3.0571602651831359E+01 a       653     0    27     1     3
 -3.4744550153032501E+00 a       654     0    27     1     4
 -1.2798284395322650E+01 a       655     0    27     1     5
  5.2072262498558270E+00 a       656     0    27     1     6
 -5.0785983204073695E+00 a       657     0    27     1     7
 -6.7438415085681429E+00 a       658     0    27     1     8
 -5.2028306359024841E+00 a       659     0    27     1     9
 -1.5316510202739773E+01 a       660     0    27     1    10
 -1.7800776728169718E+00 a       661     0    27     1    11
  1.3669578149521609E+01 a       662     0    27     1    12
 -1.5918584804094364E+01 a       663     0    27     1    13
 -4.0233065275043005E+00 a       664     0    27     1    14
 -7.6991110415214195E+00 a       665     0    27     1    15
  2.6110117271883464E+00 a       666     0    27     1    16
 -1.0287277463245278E+01 a       667     0    27     1    17
  4.5940300218001804E+00 a       668     0    27     1    18
 -1.9950954129166441E+01 a       669     0    27     1    19
 -2.3997873998471054E+01 a       670     0    27     1    20
  9.2939691750756481E-01 a       671     0    27     1    21
 -5.6320575542465132E+00 a       672     0    27     1    22
  3.6946059246213096E+01 a       673     0    27     1    23
 -2.9729583658699190E+00 a       674     0    27     1    24
  3.2090749183009457E+00 a       675     0    27     1    25
  2.2810698498146955E+01 a       676     0    28     1     1
 -7.1865373264920995E+00 a       677     0    28     1     2
  1.1296121068483229E+01 a       678     0    28     1     3
 -8.6885889853031206E-01 a       679     0    28     1     4
 -9.3928221684529518E+00 a       680     0    28     1     5
 -2.4998686727541868E+00 a       681     0    28     1     6
  4.4181308950382316E+00 a       682     0    28     1     7
  7.3494261136849337E-01 a       683     0    28     1     8
 -9.6922287365230417E+00 a       684     0    28     1     9
  7.5296045152111581E+00 a       685     0    28     1    10
 -4.5752833030664961E+00 a       686     0    28     1    11
  1.6696395401290054E+01 a       687     0    28     1    12
  2.3539878231583036E-01 a       688     0    28     1    13
  7.3886333525053294E+00 a       689     0    28     1    14
 -2.0202554887299544E+00 a       690     0    28     1    15
  1.3598096550233253E+01 a       691     0    28     1    16
  8.9896299809885623E+00 a       692     0    28     1    17
  2.2301607310834282E+00 a       693     0    28     1    18
  6.7700572486598460E+00 a       694     0    28     1    19
  3.4243238231477573E+00 a       695     0    28     1    20
 -8.1576918600650850E-01 a       696     0    28     1    21
  5.9933053534440379E+00 a       697     0    28     1    22
 -2.0103438454830030E+01 a       698     0    28     1    23
  1.6511914760097248E+01 a       699     0    28     1    24
 -1.9302225040564212E+00 a       700     0    28     1    25
 -5.0149492488144789E+00 a       701     0    29     1     1
  5.6989794591140743E+00 a       702     0    29     1     2
 -6.5237866493275156E+00 a       703     0    29     1     3
 -2.9562440709742557E+00 a       704     0    29     1     4
  3.0077540666667835E-01 a       705     0    29     1     5
 -1.7992562140550827E+00 a       706     0    29     1     6
 -1.2803927763820657E+00 a       707     0    29     1     7
  5.2026519555811443E+00 a       708     0    29     1     8
  2.5540700441307194E+00 a       709     0    29     1     9
  3.2091704062049091E+00 a       710     0    29     1    10
  8.3753876534097393E-01 a       711     0    29     1    11
  2.2436239210260980E+00 a       712     0    29     1    12
  6.9363406432784984E+00 a       713     0    29     1    13
 -3.6101397751206314E+00 a       714     0    29     1    14
 -1.5375028278675418E+00 a       715     0    29     1    15
 -1.5971107068611747E+00 a       716     0    29     1    16
 -3.3236738472863583E+00 a       717     0    29     1    17
 -8.7194873539785007E+00 a       718     0    29     1    18
 -3.8169728139990178E+00 a       719     0    29     1    19
  6.9250592205497465E+00 a       720     0    29     1    20
  1.1136436354008021E+00 a       721     0    29     1    21
 -3.5629290495734378E+00 a       722     0    29     1    22
 -1.3097584430748255E+00 a       723     0    29     1    23
  1.0825028427287313E-01 a       724     0    29     1    24
  7.2402738345106965E-01 a       725     0    29     1    25
  2.9222487538231676E+00 a       726     0    30     1     1
 -8.3569558922702436E-01 a       727     0    30     1     2
  2.0058886396880178E+00 a       728     0    30     1     3
 -1.6519294679665042E+00 a       729     0    30     1     4
  2.1134778571853641E+00 a       730     0    30     1     5
  7.7456792744939866E+00 a       731     0    30     1     6
 -2.0493573053825842E+00 a       732     0    30     1     7
 -1.4551785767098724E+00 a       733     0    30     1     8
 -2.4694676673191585E+00 a       734     0    30     1     9
 -2.0702862763171019E+00 a       735     0    30     1    10
  1.2931998952481101E+00 a       736     0    30     1    11
  5.0638825839508772E-01 a       737     0    30     1    12
  6.3218866693294427E+00 a       738     0    30     1    13
  3.1118370553302652E+00 a       739     0    30     1    14
  1.5131817863031433E-01 a       740     0    30     1    15
 -7.8179052890359058E-01 a       741     0    30     1    16
 -2.9485728903948836E+00 a       742     0    30     1    17
  7.4371344136581108E+00 a       743     0    30     1    18
  5.1227383769512258E+00 a       744     0    30     1    19
 -9.5017097519995346E+00 a       745     0    30     1    20
  1.3438773227638678E+00 a       746     0    30     1    21
 -3.4272458191977333E+00 a       747     0    30     1    22
 -3.0969920234428966E-01 a       748     0    30     1    23
  4.7483838038829953E+00 a       749     0    30     1    24
 -8.5009794392331728E-01 a       750     0    30     1    25
 -1.2472320700384561E-01 b       751     1     1
  8.9990611547051991E-01 b       752     1     2
  6.1337107979124383E-01 b       753     1     3
 -2.9231312210040122E-01 b       754     1     4
 -1.0198792009713880E+00 b       755     1     5
  4.4456556735772079E-01 b       756     1     6
  7.9990595591085367E-01 b       757     1     7
 -1.1402748952283923E+00 b       758     1     8
 -5.4234451444873244E-01 b       759     1     9
  1.1671307449413311E+00 b       760     1    10
 -1.7218798285071443E-01 b       761     1    11
  2.6259075932429315E-01 b       762     1    12
 -3.5533294348194022E-01 b       763     1    13
 -4.2282797183625520E-01 b       764     1    14
 -9.9001898580466763E-02 b       765     1    15
 -6.0255070655580267E-01 b       766     1    16
 -3.1573989474525183E-01 b       767     1    17
 -4.1968097752807143E-01 b       768     1    18
  4.1704250138493781E-01 b       769     1    19
  2.6072342349146921E-01 b       770     1    20
 -2.3539215937891647E-01 b       771     1    21
 -4.9864193484367009E-01 b       772     1    22
 -4.2192036052845538E-01 b       773     1    23
 -5.7133394295110529E-01 b       774     1    24
  7.3982211414347721E-01 b       775     1    25
 -5.0757427313376857E-01 a       776     1     1     2     1
  7.4220174767111924E-01 a       777     1     1     2     2
  2.4690001880921799E+00 a       778     1     1     2     3
 -2.0469154445689677E+00 a       779     1     1     2     4
  1.5656811952125911E+00 a       780     1     1     2     5
  1.8645570654550900E-01 a       781     1     1     2     6
 -3.2003558290783589E+00 a       782     1     1     2     7
  2.8163791870380126E+00 a       783     1     1     2     8
 -2.7837063873839146E-01 a       784     1     1     2     9
 -8.0699326464938981E-01 a       785     1     1     2    10
 -3.8998012504191553E+00 a       786     1     1     2    11
 -1.4798605490886847E+00 a       787     1     1     2    12
 -2.9953952708638226E-01 a       788     1     1     2    13
  2.6638620948987496E-01 a       789     1     1     2    14
  1.4586185113433556E-01 a       790     1     1     2    15
  1.1341267614853392E+00 a       791     1     1     2    16
  6.6505097489397702E-02 a       792     1     1     2    17
 -1.7898954080433507E+00 a       793     1     1     2    18
 -1.2379746889090069E+00 a       794     1     1     2    19
  6.3029722144791633E-01 a       795     1     1     2    20
 -1.6276621339247799E+00 a       796     1     1     2    21
  7.8589669383406968E-01 a       797     1     1     2    22
 -1.4952503367482290E+00 a       798     1     1     2    23
  3.0068877245167303E-01 a       799     1     1     2    24
  7.0098445033339407E-01 a       800     1     1     2    25
  1.3711644919100459E+00 a       801     1     2     2     1
  2.7251834573489488E+00 a       802     1     2     2     2
  4.2865930937080616E+00 a       803     1     2     2     3
  3.6123444855995199E+00 a       804     1     2     2     4
 -6.0775007518158397E-01 a       805     1     2     2     5
  5.1998319561346637E-02 a       806     1     2     2     6
  7.6763251365902910E-02 a       807     1     2     2     7
 -5.9323842120707297E+00 a       808     1     2     2     8
  4.2294100112864291E-01 a       809     1     2     2     9
  1.2358587319224804E-01 a       810     1     2     2    10
  2.2945041807158453E-01 a       811     1     2     2    11
  1.0146668417926730E+00 a       812     1     2     2    12
  1.4470225043276685E-01 a       813     1     2     2    13
  4.5257106325826946E-01 a       814     1     2     2    14
 -3.2688352083542110E-01 a       815     1     2     2    15
 -2.5777707338189288E+00 a       816     1     2     2    16
 -1.0104778803746384E+00 a       817     1     2     2    17
  8.4102181396650522E-01 a       818     1     2     2    18
 -1.0078254017792980E+00 a       819     1     2     2    19
 -2.9405938427588529E-01 a       820     1     2     2    20
 -2.9051675058247017E-01 a       821     1     2     2    21
  1.7580293733988581E+00 a       822     1     2     2    22
 -7.4891180648724298E-02 a       823     1     2     2    23
 -5.3116651531030581E-03 a       824     1     2     2    24
  2.6748445188157816E-01 a       825     1     2     2    25
  7.5112964193109211E-01 a       826     1     3     2     1
 -6.9209052754284806E-01 a       827     1     3     2     2
 -2.4672951457922290E-01 a       828     1     3     2     3
 -2.2041437335389102E+00 a       829     1     3     2     4
  1.2571508998945607E-01 a       830     1     3     2     5
 -1.4550809782472021E-01 a       831     1     3     2     6
 -1.4350866027680793E+00 a       832     1     3     2     7
 -1.2676159393624395E-01 a       833     1     3     2     8
 -9.1452108233977036E-01 a       834     1     3     2     9
 -7.1782007736454856E-01 a       835     1     3     2    10
  1.4178377608097468E+00 a       836     1     3     2    11
  7.0202385748001539E-01 a       837     1     3     2    12
 -2.5465391175297353E-01 a       838     1     3     2    13
 -1.1399807492854983E+00 a       839     1     3     2    14
  2.8038403947614268E-02 a       840     1     3     2    15
  1.0233233710436802E+00 a       841     1     3     2    16
  1.8312941611767392E-01 a       842     1     3     2    17
  5.1975468011990456E-01 a       843     1     3     2    18
 -1.9048846057413926E-02 a       844     1     3     2    19
 -1.8734848165140033E-01 a       845     1     3     2    20
  1.1701035068840364E+00 a       846     1     3     2    21
  2.0342528061672693E-01 a       847     1     3     2    22
 -1.7809209896284492E-01 a       848     1     3     2    23
  5.0092395525562905E-01 a       849     1     3     2    24
  7.0725897033752183E-01 a       850     1     3     2    25
  6.9908059711562176E-01 a       851     1     4     2     1
  9.2164656886907459E-01 a       852     1     4     2     2
  3.1623395148004940E+00 a       853     1     4     2     3
 -1.7234378186859780E+00 a       854     1     4     2     4
 -9.3575439829189044E-01 a       855     1     4     2     5
  6.5753963495203582E-01 a       856     1     4     2     6
 -1.2144464964170438E+00 a       857     1     4     2     7
  1.3410178730300950E+00 a       858     1     4     2     8
 -1.5173761821670195E-01 a       859     1     4     2     9
 -6.5822781010685449E-02 a       860     1     4     2    10
 -1.0263756779620692E+00 a       861     1     4     2    11
 -5.8193650412375952E-01 a       862     1     4     2    12
  6.5421959383689132E-01 a       863     1     4     2    13
 -9.1909783696221298E-02 a       864     1     4     2    14
  1.1440978854836728E-02 a       865     1     4     2    15
 -4.6875808969884680E-01 a       866     1     4     2    16
 -5.5282947615427069E-01 a       867     1     4     2    17
 -1.0875857704392398E+00 a       868     1     4     2    18
  4.5104861878242325E-01 a       869     1     4     2    19
  2.5061263791733332E-02 a       870     1     4     2    20
  1.2303002160513583E+00 a       871     1     4     2    21
  3.2081397690622820E-01 a       872     1     4     2    22
  4.6262046737996193E-01 a       873     1     4     2    23
  5.2097850085219888E-01 a       874     1     4     2    24
  6.0811504445967557E-01 a       875     1     4     2    25
 -2.7924118309646597E+00 a       876     1     5     2     1
 -4.0809777783467438E-01 a       877     1     5     2     2
  5.3680867978287361E-01 a       878     1     5     2     3
 -9.9804733628318065E-01 a       879     1     5     2     4
  3.4188064689561393E-01 a       880     1     5     2     5
  3.5439424679558344E-02 a       881     1     5     2     6
  1.4597442350785443E+00 a       882     1     5     2     7
  3.4713458226698318E-01 a       883     1     5     2     8
 -4.2317390241223123E+00 a       884     1     5     2     9
  3.3129158036453576E-01 a       885     1     5     2    10
 -2.7730691227456172E+00 a       886     1     5     2    11
 -4.4314383976839472E-01 a       887     1     5     2    12
 -5.6460095445512282E-01 a       888     1     5     2    13
  2.3421119400801231E+00 a       889     1     5     2    14
 -4.0829967107040249E-01 a       890     1     5     2    15
 -1.1320530514203768E+00 a       891     1     5     2    16
  1.5702631454575906E+00 a       892     1     5     2    17
  2.7705004935468491E-01 a       893     1     5     2    18
  7.6760744679332149E-01 a       894     1     5     2    19
  1.4632104048620880E+00 a       895     1     5     2    20
  5.4171250313612618E-01 a       896     1     5     2    21
  1.6552979066130735E-02 a       897     1     5     2    22
 -2.8166090774635721E-01 a       898     1     5     2    23
 -1.4288765672258733E-01 a       899     1     5     2    24
 -3.2871400362519831E-01 a       900     1     5     2    25
  4.9456754976121764E-01 a       901     1     6     2     1
  1.7253256244092314E+00 a       902     1     6     2     2
  5.6750556670900671E+00 a       903     1     6     2     3
 -3.4555102547943748E+00 a       904     1     6     2     4
 -1.1119115966358881E+00 a       905     1     6     2     5
 -2.0360227234353945E-01 a       906     1     6     2     6
 -6.8027962903835504E-01 a       907     1     6     2     7
  1.1478431721888538E+00 a       908     1     6     2     8
  4.6941944255449286E-01 a       909     1     6     2     9
 -5.6418270402111681E-01 a       910     1     6     2    10
 -3.8728873801460910E+00 a       911     1     6     2    11
  8.7581936003273164E-01 a       912     1     6     2    12
  3.9870762224448068E-02 a       913     1     6     2    13
 -1.7766055351781143E-01 a       914     1     6     2    14
 -1.6800993508347312E-01 a       915     1     6     2    15
 -7.7492913051524870E-01 a       916     1     6     2    16
 -1.2346615466016349E+00 a       917     1     6     2    17
 -2.2818096905575622E-01 a       918     1     6     2    18
 -6.1095658132631103E-01 a       919     1     6     2    19
 -3.5129442219014229E-01 a       920     1     6     2    20
  2.3222130451220302E+00 a       921     1     6     2    21
  7.6589188886905035E-01 a       922     1     6     2    22
  1.2208242451531988E+00 a       923     1     6     2    23
 -9.3701057680493982E-01 a       924     1     6     2    24
 -6.1120190207962910E-01 a       925     1     6     2    25
 -8.7197782231672860E-01 a       926     1     7     2     1
  9.2927873675956318E-01 a       927     1     7     2     2
 -4.8604976127084765E-01 a       928     1     7     2     3
 -2.9994765447520272E-01 a       929     1     7     2     4
 -6.6082782049193311E-03 a       930     1     7     2     5
  3.0286391148287606E-01 a       931     1     7     2     6
 -1.6361596639359286E+00 a       932     1     7     2     7
 -3.7339722035912748E-01 a       933     1     7     2     8
 -4.2713568088090481E-01 a       934     1     7     2     9
  1.0336699991401170E+00 a       935     1     7     2    10
 -3.8483011241507441E+00 a       936     1     7     2    11
 -7.1802432782782211E-01 a       937     1     7     2    12
 -9.8404442726929076E-01 a       938     1     7     2    13
  1.9229841696643313E+00 a       939     1     7     2    14
 -1.4020263761493539E+00 a       940     1     7     2    15
 -8.4891211498699259E-01 a       941     1     7     2    16
  4.1301900815139403E-02 a       942     1     7     2    17
  1.0476678577320999E+00 a       943     1     7     2    18
 -9.2637770962984800E-01 a       944     1     7     2    19
  1.0885655874418172E+00 a       945     1     7     2    20
  5.5094039132538364E-01 a       946     1     7     2    21
 -9.9415632080333127E-01 a       947     1     7     2    22
  1.8469965912033639E+00 a       948     1     7     2    23
  1.2000083167898233E-01 a       949     1     7     2    24
  3.7610202039659507E-02 a       950     1     7     2    25
  5.5189729875647645E-02 a       951     1     8     2     1
 -7.6697004673889708E+00 a       952     1     8     2     2
 -3.0137287656704487E-01 a       953     1     8     2     3
 -1.3545476059023271E+00 a       954     1     8     2     4
  4.6171152913849246E-02 a       955     1     8     2     5
 -3.6123772653230979E-01 a       956     1     8     2     6
 -2.1921662222721623E+00 a       957     1     8     2     7
 -4.2636821382115064E+00 a       958     1     8     2     8
  2.0367292841926652E+00 a       959     1     8     2     9
 -5.5649069083670766E-01 a       960     1     8     2    10
  3.7936471257845850E+00 a       961     1     8     2    11
 -2.7954179075410052E-01 a       962     1     8     2    12
 -4.8661066731640867E-01 a       963     1     8     2    13
  3.9039553792566370E+00 a       964     1     8     2    14
 -6.6762202077073868E-02 a       965     1     8     2    15
 -3.9282475819576790E-01 a       966     1     8     2    16
 -2.5663949167638216E+00 a       967     1     8     2    17
  1.5718295773135891E+00 a       968     1     8     2    18
  1.3656453411237408E+00 a       969     1     8     2    19
  6.3809706614467365E-01 a       970     1     8     2    20
  8.8707284191948543E-01 a       971     1     8     2    21
  4.3971795915807482E-01 a       972     1     8     2    22
  6.3888881947250531E-01 a       973     1     8     2    23
  1.0350859615094861E-01 a       974     1     8     2    24
  1.1125789900082903E+00 a       975     1     8     2    25
 -2.4633434753405709E-02 a       976     1     9     2     1
  1.2499287298052675E+00 a       977     1     9     2     2
 -4.8106653597108667E-01 a       978     1     9     2     3
 -3.6647155672383952E-01 a       979     1     9     2     4
  6.7684500355322130E-01 a       980     1     9     2     5
  3.8644020438864585E-01 a       981     1     9     2     6
 -2.0061514051803342E+00 a       982     1     9     2     7
  2.8907058036413918E-01 a       983     1     9     2     8
  6.0957949165112668E-01 a       984     1     9     2     9
  5.3960869784874121E-01 a       985     1     9     2    10
  4.3119765508740548E-01 a       986     1     9     2    11
 -9.9160690735694293E-02 a       987     1     9     2    12
  2.5577905737854904E-02 a       988     1     9     2    13
  6.8456424620795842E-01 a       989     1     9     2    14
 -4.1107543268857766E-01 a       990     1     9     2    15
 -4.9133698261231297E-02 a       991     1     9     2    16
 -3.7083284716502690E-01 a       992     1     9     2    17
  7.9794324285214924E-01 a       993     1     9     2    18
 -1.9317225508842981E-01 a       994     1     9     2    19
 -9.5598044755082316E-03 a       995     1     9     2    20
 -5.3415223905675857E-01 a       996     1     9     2    21
 -7.1230381281363186E-01 a       997     1     9     2    22
  2.2928175795320660E-01 a       998     1     9     2    23
 -6.2073776799244884E-01 a       999     1     9     2    24
  2.0262934850890041E-01 a      1000     1     9     2    25
 -8.0893868586731188E-01 a      1001     1    10     2     1
 -1.1056173436465502E+00 a      1002     1    10     2     2
 -7.8741488128686521E-01 a      1003     1    10     2     3
 -8.3695325241893392E-01 a      1004     1    10     2     4
  2.2872970405153685E+00 a      1005     1    10     2     5
 -9.5447784415065934E-02 a      1006     1    10     2     6
  2.6869431695382390E-02 a      1007     1    10     2     7
  8.9994835745410884E-01 a      1008     1    10     2     8
  1.0471867079249322E+00 a      1009     1    10     2     9
  1.0654759045924120E+00 a      1010     1    10     2    10
  3.0070619511698191E+00 a      1011     1    10     2    11
 -1.9213980785775731E-01 a      1012     1    10     2    12
 -9.0718941076962745E-01 a      1013     1    10     2    13
  1.0025268600885366E+00 a      1014     1    10     2    14
 -8.7977322367859867E-01 a      1015     1    10     2    15
  5.2316677081165142E-01 a      1016     1    10     2    16
  7.2929922673507608E-01 a      1017     1    10     2    17
  9.8121373680661172E-01 a      1018     1    10     2    18
 -8.6750017094806697E-01 a      1019     1    10     2    19
  4.8157277777519845E-02 a      1020     1    10     2    20
 -2.7586539400089383E-01 a      1021     1    10     2    21
 -9.1397495008621288E-01 a      1022     1    10     2    22
  9.0274473700507296E-01 a      1023     1    10     2    23
 -1.2779916680080874E+00 a      1024     1    10     2    24
 -1.0931664475028664E+00 a      1025     1    10     2    25
  4.4029890046531667E-01 a      1026     1    11     2     1
  1.1544738615920394E+00 a      1027     1    11     2     2
  1.0472289844225280E+00 a      1028     1    11     2     3
  1.3876868443544133E+00 a      1029     1    11     2     4
 -5.0557742022710905E-01 a      1030     1    11     2     5
  1.2714759727408147E+00 a      1031     1    11     2     6
 -8.4722816027055636E-01 a      1032     1    11     2     7
 -2.2870253747896485E+00 a      1033     1    11     2     8
  1.1162021936810096E+00 a      1034     1    11     2     9
 -1.6079235648514431E-01 a      1035     1    11     2    10
  2.1441128051951921E+00 a      1036     1    11     2    11
 -4.0976109071401484E-01 a      1037     1    11     2    12
 -2.7899240209153436E-01 a      1038     1    11     2    13
  1.4364696745599672E+00 a      1039     1    11     2    14
 -3.0259231930278768E-01 a      1040     1    11     2    15
 -5.9441205750182813E-01 a      1041     1    11     2    16
 -6.2180373158627456E-02 a      1042     1    11     2    17
 -1.6820372210949019E-01 a      1043     1    11     2    18
 -1.3588981011847197E+00 a      1044     1    11     2    19
 -3.5268129174807306E-01 a      1045     1    11     2    20
 -4.2147906184269640E-01 a      1046     1    11     2    21
  4.5047656747168235E-01 a      1047     1    11     2    22
  1.5990066634210001E+00 a      1048     1    11     2    23
  7.4055781487007388E-01 a      1049     1    11     2    24
  5.9596728675521751E-02 a      1050     1    11     2    25
  7.2531231950289943E-01 a      1051     1    12     2     1
 -5.3787767557713884E-01 a      1052     1    12     2     2
  7.5274368860578714E-02 a      1053     1    12     2     3
  1.9040680912565771E+00 a      1054     1    12     2     4
 -5.8151001087808396E-01 a      1055     1    12     2     5
  2.8471322388278036E-01 a      1056     1    12     2     6
 -3.1469311158303964E-01 a      1057     1    12     2     7
 -6.7988466604880049E-01 a      1058     1    12     2     8
  2.0346170234524639E+00 a      1059     1    12     2     9
  1.4335293175544950E-01 a      1060     1    12     2    10
  2.6540152466401956E+00 a      1061     1    12     2    11
  6.9169051385239086E-02 a      1062     1    12     2    12
  8.5275759574452858E-01 a      1063     1    12     2    13
 -1.7084945022063374E+00 a      1064     1    12     2    14
 -1.0326231619242217E+00 a      1065     1    12     2    15
 -6.7486200087410453E-01 a      1066     1    12     2    16
 -1.9428603930864345E+00 a      1067     1    12     2    17
  4.0231158476006146E-01 a      1068     1    12     2    18
 -1.1677746634393178E+00 a      1069     1    12     2    19
 -7.6670724332456164E-01 a      1070     1    12     2    20
 -5.7649369202396483E-01 a      1071     1    12     2    21
  8.9442048064338353E-01 a      1072     1    12     2    22
  2.1822423323710677E-01 a      1073     1    12     2    23
  5.2790929545249377E-01 a      1074     1    12     2    24
  9.5572911782282777E-01 a      1075     1    12     2    25
  3.7310885932751903E-01 a      1076     1    13     2     1
 -3.5017892709899896E+00 a      1077     1    13     2     2
  1.9045423200523206E+00 a      1078     1    13     2     3
  3.0683538662759358E-01 a      1079     1    13     2     4
  1.1339683025765803E+00 a      1080     1    13     2     5
  1.0088763198022288E-01 a      1081     1    13     2     6
 -8.3994437588408732E-01 a      1082     1    13     2     7
 -5.9002493961605462E-01 a      1083     1    13     2     8
 -1.5448868376340177E+00 a      1084     1    13     2     9
 -6.6414344629565886E-02 a      1085     1    13     2    10
 -3.0914918256796531E+00 a      1086     1    13     2    11
 -2.9169412284531665E-01 a      1087     1    13     2    12
 -5.3943140563401504E-01 a      1088     1    13     2    13
  5.1799858429182466E-01 a      1089     1    13     2    14
  3.1290058326827930E-01 a      1090     1    13     2    15
 -7.5466335807897245E-01 a      1091     1    13     2    16
  3.3048197384948330E-01 a      1092     1    13     2    17
 -6.7043873582799826E-02 a      1093     1    13     2    18
  4.9659190003651893E-01 a      1094     1    13     2    19
  5.0414964230643666E-01 a      1095     1    13     2    20
  7.3395290969795168E-01 a      1096     1    13     2    21
 -2.7107173612211943E-01 a      1097     1    13     2    22
  2.9883920691554072E-01 a      1098     1    13     2    23
  1.1425106260894397E-01 a      1099     1    13     2    24
 -2.0277729875990758E-01 a      1100     1    13     2    25
  3.0522270528353912E-01 a      1101     1    14     2     1
  8.0269948868424035E-01 a      1102     1    14     2     2
  4.9353075911827800E+00 a      1103     1    14     2     3
 -6.7979045290067761E+00 a      1104     1    14     2     4
  1.1366809533962813E-01 a      1105     1    14     2     5
  5.0681561159266664E-01 a      1106     1    14     2     6
 -6.8780990564037114E-01 a      1107     1    14     2     7
  8.1690497409878471E-01 a      1108     1    14     2     8
 -1.9181795550012894E+00 a      1109     1    14     2     9
 -9.0843735085272637E-01 a      1110     1    14     2    10
 -2.9815335229899098E+00 a      1111     1    14     2    11
 -1.7087261193539935E-01 a      1112     1    14     2    12
 -7.1027490814743954E-01 a      1113     1    14     2    13
 -1.7573839214602756E+00 a      1114     1    14     2    14
  6.9745867510031245E-01 a      1115     1    14     2    15
 -8.5859918572097815E-01 a      1116     1    14     2    16
 -1.9229962406203677E-01 a      1117     1    14     2    17
  5.9740641230619673E-01 a      1118     1    14     2    18
  8.1710650415812935E-02 a      1119     1    14     2    19
  1.0053492345692583E+00 a      1120     1    14     2    20
 -2.1938524760421871E+00 a      1121     1    14     2    21
  9.8160885539785925E-01 a      1122     1    14     2    22
  7.2864529227223451E-01 a      1123     1    14     2    23
  1.8393377319624490E-01 a      1124     1    14     2    24
 -4.2054153324671040E-01 a      1125     1    14     2    25
 -5.7999322624795180E-01 a      1126     1    15     2     1
 -2.1197704977279881E+00 a      1127     1    15     2     2
  3.8804850080036792E+00 a      1128     1    15     2     3
 -2.7549072419310012E+00 a      1129     1    15     2     4
  1.2328018248311023E+00 a      1130     1    15     2     5
  1.6389062098502458E+00 a      1131     1    15     2     6
 -1.2429681584027172E+00 a      1132     1    15     2     7
  2.2640647134674383E+00 a      1133     1    15     2     8
 -5.9238118299831288E-01 a      1134     1    15     2     9
  3.8045385318715486E-01 a      1135     1    15     2    10
  2.6248837845678086E-01 a      1136     1    15     2    11
 -1.3744604543727961E+00 a      1137     1    15     2    12
 -2.2444399370717480E-01 a      1138     1    15     2    13
 -1.8590575338576785E+00 a      1139     1    15     2    14
  5.4225610606503827E-01 a      1140     1    15     2    15
 -1.0982552195592659E+00 a      1141     1    15     2    16
 -6.1163162196533183E-01 a      1142     1    15     2    17
  9.6285424494619232E-01 a      1143     1    15     2    18
 -3.3313508125562263E-01 a      1144     1    15     2    19
  1.3455242026938696E+00 a      1145     1    15     2    20
  1.2207758128716721E+00 a      1146     1    15     2    21
  1.9186093646979166E-01 a      1147     1    15     2    22
  4.2498387170833270E-02 a      1148     1    15     2    23
 -2.3458211769295051E-02 a      1149     1    15     2    24
  8.8887382056662800E-02 a      1150     1    15     2    25
 -6.4267784711357834E-01 a      1151     1    16     2     1
  5.1060379626632706E+00 a      1152     1    16     2     2
  4.6300130048211974E-01 a      1153     1    16     2     3
 -6.7039756160560362E+00 a      1154     1    16     2     4
  2.6327811130708084E-01 a      1155     1    16     2     5
  3.9483387529368896E-01 a      1156     1    16     2     6
  1.3268002703924682E+00 a      1157     1    16     2     7
 -1.3610713372405053E-01 a      1158     1    16     2     8
 -9.9471641115701959E-01 a      1159     1    16     2     9
 -5.1915224182420494E-01 a      1160     1    16     2    10
  6.3425355715275593E+00 a      1161     1    16     2    11
  7.8624535533381490E-01 a      1162     1    16     2    12
 -9.2645348167448471E-01 a      1163     1    16     2    13
 -7.8908405269720516E-01 a      1164     1    16     2    14
  1.3172046915134916E+00 a      1165     1    16     2    15
 -7.8717505776883911E-01 a      1166     1    16     2    16
  6.3236421764132733E-01 a      1167     1    16     2    17
  1.5952631828025634E+00 a      1168     1    16     2    18
  4.3986781682718551E-01 a      1169     1    16     2    19
  8.9569757280211004E-01 a      1170     1    16     2    20
 -3.0963557643093935E+00 a      1171     1    16     2    21
  5.8041925426703500E-01 a      1172     1    16     2    22
  6.9735341083412472E-01 a      1173     1    16     2    23
  2.1351999971494089E+00 a      1174     1    16     2    24
 -3.0453601810043451E-01 a      1175     1    16     2    25
  5.7419756330979510E-01 a      1176     1    17     2     1
 -1.6483936847014393E+00 a      1177     1    17     2     2
 -2.1885530616538338E+00 a      1178     1    17     2     3
  2.3326519424616325E+00 a      1179     1    17     2     4
  1.9775299999062398E-01 a      1180     1    17     2     5
 -1.1303065504040173E+00 a      1181     1    17     2     6
  4.6526473042488209E-01 a      1182     1    17     2     7
 -3.4342167178572125E-01 a      1183     1    17     2     8
  1.2953908633612801E+00 a      1184     1    17     2     9
  4.0727930657907224E-02 a      1185     1    17     2    10
  7.0447848313472228E-01 a      1186     1    17     2    11
  1.1061431718312691E+00 a      1187     1    17     2    12
 -1.8512042775937418E-01 a      1188     1    17     2    13
 -5.8476425767497420E-01 a      1189     1    17     2    14
 -1.1006100907689147E+00 a      1190     1    17     2    15
 -1.9866525606729657E-01 a      1191     1    17     2    16
  1.2022811009286016E+00 a      1192     1    17     2    17
 -4.1912322184110684E-01 a      1193     1    17     2    18
  6.4271570526528754E-01 a      1194     1    17     2    19
 -2.9002605280664662E-01 a      1195     1    17     2    20
  5.2101257569908122E-01 a      1196     1    17     2    21
 -3.4806827005688129E-01 a      1197     1    17     2    22
 -5.2025172803248476E-01 a      1198     1    17     2    23
 -2.6684066195239931E-01 a      1199     1    17     2    24
 -1.0714541702982132E+00 a      1200     1    17     2    25
  7.0096878852390787E-01 a      1201     1    18     2     1
  3.0815592363992566E+00 a      1202     1    18     2     2
 -1.2723400162252161E+00 a      1203     1    18     2     3
  2.7440850924937381E+00 a      1204     1    18     2     4
 -7.2374474416914969E-01 a      1205     1    18     2     5
  5.3223734088580421E-03 a      1206     1    18     2     6
  2.3820902978400058E+00 a      1207     1    18     2     7
  1.1228123820088498E+00 a      1208     1    18     2     8
  2.9640935659978906E-01 a      1209     1    18     2     9
  4.1640208694671410E-01 a      1210     1    18     2    10
  3.6331028614911878E+00 a      1211     1    18     2    11
 -2.4131498415835093E-01 a      1212     1    18     2    12
  5.7102836967807513E-01 a      1213     1    18     2    13
  2.1518644941927109E-01 a      1214     1    18     2    14
 -1.0807420540631809E+00 a      1215     1    18     2    15
  9.4954718196675647E-01 a      1216     1    18     2    16
 -9.7589940134319331E-01 a      1217     1    18     2    17
 -1.8298180229113894E+00 a      1218     1    18     2    18
 -1.0440198828093690E+00 a      1219     1    18     2    19
 -1.5608424969874866E+00 a      1220     1    18     2    20
 -1.1504654391017146E+00 a      1221     1    18     2    21
  8.0861681448872000E-02 a      1222     1    18     2    22
 -9.0611536886333155E-01 a      1223     1    18     2    23
  4.5579527927992004E-02 a      1224     1    18     2    24
  1.3905898481511747E+00 a      1225     1    18     2    25
 -3.9299170817480723E-02 a      1226     1    19     2     1
 -5.3875830938943050E+00 a      1227     1    19     2     2
 -3.6698535318495900E+00 a      1228     1    19     2     3
 -3.8310275058629197E+00 a      1229     1    19     2     4
  6.8967992727912808E-01 a      1230     1    19     2     5
 -1.5511095926690527E-01 a      1231     1    19     2     6
  2.0940034629966289E+00 a      1232     1    19     2     7
  4.5654236967912509E-01 a      1233     1    19     2     8
 -3.9929966123426791E-01 a      1234     1    19     2     9
 -2.6045985006539890E-01 a      1235     1    19     2    10
  2.2451968989247808E+00 a      1236     1    19     2    11
  8.2677163607577528E-02 a      1237     1    19     2    12
 -9.3781322815625667E-01 a      1238     1    19     2    13
 -4.7264045140024941E-01 a      1239     1    19     2    14
  2.7263320856626915E-03 a      1240     1    19     2    15
 -9.2143146447578594E-01 a      1241     1    19     2    16
  1.6350131701089829E+00 a      1242     1    19     2    17
  1.3256810587111778E+00 a      1243     1    19     2    18
  8.1332960604445881E-01 a      1244     1    19     2    19
  4.3161304736277661E-01 a      1245     1    19     2    20
  4.4770499648361834E+00 a      1246     1    19     2    21
 -1.3165638978958860E-01 a      1247     1    19     2    22
  1.9684116625633408E+00 a      1248     1    19     2    23
  1.7971428165110284E-01 a      1249     1    19     2    24
 -6.5784702378634374E-01 a      1250     1    19     2    25
 -3.7849639902914944E-01 a      1251     1    20     2     1
 -1.9532785651564253E+00 a      1252     1    20     2     2
  3.8005067862083575E+00 a      1253     1    20     2     3
 -5.9025679199802399E+00 a      1254     1    20     2     4
  3.9192240415293444E-01 a      1255     1    20     2     5
 -1.6662608747466441E+00 a      1256     1    20     2     6
 -2.5618830899245184E+00 a      1257     1    20     2     7
  3.9339672617523985E-01 a      1258     1    20     2     8
  1.1463585621632513E+00 a      1259     1    20     2     9
  2.9695588173979487E-01 a      1260     1    20     2    10
  2.6169335963486673E-01 a      1261     1    20     2    11
 -7.5137781562022044E-01 a      1262     1    20     2    12
 -1.1660068853233208E+00 a      1263     1    20     2    13
 -7.8509685694120868E-01 a      1264     1    20     2    14
 -1.5404271713256543E+00 a      1265     1    20     2    15
  2.2503108355203510E-01 a      1266     1    20     2    16
  3.1975242828756462E-01 a      1267     1    20     2    17
 -7.4845931170159774E-01 a      1268     1    20     2    18
 -1.9222437778197214E+00 a      1269     1    20     2    19
 -6.1567983147190819E-01 a      1270     1    20     2    20
 -2.8236603489418148E+00 a      1271     1    20     2    21
  1.0646051135339210E+00 a      1272     1    20     2    22
  2.1749068432648180E-01 a      1273     1    20     2    23
 -2.5224412689918069E-02 a      1274     1    20     2    24
 -6.3281726807985827E-02 a      1275     1    20     2    25
  6.7208118320371268E-01 a      1276     1    21     2     1
  1.5844007023884665E+00 a      1277     1    21     2     2
 -8.6238420030154106E-01 a      1278     1    21     2     3
  3.8210617374630451E+00 a      1279     1    21     2     4
  1.7773454546364523E-01 a      1280     1    21     2     5
 -2.8586612871570538E-01 a      1281     1    21     2     6
 -3.2836938222598688E-01 a      1282     1    21     2     7
  3.9092060907585173E+00 a      1283     1    21     2     8
  1.3436616486187649E+00 a      1284     1    21     2     9
 -4.8233141700105009E-01 a      1285     1    21     2    10
 -2.1095891339717991E+00 a      1286     1    21     2    11
  2.9963937067454421E-01 a      1287     1    21     2    12
  3.6692760246002076E-01 a      1288     1    21     2    13
  2.6595909249886374E-01 a      1289     1    21     2    14
 -6.3087898717782265E-01 a      1290     1    21     2    15
 -3.7502220080782295E-01 a      1291     1    21     2    16
 -3.7250492021749892E-01 a      1292     1    21     2    17
 -1.6658984904214815E+00 a      1293     1    21     2    18
 -1.3757229590712843E+00 a      1294     1    21     2    19
 -3.2827644758979896E-01 a      1295     1    21     2    20
  1.2128847786523581E-02 a      1296     1    21     2    21
 -3.9663735998061661E-01 a      1297     1    21     2    22
 -4.8014269601284804E-01 a      1298     1    21     2    23
 -2.6011822935290396E-01 a      1299     1    21     2    24
  1.7211766606028797E-01 a      1300     1    21     2    25
 -4.1303607137499204E-01 a      1301     1    22     2     1
 -1.1934104587158996E+00 a      1302     1    22     2     2
  2.6870215652024840E+00 a      1303     1    22     2     3
  1.6101883710565976E+00 a      1304     1    22     2     4
  6.7446435447660852E-02 a      1305     1    22     2     5
  3.0754474506010755E-02 a      1306     1    22     2     6
  1.4691397401400130E+00 a      1307     1    22     2     7
  1.7285544084893190E-01 a      1308     1    22     2     8
  1.7049573234435483E-01 a      1309     1    22     2     9
 -1.0985996482990237E-01 a      1310     1    22     2    10
  1.8183812683553209E+00 a      1311     1    22     2    11
 -1.0613558790061186E+00 a      1312     1    22     2    12
 -5.6264433159115224E-01 a      1313     1    22     2    13
 -1.2447498249575821E+00 a      1314     1    22     2    14
  3.1067718075195255E-01 a      1315     1    22     2    15
  2.1514504737977355E-01 a      1316     1    22     2    16
  1.4670889037786616E-01 a      1317     1    22     2    17
  1.5845366883107888E+00 a      1318     1    22     2    18
 -2.2029457371963840E-01 a      1319     1    22     2    19
  6.5195607073873008E-01 a      1320     1    22     2    20
 -6.1664452427969640E-01 a      1321     1    22     2    21
 -3.4076932682461014E-01 a      1322     1    22     2    22
 -4.1650774796296891E-01 a      1323     1    22     2    23
 -3.2422295757386332E-01 a      1324     1    22     2    24
  6.1083594742952974E-01 a      1325     1    22     2    25
 -1.4217318185246344E+00 a      1326     1    23     2     1
  9.8510747867282478E-01 a      1327     1    23     2     2
 -4.5785327579536350E-01 a      1328     1    23     2     3
 -3.6034686805259937E+00 a      1329     1    23     2     4
  5.2131815161069839E-01 a      1330     1    23     2     5
  9.7783782365742444E-01 a      1331     1    23     2     6
 -3.0238239804211906E+00 a      1332     1    23     2     7
 -3.5611840000703365E-01 a      1333     1    23     2     8
 -3.5980169215394503E-01 a      1334     1    23     2     9
  2.7030279942352048E-01 a      1335     1    23     2    10
 -2.2889262685902625E+00 a      1336     1    23     2    11
  1.4168038440782051E+00 a      1337     1    23     2    12
  8.0447873869347875E-02 a      1338     1    23     2    13
  3.7492041273356014E+00 a      1339     1    23     2    14
  1.4234956070157845E-01 a      1340     1    23     2    15
  8.7564959143613830E-01 a      1341     1    23     2    16
 -3.5253493602857422E-01 a      1342     1    23     2    17
  5.0489481357131265E-02 a      1343     1    23     2    18
  7.0155003785187098E-01 a      1344     1    23     2    19
 -1.4672146553975215E-01 a      1345     1    23     2    20
 -3.1453351945465402E-01 a      1346     1    23     2    21
 -6.2555799337486251E-01 a      1347     1    23     2    22
  5.6277740168842849E-01 a      1348     1    23     2    23
  4.3538831828234265E-01 a      1349     1    23     2    24
 -8.8481191570787177E-01 a      1350     1    23     2    25
 -6.5943573667047350E-01 a      1351     1    24     2     1
  7.0231007290675673E-01 a      1352     1    24     2     2
  3.8654996454818167E+00 a      1353     1    24     2     3
 -1.1253790833516910E+00 a      1354     1    24     2     4
 -4.5998658706411275E-02 a      1355     1    24     2     5
 -3.5188480918576565E-01 a      1356     1    24     2     6
 -1.9931418734798978E+00 a      1357     1    24     2     7
 -1.1203234802051686E-01 a      1358     1    24     2     8
 -1.1540817005082975E+00 a      1359     1    24     2     9
 -3.6551477777239293E-02 a      1360     1    24     2    10
 -3.9942880313387268E+00 a      1361     1    24     2    11
  3.0768588497629301E-01 a      1362     1    24     2    12
 -8.6117904502780152E-01 a      1363     1    24     2    13
 -2.0328970447897823E+00 a      1364     1    24     2    14
 -1.1262219375438566E-01 a      1365     1    24     2    15
 -3.1582693484295554E-01 a      1366     1    24     2    16
  4.0100361950481962E-03 a      1367     1    24     2    17
 -1.4218849049567435E+00 a      1368     1    24     2    18
  2.5644785070058679E-01 a      1369     1    24     2    19
  2.9038239914755015E-01 a      1370     1    24     2    20
 -1.7744007965188949E-01 a      1371     1    24     2    21
  3.2838898759142382E-01 a      1372     1    24     2    22
  1.2521209680875831E+00 a      1373     1    24     2    23
  1.1193370196367683E-01 a      1374     1    24     2    24
  4.9934217467646452E-01 a      1375     1    24     2    25
  2.4945454634534542E-01 a      1376     1    25     2     1
 -2.4360422519694352E-01 a      1377     1    25     2     2
  1.3596260270669551E+00 a      1378     1    25     2     3
  2.5526752958183323E+00 a      1379     1    25     2     4
  7.7988411832119386E-01 a      1380     1    25     2     5
 -1.1249827847801064E+00 a      1381     1    25     2     6
  4.1611687080031282E-02 a      1382     1    25     2     7
 -1.1273335561554958E+00 a      1383     1    25     2     8
 -4.3224419711878109E-01 a      1384     1    25     2     9
  4.2782608288272783E-01 a      1385     1    25     2    10
 -9.7981361059106054E-01 a      1386     1    25     2    11
  2.1023321625700742E-01 a      1387     1    25     2    12
  5.2811546411998411E-01 a      1388     1    25     2    13
 -9.2430032591177713E-02 a      1389     1    25     2    14
 -4.9504777123728999E-01 a      1390     1    25     2    15
 -7.5280337007178266E-01 a      1391     1    25     2    16
  2.0938148852138551E-02 a      1392     1    25     2    17
  1.4588693359734921E+00 a      1393     1    25     2    18
  3.1110547730065847E-02 a      1394     1    25     2    19
  3.7810797917672284E-01 a      1395     1    25     2    20
  5.7458253916760878E-03 a      1396     1    25     2    21
 -6.7584464301040059E-01 a      1397     1    25     2    22
 -7.1252042314383202E-01 a      1398     1    25     2    23
 -7.6470216017457360E-01 a      1399     1    25     2    24
 -1.5740348067896169E-02 a      1400     1    25     2    25
 -1.2954255697362553E+00 b      1401     2     1
  2.4644717533752001E+00 b      1402     2     2
 -1.1415802744768326E+00 b      1403     2     3
 -2.8938885668753183E+00 b      1404     2     4
  1.2839285155271736E+00 b      1405     2     5
  2.1083211522389185E+00 b      1406     2     6
 -4.2825165337386836E-03 b      1407     2     7
  8.5030042954199547E-01 b      1408     2     8
 -5.4765764357561784E+00 b      1409     2     9
 -1.8933572304353372E+00 b      1410     2    10
 -4.4211796909606882E+00 b      1411     2    11
 -2.7021723582324118E+00 b      1412     2    12
 -1.2622277306250835E+00 b      1413     2    13
  2.3834607308938081E+00 b      1414     2    14
  1.5656892864881724E+00 b      1415     2    15
  1.7218755356741144E+00 b      1416     2    16
 -1.8598776624290176E+00 b      1417     2    17
 -1.4704026291792496E-01 b      1418     2    18
  4.4769917039777223E+00 b      1419     2    19
  1.9087284583063613E+00 b      1420     2    20
  1.0425849398482315E-01 b      1421     2    21
 -3.8694704901059718E-01 b      1422     2    22
 -2.0011462884316207E+00 b      1423     2    23
  3.2270378854078503E+00 b      1424     2    24
  9.2006703755566233E-01 b      1425     2    25
 -1.4516422204273129E+00 a      1426     2     1     3     1
 -4.9306948525926858E-01 a      1427     2     2     3     1
  2.8447514429482779E-01 a      1428     2     3     3     1
 -2.6982315523932010E-01 a      1429     2     4     3     1
 -1.6783914109884221E+00 a      1430     2     5     3     1
  1.3496182204192317E+00 a      1431     2     6     3     1
 -4.0533286517218470E-01 a      1432     2     7     3     1
  3.6460671322804217E-01 a      1433     2     8     3     1
  1.4961419597870886E+00 a      1434     2     9     3     1
 -2.5521243957287272E+00 a      1435     2    10     3     1
  6.3391408484442779E-01 a      1436     2    11     3     1
  2.4317832405061535E+00 a      1437     2    12     3     1
  1.8820633321879099E+00 a      1438     2    13     3     1
 -1.2756493427946596E+00 a      1439     2    14     3     1
  2.9643721236427862E+00 a      1440     2    15     3     1
  3.1131125310299739E+00 a      1441     2    16     3     1
 -1.7573409438803484E+00 a      1442     2    17     3     1
 -1.4924282697044071E+00 a      1443     2    18     3     1
  1.2462595546192918E+00 a      1444     2    19     3     1
 -1.4506155638143481E+00 a      1445     2    20     3     1
 -3.0927203659829448E+00 a      1446     2    21     3     1
  1.7719400948030060E+00 a      1447     2    22     3     1
  1.0622947744308620E+00 a      1448     2    23     3     1
  1.7209450679172542E+00 a      1449     2    24     3     1
  1.8101203415419616E+00 a      1450     2    25     3     1
  5.9580829451113164E+00 b      1451     3     1
