      0.4948617706
     -0.7510282575
     -0.1163830414
      0.1642897733
      0.1199996163
      0.4203353645
      0.0298248089
     -0.0002499647
      0.7998311191
     -0.8743385941
      0.2665277495
      0.2984817922
     -0.2861621701
      0.1429384090
     -0.0548640686
      0.1916042816
      0.0671843203
      0.5744511151
     -0.1108933228
     -0.2764783107
     -0.1898879322
     -0.6822578224
     -0.2552146640
      0.2041003177
     -0.1658805245
     -0.3129704355
     -0.8871519823
     -0.0237614185
      0.0235550854
     -0.0763295509
     -0.1376639296
      0.0457711030
     -0.5401883376
      0.5222926708
     -0.4462901518
     -0.0950605935
     -0.3845720263
     -0.1374206993
      0.4237355466
      0.4660265125
     -0.0502534413
      0.2889988181
      0.3657707878
      0.1845379847
      0.5710085740
     -0.0847955730
     -0.1957993564
      0.2176412516
      0.4781811672
      0.2547577233
     -0.1747616012
     -0.1878017403
     -0.4061069868
     -0.0635425244
      0.3023690608
     -0.3202983021
     -0.2000864918
     -0.1909768776
     -0.1046435155
      0.0387912717
     -0.3478447487
      0.3215353497
     -0.2162057760
      0.2508588272
     -0.3443057558
      0.4141603903
     -0.4258174666
     -0.4506948361
      0.1226920397
     -0.3044614852
      0.1384014928
     -0.2420432787
      0.1507450316
     -0.3894869280
      0.5097159912
     -0.2449717538
     -0.3244496693
      0.2126182272
     -0.5033101884
     -0.1429630094
     -0.4000613488
      0.2605042768
     -0.2853163988
     -0.0966094812
      0.4581910682
     -0.3048708785
     -0.0567194705
     -0.3552161695
      0.4562455269
     -0.1162786364
      0.2079709927
     -0.2133097319
      0.1046360361
      0.3875179273
      0.1300516241
     -0.1101777217
      0.0251852076
      0.1843654168
     -0.1950431016
     -0.4250156932
      0.1040322275
     -0.4331866397
     -0.6584255532
      0.2623507861
      0.3399487696
      0.3247172651
     -0.0524347619
     -0.4441698849
      0.0432900910
     -0.1282312298
     -0.2601375399
      0.4099201016
     -0.0164215644
     -0.4383337911
      0.4335362099
     -0.0710817800
      0.8109134279
     -0.2282004694
      0.0696160687
     -0.0016546035
     -0.4046695904
     -0.4556865934
     -0.0272393654
      0.0962059550
      0.4621775574
     -0.3300805812
     -0.0965967693
     -0.1952726645
      0.1362048331
      0.1725540807
     -0.1435400963
     -0.0410001530
     -0.1595844843
     -0.1150086851
     -0.3232686542
      0.3612862937
     -0.0882570794
     -0.0806301094
     -0.7223578841
      0.1739221839
      0.3554303322
      0.3995192940
      0.1271987138
     -0.4189461636
      0.5108524790
      0.3150409181
      0.3255763719
      0.4124680771
     -0.0443346626
      0.4494451442
      0.2697213027
      0.1372300288
     -0.5264505452
     -0.1068236364
     -0.3466572680
     -0.1341806166
      0.0379958871
     -0.2353618590
      0.5326108994
      0.4137029720
      0.3713091283
      0.2007999088
      0.0198277304
     -0.1242285519
     -0.0449343046
     -0.4741509307
     -0.0497817649
     -0.2198209601
     -0.3357273714
      0.4955444031
      0.1641262602
      0.3563405832
     -0.3071657926
      0.3242542335
     -0.3720489238
      0.4431768402
     -0.2597638823
     -0.1203109170
     -0.4761327840
      0.5377009485
     -0.2994480182
      0.3100588427
      0.4836036311
      0.1261727685
      0.4041482958
      0.0947416440
      0.0024202309
      0.0148660919
     -0.2677385742
      0.3658830591
      0.0838490892
      0.3812596128
      0.0865267508
     -0.3797166325
      0.4300059240
     -0.2554105438
      0.3895450727
      0.2695683789
     -0.1964006911
      0.0724693346
      0.0958422727
      0.1208558030
      0.1734458566
      0.0084705768
      0.6768486119
     -0.2341226464
     -0.4338680623
      0.0763990079
      0.1707876728
     -0.1701890146
      0.3168759723
     -0.2442435135
     -0.3429254282
      0.1925882861
     -0.3472558182
      0.3069695070
      0.4525771361
      0.0853178786
      0.2761169679
      0.0585775916
      0.6475806081
      0.0102035429
     -0.4500125658
      0.0437904337
     -0.2952499767
     -0.2220000236
     -0.2244547951
     -0.3688547491
     -0.5636078684
     -0.2157263338
      0.2719545463
      0.1878304295
     -0.1748849399
      0.0050318247
      0.5853416379
      0.3518536864
     -0.3578397200
     -0.3430944265
     -0.3805568595
      0.2530950905
      0.3564345449
      0.2048483370
      0.0064741164
      0.1746328321
     -0.3458152640
      0.1922570929
      0.0413620234
     -0.3614034123
      0.2241440001
     -0.1210831745
     -0.0327662233
     -0.2847513562
      0.1604277842
     -0.5167377493
      0.0153296961
      0.3148988529
      0.5736628783
     -0.6814911230
      0.1129802678
     -0.1117165151
      0.5929663393
     -0.2457250673
      0.3709525969
      0.1125462618
      0.2142113009
      0.3541658568
     -0.8143834164
     -0.1478121739
      0.2928016052
     -0.3056777510
     -0.3665154810
     -0.1455677049
      0.1549459857
     -0.3842639079
     -0.6501893859
     -0.1026434422
     -0.4039354690
      0.4931028404
     -0.3567348638
     -0.3315403863
     -0.3972839952
     -0.0466044643
      0.2614458440
      0.2600058933
     -0.0220355235
     -0.2713816887
     -0.3260867296
     -0.0301549900
      0.2226030988
      0.5344799567
     -0.4964287849
     -0.2044439641
     -0.0586322756
     -0.0503612916
      0.1699311537
     -0.1587635965
      0.1906723108
      0.2421899187
      0.0249258324
     -0.3045652825
     -0.6611227012
     -0.2068448444
      0.1915284662
      0.1873516682
      0.1898609864
     -0.2978556022
     -0.3669748633
      0.1489500515
     -0.1152939101
     -0.1346332550
     -0.3254886756
      0.1128864540
      0.4481121204
      0.1536953244
      0.4977471239
     -0.5322665905
     -0.1145737438
     -0.0821494710
      0.3732942535
     -0.0517854969
      0.1138839007
      0.5881244783
      0.2703349492
      0.3900053444
     -0.3475096729
     -0.0115557910
     -0.0080436010
      0.5370866935
     -0.4671122923
      0.2109121668
      0.0704988328
      0.4644701987
     -0.6737160487
     -0.3054464097
      0.2298717122
      0.1555919303
      0.4432999790
     -0.2935710551
      0.0112103223
     -0.1196734729
      0.0970124908
      0.0266565940
     -0.3854612976
      0.0110600769
      0.1655759780
      0.3444160909
     -0.0993138720
      0.2681487064
      0.4176000898
      0.1149060968
     -0.3582170638
      0.0362523548
      0.1836024085
      0.2282003809
      0.2686254009
      0.3199361062
     -0.4172915297
     -0.1360069872
      0.4036898497
     -0.2888257880
     -0.1427697599
      0.2819589753
      0.2923216674
      0.0375401146
      0.0103240958
     -0.1912016921
      0.6538776096
     -0.0606247324
      0.6957203992
      0.5099985510
      0.2541180005
      0.7898579597
      0.4571119032
     -0.0387714618
     -0.3829157719
     -0.3273192954
     -0.2361374555
     -0.6939214053
     -0.5336046465
     -0.0451935181
      0.3148620011
     -0.3004277106
      0.3825214305
      0.2482813358
     -0.0665499276
      0.3483600918
     -0.5050924579
      0.3301376855
      0.2591564608
      0.0951636290
     -0.1805345574
     -0.5423749822
     -0.5426949749
      0.0791892713
     -0.4277600883
     -0.0895485739
      0.2805165434
     -0.2743837154
     -0.2289416461
      0.2602425305
     -0.1232328751
     -0.0139457721
     -0.3215028972
     -0.3502197000
     -0.6766170218
     -0.0880278905
     -0.5911728749
      1.5575348257
      0.0375622704
     -0.0731888184
     -0.7635803446
     -0.1439026184
     -0.7850626229
      0.6766854834
     -0.9778136888
     -0.8363129873
      0.1560131941
     -0.1990472401
     -0.6164008721
     -0.1396620572
     -1.3417724941
     -0.3514734068
     -0.1032392252
      0.7760616881
     -0.7327837756
      0.0599402128
     -1.1260825498
     -0.2346102103
      0.9493653085
      0.2060913457
     -1.3368573053
      0.4945503632
     -1.4078752313
      1.0114454980
      1.4271996533
     -0.5071056721
     -0.0032065961
     -0.2953995722
     -0.4111449166
      0.4778621485
      0.2890967826
     -0.3692364154
      0.3673291128
      0.1184820663
     -0.0518338315
     -0.3608413433
     -0.1429997567
      0.2769671617
     -0.8126036773
     -0.3652237192
     -0.0200406362
      0.2102048105
      0.7731598999
      0.7017409617
      0.0505362671
      0.1002774211
     -0.2316125682
     -0.3301795833
     -0.4666127512
     -0.0478112985
      0.4810601517
     -0.0284861260
     -0.7269611754
      0.2312601048
      0.2367062398
      0.2166270103
      1.5081273915
     -0.7343356359
     -0.5646058961
      0.2418325337
      0.0674370382
     -0.2607249716
     -0.1688206690
      0.5581328667
      0.6725284394
     -0.8501187133
      0.5328953209
      1.0135782625
      0.5564050702
     -0.3897593006
      0.2751351831
      0.1339706582
      0.5198642319
     -0.6070585023
      0.5855087648
     -0.6159522365
      0.8077885931
     -0.4014867657
     -0.7615786903
      0.0203988430
     -0.0308768518
     -0.8214323295
     -0.3308472730
      0.7663864305
      0.6771834072
     -0.7278888470
     -0.4198908231
      0.2903504753
      0.1644594143
     -0.2772005848
     -0.5200989136
      0.3751080417
     -0.1566364362
      0.0965842067
     -0.2969389180
     -0.1730192113
     -0.2209597653
     -0.1738357819
      0.5529669871
     -0.1911693719
     -0.6199186476
     -1.1283174184
      0.4959479655
     -0.4547092865
      0.7475854695
     -0.1115306685
      0.4751948720
     -0.7046333616
      0.6478448253
      0.0257260564
     -0.0480342984
      0.7822285362
     -0.2440015018
      0.5837054956
      0.1521629454
     -0.0489170751
      0.0734859588
      0.4993065938
     -0.2006720868
     -0.4011251454
      0.5690789461
     -0.7504688133
     -0.4374087287
      0.7346671258
      0.2395949856
     -0.8649277799
     -0.2406877847
     -0.2592835746
     -0.2622597810
     -0.7650728794
     -0.4037077242
     -0.9651518818
      0.8389453468
      0.2682715053
     -0.3153905016
     -0.4344197070
     -0.7440861486
      0.0161081398
      0.2881273370
      0.4059836898
     -0.1553403048
      0.3236551303
     -0.9169864884
     -0.2111054297
     -0.6809172465
     -0.5476680488
      0.4481210778
     -0.6565401615
     -1.1955780247
      0.5085979056
     -0.4321217641
     -0.4558213366
      0.3315128521
      0.1637687437
      0.7416984317
      0.0803069698
      0.5723899622
      0.1275922274
     -0.8999214453
      0.0980819284
      0.5140452188
     -0.6148781314
      0.6227778763
      1.0305756672
     -0.5536866536
      0.4135152613
     -0.1552092432
     -0.8644499445
      0.0239824124
      0.5282145283
     -1.0052686836
     -0.3700371891
     -1.2456833202
      0.7713001263
     -0.5705515214
      0.2514131272
     -0.6490792577
     -0.5614310162
     -0.4033243361
     -0.4576679068
      0.8979990892
     -0.3914761433
      0.7200415386
     -0.5415022471
      0.1948864745
     -0.2227835166
     -0.0249555558
     -0.6699653561
      0.1829766881
      0.5760922830
     -0.6514480319
     -0.9313973495
      0.0467228575
      0.4520339581
     -0.1311357715
      0.9034333838
      0.0329172212
      0.1628939917
      0.3111196206
     -0.8195156076
      0.1966745023
      0.2748732046
     -0.6057738809
     -0.4197968590
     -0.3340765010
     -0.3628214704
     -0.3181833352
     -0.7887555463
     -0.1836892039
     -0.4812415929
      0.2243662222
     -0.2456064856
     -0.5443119557
      0.4883663523
     -0.2693401163
      0.4412653956
      0.0613526185
      0.1179101672
     -0.4081704741
      0.1284987750
      0.4579303498
     -0.8141145160
      0.4285669810
      0.3769689757
     -0.6773833986
     -0.7798666883
     -0.5704584424
      0.0443942701
      0.8225793563
      0.8592855966
      0.1024153137
     -0.6873279686
     -0.3912555071
     -0.4357374664
      0.1176526149
      0.2340636685
     -0.1877791037
      0.3525548833
      0.0582883678
     -0.1154519814
     -0.1183320677
      0.3603069583
     -0.3169581666
      0.5543500544
     -0.1917497395
     -0.5045539801
     -0.3426825617
      0.0914117020
      0.0500879092
      0.8386396097
      0.4387143533
      0.7884045949
     -1.3003360796
     -1.0562625592
      0.5405341678
      1.2351222313
      0.2500792492
     -0.7315061803
      1.2412182207
      1.4049004769
     -1.5266637672
     -1.2183972770
     -1.2757726683
     -0.7264571618
     -1.1690389675
      0.0498573091
     -0.1323210289
     -0.1290652312
     -0.1143207110
      0.0245430284
      0.1584203165
      0.0091087634
     -0.1893532641
     -0.2115236827
     -0.0720171815
      0.0738951532
     -0.0050945213
     -0.0819934729
     -0.1066408236
     -0.2004344614
      0.1683571949
