      0.2622480046
      0.3772968669
     -0.3177138957
     -0.1430940340
      0.4475086935
     -0.2703904751
     -0.5455349587
      0.2951479954
     -0.1188402626
      0.4760003277
      0.2109089488
      0.0560611924
      0.3276329271
     -0.3565069236
      0.3165510609
      0.0549922036
      0.3877304914
      0.2517946746
      0.6019276502
     -0.1449039967
      0.3731444205
      0.5965636493
      0.0225099311
      0.2844682921
      0.4984972929
      0.1296931419
      0.5401007247
      0.1282119630
      0.1291163261
      0.0127311423
      0.2793033871
     -0.6223884072
     -0.5331019529
     -0.5799893701
     -0.2273289954
     -0.2820728745
     -0.1735551678
      0.0451502118
      0.3856472174
      0.1952310048
     -0.2132785610
      0.3956457652
      0.5116581693
      0.0906223580
      0.4814588614
      0.3532274801
     -0.1605286046
      0.4746540441
      0.1146404215
      0.3797968601
      0.1077361287
      0.4315341075
     -0.5082402702
     -0.3222120690
     -0.4820963490
     -0.2713238810
     -0.2741629823
      0.4197043006
      0.2122642481
     -0.3581591548
     -0.0854106415
      0.1085467479
     -0.3008488363
     -0.3624053704
      0.4780253639
      0.4808070859
      0.1776292786
     -0.5409607279
      0.1977919403
      0.3491452385
      0.4805138299
     -0.3732921053
      0.3694664990
     -0.3980377720
      0.4892839947
      0.0129908239
      0.0435532328
     -0.1719491062
     -0.2150029401
     -0.1586079745
     -0.2766061215
      0.2809435471
     -0.4165977887
     -0.6451366857
     -0.5507396693
      0.4514832691
     -0.1693414265
     -0.1239218398
      0.5207181552
      0.5116133883
      0.4919066413
      0.1043499157
      0.1868601736
      0.4252331403
      0.5508182135
      0.1926470600
      0.0455469025
      0.1297416379
      0.2159839468
      0.1235535873
     -0.4608004307
     -0.0956756392
      0.3406294941
      0.4666495129
      0.3569736565
      0.1447886663
      0.1831929092
     -0.2136338863
      0.0937218874
     -0.3343830236
      0.5251748237
      0.1840466021
      0.5026380464
      0.1663494808
     -0.2189801806
      0.1910548069
      0.2872028315
      0.0680300930
     -0.2257359897
     -0.6217430977
     -0.0268087452
      0.1828876922
     -0.1634657422
     -0.4074805568
      0.5139859620
      0.4870668707
      0.1894748153
     -0.3578186784
     -0.0451701731
      0.3960327136
      0.4607574656
      0.0942108651
     -0.3377216425
      0.3720752317
     -0.0845832137
     -0.4536153644
     -0.3701135894
      0.3388183889
      0.4792513642
     -0.4372520152
     -0.4350021862
     -0.2634508506
      0.0999633944
      0.2398628561
     -0.0918610498
     -0.4663278475
      0.3194627863
      0.0604846167
     -0.1045157232
      0.3542595301
     -0.4892622833
      0.1201423107
     -0.5223148094
     -0.6636751127
      0.4785829886
     -0.3137820551
     -0.3181368939
      0.3568005049
     -0.2745825638
      0.3717323002
      0.0748894727
      0.4263634474
      0.4426994167
      0.1538354053
      0.0098799571
      0.5999410954
     -0.1103993046
      0.4247387483
     -0.0101057594
      0.3434165885
      0.0081984820
     -0.1790544047
     -0.2289130395
     -0.4329952942
      0.1216132628
     -0.4337639727
      0.6387716255
     -0.5077872815
      0.2778038931
      0.1728639016
     -0.2694527960
      0.3036243033
     -0.3227313764
     -0.0293019565
     -0.0951837529
      0.6016891950
      0.0377479657
      0.6084847971
      0.5439562063
     -0.4161928146
     -0.1379927590
     -0.1665278732
     -0.5316319141
     -0.5337374104
      0.0970823560
     -0.2263712111
      0.0415346621
      0.3797144902
      0.1813201489
      0.1849676570
      0.1037173826
     -0.4111664803
     -0.0432624940
     -0.0868173298
      0.3767478948
      0.2666773669
      0.0196158316
     -0.3837298256
      0.2405432062
      0.2022932441
     -0.0063931576
      0.2132609742
      0.0750917882
     -0.1899834322
     -0.3576215470
     -0.0249872943
      0.5045637168
     -0.0733883982
      0.5582868122
     -0.2429722068
      0.3822516881
     -0.1410411122
      0.2101018049
     -0.4918425029
      0.2786833105
     -0.0408499835
      0.4822981527
      0.5212516797
     -0.2385250193
     -0.3164622493
      0.2577011088
     -0.1839966042
      0.1244947952
      0.2417355502
      0.4811553744
      0.3987491458
      0.5194305026
     -0.3713005327
      0.5129513861
      0.1212042148
      0.6443489141
     -0.2554725041
     -0.4081784763
      0.0893992717
      0.4487877721
      0.2077775486
      0.6089556950
     -0.1849349884
      0.3778414323
     -0.3603099995
     -0.1300642925
     -0.5098766053
      0.0066286262
     -0.5408234897
      0.5584795942
      0.5901869650
     -0.5519584702
     -0.1119500883
      0.5166948461
     -0.4247041502
     -0.3201710783
      0.2663981873
      0.0024264075
     -0.6467478846
      0.1345606603
     -0.4826750017
      0.5989795241
     -0.4284541003
      0.1890081498
     -0.2398065727
     -0.4270950433
      0.3784024939
     -0.2331554578
     -0.2240256211
      0.0669845342
     -0.2413902745
     -0.2552012063
     -0.4060716717
      0.1094886253
     -0.0816695371
     -0.0179931873
      0.0696451016
     -0.3036118204
     -0.0253321483
      0.3618547577
      0.0456625413
      0.5678940929
      0.2721131777
     -0.3090744803
     -0.3974677657
     -0.4243116366
      0.5321046427
      0.6528719280
      0.5704290665
      0.1090018008
      0.3139504750
     -0.4190118278
      0.4199826164
     -0.4480492760
      0.2373026642
      0.4099243111
      0.6004723083
      0.2962801296
      0.1064073214
     -0.0263980299
      0.0559722657
     -0.4666146293
     -0.1345294481
      0.9083498839
      0.2248065042
     -0.5518906589
     -0.2911164014
     -0.0607086474
      0.0581140725
     -0.3638806745
     -0.8264081866
      0.9655287544
      0.6092545165
     -0.4086593662
     -0.5444106253
      0.0878524750
      0.6275480915
      0.2587571399
     -0.5463010181
     -0.3569649320
     -0.5516856132
      0.0447336300
     -0.9829737225
      0.8340137909
     -0.1689734960
      0.5396367055
      0.2695417098
      0.5340324152
      0.4445621923
     -0.2696015698
      0.0853600543
     -0.1683563317
      0.5261911992
      0.6689251378
     -0.6160961866
      0.4205774957
      0.3837924675
     -0.4680022327
     -0.5944040627
     -0.0766765071
      0.4002416703
      0.2725457385
      0.6535719312
     -0.3480021574
      0.0754845557
     -0.6212154511
     -0.5319384829
     -0.3953602042
      0.4714597963
     -0.6166811081
     -0.5974248457
     -0.3171907742
      0.3838692397
     -0.2143347582
      0.1135634940
      0.3300025601
     -0.7163381327
      0.0016326761
     -0.5460755970
     -0.1181646866
      0.3452516186
     -0.5706538153
     -0.4727689119
     -0.4279990639
     -0.0892365832
     -0.4648472689
     -0.1317020681
     -0.5582734445
      0.1178104828
      0.3226527633
      0.1638471227
      0.4061841257
      0.2128928219
     -0.5191354461
      0.6122706159
      0.6534559897
      0.3008279223
      0.0894666941
      0.0037225119
      0.0379642960
     -0.2374559938
      0.5842311911
     -0.3403186744
     -0.0224119363
      0.5836905449
     -0.6217506908
      0.1195052308
      0.2558584638
     -0.0270678412
      0.3745881482
     -0.3362246813
      0.0617936488
     -0.4861024946
      0.6974048797
      0.1581128074
     -0.2450797614
     -0.1789355827
     -0.0333730699
      0.2767995486
     -0.4494824037
      0.4359639490
      0.3207480583
      0.3830396744
      0.6033288962
     -0.4830848079
      0.2367302395
     -0.6643392709
      0.5732467474
      0.5476265532
     -0.4468638546
     -0.4207129328
     -0.6439377306
     -0.4223232436
      0.3477358520
      0.6845914303
      0.5072344082
     -0.7689279425
     -0.0115648393
     -0.5863598712
     -0.0150387224
      0.0651878722
      0.0532211980
     -0.4906931324
      0.1047687924
     -0.3884660836
      0.0459869334
      0.1521486840
      0.7606120240
     -0.7711249966
      0.1518266459
      0.5121125418
     -0.6824763050
     -0.2695367961
     -0.1973850670
     -0.4266307448
      0.0448638871
     -0.1606991044
     -0.0725613310
      0.0939706235
      0.1629995571
     -0.4517864775
      0.7138160373
      0.5202891125
     -0.1034995972
      0.8583933444
      0.5284118005
     -0.6807668334
      0.6226479702
     -0.0422848215
      0.5457326873
      0.6350364608
     -0.8869089720
     -0.4863861656
      0.4687097762
     -0.2635101836
     -0.0817178656
     -0.1139865794
      0.2636787139
     -0.4625299507
      0.5691835082
      0.2842881988
     -0.2863314701
      0.2093336990
     -0.2398855572
      0.4608953915
      0.5171168410
     -0.5934956139
      0.2633299942
      0.1401480238
     -0.4063225847
     -0.3053448752
     -0.5567382645
      0.0644814419
     -0.6077125443
     -0.1885061579
     -0.1261426227
      0.3928764738
      0.7887048478
      0.5705094562
     -0.2378696627
     -0.4814382410
     -0.0992002242
      0.0335077016
      0.4322699114
     -0.5199179265
     -0.5153168260
     -0.4709851888
      0.3616401997
     -0.1739346615
     -0.4253127383
      0.2879467100
     -0.0309020820
      0.2178190125
     -0.4495708125
     -0.5148377803
     -0.4007097981
      0.3410576437
      0.6192216669
      0.3961265535
      0.1259752344
     -0.6692020679
      0.1012739660
      0.1529106869
     -0.3438203869
     -0.5019294887
     -0.0555910399
     -0.3030253250
      0.5529737685
      0.0535190918
      0.1298603819
      0.6046444090
      0.2878135862
      0.6903958330
      0.5617690202
     -0.6142754639
     -0.7112343678
     -0.4487288800
     -0.6209940475
     -0.5870706738
     -0.0530329056
      0.6928212995
     -0.2924977337
      0.4422978375
      0.3819743958
      0.4780324522
      0.1921009524
      0.5790474320
     -0.5078503124
     -0.1372888534
      0.4200662332
     -0.6930072650
      0.6732913696
      0.3177341948
     -0.3431594918
     -0.5633849879
      0.4420470776
      0.2541076124
      0.5611278535
      0.5799387547
     -0.7674554000
      0.5718980283
      0.5239956022
     -0.0396365486
      0.4928499148
     -0.5141395602
     -0.3074561300
     -0.0273110113
      0.3529055153
      0.6685223219
      0.4661358014
     -1.4521894724
     -1.4043335901
     -1.5500282421
     -1.5654023502
      1.2205875208
     -1.4094775463
      0.7548527845
     -0.8811973379
     -0.6024502276
     -0.5295789015
      1.5880081349
      1.6530435976
      1.0752995421
      0.9089455472
     -0.3150980581
     -0.0007872718
      0.0594941697
      0.0166159113
     -0.0282817643
     -0.0087149882
      0.0031791449
      0.0108010753
     -0.0341342425
     -0.0150019107
     -0.0017539250
      0.0047034281
     -0.0615587714
      0.0306367974
     -0.0103952892
     -0.0123639406
      0.0500429123
