     -0.5582228340
      0.3530738566
      0.4064350044
      0.0678446513
     -0.0132768992
      0.3581625463
     -0.2935595431
      0.2537565709
     -0.8109841160
     -0.0631299865
      0.4274442744
      0.5061618695
      0.2368056817
      0.3537046282
      0.2057709563
      0.7048231582
      0.1782150757
      0.1193338400
      0.2163423333
     -0.3119988900
      0.2547349601
      0.2712874075
     -0.4938121569
     -0.0855645848
     -0.4028606241
      0.5013310080
      0.1843530376
     -0.3195179441
      0.0056092146
      0.5148022710
     -0.3567079067
     -0.2489592566
      0.4535521619
      0.2282907208
     -0.0329854658
     -0.2675126214
     -0.2010398672
     -0.5335413852
      0.0088603831
     -0.2203323034
     -0.3050480909
     -0.0388280130
     -0.3083412280
     -0.1981037255
      0.0423936426
      0.4092233782
      0.0054993454
     -0.0603874090
     -0.4175307311
      0.1636034815
     -0.1232232250
      0.2954069034
     -0.5519618926
      0.2753809989
     -0.3911997209
     -0.0277761014
     -0.2530858759
      0.2929539585
      0.0960062454
     -0.2576522324
      0.1236361451
      0.1059430091
      0.1461360978
      0.4523337522
     -0.2847071624
      0.1047105869
      0.4222159948
     -0.2792451188
     -0.0115720129
     -0.3108572902
      0.0356263428
      0.0009014633
     -0.4922166379
      0.2086090113
      0.4200219804
     -0.0345332759
     -0.0978909988
      0.2791536245
      0.1348907825
     -0.0029788990
     -0.1150388062
     -0.3093456003
     -0.1080143121
     -0.2885105581
     -0.3086268630
     -0.2500155625
      0.1757919321
      0.3288327327
     -0.1089842086
      0.1622725836
      0.3604252898
      0.3409939298
      0.2861784245
      0.0413547614
      0.1125448583
      0.3245909812
      0.1574612285
      0.0536710000
      0.1478404098
     -0.4439307259
      0.0813406205
      0.2417841042
      0.6964816992
      0.1269364488
      0.2822837051
      0.7040187959
      0.3829929642
      0.0586176930
      0.0351406034
      0.0043966034
      0.4300577287
     -0.0853935010
     -0.1648443905
      0.0334521801
     -0.0245134172
      0.0921710913
     -0.2033081858
      0.1054061270
      0.2546189760
      0.3971995519
     -0.4711309783
     -0.3073641924
      0.0993953173
      0.2305180935
      0.1893119601
     -0.2998093728
     -0.2320095029
      0.0672913562
      0.1069751775
     -0.3031353945
     -0.6055194518
      0.3772352864
      0.1570917340
     -0.0970917187
     -0.1091209725
     -0.0796447192
     -0.3186111533
      0.0533972342
      0.0436107469
      0.0797230504
      0.3398989529
      0.3239639964
      0.1173637323
      0.3746563226
      0.0688053306
     -0.1165308932
      0.0559860688
      0.2031880389
     -0.1516759898
     -0.2518408954
      0.3324939339
      0.1546416104
      0.5326854848
      0.3807332088
      0.0376545272
     -0.1933726668
      0.5942778342
     -0.3330075533
      0.3416127448
     -0.3217193669
      0.2919914621
      0.2492614847
     -0.5820862703
      0.0351726846
      0.0539062817
     -0.2757164153
      0.2549611280
      0.0312651855
      0.4120871394
     -0.0398078188
      0.0361053949
     -0.0173404113
     -0.2351590682
     -0.2740444656
      0.3434293788
     -0.2115866029
     -0.1086099896
      0.1040776538
     -0.0428375034
     -0.1776341856
      0.3559425297
     -0.0666583411
     -0.0358080359
      0.0000261388
      0.0632353764
      0.0866468058
      0.4091055686
      0.3759234076
     -0.2744083348
     -0.2626995429
     -0.1454837294
      0.2509151764
      0.2563601978
     -0.2858439151
     -0.1012150344
     -0.3147145359
     -0.2872411019
      0.4187373775
      0.2765340979
     -0.0449452112
      0.2768800896
     -0.3596976674
      0.0038409819
     -0.1731819408
      0.1130359000
      0.1054702949
      0.4958261285
      0.2521234450
      0.3749575956
     -0.0437970553
      0.1145356442
      0.1605153647
      0.1011417606
      0.4693536514
     -0.4207585961
      0.1516621993
      0.4599516940
      0.2973083908
      0.3446963295
      0.2784752665
      0.2741729334
      0.3889832540
     -0.0282218986
     -0.3437693745
     -0.0764349042
     -0.0440171522
     -0.2255131056
     -0.2869596837
      0.3537572568
      0.3953948155
      0.2454549095
      0.2896746834
      0.1684944091
      0.0290544483
      0.3655250979
     -0.1096310127
      0.1842823542
     -0.1947154538
     -0.2840250998
      0.1341905687
      0.2240914765
     -0.1623766840
      0.2251234388
     -0.1553905811
      0.1351577150
     -0.1417659934
      0.5263870570
      0.0348676530
      0.0706360721
      0.1767742738
     -0.0733770405
     -0.3071469635
      0.2549654887
     -0.1738509625
      0.3344269914
      0.1072208792
      0.3793605833
     -0.1404564320
      0.2486663588
      0.0372896585
      0.3397578816
      0.4417798576
      0.3779431153
      0.0523320143
      0.1535799753
      0.3728926962
      0.1819180944
     -0.4076823051
      0.0351657015
      0.1259665686
      0.0131064631
     -0.1187741319
     -0.4139881276
      0.4371621457
      0.2223214300
      0.3980820631
     -0.2711000455
      0.0458175736
     -0.2812692814
      0.2017867089
     -0.3533783986
     -0.2363879441
     -0.0403960305
     -0.3775804774
      0.1083802172
     -0.4600472507
      0.4925682488
     -0.1257356798
      0.1331040187
      0.0780235478
      0.1825884421
      0.3495496919
      0.6100436340
     -0.1115600439
     -0.0921204957
     -0.1183720619
      0.3078800040
      0.1208491700
      0.0494993142
     -0.0704318740
     -0.2487069816
     -0.2478766230
     -0.0476426752
     -0.2778578603
      0.3428623784
     -0.0768084353
      0.0161744605
      0.3013891147
     -0.4239099643
     -0.0586584882
     -0.2481072756
      0.2889157896
      0.1005282490
      0.2639310939
     -0.2290198243
     -0.2386825385
     -0.1928381479
     -0.0155733797
     -0.1027238168
      0.4157871256
     -0.2344469632
     -0.0622186066
     -0.1469601119
     -0.0160242309
      0.3132818797
     -0.0951509058
     -0.1122295032
      0.1209689176
     -0.0352568189
      0.0754459162
      0.1942742497
     -0.0444235148
      0.1802517532
     -0.0427289678
     -0.0210903657
     -0.0040020144
      0.3490891311
     -0.1573736227
      0.1807047191
      0.0836405925
     -0.0904568293
     -0.3138025706
      0.2544108371
      0.3628142293
      0.4008000388
      0.4101107695
     -0.5089016635
      0.1182876843
     -0.2883244644
      0.2654261850
     -0.0866578720
      0.1641670015
     -0.5064424062
      0.8797020290
     -0.0659591515
      0.0787423014
     -0.1472810122
     -0.0442464686
      0.0552933601
      0.0025554944
      0.1523083711
      0.0170435727
      0.2574757878
      0.1754306381
     -0.0968835727
      0.0660183147
      0.0085926038
      0.2198830924
      0.2677894409
     -0.2075667866
     -0.2730904000
     -0.1088853969
     -0.3077437805
      0.0561167671
     -0.0147144640
     -0.1680217662
      0.1933674830
     -0.7341815928
     -0.0521859887
      0.1601608433
      0.1230425797
     -0.3998662172
      0.5323290883
      0.0781249515
      0.4397225991
      0.0552973854
      0.2970041203
     -0.2613773218
     -0.5664969708
     -0.1021815280
      0.1023764213
      0.4732588444
     -0.3050631247
     -0.1349558560
     -0.0461083544
      0.3298287875
      0.3384978853
     -0.0435145745
     -0.4158087471
      0.0296834952
      1.0183534781
     -0.5052538780
      0.3873053477
      0.1593586743
      0.0699313146
      0.0817061725
     -0.2522057743
     -0.3959614565
      0.0329478771
     -0.4847815508
     -0.0532944002
      0.3979239140
      0.0385398107
      0.1976206040
      0.3301077364
     -0.0933019309
      0.0487159272
      0.1289820379
     -0.1699283460
      0.2419332408
     -0.5693842744
      0.3809402863
     -0.0509005860
     -0.3195299371
      0.2450033083
     -0.6881207454
     -0.8486735075
     -0.0383464103
     -0.1580042408
     -1.0598843821
      0.0896636809
      0.2661767577
     -0.2897669226
     -0.2144316436
      0.1205307345
      0.1554714338
     -0.1294685727
      0.0410005855
      0.2362911839
     -0.0620288980
     -0.1236574218
      0.1249156640
      0.0873082854
     -0.0401618056
     -0.4994787936
      0.0267338282
     -0.0899418116
     -0.4271800268
      0.2635154558
      0.0731832923
      0.2886274228
     -0.0437853449
      0.1787677007
     -0.0171380374
     -0.1112899052
      0.3038369802
     -0.0817205026
     -0.0095382623
     -0.1220720316
      0.2589435556
     -0.2030680526
     -0.2020604852
     -0.3015882723
     -0.1707734199
     -0.0757961807
     -0.1992853157
      0.3505119707
      0.2937797146
     -0.2947991766
     -0.0014137744
     -0.0270575820
      0.0224056991
      0.4988516595
      0.0509372835
      0.3886148856
      0.0897632618
     -0.4172717224
     -0.0224095262
     -0.3181148229
      0.0212696941
      0.1398082255
     -0.5677611123
      0.0666076916
      0.1408657263
      0.0735575976
      0.2767049073
      0.1533227974
      0.0269227588
     -0.4126515198
      0.5103129573
     -0.2220002025
      0.1277492310
      0.1045006380
      0.0576107243
     -0.4426020074
      0.0838515150
      0.0482611677
      0.3243013778
      0.0554443380
     -0.0527342116
      0.0031883450
     -0.1270008608
     -0.2233976246
     -0.0732867853
     -0.0890970991
     -0.0227081998
     -0.0941718404
      0.2976930146
     -0.0201227617
      0.0600696169
     -0.1542712563
      0.3420112855
     -0.1802983341
      0.0993293212
     -0.5728374334
      0.1864728843
      0.0124007740
     -0.0653208751
     -0.0033961798
     -0.3981860555
     -0.0253882845
     -0.1901014809
      0.3088383516
     -0.1834589627
     -0.3833997940
     -0.5914079961
     -0.2640056460
     -0.4992611060
     -0.4885678564
      0.4093021410
      0.0618652105
      0.1521068354
      0.2299690673
      0.1172588225
     -0.3373460916
     -0.6044889446
     -0.4717351388
      0.3674388832
     -0.3930360651
     -0.0286695375
     -0.4724755039
      0.4231393205
      0.1311848768
      0.1681488257
     -0.2085618018
     -0.4849586507
      0.1143118823
     -0.4247204922
     -0.4072682319
      0.5855916116
      0.5416407431
     -0.0195630961
     -0.1518459199
      0.0929829086
      0.8554076118
      0.2583610060
      0.1440031429
     -0.2200038360
      0.3950208008
     -0.3761302703
      0.3181500109
      0.2696218077
     -0.3156811584
      0.1806718428
      0.1632157395
      0.0975116448
     -0.2027005838
     -0.2499136272
     -0.1968113183
      0.5666785237
      0.1549843179
      0.0279142965
     -0.1353363026
      0.1464201769
      0.1018216269
     -0.0781537778
     -0.1320340451
     -0.3942709860
     -0.3265173645
      0.1531853711
      0.0414950786
      0.3718941303
      0.1202428584
     -0.3053600493
     -0.2108737950
     -0.0751710580
      0.3972303721
      0.1107016019
     -0.1567279593
     -0.2565062676
      0.0523821239
      0.3686184508
      0.0395978724
      0.1864239298
     -0.2246039140
      0.0890340636
     -0.1151950654
      0.2911913840
      0.0135146218
      0.0399531131
      0.0902568487
     -0.0908864831
      0.1047640895
     -0.1131962281
      0.3749503273
      0.0935726700
      0.0874830974
     -0.3321998706
     -0.0138227712
      0.3746202544
      0.1272422144
      0.3254984123
     -0.0372308677
     -0.3572912316
     -0.1822587331
      0.3024593913
      0.2003536008
     -0.2954639753
      0.0810889121
      0.2586842434
      0.2492557233
      0.2890528078
     -0.5174058589
     -0.1536976119
     -0.2130981386
      0.1517804234
     -0.4902552207
      0.3925147221
      0.3840617904
      0.3188175051
      0.3536472368
      0.1519024763
     -0.4917358155
     -0.2359673243
      0.1886073083
     -0.4087816192
     -0.0226558749
      0.8720805657
     -0.0534711043
      0.5564792755
      0.0414037115
     -0.4763775391
     -0.0449432241
     -0.0828476148
     -0.4551485958
     -0.0372914589
     -0.1125667847
      0.1509109028
     -0.1062767388
      0.4417036693
     -0.0721806534
     -0.0320727355
      0.1615378732
     -0.2157308364
      0.1700852195
      0.1155103291
      0.3222310508
      0.0415721227
      0.3815860088
     -0.3121082264
      0.2048584192
     -0.2649013251
      0.3058942559
     -0.1170540330
      0.0226381637
     -0.3285015693
     -0.2181397094
     -0.2929517715
     -0.1126256593
     -0.4472115064
      0.3528434383
      0.0914102365
      0.2910874102
     -0.5822567995
      0.1813020922
     -0.0473589523
     -0.0330790858
      0.0905491202
      0.2601082165
      0.1920474342
      0.1181253334
     -0.2789879042
     -0.3018203952
     -0.0879444886
      0.1626318290
      0.0802089551
     -0.3184144165
     -0.0870315400
     -0.2260447658
     -0.0728367827
      0.1864374255
     -0.0043729575
     -0.1212604989
     -0.0608293057
     -0.0778310890
      0.1248131381
      0.2727747293
     -0.5410695503
     -0.5274335698
     -0.2204169968
      0.1257601861
      0.0430535124
     -0.0099093966
      0.2240910377
      0.2784647627
     -0.1318794433
     -0.4262110764
     -0.2234978597
      0.7115059777
     -0.4746276952
      0.5521905576
      0.7962782630
      0.6864527100
     -0.3888853047
      1.2694416475
      0.0140735373
     -0.3957901961
      0.3119853968
      0.1695449479
     -0.7036670243
     -0.1572403042
     -0.0977096239
      0.4003252664
      0.5087052594
     -0.0532148106
     -0.2660649039
     -0.1538578578
     -0.4508543979
      0.1856669628
     -0.0651344498
     -0.2274522853
      0.0194155832
     -0.6747187234
      0.1912563709
      0.0856495164
     -0.1365482189
      0.1995533527
     -0.2007585203
      0.0573745978
     -0.0044025744
     -0.0619998516
      0.0189434930
     -0.1434650908
     -0.3224351996
      0.0977146556
     -0.5281380132
      0.2690685132
     -0.0633260984
     -0.4578106754
     -0.1280745019
     -0.2586240621
      0.4725509266
      0.3417922834
      0.2531490189
     -0.4019306249
     -0.0886946345
      0.1660196296
      0.6203989663
     -0.3013788417
      0.4384556154
     -0.5504493306
     -0.3309773611
     -0.9087681573
     -0.0171342110
      0.3769507031
     -0.8297269719
     -0.5172009099
      1.2321857273
      1.8165250188
      1.1038401170
     -0.5543806780
     -2.1033156568
      1.1342954460
      2.8872010447
     -1.8235054825
      1.0010508964
     -0.5134721546
      2.3956965891
      0.7732386535
      1.9474866495
     -0.9920541670
      1.5156936064
      0.4182937699
      0.1284911057
      0.2857931772
     -1.0655586343
      1.6630714961
     -0.5401286074
     -1.8593005739
      0.7312669109
      1.0096352378
     -1.2677360203
     -0.3219007866
     -1.8508070905
      0.3669004115
      0.0886317078
     -0.3024816482
      0.2998736924
     -0.1908110287
     -0.4581909342
     -0.3167639628
      0.5810192911
      0.1827611630
      0.1261667793
     -0.9162256858
     -0.4932102633
      0.3603913844
      0.7585267759
      0.1246644575
      0.6926254845
     -0.5225108033
     -0.4814664959
      0.1780557591
     -0.4231400836
      0.6551584915
      0.3094483425
     -0.0492458940
     -0.0327956854
     -0.5026056661
      0.6273493930
     -0.0847053394
      0.6311235084
     -0.8218006216
     -0.3488791882
      0.7564076550
      0.7087779075
      0.2651454847
     -0.3992234380
     -1.0507139524
     -0.4473594434
      0.9072839831
      0.4422338049
      1.3137000785
      0.2733157677
     -0.5754253994
     -1.0261957658
     -0.7660809396
      0.2209798762
     -0.6841936242
     -0.0993080393
     -0.2034532950
     -0.7135343445
     -0.8772186160
      0.2737023452
     -0.8779449395
     -0.7838375031
      0.4329376213
     -0.1958715531
      0.6828475953
     -0.1518884412
      0.2703246088
     -0.2519308864
     -0.7291154708
     -0.3581718677
      0.1347309672
      1.0475161250
      0.5344458038
     -0.7383988165
     -0.8911300428
     -0.5098273527
      0.0963178904
      0.1552602573
      0.8892982633
      0.6994377106
      0.4518614392
      0.0558244799
      0.0100782693
      0.1471820830
      0.6163488601
     -0.1964419884
     -0.2768974562
      0.0141162940
     -0.8871475460
     -0.2972578339
      0.1521203590
      0.4880392803
      0.5024850279
     -0.1337899969
      0.6141678558
     -0.7567125744
     -0.1996705007
     -0.7472128001
      0.2262071604
      0.7656004590
     -1.0798218517
     -0.3569182473
     -0.2104158175
      0.7506707209
      0.8871655710
      0.6405303211
     -0.2706626554
      0.3554596294
      0.1312053912
      0.2243711022
      0.5504162137
     -0.1929890267
      0.6071815561
      0.4493375359
      0.0603122692
     -0.6919275948
     -0.0208605429
      0.2980417479
     -0.5811962141
      0.1802855765
     -0.3402319103
      0.6228578825
      0.2960556945
      0.8734761449
     -1.0847587307
     -0.7352441901
      0.5919352899
      1.1008992252
     -0.5918486642
      0.6133440003
     -0.6961148891
     -0.0686251360
      0.6128602049
     -1.0821541352
      0.6073499290
     -0.5909227313
     -0.7866987320
      0.1154974500
      1.1078211813
      0.8073692050
      0.2025225626
      0.2670806478
     -0.1039957960
      0.3496907256
     -0.0508919793
     -1.0147972838
      0.1782375123
      0.3710387316
      0.1960839750
      0.8082897705
     -0.1826375587
     -0.4143866960
      0.1566303102
     -1.5597010624
     -0.0202680224
     -0.1041540745
      0.5050078814
     -0.1961508433
     -0.2442788470
     -0.6368322625
      0.5632823449
      0.9124119365
     -0.6665858381
     -0.2454621184
      0.1236623757
     -0.0056486186
      0.2768072687
      0.1164576158
     -0.4938885415
     -0.0285255505
      0.5311515737
      0.0998518798
      0.2036390406
     -0.2115959694
      0.0560816446
      1.0401980085
      0.7839594754
      1.1600408406
      0.7838624162
     -0.3774656911
     -0.2518468063
      0.4905187970
      0.2964694532
     -0.6122837767
     -0.5532496720
      0.6385417459
     -0.4428311433
      0.2047193379
     -0.2741623634
     -0.2873752936
      0.8734777140
      0.3170251512
      0.3316445819
     -0.1909362761
     -0.2139953512
      0.2727096657
     -0.0724852429
      0.3582137620
      1.7977399456
      0.1432348517
     -0.3700638038
     -0.1131882071
      0.7512306579
     -0.2442140268
      0.0910882978
     -0.3028214768
     -0.3974134423
     -0.2455675359
     -0.0224405604
     -0.0837671441
     -0.4956235708
      0.1557905046
      0.7495407606
      1.0030791749
     -0.6047416951
     -0.2904348501
     -0.3029756160
     -0.1251983288
     -0.7774151796
     -0.4875755968
      0.5406174772
     -0.2808059467
      0.2461965044
     -0.6667891047
      0.1772128388
     -0.6763929477
     -0.7031759565
     -0.7752011142
      1.1532240581
      0.4192303476
     -0.5260122720
     -1.0010130534
      0.2974350793
     -0.4970948994
      0.2074328692
      0.2224272941
     -1.7392512603
      1.0937684972
      0.9733896235
     -0.7304890339
     -0.1780944542
     -0.5265675318
      0.7532799445
      0.0355767364
     -0.6044117672
      0.1123978931
     -0.9405665968
      0.3512827251
      0.1197452512
      0.3064911974
     -1.1592443371
     -0.0269834400
      0.0127007173
     -0.0151721399
      0.0560803095
     -0.0083609515
      0.0463327175
      0.0500507039
     -0.0714205670
      0.0106361196
      0.0583413559
      0.0081077034
      0.0538817171
     -0.0808442790
      0.0097766997
     -0.0256810332
     -0.0152180452
