     -0.0391205871
      0.0670690098
      0.0643653699
      0.1420071877
      0.0476605813
      0.0793169996
      0.0765595713
      0.1758543040
     -0.1747153659
     -0.2502939860
      0.0247898350
     -0.0109335557
     -0.1016707775
      0.0568351026
     -0.0988985801
     -0.0217960149
      0.1670895151
      0.0442131358
      0.1263274805
      0.1920702259
      0.1000886905
      0.0235171479
      0.0801849229
      0.0239650960
     -0.0551153322
      0.0376898661
      0.0320096746
     -0.0661917745
      0.0269160563
      0.1306631086
      0.1467957737
      0.1743126734
     -0.0102563754
      0.1623429306
     -0.0813794427
      0.0930132315
      0.1497872595
      0.0415044326
      0.0919205743
     -0.0641747604
      0.0404072627
     -0.0047572966
     -0.1943206342
      0.0804332045
      0.1061433006
      0.3100981530
      0.2668668203
     -0.0758163615
      0.4590195648
      0.4415559330
      0.1544552234
      0.0798901717
      0.0856876465
     -0.2013309067
      0.2073754780
      0.0926604534
     -0.3212243905
     -0.2670088152
     -0.1577370048
      0.1308761449
     -0.0191529476
      0.1638101466
      0.0444308785
      0.1249920850
      0.1895627784
      0.0932694737
      0.0200602094
      0.0815323497
      0.0293504689
     -0.0546642256
      0.0358657596
      0.0293579128
     -0.0661810552
      0.0333084470
      0.1272175679
      0.1436229826
      0.1688140454
     -0.0077112562
      0.1627012058
     -0.0806910572
      0.0906747376
      0.1516616669
      0.0413023378
      0.0876023488
     -0.0605556376
      0.0407536565
     -0.0118673081
     -0.1969904425
      0.0902603705
      0.1018555124
      0.3175889741
      0.2559414093
     -0.0932757113
      0.4449200259
      0.4349022386
      0.1539517978
      0.0684302074
      0.0699095438
     -0.1984382170
      0.2068118362
      0.0985183599
     -0.3077993554
     -0.2699165259
     -0.1428173064
      0.1256815144
     -0.0169241971
      0.1628359261
      0.0479246894
      0.1280141618
      0.1862952381
      0.0911683571
      0.0176297715
      0.0861849569
      0.0321552376
     -0.0559373807
      0.0357915193
      0.0308073180
     -0.0637928964
      0.0364796255
      0.1292266160
      0.1467239884
      0.1651157494
     -0.0057874973
      0.1595087106
     -0.0786507391
      0.0908188022
      0.1499824831
      0.0406077827
      0.0831557492
     -0.0558987768
      0.0440219677
     -0.0190879368
     -0.1956015564
      0.0991708105
      0.0979989806
      0.3209188351
      0.2437308861
     -0.1101874406
      0.4324724871
      0.4290719117
      0.1521056413
      0.0575148391
      0.0535965258
     -0.1925818204
      0.2071002647
      0.1023892885
     -0.2948019657
     -0.2771290161
     -0.1290843759
      0.1188101491
     -0.0167798281
      0.1569013450
      0.0480775926
      0.1286478040
      0.1830950158
      0.0867353106
      0.0170378882
      0.0881237022
      0.0366149584
     -0.0539805657
      0.0341023723
      0.0288526864
     -0.0661393941
      0.0374821709
      0.1254007718
      0.1446631998
      0.1588333724
     -0.0007252227
      0.1604756055
     -0.0779488209
      0.0859110805
      0.1546087641
      0.0385020808
      0.0800179372
     -0.0546192194
      0.0480924538
     -0.0229276357
     -0.2009576841
      0.1065425672
      0.0923718207
      0.3276123784
      0.2360149300
     -0.1259209731
      0.4210968930
      0.4210305581
      0.1534355597
      0.0469227926
      0.0355844172
     -0.1909791201
      0.2113330176
      0.1107380601
     -0.2856979792
     -0.2837618754
     -0.1158412753
      0.1135874039
     -0.0116297202
      0.0660127498
      0.0576612786
      0.1230373589
      0.0313571158
      0.0882190762
      0.0572272251
      0.1646327905
     -0.1714631886
     -0.2188963373
      0.0184253590
     -0.0011516602
     -0.1187594053
      0.0520999086
     -0.0478116070
     -0.0137376847
      0.1548181853
      0.0508436414
      0.1313388782
      0.1787572387
      0.0818735577
      0.0152945906
      0.0894960389
      0.0384773835
     -0.0558407792
      0.0343787689
      0.0290506476
     -0.0650396527
      0.0395137334
      0.1257740986
      0.1434222138
      0.1537609668
     -0.0006860832
      0.1600491092
     -0.0798109823
      0.0860940411
      0.1548514756
      0.0404257591
      0.0753929345
     -0.0483110363
      0.0509460362
     -0.0283832623
     -0.1997793791
      0.1129835467
      0.0879658647
      0.3344447490
      0.2234494775
     -0.1425088237
      0.4089994998
      0.4164223357
      0.1544954095
      0.0364471259
      0.0218111893
     -0.1864170675
      0.2123146381
      0.1177132425
     -0.2729234701
     -0.2917220471
     -0.1050010401
      0.1109850188
     -0.0099861002
      0.1530323236
      0.0515750719
      0.1290992961
      0.1772410145
      0.0750314126
      0.0157871420
      0.0909861336
      0.0415353865
     -0.0552127276
      0.0334850035
      0.0252909430
     -0.0654368991
      0.0413804834
      0.1276044857
      0.1433099241
      0.1497898733
      0.0004244191
      0.1579440274
     -0.0769184365
      0.0854146863
      0.1556789705
      0.0395937604
      0.0693279943
     -0.0461834178
      0.0544522391
     -0.0356295484
     -0.2034971388
      0.1237525866
      0.0854533429
      0.3402736629
      0.2143652918
     -0.1575165635
      0.3982396045
      0.4086337695
      0.1556333594
      0.0209928970
      0.0060558342
     -0.1852587083
      0.2125220847
      0.1229893196
     -0.2641600591
     -0.2973274688
     -0.0940017985
      0.1069520214
      0.0043159020
      0.0679986795
      0.0513719860
      0.1070915355
      0.0178218640
      0.0915961258
      0.0428747945
      0.1574965137
     -0.1674016279
     -0.1964568425
      0.0151994718
      0.0036305107
     -0.1321225415
      0.0517310418
     -0.0099332699
      0.0242090883
      0.0643785242
      0.0450851401
      0.0893628458
      0.0034865231
      0.0909334661
      0.0297065140
      0.1534051059
     -0.1657103798
     -0.1744816604
      0.0119196440
      0.0076812725
     -0.1437715430
      0.0477541726
      0.0268296818
      0.0481483472
      0.0636956387
      0.0361406314
      0.0661910538
     -0.0162338375
      0.0877084290
      0.0116804295
      0.1472509384
     -0.1603073640
     -0.1435852516
      0.0103924733
      0.0119008896
     -0.1593329803
      0.0410507194
      0.0788649876
      0.0737088487
      0.0637777354
      0.0271506245
      0.0409409417
     -0.0392883340
      0.0831887658
     -0.0024746759
      0.1457921616
     -0.1566091771
     -0.1166642005
      0.0092241249
      0.0171950449
     -0.1737367079
      0.0359495393
      0.1317908048
     -0.0334599485
     -0.0209988193
     -0.0250530765
     -0.0696198486
     -0.2045812647
      0.0790595680
     -0.0095162198
     -0.0014663352
      0.0478689841
      0.1530647848
     -0.0738589558
      0.0269556058
     -0.1195909722
      0.0367913060
      0.1371063887
     -0.0048817271
     -0.1503943022
     -0.0492937962
      0.0379826037
     -0.0383927991
     -0.1227767494
      0.0731284014
      0.0784555405
      0.1050651483
      0.0980807871
     -0.0920093607
     -0.1197849251
     -0.1562966823
      0.0797841700
     -0.0280533177
      0.2323362579
      0.1137316046
      0.0059597663
      0.1902234900
     -0.0951212009
     -0.0234220279
      0.0951775747
      0.0322322000
      0.0225202303
     -0.0564513216
     -0.0519369320
     -0.0287363442
     -0.2404907605
      0.2654091827
     -0.1377174277
      0.2249128491
     -0.6833883513
     -0.3406640864
      0.0536927013
      0.1605345846
      0.4798387267
     -0.1997741283
     -0.0596221810
      0.2049744184
      0.4096898650
     -0.1094733245
     -0.0241865292
     -0.1173400358
      0.4950820679
     -0.2763512661
     -0.0979021599
      0.2060398473
      0.0129693821
     -0.0312716881
     -0.0639412972
     -0.1072063004
      0.0530586455
      0.0388070373
     -0.2204273913
      0.0488990858
     -0.1039776097
      0.0267236525
      0.0046423496
     -0.1468490237
      0.6142265162
     -0.0071971440
      0.0319041415
      0.0363311577
      0.0646365500
     -0.1382204069
      0.1955850802
      0.0289654802
      0.0394747800
      0.0847321106
      0.1477988788
      0.1129112520
      0.0922009618
     -0.1234143500
     -0.0170286925
      0.1557749064
     -0.0114372939
     -0.0585876148
      0.0094519281
      0.0556881178
      0.0208630391
     -0.0094341286
      0.0429101778
      0.1021146783
      0.2240038977
      0.1030604858
     -0.0449787294
     -0.0288895241
     -0.1543055951
      0.0966798525
     -0.0509383461
      0.1753333035
      0.1473586674
     -0.0616213393
      0.1423814787
     -0.0689095773
     -0.0324047808
      0.1279933274
      0.0453280374
      0.1024831242
     -0.0174032623
      0.0119648125
      0.0159959374
     -0.1804709707
      0.1104541367
     -0.0114256742
      0.2610907924
      0.2161088361
     -0.1642874061
     -0.1709452141
      0.0976080840
      0.5381901912
     -0.2020844966
     -0.1272120716
      0.3266717668
     -0.0274035418
     -0.9412629582
     -0.0713898213
     -0.0764747491
      0.2785898896
     -0.1994938886
     -0.0708256712
      0.1048753022
      0.0280516060
      0.0057062345
      0.0530979642
     -0.1232937677
      0.0011159651
      0.0487104880
     -0.0794556803
      0.0678675576
     -0.1548308095
     -0.0526308286
     -0.0540266727
      0.1024937070
      0.1198840822
     -0.0536739610
     -0.0680939754
     -0.0504284371
     -0.1209211093
     -0.2323437573
     -0.0269514532
     -0.0190900115
     -0.0191916434
      0.0173202507
      0.1354052480
     -0.1747045827
     -0.0108019112
     -0.1104565441
      0.0625389911
      0.0699874185
     -0.0242944658
     -0.1129007090
     -0.0948266388
      0.0062760011
     -0.1203570653
     -0.3220838286
      0.1009082173
     -0.0167633914
      0.0132284571
      0.1178418214
     -0.0893786993
     -0.1127968439
     -0.1117046275
     -0.0385119313
      0.0755676172
      0.1638529408
     -0.7774654076
     -0.4738711363
      0.0692831683
      0.1501142825
      0.2072502494
     -0.1292302885
     -0.0674167430
      0.1339042007
      0.4707070044
      0.1880734887
      0.0295638988
     -0.0561649992
      0.3911141394
     -0.3346571777
      0.0003834183
      0.0371978249
      0.0717899548
      0.1381377274
     -0.0972962961
      0.2044731491
      0.0566512448
      0.0598858377
      0.0915774492
      0.1273365641
      0.1973696997
      0.1169461783
     -0.1200141945
     -0.0391460638
      0.1121525978
     -0.0128289945
     -0.0388978596
      0.0177950504
      0.0587228996
      0.0263000017
      0.0055366718
      0.0384981396
      0.1008524038
      0.2427298500
      0.1081226187
     -0.0364630186
     -0.0130406686
     -0.1510386318
      0.0918435164
     -0.0480361646
      0.1639687368
      0.1476386359
     -0.0694369647
      0.1363010906
     -0.0648343215
     -0.0307787810
      0.1264551375
      0.0454544036
      0.1107974689
     -0.0143069471
      0.0180761239
      0.0186952462
     -0.1708443054
      0.0983520110
      0.0025940526
      0.2482964570
      0.3610346593
     -0.1507934440
     -0.2031675196
      0.0791196673
      0.4808870764
     -0.1798722138
     -0.1387060451
      0.3248345236
     -0.1004673262
     -1.0083421117
     -0.0663713982
     -0.0527653569
      0.2108643905
     -0.1883949367
     -0.0634807287
      0.0767953741
      0.0271738953
      0.0181128426
      0.0816590589
     -0.1364183156
     -0.0058056843
      0.0499867951
     -0.0270599631
      0.0699570119
     -0.1692167916
     -0.0677069798
     -0.0703236121
      0.1617540852
     -0.0212866256
     -0.0434768026
     -0.1781898397
     -0.1441813390
     -0.1474046657
     -0.2419555211
     -0.2257543773
     -0.0018492521
     -0.0817410366
     -0.0725766663
      0.1104564547
     -0.3410704242
     -0.1310713296
     -0.1164319634
      0.0332620900
     -0.1457967304
     -0.0681232691
     -0.0806128805
      0.2041085927
      0.2412799216
     -0.0414479107
     -0.0984327256
      0.1198688704
      0.1252712795
      0.1001332303
     -0.0593526499
      0.2688535343
      0.1858903361
     -0.0578827409
      0.0328403851
     -0.2499465718
     -0.0207414933
      0.0043130995
      0.0403593031
      0.0650730835
      0.0400822508
      0.0232704691
      0.0235804504
      0.1014715102
      0.2689037264
      0.1107270859
     -0.0170826521
      0.0179915030
     -0.1405408951
      0.0796501074
     -0.0286552156
      0.1428146521
      0.1370394376
     -0.0686248643
      0.1218985200
     -0.0614827851
     -0.0094765108
      0.1157671931
      0.0482264869
      0.1242738591
     -0.0136586633
      0.0207699043
      0.0059829322
     -0.1585115382
      0.0924924470
      0.0306946962
      0.2180546839
      0.5043964593
     -0.2177219010
     -0.2706836083
      0.0660704804
      0.3697528807
     -0.1660264187
     -0.1686677047
      0.3262831613
     -0.1538821521
     -1.0638193642
     -0.0549129473
      0.0014218864
      0.1293088409
     -0.1819402232
     -0.0453181228
      0.0011231713
      0.0110778503
      0.0597352200
      0.1267650170
     -0.1840199690
     -0.0004489047
      0.0568954765
      0.1112336350
      0.0661998072
     -0.2121068190
     -0.0904143106
     -0.1047843899
      0.2842419017
     -0.3583869163
     -0.0284437849
      0.1038955460
      0.1073432512
      0.0997954690
      0.0515758660
      0.0804302031
     -0.0337333039
      0.0977248587
      0.2579564726
      0.1231187037
      0.0390585092
      0.0405941561
     -0.1005889290
      0.0319957600
      0.0972649711
      0.0997192245
      0.1037562552
     -0.0583530102
      0.0984715518
     -0.0576341097
      0.0764232969
      0.0904024956
      0.0510753270
      0.1399972426
     -0.0063925867
      0.0082151474
     -0.0353236138
     -0.1367553938
      0.1020103581
      0.0890742304
      0.1222898922
      0.6730938300
     -0.4678890143
     -0.4252822344
      0.1114463155
      0.0914181251
     -0.1688747874
     -0.2404271568
      0.4017426313
     -0.1449806039
     -1.0369988581
      0.0192218295
      0.1364123343
      0.1122462442
     -0.2890643655
     -0.8881203813
      0.3119321613
      1.1364609490
      0.7260509749
     -0.5726469908
     -0.7318469820
      0.4071770237
     -0.2816567425
      0.1118475611
      0.1143401379
     -0.1853786455
      0.0315014709
     -0.3946494216
      0.1997879492
      0.8990552103
      0.0195786880
     -0.0208283783
     -0.1814453285
      0.2323061875
      0.0711062200
     -0.1613883201
     -0.0165763040
      0.6206500018
      0.2073250192
     -0.3184956220
      0.3285693568
      0.1737876380
      0.1046990931
     -0.1312142766
     -0.0496441872
     -0.0624500986
      0.1319123577
      0.1648643771
      0.3907146566
     -0.3547736360
     -0.5965690356
     -0.6482838866
     -0.1526201350
     -0.1960197377
      0.1954596135
      0.3264930022
     -0.5615343690
      0.0568646812
      0.3645718213
      0.1184431627
      0.0101904455
     -0.0247143607
     -0.3071349694
     -0.0245117351
      0.7507417298
     -0.4988284134
      0.2713527000
      1.1279184455
     -0.1368575623
     -1.1447755404
     -0.1877044252
      0.2879870611
      0.0169842993
     -0.3659524959
     -0.0926094953
     -0.4165573668
      0.3608310923
      0.9860110100
      0.3186515684
     -0.1321476626
      0.4004593118
     -0.0135956440
      0.2428168848
     -0.0292812307
      0.0921208394
      0.2960930465
     -0.4864005756
     -0.5330056505
      0.0693446705
      0.1225458489
     -0.4804511294
      0.1373019165
      0.6063268776
      0.0422553875
     -0.0180207037
     -0.1198048831
     -0.3487013464
      0.2824263365
      0.1367222395
     -0.3384477550
      0.1572238532
     -0.1411234309
     -0.1269569438
     -0.4091487493
      0.0727559314
      0.0124159308
      0.0922699423
      0.1231959268
     -0.0597659988
     -0.6229995478
     -0.4952175090
     -0.1810085646
      0.0328483638
      0.0777803188
     -0.1481231560
      0.2849732657
     -0.3315268348
     -0.4182316773
      0.0865498369
     -0.0609930259
      0.2126378240
      0.4483150677
      0.5480724436
     -0.0110559049
     -0.4510372018
      0.2325368196
      0.1613672872
     -0.0328387718
     -0.0323739204
      0.5472421814
     -0.3029386872
     -0.0106312388
      0.1898472657
      0.4391458329
      0.2932638222
     -0.1891523862
      0.1844652360
     -0.0999868905
      0.0478690976
      0.2167190883
     -0.3788601663
     -0.1490449749
     -1.1359188487
     -0.2192151167
      0.2386376274
      0.4417636503
     -1.4590856385
     -0.6982654201
      0.2448670077
     -0.2292172132
      0.2339706294
     -0.3247762831
     -0.7477758564
      0.1337049650
     -0.5229770341
      0.5280433616
     -0.0701058347
     -1.0819018823
     -0.1543462040
      0.7348767028
      0.0276188600
     -0.3429813377
      0.1203812516
     -0.3848900730
      0.0229882781
     -0.3168775844
      0.0667320685
     -0.4232249379
      0.0008150259
      0.0267207655
      0.2559101390
      0.2937226639
      0.0460881499
     -0.1356568207
      0.3410242277
     -0.3418785952
      0.2596316337
      0.0455129861
      0.0293615606
      0.0495305556
      0.1900536762
      0.3696730222
     -0.0158013620
      0.6837322881
     -0.1567266446
     -0.0046835154
      0.6002386804
      0.2019589975
      0.6806352726
      0.0791844134
      0.8200150651
      0.4020912953
     -0.2518245072
     -0.0189066084
     -0.0408762524
      0.1141065407
     -0.2287771829
     -0.0499234015
     -0.0640738735
     -0.4678017175
     -0.2932471826
      0.1329455766
     -0.5367313753
     -0.1680503414
     -0.2392593593
     -0.4388701014
     -0.4040943824
      0.4058354099
      0.0492418019
      0.2098786649
      0.2790150347
     -0.2991813308
      0.1963211950
      0.1207095202
     -0.5639995725
     -0.4292493340
     -0.3354611525
     -0.3263423878
      0.4670661503
     -0.2457765165
      0.3114360515
      0.2078794808
     -0.0290384359
     -0.4636796075
      0.0901058370
      0.1402642394
      0.0898455449
      0.0658270871
      0.1118367897
     -0.1648313067
      0.5591352408
     -0.0711641243
      0.3003533489
      0.0143694117
     -0.4966272604
     -0.0777052731
      1.1579475112
     -0.1731048782
     -1.3647914548
      0.1286459728
      0.0514053047
      0.2234195556
     -0.1481436687
      0.3006396181
      0.1583331665
     -0.7671294016
     -0.1106385752
      0.5534462737
      0.1010817365
     -0.9728026391
      0.2631791142
     -0.0629831473
     -0.2531849434
      0.7699466258
     -0.0650165141
      0.0369736353
      0.2927187445
     -0.2915418195
     -0.1344393450
      0.7598962967
      1.1141535626
      0.5072973521
      0.3937088460
     -0.7123048735
      0.5925526407
     -0.3679604149
     -0.2777244952
      0.0378553678
      0.1659494328
      0.0222686178
     -0.3115913013
      0.2010263102
     -1.5065547224
      0.2970305198
     -2.9662468234
     -2.0798753224
     -1.4206543545
      1.8466230202
      0.9112581946
     -0.8179505860
     -1.7259823957
      1.6383421328
     -3.5600348618
      2.7473687939
      0.1299315185
     -2.6222628671
