      0.2745880954
      0.0480606327
     -0.4245035214
      0.2005294056
     -0.0849154137
      0.1674717077
      0.0302845598
     -0.3225400308
     -0.1391892466
      0.3487336000
      0.3821853619
      0.3047339996
     -0.0552730668
      0.0829926714
     -0.1233930251
      0.2877020968
      0.1120983332
     -0.3537712159
      0.4697837883
     -0.0782436160
     -0.1147624005
     -0.2152127014
     -0.4017954782
      0.1787578545
     -0.3186272674
     -0.1987475717
     -0.1423764147
     -0.0722088222
      0.0433560479
      0.1725287485
     -0.3439320808
     -0.1255104694
      0.1244416153
     -0.3152313920
      0.2530657969
     -0.1618703260
      0.2219609869
     -0.4494446911
      0.1518449529
      0.2863644961
      0.0038535214
     -0.2283096073
     -0.1666114525
     -0.0800409468
     -0.0648835883
      0.2209197717
      0.0291523958
     -0.2542285903
      0.4442330283
     -0.0747934640
     -0.0354898024
     -0.2469849553
     -0.2795605258
      0.1947770763
     -0.2354222858
     -0.1939495838
     -0.1312727586
     -0.0516357782
      0.0781373324
      0.0348303309
      0.1516965157
     -0.0503785961
     -0.1596537230
      0.4178486324
     -0.0727931912
      0.0383701998
     -0.2813366406
     -0.1625326527
      0.2083945328
     -0.1520729572
     -0.1914320151
     -0.1223784364
     -0.0289755130
      0.1106072511
     -0.1004779310
      0.0820436675
     -0.1284153110
     -0.0734341508
      0.3973655317
     -0.0683024519
      0.1119277634
     -0.3129772815
     -0.0462852410
      0.2205394256
     -0.0675365218
     -0.1872971040
     -0.1084890771
     -0.0035593742
      0.1435878616
     -0.2297513471
      0.2383959492
     -0.0458157963
     -0.3608073955
      0.1908781014
     -0.1083320579
      0.2072870062
      0.0449071017
     -0.2592690806
     -0.0515033815
      0.3251238995
      0.3795623778
      0.3154567110
     -0.0718588419
      0.0395068524
     -0.1144734035
      0.0137793907
     -0.2037483482
      0.0120471052
      0.3731505003
     -0.0617314073
      0.1840795787
     -0.3442917161
      0.0689685176
      0.2337318921
      0.0092167573
     -0.1821787610
     -0.0992994515
      0.0207762796
      0.1714986880
     -0.3580812414
     -0.3442349328
     -0.1204238571
      0.0863851286
     -0.2900662652
      0.2713236839
     -0.1706977692
      0.2224391984
     -0.3903750256
      0.1201808234
      0.2818284793
     -0.0561462110
     -0.2141930078
     -0.1969800557
     -0.0132531100
     -0.0589837183
     -0.0505207397
     -0.2791453387
      0.0942904502
      0.3511292481
     -0.0523191316
      0.2490890970
     -0.3743095566
      0.1862359284
      0.2432752452
      0.0887291789
     -0.1790962211
     -0.0890299610
      0.0453429718
      0.2033970296
     -0.4835457676
      0.2113990349
     -0.0939435176
     -0.3145466626
      0.1789728140
     -0.1228564737
      0.2258539332
      0.0527125221
     -0.2099210954
      0.0124177413
      0.3014797921
      0.3709006664
      0.3197464095
     -0.0868507661
      0.0134927918
     -0.1023286340
     -0.3455500556
     -0.1082585161
      0.0493903084
     -0.2646988285
      0.2891687273
     -0.1772388208
      0.2188690105
     -0.3333956755
      0.0879086156
      0.2783051133
     -0.1117145758
     -0.2029460392
     -0.2234885571
      0.0522235449
     -0.0536960469
     -0.3436575881
     -0.0890989498
      0.0178238893
     -0.2452864779
      0.2989303805
     -0.1801758556
      0.2165957989
     -0.2781837531
      0.0530427007
      0.2783682337
     -0.1617870846
     -0.1985102154
     -0.2483723885
      0.1193916907
     -0.0428630692
      0.1828457202
     -0.1087180030
     -0.2755875933
      0.1635788844
     -0.1311728407
      0.2234732782
      0.0453308770
     -0.1695942096
      0.0734578471
      0.2777828833
      0.3518239925
      0.3149402526
     -0.1020776868
     -0.0018102927
     -0.0841925464
     -0.3475796920
     -0.0614359881
     -0.0173959616
     -0.2201139334
      0.3068266982
     -0.1870849136
      0.2081511337
     -0.2182531626
      0.0119838265
      0.2779097228
     -0.2226652005
     -0.1972641867
     -0.2816928904
      0.2027026714
     -0.0317034499
      0.1584002960
     -0.0835987814
     -0.2507447726
      0.1485452652
     -0.1285234181
      0.1985215201
      0.0252815204
     -0.1462479920
      0.1061710106
      0.2615168792
      0.3190411164
      0.3040925829
     -0.1159624381
      0.0001291030
     -0.0632316360
     -0.3476567507
     -0.0255472805
     -0.0429594139
     -0.1967493733
      0.3051696379
     -0.1925828267
      0.1958443920
     -0.1599878518
     -0.0351903706
      0.2858460422
     -0.2804803105
     -0.2025547375
     -0.3109033400
      0.2896273477
     -0.0210740786
      0.1381946558
     -0.0190471565
     -0.2470203699
      0.1258011400
     -0.1270737538
      0.1446474239
     -0.0150842574
     -0.1369235909
      0.1252535242
      0.2531461043
      0.2734518615
      0.2846556620
     -0.1274301584
      0.0236617376
     -0.0434581300
     -0.0095099997
     -0.0125470739
      0.3769123332
      0.4181973729
     -0.1877458675
      0.0974096845
     -0.0341234472
      0.1002857480
      0.0526434195
      0.0201184862
      0.2458507782
      0.1285541866
     -0.2957878269
      0.2673008441
      0.0960055420
     -0.1377200117
      0.1425864446
     -0.1371507029
      0.0124232473
     -0.0511692339
      0.2720752153
     -0.3188643047
     -0.2747704135
     -0.1426036890
      0.2597064056
     -0.2554393688
      0.1822420289
      0.5278401179
      0.0980614948
     -0.2023173027
     -0.0346307314
      0.1454586515
      0.0499358161
     -0.3025620612
     -0.0615975991
     -0.1344299547
     -0.2200005758
      0.0613286471
     -0.0095641876
      0.1077087090
      0.0238586352
      0.0900418907
      0.1739544847
     -0.0403015175
      0.0633257879
      0.0598231882
     -0.0043880669
      0.4304185740
     -0.2331181875
      0.1449090428
     -0.2454187095
     -0.1682876393
      0.1509626947
     -0.3338329016
      0.1650067521
      0.1653432182
     -0.3073306576
      0.3124937274
     -0.1521119233
      0.0447478080
     -0.1095822516
     -0.0238035401
     -0.0025984171
     -0.1025755475
     -0.0615939344
     -0.1482717020
     -0.0578191435
      0.0915471638
     -0.0423972689
      0.0441757511
      0.1113012611
     -0.1172166503
      0.2325309272
     -0.0895939091
      0.1005929196
     -0.1384167043
      0.2122254593
      0.0714664070
     -0.2705822901
      0.0118268280
     -0.2193245726
      0.2431070294
      0.1141446596
     -0.1867606865
      0.1935099930
      0.2209813140
     -0.2529433949
      0.1440143975
     -0.0722829562
     -0.0598002212
      0.0208649888
      0.0577711911
      0.0328625300
     -0.4509728043
     -0.1559953040
     -0.1223170768
     -0.2639953341
      0.0548075896
      0.0576850840
      0.0786432581
     -0.0760044592
      0.2492190636
      0.0083271687
      0.0283693425
      0.0978297844
     -0.1222856258
     -0.0651284791
     -0.0178319910
     -0.0658492086
     -0.0677102135
     -0.1473605241
     -0.0197504678
      0.0986096003
     -0.0466665163
      0.0264603481
      0.1290190457
     -0.1591221726
      0.2329792336
     -0.0948194226
      0.1127973166
     -0.2122030043
     -0.0036133367
      0.2592597572
     -0.2275641658
     -0.0352099798
     -0.0510248230
      0.2101184628
      0.0068438583
     -0.1914768435
      0.1580744693
      0.3367138970
     -0.2758308964
      0.1194249955
     -0.1189355850
     -0.0268126611
      0.9203075660
      0.7456691833
      0.2222706793
     -0.1988471649
      0.3739655052
     -0.3294855879
      0.5728060471
      0.0393707195
      0.6439223591
      0.5441672350
     -0.0135455178
      0.6243344121
     -0.1346168015
      0.4979660549
     -0.7870518947
     -0.5332850238
     -0.3587958597
     -0.1479196713
     -0.6215149074
     -0.7771744116
     -0.5163484113
     -0.1940326928
      0.3175103040
      0.4954133086
     -0.2761520547
      0.3831963000
      0.4605532208
      0.3860955709
      0.0378062514
     -0.1707804695
     -0.0435508038
     -0.0810929828
     -0.4526255338
      0.2463436433
     -0.3273868010
      0.3637041064
      0.0724031602
     -0.1624640494
      0.1892663892
     -0.1521606342
      0.2815898854
      0.1367806931
     -0.2829098452
     -0.0888158292
     -0.4768318121
     -0.0812336748
      0.0034283591
      1.0013113650
      0.4150497899
     -0.1063706595
      0.2857364395
      0.0628422180
     -0.5849189818
      0.3915753066
     -0.3741713347
     -0.1918341851
     -0.1663933130
      0.2835631780
     -0.2939765787
     -0.2276334491
      0.1039590962
     -0.3242652545
      0.0186193017
     -0.1433616691
     -0.1613015297
      0.0605507977
     -0.3616662631
      0.0177685095
     -0.7604765543
      0.0476406693
      0.3468828079
      0.2581321661
     -0.1937871932
      0.2621700413
      0.4630765087
      0.8510017645
      0.3689454032
     -0.4602175172
     -0.0066761804
      0.7722044785
     -0.0305925950
     -0.7111077469
     -0.2776830879
     -0.5123830560
      1.0439249658
      0.2048119234
     -0.2821199655
      0.2264540283
     -0.3373758126
     -0.3064677507
      0.7312395462
     -0.0528935699
      0.6398342791
      0.3253160435
     -0.3344819542
     -0.2014156839
     -0.7466067836
      0.0710261411
     -1.2018333087
      0.6152880326
      0.3473916962
      0.5407951540
      0.0516084216
      0.1278888061
      0.6017158483
     -0.1417335912
      0.2143850072
     -0.1118223674
     -0.4201007154
     -0.4666319341
      0.5337375625
      0.3218953867
      0.0944373628
     -0.9002175948
      0.2591672154
     -0.3000104463
      0.4861039688
      0.0952490403
     -0.3920374309
      0.0247337474
     -0.5106625667
     -0.1015746734
      0.4126996028
      0.1906749269
      0.7667360527
     -0.2519091950
     -0.2538368872
     -0.3091588395
      0.1743960227
     -0.0738386990
      0.0954615004
     -0.6309371822
      0.2845880292
     -0.0026901912
     -0.1206545296
      0.0758079075
      0.0010136892
      0.1490356550
      0.0021429510
      0.1603305471
     -0.2690907146
      0.0072183932
      0.2317995676
      0.3841513421
     -0.1435027077
      0.1843797288
      0.8279229355
      0.1612532146
      0.1261892740
      0.0960014594
     -0.2441902221
     -0.0871481995
      0.5670319559
      0.1439771996
      0.0873918284
      0.5928485078
      0.5222145033
     -0.2947982040
      0.1572202719
      0.1069671383
     -0.7922665695
     -0.1772334153
     -0.3776175949
      0.2032090117
     -0.1847832635
     -0.1930693654
     -0.2188837767
      0.3509390016
     -0.2170035072
     -0.4627849794
      0.4561667716
     -0.3401245781
     -0.0231144919
      0.1302318702
     -0.4121202672
     -0.5001609206
      0.0843134021
     -0.0926861702
      0.3255728108
     -0.1711697918
     -0.8780680929
     -0.3413916248
      0.3916863656
     -0.6500525270
     -0.4044179063
      0.2977145371
     -0.3145119048
      0.5759574510
      0.8617288100
     -0.4371884938
      0.3023348726
     -0.3238457119
      0.2568039620
      0.0640803265
      0.6770661325
     -0.2782708301
     -0.2097110502
     -0.1415992491
     -0.0746808521
      0.4398888003
     -0.4949939471
     -0.2431396059
     -0.4795168393
     -0.0108472702
      0.5038791106
      0.5240696579
     -0.9252031009
      0.3309561660
      0.1440836156
     -0.3944453019
      0.2948833127
      0.0129818495
      0.4223860733
      0.0957712177
      0.5006578292
     -0.2747709559
     -0.5699756136
     -0.7476578080
      0.3753346881
      0.4670965348
      0.3435678002
      0.0800265005
     -0.0211998040
      0.0347383614
      0.2070381583
      0.0176409642
     -0.0088772683
     -0.6111740774
     -0.0290809661
     -0.3306605622
      0.4799933221
      0.1060321019
     -0.1373112089
     -0.5419840819
     -0.3688590619
     -0.1731587211
     -0.6552664178
      0.1983996951
     -0.1075821292
     -0.0350305109
     -0.0159929994
     -0.1398821349
      0.0720797163
      0.0554322662
      0.2405258084
     -0.2998280663
      0.2220944588
     -0.2774169468
      0.4108718462
      0.0168266678
      0.1893295294
      0.2570022134
     -0.4562349824
      0.0733776332
     -0.5885666954
     -0.0412252054
      0.0377403884
     -1.0664772437
     -0.1060277409
     -0.2698892553
      0.2826469476
     -0.2529006758
     -0.6399482527
      1.3647214921
     -0.2285785734
      0.1962570917
      0.2684972608
     -0.1470008551
     -0.0341685014
      0.2593568604
      0.2522317733
