     -0.1786159882
      0.0895403578
     -0.0101191249
      0.0891244528
     -0.0561284490
     -0.0392601377
      0.1463304272
      0.1781614465
      0.0349586125
     -0.0066972090
      0.0827138435
      0.0626329624
      0.1776252515
      0.0695723538
     -0.1698986001
     -0.1254399146
      0.1050047371
      0.0369243333
      0.0245560528
     -0.0144859988
     -0.0223032418
      0.0179282309
      0.0375269128
      0.0346246393
      0.0696802440
      0.0432164023
      0.0019890885
      0.0264493912
      0.0343384178
      0.0361898363
     -0.1090771638
     -0.0072715257
      0.1063755086
     -0.2283523029
     -0.0629366832
      0.0533389180
      0.0122095634
     -0.0198547205
      0.0196343992
     -0.0405042792
      0.0571488731
      0.1122620096
      0.0238847186
     -0.0655674416
     -0.0601273205
      0.0092329467
      0.3358469770
     -0.2205097152
     -0.4076075749
     -0.1853732706
      0.2358094354
     -0.5868170775
      0.2046050932
     -0.0064476579
      0.2364960618
     -0.3345997785
     -0.2104499946
      0.1531395623
     -0.4344525010
     -0.4793100292
     -0.1764427401
      0.0918861005
     -0.0166615020
      0.0801543724
     -0.0626904950
     -0.0401202492
      0.1434759459
      0.1836934198
      0.0393452644
     -0.0101642075
      0.0772835089
      0.0659507048
      0.1768175377
      0.0646395571
     -0.1534280610
     -0.1801933545
      0.0928365721
     -0.0202795923
      0.0696100589
     -0.0642239489
     -0.0438432071
      0.1404249540
      0.1922167395
      0.0477161829
     -0.0132306515
      0.0704195294
      0.0688727364
      0.1734844162
      0.0564570663
     -0.1375115994
     -0.1810754616
      0.0976403550
     -0.0234629932
      0.0603639783
     -0.0692090838
     -0.0450225279
      0.1368501921
      0.1957257710
      0.0550884232
     -0.0154274261
      0.0658977974
      0.0743012695
      0.1697901819
      0.0520466082
     -0.1197399865
     -0.1089832309
     -0.0053830415
      0.0942790010
     -0.2090819712
     -0.0814721373
      0.0379047514
      0.0094825297
     -0.0101866510
      0.0130186902
     -0.0596624440
      0.0551862969
      0.1068940297
      0.0426121294
     -0.0445407147
     -0.0445858364
     -0.1806308831
      0.0975695131
     -0.0299937947
      0.0502142463
     -0.0742325382
     -0.0473322061
      0.1331120390
      0.2040078714
      0.0587290842
     -0.0183106898
      0.0615296954
      0.0756430525
      0.1627925241
      0.0473592944
     -0.1059293279
     -0.1189596548
      0.1099389800
      0.0342974258
     -0.0212189120
     -0.0045521541
     -0.0190960718
      0.0108242975
      0.0425910181
      0.0578818973
      0.0682901002
      0.0267887880
      0.0125679998
     -0.0148790036
      0.0014534181
      0.0435738344
      0.0160981976
      0.3549796225
     -0.2015550661
     -0.3028812179
     -0.1770482360
      0.1932228985
     -0.5046818191
      0.2238231439
      0.0116787710
      0.1439643700
     -0.3552811968
     -0.2064630189
      0.2122391716
     -0.3543003210
     -0.3412760399
     -0.1827006014
      0.1022740952
     -0.0328423728
      0.0393657020
     -0.0792937996
     -0.0485485713
      0.1301975356
      0.2099809305
      0.0653910349
     -0.0206411516
      0.0551840452
      0.0789238135
      0.1592475941
      0.0412699109
     -0.0900727611
     -0.1105997719
     -0.0063521052
      0.0881817354
     -0.1954803204
     -0.0930656990
      0.0252652916
      0.0068511005
     -0.0049427064
      0.0097332659
     -0.0721854322
      0.0519364194
      0.1041686207
      0.0540775160
     -0.0324236679
     -0.0299501996
     -0.1134081795
      0.1099937992
      0.0309713689
     -0.0497517580
      0.0048131022
     -0.0172572471
      0.0084856421
      0.0444292743
      0.0745444588
      0.0654410882
      0.0156019869
      0.0140682286
     -0.0434297227
     -0.0181707651
      0.0450694061
     -0.1115898825
     -0.0051566606
      0.0813897725
     -0.1777844229
     -0.1080608745
      0.0089653540
      0.0049173329
      0.0071098862
      0.0058817237
     -0.0865521551
      0.0534613994
      0.1003790557
      0.0695100174
     -0.0141220605
     -0.0067876768
      0.0152318560
      0.3672036147
     -0.1781106478
     -0.2104002829
     -0.1688060835
      0.1461859904
     -0.4433757669
      0.2461300699
      0.0293929734
      0.0670989250
     -0.3744344102
     -0.1872968495
      0.2624042378
     -0.2853474479
     -0.2046821690
     -0.1101860184
      0.1114495544
      0.0227221322
     -0.0783836769
      0.0128490460
     -0.0121968649
      0.0064902394
      0.0435610369
      0.0887451567
      0.0610799091
      0.0018725581
      0.0203203270
     -0.0678032202
     -0.0371049206
      0.0389251739
     -0.1127103923
     -0.0034591085
      0.0723335594
     -0.1634427048
     -0.1279629429
     -0.0059325147
     -0.0011599388
      0.0166990722
      0.0015006579
     -0.1028612574
      0.0514077304
      0.0964011814
      0.0851795491
      0.0005753033
      0.0160227485
      0.0112369952
      0.3814011405
     -0.1409258269
     -0.1156790942
     -0.1636693858
      0.0967018476
     -0.3855885989
      0.2729473508
      0.0505612176
     -0.0108500611
     -0.3920330455
     -0.1606818116
      0.3105901326
     -0.2090963987
     -0.0546653607
     -0.0993330038
      0.1106271627
      0.0146420752
     -0.1159678100
      0.0298609908
     -0.0034151495
      0.0087676781
      0.0367852764
      0.1067764211
      0.0542281995
     -0.0110125711
      0.0224270572
     -0.1029507557
     -0.0558916602
      0.0207909673
     -0.1124779961
      0.0014269398
      0.0690628517
     -0.1492802503
     -0.1449026996
     -0.0191726705
     -0.0045378422
      0.0306770484
     -0.0020332194
     -0.1150582627
      0.0504285514
      0.0952189045
      0.0987337490
      0.0119614131
      0.0416178775
     -0.0891118991
      0.1072771430
      0.0026576400
     -0.1439756820
      0.0452948022
      0.0043398372
      0.0137164081
      0.0294144297
      0.1243134852
      0.0512923021
     -0.0259877455
      0.0204176073
     -0.1306478376
     -0.0738432355
     -0.0053180803
      0.0050480334
      0.3915808008
     -0.0959478255
     -0.0398954980
     -0.1598231725
      0.0485557773
     -0.3440299217
      0.2962012193
      0.0676851123
     -0.0633137643
     -0.4026255134
     -0.1287792691
      0.3463508662
     -0.1424928075
      0.0802213543
     -0.0068109062
      0.3958786025
     -0.0374420160
      0.0418124196
     -0.1554313838
      0.0028299293
     -0.3084851286
      0.3202609913
      0.0794447471
     -0.1041195444
     -0.4068308569
     -0.0939395829
      0.3774051997
     -0.0748442022
      0.2095715502
     -0.0714376806
      0.1246652050
     -0.1944120288
     -0.0693325134
      0.0541257043
      0.0147504500
      0.0099006849
      0.4060133514
      0.1094615910
     -0.0586819030
     -0.1093396705
      0.1277359392
     -0.0292013382
     -0.0519907330
      0.0513270287
     -0.0914119980
      0.2744199102
     -0.2507509177
     -0.1491416106
     -0.0344821490
      0.1486397325
     -0.0183364345
      0.1390812188
      0.0785307297
      0.1183689885
     -0.1341836493
     -0.0176953002
      0.0279472184
     -0.0561425188
     -0.1760683467
     -0.1207718310
     -0.0740671734
      0.0562894254
     -0.0822033848
     -0.0749622045
     -0.0016756186
      0.0584472010
     -0.0010753910
     -0.0025793714
     -0.1016382812
      0.0484962862
      0.0764090913
      0.0362128703
      0.1073668635
     -0.1029534691
     -0.1389332671
      0.2224174237
     -0.1078651467
     -0.0876298371
     -0.0176550208
      0.0679421337
     -0.0661549438
      0.0310000827
     -0.0106024859
     -0.0205535887
     -0.1400739805
     -0.1550369382
      0.0600302708
     -0.0012877806
     -0.0158298915
     -0.0649589423
     -0.0116160422
      0.0713833923
     -0.1178270526
     -0.0759609077
     -0.0341212692
      0.1116605304
      0.0380723867
     -0.0703810710
     -0.0984062944
      0.0782642368
      0.0080875305
      0.1002395212
      0.0765200037
     -0.0507509959
     -0.0675296424
      0.2914791495
      0.6085138965
      0.6808301678
      0.0257079407
      0.0116542859
     -0.1848907935
      0.0462849849
     -0.1525389015
     -0.1111454370
     -0.0679845428
     -0.1163070909
      0.1732364454
      0.3540473460
     -0.0762736775
     -0.0029890113
      0.1115675526
     -0.1307029017
      0.0288080405
      0.0474460539
     -0.0211359748
      0.1056896715
      0.3561211278
      0.0588563610
      0.0749371950
     -0.0543890021
      0.0534546417
     -0.0103100590
     -0.0265824822
     -0.1404521551
     -0.0531099777
      0.2450534716
     -0.1863149574
     -0.1405098378
     -0.0265506457
      0.0563579620
     -0.0638142415
      0.1679259445
      0.0959702684
      0.1262631919
     -0.1122692819
      0.0806185697
      0.0056416912
     -0.0491140158
     -0.1460056102
     -0.1410758098
     -0.0432589135
      0.0827597381
     -0.1374139671
     -0.0077791033
      0.0327964546
     -0.0073112406
     -0.0036319335
      0.0158857409
     -0.0749221453
      0.0355927035
      0.1088548580
      0.0374516933
      0.0136003192
     -0.0705473804
     -0.1149480384
      0.1838488988
     -0.0158096118
     -0.0456805174
     -0.0528755179
      0.0314226224
     -0.0425061295
      0.1161868437
     -0.0054972478
      0.0552875808
     -0.0913055036
     -0.1730120837
      0.0301327726
     -0.0563059213
      0.0507928371
     -0.0894466642
     -0.0230431777
      0.0858654495
     -0.2329380437
     -0.0532799277
     -0.0125576135
      0.0735706602
      0.0318528107
     -0.0455582342
     -0.0351129910
      0.0628819340
     -0.0263570626
      0.0454801746
      0.0232462148
     -0.0383722826
     -0.0191032792
      0.2262357285
      0.6253327539
      0.6169356583
     -0.0955923609
      0.0756947932
     -0.2321932559
      0.0499543953
     -0.1183324794
      0.0134806817
     -0.0220388627
     -0.1887957973
      0.0044575328
      0.2258278953
     -0.0524713798
     -0.1130144387
      0.3018715147
     -0.3701928955
     -0.0483513544
     -0.0223835734
      0.1521243519
     -0.0771359570
      0.2397872985
      0.0666062302
      0.1193136947
     -0.1635657423
     -0.0036475962
     -0.0314692719
      0.0241764123
     -0.0750889816
     -0.1211821059
     -0.0915265946
      0.0363291911
     -0.0679459944
     -0.1219715623
     -0.0769590924
      0.0558000446
      0.0326094884
      0.0232546295
     -0.0714018280
      0.0171602763
      0.0848038291
      0.0939757381
      0.0972572447
      0.0042315722
     -0.1507048542
      0.2393973023
     -0.1660066943
     -0.0976926886
      0.0040879294
      0.0900173474
     -0.0644904441
     -0.0239623897
     -0.0106823255
     -0.0715908099
     -0.1566695503
     -0.1396462230
      0.0812383067
      0.0483006291
     -0.0850326781
     -0.0628541022
     -0.0083983259
      0.0812962082
     -0.1007451948
     -0.0929585437
     -0.0185584866
      0.1234711221
      0.0423059525
     -0.0756048224
     -0.1008048095
      0.0884219407
      0.0277845953
      0.0920197672
      0.0641657290
     -0.0515850765
     -0.0634871614
      0.2693638426
      0.5956524774
      0.6551171987
      0.0466059254
     -0.0315245253
     -0.1679248795
      0.0768691368
     -0.1236428878
     -0.1367914268
     -0.0849769151
     -0.0769816884
      0.1695568088
      0.3724913449
     -0.0112622866
      0.0103754523
      0.1041920529
     -0.1102917560
      0.0484706738
      0.0436893861
     -0.0202165310
      0.1428150379
      0.3333887015
      0.0398421238
      0.1181076864
     -0.0318531268
      0.0228253007
     -0.0071575598
     -0.0218083164
     -0.2069676219
     -0.0487633834
      0.2422388641
     -0.1786863342
     -0.1330483349
     -0.0233993141
      0.0399998833
     -0.0754212649
      0.1786440242
      0.0964525033
      0.1249990208
     -0.1093503729
      0.0986716885
     -0.0006413310
     -0.0454060934
     -0.1391697099
     -0.1456740635
     -0.0392000666
      0.0860070278
     -0.1438665567
     -0.0009366105
      0.0346771363
     -0.0185786028
     -0.0038656233
      0.0200036030
     -0.0695609584
      0.0338274191
      0.1165995597
      0.0410773067
     -0.0068180086
     -0.0570988000
     -0.1058048373
      0.1612173675
      0.0160228666
     -0.0176575815
     -0.0639512565
      0.0154898618
     -0.0190176589
      0.1471725143
     -0.0005804642
      0.0806875836
     -0.0625255817
     -0.1793981730
      0.0262561966
     -0.0570734126
      0.0440077676
     -0.1122840874
     -0.0259392306
      0.1053711580
     -0.3244126475
     -0.0492991690
      0.0249684812
      0.0436671274
      0.0301357343
     -0.0299068376
      0.0183290525
      0.0595511782
     -0.0401751990
     -0.0117195572
     -0.0463319754
     -0.0295104466
      0.0330469282
      0.1409796390
      0.6253283745
      0.5267135735
     -0.1928090978
      0.0956089702
     -0.2657427749
      0.0832330314
     -0.0552666944
      0.1114133850
      0.0030616152
     -0.2232181933
     -0.1602265529
      0.1204340551
      0.0420314543
     -0.1853590168
      0.2553429450
     -0.3011666071
     -0.1031894260
      0.0391305338
      0.1345895592
     -0.0221635350
     -0.1037087457
     -0.0093843697
     -0.2046831988
     -0.1453381766
     -0.1044300537
      0.1058708963
      0.1419912501
     -0.2259536452
     -0.0665676618
     -0.0035734508
      0.0950487704
     -0.0936565373
     -0.1338221025
      0.0390470470
      0.1429283175
      0.0386048535
     -0.0746050751
     -0.0864133981
      0.1087061666
      0.0637837397
      0.0455718143
     -0.0076340272
     -0.0753734315
     -0.0389470697
      0.2322069606
     -0.1695821906
     -0.1133799748
     -0.0191563269
      0.0074200364
     -0.0990785239
      0.2053312450
      0.0995475955
      0.1308601811
     -0.0983651088
      0.1389553676
     -0.0217929952
     -0.0330759836
     -0.1191858901
     -0.0775768771
      0.1094600335
      0.0386310400
      0.0911735632
     -0.0359891781
      0.0148503362
      0.0460940312
      0.1133086054
      0.0228911390
      0.0664114529
     -0.0138664453
     -0.1640934130
      0.0911543852
      0.0832819265
     -0.1634701190
     -0.2107686159
     -0.0301930113
      0.2230655370
     -0.6884372620
     -0.0860576193
      0.2241447481
     -0.0491806031
      0.0519468223
      0.0329009958
      0.2490254544
      0.0646465884
     -0.0519620370
     -0.2915709374
     -0.3860816024
      0.0341624917
     -0.0389290061
      0.2054944824
     -0.1521813992
     -0.0786461741
     -0.0170534753
     -0.0479743934
     -0.1318508436
      0.2610466300
      0.0913436320
      0.1500433867
     -0.0555679967
      0.2050744240
     -0.0842381065
     -0.0011746526
     -0.0980014026
     -0.0996681941
      0.9729899136
     -0.0934413387
     -0.7378059052
      1.1388555925
     -0.6680335341
     -0.3724330384
      0.5742894163
      0.8841506607
      0.1104326307
     -0.2838871150
     -0.0994831954
      0.5444084389
     -0.2945369081
     -0.1892637073
      0.3230951423
     -0.1508956001
     -0.1996030046
      0.2960055962
      0.2091930699
      0.1834846640
      0.3047988226
      0.7839479461
      0.1410775738
     -0.0595488340
      0.2445720471
      0.1665774337
      0.2898207899
      0.0615253143
      0.0571985442
     -0.1736846874
      0.4983846034
     -0.0648819300
     -0.5661315894
      0.3705238962
     -0.2301910772
     -0.4976310560
     -0.6732860203
     -0.2179199432
      0.4759801351
     -0.2787536905
      0.1346775210
     -0.5473002523
      0.5834899674
     -0.0650107054
      0.3307108095
     -0.0671406422
      0.0985739869
      0.7509521975
      0.0571628972
     -0.0017609621
      0.2515168685
      0.5751573142
     -0.0095679337
      0.4678267525
      0.2016682868
     -0.0208492576
     -0.1956390600
      0.0526435113
      0.0206481703
     -0.2769312657
      0.0986408292
     -0.1165651009
      0.6978172645
      0.4400959673
     -0.0581147922
     -0.0497893601
     -0.0544822901
     -0.1592472722
     -0.3820216317
     -0.0451432323
      0.2547761822
      0.8516164329
      0.2920837275
      0.0067653652
     -0.0837532374
      0.4095018204
     -0.2808066091
      0.5753952533
      0.5393715307
     -0.0990992380
     -0.4455527220
      0.0216648296
      0.2490185512
     -0.0837729401
      0.0002919342
     -0.5762729675
      0.3490145814
      0.7446877912
      0.1808272919
      0.2592345500
     -0.7260089411
     -0.0574716427
     -0.4892085980
     -0.0453283548
      0.0710569179
     -0.3806157207
      0.2246584943
     -0.1949829171
      0.0554131973
     -0.0399999266
      0.7456322355
      0.3332621325
     -0.1999524846
     -0.1574898708
     -0.4492354839
     -0.2657248501
     -0.1843576562
     -0.1019988716
      0.2524676991
      0.0463218678
     -0.2980755272
      0.1234036888
     -0.2388753944
      0.3831690896
     -0.0031422482
      0.0265975030
      0.4993872883
      0.3548769200
     -0.0264699128
     -0.1675800937
     -0.1422848910
      0.1953075041
     -0.4376055440
     -0.6823587065
     -0.1317500869
     -0.0232256691
     -0.3889573584
     -0.0847985758
      0.6837027783
     -0.3175740978
      0.1052552224
     -0.4901556491
     -0.1745945641
     -0.1498679386
      0.1146121306
     -0.4604640389
     -0.2527430282
     -0.3833419647
      0.2714125474
      0.1243616649
      0.3834047261
      0.1340529878
      0.1914678222
      0.0338331034
      0.3634221668
      0.3701583590
     -0.5690719454
      0.3683847929
      0.1699493330
     -0.0474821876
      0.7682465095
      0.0885806896
     -0.0228518074
     -0.5968163301
     -0.0834482584
     -0.0906012015
      0.4712564090
     -0.0521827486
      0.5387566725
     -0.1745209076
     -0.2166861587
     -0.2718530629
      0.4224059895
     -0.0909583623
     -0.4269969558
     -0.1895700598
      0.4057972027
      0.1155311727
      0.1792804753
     -0.0662320330
     -0.2838373664
      0.1126514671
      0.0439249052
      0.5690061748
     -0.1088639106
      0.1445532461
     -0.4601365637
      0.8139530806
     -0.0544513763
     -0.3143599107
      0.2912460730
      0.3006293521
     -0.1807609013
      0.0386045075
     -0.1793074396
      0.3711728186
     -0.3655428019
     -0.0766617941
     -0.1965587874
     -0.3727230674
     -0.2886721175
     -0.5989308697
      0.1893151227
     -0.1250908572
     -0.3222381704
      0.1586272446
     -0.1875965045
     -0.2426116375
      1.1669576195
     -0.1105184569
     -0.8783370916
     -1.4954990465
     -0.1036303342
     -0.4212425475
     -0.2407555663
     -0.3303052208
     -0.1521406571
     -0.1498813962
     -0.0547413328
     -0.4479383736
      0.6248516712
     -0.0288613220
      0.1333986336
     -0.1066274887
     -0.1202573867
      0.0873447485
     -0.1564610638
     -0.0352389568
     -0.2973515754
     -0.3054042885
     -0.4461628956
      0.6167016558
     -0.0832753457
     -0.1206411966
      0.3377457702
      0.3861119121
      0.0280684908
      0.4122355842
     -0.0029417536
      0.0213645167
      1.1479053098
     -0.8320814506
      0.1525089831
     -0.0247017912
      0.0830909214
      0.0937775423
      0.3773981004
      0.1740828711
      0.0165023679
     -0.4881304232
      1.3107251687
     -0.2134475980
      0.1156268426
      0.2060632266
     -0.1909046685
     -0.2531687975
      0.4285875060
      0.2941896522
     -0.4468832987
     -0.0423986135
     -0.8437573302
     -0.0966005070
      1.0924998260
      0.1422448256
     -1.5047549208
      0.2906415351
     -0.1729875118
     -1.2176913421
      0.7489574159
      0.0394686299
     -4.2069629053
      5.2852865911
      0.0766050890
     -1.5239271231
      0.1367548219
     -1.4514824412
      0.8199274687
      1.6399307624
      0.1170865906
      1.7935664225
