     -0.4081485933
      0.2083661219
      0.0933730268
     -0.2562965580
     -0.1398436767
     -0.1130062471
      0.0119290720
     -0.0743688388
     -0.0237867450
      0.0557800648
      0.3531686661
      0.1359397262
     -0.4028351945
      0.5993143227
     -0.4917563520
     -0.4981673358
     -0.3606997883
     -0.7299122604
      0.6453329576
     -0.1411147630
     -1.0947806572
     -0.2996570339
      0.0186424102
     -0.8066791925
      0.6600317210
      0.1421661551
      0.0359966249
     -0.8018344410
      0.1777961282
      0.1570307855
      0.4053742976
     -0.1520339771
     -0.1073318072
      0.3051179725
      0.1400818112
     -0.0543414187
     -0.2602871090
     -0.0509335732
     -0.1417817654
     -0.0544496915
      0.4796985366
     -0.0540287356
      0.4262647751
      0.0601412384
      0.4405514531
     -0.4206656507
     -0.2517992762
     -0.0971934740
      0.3046077332
      0.3407993212
     -0.1216478540
     -0.0080705700
      0.0044539543
      0.1555160035
      0.3238861465
      0.2604008274
     -0.2262152569
      0.3653535531
     -0.1903123139
      0.0874385976
      0.1626685537
      0.1294343488
     -0.3116067222
     -0.0544255018
     -0.5284707071
      0.1984459674
      0.0883775929
     -0.1578336142
     -0.3471587154
     -0.1616540005
      0.3089590337
      0.0539969949
      0.1646158252
      0.6876760217
     -0.3068334180
     -0.3674236133
     -0.1959415738
     -0.1729392466
     -0.1371897640
      0.1908915539
     -0.0817412789
      0.1169425004
      0.3132324560
      0.0478618042
     -0.3139644342
     -0.0744600066
     -0.0992372395
      0.2629940943
      0.2285594158
     -0.2377840750
     -0.3479170552
      0.1421441252
      0.0379277849
      0.0226133500
      0.1403501208
      0.1421130596
      0.0351934295
     -0.1474554323
      0.2734827117
     -0.3064076854
      0.0495508860
      0.2495000457
      0.2922837951
      0.4228430480
      0.1432039356
      0.1649613496
      0.1387720360
     -0.2242239143
     -0.0770980785
     -0.2217733416
      0.3013226840
     -0.2327892586
      0.1013796446
     -0.3250283505
     -0.1337993708
      0.3808529358
     -0.1305295646
      0.1441664439
     -0.0384177267
      0.1304047427
     -0.0684457088
     -0.3694000283
     -0.3953757467
      0.0208260503
      0.0758453057
      0.1255068424
     -0.0879504751
      0.2771361762
     -0.1569488716
     -0.4522464722
      0.1903886298
     -0.2026850497
     -0.2912934141
      0.5779990513
     -0.1973215535
     -0.1065445511
      0.1909817131
     -0.3932471051
      0.2704929039
      0.0655971342
     -0.6336563306
     -0.4317091868
     -0.2659106347
     -0.5762673257
      0.5076071059
      0.1807055816
      0.3302134373
     -0.5071621949
      0.0704394658
     -0.2338746533
      0.0635442541
     -0.0929481130
      0.2611444095
     -0.1685454510
     -0.0847990367
      0.4136553448
      0.1505602940
     -0.1938868232
     -0.0516278828
      0.2637861503
      0.3616032162
     -0.4986294881
      0.2648196785
     -0.0374144035
     -0.1448189004
     -0.2500650193
     -0.0575264181
     -0.1411566990
     -0.1049189227
     -0.0024451678
      0.3192458711
     -0.0632562321
      0.2721256893
     -0.0409080139
     -0.5016562429
     -0.1292158183
     -0.2651490479
     -0.2388702655
      0.5015318157
     -0.1917158242
     -0.2114896745
     -0.1123068162
     -0.1180928786
      0.0705213233
     -0.2332981496
     -0.0496421736
     -0.2826050470
     -0.1519177551
     -0.3114654059
     -0.3060238974
     -0.1392065765
     -0.1108045670
     -0.0069232324
     -0.1754749919
      0.3639240207
      0.1106587988
      0.0818948611
     -0.1093294110
      0.5115428469
      0.2691805283
     -0.6329720182
     -0.3083470458
     -0.2351272990
     -0.2686902141
      0.2321125409
      0.3152963055
     -0.3700277297
     -0.2745956725
      0.2295765164
      0.1022751396
     -0.3743307293
     -0.1088003180
      0.2310215836
      0.1538274368
      0.3592334214
     -0.1930324134
      0.1443222442
      0.0686683218
     -0.1850984470
      0.0929472394
      0.4882631199
     -0.1525847454
     -0.2523330584
     -0.0140950793
      0.5041211228
     -0.1589391807
     -0.5570038222
      0.0466136037
      0.1761162844
      0.1485310432
     -0.2443891848
     -0.0613477344
     -0.1042920210
     -0.1606450338
      0.2364558480
      0.1784713805
      0.2857958541
      0.2744077629
     -0.2343170370
      0.3381560161
     -0.2689988912
      0.3029763059
     -0.5408017328
      0.3107632750
     -0.1193660972
     -0.1764335010
     -0.3973222916
     -0.2234855628
     -0.1771453444
     -0.2122011027
     -0.2493556769
      0.1571227582
      0.4000448558
      0.0245349422
      0.1620235520
     -0.4199527935
     -0.1036171375
     -0.1268106561
      0.0113316095
     -0.0520839655
     -0.2257142336
     -0.0991368212
     -0.3573059350
     -0.2437627138
     -0.1527226856
      0.2833596878
     -0.3701974134
     -0.1180034410
     -0.0928805179
      0.1305633558
     -0.1694992014
     -0.5049993278
     -0.2018171230
      0.1910219172
     -0.0818808289
      0.0825840584
     -0.1035739455
     -0.1482962789
      0.0127320934
     -0.3664393876
      0.1971372759
      0.1818868043
     -0.0469083480
     -0.2421379543
     -0.2270724930
      0.2186599866
      0.2578165137
     -0.2645510343
     -0.4645314768
      0.3322143448
      0.5399407960
      0.0289792946
     -0.5482645936
      0.1251821499
     -0.8454319814
      0.0078611201
      0.0609685823
      0.3483743617
      0.1706284931
      0.0534022972
     -0.0874140791
      0.3788680312
      0.3627863403
      0.1843554563
      0.2628457164
     -0.0818648018
      0.2806568456
     -0.1348843098
     -0.2299078774
      0.2003445843
      0.2909354041
     -0.1557798408
     -0.0727148525
     -0.4006584240
     -0.1393683417
      0.3438970428
     -0.0734097112
     -0.4371612299
     -0.1404928651
     -0.0022759721
      0.7073278700
      0.5451959497
     -0.2449611190
      0.7196520051
     -0.5542774974
     -0.4468555556
     -0.3753727932
      1.2013816754
     -0.2510961385
      0.1992046481
      0.1116446515
     -0.2700573026
     -0.1017171409
     -0.3048841707
     -0.1924369524
     -0.3690716142
     -0.1676570398
     -0.4412545312
      0.1741059333
     -0.2245379582
      0.2833558482
      0.3202889832
     -0.2410050571
     -0.0079852698
      0.1391227129
      0.3390929065
     -0.2964850964
     -0.0116698161
      0.3785634339
     -0.1301600677
     -0.0086749741
     -0.2433019666
     -0.6173072007
     -0.1468500299
     -0.8241752238
      0.1965511795
     -0.2272262879
      0.2142783503
      0.3457138686
      0.1491824748
     -0.0315806010
      1.0408190496
     -0.6866515241
      0.2373182982
      0.1075945980
      0.0080465941
     -0.1277462675
      0.0738369271
     -0.6254442176
      0.6160684592
     -0.1532459442
     -0.2339486293
      0.2247478639
     -0.0900981138
     -0.5274091154
     -0.0960807614
     -0.0604795030
      0.0295805632
     -0.6679477604
     -0.0788390776
      0.0936473118
      0.4603434431
     -0.3254592516
      0.3978746744
     -0.5321410990
      0.0326408915
      0.2135976966
      0.4649923684
     -0.1617846764
      0.3031442009
      0.4044107472
      0.4272725323
     -0.2709967257
     -0.2621498943
      0.3706268551
      0.0902597705
      0.2279642410
     -0.0760582185
      0.7609241876
     -0.0325239869
      0.1823822585
     -0.3087413708
      0.3375392968
     -0.4766948648
      0.0216563915
      0.3189781310
      0.0079156579
      0.3818697203
     -0.3675458561
      0.0557622652
      0.1572789727
      0.1711642938
      0.0470050258
      0.2159958150
     -0.1716564832
     -0.2290788973
     -0.3523413250
      0.2572207095
     -0.0632672579
     -0.0712964943
      0.2415885254
      0.3906576092
     -0.2279771884
      0.1303260052
     -0.0079401341
      0.2446761833
      0.0410114412
      0.2951503466
     -0.0665339538
     -0.0313986050
     -0.0395666469
      0.1362157615
      0.0513991915
      0.0000293864
     -0.2636207081
      0.1846606168
      0.2186045167
      0.0050060463
      0.1492091883
     -0.5017301449
     -0.0476380662
     -0.5258769639
     -0.1995580869
      0.5745538806
     -0.2357265740
     -0.0831940486
     -0.1489520257
     -0.0275809302
     -0.0556657205
      0.6954701683
      0.2962002631
     -0.0093393871
      0.5856632752
      0.2554729124
      0.1660765201
      0.0358982237
     -0.1977494658
      0.1359054985
     -0.0513914541
      0.2128523910
      0.4127835723
      0.3690909372
      0.2102442908
     -0.0926396747
      0.2210231223
     -0.1492532057
     -0.0904277652
     -0.0069867850
     -0.3724114799
     -0.3403064689
     -0.3195947594
      0.1323881800
     -0.1980272048
      0.1525744609
      0.4010100214
     -0.1907703018
      0.0183256535
      0.1936260718
     -0.0236732783
      0.2015510591
      0.0730710572
      0.3919648751
      0.2828052371
     -0.1637067292
      0.3851510677
     -0.1974695596
     -0.0691201731
     -0.1875715011
      0.0536147561
      0.2874680919
     -0.4229402212
      0.3447323567
     -0.4007795512
      0.3296534693
     -0.5371748665
      0.2575564473
      0.0189996259
      0.4976462203
      0.1099235520
     -0.1230602453
     -0.0758000639
     -0.0646608201
     -0.3052317661
      0.0279967119
     -0.5086249224
      0.0022033497
      0.0873416502
     -0.1627983447
     -0.3328831212
      0.1506542066
      0.1569546799
      0.0649213580
      0.2859604829
     -0.1471167651
      0.2258954814
      0.1235946489
      0.5843734031
      0.0064326642
      0.2553240775
      0.1386408253
     -0.3986813364
      0.0205465289
      0.0732812863
      0.3316752346
      0.0417121883
      0.0094691667
      0.7944009989
     -0.1018053239
     -0.1369055837
     -0.1241869291
      0.1082543022
      0.5712499317
     -0.1380552101
      0.1982822473
     -0.1948083604
      0.2283059349
      0.2312181031
     -0.6264133955
     -0.1781896397
      0.0491301970
      0.0993289092
     -0.0072906376
     -0.5256023949
      0.0063888654
     -0.4324810084
     -0.0944144280
      0.0504965695
     -0.1428789538
     -0.0238777463
     -0.0775206403
      0.2012700153
      0.0870912327
     -0.1724468183
     -0.1140184059
      0.6622702672
     -0.3107271092
     -0.1502790322
     -0.1315983713
     -0.3496515443
      0.1971989155
     -0.0466691177
     -0.1248265907
     -0.3223415347
      0.1015135862
      0.0758618486
      0.0512314592
      0.2609009616
     -0.2383803091
     -0.4777420504
      0.1784594636
      0.4457992569
      0.3890212824
     -0.0201725298
     -0.6018225211
     -0.0884899888
      0.2746817917
      0.4660969306
     -0.1175852382
      0.2903691896
      0.0595762357
     -0.2323251358
     -0.1326297614
      0.0829693418
     -0.0951293774
      0.1610194817
      0.2788762320
     -0.0078579345
      0.2613393398
     -0.3662649201
      0.2596829078
      0.1141076430
     -0.1278804439
      0.3852668448
     -0.1890300443
      0.4835824350
      0.1666173857
      0.1880384951
     -0.2666443359
      0.3743079382
     -0.0245301660
      0.3528783338
     -0.2012053903
      0.3075756602
      0.3287296863
     -0.6360431781
     -0.4073565535
     -0.7233889237
      0.2652038412
      0.2551479804
      0.0600540885
      0.0071094347
      0.5777542600
     -0.0650566814
      0.2908154715
     -0.0602272773
      0.2270549471
     -0.7165894601
      0.9526377429
      0.0512939330
      0.0330925443
      0.0799279505
      0.5478204027
     -0.4031093363
      0.2559907768
     -0.2140805057
      0.1494849732
      0.5617730539
      0.2981966536
     -0.2066927174
      0.6208503123
     -0.4649903620
      0.1429976926
      0.1164921523
      0.0591552440
     -0.1253126748
     -0.3916029466
     -0.1612994306
      0.1245769077
     -0.2947982938
      0.0414223664
     -0.1902059387
     -0.0458577560
      0.1296586093
     -0.1229966395
     -0.2520435721
     -0.2437902481
      0.2126546122
      0.2774598067
      0.3283601230
     -0.3742081680
     -0.5389775280
     -0.0309862893
     -0.4085714744
     -0.1156267599
      0.2131074414
     -0.1389088167
      0.8484326420
     -0.3072937991
     -0.0905975648
      0.0021944345
     -0.1569642693
      0.0331777964
      0.0460140605
     -0.1244259535
      0.0080460241
     -0.5956229789
     -0.1412001825
     -0.4967933161
     -0.0563658098
     -0.3550410496
     -0.2247225021
      0.0096397537
      0.1085970001
      0.2022505075
     -0.2623066644
     -0.1159168195
      0.2415121701
      0.4910783354
     -0.2968761637
      0.3647282918
      0.2375215371
      0.0827596457
     -0.1463826990
     -0.1351898518
     -0.2745676150
     -0.1581812327
      0.0556674600
      0.4433506446
     -0.0646223312
      0.1611948321
      0.1746045551
      1.0324917164
     -0.5558539667
     -0.6187038210
      0.0987407412
      0.0917127812
      0.5741947069
      0.1914450292
     -0.3741021175
      0.6064663136
      0.0452728324
      0.6697329764
     -0.6014135027
      0.2198789241
     -0.2934065255
      0.3238960069
      0.0065664156
     -0.4648823842
      0.1351848258
      0.6351527998
     -0.0533194018
     -0.1828970875
      0.2972599011
      0.2128980539
      0.0672721916
      0.0568487470
     -0.0234664844
      0.0240101884
     -0.1212792664
      0.7628722257
      0.2314869621
     -0.3814407419
     -0.2011597337
     -0.1611753897
      0.1001475546
     -0.2856912534
      0.3434758137
      0.0547006872
     -0.0793640299
     -0.2729121143
     -0.2197872165
      0.1079364827
      0.4341382285
      0.1646585579
      0.1798121822
     -0.4462143808
      0.0209506827
      0.1061195941
      0.5692643328
     -0.1725862145
     -0.1275029691
     -0.3921455432
      0.6186928469
     -0.4041219674
      0.5930638323
      0.2614782894
      0.2037255536
     -0.2899208796
     -0.3426255073
     -0.2320992628
     -0.2732584422
      0.3013295817
     -0.1346806137
      0.3220738281
      0.1419740706
      0.5264400194
     -0.3041806072
      0.2052960313
     -0.4411392146
      0.1188488681
      0.3540300696
      0.0093980773
     -0.1354672803
      0.3773362135
     -0.1076424064
     -0.5109931705
     -0.7275497934
      0.4147528977
     -0.5030785625
      0.5056343756
     -1.0084076132
     -0.6298015398
      0.0105644134
     -0.2690602493
     -0.9786761300
      0.1356923195
     -0.3845953064
      0.1333060935
     -0.1776628844
      0.2199130912
      0.1763655846
     -0.0291402171
      0.4417726193
      0.1166673266
     -0.2584000205
      0.6332340124
      0.1008735797
      0.4721802791
     -0.4359331665
      0.5939861407
     -0.1679736029
     -0.1824859779
     -0.1102661879
      0.0015236227
     -0.7659395838
      1.1937075723
      0.4185272909
      0.6847469092
     -3.3463508605
      0.2537891752
      0.7507592178
     -2.3287692937
      1.2345577826
      2.2396697345
      2.2648550767
      2.4219227479
      0.6153808185
      0.1795117283
      1.4882339553
      0.4768365277
      1.2889482428
      1.3280065629
      1.5208996241
     -2.0811881389
      1.4627119941
     -0.5523914246
     -0.3592486437
      1.2271734569
     -0.0841733548
      1.1031454163
     -0.3034245802
      1.0353143839
      1.0946559404
     -0.2877502643
     -1.0720477641
      0.4596857767
     -0.2882603831
      0.6639405216
     -1.1200592383
      1.2544286135
      0.3419828254
     -0.0409479272
     -1.1579903817
      0.0699389459
      0.3618702183
      1.0474812424
      1.3679627524
      0.1238548764
      0.8217951731
      0.3232970642
      0.9907005040
      0.5704408766
     -0.4709653616
      1.4129520674
      0.0064063510
      0.0345637342
      0.4234822603
     -0.8737457535
      0.8016383598
     -0.3473104559
      0.3848787724
     -0.2086283457
      0.3475288922
     -0.2711628502
      0.8307720499
      0.1368604010
     -0.5416414974
      0.4088165968
      0.1995685407
      1.1065294739
     -0.1762949138
      0.6820375145
     -1.0398757176
      0.7095777822
      0.5847954461
      0.0161226204
     -0.5165169514
     -0.1735387950
      0.1831184938
     -0.4534883142
     -0.3229439096
     -0.1433452870
     -0.2776213660
      0.9650307387
      0.0610312720
     -1.1440732568
      0.3267870482
      1.1700003557
      0.1623739035
      0.2019002216
     -1.7972442688
     -0.6558796964
     -0.0703989625
      0.8964206178
     -0.4097229315
     -0.1689505053
      0.1689026869
     -0.7207570889
     -0.5845369588
      0.3245928807
     -0.8070547078
     -0.0661658588
      0.8857647058
     -0.2221940951
      0.3841741590
      0.2205814162
      0.5049554255
      0.6197512057
      0.6723305059
      0.3108541841
      0.2437534738
     -0.0315176951
     -0.0272406244
      0.3808850591
     -0.1059182447
     -0.2011938150
      1.1288037253
     -1.1851587020
     -0.2155721015
      0.2559088712
      0.7464144588
      0.0790792274
      0.0259805309
     -0.5267284388
      0.4855357301
      0.3999450863
      0.3541775847
     -0.6945699314
      1.1405636960
     -1.3035906008
     -0.7966820659
     -0.2748129375
     -0.2490339971
     -0.6082735399
      0.0438122867
     -0.9910853262
     -0.4976771337
      0.6522160802
     -1.3775861089
      0.2052948935
      0.0942094008
     -0.6799096609
     -0.1823505586
      0.2494592426
      0.3141881563
      1.2890975504
      0.3803064867
     -0.3537374019
      0.0283419667
      0.4685584566
      0.0034588118
     -0.2656475155
      0.5127822658
      0.6134926948
     -0.6826011349
      0.6264095552
     -0.2674058137
     -1.2210486708
     -0.0193297091
      0.5450117786
     -0.2641033645
      0.6786108164
     -0.3374971787
     -0.3371081144
      0.5524560714
      0.1852591928
     -0.7452904215
     -0.3720184356
      0.2337969557
     -0.7049981411
      0.8666101747
     -0.7231777172
      0.5512420176
      0.3185768685
      0.1290799296
      1.4248671848
     -0.5988344823
     -0.5608303756
     -0.4216405521
      0.1592430500
     -0.2864408473
      0.5210202607
     -0.7364635020
      0.4188891182
      0.1598942978
      0.6586843805
     -1.0598012694
      1.0113290128
     -1.2288660744
      0.6979727744
     -0.4467186268
     -0.1782384780
     -0.0870897586
     -0.6166257724
      1.0032451263
     -0.3775146295
     -0.6551462178
      0.1595309380
      0.2254526848
     -0.3272125640
     -0.4758987498
      0.4992665346
      0.0430175358
     -0.1909715422
     -0.2452793408
      0.5857627551
     -0.6922587967
     -0.2614160418
     -0.5205020382
      0.1584888225
      0.8652179655
     -0.8548029533
     -0.9766722351
     -0.7482430624
      0.2408030054
     -0.8186603226
      0.1681275889
     -0.7949315446
     -0.1988677286
     -0.5313575300
     -0.4344358717
      0.1420094244
     -0.5182450416
      1.0504846818
     -0.5045076535
     -0.9696223547
     -0.5563046223
      0.6580056767
      0.1545146596
      0.5539652269
      0.5814490118
     -0.0204232322
     -0.8383017784
      0.7542164652
      0.0274037029
      1.4706600658
     -0.1294462623
     -0.8511887133
     -0.8543101222
      0.6616046958
      0.7766919421
     -0.3925123081
     -0.5252015391
     -0.0059008281
     -0.1742745525
     -0.1463714878
     -0.5095857715
     -0.6072958763
      0.0173536928
     -0.6887294213
      0.7107906477
     -0.1866182599
     -0.6438000588
     -0.6125618786
     -0.6447921070
     -0.0741702527
      0.0315456614
     -0.2529790426
      0.5369768287
      0.0256601143
     -1.6507412559
      1.4048479692
     -0.1874543378
     -1.3778927905
     -0.1776699615
     -0.2985761043
     -0.9734957615
      1.5616712398
     -0.6314866958
     -1.2564367104
     -0.0640669070
     -1.0338997089
      1.1530157159
      1.3554027482
      0.2578487587
     -0.0515465976
     -0.1636953698
     -0.0321142558
     -0.0458976509
     -0.0451040274
     -0.0509604299
      0.0641995862
     -0.0631952083
     -0.0943459136
     -0.0937564860
      0.0461112672
      0.0227858180
     -0.0462937157
      0.0123679658
     -0.0176680476
      0.1982977423
