      0.2222784853
      0.5463480993
      0.4833330714
      0.4496531686
     -0.3571127566
      0.9591269481
      0.3190036232
      0.9480306779
     -0.0215490439
     -0.8071741453
      0.3587169121
      0.9032415481
      0.4357476123
      0.7844471029
     -0.1642112587
      0.0270627048
     -0.9229477279
     -0.3701403759
     -0.3805811860
      0.0494263278
     -0.5760419579
     -0.6246410070
     -0.3115132195
     -0.0946932066
     -0.8812979368
      0.6671024504
      0.0338392000
      0.9635576561
     -0.7717830480
     -0.2751344389
      0.4354903709
     -0.7215660212
      0.7248314432
     -0.0114508274
      0.9447400044
     -0.8584486766
      0.7229551167
      0.6001330114
     -0.7912763946
     -0.3341225938
      0.5311991963
     -0.8913609129
      0.6066222358
     -0.9308849345
     -0.3765184670
     -0.2316884522
     -0.2587782261
     -0.7261280027
      0.9346373032
      0.6747065373
     -0.6120106543
      0.5936663462
     -0.5897604876
     -0.4473628850
     -0.4163059813
     -0.1197579078
      0.9855013819
      0.0456378129
      0.0358027941
     -0.8854936859
     -0.2840712722
      0.5072434532
      0.1581313489
      0.5666751854
      0.0372753092
     -0.8674466389
     -0.5417039683
     -0.6582717128
     -0.9577239730
     -0.2806105273
     -0.8476396011
      0.3163994349
      1.0026256316
     -0.1812679757
     -0.0887842794
      0.9453885358
      0.1886582659
     -0.2224440162
     -0.4017756428
      0.1226884028
      0.4475432182
      0.6724565281
     -0.9654227506
     -0.7018920264
      0.4722961194
      0.2964397470
      0.8281587738
      0.3583402685
     -0.8966492410
      0.2573729006
      0.1924439625
      0.1404445861
     -0.0375899489
      0.3527422836
      0.5895059941
      0.6760030631
     -0.5076126006
     -0.7392623422
      0.0132692437
     -0.8346161573
      0.2026807499
     -0.7218313657
      0.9589786171
     -0.6229051838
     -0.9547711429
      0.4061259555
      0.4579649616
      0.4615444960
     -0.3919750480
     -0.9267557834
     -0.5710993981
      0.2005682987
      0.5248500691
      0.4046681284
      0.7308473124
      0.7855321513
     -0.7746103978
     -0.4845300285
     -0.1966284167
     -0.5933739539
      0.6007168759
     -0.0342825473
      0.5962257648
     -0.2454026165
      0.7687166914
     -0.1321004419
     -0.6106033038
      0.5933472509
      0.4459810402
     -0.7914373725
      0.5849022239
      0.1777308507
      0.8010165132
      0.2092244219
     -0.6510281161
      0.9328737485
      0.5291249630
      0.2595942231
     -0.7559767551
      0.5710066181
      0.3717779884
     -0.3262483532
      0.9166803943
      0.5773037344
      0.7171216283
     -0.7359247687
      0.5392165830
      0.6608359611
      0.7553789760
     -0.5522299969
      0.5443030110
     -0.1607857902
      0.5310334874
     -0.8317164287
     -0.2528936422
      0.8255494461
      0.5279435395
     -0.4122358537
      0.6060879867
     -0.8197901949
      0.2554582232
      0.1810220658
      0.8964682553
     -0.4380934547
      0.4857699882
      0.9781173501
      0.7195456320
      0.0284250304
      0.9728349674
     -0.1803011733
     -0.3577765834
     -1.0266185804
     -0.0947395773
     -0.7834041777
      0.6033552460
      0.4493940382
     -0.8512709924
     -0.2329562336
      0.2683477489
     -0.3264257718
      0.9717097594
     -0.4497752812
      0.8988156210
     -0.2153016111
      0.5056696510
     -0.1896210815
      0.7277435433
     -0.3173184136
      0.3362553063
      0.6469075237
     -0.9913954730
     -0.4065041244
     -0.0041164546
      0.3800137280
      0.9355221483
      0.9683722221
     -0.8915159476
      0.0093641279
     -0.6348801358
      0.8740168688
      0.4709464855
     -0.8392846216
      0.5669099358
     -0.1921021314
     -0.0618402692
     -0.1031965207
      0.9627667640
      0.5338355430
      0.1629296396
      0.7797567623
     -0.3006163914
      0.8332474460
     -0.1261913535
      0.8331925823
      0.3328949809
      0.0903138561
     -0.6950751074
     -0.0898254967
     -0.9833441172
     -0.8903603141
     -0.5748690121
      0.6467078397
     -0.6496717638
     -0.1372357298
      0.3085304731
      0.8290296110
     -0.2489603231
     -0.4722871724
     -0.3443414826
     -0.0062130483
      0.1452338989
      0.4912973114
      0.0675005021
      0.1604254547
      0.3402383194
     -0.7632570584
      0.8809147941
      0.1915587024
      0.7922473200
     -0.7199044340
     -0.5805599445
     -0.6742127870
     -0.5894669056
     -0.1785797245
     -0.3786720616
      0.2956393572
      0.4528662060
     -0.0247784914
      0.5018312559
     -0.9328920933
      0.3126197050
     -0.3855751009
     -0.5656185036
     -0.2151892773
      0.8362469127
      0.6297846005
      0.1978396801
     -0.3025116783
      0.7648811586
      0.3837422790
      0.2487965899
     -0.4685132601
     -0.1271186091
     -0.8634090696
      0.0170306733
     -0.1015943291
      0.9055501165
     -0.0448870321
      0.2910608621
     -0.3812695249
     -0.9082529625
      0.2833036740
     -0.3677467734
      0.6166230485
      0.1183197708
      0.6608863038
     -0.5772403000
     -0.5470672905
      0.8715508467
      0.3717581856
     -0.5474937115
      0.5548923876
     -0.5984551143
      0.7967770796
     -0.2284826479
     -0.3151070967
      0.2427160490
     -0.3746707011
     -0.1548492066
      0.0132892968
     -0.3149808889
      0.2552878787
     -0.5383015430
      0.4076411702
     -0.1726142402
     -0.6566115637
      0.5334769423
      0.0191115815
     -0.6466781741
     -0.6960827829
     -0.2654510817
      0.2313016831
     -0.3622966551
     -0.4829493076
     -0.2971117435
     -0.6326009139
     -0.3947439000
      0.2670287063
     -0.1495154191
     -0.1658961943
      0.9435646116
     -0.4852909807
     -0.0534898530
      0.7225623791
      0.9378465881
      0.2609465927
     -0.2495287509
     -0.9511974364
     -0.5520646011
     -0.2053242285
      0.4140109731
      0.7909505735
      0.4047620743
      0.3534255655
     -0.7112809380
     -0.9956953188
      0.5072225898
     -0.4107874280
      0.0974594237
      0.5072222467
     -0.3585552533
      0.0493966680
      0.1095156192
      0.4059948288
      0.2555250260
      0.5154085549
      0.1721115592
     -0.1193801425
      0.6065908942
     -0.1637487563
      0.5310889325
      0.8397475861
      0.9340955070
      0.8508671992
      0.8647427875
     -0.3332267162
      0.8739981196
      0.7645937362
      0.3596009176
      0.9224035417
     -0.3227578101
      0.7414840008
     -0.9627168306
      0.6613699771
      0.4599671694
     -0.0545567338
     -0.1295071404
      0.0487249759
      0.5516470691
     -0.4681848486
      0.2394680558
      0.1159050205
     -0.6733051246
     -0.8635570473
      0.6441690214
      0.0112435127
      0.2058878611
     -0.1600446876
      0.4495196451
     -0.2550121414
     -0.4063662315
     -0.5068572168
     -0.9512594119
      0.1005229143
     -0.8840001761
     -0.4713289281
     -0.6167753261
     -0.9220990861
      0.3728886894
      0.5871447121
      0.7215845259
      0.8014524172
     -0.3937772339
     -0.1210609583
     -0.5421447456
     -0.4246492924
     -0.0289298294
     -0.9859879470
     -0.0247458006
     -0.5807406590
     -0.8584462082
      0.7542516942
      0.2624979464
      0.5769681421
     -0.5956735069
      0.3118632786
      0.5591593223
     -0.0154406070
      0.1772751848
      0.8785491036
      0.3580697516
     -0.5349736008
      0.4386911868
     -0.9055824376
      0.7130386421
      0.4571054522
     -0.1601640411
     -0.4419555421
      1.0612822844
     -0.4186982557
      0.9106682853
      0.2413858553
      0.8083791402
      0.1470830023
      0.2493111916
     -0.2327571190
      0.4945731027
      0.9239340212
      0.0016529266
     -0.4876669918
      0.2794132839
     -0.4996922364
      0.4475313219
     -0.7489620152
     -0.3017885278
     -0.3229844086
     -0.4055481096
     -0.9017506628
      0.3151169088
      0.6016466430
      0.8594429110
      0.0867742174
     -0.7153427216
      0.6450007069
      0.6559758759
     -0.8352342085
     -0.3782614090
      0.2647803432
     -0.6266534370
      0.5259610309
      0.1102622147
     -0.8440107365
      0.9512701477
     -0.7143339348
      0.8247199919
      0.9735593513
     -0.6214924624
     -0.0623794894
     -0.6615987519
      0.9256782800
      0.1015085351
     -0.0170811481
      0.6305888997
     -0.6340887394
     -0.3547316262
     -0.6779836150
     -0.7108818523
      0.6967969719
      0.8660282160
     -0.3932739293
     -0.3669251924
      0.5657274972
     -0.4090309415
     -0.0663775104
     -0.1397750444
      0.2507005779
     -0.0053645495
      0.5921298712
      0.3938309775
      0.5718104232
     -0.1067650069
      0.8692014157
     -0.7053458944
     -0.1690888816
     -0.3586512646
      0.0138747101
     -0.0976174681
      0.6858033183
     -0.6626115389
     -0.4544376060
     -0.1177146850
      0.1806165443
      0.5304920241
      0.0436130702
     -0.7979616352
      0.1069534182
     -0.7134526121
     -0.8245171071
     -0.4733570772
      0.4987410925
     -0.3111956221
      0.2363179635
     -0.5114211513
     -0.9099994518
      0.0452048243
      0.4248975704
      0.1337406251
      0.2481348141
     -0.3418195097
      0.9924347951
      0.6894843331
      0.6310231111
      0.0350748618
      0.0281270560
     -0.6519263435
     -0.8518614290
     -0.1838735936
     -0.0396026405
      0.1822824969
     -0.3911053332
     -0.1825701917
     -1.0439847016
     -0.4028521629
      0.9152187966
      0.9021261334
      0.1425833668
      0.0595993136
      0.7787929575
     -0.7298665228
     -0.6752066308
     -0.3528689951
     -0.7975196961
      0.4563602652
      0.2532123669
      0.3651736956
     -0.3071541247
     -0.2901063057
     -0.6652505911
      0.7476464913
     -0.5193000517
     -0.4352398596
     -0.9647132567
     -0.0789378000
     -0.8213319999
     -0.3797297225
     -0.5805284270
     -0.7834258540
      0.5752607048
      0.1419524385
      0.8746330358
     -0.8087281097
     -0.3639061775
     -0.5389342101
      0.0951326425
     -0.0680046812
      0.1861368140
     -0.4740268218
      0.7165121545
     -0.8603270819
     -0.1828170357
      0.1890127733
      0.5177855955
     -0.5681711656
      0.0069677449
     -0.2349627849
      0.7163461706
     -0.1694876718
      0.6896230197
      0.7233887293
      0.6562295033
      0.2478838483
     -0.9826015740
      1.0137290737
     -0.1714205610
     -0.7405327117
     -0.4500346672
      0.4154490413
     -0.7295605812
      0.9463435955
     -0.2152926870
     -0.0342632158
     -0.1414486034
      0.8905344280
     -0.6620320487
      0.3419034596
      0.8805711929
     -0.9685558623
     -0.3603368568
      0.3613168525
      0.5848540248
     -0.6203652346
     -0.4010136576
      0.9528242934
      0.7172550284
     -0.2746106563
      0.1580671038
      0.7504150095
      0.5642660945
     -0.8559551540
     -0.1861070920
     -0.3532219958
     -0.9187184396
      0.8481077732
     -0.7405647920
      0.4512765746
     -0.6378843322
     -0.8796848209
      0.6961003967
     -0.6115673805
      0.5738496364
     -0.3478128014
      0.9487228000
     -1.0255869204
     -0.4756552045
     -0.0332890699
      0.4551526775
      0.8530763932
     -0.4392807111
     -0.6422561727
      0.0909061414
     -0.2429604577
      0.8984193965
      0.7512657781
     -0.1256755081
      0.1678192396
      0.1347802465
      0.2962302919
      0.8543295985
      0.2315345037
      1.0160554257
      1.0036471797
     -0.1694772507
     -0.0061540061
      0.9241748048
      0.9721038225
     -0.9926291310
     -0.1620663497
      0.0237579356
     -0.9478753275
      0.5305655653
     -0.7166330095
     -0.0270316567
     -0.8150030286
      0.8194337056
      0.9377724316
      0.0758792170
     -0.0720361451
     -0.8399096407
     -0.5120174359
     -0.0176462784
      0.4332125757
     -0.2402356222
      0.5653615587
      0.4322524407
     -0.1540767613
      0.5348785360
     -0.4215213352
     -0.1178492527
     -0.1749253872
      0.3009615481
     -0.9348721871
      0.7081780788
      0.0330368039
      0.8448207613
     -0.7919317663
     -0.5551772904
     -0.8337667349
      0.2140841243
     -0.2484494330
     -0.5599993356
     -0.1396220306
     -0.5109235048
      0.3935796123
     -0.5231329129
     -0.4430366552
      0.4953939785
     -0.4597203016
      0.4831267076
      0.0994882849
      0.5948925412
      0.7753819682
      0.5631191173
     -0.5575669292
     -0.6850529220
     -0.3845978557
      0.6217256627
