      0.7059554103
      0.3270412537
     -0.6963072690
      0.4828653898
      0.6190307873
     -0.3971467595
     -0.3646026957
     -0.2638451975
     -0.8311291101
     -0.3419711978
     -0.5877899591
     -0.9151864942
     -0.4032204242
     -0.4977239920
      0.7244821531
      0.1528812032
      0.5538013131
      0.4762048876
      0.4556612132
     -0.4217569019
      1.0219615978
      0.2426934306
      1.0145197870
      0.0329143433
     -0.7387239956
      0.3613246978
      0.8464444538
      0.4800979841
      0.8205410166
     -0.0812493876
     -0.1211564161
     -0.8456188148
     -0.3427793119
     -0.4461146297
     -0.1214226224
     -0.4889760945
     -0.5590590217
     -0.1730208609
     -0.0606903949
     -0.8269620951
      0.6654235395
      0.1063133877
      1.0505137389
     -0.7024411699
     -0.3724995030
      0.3523677251
     -0.6936501368
      0.7202337121
     -0.0175267838
      0.9000005311
     -0.8051382526
      0.6396746655
      0.6557206370
     -0.7355887491
     -0.2765013777
      0.5292359475
     -0.9256712517
      0.6430024820
     -0.8855477024
     -0.3040939309
     -0.4433099932
     -0.1671520180
     -0.6965270066
      0.8184425718
      0.5423414979
     -0.5705334850
      0.6239640436
     -0.4577322290
     -0.4307841871
     -0.3826968529
     -0.1352089703
      1.0807869608
      0.1350552438
      0.0317740184
     -0.9562139253
     -0.3787643344
      0.5428644473
      0.1631198805
      0.5287867198
      0.0503579316
     -0.8578403944
     -0.6181312980
     -0.6192929940
     -0.9108655601
     -0.2401901548
     -0.8432702735
      0.2913583369
      1.0217828593
     -0.1469501597
     -0.0454864853
      0.6794456753
      0.2520971139
     -0.2113302928
     -0.5281641398
      0.0606237138
      0.4326204002
      0.6757805417
     -0.8601729777
     -0.7093728958
      0.4693928765
      0.2736509008
      0.9172010060
      0.4279067929
     -0.9459062048
      0.2259274537
      0.0829568610
      0.1878528064
     -0.0321063353
      0.2871537117
      0.6435521318
      0.6262316468
     -0.5810463993
     -0.7225771294
      0.0415269976
     -0.8118365276
      0.2011729030
     -0.7260314490
      0.9623633088
     -0.5923454799
     -0.9356450096
      0.1586216112
      0.4557248930
      0.4428769137
     -0.5245196059
     -0.9146085985
     -0.6256241184
      0.2031465807
      0.5786816820
      0.3631946180
      0.7029151471
      0.7637275288
     -0.7078935499
     -0.4315845700
     -0.2646786613
     -0.5731113301
      0.4771943559
      0.0303182521
      0.6017677399
     -0.2983815903
      0.8080161767
     -0.1537251560
     -0.6949005887
      0.6175611126
      0.4774319444
     -0.7650953288
      0.5631676529
      0.1663279174
      0.8179838488
      0.2403684215
     -0.6010828028
      0.7134608182
      0.4405474098
      0.1997630579
     -0.6755784858
      0.5744394349
      0.3946970633
     -0.3674425188
      0.9570614798
      0.6009063044
      0.6201114158
     -0.6367458351
      0.5313332424
      0.6402980756
      0.6988587163
     -0.4688690930
      0.4034112949
     -0.0881560400
      0.5307253256
     -0.9227331785
     -0.1764710118
      0.7447439544
      0.4514772310
     -0.4052826702
      0.6207360752
     -0.8063669442
      0.2373649412
      0.1772478293
      0.8887463218
     -0.4072251632
      0.4898660165
      0.8043190315
      0.6079675002
     -0.0520789526
      1.2730302548
     -0.2029390929
     -0.2057965602
     -1.1044891482
     -0.0414825400
     -0.7019718727
      0.4536885957
      0.6265883694
     -0.8907649268
     -0.2901156678
      0.2371009614
     -0.1985319826
      0.8446351093
     -0.3835965198
      0.8860820088
     -0.3434191963
      0.5942708655
     -0.3151702181
      0.6692082089
     -0.3454416214
      0.3452339579
      0.6332216728
     -0.9700023198
     -0.4055381926
     -0.0355149584
      0.3993968037
      0.8704729420
      0.7604167805
     -0.9467715231
     -0.0538438193
     -0.3568811236
      0.8729153053
      0.6064032025
     -0.9018643963
      0.6096202633
     -0.1629901482
     -0.2102066800
      0.0418629788
      0.9461284119
      0.4613308589
      0.1256943942
      0.8828697808
     -0.2766490154
      0.7811020735
     -0.1545083060
      0.8004130438
      0.3679158189
     -0.0265489216
     -0.7118616309
     -0.1264359181
     -0.9277114325
     -0.9355174106
     -0.4718635331
      0.5817545548
     -0.6982732602
     -0.1671310049
      0.1898598368
      0.7099377849
     -0.4315402269
     -0.5776648746
     -0.3974497971
     -0.0331213292
      0.0646055872
      0.4276625592
      0.1290703082
      0.2219742921
      0.2753971848
     -0.7072481023
      0.8105753204
      0.2247370729
      0.7730055000
     -0.6209426987
     -0.5411414259
     -0.7731702568
     -0.6559320148
     -0.0755143701
     -0.4271403361
      0.3461391136
      0.3417807216
      0.0184106155
      0.5513405590
     -0.9229149080
      0.3778375365
     -0.5859511746
     -0.5101791615
     -0.1856282699
      0.9710670331
      0.5635923003
     -0.1112938287
     -0.3242495229
      0.8414739826
      0.3827220295
      0.3038715732
     -0.4112382338
     -0.0920345335
     -0.8762491125
     -0.0290280828
     -0.1545475389
      0.5126446354
     -0.0427995278
      0.2226437635
     -0.2097325805
     -0.8791256965
      0.5245989490
     -0.2850807242
      0.2915403972
      0.0388828733
      0.4712610496
     -0.4763792207
     -0.6202220605
      0.7065563132
      0.4389203799
     -0.6202401377
      0.4799276035
     -0.3919167546
      0.7818915886
     -0.4150139967
     -0.5392546384
      0.1999568255
     -0.4016607533
     -0.2214671535
      0.0185862788
     -0.3383099818
      0.2341326634
     -0.4936292943
      0.3704642374
     -0.1905999828
     -0.6392079429
      0.5426081711
      0.0577432910
     -0.7137274551
     -0.6305892988
     -0.2896260228
      0.2198150488
     -0.2953854579
     -0.3291196787
     -0.3184137743
     -0.5783357391
     -0.3965853066
      0.2753442744
     -0.1381662878
     -0.2153889807
      0.8826328638
     -0.5031027535
     -0.0169396930
      0.5905112079
      0.8329543750
      0.5040034097
     -0.4057313868
     -0.9032904717
     -0.0420881092
     -0.5384331098
      0.7157622261
      0.7444845842
      0.3982970713
      0.3807439306
     -0.7093090571
     -0.9186332195
      0.1758165519
     -0.2936914364
      0.0916198723
      0.5356016954
     -0.3221428577
     -0.0415891409
      0.0620953366
      0.4467405457
      0.1981172492
      0.5285643340
      0.1085165576
     -0.1184786705
      0.6077267684
     -0.1420929770
      0.5731801739
      0.6227406456
      0.9620074715
      0.8490074878
      0.9362903172
     -0.5057953427
      0.7232282422
      0.6995187786
      0.5711734509
      0.8734445410
     -0.2051459396
      0.6597777224
     -0.8903637293
      0.6837552666
      0.3306572551
      0.0570701747
     -0.1489858225
      0.0359842033
      0.4906376652
     -0.3606952376
      0.3330177582
      0.1465340738
     -0.6217662946
     -0.5705314998
      0.4410674000
      0.1219662330
      0.1473201459
     -0.2329137189
      0.4086990983
     -0.3294037942
     -0.3072180886
     -0.5955341346
     -0.8755348844
      0.1293538474
     -0.8731595053
      0.0908548875
     -0.8553159417
     -0.9554948917
      0.5162502107
      0.6595608439
      0.6658005530
      0.8071896899
     -0.5075111258
     -0.3702491150
     -0.8165489848
     -0.3544039739
      0.0640174136
     -0.8874649470
      0.3488438078
     -0.6485081734
     -0.8894295941
      0.6620174977
      0.1436414822
      0.5153693607
     -0.5055985622
      0.3475276708
      0.5959987026
     -0.1391022732
      0.1675133773
      0.8193941177
      0.4471004159
     -0.5270840497
      0.4290683737
     -0.8979001370
      0.7832581113
      0.6417166144
     -0.1368274109
     -0.3522653815
      1.0441250654
     -0.2395379537
      0.8580799449
     -0.0389485442
      0.6100646644
      0.4963950500
      0.3918289484
     -0.3973449051
      0.4852352488
      0.8959630161
      0.0037728442
     -0.5389766063
      0.3209411781
     -0.4118207699
      0.3170692058
     -0.6112952942
     -0.1783209683
     -0.3613652756
     -0.4437654874
     -0.8162848193
      0.5383884320
      0.6206342410
      0.7399253915
      0.2576662702
     -0.6991193103
      0.6458670116
      0.6359505144
     -0.8614888917
     -0.4364971410
      0.3140537477
     -0.7007379188
      0.5574459567
      0.0968387286
     -0.8535521100
      0.8683360982
     -0.8004420276
      0.8172673232
      1.0194018870
     -0.7115632942
     -0.0332603046
     -0.7047725535
      0.8689103772
     -0.2153443938
     -0.1033774054
      0.6260273257
     -0.8350477063
     -0.0386191740
     -0.6929678282
     -0.7384682172
      0.6416105171
      0.7622353252
     -0.3876754987
     -0.0976554640
      0.4329428562
     -0.3921009642
     -0.1309682176
     -0.2247897804
     -0.0168939603
      0.0183562826
      0.6505278435
      0.3453244872
      0.4130576111
     -0.1728616074
      0.8693078578
     -0.6829366270
     -0.2191063461
     -0.2831385089
      0.2284952515
     -0.0279698201
      0.6989477888
     -0.6133666784
     -0.4987286386
     -0.1452792866
      0.0712386228
      0.6156780866
     -0.0400875824
     -0.7615680754
      0.1290922112
     -0.6658924258
     -0.8345649568
     -0.5443670820
      0.4816110824
     -0.3449383811
      0.2886147595
     -0.4378887623
     -0.9371529312
      0.1045406164
      0.3932260783
      0.2752084607
      0.1814527216
     -0.1775405112
      1.0685752108
      0.5990474503
      0.6021958194
      0.0551747631
      0.1055465704
     -0.6053510840
     -0.6506144476
     -0.0741603451
      0.0090392873
      0.2045025063
     -0.4781022051
     -0.2293780166
     -0.9960570834
     -0.5201790586
      1.0164998384
      0.7288111916
      0.1417528795
      0.1071142373
      0.7881410576
     -0.4822513208
     -0.7156728419
     -0.3935481577
     -0.7733693160
      0.5246759825
      0.3407302981
      0.4548641558
     -0.2068535967
     -0.1649316036
     -0.6315615834
      0.9700455187
     -0.5779436236
     -0.4218804285
     -0.9606854545
     -0.0983985000
     -0.7261310067
     -0.3436863506
     -0.6817386964
     -0.6446186946
      0.4362963755
      0.1893713211
      0.9115416413
     -0.5887616141
     -0.2896035883
     -0.5783337128
      0.1599300242
      0.0087457405
      0.1721412119
     -0.4867249018
      0.7378585555
     -0.7026878933
     -0.1655095163
      0.2094691226
      0.6002739629
     -0.5171355385
     -0.0173132561
     -0.2380956229
      0.6635455096
     -0.2501503261
      0.6133652264
      0.5780862620
      0.6577902668
      0.2769433310
     -0.9776496994
      0.8134599042
     -0.0190719027
     -0.7318424178
     -0.4826918411
      0.3888605289
     -0.6819514697
      0.9505006296
     -0.1485141208
      0.0939239244
     -0.1520702891
      0.7338668220
     -0.6425614935
      0.3192698130
      0.9165973613
     -0.9669436343
     -0.4954173590
      0.4112375957
      0.5458122867
     -0.8229239184
     -0.5429910248
      0.9275309325
      0.7127841454
     -0.2567688469
     -0.1854437513
      0.7619540377
      0.6155455350
     -0.8155913346
     -0.1551608561
     -0.4265190006
     -0.9237142868
      0.6865251218
     -0.7229777878
      0.4915316231
     -0.2854209783
     -0.8598012727
      0.7645933695
     -0.5502033158
      0.4798885599
     -0.3823706115
      1.0391022343
     -1.0530272356
     -0.4066625689
     -0.1466145889
      0.4000785355
      0.8121005453
     -0.3908539269
     -0.4503908647
      0.1629499183
     -0.0915027514
      0.8615411937
      0.7777514854
     -0.0702736026
      0.0317188077
      0.0321728247
      0.2638355092
      0.9873595251
      0.1372122762
      0.9002071334
      0.9683609528
     -0.1434027270
      0.0115974373
      0.7104187075
      0.9803357208
     -0.8746257674
     -0.1268704133
      0.0259584427
     -0.9617033357
      0.5290441297
     -1.1523602359
      0.2565233342
     -0.5561208083
      0.2822574217
      0.9562597424
     -0.1492012448
     -0.1082100677
     -0.3810973294
     -0.3577272526
      0.0341348973
      0.5814419788
     -0.2362748063
      0.2740130803
      0.2005358826
     -0.1874268796
      0.7040305804
