################################################################################
# Neural network connection values (weights and biases).
################################################################################
# Col  Name       Description
################################################################################
# 1    connection Neural network connection value.
# 2    t          Connection type (a = weight, b = bias).
# 3    index      Index enumerating weights.
# 4    l_s        Starting point layer (end point layer for biases).
# 5    n_s        Starting point neuron in starting layer (end point neuron for biases).
# 6    l_e        End point layer.
# 7    n_e        End point neuron in end layer.
################################################################################
#                      1 2         3     4     5     6     7
#             connection t     index   l_s   n_s   l_e   n_e
############################################################
  5.3201815249319195E-01 a         1     0     1     1     1
  9.1949997434726871E-02 a         2     0     1     1     2
 -3.9259151253982832E-01 a         3     0     1     1     3
 -4.2316281757438023E-01 a         4     0     1     1     4
 -1.4058239976277095E-01 a         5     0     1     1     5
  8.1938308896857583E-03 a         6     0     1     1     6
  4.6855767123270070E-01 a         7     0     1     1     7
 -2.0751456685886785E-01 a         8     0     1     1     8
  2.6198097982900281E-01 a         9     0     1     1     9
 -7.5989646265032340E-01 a        10     0     1     1    10
  1.9650615083918799E-01 a        11     0     1     1    11
 -8.7169031136439964E-02 a        12     0     1     1    12
  4.2242267840758102E-02 a        13     0     1     1    13
 -5.7446637921793164E-01 a        14     0     1     1    14
  1.2051740955821162E-02 a        15     0     1     1    15
  1.6389096514425661E-01 a        16     0     2     1     1
  3.0169595846845715E-01 a        17     0     2     1     2
  2.5081964684644009E-01 a        18     0     2     1     3
 -7.2001312493847813E-03 a        19     0     2     1     4
  9.9866950891054768E-02 a        20     0     2     1     5
  2.2463499968652004E-01 a        21     0     2     1     6
  4.3791989301539924E-01 a        22     0     2     1     7
  1.2088515973801436E-01 a        23     0     2     1     8
 -2.9221810419522537E-01 a        24     0     2     1     9
 -6.2582102839685483E-01 a        25     0     2     1    10
 -4.3294558236205311E-01 a        26     0     2     1    11
 -6.9810188216782354E-01 a        27     0     2     1    12
 -6.9632739986717629E-01 a        28     0     2     1    13
  1.8228857487781652E-01 a        29     0     2     1    14
 -2.4050398553703647E-01 a        30     0     2     1    15
  3.0726992270702647E-01 a        31     0     3     1     1
  3.7008316548500016E-02 a        32     0     3     1     2
  3.4523712890722852E-01 a        33     0     3     1     3
 -1.5080698247664540E-01 a        34     0     3     1     4
 -3.2872333814416260E-01 a        35     0     3     1     5
 -2.0169013606655578E-01 a        36     0     3     1     6
  2.3131151206375306E-01 a        37     0     3     1     7
 -6.1228180381229391E-01 a        38     0     3     1     8
 -6.3467775964739193E-01 a        39     0     3     1     9
  3.9446858056852258E-01 a        40     0     3     1    10
 -8.8681584655056298E-03 a        41     0     3     1    11
  2.6460795302791429E-01 a        42     0     3     1    12
  2.6726278919625474E-01 a        43     0     3     1    13
  4.1055272598925069E-01 a        44     0     3     1    14
 -3.9812191618615167E-01 a        45     0     3     1    15
  2.7667357463361183E-02 a        46     0     4     1     1
 -4.7638348715244853E-02 a        47     0     4     1     2
  9.8788882043219478E-02 a        48     0     4     1     3
 -2.8191141304715001E-01 a        49     0     4     1     4
 -2.1186183287648527E-01 a        50     0     4     1     5
  5.8117648155805071E-02 a        51     0     4     1     6
 -4.1643542656864563E-01 a        52     0     4     1     7
  2.7401320059065565E-01 a        53     0     4     1     8
 -6.2318462484555037E-01 a        54     0     4     1     9
  8.7741295958462001E-02 a        55     0     4     1    10
 -1.0081650257758704E-01 a        56     0     4     1    11
 -2.7396654095714768E-01 a        57     0     4     1    12
 -6.4650128513805660E-01 a        58     0     4     1    13
  3.1107476875185019E-01 a        59     0     4     1    14
  4.0875406593665120E-02 a        60     0     4     1    15
  8.7042191351995160E-02 a        61     0     5     1     1
  1.5382194024016410E-01 a        62     0     5     1     2
  1.5164756728481524E-01 a        63     0     5     1     3
 -4.1699086206701075E-01 a        64     0     5     1     4
  3.6098435557774344E-01 a        65     0     5     1     5
 -3.1509278605742497E-01 a        66     0     5     1     6
 -1.0167980025172925E-01 a        67     0     5     1     7
 -2.1471046522359105E-01 a        68     0     5     1     8
 -1.1015941600192660E+00 a        69     0     5     1     9
  3.9991775486426545E-01 a        70     0     5     1    10
 -1.0652670650130709E-01 a        71     0     5     1    11
  1.0140085785080352E-01 a        72     0     5     1    12
  5.0489766226879917E-01 a        73     0     5     1    13
  4.5208759013374977E-01 a        74     0     5     1    14
  2.6825758201386590E-01 a        75     0     5     1    15
 -1.2387091060927003E-03 a        76     0     6     1     1
 -9.9663340872145192E-02 a        77     0     6     1     2
  8.1831460089014663E-01 a        78     0     6     1     3
 -2.5293725099449316E-01 a        79     0     6     1     4
  1.9268730716546370E-01 a        80     0     6     1     5
 -2.8035642369607122E-01 a        81     0     6     1     6
 -7.9699606283487545E-02 a        82     0     6     1     7
 -4.4269006330172361E-01 a        83     0     6     1     8
 -2.8271800295234930E-02 a        84     0     6     1     9
 -1.1872667423687709E-01 a        85     0     6     1    10
 -2.3902318457525112E-01 a        86     0     6     1    11
 -2.2344821913431837E-01 a        87     0     6     1    12
 -1.0342650924849117E+00 a        88     0     6     1    13
  7.4779082989787760E-01 a        89     0     6     1    14
  4.1750126863619541E-01 a        90     0     6     1    15
 -1.4507783949090647E-01 a        91     0     7     1     1
 -2.0168507813712330E-01 a        92     0     7     1     2
  3.1553497279871501E-01 a        93     0     7     1     3
  1.9197551109449787E-01 a        94     0     7     1     4
 -1.6888312934131743E-02 a        95     0     7     1     5
 -3.5080955956545629E-01 a        96     0     7     1     6
  6.1562197554023268E-01 a        97     0     7     1     7
  1.0702842272870977E-01 a        98     0     7     1     8
 -5.8265557930719825E-01 a        99     0     7     1     9
 -6.4650155125706510E-01 a       100     0     7     1    10
  6.3138676593158999E-02 a       101     0     7     1    11
 -5.4683675377133764E-04 a       102     0     7     1    12
  3.8409467222908628E-01 a       103     0     7     1    13
  1.5069345310576662E-01 a       104     0     7     1    14
  1.2008256595170001E-01 a       105     0     7     1    15
  3.5725009035868943E-01 a       106     0     8     1     1
  6.6715731916246279E-01 a       107     0     8     1     2
  4.5247328408665094E-01 a       108     0     8     1     3
 -1.1689914363190296E-01 a       109     0     8     1     4
  2.1380081229483217E-01 a       110     0     8     1     5
  1.2175928826523975E-01 a       111     0     8     1     6
  3.1357993291022157E-01 a       112     0     8     1     7
  1.6114904763703200E-01 a       113     0     8     1     8
  4.6240760257550412E-01 a       114     0     8     1     9
 -3.1880413479400044E-01 a       115     0     8     1    10
 -2.1598145941743099E-03 a       116     0     8     1    11
 -5.8680392576970797E-01 a       117     0     8     1    12
 -1.0383846213950783E+00 a       118     0     8     1    13
 -1.7562304741932536E-01 a       119     0     8     1    14
  3.8622950167727203E-02 a       120     0     8     1    15
  1.6951779783864077E-01 a       121     0     9     1     1
  6.1816937129375393E-01 a       122     0     9     1     2
 -3.1024049988994412E-01 a       123     0     9     1     3
  7.2188407499504337E-02 a       124     0     9     1     4
  5.7309594923522711E-01 a       125     0     9     1     5
  1.5272515428103325E-01 a       126     0     9     1     6
  4.9168355198764363E-01 a       127     0     9     1     7
  2.2975683235798505E-01 a       128     0     9     1     8
  1.5783469542815962E-01 a       129     0     9     1     9
 -3.7925809861291582E-01 a       130     0     9     1    10
 -1.5301159929443275E-01 a       131     0     9     1    11
 -4.1456944233049364E-01 a       132     0     9     1    12
 -4.4803343433088094E-01 a       133     0     9     1    13
 -2.7323900152900632E-01 a       134     0     9     1    14
 -5.1883413943544249E-03 a       135     0     9     1    15
  7.2155972667469448E-01 a       136     0    10     1     1
  3.8365371855638472E-02 a       137     0    10     1     2
 -4.2453023296645784E-02 a       138     0    10     1     3
  1.5064783100210402E-01 a       139     0    10     1     4
  7.3189376490013391E-01 a       140     0    10     1     5
  5.9840327857689571E-02 a       141     0    10     1     6
  9.5475390583871922E-01 a       142     0    10     1     7
  8.4457167388192333E-01 a       143     0    10     1     8
  4.8055682073215494E-01 a       144     0    10     1     9
 -1.2201782701581754E+00 a       145     0    10     1    10
  1.0783147888243441E-01 a       146     0    10     1    11
 -2.1149215909662777E-01 a       147     0    10     1    12
 -2.9573844046559661E-01 a       148     0    10     1    13
 -8.1698248470666368E-01 a       149     0    10     1    14
 -1.6590480316586312E-01 a       150     0    10     1    15
 -1.9621400768273231E-01 a       151     0    11     1     1
  3.8442497689903299E-01 a       152     0    11     1     2
 -4.6572816988174665E-01 a       153     0    11     1     3
 -7.9763775897010425E-01 a       154     0    11     1     4
 -3.4862760433748408E-01 a       155     0    11     1     5
 -3.0619097106688509E-01 a       156     0    11     1     6
 -6.7417947017610114E-01 a       157     0    11     1     7
  2.3672969325416779E-01 a       158     0    11     1     8
  8.5351522608498362E-02 a       159     0    11     1     9
 -1.0243709223987292E-01 a       160     0    11     1    10
  1.8166662442921097E-01 a       161     0    11     1    11
 -2.5256650388794610E-01 a       162     0    11     1    12
  4.7779683109125659E-01 a       163     0    11     1    13
  9.7610071477053376E-02 a       164     0    11     1    14
 -6.7807407626754898E-02 a       165     0    11     1    15
 -5.9106211040031158E-02 a       166     0    12     1     1
  2.6274107087561904E-01 a       167     0    12     1     2
  7.6968380448735718E-01 a       168     0    12     1     3
  2.1623350735289615E-01 a       169     0    12     1     4
 -1.4744949671690079E-02 a       170     0    12     1     5
 -5.1290744245374620E-01 a       171     0    12     1     6
 -2.6510042239882997E-01 a       172     0    12     1     7
 -1.4178082487088930E-01 a       173     0    12     1     8
 -1.2233267602901634E+00 a       174     0    12     1     9
  5.0285260690787384E-02 a       175     0    12     1    10
  4.0107720682048882E-02 a       176     0    12     1    11
  1.6257057997633828E-02 a       177     0    12     1    12
  2.1721914670698153E-01 a       178     0    12     1    13
  7.9596281273803271E-01 a       179     0    12     1    14
  3.6098930042768207E-01 a       180     0    12     1    15
 -3.6796103216434568E-02 a       181     0    13     1     1
 -1.7988666964620395E-01 a       182     0    13     1     2
 -4.9576571699960181E-01 a       183     0    13     1     3
 -5.7603316713600161E-01 a       184     0    13     1     4
 -5.1072492541019054E-01 a       185     0    13     1     5
 -2.4744887377969033E-01 a       186     0    13     1     6
  2.9479332841808141E-02 a       187     0    13     1     7
 -7.4572510135793978E-03 a       188     0    13     1     8
 -7.0900234804335360E-01 a       189     0    13     1     9
 -4.0916872844532443E-01 a       190     0    13     1    10
 -1.6547582756374987E-01 a       191     0    13     1    11
 -2.1434629365850924E-01 a       192     0    13     1    12
  8.8389300584804253E-01 a       193     0    13     1    13
 -1.5149824301812242E-01 a       194     0    13     1    14
  3.0281687819798869E-01 a       195     0    13     1    15
  4.0680460709437671E-01 a       196     0    14     1     1
 -4.7465412053598766E-01 a       197     0    14     1     2
  1.3163720562933898E+00 a       198     0    14     1     3
  4.5186601052025011E-01 a       199     0    14     1     4
  1.8079240331603564E-02 a       200     0    14     1     5
 -6.9044265182752562E-01 a       201     0    14     1     6
  2.2924682734119703E-01 a       202     0    14     1     7
 -5.8032109715723124E-01 a       203     0    14     1     8
 -4.6243935179037182E-01 a       204     0    14     1     9
 -7.5739289839631907E-01 a       205     0    14     1    10
  3.8556995579064846E-01 a       206     0    14     1    11
  2.8931748389212925E-01 a       207     0    14     1    12
 -2.8443981151635228E-01 a       208     0    14     1    13
 -2.2901669253504689E-01 a       209     0    14     1    14
 -5.7966848482725564E-01 a       210     0    14     1    15
 -9.8541368614055880E-02 a       211     0    15     1     1
 -3.5959680126138163E-02 a       212     0    15     1     2
  3.9632289421986866E-01 a       213     0    15     1     3
  3.2048430697013053E-01 a       214     0    15     1     4
 -5.3452909162055440E-01 a       215     0    15     1     5
  3.2472902355566359E-02 a       216     0    15     1     6
  1.9315790886775072E-01 a       217     0    15     1     7
 -4.3942404967849769E-01 a       218     0    15     1     8
  2.7109563837608935E-01 a       219     0    15     1     9
 -2.1956142734814371E-01 a       220     0    15     1    10
  2.9035572884519528E-01 a       221     0    15     1    11
 -1.3866627490435890E-01 a       222     0    15     1    12
 -1.8159442118671387E-01 a       223     0    15     1    13
 -3.1390733939828841E-01 a       224     0    15     1    14
 -2.5757788318765429E-01 a       225     0    15     1    15
  3.7193629311657805E-01 a       226     0    16     1     1
  3.5076728073781338E-01 a       227     0    16     1     2
  1.9614076982211340E-01 a       228     0    16     1     3
  3.4064949141164820E-02 a       229     0    16     1     4
  2.2386425162080228E-01 a       230     0    16     1     5
 -4.3537463184723152E-01 a       231     0    16     1     6
 -6.6175495407272952E-02 a       232     0    16     1     7
 -1.3802825967067248E-01 a       233     0    16     1     8
  8.3722821654710206E-02 a       234     0    16     1     9
  1.9171759428590074E-01 a       235     0    16     1    10
 -3.8110378083274188E-01 a       236     0    16     1    11
  1.7892614201033143E-02 a       237     0    16     1    12
  3.7135722100425328E-01 a       238     0    16     1    13
 -3.8077018427263992E-01 a       239     0    16     1    14
  2.8860650979519437E-01 a       240     0    16     1    15
  2.9128683819535095E-01 a       241     0    17     1     1
  4.1543091254786883E-02 a       242     0    17     1     2
 -3.5109937950033721E-01 a       243     0    17     1     3
 -1.4050189776818550E-01 a       244     0    17     1     4
  2.6236549455455038E-01 a       245     0    17     1     5
  7.6484879681566545E-02 a       246     0    17     1     6
 -1.8621598064875772E-01 a       247     0    17     1     7
  2.4453008762073930E-01 a       248     0    17     1     8
  3.3084822692598437E-01 a       249     0    17     1     9
  1.0457042154909288E+00 a       250     0    17     1    10
 -1.4160671864997185E-01 a       251     0    17     1    11
 -2.8053860812024690E-02 a       252     0    17     1    12
 -5.3224923387578071E-01 a       253     0    17     1    13
 -4.4896881782281672E-01 a       254     0    17     1    14
  3.0942670096734581E-01 a       255     0    17     1    15
  6.0098596057968934E-01 a       256     0    18     1     1
 -4.5310020217744978E-01 a       257     0    18     1     2
 -1.2617693827719381E+00 a       258     0    18     1     3
 -1.0408984658407393E-01 a       259     0    18     1     4
 -2.7834235109747801E-01 a       260     0    18     1     5
 -1.7267964945505664E-02 a       261     0    18     1     6
 -4.9567817756700416E-01 a       262     0    18     1     7
  6.0056145680885886E-01 a       263     0    18     1     8
 -5.3520249684419618E-01 a       264     0    18     1     9
 -6.3829203351835218E-01 a       265     0    18     1    10
  3.6973924801330722E-02 a       266     0    18     1    11
  3.8282469742128922E-01 a       267     0    18     1    12
 -3.7074394274946904E-01 a       268     0    18     1    13
  2.7749818844416957E-01 a       269     0    18     1    14
  2.8336334890240589E-01 a       270     0    18     1    15
  6.2960596536282087E-01 a       271     0    19     1     1
  1.8669565998638438E-01 a       272     0    19     1     2
  2.0841826163146543E-01 a       273     0    19     1     3
  1.0839972929766321E-01 a       274     0    19     1     4
 -1.0425638103925407E-01 a       275     0    19     1     5
  1.0035097116557921E+00 a       276     0    19     1     6
  3.2117798128680092E-01 a       277     0    19     1     7
  7.9389597333377249E-02 a       278     0    19     1     8
 -9.6512439710527365E-01 a       279     0    19     1     9
 -1.4664791327208357E+00 a       280     0    19     1    10
 -3.2976461466627627E-01 a       281     0    19     1    11
 -9.8155007468871944E-02 a       282     0    19     1    12
  1.1678166630959816E+00 a       283     0    19     1    13
  3.6159983787446370E-01 a       284     0    19     1    14
  4.3585309582207038E-01 a       285     0    19     1    15
  5.2063901294538384E-01 a       286     0    20     1     1
  3.5682407200430827E-01 a       287     0    20     1     2
  1.4535324623393431E-01 a       288     0    20     1     3
 -2.7044596907131524E-01 a       289     0    20     1     4
  4.9087850640810132E-01 a       290     0    20     1     5
  3.5899319503634858E-01 a       291     0    20     1     6
 -1.2383779216498825E-01 a       292     0    20     1     7
 -1.8690432867852566E-01 a       293     0    20     1     8
  1.8049167289366702E-02 a       294     0    20     1     9
  7.8759257148584241E-02 a       295     0    20     1    10
  1.6871696672822764E-01 a       296     0    20     1    11
  4.2376202301119104E-01 a       297     0    20     1    12
 -1.2782041051429430E-01 a       298     0    20     1    13
  1.4629664859788397E-01 a       299     0    20     1    14
  4.0145746832032447E-01 a       300     0    20     1    15
 -9.7527611694013014E-02 a       301     0    21     1     1
  5.3786194672144516E-01 a       302     0    21     1     2
  1.2195438262119260E+00 a       303     0    21     1     3
  9.0012296791469812E-02 a       304     0    21     1     4
 -7.0941433941151058E-02 a       305     0    21     1     5
 -2.9275659074962690E-01 a       306     0    21     1     6
  2.5941890235342280E-01 a       307     0    21     1     7
 -6.1846348468244272E-01 a       308     0    21     1     8
  1.7495559691083937E-03 a       309     0    21     1     9
  5.2098335112272831E-01 a       310     0    21     1    10
  3.3985143922522215E-01 a       311     0    21     1    11
 -3.2052368983584928E-01 a       312     0    21     1    12
  2.1447586267172591E-01 a       313     0    21     1    13
  2.0524461319032783E-01 a       314     0    21     1    14
 -1.2145190070973672E-01 a       315     0    21     1    15
 -7.4266342411335518E-01 a       316     0    22     1     1
  5.6114011459122171E-01 a       317     0    22     1     2
  3.9651578568463058E-01 a       318     0    22     1     3
 -1.7211147514329472E-01 a       319     0    22     1     4
  5.1207929256352380E-01 a       320     0    22     1     5
 -4.7445681539319794E-02 a       321     0    22     1     6
 -1.2510089248767054E-02 a       322     0    22     1     7
 -7.3616636651658712E-02 a       323     0    22     1     8
 -3.8971350334756349E-01 a       324     0    22     1     9
  8.4385873829541769E-01 a       325     0    22     1    10
  1.1272328865631492E-01 a       326     0    22     1    11
 -6.0247310102420959E-01 a       327     0    22     1    12
  9.3150942127649339E-01 a       328     0    22     1    13
 -8.7314771255427151E-02 a       329     0    22     1    14
  2.1336519921316494E-01 a       330     0    22     1    15
 -1.1742104241672993E+00 a       331     0    23     1     1
  3.4780541177185315E-01 a       332     0    23     1     2
  3.3360806465006126E-01 a       333     0    23     1     3
 -1.9631747247667403E-01 a       334     0    23     1     4
 -2.3257025550721455E-02 a       335     0    23     1     5
 -3.2840290804021421E-01 a       336     0    23     1     6
 -1.6527092406175292E+00 a       337     0    23     1     7
 -1.1052982851141695E+00 a       338     0    23     1     8
 -1.3511785410503738E+00 a       339     0    23     1     9
  1.1963748432174530E+00 a       340     0    23     1    10
 -7.2995876194178622E-01 a       341     0    23     1    11
  9.2694529225170338E-02 a       342     0    23     1    12
  5.3177854860401486E-01 a       343     0    23     1    13
  1.2112433220345016E+00 a       344     0    23     1    14
 -1.1069926476369365E-02 a       345     0    23     1    15
  7.8563215008106413E-01 a       346     0    24     1     1
 -1.8935170377028079E-01 a       347     0    24     1     2
 -3.7658401088695853E-01 a       348     0    24     1     3
 -1.4267054926403677E-01 a       349     0    24     1     4
  4.0881145357461562E-01 a       350     0    24     1     5
 -7.2552945643828401E-02 a       351     0    24     1     6
  5.8979083076170169E-01 a       352     0    24     1     7
  2.5443428249875388E-01 a       353     0    24     1     8
  2.8193540168280884E-01 a       354     0    24     1     9
 -9.3041090766902479E-01 a       355     0    24     1    10
  1.1270618794510674E-01 a       356     0    24     1    11
 -5.1250041704468112E-02 a       357     0    24     1    12
 -1.2474479576816364E-01 a       358     0    24     1    13
  7.3986375541413713E-02 a       359     0    24     1    14
 -1.5286211704898653E-01 a       360     0    24     1    15
  4.4264535513008602E-01 a       361     0    25     1     1
 -2.0084610447201470E-01 a       362     0    25     1     2
 -1.8701407741627538E-01 a       363     0    25     1     3
  1.9241930899265236E-01 a       364     0    25     1     4
  3.2595111759228829E-01 a       365     0    25     1     5
 -5.7260159612945905E-01 a       366     0    25     1     6
  1.1413022303879702E-01 a       367     0    25     1     7
  7.8937647304967562E-01 a       368     0    25     1     8
  2.8558866320203818E-01 a       369     0    25     1     9
 -7.0817606604627803E-01 a       370     0    25     1    10
 -2.0013788276501990E-01 a       371     0    25     1    11
 -2.8164261859488610E-01 a       372     0    25     1    12
 -4.8676836327965783E-01 a       373     0    25     1    13
 -9.1502219297940979E-01 a       374     0    25     1    14
 -1.0169048566901839E-01 a       375     0    25     1    15
  1.3746690085381252E-01 a       376     0    26     1     1
  3.2108790490574818E-01 a       377     0    26     1     2
 -1.2117194786508096E+00 a       378     0    26     1     3
  4.0637347784818756E-01 a       379     0    26     1     4
  3.2367371807796674E-01 a       380     0    26     1     5
  1.9575699298120292E-01 a       381     0    26     1     6
  6.2407623785683408E-01 a       382     0    26     1     7
  6.0946923414735499E-01 a       383     0    26     1     8
  6.5911850218947166E-01 a       384     0    26     1     9
 -6.8778665231427250E-01 a       385     0    26     1    10
 -3.0912188390518869E-01 a       386     0    26     1    11
  1.4353423894342707E-01 a       387     0    26     1    12
  1.9636949239522172E-01 a       388     0    26     1    13
 -5.2971829083827815E-01 a       389     0    26     1    14
 -7.8268949850361119E-02 a       390     0    26     1    15
  1.2339561671922031E-01 a       391     0    27     1     1
 -1.1042726364746466E-01 a       392     0    27     1     2
 -2.9511212068996075E-02 a       393     0    27     1     3
  3.5014561960411464E-03 a       394     0    27     1     4
  3.7427818600814261E-01 a       395     0    27     1     5
  1.0642762182308808E-01 a       396     0    27     1     6
 -4.8280176655057905E-02 a       397     0    27     1     7
 -5.4578604078895188E-01 a       398     0    27     1     8
  8.4766803493268386E-02 a       399     0    27     1     9
  7.3472503176990264E-02 a       400     0    27     1    10
 -2.5734164529455472E-01 a       401     0    27     1    11
 -8.3610542961770774E-03 a       402     0    27     1    12
 -4.4156729972432318E-01 a       403     0    27     1    13
 -5.8720164133868456E-02 a       404     0    27     1    14
 -3.4735599487580732E-02 a       405     0    27     1    15
  7.2698095025644879E-02 b       406     1     1
  4.4032926339156375E-01 b       407     1     2
  5.0368537167409444E-01 b       408     1     3
 -3.2899558888685476E-01 b       409     1     4
  6.0994677976374909E-02 b       410     1     5
  1.0331258697297602E-01 b       411     1     6
 -1.3874418872558189E-01 b       412     1     7
 -5.5884837529068654E-01 b       413     1     8
  1.1305474263250290E-01 b       414     1     9
 -4.5884772176051619E-01 b       415     1    10
 -2.1372281108222871E-01 b       416     1    11
 -1.4980091598957887E-01 b       417     1    12
 -6.9261522129355724E-01 b       418     1    13
 -2.2549242068953285E-01 b       419     1    14
  5.1075473241555111E-03 b       420     1    15
 -1.2729943364615053E+00 a       421     1     1     2     1
  1.3344035095644446E-01 a       422     1     1     2     2
 -4.9950076699168433E-01 a       423     1     1     2     3
  1.0952892789613786E-01 a       424     1     1     2     4
  9.0868620438885683E-01 a       425     1     1     2     5
  2.1952021022404158E-01 a       426     1     1     2     6
  2.7238071348761084E-01 a       427     1     1     2     7
  7.1930713848437121E-03 a       428     1     1     2     8
  2.2458430315514069E-01 a       429     1     1     2     9
  1.1968648781837041E-01 a       430     1     1     2    10
  1.8204583647521103E-01 a       431     1     1     2    11
 -1.2226839233185970E-01 a       432     1     1     2    12
  2.5097883749081934E-01 a       433     1     1     2    13
  1.2659353663839917E-01 a       434     1     1     2    14
  3.9845880965439373E-01 a       435     1     1     2    15
  4.7114179377056509E-01 a       436     1     2     2     1
  2.9218698684709299E-01 a       437     1     2     2     2
 -5.0942232023302292E-01 a       438     1     2     2     3
  2.6430312638442810E-01 a       439     1     2     2     4
 -1.2570250729757280E+00 a       440     1     2     2     5
 -1.5852306915929007E-01 a       441     1     2     2     6
  3.6236682775694995E-01 a       442     1     2     2     7
  3.2980800138908850E-01 a       443     1     2     2     8
  3.3971469529564630E-01 a       444     1     2     2     9
 -2.3798151006527271E-01 a       445     1     2     2    10
 -1.2203617531904179E-02 a       446     1     2     2    11
 -1.1963169108570593E-01 a       447     1     2     2    12
  3.0508126392770778E-02 a       448     1     2     2    13
 -2.3379335547753871E-01 a       449     1     2     2    14
  3.5390824298724521E-01 a       450     1     2     2    15
  2.8657304174253390E-01 a       451     1     3     2     1
 -1.1006815005755059E-01 a       452     1     3     2     2
  3.8712108309619980E-01 a       453     1     3     2     3
  3.3461428399475979E-01 a       454     1     3     2     4
 -1.0348260156408891E+00 a       455     1     3     2     5
 -3.4788277873579870E-01 a       456     1     3     2     6
 -1.1858201156775474E+00 a       457     1     3     2     7
  7.9526018549736874E-03 a       458     1     3     2     8
 -5.9433655539566478E-03 a       459     1     3     2     9
  1.3836282207203932E-01 a       460     1     3     2    10
 -1.1007694314365601E-01 a       461     1     3     2    11
 -1.2336596104186195E-01 a       462     1     3     2    12
 -2.9568762556378956E-03 a       463     1     3     2    13
  3.4753230475113234E-01 a       464     1     3     2    14
 -1.4958479168734126E-01 a       465     1     3     2    15
 -4.3343754641696264E-01 a       466     1     4     2     1
 -1.2855335518621008E-01 a       467     1     4     2     2
  1.8034004552604413E-01 a       468     1     4     2     3
 -3.1556858720126973E-01 a       469     1     4     2     4
  1.1628292580412170E-01 a       470     1     4     2     5
 -1.6577076391645260E-01 a       471     1     4     2     6
  6.8530405787441628E-02 a       472     1     4     2     7
 -2.6109603124469655E-01 a       473     1     4     2     8
  9.5798453740956746E-02 a       474     1     4     2     9
 -6.2061365007086144E-01 a       475     1     4     2    10
 -4.1313219856655958E-01 a       476     1     4     2    11
  2.4309907570170283E-01 a       477     1     4     2    12
 -1.3182859748444284E-01 a       478     1     4     2    13
  2.4727084714900652E-01 a       479     1     4     2    14
  3.9379174393348154E-01 a       480     1     4     2    15
  1.2499484057429537E-01 a       481     1     5     2     1
 -4.2077638272141360E-01 a       482     1     5     2     2
 -6.0304826755098950E-01 a       483     1     5     2     3
 -4.3087471755090462E-01 a       484     1     5     2     4
 -3.4596799180504695E-01 a       485     1     5     2     5
 -1.0225495764578339E-01 a       486     1     5     2     6
  8.7150256318961361E-01 a       487     1     5     2     7
 -2.2168632647289119E-02 a       488     1     5     2     8
  8.6445892438530195E-02 a       489     1     5     2     9
 -3.0062980379877574E-01 a       490     1     5     2    10
 -4.0624165137350433E-02 a       491     1     5     2    11
  3.2393633938415373E-01 a       492     1     5     2    12
  4.1778263113487957E-01 a       493     1     5     2    13
 -1.2379379655062589E-01 a       494     1     5     2    14
 -1.2028607932489090E-02 a       495     1     5     2    15
 -4.4907174338634925E-01 a       496     1     6     2     1
 -1.0615104484728822E-02 a       497     1     6     2     2
 -1.4865209446261626E-01 a       498     1     6     2     3
 -5.4337660980334346E-01 a       499     1     6     2     4
 -2.7741523465590873E-01 a       500     1     6     2     5
  8.3841688116905799E-01 a       501     1     6     2     6
  6.7016264416289439E-01 a       502     1     6     2     7
 -1.2037057212391040E-01 a       503     1     6     2     8
 -6.2720041145378091E-01 a       504     1     6     2     9
 -2.7189817474091164E-02 a       505     1     6     2    10
  1.2151891173541400E-01 a       506     1     6     2    11
  3.1356158944787077E-01 a       507     1     6     2    12
  4.1454527832635146E-01 a       508     1     6     2    13
  6.0834973279408858E-02 a       509     1     6     2    14
  2.7514841179822025E-01 a       510     1     6     2    15
 -1.1325661783023719E+00 a       511     1     7     2     1
  3.2331869701305319E-02 a       512     1     7     2     2
 -6.0169179556141239E-01 a       513     1     7     2     3
 -2.0808536508107492E-01 a       514     1     7     2     4
 -2.5698497355310157E-01 a       515     1     7     2     5
  7.3485105770443748E-01 a       516     1     7     2     6
 -3.1513457090054937E-02 a       517     1     7     2     7
  1.4327697037787981E-01 a       518     1     7     2     8
  1.0232264162377933E+00 a       519     1     7     2     9
 -1.6348073996663914E-01 a       520     1     7     2    10
 -5.4584421889717594E-01 a       521     1     7     2    11
 -2.1550731999703576E-01 a       522     1     7     2    12
  2.5642030046993708E-01 a       523     1     7     2    13
 -1.2690316435692195E-01 a       524     1     7     2    14
  6.9780363573281257E-01 a       525     1     7     2    15
 -5.8719407672353274E-01 a       526     1     8     2     1
  1.2558006019851778E-01 a       527     1     8     2     2
 -7.6491610152151357E-01 a       528     1     8     2     3
 -2.2125307190661234E-01 a       529     1     8     2     4
  1.0486359928897615E+00 a       530     1     8     2     5
  6.8785605133494887E-01 a       531     1     8     2     6
  8.9304084561905828E-01 a       532     1     8     2     7
 -2.5210509400206421E-01 a       533     1     8     2     8
 -3.7327477747985650E-02 a       534     1     8     2     9
  3.3173566228985146E-01 a       535     1     8     2    10
 -7.0946517177343504E-01 a       536     1     8     2    11
 -2.3378499967503880E-01 a       537     1     8     2    12
  1.3703715330503460E-01 a       538     1     8     2    13
 -2.9838605745357127E-01 a       539     1     8     2    14
  5.2634234916829237E-01 a       540     1     8     2    15
 -6.0522993476375775E-01 a       541     1     9     2     1
  2.4575065630589202E-01 a       542     1     9     2     2
 -2.8836721697969486E-01 a       543     1     9     2     3
 -4.3799140238176332E-01 a       544     1     9     2     4
  8.4544369223056948E-01 a       545     1     9     2     5
  5.0823974101618194E-02 a       546     1     9     2     6
  1.0432995170143324E+00 a       547     1     9     2     7
 -1.0139790098454039E-01 a       548     1     9     2     8
  9.0623015053470746E-01 a       549     1     9     2     9
  3.7991630610564722E-02 a       550     1     9     2    10
 -4.6926431734843044E-01 a       551     1     9     2    11
  1.8787872755265370E-01 a       552     1     9     2    12
  3.7374076802318695E-01 a       553     1     9     2    13
 -2.4228714976059126E-01 a       554     1     9     2    14
  7.6200580304322107E-01 a       555     1     9     2    15
  1.7981819349888164E+00 a       556     1    10     2     1
  1.4665804205770824E-01 a       557     1    10     2     2
  9.0905996631491748E-01 a       558     1    10     2     3
  2.6431179986033815E-01 a       559     1    10     2     4
 -2.3232395993629898E-01 a       560     1    10     2     5
 -1.1825718523215936E+00 a       561     1    10     2     6
 -2.3858866274451902E-02 a       562     1    10     2     7
 -2.1620580297874593E-02 a       563     1    10     2     8
 -5.7550543096973938E-01 a       564     1    10     2     9
 -4.7910558701559219E-01 a       565     1    10     2    10
  3.8382752573733742E-01 a       566     1    10     2    11
 -2.3762056705567230E-02 a       567     1    10     2    12
 -2.1040612541712433E-01 a       568     1    10     2    13
  3.4239220695798117E-01 a       569     1    10     2    14
 -2.1429884947635072E-01 a       570     1    10     2    15
 -1.3895010748024339E-01 a       571     1    11     2     1
 -4.8486260564133320E-02 a       572     1    11     2     2
 -5.1652993104385647E-01 a       573     1    11     2     3
  7.1062194273845136E-02 a       574     1    11     2     4
  3.1401050715994916E-01 a       575     1    11     2     5
  2.2567444934459455E-01 a       576     1    11     2     6
 -7.1970892735980363E-01 a       577     1    11     2     7
 -1.6962330723500851E-01 a       578     1    11     2     8
  2.8871202853817896E-01 a       579     1    11     2     9
  1.9688528341328923E-01 a       580     1    11     2    10
  1.5130834192341686E-01 a       581     1    11     2    11
  3.1208081927500975E-01 a       582     1    11     2    12
  2.1666394361228342E-01 a       583     1    11     2    13
  9.6000758693955524E-02 a       584     1    11     2    14
  4.0731400088406061E-01 a       585     1    11     2    15
  5.5381305362117672E-01 a       586     1    12     2     1
 -7.9704916045535049E-02 a       587     1    12     2     2
 -2.4906127594166771E-02 a       588     1    12     2     3
 -5.4614067060148141E-01 a       589     1    12     2     4
  1.3922302207259705E+00 a       590     1    12     2     5
 -2.9093368873168873E-01 a       591     1    12     2     6
  1.0829296246845839E-01 a       592     1    12     2     7
  1.2034544245600124E-03 a       593     1    12     2     8
 -4.0632806587770859E-01 a       594     1    12     2     9
  3.1497878157248410E-01 a       595     1    12     2    10
 -5.5924135049943435E-01 a       596     1    12     2    11
 -1.3008730014510528E-01 a       597     1    12     2    12
 -2.8558817883814991E-01 a       598     1    12     2    13
 -4.6290325620412437E-02 a       599     1    12     2    14
 -3.1984779708870048E-01 a       600     1    12     2    15
  1.5294887124471066E+00 a       601     1    13     2     1
  1.2694494111113727E-01 a       602     1    13     2     2
  6.7247933055491205E-02 a       603     1    13     2     3
 -2.5150654663660033E-01 a       604     1    13     2     4
 -9.7517320215330594E-01 a       605     1    13     2     5
 -3.7506445843466085E-01 a       606     1    13     2     6
  4.3810227131070084E-01 a       607     1    13     2     7
 -4.3807252580898154E-01 a       608     1    13     2     8
 -5.1961464494473319E-01 a       609     1    13     2     9
 -8.3266551995970661E-02 a       610     1    13     2    10
  8.0667307447147396E-02 a       611     1    13     2    11
 -2.7745263854075064E-01 a       612     1    13     2    12
 -3.2322626148572245E-02 a       613     1    13     2    13
  2.9069751170109687E-01 a       614     1    13     2    14
  1.3670019998932353E-01 a       615     1    13     2    15
  3.3589506751048803E-01 a       616     1    14     2     1
 -3.2464820195812066E-01 a       617     1    14     2     2
  4.9908716986762652E-01 a       618     1    14     2     3
  3.3466424181570487E-01 a       619     1    14     2     4
 -9.6072942093854596E-01 a       620     1    14     2     5
  3.1229915259755086E-02 a       621     1    14     2     6
 -4.3711334671187446E-01 a       622     1    14     2     7
 -1.1699473662928556E-01 a       623     1    14     2     8
 -1.1134244032182465E+00 a       624     1    14     2     9
  2.9989850679877032E-02 a       625     1    14     2    10
 -1.6134890542974747E-01 a       626     1    14     2    11
  4.2336374028068065E-02 a       627     1    14     2    12
 -2.1687695529852113E-01 a       628     1    14     2    13
  3.9239770750945667E-02 a       629     1    14     2    14
 -7.3196601073814593E-01 a       630     1    14     2    15
 -4.5271601505879307E-03 a       631     1    15     2     1
  1.3881388690414706E-01 a       632     1    15     2     2
 -2.3375805252445656E-01 a       633     1    15     2     3
  1.3996622058371466E-01 a       634     1    15     2     4
 -2.3708068467511018E-01 a       635     1    15     2     5
 -5.8100330460808182E-02 a       636     1    15     2     6
  5.4065992074137670E-01 a       637     1    15     2     7
 -3.1777395865095093E-01 a       638     1    15     2     8
 -5.3620435518351950E-01 a       639     1    15     2     9
  5.2199894070266162E-01 a       640     1    15     2    10
  1.1359895538378711E-01 a       641     1    15     2    11
  1.7069994461531324E-01 a       642     1    15     2    12
 -2.3525514774954286E-02 a       643     1    15     2    13
 -2.7988407524404352E-01 a       644     1    15     2    14
 -3.1215454303026663E-01 a       645     1    15     2    15
  1.4652351228694052E-01 b       646     2     1
 -9.6577032071490904E-02 b       647     2     2
  8.2376024587410071E-02 b       648     2     3
  1.4510708144492740E-01 b       649     2     4
 -3.9049127867874889E-01 b       650     2     5
  1.4201292385772604E-01 b       651     2     6
 -2.4583252620937265E-01 b       652     2     7
  9.3556211862906052E-02 b       653     2     8
 -1.4924904487212751E-01 b       654     2     9
 -2.1614934239174724E-01 b       655     2    10
  2.1352692475253698E-01 b       656     2    11
  2.4491312690854122E-03 b       657     2    12
 -2.6565725052780298E-01 b       658     2    13
 -1.1276763202700255E-01 b       659     2    14
  5.1621249347429277E-03 b       660     2    15
 -2.4162668450663314E+00 a       661     2     1     3     1
  2.5487933392218282E-01 a       662     2     2     3     1
 -1.3995010614126584E+00 a       663     2     3     3     1
 -9.7078732127554523E-01 a       664     2     4     3     1
  2.5073762873877969E+00 a       665     2     5     3     1
  1.2980830473822387E+00 a       666     2     6     3     1
  1.7932624525556753E+00 a       667     2     7     3     1
 -3.6241282564997351E-01 a       668     2     8     3     1
  1.4746873739677677E+00 a       669     2     9     3     1
  8.2877439550304144E-01 a       670     2    10     3     1
 -8.9454959613248719E-01 a       671     2    11     3     1
 -5.7584664908246222E-02 a       672     2    12     3     1
  6.4222398050106677E-01 a       673     2    13     3     1
 -3.4647782228631116E-02 a       674     2    14     3     1
  1.2657344986613126E+00 a       675     2    15     3     1
 -5.2796413368386985E-01 b       676     3     1
