################################################################################
# Neural network connection values (weights and biases).
################################################################################
# Col  Name       Description
################################################################################
# 1    connection Neural network connection value.
# 2    t          Connection type (a = weight, b = bias).
# 3    index      Index enumerating weights.
# 4    l_s        Starting point layer (end point layer for biases).
# 5    n_s        Starting point neuron in starting layer (end point neuron for biases).
# 6    l_e        End point layer.
# 7    n_e        End point neuron in end layer.
################################################################################
#                      1 2         3     4     5     6     7
#             connection t     index   l_s   n_s   l_e   n_e
############################################################
 -2.5400721472729532E-01 a         1     0     1     1     1
 -1.2438673831407230E+00 a         2     0     1     1     2
  6.3772958305643612E-01 a         3     0     1     1     3
 -2.2565211488476986E-01 a         4     0     1     1     4
 -6.1434913328766872E-03 a         5     0     1     1     5
  3.4563598082825664E-01 a         6     0     1     1     6
  1.7990208363908602E-01 a         7     0     1     1     7
  7.2207591139248761E-01 a         8     0     1     1     8
  2.3872107191972064E-01 a         9     0     1     1     9
  1.3285897474906609E+00 a        10     0     1     1    10
 -1.3806485062284032E-01 a        11     0     1     1    11
 -8.9462114691503017E-02 a        12     0     1     1    12
 -3.7653500463758904E-01 a        13     0     1     1    13
 -3.3604179754800778E-01 a        14     0     1     1    14
  1.6831768539383710E-01 a        15     0     1     1    15
  2.7690036849085731E-01 a        16     0     2     1     1
  5.8111741143989892E-01 a        17     0     2     1     2
  2.2506114017222273E-02 a        18     0     2     1     3
 -1.9648689728789900E-02 a        19     0     2     1     4
  3.1341462358272643E-01 a        20     0     2     1     5
  9.0651981698770274E-03 a        21     0     2     1     6
  5.3297632976674247E-01 a        22     0     2     1     7
 -7.0377360781109710E-01 a        23     0     2     1     8
  3.8147212894907651E-01 a        24     0     2     1     9
 -7.9458155850440623E-02 a        25     0     2     1    10
 -2.6192975630857507E-01 a        26     0     2     1    11
  4.0505317637336302E-01 a        27     0     2     1    12
  1.7498056330254119E-01 a        28     0     2     1    13
 -3.4605351276889273E-01 a        29     0     2     1    14
  5.6082840537111947E-02 a        30     0     2     1    15
 -2.3867866708903529E-01 a        31     0     3     1     1
 -1.0169687782764800E+00 a        32     0     3     1     2
 -3.0915150618084610E-02 a        33     0     3     1     3
 -1.5379088425791018E-01 a        34     0     3     1     4
 -3.3091220308780656E-01 a        35     0     3     1     5
  2.0550476375501464E-01 a        36     0     3     1     6
 -7.5065089225877984E-02 a        37     0     3     1     7
  9.0155938219937497E-03 a        38     0     3     1     8
  4.4298520633787708E-01 a        39     0     3     1     9
  7.3525240170993367E-01 a        40     0     3     1    10
  8.9980828476192293E-02 a        41     0     3     1    11
  1.1916646813271234E-01 a        42     0     3     1    12
 -4.3929552699239233E-02 a        43     0     3     1    13
 -1.6995742523517360E-01 a        44     0     3     1    14
 -1.4105366604952158E-01 a        45     0     3     1    15
  2.1382198115155140E-01 a        46     0     4     1     1
  1.4508304043153833E-01 a        47     0     4     1     2
 -2.1402233003923302E-01 a        48     0     4     1     3
  3.2570579629506136E-01 a        49     0     4     1     4
 -2.3369367560042992E-01 a        50     0     4     1     5
 -2.1677778559751448E-01 a        51     0     4     1     6
  1.0146246041700675E-01 a        52     0     4     1     7
 -3.9397793373945122E-01 a        53     0     4     1     8
  3.0183761045486202E-01 a        54     0     4     1     9
 -4.5952713321681132E-01 a        55     0     4     1    10
 -1.3973133575679902E-01 a        56     0     4     1    11
  5.2743124488043047E-01 a        57     0     4     1    12
  1.7013863575295388E-01 a        58     0     4     1    13
 -7.3493155902257162E-02 a        59     0     4     1    14
  3.9754147249429383E-02 a        60     0     4     1    15
 -2.6169366066066635E-01 a        61     0     5     1     1
 -5.9307731804195829E-01 a        62     0     5     1     2
  2.9749369203204340E-01 a        63     0     5     1     3
  7.8323365403505846E-02 a        64     0     5     1     4
 -7.1437013330989119E-02 a        65     0     5     1     5
  1.2222613474122609E-02 a        66     0     5     1     6
 -1.8605991555614637E-01 a        67     0     5     1     7
  3.1632832530506375E-02 a        68     0     5     1     8
 -1.4126945663705123E-01 a        69     0     5     1     9
  6.0387049559103512E-01 a        70     0     5     1    10
 -8.2620960924398398E-02 a        71     0     5     1    11
 -2.7648274498126200E-02 a        72     0     5     1    12
  3.8526111124070900E-01 a        73     0     5     1    13
 -7.7820391371142453E-02 a        74     0     5     1    14
  3.4295692880642065E-01 a        75     0     5     1    15
  5.7726303916786803E-01 a        76     0     6     1     1
  6.1276272514205414E-02 a        77     0     6     1     2
 -5.1017238135739806E-01 a        78     0     6     1     3
  1.3312299853326798E-03 a        79     0     6     1     4
  1.7179997240026035E-01 a        80     0     6     1     5
 -2.1341708052245617E-01 a        81     0     6     1     6
  3.9283543797463638E-01 a        82     0     6     1     7
 -9.7356852370242788E-02 a        83     0     6     1     8
  2.9257095783435078E-01 a        84     0     6     1     9
  4.9797079987689237E-02 a        85     0     6     1    10
 -7.1632530317886606E-02 a        86     0     6     1    11
  5.7070258697604001E-04 a        87     0     6     1    12
 -7.7001322384403728E-02 a        88     0     6     1    13
 -2.1430829010113089E-01 a        89     0     6     1    14
 -4.2039330020876321E-02 a        90     0     6     1    15
  6.7488807245879448E-03 a        91     0     7     1     1
  5.4686763030813525E-02 a        92     0     7     1     2
  5.4303913809313389E-02 a        93     0     7     1     3
 -5.5067420460348272E-04 a        94     0     7     1     4
  2.3680638748039387E-01 a        95     0     7     1     5
  1.0488052129080419E-01 a        96     0     7     1     6
 -1.5160492738240208E-01 a        97     0     7     1     7
 -1.4268690767117906E-01 a        98     0     7     1     8
  2.9513040077236929E-01 a        99     0     7     1     9
 -4.2673384064557326E-03 a       100     0     7     1    10
  5.5340404129759886E-02 a       101     0     7     1    11
 -4.1240547040314018E-01 a       102     0     7     1    12
  4.2197542187180459E-01 a       103     0     7     1    13
 -1.1598291834852295E-01 a       104     0     7     1    14
  3.2482035766923811E-01 a       105     0     7     1    15
 -1.4981114023170063E-02 a       106     0     8     1     1
  1.2448850487541258E-01 a       107     0     8     1     2
 -5.2491755010397601E-01 a       108     0     8     1     3
  4.1236951066430499E-01 a       109     0     8     1     4
 -3.8123495361157304E-03 a       110     0     8     1     5
 -3.5681936241148421E-01 a       111     0     8     1     6
  3.3033691377453506E-01 a       112     0     8     1     7
 -2.6283650793563579E-01 a       113     0     8     1     8
  3.8234523486902744E-01 a       114     0     8     1     9
 -9.1600701701679638E-02 a       115     0     8     1    10
  3.0335619900019895E-01 a       116     0     8     1    11
  4.7874215448840809E-02 a       117     0     8     1    12
  1.7780601629813142E-01 a       118     0     8     1    13
  3.5864102111519619E-01 a       119     0     8     1    14
 -5.2830422727470827E-01 a       120     0     8     1    15
  3.5759833438569943E-01 a       121     0     9     1     1
  4.3852985381712262E-01 a       122     0     9     1     2
 -4.2760019520127357E-01 a       123     0     9     1     3
 -2.8079503839868170E-01 a       124     0     9     1     4
 -6.2541732468861255E-01 a       125     0     9     1     5
 -5.2955630401971188E-01 a       126     0     9     1     6
  4.8165138468213645E-02 a       127     0     9     1     7
 -4.8525819905416837E-02 a       128     0     9     1     8
 -1.0308977034690588E-01 a       129     0     9     1     9
  2.7115825686767503E-01 a       130     0     9     1    10
  2.2614022162863345E-01 a       131     0     9     1    11
 -3.7775749044048945E-01 a       132     0     9     1    12
  3.5543851957081901E-01 a       133     0     9     1    13
  5.7652976043446247E-01 a       134     0     9     1    14
 -1.0048043514544744E-01 a       135     0     9     1    15
  1.0275942409687239E-01 a       136     0    10     1     1
  3.4569758171291426E-01 a       137     0    10     1     2
  1.0865514487554341E-01 a       138     0    10     1     3
  3.8857642266678497E-02 a       139     0    10     1     4
  1.2579433036204285E-01 a       140     0    10     1     5
  4.0181343761025068E-01 a       141     0    10     1     6
 -1.9917003975980169E-01 a       142     0    10     1     7
 -2.1936695746498788E-01 a       143     0    10     1     8
  3.0173997864030783E-01 a       144     0    10     1     9
 -4.2086074447154198E-01 a       145     0    10     1    10
 -1.4046909397120705E-01 a       146     0    10     1    11
 -4.0342893730264118E-01 a       147     0    10     1    12
  7.3820379355540089E-01 a       148     0    10     1    13
  4.3642238696526697E-02 a       149     0    10     1    14
 -1.5842745026822305E-01 a       150     0    10     1    15
  4.0445487597878188E-01 a       151     0    11     1     1
 -1.5352544263729473E-01 a       152     0    11     1     2
 -1.3548770616956782E-01 a       153     0    11     1     3
  3.0917361921315706E-01 a       154     0    11     1     4
  3.0266413969953075E-02 a       155     0    11     1     5
 -6.3554927836487107E-01 a       156     0    11     1     6
  7.2028730213417172E-02 a       157     0    11     1     7
  1.6475620401123903E-01 a       158     0    11     1     8
 -7.2303805973203239E-02 a       159     0    11     1     9
  3.7117202896797519E-01 a       160     0    11     1    10
 -1.0636996111492231E-01 a       161     0    11     1    11
 -5.2405517048586446E-02 a       162     0    11     1    12
 -3.0664006208154637E-01 a       163     0    11     1    13
  1.0886251107920858E-01 a       164     0    11     1    14
 -3.8469660795066285E-01 a       165     0    11     1    15
  9.0964941808971814E-02 a       166     0    12     1     1
  3.7810746107382408E-02 a       167     0    12     1     2
 -3.8568994710285319E-02 a       168     0    12     1     3
  4.4555940141797840E-01 a       169     0    12     1     4
  7.1535031987173858E-01 a       170     0    12     1     5
  8.8045165545696611E-03 a       171     0    12     1     6
 -8.0559049702021956E-01 a       172     0    12     1     7
 -3.3982807444362426E-02 a       173     0    12     1     8
  1.4678049471320878E-01 a       174     0    12     1     9
 -4.9519446036545905E-01 a       175     0    12     1    10
 -2.6841057468591424E-02 a       176     0    12     1    11
 -4.6287691368586165E-01 a       177     0    12     1    12
  7.9521089774380171E-01 a       178     0    12     1    13
  4.7037122249340874E-01 a       179     0    12     1    14
  4.0268646295308635E-01 a       180     0    12     1    15
  5.1907279657345422E-02 a       181     0    13     1     1
  6.9270708083708943E-02 a       182     0    13     1     2
  1.6636988049661522E-01 a       183     0    13     1     3
  8.2154669002869850E-03 a       184     0    13     1     4
 -1.7346280635000939E-02 a       185     0    13     1     5
  1.0143025200898267E-01 a       186     0    13     1     6
  1.1484448592070595E+00 a       187     0    13     1     7
  6.4106603193001526E-03 a       188     0    13     1     8
 -1.6923290406874425E-01 a       189     0    13     1     9
 -7.3488675396828934E-02 a       190     0    13     1    10
 -1.5627492467884668E-01 a       191     0    13     1    11
  5.1701141866447142E-02 a       192     0    13     1    12
  1.0671824979852121E-01 a       193     0    13     1    13
  5.6909633915501723E-01 a       194     0    13     1    14
  9.9310602270929554E-02 a       195     0    13     1    15
  1.0646078157351327E-01 a       196     0    14     1     1
  3.5310569851186219E-02 a       197     0    14     1     2
  1.8907901686012513E-01 a       198     0    14     1     3
  3.8181073161053436E-01 a       199     0    14     1     4
  2.0050768098602967E-01 a       200     0    14     1     5
  6.3964846691167743E-01 a       201     0    14     1     6
 -7.8126305406407615E-01 a       202     0    14     1     7
 -2.3448031467581784E-01 a       203     0    14     1     8
 -3.6308354784551972E-01 a       204     0    14     1     9
  9.2998913293855234E-02 a       205     0    14     1    10
  1.1493774783557381E-01 a       206     0    14     1    11
 -6.3897105117936021E-03 a       207     0    14     1    12
 -4.6459278398422510E-02 a       208     0    14     1    13
 -4.6712466184513984E-01 a       209     0    14     1    14
  8.0305884513788311E-02 a       210     0    14     1    15
 -2.6543611088382452E-01 a       211     0    15     1     1
  2.4196623750622032E-01 a       212     0    15     1     2
 -4.0280881265262092E-01 a       213     0    15     1     3
  4.7772213716775430E-01 a       214     0    15     1     4
  1.3664628261694825E-01 a       215     0    15     1     5
  2.6002687124313689E-01 a       216     0    15     1     6
  5.7985687348419690E-01 a       217     0    15     1     7
 -4.0591598420871045E-01 a       218     0    15     1     8
  1.3368041171485503E+00 a       219     0    15     1     9
  2.3782666186113945E-02 a       220     0    15     1    10
 -4.5237818730543367E-01 a       221     0    15     1    11
 -4.7150868792293160E-02 a       222     0    15     1    12
 -8.4254235571336489E-02 a       223     0    15     1    13
  3.9567585272141839E-02 a       224     0    15     1    14
  3.8082572129701420E-01 a       225     0    15     1    15
 -5.6551711911276958E-01 a       226     0    16     1     1
 -4.4784326436796515E-02 a       227     0    16     1     2
  5.8902019261380237E-02 a       228     0    16     1     3
  3.2560047951904608E-01 a       229     0    16     1     4
  4.3584060229847682E-01 a       230     0    16     1     5
 -6.0192065728265809E-01 a       231     0    16     1     6
  1.7670927400516137E+00 a       232     0    16     1     7
 -2.7189210993312590E-01 a       233     0    16     1     8
  3.8319096783893120E-01 a       234     0    16     1     9
  6.5049550682917234E-02 a       235     0    16     1    10
 -7.3067496452213576E-01 a       236     0    16     1    11
  1.8161037177672013E-01 a       237     0    16     1    12
 -6.4176053362756857E-01 a       238     0    16     1    13
 -6.4386088714200729E-01 a       239     0    16     1    14
 -7.6341333487707874E-01 a       240     0    16     1    15
  3.1151609146619375E-01 a       241     0    17     1     1
  1.4166454935360820E-01 a       242     0    17     1     2
  9.2679753056647080E-02 a       243     0    17     1     3
 -3.1282689049925448E-02 a       244     0    17     1     4
 -6.0805422382406049E-01 a       245     0    17     1     5
 -2.3652561127225416E-01 a       246     0    17     1     6
 -3.7972045856648551E-01 a       247     0    17     1     7
 -1.9625379437270590E-01 a       248     0    17     1     8
 -2.2685251758923591E-01 a       249     0    17     1     9
 -1.7011932833712506E-01 a       250     0    17     1    10
 -2.8975735519143297E-01 a       251     0    17     1    11
 -6.7600022930356066E-02 a       252     0    17     1    12
  3.3334764199763067E-01 a       253     0    17     1    13
  4.0654705750108738E-02 a       254     0    17     1    14
 -7.6485296199558697E-02 a       255     0    17     1    15
  2.4446213609384509E-01 a       256     0    18     1     1
 -6.6406358060006021E-01 a       257     0    18     1     2
 -4.5399035198709647E-01 a       258     0    18     1     3
  1.3340424397687259E-01 a       259     0    18     1     4
  2.4847054332844812E-01 a       260     0    18     1     5
  7.4316608178867571E-01 a       261     0    18     1     6
  8.7673094616579172E-01 a       262     0    18     1     7
 -7.0021235301118689E-01 a       263     0    18     1     8
  7.7278138520107814E-02 a       264     0    18     1     9
  3.4451162361683468E-01 a       265     0    18     1    10
 -2.2565764603212177E-01 a       266     0    18     1    11
  1.0923078707367426E+00 a       267     0    18     1    12
 -6.2276564491973774E-01 a       268     0    18     1    13
 -5.9629082257778121E-01 a       269     0    18     1    14
  8.0167425521966110E-02 a       270     0    18     1    15
 -1.0873970560872137E-01 a       271     0    19     1     1
 -6.8387215607322349E-01 a       272     0    19     1     2
  1.0513639774031756E+00 a       273     0    19     1     3
 -1.0029569154859548E+00 a       274     0    19     1     4
  8.7620132128367234E-01 a       275     0    19     1     5
  2.2200559778741702E-01 a       276     0    19     1     6
  2.9100224283954673E-01 a       277     0    19     1     7
 -1.5447973810809013E-01 a       278     0    19     1     8
  2.9115501781791020E-01 a       279     0    19     1     9
 -5.5200982343101379E-01 a       280     0    19     1    10
 -4.7139851944587019E-01 a       281     0    19     1    11
  1.8222417141244437E-01 a       282     0    19     1    12
 -4.6570730048623049E-01 a       283     0    19     1    13
 -6.1984558594115080E-01 a       284     0    19     1    14
  4.0736350020181424E-02 a       285     0    19     1    15
  8.1534953645548108E-02 a       286     0    20     1     1
  1.3275087666442906E-01 a       287     0    20     1     2
 -1.4254369808908679E-02 a       288     0    20     1     3
 -1.6813945823251830E-01 a       289     0    20     1     4
  1.0733811654336954E-02 a       290     0    20     1     5
 -3.4686045090330209E-01 a       291     0    20     1     6
  1.0933622049558475E-01 a       292     0    20     1     7
 -1.1890911447782472E-01 a       293     0    20     1     8
  4.4252616872477923E-01 a       294     0    20     1     9
  1.1154310665803555E-01 a       295     0    20     1    10
 -6.5554856232091685E-01 a       296     0    20     1    11
  6.0836409145486869E-01 a       297     0    20     1    12
 -5.8788731363884705E-01 a       298     0    20     1    13
 -1.9599876383093154E-01 a       299     0    20     1    14
 -1.7985371622702440E-01 a       300     0    20     1    15
  6.6157768386249372E-01 a       301     0    21     1     1
  2.9499610254435371E-01 a       302     0    21     1     2
 -1.9639066421921028E-01 a       303     0    21     1     3
  8.6425327066189617E-01 a       304     0    21     1     4
 -4.1496946132495804E-01 a       305     0    21     1     5
  3.4796425617330079E-01 a       306     0    21     1     6
  2.7989453767380129E-01 a       307     0    21     1     7
 -9.1891603453931298E-02 a       308     0    21     1     8
 -1.0323362894984787E+00 a       309     0    21     1     9
 -8.3826169018523833E-01 a       310     0    21     1    10
  6.7734537325318689E-01 a       311     0    21     1    11
 -5.4413910698342827E-01 a       312     0    21     1    12
  8.3564181470270921E-02 a       313     0    21     1    13
  6.2656510722338588E-01 a       314     0    21     1    14
  2.6579699191913075E-01 a       315     0    21     1    15
  6.0398815130938845E-02 a       316     0    22     1     1
  3.7941533875594530E-01 a       317     0    22     1     2
 -3.4150626988574678E-01 a       318     0    22     1     3
  1.8527785939222050E-01 a       319     0    22     1     4
 -6.9053209075543354E-01 a       320     0    22     1     5
 -1.7496604542560051E-01 a       321     0    22     1     6
 -5.1556690579385556E-01 a       322     0    22     1     7
 -2.9634228435787213E-01 a       323     0    22     1     8
  1.5719660799303795E-01 a       324     0    22     1     9
  3.3039842025132377E-01 a       325     0    22     1    10
 -1.2418852690506677E-01 a       326     0    22     1    11
 -1.0006827934402293E-01 a       327     0    22     1    12
  3.9264749903727220E-01 a       328     0    22     1    13
  4.2250517107878638E-01 a       329     0    22     1    14
  1.7956592098404278E-02 a       330     0    22     1    15
  3.1720765918965727E-01 a       331     0    23     1     1
 -1.6541182085655470E-01 a       332     0    23     1     2
  4.1062115436338326E-01 a       333     0    23     1     3
 -3.5781416248600778E-01 a       334     0    23     1     4
  4.5806700569138442E-01 a       335     0    23     1     5
  1.2414735689960332E-01 a       336     0    23     1     6
 -1.3708987224267213E-01 a       337     0    23     1     7
 -2.3828528655797696E-01 a       338     0    23     1     8
  3.2166984092574302E-01 a       339     0    23     1     9
 -3.1033446459215291E-01 a       340     0    23     1    10
 -3.8405990972584830E-01 a       341     0    23     1    11
 -2.4964325118397598E-01 a       342     0    23     1    12
  8.3900441069342732E-02 a       343     0    23     1    13
 -4.7531235912934011E-01 a       344     0    23     1    14
 -2.2613008035812751E-01 a       345     0    23     1    15
  7.8975110056344011E-01 a       346     0    24     1     1
  6.7500051021556172E-03 a       347     0    24     1     2
 -8.6697718782178312E-01 a       348     0    24     1     3
  3.4260276946099855E-01 a       349     0    24     1     4
 -2.5896306330313706E-01 a       350     0    24     1     5
  3.2017927384679867E-01 a       351     0    24     1     6
  4.8906714667288015E-01 a       352     0    24     1     7
 -9.1748858148969870E-01 a       353     0    24     1     8
 -3.7047357443288631E-02 a       354     0    24     1     9
  6.1501021706853481E-02 a       355     0    24     1    10
  1.9988375196275951E-01 a       356     0    24     1    11
  1.0626318105660479E+00 a       357     0    24     1    12
 -2.7722900166973796E-01 a       358     0    24     1    13
  5.3674478529628655E-01 a       359     0    24     1    14
  2.6207642391566685E-02 a       360     0    24     1    15
  2.1724100926143841E-01 a       361     0    25     1     1
  4.9985143733767473E-01 a       362     0    25     1     2
 -3.5249056892639685E-01 a       363     0    25     1     3
  1.5301552949014432E+00 a       364     0    25     1     4
 -4.9095817876134001E-01 a       365     0    25     1     5
  1.6522107320210383E-01 a       366     0    25     1     6
  9.0409957388205020E-01 a       367     0    25     1     7
  8.2182206484856784E-03 a       368     0    25     1     8
 -8.9325386097641479E-01 a       369     0    25     1     9
 -3.8896414043964389E-01 a       370     0    25     1    10
  4.2712014360916112E-01 a       371     0    25     1    11
 -6.7053650800731002E-01 a       372     0    25     1    12
  3.0474192669815559E-01 a       373     0    25     1    13
  3.9442355464764012E-01 a       374     0    25     1    14
  4.7457526638776310E-01 a       375     0    25     1    15
  8.2878719113190713E-01 a       376     0    26     1     1
 -2.2065431180929571E-01 a       377     0    26     1     2
  9.7653672631522984E-02 a       378     0    26     1     3
 -2.7455865402976132E-01 a       379     0    26     1     4
  1.2082354581149479E-01 a       380     0    26     1     5
  6.1904589654845377E-01 a       381     0    26     1     6
 -4.0163360222973538E-01 a       382     0    26     1     7
 -2.7559789102588228E-01 a       383     0    26     1     8
 -1.6526014898692515E-01 a       384     0    26     1     9
 -8.5491198013213685E-02 a       385     0    26     1    10
 -4.8104349060527202E-01 a       386     0    26     1    11
  7.9161190099274012E-02 a       387     0    26     1    12
  1.0543786333002730E-01 a       388     0    26     1    13
  3.8529495738316466E-01 a       389     0    26     1    14
 -6.7623785948172999E-01 a       390     0    26     1    15
  5.4867962551072036E-01 a       391     0    27     1     1
  2.7149875688020392E-01 a       392     0    27     1     2
 -5.3594061814946514E-01 a       393     0    27     1     3
 -8.2087480465257323E-01 a       394     0    27     1     4
 -6.4868747980011271E-02 a       395     0    27     1     5
 -3.3660787131577835E-01 a       396     0    27     1     6
 -5.8800965938681238E-01 a       397     0    27     1     7
  4.6046622331147641E-01 a       398     0    27     1     8
  4.1625285864636291E-01 a       399     0    27     1     9
  3.2062520267197397E-01 a       400     0    27     1    10
 -4.9741447147436235E-01 a       401     0    27     1    11
 -5.9716336551888113E-02 a       402     0    27     1    12
  2.0615841514714103E-01 a       403     0    27     1    13
  6.5269573120602509E-01 a       404     0    27     1    14
 -9.4553327405058807E-01 a       405     0    27     1    15
 -2.7449568661249141E-01 a       406     0    28     1     1
 -2.4913078784244080E-01 a       407     0    28     1     2
 -2.5821471252922923E-01 a       408     0    28     1     3
 -3.3345162859230226E-01 a       409     0    28     1     4
 -1.1062016073844754E+00 a       410     0    28     1     5
  7.7697009565595865E-01 a       411     0    28     1     6
  6.6484803772222745E-01 a       412     0    28     1     7
  8.7423920291596968E-01 a       413     0    28     1     8
 -1.7870779278356350E-01 a       414     0    28     1     9
  5.6217560628034613E-01 a       415     0    28     1    10
  3.8998753252732093E-01 a       416     0    28     1    11
 -3.4548101705760786E-01 a       417     0    28     1    12
  2.9827312875942991E-01 a       418     0    28     1    13
 -2.6347367915352882E-01 a       419     0    28     1    14
  4.0378804261178805E-02 a       420     0    28     1    15
  7.1725245394515372E-02 b       421     1     1
 -7.8874820021796377E-01 b       422     1     2
  1.3282401467554328E-02 b       423     1     3
  8.4419689161364830E-02 b       424     1     4
  5.9715252940469044E-01 b       425     1     5
  1.1877074271866447E-01 b       426     1     6
 -8.9881532438828893E-01 b       427     1     7
 -1.7859449250470721E-01 b       428     1     8
 -7.0079868305656057E-01 b       429     1     9
  4.7320459187716518E-01 b       430     1    10
 -7.7302942636206784E-01 b       431     1    11
  1.0930940142465981E-01 b       432     1    12
  1.0409337138770214E+00 b       433     1    13
  7.8743085734154961E-01 b       434     1    14
  7.3933014820656562E-01 b       435     1    15
 -1.0963813104387167E-01 a       436     1     1     2     1
 -1.4602521158381845E-01 a       437     1     1     2     2
  3.5333497144658943E-01 a       438     1     1     2     3
  9.6738690310591424E-01 a       439     1     1     2     4
 -7.0201204177424592E-02 a       440     1     1     2     5
 -1.2909336964712866E-02 a       441     1     1     2     6
  1.0711241008759986E-02 a       442     1     1     2     7
  3.8615357285410823E-01 a       443     1     1     2     8
  3.8136676759429800E-01 a       444     1     1     2     9
  9.4618652981863144E-02 a       445     1     1     2    10
  1.0966803991658389E-01 a       446     1     1     2    11
  1.4560213161048985E-01 a       447     1     1     2    12
 -1.1775498076448385E-01 a       448     1     1     2    13
  1.0846563113648342E+00 a       449     1     1     2    14
 -1.2675232621091495E-01 a       450     1     1     2    15
 -8.3752374664113982E-01 a       451     1     2     2     1
 -4.2570448314970100E-01 a       452     1     2     2     2
 -1.9399910947522492E-01 a       453     1     2     2     3
  5.2931010187947358E-01 a       454     1     2     2     4
  7.9403122195501041E-01 a       455     1     2     2     5
  1.9654062540998521E-01 a       456     1     2     2     6
  4.0276895989151823E-04 a       457     1     2     2     7
  6.1891605853130971E-01 a       458     1     2     2     8
  2.0887281702196836E-01 a       459     1     2     2     9
 -1.2040453550393385E-01 a       460     1     2     2    10
  3.4026807846135271E-01 a       461     1     2     2    11
  4.0307561955013160E-01 a       462     1     2     2    12
 -2.0743554570383163E-01 a       463     1     2     2    13
 -2.4665195337910589E-01 a       464     1     2     2    14
 -1.5551913209768337E-01 a       465     1     2     2    15
  6.0756712552934444E-01 a       466     1     3     2     1
  1.0406917397530873E+00 a       467     1     3     2     2
  1.0604262479470976E+00 a       468     1     3     2     3
 -4.5484925289760419E-01 a       469     1     3     2     4
 -4.5149604119236569E-01 a       470     1     3     2     5
 -4.0423161034990607E-01 a       471     1     3     2     6
 -4.8211508860279018E-01 a       472     1     3     2     7
  4.0328554974020808E-01 a       473     1     3     2     8
  2.1395566339713795E-01 a       474     1     3     2     9
  7.0508615818755199E-02 a       475     1     3     2    10
  1.9795015801032204E-01 a       476     1     3     2    11
 -4.8122074763361139E-01 a       477     1     3     2    12
  1.7955254439026633E+00 a       478     1     3     2    13
  2.5351290523379816E-01 a       479     1     3     2    14
  4.7123747878529898E-01 a       480     1     3     2    15
 -7.8710213716498834E-03 a       481     1     4     2     1
  5.2308360516878893E-01 a       482     1     4     2     2
 -4.8134388095865621E-01 a       483     1     4     2     3
 -6.3095216442426560E-01 a       484     1     4     2     4
 -1.3230339692656301E-01 a       485     1     4     2     5
 -7.5304623139270223E-03 a       486     1     4     2     6
  7.8301399812865580E-01 a       487     1     4     2     7
 -3.3070518763952161E-01 a       488     1     4     2     8
 -3.9287696469527672E-01 a       489     1     4     2     9
 -2.9270951872798529E-01 a       490     1     4     2    10
 -5.8914319589692765E-01 a       491     1     4     2    11
  3.6899268435763311E-01 a       492     1     4     2    12
  4.2975187077121224E-01 a       493     1     4     2    13
  5.7171628995462664E-01 a       494     1     4     2    14
  8.5701161026357553E-02 a       495     1     4     2    15
  8.1206550261695010E-01 a       496     1     5     2     1
  5.9689444672321923E-01 a       497     1     5     2     2
 -5.6467928479451279E-01 a       498     1     5     2     3
  5.1612476233459925E-01 a       499     1     5     2     4
  2.7220907432221841E-01 a       500     1     5     2     5
 -2.3677316818713524E-02 a       501     1     5     2     6
 -7.8963421743857537E-02 a       502     1     5     2     7
 -6.8188349081974864E-01 a       503     1     5     2     8
 -1.1957403638665746E-01 a       504     1     5     2     9
  1.3248763040988609E-01 a       505     1     5     2    10
 -4.0131783835451873E-01 a       506     1     5     2    11
 -1.2138629653960578E-01 a       507     1     5     2    12
  8.6498361054916950E-01 a       508     1     5     2    13
  2.6754852822787384E-01 a       509     1     5     2    14
 -5.5289964373967371E-01 a       510     1     5     2    15
 -3.3638225374668124E-01 a       511     1     6     2     1
 -2.7757340845763906E-01 a       512     1     6     2     2
  5.1055544548874987E-01 a       513     1     6     2     3
  1.2341677468432946E+00 a       514     1     6     2     4
 -1.9888098367734156E-03 a       515     1     6     2     5
 -2.5762571772162801E-01 a       516     1     6     2     6
 -2.8588581662943557E-01 a       517     1     6     2     7
  7.8588170594618700E-01 a       518     1     6     2     8
 -3.2910761393941329E-01 a       519     1     6     2     9
 -6.6663164609088865E-01 a       520     1     6     2    10
  6.8238603924633912E-01 a       521     1     6     2    11
  6.1130339543081391E-02 a       522     1     6     2    12
  4.3379883711337019E-01 a       523     1     6     2    13
 -7.7858078810228415E-01 a       524     1     6     2    14
  1.0329817353081372E+00 a       525     1     6     2    15
 -4.2756062153449917E-02 a       526     1     7     2     1
  4.5623202527101925E-01 a       527     1     7     2     2
 -6.7048037972728258E-01 a       528     1     7     2     3
 -4.3564153767269603E-01 a       529     1     7     2     4
 -1.0023735973622057E-02 a       530     1     7     2     5
 -6.5308459744487009E-03 a       531     1     7     2     6
 -9.9758033939556456E-01 a       532     1     7     2     7
  3.0948629085533741E-01 a       533     1     7     2     8
  8.2901898205704494E-01 a       534     1     7     2     9
  4.6012334164409985E-01 a       535     1     7     2    10
  2.1485384167744443E-02 a       536     1     7     2    11
 -4.6128422108484995E-01 a       537     1     7     2    12
 -2.5891439024717150E-01 a       538     1     7     2    13
  3.6305723234484211E-01 a       539     1     7     2    14
 -2.1074250401300976E-01 a       540     1     7     2    15
 -1.0756998651983372E+00 a       541     1     8     2     1
  5.4128907278429686E-02 a       542     1     8     2     2
  6.8589851745916597E-01 a       543     1     8     2     3
  1.2111687780327194E+00 a       544     1     8     2     4
 -6.8606154666513749E-02 a       545     1     8     2     5
 -1.2320931239609213E-01 a       546     1     8     2     6
  5.1094108476781708E-01 a       547     1     8     2     7
 -3.3899494128019120E-01 a       548     1     8     2     8
  3.2964430974670655E-01 a       549     1     8     2     9
 -7.1130437027975738E-02 a       550     1     8     2    10
 -3.3529301197354705E-01 a       551     1     8     2    11
  4.7410332651031523E-01 a       552     1     8     2    12
  2.5966328173375913E-01 a       553     1     8     2    13
  7.1419163356079185E-01 a       554     1     8     2    14
  5.1320017037738386E-01 a       555     1     8     2    15
  7.2020508597902066E-01 a       556     1     9     2     1
  3.5318442246353660E-01 a       557     1     9     2     2
  3.7037291183464460E-01 a       558     1     9     2     3
  3.8412281079947500E-02 a       559     1     9     2     4
  6.9286211046332413E-01 a       560     1     9     2     5
 -2.2027818466805793E-01 a       561     1     9     2     6
  8.7743495683690975E-01 a       562     1     9     2     7
  4.3621834173257226E-02 a       563     1     9     2     8
 -2.6791210836245649E-01 a       564     1     9     2     9
  1.3623036437961282E+00 a       565     1     9     2    10
  5.1755181054714583E-01 a       566     1     9     2    11
  4.9149906064222804E-01 a       567     1     9     2    12
  1.4065518659829150E+00 a       568     1     9     2    13
  2.5208888717977891E-02 a       569     1     9     2    14
 -1.2187962086566866E+00 a       570     1     9     2    15
 -9.8212335797527706E-01 a       571     1    10     2     1
  2.4384992289602736E-01 a       572     1    10     2     2
  1.8804377581401596E-01 a       573     1    10     2     3
  4.9141103891683691E-02 a       574     1    10     2     4
 -6.6012873461565047E-01 a       575     1    10     2     5
 -1.1873277755026951E-01 a       576     1    10     2     6
  6.4391425070424513E-01 a       577     1    10     2     7
 -9.8103975742879337E-02 a       578     1    10     2     8
  6.9014948058362691E-01 a       579     1    10     2     9
 -9.7258364339000691E-01 a       580     1    10     2    10
 -1.0087674452794332E-01 a       581     1    10     2    11
 -7.7080369381454117E-01 a       582     1    10     2    12
 -4.7373787984278909E-01 a       583     1    10     2    13
 -1.9273386759313224E-01 a       584     1    10     2    14
 -3.0868567799483082E-01 a       585     1    10     2    15
 -3.3175753168632832E-01 a       586     1    11     2     1
 -7.3228437830508153E-01 a       587     1    11     2     2
 -2.3828960112863504E-01 a       588     1    11     2     3
  3.9027701092474762E-02 a       589     1    11     2     4
  7.5028239894810800E-01 a       590     1    11     2     5
  4.3972144231558097E-01 a       591     1    11     2     6
  4.9269983362904368E-01 a       592     1    11     2     7
 -9.1080501869015507E-02 a       593     1    11     2     8
 -4.3510743641023120E-01 a       594     1    11     2     9
  2.2770274714641037E-01 a       595     1    11     2    10
  5.5309998264031146E-01 a       596     1    11     2    11
 -7.6367933013155076E-01 a       597     1    11     2    12
  7.1626790207365509E-01 a       598     1    11     2    13
  1.0067727435641818E+00 a       599     1    11     2    14
  2.5895082653641077E-01 a       600     1    11     2    15
  9.4717228089322786E-02 a       601     1    12     2     1
  8.7050151859367420E-01 a       602     1    12     2     2
 -1.4483530110617919E+00 a       603     1    12     2     3
 -1.1387778987998860E-01 a       604     1    12     2     4
  2.0591117237015497E-01 a       605     1    12     2     5
 -9.2867189221055613E-01 a       606     1    12     2     6
  8.1236425087169650E-01 a       607     1    12     2     7
 -4.3995608843725753E-01 a       608     1    12     2     8
 -9.0664941243952846E-01 a       609     1    12     2     9
  4.6999835375650550E-01 a       610     1    12     2    10
 -4.4410298811052573E-01 a       611     1    12     2    11
  2.2441283552217614E-01 a       612     1    12     2    12
 -1.4308031159488408E+00 a       613     1    12     2    13
 -5.7547852574108083E-01 a       614     1    12     2    14
 -7.8460693265185932E-01 a       615     1    12     2    15
 -2.1508851959348010E-01 a       616     1    13     2     1
  3.2307837035414727E-01 a       617     1    13     2     2
 -3.9031926954923357E-01 a       618     1    13     2     3
  2.3775678735183653E-01 a       619     1    13     2     4
  6.0837346933435099E-01 a       620     1    13     2     5
 -3.4250430424000411E-01 a       621     1    13     2     6
  3.0565483147350629E-02 a       622     1    13     2     7
 -5.9723101848704840E-01 a       623     1    13     2     8
  4.6367754167820963E-01 a       624     1    13     2     9
  8.5731300328785720E-01 a       625     1    13     2    10
 -2.1444141049648457E-01 a       626     1    13     2    11
  4.2712364494239480E-01 a       627     1    13     2    12
 -2.9705978797814427E-02 a       628     1    13     2    13
 -6.5394422445916189E-01 a       629     1    13     2    14
 -6.3730705769889562E-01 a       630     1    13     2    15
  7.5259896322687547E-01 a       631     1    14     2     1
 -1.6943929045431305E-01 a       632     1    14     2     2
 -5.3244936193573546E-02 a       633     1    14     2     3
  1.5792547654792122E-01 a       634     1    14     2     4
  6.4988136414549813E-01 a       635     1    14     2     5
  9.1311685130243148E-01 a       636     1    14     2     6
  6.6961866872516695E-01 a       637     1    14     2     7
 -3.7817176213000042E-01 a       638     1    14     2     8
 -1.2734866547029113E+00 a       639     1    14     2     9
 -6.2740117252025840E-01 a       640     1    14     2    10
 -5.7565493043778371E-01 a       641     1    14     2    11
  5.5237575234521208E-01 a       642     1    14     2    12
  4.6650507971814220E-01 a       643     1    14     2    13
 -4.7522216405570625E-02 a       644     1    14     2    14
  3.9765281101747707E-01 a       645     1    14     2    15
 -8.1821851146402658E-01 a       646     1    15     2     1
 -7.4899211814183742E-02 a       647     1    15     2     2
  1.2434274558053088E-01 a       648     1    15     2     3
 -1.0475343520235136E+00 a       649     1    15     2     4
 -5.8991139766558054E-01 a       650     1    15     2     5
  5.9353558709621612E-01 a       651     1    15     2     6
 -2.7372341161269736E-01 a       652     1    15     2     7
  9.5684746079722528E-04 a       653     1    15     2     8
  1.2842795368891127E-01 a       654     1    15     2     9
  4.6249944740136550E-01 a       655     1    15     2    10
  2.3747914822845903E-01 a       656     1    15     2    11
 -4.3414093555040628E-01 a       657     1    15     2    12
 -9.8523769263681255E-02 a       658     1    15     2    13
  3.7827691243328959E-01 a       659     1    15     2    14
  1.2147595785450134E+00 a       660     1    15     2    15
  9.5771066901456051E-02 b       661     2     1
  6.1185014053962439E-01 b       662     2     2
  5.8263941831638244E-01 b       663     2     3
  2.2593710437817327E+00 b       664     2     4
  1.3942804961207231E+00 b       665     2     5
 -9.9132925604727218E-01 b       666     2     6
 -1.5496996012800994E+00 b       667     2     7
 -6.9030595362874558E-01 b       668     2     8
  1.8999702037296881E-01 b       669     2     9
 -1.6420285386783995E+00 b       670     2    10
  3.3889840260499779E-02 b       671     2    11
 -7.6249906940689050E-01 b       672     2    12
 -1.3628386241359642E+00 b       673     2    13
  1.2860852652043695E+00 b       674     2    14
  6.8387807898375919E-01 b       675     2    15
  1.9601981728522599E-01 a       676     2     1     3     1
 -8.3266731725391252E-01 a       677     2     2     3     1
 -2.6867011093534654E-01 a       678     2     3     3     1
 -1.6833962200540862E+00 a       679     2     4     3     1
 -6.5587230212930081E-01 a       680     2     5     3     1
  7.9813676165502989E-01 a       681     2     6     3     1
  6.4466074369326765E-01 a       682     2     7     3     1
  1.7326914828884004E+00 a       683     2     8     3     1
  4.0019887570056806E-01 a       684     2     9     3     1
  2.0719015065122495E+00 a       685     2    10     3     1
  1.2216208019807833E+00 a       686     2    11     3     1
  4.9247945458200970E-01 a       687     2    12     3     1
  7.6309119031468797E-01 a       688     2    13     3     1
 -3.7255294112091591E-01 a       689     2    14     3     1
 -1.0785865386056075E+00 a       690     2    15     3     1
 -3.4775583521759978E+00 b       691     3     1
