################################################################################
# Neural network connection values (weights and biases).
################################################################################
# Col  Name       Description
################################################################################
# 1    connection Neural network connection value.
# 2    t          Connection type (a = weight, b = bias).
# 3    index      Index enumerating weights.
# 4    l_s        Starting point layer (end point layer for biases).
# 5    n_s        Starting point neuron in starting layer (end point neuron for biases).
# 6    l_e        End point layer.
# 7    n_e        End point neuron in end layer.
################################################################################
#                      1 2         3     4     5     6     7
#             connection t     index   l_s   n_s   l_e   n_e
############################################################
 -2.9422332570564236E-01 a         1     0     1     1     1
 -8.6242968305505707E-01 a         2     0     1     1     2
  1.4984269258952362E-01 a         3     0     1     1     3
 -1.2409563118422011E+00 a         4     0     1     1     4
  4.0042409765381654E-01 a         5     0     1     1     5
 -1.2320994861918082E+00 a         6     0     1     1     6
 -8.1103730348523106E-01 a         7     0     1     1     7
 -6.4652981857524261E-01 a         8     0     1     1     8
 -3.3412864213069637E-01 a         9     0     1     1     9
 -7.4371115709111910E-02 a        10     0     1     1    10
 -9.5070171126510949E-01 a        11     0     1     1    11
  3.6109449159015083E-01 a        12     0     1     1    12
  5.2839043147262188E-01 a        13     0     1     1    13
 -7.4957857100217340E-01 a        14     0     1     1    14
  3.1492263358132089E-01 a        15     0     1     1    15
  1.1863329666356316E-01 a        16     0     1     1    16
 -6.0979091657382434E-01 a        17     0     1     1    17
  2.4472520553129076E-01 a        18     0     1     1    18
 -1.3341553193115157E+00 a        19     0     1     1    19
  5.0440017184546970E-01 a        20     0     1     1    20
 -5.0826978136358347E-01 a        21     0     1     1    21
 -1.6379745994230226E+00 a        22     0     1     1    22
 -8.3379128057362847E-02 a        23     0     1     1    23
  1.6949669804612509E-02 a        24     0     1     1    24
  1.2118866474140913E-01 a        25     0     1     1    25
 -3.6004545018678008E-01 a        26     0     2     1     1
  8.1061415908630727E-03 a        27     0     2     1     2
 -8.0770763582819827E-01 a        28     0     2     1     3
  1.6415119695579954E+00 a        29     0     2     1     4
 -8.2596054945166242E-01 a        30     0     2     1     5
  2.3858608190844222E+00 a        31     0     2     1     6
  1.4272362416426936E+00 a        32     0     2     1     7
  3.7545030039492977E-01 a        33     0     2     1     8
 -1.0065497568219210E+00 a        34     0     2     1     9
  8.3764535764831383E-01 a        35     0     2     1    10
  6.2655048783943446E-01 a        36     0     2     1    11
 -5.0209299183184442E-01 a        37     0     2     1    12
 -6.1243023185123524E-01 a        38     0     2     1    13
 -7.9106615389479317E-04 a        39     0     2     1    14
 -9.1342929899286485E-01 a        40     0     2     1    15
 -2.5545288448899145E-01 a        41     0     2     1    16
 -1.5273580931611166E+00 a        42     0     2     1    17
  4.3023007446252653E-01 a        43     0     2     1    18
  4.9489772654756831E-01 a        44     0     2     1    19
  2.3689665629646192E-01 a        45     0     2     1    20
 -1.2060031152787423E+00 a        46     0     2     1    21
  1.4854291846265191E+00 a        47     0     2     1    22
 -2.5725436250364658E-01 a        48     0     2     1    23
 -9.9501361535215371E-01 a        49     0     2     1    24
  1.3193835892580313E-02 a        50     0     2     1    25
 -9.7911466787197499E-01 a        51     0     3     1     1
  8.1600705736050028E-01 a        52     0     3     1     2
  3.6568306957595548E-01 a        53     0     3     1     3
  1.8129608852324869E-01 a        54     0     3     1     4
 -8.7631397246523690E-01 a        55     0     3     1     5
 -1.9798961827503636E-01 a        56     0     3     1     6
  7.6449659945582793E-01 a        57     0     3     1     7
  1.1155543874214544E+00 a        58     0     3     1     8
 -5.4414597298818468E-01 a        59     0     3     1     9
 -2.7883628825759948E-01 a        60     0     3     1    10
  2.3687254519178885E-01 a        61     0     3     1    11
 -3.3710772784630492E-02 a        62     0     3     1    12
 -3.1030070237085927E-01 a        63     0     3     1    13
  4.9893657405998315E-01 a        64     0     3     1    14
 -4.9655088327066116E-01 a        65     0     3     1    15
  5.9956708064326969E-01 a        66     0     3     1    16
 -3.7255672776395915E-01 a        67     0     3     1    17
  1.6312295604066016E+00 a        68     0     3     1    18
  4.3848334702915166E-02 a        69     0     3     1    19
  5.6421750053897657E-01 a        70     0     3     1    20
  2.3575474456016107E-01 a        71     0     3     1    21
 -3.5252735445576583E-01 a        72     0     3     1    22
 -4.2855464144154792E-01 a        73     0     3     1    23
  1.4283295918179528E-01 a        74     0     3     1    24
 -6.1728269264595659E-01 a        75     0     3     1    25
 -2.9996155963276845E+00 a        76     0     4     1     1
 -4.5652849083284208E-01 a        77     0     4     1     2
 -4.1057672446170551E-01 a        78     0     4     1     3
  2.2207441517233692E-01 a        79     0     4     1     4
  1.7996431215781084E+00 a        80     0     4     1     5
 -2.6289261340865018E+00 a        81     0     4     1     6
 -5.3930650043952766E-01 a        82     0     4     1     7
  9.5559138405560157E-02 a        83     0     4     1     8
  2.4166031975306779E-01 a        84     0     4     1     9
 -4.6284491852672410E-01 a        85     0     4     1    10
  6.5019378851748533E-01 a        86     0     4     1    11
 -3.7284638843050949E-01 a        87     0     4     1    12
  1.0800198578606079E+00 a        88     0     4     1    13
 -8.8213397319864217E-01 a        89     0     4     1    14
  1.1736823953192932E+00 a        90     0     4     1    15
  3.0348970368979261E-01 a        91     0     4     1    16
  1.1882628500360206E+00 a        92     0     4     1    17
 -5.7970251979893327E-02 a        93     0     4     1    18
 -4.3902959759109537E-02 a        94     0     4     1    19
 -3.9958280685902264E-02 a        95     0     4     1    20
 -5.9956558674880100E-01 a        96     0     4     1    21
 -7.2107133882267416E-01 a        97     0     4     1    22
  7.8130292425311287E-01 a        98     0     4     1    23
  7.0227575751278604E-01 a        99     0     4     1    24
 -2.1269569298701643E-01 a       100     0     4     1    25
  5.2881926716996952E-01 a       101     0     5     1     1
  8.7695760330648864E-01 a       102     0     5     1     2
 -2.7029211280182430E-01 a       103     0     5     1     3
 -5.7190913211165317E-01 a       104     0     5     1     4
 -1.3205283453930543E+00 a       105     0     5     1     5
  9.8779494472666785E-01 a       106     0     5     1     6
  4.0891542710488010E-01 a       107     0     5     1     7
 -2.3994588298845351E-01 a       108     0     5     1     8
  1.4474808032820319E-01 a       109     0     5     1     9
 -2.1950336590495523E-01 a       110     0     5     1    10
  2.1148954638454498E-01 a       111     0     5     1    11
 -7.9315062994770857E-01 a       112     0     5     1    12
 -4.2266380526923769E-01 a       113     0     5     1    13
  6.3267280511099033E-01 a       114     0     5     1    14
  9.9292104763440275E-02 a       115     0     5     1    15
 -7.0363869915504904E-02 a       116     0     5     1    16
  3.5290947342408646E-01 a       117     0     5     1    17
  2.0417464784721062E-01 a       118     0     5     1    18
  1.1190125774451791E+00 a       119     0     5     1    19
  2.4177512025660097E-01 a       120     0     5     1    20
 -7.0978989517633984E-01 a       121     0     5     1    21
  9.9376256836019827E-01 a       122     0     5     1    22
  1.3997778177305649E+00 a       123     0     5     1    23
  4.1044576480153257E-02 a       124     0     5     1    24
  9.2489426334512725E-01 a       125     0     5     1    25
  8.8541302738115835E-02 a       126     0     6     1     1
 -7.2639448808652543E-02 a       127     0     6     1     2
 -3.8091180506473164E-02 a       128     0     6     1     3
  1.2017798432011133E+00 a       129     0     6     1     4
  2.5529807502344082E-01 a       130     0     6     1     5
  9.9560554489489986E-02 a       131     0     6     1     6
 -3.4609321068047155E-01 a       132     0     6     1     7
  2.0587299366871839E-01 a       133     0     6     1     8
  1.4511782221850042E-01 a       134     0     6     1     9
 -4.0599729517086086E-01 a       135     0     6     1    10
  2.1020286764373428E-01 a       136     0     6     1    11
  9.1906312029472426E-01 a       137     0     6     1    12
 -1.2342855778775570E+00 a       138     0     6     1    13
 -6.3421217344559647E-02 a       139     0     6     1    14
  2.3490285949408210E-01 a       140     0     6     1    15
  2.0572868165883293E-01 a       141     0     6     1    16
 -4.3155898932647485E-03 a       142     0     6     1    17
 -2.3637712439714725E-02 a       143     0     6     1    18
  1.9541204567640827E-01 a       144     0     6     1    19
  5.6038448295742826E-01 a       145     0     6     1    20
 -6.8359344447854031E-01 a       146     0     6     1    21
  6.6554198564764411E-01 a       147     0     6     1    22
 -5.2895815742249086E-01 a       148     0     6     1    23
  5.9705460999142930E-02 a       149     0     6     1    24
  2.3153671632909106E-01 a       150     0     6     1    25
  7.6296956118467796E-01 a       151     0     7     1     1
 -1.2386274678288511E-01 a       152     0     7     1     2
  6.5882568512217832E-01 a       153     0     7     1     3
 -2.5447118258599316E-01 a       154     0     7     1     4
  1.1518869650335233E+00 a       155     0     7     1     5
 -7.5926706246250986E-01 a       156     0     7     1     6
  2.6574976434838893E-01 a       157     0     7     1     7
  1.6715862054825465E-02 a       158     0     7     1     8
  9.9809286775273864E-01 a       159     0     7     1     9
  3.9698983096908885E-01 a       160     0     7     1    10
 -3.8499113476531632E-01 a       161     0     7     1    11
  8.1153751387621542E-02 a       162     0     7     1    12
  9.7818816381042972E-01 a       163     0     7     1    13
  4.7058249631975546E-01 a       164     0     7     1    14
  2.8619495981880050E-01 a       165     0     7     1    15
  4.3513753095075786E-01 a       166     0     7     1    16
 -4.8695390240518677E-01 a       167     0     7     1    17
 -1.3354855502571936E+00 a       168     0     7     1    18
 -7.2006685338713283E-01 a       169     0     7     1    19
 -7.9557411083327290E-01 a       170     0     7     1    20
  8.9663595328790602E-01 a       171     0     7     1    21
  1.4469053211148319E-01 a       172     0     7     1    22
  7.1992217302900929E-01 a       173     0     7     1    23
  6.6540127027099194E-01 a       174     0     7     1    24
 -2.0645043740952725E-02 a       175     0     7     1    25
  9.7174174279835135E-01 a       176     0     8     1     1
 -2.6533759890956166E-01 a       177     0     8     1     2
 -2.5791564831891062E-02 a       178     0     8     1     3
  3.6627005334700369E-01 a       179     0     8     1     4
  7.8022380913227218E-01 a       180     0     8     1     5
 -8.6476232675722620E-01 a       181     0     8     1     6
 -2.8076608390866375E-01 a       182     0     8     1     7
  8.5968209643071059E-01 a       183     0     8     1     8
  1.0738367316865637E-01 a       184     0     8     1     9
  7.7332214799712862E-01 a       185     0     8     1    10
 -9.2391280016511346E-01 a       186     0     8     1    11
 -2.5997338610524345E-01 a       187     0     8     1    12
  3.6868205153880024E-01 a       188     0     8     1    13
 -2.9563186118437002E-01 a       189     0     8     1    14
 -8.0081546350669908E-01 a       190     0     8     1    15
 -1.9879286578385555E-01 a       191     0     8     1    16
 -2.2263146471531350E-01 a       192     0     8     1    17
  9.3571137724332931E-01 a       193     0     8     1    18
 -1.0305193354948512E+00 a       194     0     8     1    19
 -4.6084657701672577E-01 a       195     0     8     1    20
  9.8101701680955467E-01 a       196     0     8     1    21
  6.4388433590929628E-01 a       197     0     8     1    22
 -8.2924350367704869E-01 a       198     0     8     1    23
 -7.2836352957607475E-01 a       199     0     8     1    24
 -6.3543750101458263E-01 a       200     0     8     1    25
 -7.3543341050733402E-01 a       201     0     9     1     1
  3.2168427736031685E-01 a       202     0     9     1     2
 -3.1401281725176994E-01 a       203     0     9     1     3
 -7.9326880554292323E-01 a       204     0     9     1     4
  4.9674627582055275E-01 a       205     0     9     1     5
  1.0617238120984573E+00 a       206     0     9     1     6
  9.6530480091350679E-01 a       207     0     9     1     7
  1.1252070954591333E+00 a       208     0     9     1     8
 -1.1401727296961830E+00 a       209     0     9     1     9
  1.4541770409612091E+00 a       210     0     9     1    10
  4.2784730818664363E-01 a       211     0     9     1    11
  2.1901745871447234E-01 a       212     0     9     1    12
  4.8539680502115726E-02 a       213     0     9     1    13
  8.7419872303097654E-02 a       214     0     9     1    14
  5.7479118595137579E-01 a       215     0     9     1    15
 -9.9029475307400217E-01 a       216     0     9     1    16
  9.1666766504385222E-01 a       217     0     9     1    17
  8.6544679957455528E-01 a       218     0     9     1    18
 -1.3960377017176367E-01 a       219     0     9     1    19
  3.3276019158920594E-01 a       220     0     9     1    20
 -1.2583173310083793E+00 a       221     0     9     1    21
 -1.2703969914766062E+00 a       222     0     9     1    22
 -1.6670130236421137E+00 a       223     0     9     1    23
 -7.6457081439361774E-01 a       224     0     9     1    24
 -4.4215425515514289E-01 a       225     0     9     1    25
  1.1009080929711608E+00 a       226     0    10     1     1
  1.7678881988396195E-02 a       227     0    10     1     2
  7.9485227058391339E-01 a       228     0    10     1     3
 -2.4523116835605704E-01 a       229     0    10     1     4
 -4.3349074019418676E-01 a       230     0    10     1     5
  3.7297324644230738E-02 a       231     0    10     1     6
 -2.2511900759377465E-01 a       232     0    10     1     7
 -1.5925490355822975E+00 a       233     0    10     1     8
  3.8064907508793444E-01 a       234     0    10     1     9
 -2.6131841516836235E-01 a       235     0    10     1    10
  4.1622386587743793E-01 a       236     0    10     1    11
  3.6226856376303473E-01 a       237     0    10     1    12
 -2.2535825515244659E-01 a       238     0    10     1    13
 -4.3759377768090241E-01 a       239     0    10     1    14
 -2.2728134210721737E-01 a       240     0    10     1    15
  1.7375143599424356E-01 a       241     0    10     1    16
 -4.4965943028054367E-01 a       242     0    10     1    17
 -7.6068323385850900E-01 a       243     0    10     1    18
 -4.6141746149964281E-02 a       244     0    10     1    19
 -6.3981363343050213E-02 a       245     0    10     1    20
 -2.9894923206065394E-01 a       246     0    10     1    21
  1.0325548609262833E+00 a       247     0    10     1    22
 -5.4912117122001181E-01 a       248     0    10     1    23
  2.8945399598667887E-01 a       249     0    10     1    24
  6.9893874311915938E-01 a       250     0    10     1    25
  4.0214400440165199E-01 a       251     0    11     1     1
 -4.8104786796265403E-01 a       252     0    11     1     2
 -4.5445080902785728E-01 a       253     0    11     1     3
 -6.9375699229342325E-01 a       254     0    11     1     4
 -2.1178031156020591E-01 a       255     0    11     1     5
 -3.8656963816484624E-01 a       256     0    11     1     6
 -8.2061602584684934E-01 a       257     0    11     1     7
  1.5676875860304865E-01 a       258     0    11     1     8
  4.0464250368585991E-01 a       259     0    11     1     9
 -9.7479998416492508E-01 a       260     0    11     1    10
 -4.6188980685759951E-01 a       261     0    11     1    11
 -1.5451048215149878E+00 a       262     0    11     1    12
  2.7436324817704338E-01 a       263     0    11     1    13
  7.1366466468756717E-01 a       264     0    11     1    14
  5.5677354091522996E-02 a       265     0    11     1    15
 -2.9543498141776675E-02 a       266     0    11     1    16
 -1.3592873100131835E+00 a       267     0    11     1    17
 -2.4974734365889562E-01 a       268     0    11     1    18
  3.5750900493729626E-01 a       269     0    11     1    19
 -6.4599764748131938E-01 a       270     0    11     1    20
  3.3997963898525702E-01 a       271     0    11     1    21
  6.1566246177049255E-01 a       272     0    11     1    22
  3.9578546709375095E-01 a       273     0    11     1    23
 -4.6225367864167693E-01 a       274     0    11     1    24
  2.0167914110214993E-01 a       275     0    11     1    25
 -5.4039977094535352E-01 a       276     0    12     1     1
  5.6232317183978087E-01 a       277     0    12     1     2
 -5.7905219822318987E-01 a       278     0    12     1     3
 -6.9163430749190002E-01 a       279     0    12     1     4
 -5.0090125137996377E-01 a       280     0    12     1     5
 -4.9883399265472400E-01 a       281     0    12     1     6
  5.0255685386479176E-01 a       282     0    12     1     7
  2.6075855293405503E-01 a       283     0    12     1     8
 -9.1859433130301871E-02 a       284     0    12     1     9
  4.4629299458190741E-01 a       285     0    12     1    10
 -2.0134002368216022E-02 a       286     0    12     1    11
  1.0689717649667679E-01 a       287     0    12     1    12
  1.7299421170077633E-01 a       288     0    12     1    13
  4.5373856416060449E-01 a       289     0    12     1    14
  3.5432447883111434E-01 a       290     0    12     1    15
 -1.4576188606736254E-01 a       291     0    12     1    16
 -3.0121691861266148E-01 a       292     0    12     1    17
  1.9073368844196473E-01 a       293     0    12     1    18
  1.4463102653816853E-01 a       294     0    12     1    19
 -5.5929990097710736E-01 a       295     0    12     1    20
  8.0415786406409517E-01 a       296     0    12     1    21
 -5.1287204545332110E-01 a       297     0    12     1    22
  7.1951799328071242E-01 a       298     0    12     1    23
 -2.9598435728437072E-01 a       299     0    12     1    24
 -2.8054461671521458E-01 a       300     0    12     1    25
 -1.1352191635121349E-02 a       301     0    13     1     1
  6.0980425298619589E-01 a       302     0    13     1     2
  7.5976934796992926E-02 a       303     0    13     1     3
  4.3181971302176009E-01 a       304     0    13     1     4
  4.6409556990866706E-02 a       305     0    13     1     5
 -1.4540621719222344E-01 a       306     0    13     1     6
  6.7205240836372504E-01 a       307     0    13     1     7
 -3.9801048904390662E-01 a       308     0    13     1     8
 -1.9972689872013663E-01 a       309     0    13     1     9
  1.3247216796671129E+00 a       310     0    13     1    10
  3.9841054139228343E-01 a       311     0    13     1    11
  8.7559710694285209E-01 a       312     0    13     1    12
  1.7680114202856295E-01 a       313     0    13     1    13
 -3.5816987801279809E-01 a       314     0    13     1    14
  2.9570399895185321E-03 a       315     0    13     1    15
  1.3009682174688431E-01 a       316     0    13     1    16
  4.5285348695337152E-01 a       317     0    13     1    17
  2.0713892571407211E-01 a       318     0    13     1    18
 -4.6146699321317391E-01 a       319     0    13     1    19
  7.4021904602889987E-01 a       320     0    13     1    20
 -4.7216806509110232E-01 a       321     0    13     1    21
  5.6071999623609030E-02 a       322     0    13     1    22
  3.3373045236081406E-01 a       323     0    13     1    23
  2.9859177472682180E-01 a       324     0    13     1    24
 -1.7222084388431111E-01 a       325     0    13     1    25
  3.7941120908353965E-01 a       326     0    14     1     1
 -3.2770121473889019E-01 a       327     0    14     1     2
  1.5842057700626419E-01 a       328     0    14     1     3
  1.5284487342463249E-01 a       329     0    14     1     4
 -1.7144961630435265E-01 a       330     0    14     1     5
 -2.8626860950658350E-01 a       331     0    14     1     6
  4.5204837031844580E-01 a       332     0    14     1     7
  2.4289101355430429E-02 a       333     0    14     1     8
 -3.1770199334368787E-01 a       334     0    14     1     9
  6.4681524149728975E-01 a       335     0    14     1    10
 -1.4570415571809103E-01 a       336     0    14     1    11
  8.5309363028118124E-01 a       337     0    14     1    12
 -1.0290784181526327E-01 a       338     0    14     1    13
  2.8959563273314637E-01 a       339     0    14     1    14
 -2.4245339030778001E-01 a       340     0    14     1    15
  2.9722090113715605E-01 a       341     0    14     1    16
  6.3541567736086924E-01 a       342     0    14     1    17
 -1.4812330081557745E-01 a       343     0    14     1    18
 -2.5414244754304449E-01 a       344     0    14     1    19
  4.1164863165428800E-01 a       345     0    14     1    20
 -4.8657624140080974E-01 a       346     0    14     1    21
  1.5980566354383163E-01 a       347     0    14     1    22
  1.6886714743236991E-01 a       348     0    14     1    23
  7.3337976058771692E-01 a       349     0    14     1    24
  9.7131347102275875E-02 a       350     0    14     1    25
 -1.3833234467244807E-02 a       351     0    15     1     1
 -2.9223469697755716E-01 a       352     0    15     1     2
 -3.2343976913458922E-01 a       353     0    15     1     3
  6.1244173587609321E-02 a       354     0    15     1     4
  1.5791393896625777E-01 a       355     0    15     1     5
  2.5946140995280670E-01 a       356     0    15     1     6
 -3.8025875301687995E-01 a       357     0    15     1     7
  6.9965820133659401E-02 a       358     0    15     1     8
 -2.9466958397878898E-02 a       359     0    15     1     9
 -3.7367205934035969E-01 a       360     0    15     1    10
  2.6350276427226819E-02 a       361     0    15     1    11
 -6.0018552553600579E-01 a       362     0    15     1    12
 -3.2553570453206465E-01 a       363     0    15     1    13
  4.3302530879907965E-02 a       364     0    15     1    14
  4.2187675309519690E-03 a       365     0    15     1    15
 -2.3956502908085944E-01 a       366     0    15     1    16
  1.1156850158667596E-01 a       367     0    15     1    17
  2.6007149289355210E-02 a       368     0    15     1    18
  3.2632645890633699E-01 a       369     0    15     1    19
 -4.0582746735196479E-01 a       370     0    15     1    20
  1.7383338997236705E-01 a       371     0    15     1    21
 -1.1196322777125041E-01 a       372     0    15     1    22
  1.4011878829185408E-02 a       373     0    15     1    23
 -1.0082511747848497E-01 a       374     0    15     1    24
  4.1734897094203993E-01 a       375     0    15     1    25
 -2.8532786147957445E-01 a       376     0    16     1     1
 -2.7801741241022315E-02 a       377     0    16     1     2
 -4.4703560322829017E-02 a       378     0    16     1     3
  2.5475715293583619E-02 a       379     0    16     1     4
 -9.3747796896295907E-02 a       380     0    16     1     5
  2.0546331892513725E-01 a       381     0    16     1     6
 -2.5850730632785629E-01 a       382     0    16     1     7
 -5.9837899803112044E-03 a       383     0    16     1     8
 -3.7536397148431333E-01 a       384     0    16     1     9
  2.9072843391359715E-01 a       385     0    16     1    10
  1.1959695550363794E-01 a       386     0    16     1    11
  2.0475972456833386E-01 a       387     0    16     1    12
  2.7720177489508377E-02 a       388     0    16     1    13
  2.0460886731036871E-02 a       389     0    16     1    14
  2.9471106995479379E-01 a       390     0    16     1    15
  7.9837355620205275E-02 a       391     0    16     1    16
 -8.8447359179354215E-02 a       392     0    16     1    17
  2.4759459758627738E-02 a       393     0    16     1    18
  1.2125147927512574E-01 a       394     0    16     1    19
 -5.3654833489872433E-01 a       395     0    16     1    20
  2.4628227630672181E-01 a       396     0    16     1    21
 -2.8348088501118396E-01 a       397     0    16     1    22
 -7.5793103430043585E-02 a       398     0    16     1    23
 -1.0435085151285076E-01 a       399     0    16     1    24
  3.2746005398284506E-01 a       400     0    16     1    25
  1.0526896731986084E+00 a       401     0    17     1     1
  1.7592535912156176E-01 a       402     0    17     1     2
 -1.7842191517939993E-01 a       403     0    17     1     3
 -1.1923138633889915E-01 a       404     0    17     1     4
  7.8269203672267496E-01 a       405     0    17     1     5
  1.9986402277311718E-01 a       406     0    17     1     6
  1.6121738451077855E-01 a       407     0    17     1     7
 -7.7370589528049205E-01 a       408     0    17     1     8
  1.9485180321374126E-01 a       409     0    17     1     9
 -3.1890291154473377E-01 a       410     0    17     1    10
 -1.4327114204454514E-01 a       411     0    17     1    11
 -8.6400925501377446E-01 a       412     0    17     1    12
 -3.1588973892289252E-01 a       413     0    17     1    13
 -4.0949493522421720E-01 a       414     0    17     1    14
  9.8339442710209024E-01 a       415     0    17     1    15
 -4.6519951227720058E-01 a       416     0    17     1    16
  2.2813588488745551E-01 a       417     0    17     1    17
 -1.0733016156198791E+00 a       418     0    17     1    18
  4.0983702568651442E-01 a       419     0    17     1    19
  4.5443594935449083E-01 a       420     0    17     1    20
  1.9106349288389324E-01 a       421     0    17     1    21
  1.3703519986218924E+00 a       422     0    17     1    22
  8.2289627278764033E-01 a       423     0    17     1    23
 -2.2013145658005928E-01 a       424     0    17     1    24
  1.0478313796594588E-01 a       425     0    17     1    25
 -6.4919570106859315E-01 a       426     0    18     1     1
 -4.3076575686340729E-01 a       427     0    18     1     2
 -1.6611836676026887E-01 a       428     0    18     1     3
 -4.8017455057114533E-01 a       429     0    18     1     4
  7.7624472863682015E-01 a       430     0    18     1     5
  5.1624340465847285E-01 a       431     0    18     1     6
  2.0759230846966936E-01 a       432     0    18     1     7
  1.0555922990299473E+00 a       433     0    18     1     8
 -2.3675720892401936E-01 a       434     0    18     1     9
 -8.3634511119959343E-02 a       435     0    18     1    10
  3.0537124915239883E-01 a       436     0    18     1    11
 -4.6470965627265257E-02 a       437     0    18     1    12
  6.3128613948092105E-02 a       438     0    18     1    13
  7.4516906902354851E-02 a       439     0    18     1    14
 -9.0616649532872251E-01 a       440     0    18     1    15
 -2.9219123588212353E-02 a       441     0    18     1    16
 -3.4308822969582192E-01 a       442     0    18     1    17
  4.3129834604525652E-01 a       443     0    18     1    18
 -5.2551784994140849E-01 a       444     0    18     1    19
  3.0397608583314201E-01 a       445     0    18     1    20
 -1.3939737311860287E+00 a       446     0    18     1    21
  4.0984943708711469E-01 a       447     0    18     1    22
 -6.1642698857108824E-01 a       448     0    18     1    23
  4.7120855883497814E-01 a       449     0    18     1    24
 -2.5639427568741263E-01 a       450     0    18     1    25
 -5.1209482278661034E-01 a       451     0    19     1     1
  9.2188246308036736E-01 a       452     0    19     1     2
  5.1721236697839146E-01 a       453     0    19     1     3
 -1.6246266641792282E+00 a       454     0    19     1     4
 -3.2167335007057757E-01 a       455     0    19     1     5
  1.1490728504657441E-01 a       456     0    19     1     6
 -1.1309368108644131E+00 a       457     0    19     1     7
  1.7687911273575183E+00 a       458     0    19     1     8
 -8.4945542747855340E-01 a       459     0    19     1     9
  1.5859149420146805E+00 a       460     0    19     1    10
 -3.4355245522852712E-01 a       461     0    19     1    11
 -8.6452884279582642E-01 a       462     0    19     1    12
  8.2852994775019162E-01 a       463     0    19     1    13
 -2.3935118265137203E+00 a       464     0    19     1    14
 -1.5886653677118618E+00 a       465     0    19     1    15
 -1.0130969249448172E+00 a       466     0    19     1    16
 -1.3773910732147183E+00 a       467     0    19     1    17
 -5.2009251365486686E-01 a       468     0    19     1    18
  3.4362467917996109E-01 a       469     0    19     1    19
 -1.1437748468286346E+00 a       470     0    19     1    20
  8.3839597086309739E-02 a       471     0    19     1    21
  4.3290584158693413E-01 a       472     0    19     1    22
 -4.5737755211050823E-01 a       473     0    19     1    23
 -8.8384614613208523E-01 a       474     0    19     1    24
 -7.6905082999240193E-01 a       475     0    19     1    25
  1.1260148022765364E+00 a       476     0    20     1     1
 -1.8096292121384512E+00 a       477     0    20     1     2
 -2.4049727727637016E-01 a       478     0    20     1     3
  4.2762854872407896E-01 a       479     0    20     1     4
 -3.7562166412249587E-01 a       480     0    20     1     5
 -3.5377372495857451E-01 a       481     0    20     1     6
  1.3237852161504926E+00 a       482     0    20     1     7
 -7.2562679939149055E-01 a       483     0    20     1     8
  1.9302555785370173E-01 a       484     0    20     1     9
 -1.0969054917625520E+00 a       485     0    20     1    10
  6.4441462670620198E-01 a       486     0    20     1    11
  8.3701139515947143E-01 a       487     0    20     1    12
 -6.1212873800923873E-01 a       488     0    20     1    13
 -3.8386763055242556E-01 a       489     0    20     1    14
  6.8266586161950249E-01 a       490     0    20     1    15
 -2.8941899298281681E-01 a       491     0    20     1    16
 -8.0728796031290850E-01 a       492     0    20     1    17
  4.5209694309895554E-01 a       493     0    20     1    18
 -6.4061709596947802E-01 a       494     0    20     1    19
  1.8444867802709419E-01 a       495     0    20     1    20
  8.0966656322788522E-01 a       496     0    20     1    21
 -1.8389019341163111E-02 a       497     0    20     1    22
  8.0882381180604157E-01 a       498     0    20     1    23
  4.1665102707735296E-01 a       499     0    20     1    24
  8.0616114172793218E-01 a       500     0    20     1    25
  5.1287867407535204E-01 a       501     0    21     1     1
  5.0145938284447844E-01 a       502     0    21     1     2
  1.0625827940361221E+00 a       503     0    21     1     3
  4.7117610949354000E-01 a       504     0    21     1     4
 -1.6895421192998064E-01 a       505     0    21     1     5
 -4.1506807738363649E-01 a       506     0    21     1     6
  6.1921937176685327E-01 a       507     0    21     1     7
 -1.0740227964568498E+00 a       508     0    21     1     8
 -3.9123759219766191E-01 a       509     0    21     1     9
  2.3031180881372368E-01 a       510     0    21     1    10
  1.5126675699284575E-01 a       511     0    21     1    11
  1.3478248321387434E-01 a       512     0    21     1    12
 -4.6375540019591421E-01 a       513     0    21     1    13
 -6.7446177886881875E-01 a       514     0    21     1    14
 -5.9566578538511505E-01 a       515     0    21     1    15
  6.8751287035511965E-01 a       516     0    21     1    16
  6.7745066643538673E-02 a       517     0    21     1    17
  5.2345282046590191E-01 a       518     0    21     1    18
  4.9131963515591309E-01 a       519     0    21     1    19
  2.8834838073995844E-01 a       520     0    21     1    20
  3.5198796102906144E-01 a       521     0    21     1    21
 -1.9022796808122473E+00 a       522     0    21     1    22
 -5.0047539926758267E-01 a       523     0    21     1    23
  5.1202161821808601E-01 a       524     0    21     1    24
 -1.8554677743459275E-01 a       525     0    21     1    25
  8.8988572452732628E-01 a       526     0    22     1     1
  9.7232171167927639E-01 a       527     0    22     1     2
 -1.4503421472415479E-01 a       528     0    22     1     3
 -3.7994770090411994E-02 a       529     0    22     1     4
  2.4129885771612319E-02 a       530     0    22     1     5
 -5.0934663972016281E-01 a       531     0    22     1     6
 -7.3108849560513689E-01 a       532     0    22     1     7
 -6.2977926574742127E-01 a       533     0    22     1     8
  8.7725239641766917E-01 a       534     0    22     1     9
  8.5413898810539557E-01 a       535     0    22     1    10
  2.1776298301151495E-01 a       536     0    22     1    11
  4.1493081665375792E-01 a       537     0    22     1    12
  4.7732521077920037E-01 a       538     0    22     1    13
 -1.2723106167093851E-02 a       539     0    22     1    14
  9.8704201569297101E-01 a       540     0    22     1    15
  5.6155282480469793E-01 a       541     0    22     1    16
 -4.3749999732516692E-01 a       542     0    22     1    17
 -3.2725123028164660E-01 a       543     0    22     1    18
  2.9907628289527327E-01 a       544     0    22     1    19
  6.7117283432299346E-01 a       545     0    22     1    20
 -1.6492735097404103E+00 a       546     0    22     1    21
  3.3170753968513456E-01 a       547     0    22     1    22
 -9.5842114447276594E-01 a       548     0    22     1    23
  4.5100427539964327E-01 a       549     0    22     1    24
 -1.0023200616573967E-02 a       550     0    22     1    25
  1.6636982894600053E-01 a       551     0    23     1     1
 -4.1273585639076910E-01 a       552     0    23     1     2
 -1.5364329230721478E+00 a       553     0    23     1     3
  6.6575441915736988E-01 a       554     0    23     1     4
  2.8761382282043052E-01 a       555     0    23     1     5
 -2.9345953110858175E-01 a       556     0    23     1     6
 -1.3949506753135141E+00 a       557     0    23     1     7
 -2.3519385820430549E-01 a       558     0    23     1     8
 -5.9258725390841627E-01 a       559     0    23     1     9
 -7.6819778665247607E-01 a       560     0    23     1    10
  1.5042814799959600E-01 a       561     0    23     1    11
 -3.1441405296443137E-01 a       562     0    23     1    12
  5.3959201035973803E-01 a       563     0    23     1    13
 -3.1739890108110058E-01 a       564     0    23     1    14
 -6.6992378198327540E-01 a       565     0    23     1    15
  6.5107066800237778E-01 a       566     0    23     1    16
 -6.7356577691108022E-01 a       567     0    23     1    17
  1.6708350512908904E-01 a       568     0    23     1    18
 -7.8415111070269841E-02 a       569     0    23     1    19
  7.4626171809987629E-01 a       570     0    23     1    20
  4.5250420076876896E-01 a       571     0    23     1    21
  2.4909957307358954E-01 a       572     0    23     1    22
 -6.7130793390310717E-01 a       573     0    23     1    23
  2.6096500427101582E-01 a       574     0    23     1    24
 -4.1686488427861140E-01 a       575     0    23     1    25
 -6.8173244147218634E-02 a       576     0    24     1     1
 -5.1325749635983797E-02 a       577     0    24     1     2
  1.2835119918261904E+00 a       578     0    24     1     3
 -1.8415294817739961E-01 a       579     0    24     1     4
 -1.6804968870795076E-01 a       580     0    24     1     5
  1.2041520428533881E+00 a       581     0    24     1     6
  1.4126604153484255E+00 a       582     0    24     1     7
 -2.1036588395301008E+00 a       583     0    24     1     8
 -2.0214379256848214E-01 a       584     0    24     1     9
 -2.1860836217963229E+00 a       585     0    24     1    10
  2.3529849573205361E-01 a       586     0    24     1    11
  1.7699047784043917E-01 a       587     0    24     1    12
  8.0542065828055631E-01 a       588     0    24     1    13
 -1.3668344501615173E-01 a       589     0    24     1    14
  4.9136548172379119E-01 a       590     0    24     1    15
 -8.7328895774375559E-01 a       591     0    24     1    16
  7.5511338296277020E-01 a       592     0    24     1    17
 -6.1452092150538873E-01 a       593     0    24     1    18
  4.5629562473083407E-01 a       594     0    24     1    19
  2.1569446418334914E-01 a       595     0    24     1    20
 -6.6902205894132249E-01 a       596     0    24     1    21
 -3.0221903397164418E-01 a       597     0    24     1    22
  1.9214327875807391E+00 a       598     0    24     1    23
 -3.3939460154573504E-02 a       599     0    24     1    24
  4.6181203554313632E-01 a       600     0    24     1    25
 -3.3623587050043902E-01 a       601     0    25     1     1
  5.0577044556948292E-01 a       602     0    25     1     2
 -2.8866289262934514E-01 a       603     0    25     1     3
  6.2075845228788451E-01 a       604     0    25     1     4
 -5.2532948997383651E-02 a       605     0    25     1     5
 -1.1517995735017177E-01 a       606     0    25     1     6
  1.9160626357617067E-01 a       607     0    25     1     7
  3.6564488295500003E-01 a       608     0    25     1     8
 -1.1117195638839630E+00 a       609     0    25     1     9
 -4.0144627318546183E-01 a       610     0    25     1    10
 -2.8495321783230931E-01 a       611     0    25     1    11
 -8.7222002917494845E-01 a       612     0    25     1    12
 -2.9378394570438082E-01 a       613     0    25     1    13
  1.0932018719376873E+00 a       614     0    25     1    14
  8.1228915943020352E-01 a       615     0    25     1    15
 -4.8565592905921745E-02 a       616     0    25     1    16
  1.2862269539972664E+00 a       617     0    25     1    17
  1.1526591920858125E+00 a       618     0    25     1    18
 -3.6302456406738631E-01 a       619     0    25     1    19
  2.3882568510977045E-01 a       620     0    25     1    20
  1.1708142075732959E+00 a       621     0    25     1    21
 -4.3855994786762213E-02 a       622     0    25     1    22
 -9.8240482003029150E-02 a       623     0    25     1    23
  2.3320408107157450E-01 a       624     0    25     1    24
 -3.6989554868371405E-01 a       625     0    25     1    25
  1.9681725092193492E+00 a       626     0    26     1     1
 -6.0518470500281207E-01 a       627     0    26     1     2
  4.4611524968553345E-01 a       628     0    26     1     3
  2.8227616450589127E-01 a       629     0    26     1     4
  1.1837923270757832E-01 a       630     0    26     1     5
 -7.6457176928249071E-01 a       631     0    26     1     6
  1.9608473464906301E-01 a       632     0    26     1     7
 -4.5099951097359314E-01 a       633     0    26     1     8
  7.6965595430685974E-01 a       634     0    26     1     9
 -1.2132243789807619E-01 a       635     0    26     1    10
 -1.2206212168220838E+00 a       636     0    26     1    11
 -2.2203932046257566E-02 a       637     0    26     1    12
  4.3496641236014162E-02 a       638     0    26     1    13
 -1.2554200609372018E-01 a       639     0    26     1    14
  5.4561643592679598E-01 a       640     0    26     1    15
 -7.5908031069772841E-01 a       641     0    26     1    16
 -4.2014847201560590E-01 a       642     0    26     1    17
  7.5563101595169124E-01 a       643     0    26     1    18
  6.2126840941050521E-01 a       644     0    26     1    19
 -4.5458424686559817E-01 a       645     0    26     1    20
  6.5671981242620336E-01 a       646     0    26     1    21
  2.2513318094513737E-01 a       647     0    26     1    22
 -3.3177896295038256E-01 a       648     0    26     1    23
 -3.3490731823898906E-01 a       649     0    26     1    24
 -7.2973001228295586E-01 a       650     0    26     1    25
  2.5776011254005149E-01 a       651     0    27     1     1
  4.7044338151193971E-01 a       652     0    27     1     2
 -1.5434404587071677E+00 a       653     0    27     1     3
  3.5210865532662577E-01 a       654     0    27     1     4
  3.2652016134531871E-02 a       655     0    27     1     5
  1.2029425315784434E+00 a       656     0    27     1     6
 -2.6116467430729289E+00 a       657     0    27     1     7
 -1.9616015053765773E-01 a       658     0    27     1     8
 -3.1228006212227455E-01 a       659     0    27     1     9
  6.3689137629993087E-01 a       660     0    27     1    10
  7.1907195326427042E-01 a       661     0    27     1    11
 -1.1106436817981431E+00 a       662     0    27     1    12
 -9.8146993439845120E-01 a       663     0    27     1    13
  6.8774447642975078E-01 a       664     0    27     1    14
  6.5099666392958433E-01 a       665     0    27     1    15
 -1.7409491855346709E-01 a       666     0    27     1    16
 -1.2199092226454979E+00 a       667     0    27     1    17
 -2.1754382587436898E+00 a       668     0    27     1    18
 -1.1747918449313177E+00 a       669     0    27     1    19
  2.2157842578071549E+00 a       670     0    27     1    20
 -8.2813343795159478E-01 a       671     0    27     1    21
 -1.0016626719852342E+00 a       672     0    27     1    22
 -1.6007281904983330E+00 a       673     0    27     1    23
 -8.7223666926633980E-01 a       674     0    27     1    24
  3.2224608773730989E-01 a       675     0    27     1    25
 -9.3170107458829676E-01 a       676     0    28     1     1
  8.8154587226270520E-01 a       677     0    28     1     2
  8.1962952184223092E-01 a       678     0    28     1     3
 -6.2692889740288504E-01 a       679     0    28     1     4
  4.7598139300485840E-03 a       680     0    28     1     5
 -2.6816253244652882E-01 a       681     0    28     1     6
  1.5468317707596838E-01 a       682     0    28     1     7
  1.2268646768224638E-01 a       683     0    28     1     8
  1.5159172118890871E+00 a       684     0    28     1     9
 -1.7478701149168410E-01 a       685     0    28     1    10
 -6.7941337002038393E-01 a       686     0    28     1    11
  7.3256714885362451E-01 a       687     0    28     1    12
 -2.4725611889121607E-01 a       688     0    28     1    13
  1.0635024454654498E+00 a       689     0    28     1    14
 -1.1963312746960462E+00 a       690     0    28     1    15
  6.5480817730562368E-01 a       691     0    28     1    16
  1.1365984942500489E+00 a       692     0    28     1    17
  7.0312172728878061E-02 a       693     0    28     1    18
  1.4427397383910461E+00 a       694     0    28     1    19
 -1.5197554374436268E+00 a       695     0    28     1    20
  3.5349648707650012E-02 a       696     0    28     1    21
  1.2037003679870099E-01 a       697     0    28     1    22
  7.9724457449506358E-01 a       698     0    28     1    23
  6.1103265073827218E-01 a       699     0    28     1    24
 -3.3265204368673307E-02 a       700     0    28     1    25
 -2.3032969636626915E-01 a       701     0    29     1     1
 -4.0351182165223098E-01 a       702     0    29     1     2
  7.0495320115057075E-02 a       703     0    29     1     3
 -9.5586007864430222E-01 a       704     0    29     1     4
 -1.2536296419938115E+00 a       705     0    29     1     5
 -2.2542579431123885E-01 a       706     0    29     1     6
  3.1339676893289620E-01 a       707     0    29     1     7
  7.9338456595554263E-01 a       708     0    29     1     8
  7.1979484880779565E-01 a       709     0    29     1     9
 -7.0574947100804806E-03 a       710     0    29     1    10
 -7.1649774073429229E-01 a       711     0    29     1    11
  1.3272365334683633E+00 a       712     0    29     1    12
 -6.4874628131624945E-01 a       713     0    29     1    13
  2.1139237595130800E-01 a       714     0    29     1    14
  3.1223126068955970E-01 a       715     0    29     1    15
 -8.4207667005334871E-02 a       716     0    29     1    16
  5.4589811896948515E-01 a       717     0    29     1    17
  7.8942453023763903E-02 a       718     0    29     1    18
 -5.1609056981296653E-01 a       719     0    29     1    19
 -6.9887252875873274E-02 a       720     0    29     1    20
 -1.6393282168118362E-01 a       721     0    29     1    21
  3.6569742288445678E-01 a       722     0    29     1    22
  7.1391671971613668E-02 a       723     0    29     1    23
  3.1190968782393913E-01 a       724     0    29     1    24
 -7.9920559929424151E-02 a       725     0    29     1    25
 -4.3068198097866517E-01 a       726     0    30     1     1
 -1.1481344385886590E-01 a       727     0    30     1     2
 -3.1864082508255687E-01 a       728     0    30     1     3
 -1.2705367567464007E-01 a       729     0    30     1     4
 -7.4467763032736312E-01 a       730     0    30     1     5
 -2.6625616213910192E-01 a       731     0    30     1     6
  2.4551140660744028E-02 a       732     0    30     1     7
  1.6095424055471637E+00 a       733     0    30     1     8
  3.3306591401385993E-01 a       734     0    30     1     9
  5.5388323861518207E-01 a       735     0    30     1    10
  5.3284197126324340E-01 a       736     0    30     1    11
  4.6229773208622871E-01 a       737     0    30     1    12
  4.3319510099296055E-01 a       738     0    30     1    13
  5.9460202668874529E-02 a       739     0    30     1    14
 -9.2318275799780480E-01 a       740     0    30     1    15
 -4.5564151698059574E-01 a       741     0    30     1    16
  4.5955989937851516E-01 a       742     0    30     1    17
  2.1241465473314358E-01 a       743     0    30     1    18
 -6.1311304129627897E-01 a       744     0    30     1    19
  4.4890463791590285E-01 a       745     0    30     1    20
 -3.3173096486476794E-01 a       746     0    30     1    21
 -4.8781428325309995E-01 a       747     0    30     1    22
  6.6718155337759333E-01 a       748     0    30     1    23
 -2.3558796130439608E-01 a       749     0    30     1    24
  4.0394532749949758E-01 a       750     0    30     1    25
  2.8545931810589193E-02 a       751     0    31     1     1
 -1.0088656948565249E-02 a       752     0    31     1     2
 -1.5345860191905147E-01 a       753     0    31     1     3
  8.5605214080454828E-01 a       754     0    31     1     4
  1.7224679522595782E-01 a       755     0    31     1     5
  3.8503042922013501E-02 a       756     0    31     1     6
  1.7573243638845200E+00 a       757     0    31     1     7
 -3.7186523810422495E-01 a       758     0    31     1     8
  8.1117283837924059E-01 a       759     0    31     1     9
 -6.3245393848047848E-01 a       760     0    31     1    10
  1.1325598333918810E-01 a       761     0    31     1    11
 -1.0530745725904691E+00 a       762     0    31     1    12
 -8.8543456414056879E-02 a       763     0    31     1    13
 -6.2519352222711799E-01 a       764     0    31     1    14
  2.0695143350262166E-02 a       765     0    31     1    15
  2.4539663068827380E-01 a       766     0    31     1    16
  8.5127548018727905E-02 a       767     0    31     1    17
 -6.5904653946908898E-01 a       768     0    31     1    18
  3.4169684431400518E-02 a       769     0    31     1    19
 -4.5719005393976753E-01 a       770     0    31     1    20
  4.2229874583150778E-01 a       771     0    31     1    21
  3.3103143136171326E-01 a       772     0    31     1    22
  6.3722879280587030E-01 a       773     0    31     1    23
  3.6466310933738039E-01 a       774     0    31     1    24
  4.4988463254179673E-01 a       775     0    31     1    25
  3.8892996945067082E-01 b       776     1     1
  9.1085071457144298E-02 b       777     1     2
 -2.4147404257611454E-02 b       778     1     3
  3.8297620276789662E-01 b       779     1     4
 -4.4194078743027670E-01 b       780     1     5
  6.3014531826602951E-02 b       781     1     6
 -4.8325590313646744E-01 b       782     1     7
  1.5454022368498835E-01 b       783     1     8
  1.0073340902866430E-01 b       784     1     9
 -9.3363244996515338E-01 b       785     1    10
  9.5406392385376563E-04 b       786     1    11
  3.3528765779526798E-01 b       787     1    12
  7.8691440500875010E-01 b       788     1    13
 -6.2368327271466251E-01 b       789     1    14
  4.5108795077787667E-01 b       790     1    15
 -3.6194073642541419E-01 b       791     1    16
 -7.1888570947967384E-02 b       792     1    17
  5.2808875594772009E-01 b       793     1    18
  5.2774180566213602E-01 b       794     1    19
 -3.5203548558876108E-01 b       795     1    20
 -3.1362411118597000E-01 b       796     1    21
 -3.2305202496879198E-01 b       797     1    22
  6.1622145453337474E-01 b       798     1    23
  6.6151527815664823E-01 b       799     1    24
 -3.9140017018310980E-01 b       800     1    25
 -2.2417682551025400E-01 a       801     1     1     2     1
 -1.2089680975703920E+00 a       802     1     1     2     2
 -4.1683945501451325E-01 a       803     1     1     2     3
  5.2744122091247703E-01 a       804     1     1     2     4
 -7.1862708095055072E-01 a       805     1     1     2     5
  4.9238277329520036E-01 a       806     1     1     2     6
 -2.6378520290028440E-01 a       807     1     1     2     7
  1.2337973937607394E+00 a       808     1     1     2     8
 -1.1653863819642617E-01 a       809     1     1     2     9
  5.9486156505896859E-01 a       810     1     1     2    10
  1.2516836760892755E-01 a       811     1     1     2    11
 -2.9941538085702513E-01 a       812     1     1     2    12
 -3.6865690104491922E-01 a       813     1     1     2    13
 -2.1543556715510292E-01 a       814     1     1     2    14
  1.5653551977042268E-01 a       815     1     1     2    15
 -5.9099383843632736E-01 a       816     1     1     2    16
  1.5312771999611516E-01 a       817     1     1     2    17
 -2.6321735806916535E-01 a       818     1     1     2    18
  1.8634158380757312E-01 a       819     1     1     2    19
  2.0536672629893388E-01 a       820     1     1     2    20
  4.0202254353866396E-01 a       821     1     1     2    21
 -4.0618082038349823E-01 a       822     1     1     2    22
  8.5416986942188877E-01 a       823     1     1     2    23
  7.7217926175461504E-01 a       824     1     1     2    24
  1.5364831086489281E+00 a       825     1     1     2    25
  4.6377511709405800E-01 a       826     1     2     2     1
  9.5854912505250980E-02 a       827     1     2     2     2
  5.1802792463305258E-01 a       828     1     2     2     3
 -3.2298582338887816E-01 a       829     1     2     2     4
 -4.3825388972912588E-01 a       830     1     2     2     5
  4.6024691365103132E-01 a       831     1     2     2     6
  3.4707298518329666E-01 a       832     1     2     2     7
 -3.8218436833996572E-01 a       833     1     2     2     8
 -1.9112226092844151E-01 a       834     1     2     2     9
 -1.0309431362553165E+00 a       835     1     2     2    10
 -2.9703912480207029E-01 a       836     1     2     2    11
  9.5716652027234589E-02 a       837     1     2     2    12
  7.1441193710434925E-01 a       838     1     2     2    13
  1.3698346856556326E-01 a       839     1     2     2    14
 -4.3239749132052441E-01 a       840     1     2     2    15
  1.9148803015718022E-01 a       841     1     2     2    16
 -6.0532694963014055E-01 a       842     1     2     2    17
  2.8314356792168327E-01 a       843     1     2     2    18
 -7.4802646111442647E-02 a       844     1     2     2    19
  4.5793067561469297E-01 a       845     1     2     2    20
  2.1287475688390262E-01 a       846     1     2     2    21
 -7.1478718149250675E-01 a       847     1     2     2    22
  1.3428173884143371E-01 a       848     1     2     2    23
 -1.0024419390852699E+00 a       849     1     2     2    24
 -8.4375191518211878E-01 a       850     1     2     2    25
 -4.5052940614788095E-01 a       851     1     3     2     1
 -9.3395626527434583E-01 a       852     1     3     2     2
 -6.5368939884481558E-01 a       853     1     3     2     3
 -2.1131219195164141E-01 a       854     1     3     2     4
  7.8396004069084271E-02 a       855     1     3     2     5
 -5.7137909905280904E-01 a       856     1     3     2     6
  1.8255340812223328E-01 a       857     1     3     2     7
 -1.4983015993650270E-01 a       858     1     3     2     8
  3.6667970618487050E-01 a       859     1     3     2     9
 -2.5263279351543655E-01 a       860     1     3     2    10
 -5.0491405103888864E-01 a       861     1     3     2    11
  2.0398317149016226E-01 a       862     1     3     2    12
 -5.6198260844680803E-01 a       863     1     3     2    13
 -3.6905170769795875E-01 a       864     1     3     2    14
 -1.8475939915731790E-01 a       865     1     3     2    15
  3.3266353614363975E-01 a       866     1     3     2    16
  2.6409721838547862E-01 a       867     1     3     2    17
  1.0344573269902679E+00 a       868     1     3     2    18
  5.3386814049585840E-01 a       869     1     3     2    19
 -5.4971777190907112E-01 a       870     1     3     2    20
 -6.2319014344789470E-01 a       871     1     3     2    21
 -7.9446531279496280E-01 a       872     1     3     2    22
  9.9114524007560567E-01 a       873     1     3     2    23
 -1.4747375484486283E-01 a       874     1     3     2    24
  7.3068803152195627E-01 a       875     1     3     2    25
  1.8208717912430222E-01 a       876     1     4     2     1
 -2.4390275661221078E-01 a       877     1     4     2     2
  4.1245822672420795E-01 a       878     1     4     2     3
  1.4431893445979632E-01 a       879     1     4     2     4
  2.4450417258942087E-01 a       880     1     4     2     5
 -3.9422870921159127E-02 a       881     1     4     2     6
 -1.2976946273632739E-01 a       882     1     4     2     7
  1.1113044386597377E+00 a       883     1     4     2     8
  4.0238486660787770E-01 a       884     1     4     2     9
 -3.5006418505183257E-01 a       885     1     4     2    10
  7.2623825151315757E-01 a       886     1     4     2    11
  2.5362317381928379E-01 a       887     1     4     2    12
  4.7559556089521737E-01 a       888     1     4     2    13
 -2.0747018646232637E-01 a       889     1     4     2    14
 -6.3364504610581383E-03 a       890     1     4     2    15
 -1.7472966738939644E-01 a       891     1     4     2    16
 -5.2920632046879712E-01 a       892     1     4     2    17
 -6.8229157816343278E-01 a       893     1     4     2    18
 -6.5050747159473621E-01 a       894     1     4     2    19
  5.2841470882954966E-01 a       895     1     4     2    20
  1.7947076796042499E-02 a       896     1     4     2    21
  5.3871200208096515E-01 a       897     1     4     2    22
 -1.9166821813833329E-01 a       898     1     4     2    23
 -1.9361985789350558E-01 a       899     1     4     2    24
 -2.5749989784091115E-01 a       900     1     4     2    25
  1.5859202906433287E-01 a       901     1     5     2     1
  5.6496611519900763E-01 a       902     1     5     2     2
  1.7986587238269156E-01 a       903     1     5     2     3
  2.6424351820530895E-01 a       904     1     5     2     4
  2.3873934878156308E-01 a       905     1     5     2     5
  2.3750463701289795E-01 a       906     1     5     2     6
  2.3429718722378745E-01 a       907     1     5     2     7
 -1.7348461687069780E-01 a       908     1     5     2     8
  8.2270057996791790E-01 a       909     1     5     2     9
  7.6652946750668149E-01 a       910     1     5     2    10
  3.5817730437677622E-02 a       911     1     5     2    11
  6.1560537707423896E-02 a       912     1     5     2    12
  4.1442877752780899E-01 a       913     1     5     2    13
 -3.8994289732270188E-01 a       914     1     5     2    14
 -1.6452864367155828E-01 a       915     1     5     2    15
  1.0709754361495268E-01 a       916     1     5     2    16
 -4.6812122277924651E-03 a       917     1     5     2    17
  6.0899031552024718E-01 a       918     1     5     2    18
 -4.3123942225598172E-01 a       919     1     5     2    19
 -1.0716528178406712E+00 a       920     1     5     2    20
 -3.1741320247720672E-01 a       921     1     5     2    21
 -3.7661128242030550E-02 a       922     1     5     2    22
 -5.1928423730617096E-02 a       923     1     5     2    23
 -7.7322938249473028E-01 a       924     1     5     2    24
  7.2364967645440170E-01 a       925     1     5     2    25
 -2.4944132771391384E-01 a       926     1     6     2     1
 -5.8877775180329550E-01 a       927     1     6     2     2
 -1.2044292801784664E+00 a       928     1     6     2     3
  5.0290210033215665E-01 a       929     1     6     2     4
 -3.1351186655457042E-01 a       930     1     6     2     5
 -3.5250019916386710E-01 a       931     1     6     2     6
 -1.6882771547284772E-01 a       932     1     6     2     7
  8.9630023515338986E-01 a       933     1     6     2     8
 -5.8620969324987793E-01 a       934     1     6     2     9
  8.5259182480333762E-01 a       935     1     6     2    10
 -1.1407706303508867E-01 a       936     1     6     2    11
 -3.2545280781008828E-01 a       937     1     6     2    12
 -6.0044119975133758E-01 a       938     1     6     2    13
 -1.4767885236846098E-01 a       939     1     6     2    14
  6.3104073262415450E-01 a       940     1     6     2    15
 -2.8823505967052410E-01 a       941     1     6     2    16
  6.7141242338441609E-01 a       942     1     6     2    17
 -7.4785463582464373E-01 a       943     1     6     2    18
  5.6648715209254108E-01 a       944     1     6     2    19
  7.3326536940382681E-01 a       945     1     6     2    20
  2.8308156161505355E-01 a       946     1     6     2    21
 -1.3186142736642806E-01 a       947     1     6     2    22
 -9.1498218284540656E-01 a       948     1     6     2    23
 -1.5738916486814569E-01 a       949     1     6     2    24
  1.9515388580451679E-01 a       950     1     6     2    25
  5.7645129123374210E-02 a       951     1     7     2     1
 -2.9646380628524860E-01 a       952     1     7     2     2
  4.1474778368720863E-02 a       953     1     7     2     3
 -1.2056936741746384E-01 a       954     1     7     2     4
  8.5948620133843551E-02 a       955     1     7     2     5
 -1.0078236004733362E-01 a       956     1     7     2     6
 -5.1251801436660138E-02 a       957     1     7     2     7
 -2.1298409694005938E-01 a       958     1     7     2     8
  1.1212744510150734E-02 a       959     1     7     2     9
  1.5102273016429585E-02 a       960     1     7     2    10
 -2.8948159455146150E-01 a       961     1     7     2    11
  1.4700986009362599E-01 a       962     1     7     2    12
  1.5213954770587798E-01 a       963     1     7     2    13
 -2.2121297231088713E-01 a       964     1     7     2    14
 -2.3802558161601961E-01 a       965     1     7     2    15
  1.9943839771747948E-01 a       966     1     7     2    16
 -1.0879294671528321E-01 a       967     1     7     2    17
 -4.5112583726477494E-02 a       968     1     7     2    18
  2.5000719858986564E-01 a       969     1     7     2    19
 -7.4566833495424631E-02 a       970     1     7     2    20
 -1.8559480198330430E-01 a       971     1     7     2    21
  4.7959083156364313E-01 a       972     1     7     2    22
 -3.5469009768034437E-01 a       973     1     7     2    23
 -1.0377947357436568E-01 a       974     1     7     2    24
 -2.8931962585892901E-01 a       975     1     7     2    25
  1.8843322506271180E-02 a       976     1     8     2     1
  1.0910067631721965E-01 a       977     1     8     2     2
 -1.3209854173718647E-02 a       978     1     8     2     3
 -5.0155799381941468E-01 a       979     1     8     2     4
 -3.4480425705604711E-01 a       980     1     8     2     5
 -1.8973609535966321E-01 a       981     1     8     2     6
  6.2365631060018145E-01 a       982     1     8     2     7
  3.3783150485514002E-01 a       983     1     8     2     8
  3.4411192741574254E-01 a       984     1     8     2     9
 -7.3276192944893503E-01 a       985     1     8     2    10
 -3.3268384620846936E-01 a       986     1     8     2    11
  2.0201209920790338E-02 a       987     1     8     2    12
  1.9768995337807829E-01 a       988     1     8     2    13
  2.4136787895622602E-01 a       989     1     8     2    14
 -8.4417696380675189E-01 a       990     1     8     2    15
  3.1574093918948815E-01 a       991     1     8     2    16
 -1.8707860750288935E-01 a       992     1     8     2    17
 -5.6721346151440488E-01 a       993     1     8     2    18
 -1.6955025514855757E-01 a       994     1     8     2    19
  1.5445280291208530E-01 a       995     1     8     2    20
 -1.2206060093370837E-01 a       996     1     8     2    21
  9.2221189098574408E-02 a       997     1     8     2    22
  1.5230823990827838E-01 a       998     1     8     2    23
 -5.7453807428868742E-02 a       999     1     8     2    24
 -3.5345850675153223E-01 a      1000     1     8     2    25
 -2.1490766818788407E-01 a      1001     1     9     2     1
  1.0169272188414394E-01 a      1002     1     9     2     2
 -1.3455376811197256E-01 a      1003     1     9     2     3
  3.0920107180245093E-01 a      1004     1     9     2     4
 -7.1420855600038149E-02 a      1005     1     9     2     5
 -4.9856429578441341E-01 a      1006     1     9     2     6
 -8.6325820279250301E-02 a      1007     1     9     2     7
  1.7180243773871115E-01 a      1008     1     9     2     8
 -4.6621740397482347E-02 a      1009     1     9     2     9
  2.5908571167086303E-01 a      1010     1     9     2    10
 -3.2333267304042040E-01 a      1011     1     9     2    11
 -2.9921710236197580E-01 a      1012     1     9     2    12
  2.0658136422774856E-01 a      1013     1     9     2    13
 -1.2928600647893593E-01 a      1014     1     9     2    14
  3.1456649638027029E-01 a      1015     1     9     2    15
 -4.9950448870916669E-01 a      1016     1     9     2    16
  2.0847993444869403E-01 a      1017     1     9     2    17
  4.7000718947279402E-01 a      1018     1     9     2    18
 -6.3409869830084745E-02 a      1019     1     9     2    19
 -5.4139639744814338E-01 a      1020     1     9     2    20
 -6.3011288010101629E-01 a      1021     1     9     2    21
  3.8773462736507897E-01 a      1022     1     9     2    22
  2.0036574845037918E+00 a      1023     1     9     2    23
  8.8484877027943928E-02 a      1024     1     9     2    24
  1.0869665429209758E+00 a      1025     1     9     2    25
 -3.5052376393365137E-01 a      1026     1    10     2     1
 -7.4183188646100184E-01 a      1027     1    10     2     2
 -7.6658509752381393E-02 a      1028     1    10     2     3
  2.1781607090391725E-01 a      1029     1    10     2     4
  3.5467048081005426E-01 a      1030     1    10     2     5
 -5.3668471285852071E-01 a      1031     1    10     2     6
 -3.0749288167092120E-01 a      1032     1    10     2     7
 -2.3600448511029845E-01 a      1033     1    10     2     8
  8.2148118498826783E-01 a      1034     1    10     2     9
 -4.2004881216789025E-01 a      1035     1    10     2    10
  5.6854850234419019E-01 a      1036     1    10     2    11
 -2.0364385421690209E-01 a      1037     1    10     2    12
 -4.0965954763723222E-01 a      1038     1    10     2    13
 -8.5232706005065453E-02 a      1039     1    10     2    14
  3.9828695840494982E-01 a      1040     1    10     2    15
  3.3816181706796966E-01 a      1041     1    10     2    16
  1.6849247746669979E-01 a      1042     1    10     2    17
  2.1947565546272335E-01 a      1043     1    10     2    18
  3.8217832229029462E-02 a      1044     1    10     2    19
 -1.0158546725075910E+00 a      1045     1    10     2    20
 -1.1270708196035535E-01 a      1046     1    10     2    21
  3.0333894644761616E-01 a      1047     1    10     2    22
  6.6617811344186173E-01 a      1048     1    10     2    23
 -2.4376947766889834E-01 a      1049     1    10     2    24
  4.0101478584099992E-01 a      1050     1    10     2    25
  3.6394918936065157E-01 a      1051     1    11     2     1
  7.1915581952355156E-01 a      1052     1    11     2     2
 -6.8417263458053290E-01 a      1053     1    11     2     3
 -3.0705766785084920E-01 a      1054     1    11     2     4
 -2.1630576400304519E-01 a      1055     1    11     2     5
  4.0778409259029208E-01 a      1056     1    11     2     6
 -2.2306284055008854E-01 a      1057     1    11     2     7
 -1.1575009646464967E-02 a      1058     1    11     2     8
 -7.9119882004067033E-01 a      1059     1    11     2     9
  1.9241486455207757E-01 a      1060     1    11     2    10
 -3.4296069828165054E-01 a      1061     1    11     2    11
 -1.8425886307892375E-01 a      1062     1    11     2    12
  2.4279754976537612E-02 a      1063     1    11     2    13
  6.4331604414603494E-01 a      1064     1    11     2    14
 -7.4422345634755716E-01 a      1065     1    11     2    15
  1.2481369478331882E-01 a      1066     1    11     2    16
  3.1604590349564826E-01 a      1067     1    11     2    17
 -4.4448994835783390E-01 a      1068     1    11     2    18
  3.3492344643287120E-01 a      1069     1    11     2    19
  7.5054096920094515E-01 a      1070     1    11     2    20
  6.4333079137793558E-01 a      1071     1    11     2    21
  2.2756878069379305E-01 a      1072     1    11     2    22
 -1.7818107719177662E-02 a      1073     1    11     2    23
  8.2074746909174690E-01 a      1074     1    11     2    24
 -1.9611839939606546E-01 a      1075     1    11     2    25
 -2.4651503632868325E-02 a      1076     1    12     2     1
  2.1380022074484961E-01 a      1077     1    12     2     2
 -4.9031272802328202E-01 a      1078     1    12     2     3
 -7.1712563437769383E-02 a      1079     1    12     2     4
 -1.5597716999948344E-01 a      1080     1    12     2     5
 -4.1783728612954922E-02 a      1081     1    12     2     6
  8.3992117521187043E-02 a      1082     1    12     2     7
  4.8474334421256648E-01 a      1083     1    12     2     8
 -1.0742802755151108E-02 a      1084     1    12     2     9
  3.4638304839673795E-01 a      1085     1    12     2    10
  8.0166843247707377E-03 a      1086     1    12     2    11
  1.7262261320798331E-01 a      1087     1    12     2    12
 -1.0239830313237257E-01 a      1088     1    12     2    13
 -5.7789053220531894E-01 a      1089     1    12     2    14
  4.1424885757520263E-02 a      1090     1    12     2    15
 -1.5226604169728664E-01 a      1091     1    12     2    16
 -9.0264207030021457E-02 a      1092     1    12     2    17
 -3.7368376308071011E-01 a      1093     1    12     2    18
 -1.2063945472515963E-01 a      1094     1    12     2    19
  5.5173364946928727E-01 a      1095     1    12     2    20
  2.6780646591643986E-01 a      1096     1    12     2    21
  4.5323862361403072E-01 a      1097     1    12     2    22
  8.1145131361241118E-01 a      1098     1    12     2    23
 -3.2207720086616565E-01 a      1099     1    12     2    24
  4.4235715463685044E-01 a      1100     1    12     2    25
 -4.2441942748092809E-01 a      1101     1    13     2     1
 -4.4944617607747783E-01 a      1102     1    13     2     2
  2.0202278898020540E-01 a      1103     1    13     2     3
  1.8924344583331279E-01 a      1104     1    13     2     4
 -2.2828809359463947E-01 a      1105     1    13     2     5
  1.0279170902302248E-01 a      1106     1    13     2     6
  6.2087068409617485E-01 a      1107     1    13     2     7
 -7.0373743414259016E-01 a      1108     1    13     2     8
  3.7590921986433579E-01 a      1109     1    13     2     9
 -1.1994537832821760E-01 a      1110     1    13     2    10
 -4.8240043811159500E-01 a      1111     1    13     2    11
  3.9236472843110222E-02 a      1112     1    13     2    12
 -6.7552823848014443E-01 a      1113     1    13     2    13
  7.7879224721704254E-01 a      1114     1    13     2    14
 -3.3858709598332881E-01 a      1115     1    13     2    15
  1.4734214691175418E-01 a      1116     1    13     2    16
 -1.5231967704030999E-01 a      1117     1    13     2    17
 -3.7489703822580933E-01 a      1118     1    13     2    18
 -2.2266484056321587E-01 a      1119     1    13     2    19
 -1.1786341511493954E+00 a      1120     1    13     2    20
 -7.3086658062098686E-01 a      1121     1    13     2    21
  2.4723825288251550E-01 a      1122     1    13     2    22
 -5.7704181659923408E-02 a      1123     1    13     2    23
  3.0083463705634089E-01 a      1124     1    13     2    24
 -4.8132356487717842E-01 a      1125     1    13     2    25
  4.1488193132760504E-01 a      1126     1    14     2     1
 -6.5224295480128744E-02 a      1127     1    14     2     2
  2.1636946557805171E-02 a      1128     1    14     2     3
  7.2516682104803137E-02 a      1129     1    14     2     4
  1.1153468656437798E-01 a      1130     1    14     2     5
 -5.0824682433953834E-02 a      1131     1    14     2     6
 -1.0369606571420591E-01 a      1132     1    14     2     7
  7.7463219192909327E-01 a      1133     1    14     2     8
  3.2039293339519082E-01 a      1134     1    14     2     9
 -1.8591790768127128E-01 a      1135     1    14     2    10
  7.3781382186897254E-02 a      1136     1    14     2    11
  1.7915666201224903E-01 a      1137     1    14     2    12
  1.0609545560976974E+00 a      1138     1    14     2    13
  4.5953552858684749E-01 a      1139     1    14     2    14
 -3.2339173185170128E-01 a      1140     1    14     2    15
 -2.2183871069318194E-02 a      1141     1    14     2    16
 -2.1280174182370545E-01 a      1142     1    14     2    17
  3.9320559852510983E-01 a      1143     1    14     2    18
 -5.6669478191759959E-01 a      1144     1    14     2    19
  5.5312691177109397E-01 a      1145     1    14     2    20
  1.5382682115825272E-01 a      1146     1    14     2    21
 -1.6115302824315814E-01 a      1147     1    14     2    22
  1.3971516102868833E-01 a      1148     1    14     2    23
  2.1466221009207254E-01 a      1149     1    14     2    24
 -8.5826328345681913E-01 a      1150     1    14     2    25
  4.5757770098792233E-01 a      1151     1    15     2     1
  5.1589607247062996E-01 a      1152     1    15     2     2
  4.6429212195136356E-02 a      1153     1    15     2     3
 -2.0816012891712599E-01 a      1154     1    15     2     4
  2.9399971648732587E-01 a      1155     1    15     2     5
  1.3956969689429072E-01 a      1156     1    15     2     6
  1.0561520501758626E+00 a      1157     1    15     2     7
 -9.1794960549690452E-01 a      1158     1    15     2     8
 -5.2244798175295371E-01 a      1159     1    15     2     9
  1.0878035021978520E+00 a      1160     1    15     2    10
  8.3764919673633120E-01 a      1161     1    15     2    11
 -7.9908466150809501E-02 a      1162     1    15     2    12
  7.3182877067202523E-01 a      1163     1    15     2    13
 -6.6304862043120383E-01 a      1164     1    15     2    14
  3.2076319763987650E-02 a      1165     1    15     2    15
  6.0538427163897623E-01 a      1166     1    15     2    16
 -3.7687597416870444E-01 a      1167     1    15     2    17
 -1.5740573727197468E-01 a      1168     1    15     2    18
  8.3668842956672429E-02 a      1169     1    15     2    19
  4.4403726519496090E-01 a      1170     1    15     2    20
 -1.4331479859467725E-01 a      1171     1    15     2    21
  5.4528529160751606E-02 a      1172     1    15     2    22
  2.5467103126871532E-01 a      1173     1    15     2    23
 -7.5436775599688599E-01 a      1174     1    15     2    24
  7.4231459273476641E-01 a      1175     1    15     2    25
  1.0262631306924914E+00 a      1176     1    16     2     1
  2.7161561412320023E-01 a      1177     1    16     2     2
  1.7736088267213118E-01 a      1178     1    16     2     3
  1.7543464596849118E-01 a      1179     1    16     2     4
 -5.6360470554010578E-01 a      1180     1    16     2     5
  2.5963735269657805E-02 a      1181     1    16     2     6
  8.2902058376368037E-01 a      1182     1    16     2     7
  1.1408551512498728E+00 a      1183     1    16     2     8
 -1.8596839289516434E-01 a      1184     1    16     2     9
  4.1964286751989360E-01 a      1185     1    16     2    10
  4.4897469967525618E-03 a      1186     1    16     2    11
  1.7983406991324638E-01 a      1187     1    16     2    12
  5.2771496216776914E-01 a      1188     1    16     2    13
  4.2347485837436610E-01 a      1189     1    16     2    14
 -4.8057796858269569E-01 a      1190     1    16     2    15
  3.3868322529088180E-01 a      1191     1    16     2    16
  2.9188639002111816E-01 a      1192     1    16     2    17
  4.4113712315321763E-01 a      1193     1    16     2    18
 -1.9448741462953514E-01 a      1194     1    16     2    19
  7.3370657974650033E-02 a      1195     1    16     2    20
 -1.5269641092345929E-01 a      1196     1    16     2    21
 -3.5173770766566670E-01 a      1197     1    16     2    22
 -8.7380580277227304E-01 a      1198     1    16     2    23
  5.0756640466282821E-01 a      1199     1    16     2    24
  1.2665476900935618E-01 a      1200     1    16     2    25
  2.2808136883085861E-01 a      1201     1    17     2     1
 -2.2243884822222709E-01 a      1202     1    17     2     2
  7.8899391670471553E-01 a      1203     1    17     2     3
 -2.1173132787481612E-02 a      1204     1    17     2     4
 -3.2847025087981913E-01 a      1205     1    17     2     5
  4.3757592457549932E-01 a      1206     1    17     2     6
  4.2171119376416577E-01 a      1207     1    17     2     7
 -6.4818195276418367E-01 a      1208     1    17     2     8
 -3.6433215958420673E-01 a      1209     1    17     2     9
 -5.4962712735487873E-01 a      1210     1    17     2    10
 -6.7164858941342342E-01 a      1211     1    17     2    11
 -1.1355652573455112E-01 a      1212     1    17     2    12
  1.2425088719955829E-01 a      1213     1    17     2    13
  3.4332094064902757E-01 a      1214     1    17     2    14
  3.0919435976773524E-01 a      1215     1    17     2    15
  3.7530037570830083E-01 a      1216     1    17     2    16
 -1.4455887425081410E-01 a      1217     1    17     2    17
  9.5576714156715425E-01 a      1218     1    17     2    18
  3.4121572951289492E-01 a      1219     1    17     2    19
 -2.9375597039389695E-01 a      1220     1    17     2    20
 -3.5057823988495780E-02 a      1221     1    17     2    21
 -2.9698779191611130E-01 a      1222     1    17     2    22
  1.6113486759391149E-01 a      1223     1    17     2    23
  4.0691220697332317E-02 a      1224     1    17     2    24
 -5.6709904946423662E-01 a      1225     1    17     2    25
 -1.9016945894538978E-01 a      1226     1    18     2     1
 -1.3985651303461972E+00 a      1227     1    18     2     2
 -9.3462388680104716E-02 a      1228     1    18     2     3
  5.9043260840898892E-01 a      1229     1    18     2     4
 -9.2218684498053871E-02 a      1230     1    18     2     5
 -1.5763893687161665E-01 a      1231     1    18     2     6
 -1.6209918366196194E-01 a      1232     1    18     2     7
  1.3740921386229332E+00 a      1233     1    18     2     8
  5.0714867221109527E-01 a      1234     1    18     2     9
  7.6032412094971455E-03 a      1235     1    18     2    10
 -2.9460329073734060E-01 a      1236     1    18     2    11
 -3.3433114536119490E-01 a      1237     1    18     2    12
  6.0016641712858187E-01 a      1238     1    18     2    13
 -3.3596385086995756E-01 a      1239     1    18     2    14
  8.7523795491458833E-01 a      1240     1    18     2    15
 -1.6341332324258168E-01 a      1241     1    18     2    16
 -5.1757131905781661E-01 a      1242     1    18     2    17
  7.6710388158603471E-01 a      1243     1    18     2    18
 -1.2694924085256071E-01 a      1244     1    18     2    19
 -1.5686178836382005E+00 a      1245     1    18     2    20
 -1.2464306054314938E-02 a      1246     1    18     2    21
  4.9174653322676265E-01 a      1247     1    18     2    22
 -1.6718312734976964E-02 a      1248     1    18     2    23
 -1.7722654385748191E-01 a      1249     1    18     2    24
  7.0567311774402530E-01 a      1250     1    18     2    25
  4.4383491972663197E-02 a      1251     1    19     2     1
 -3.3486813691163836E-01 a      1252     1    19     2     2
  1.7725130289182592E-01 a      1253     1    19     2     3
 -5.2298844988109094E-01 a      1254     1    19     2     4
 -2.1435035143265951E-01 a      1255     1    19     2     5
 -4.8325643908741139E-01 a      1256     1    19     2     6
  3.1094773693334948E-01 a      1257     1    19     2     7
 -8.7310095812563648E-01 a      1258     1    19     2     8
 -2.5389720864386250E-01 a      1259     1    19     2     9
 -9.2601569558267605E-01 a      1260     1    19     2    10
 -5.3995812166285649E-02 a      1261     1    19     2    11
 -1.6628216164588372E-01 a      1262     1    19     2    12
  1.1564238604606689E-01 a      1263     1    19     2    13
  1.1070100338796310E-01 a      1264     1    19     2    14
  3.9276284856463517E-01 a      1265     1    19     2    15
  6.5539152466385164E-01 a      1266     1    19     2    16
 -2.8523251423675494E-01 a      1267     1    19     2    17
  2.3823079753678120E-01 a      1268     1    19     2    18
  2.6347747526205245E-01 a      1269     1    19     2    19
 -1.6813010082127544E-01 a      1270     1    19     2    20
  4.7744969999971659E-01 a      1271     1    19     2    21
 -2.4916919221058947E-01 a      1272     1    19     2    22
  8.2498142094847404E-01 a      1273     1    19     2    23
 -1.9673682028121561E-01 a      1274     1    19     2    24
 -4.0738047366861180E-01 a      1275     1    19     2    25
  5.1552324580752862E-01 a      1276     1    20     2     1
  2.9254617992748239E-01 a      1277     1    20     2     2
  1.1690210794345808E-01 a      1278     1    20     2     3
 -2.1735407127538974E-02 a      1279     1    20     2     4
 -6.3644893377530445E-02 a      1280     1    20     2     5
  3.4402094570262071E-01 a      1281     1    20     2     6
 -1.4013693419468226E-01 a      1282     1    20     2     7
  1.1543111227291934E-01 a      1283     1    20     2     8
 -9.5211855541121870E-01 a      1284     1    20     2     9
  4.5100224304902931E-01 a      1285     1    20     2    10
 -5.3574304934010231E-01 a      1286     1    20     2    11
 -2.8570799933549657E-01 a      1287     1    20     2    12
 -4.1811341813107215E-02 a      1288     1    20     2    13
  1.8331249448414652E-01 a      1289     1    20     2    14
 -2.1088215421435136E-01 a      1290     1    20     2    15
  2.4757060818183914E-02 a      1291     1    20     2    16
  1.5302245175115942E-02 a      1292     1    20     2    17
  6.4941016234229176E-01 a      1293     1    20     2    18
 -2.9668538844974023E-02 a      1294     1    20     2    19
  1.0671986546003831E+00 a      1295     1    20     2    20
  2.1421633603558854E-01 a      1296     1    20     2    21
 -3.5512827305825079E-01 a      1297     1    20     2    22
  1.3064597822427876E-01 a      1298     1    20     2    23
  5.2758098942790717E-02 a      1299     1    20     2    24
 -9.6257471011061602E-01 a      1300     1    20     2    25
  3.3759867935858034E-01 a      1301     1    21     2     1
  4.7560644438260163E-01 a      1302     1    21     2     2
  2.2219181674167932E-01 a      1303     1    21     2     3
 -4.3618048938749188E-01 a      1304     1    21     2     4
  4.2138086300400618E-01 a      1305     1    21     2     5
 -9.9819036719739990E-02 a      1306     1    21     2     6
 -9.6381987080154177E-02 a      1307     1    21     2     7
  1.2203148785371277E-02 a      1308     1    21     2     8
  2.3604380911026501E-01 a      1309     1    21     2     9
 -4.8936867160917985E-01 a      1310     1    21     2    10
  6.7485291007784776E-01 a      1311     1    21     2    11
 -1.5635970331303559E-01 a      1312     1    21     2    12
  6.7427291604574258E-01 a      1313     1    21     2    13
  1.3175725630900749E-03 a      1314     1    21     2    14
 -5.9922932697094211E-01 a      1315     1    21     2    15
  1.5920230415655034E-01 a      1316     1    21     2    16
 -8.4311203049067673E-01 a      1317     1    21     2    17
 -1.3143801843051053E+00 a      1318     1    21     2    18
 -5.9564026442436313E-01 a      1319     1    21     2    19
 -1.6139486022829022E-01 a      1320     1    21     2    20
 -6.6563349935732874E-02 a      1321     1    21     2    21
  1.9567999885960591E-01 a      1322     1    21     2    22
 -1.2874577959281353E-01 a      1323     1    21     2    23
 -4.4730246066798318E-01 a      1324     1    21     2    24
 -5.4069696552897917E-01 a      1325     1    21     2    25
 -1.3738685960129962E-01 a      1326     1    22     2     1
 -1.0384394622699751E+00 a      1327     1    22     2     2
 -8.5991973477212921E-02 a      1328     1    22     2     3
 -6.0943991603886451E-02 a      1329     1    22     2     4
 -3.3161714833197098E-01 a      1330     1    22     2     5
  1.4797173929294041E-01 a      1331     1    22     2     6
 -2.6788395104985496E-01 a      1332     1    22     2     7
  1.5347947191368611E-01 a      1333     1    22     2     8
 -4.0046510285682929E-01 a      1334     1    22     2     9
 -2.7602443446781771E-01 a      1335     1    22     2    10
  5.1840526768938133E-01 a      1336     1    22     2    11
  2.5377530368131440E-01 a      1337     1    22     2    12
 -4.6071413675148798E-01 a      1338     1    22     2    13
 -1.6582020423755542E-01 a      1339     1    22     2    14
  9.3691853750129853E-02 a      1340     1    22     2    15
  3.1254696199901143E-02 a      1341     1    22     2    16
 -4.7448124671904221E-02 a      1342     1    22     2    17
  3.1050397861829865E-01 a      1343     1    22     2    18
  3.8613411166815642E-01 a      1344     1    22     2    19
  1.3769163973399484E-01 a      1345     1    22     2    20
  2.5742160508201090E-01 a      1346     1    22     2    21
  7.8519805441504848E-03 a      1347     1    22     2    22
  4.1098881596847392E-01 a      1348     1    22     2    23
  3.5198696834694959E-01 a      1349     1    22     2    24
  3.8316402377060910E-01 a      1350     1    22     2    25
 -3.4883236223567304E-01 a      1351     1    23     2     1
  3.6104929671456104E-01 a      1352     1    23     2     2
 -6.2209992074027977E-03 a      1353     1    23     2     3
  1.9297837733958986E-01 a      1354     1    23     2     4
 -1.9944085270724424E-01 a      1355     1    23     2     5
  1.0758229509244097E-01 a      1356     1    23     2     6
  1.2070555597485251E-02 a      1357     1    23     2     7
 -1.2233103456159795E+00 a      1358     1    23     2     8
  3.3638682446691492E-01 a      1359     1    23     2     9
  3.4412689100832122E-01 a      1360     1    23     2    10
 -4.8872405627327054E-01 a      1361     1    23     2    11
 -2.8978620854383552E-01 a      1362     1    23     2    12
  8.0060351097208479E-02 a      1363     1    23     2    13
  5.0706812917647295E-02 a      1364     1    23     2    14
  5.4436519378179904E-01 a      1365     1    23     2    15
 -6.1510616639366134E-02 a      1366     1    23     2    16
  1.2683443285576385E-01 a      1367     1    23     2    17
 -9.9143552216947672E-01 a      1368     1    23     2    18
 -9.7288871217513812E-02 a      1369     1    23     2    19
 -1.1946276515716424E-01 a      1370     1    23     2    20
 -1.0762251353282265E-01 a      1371     1    23     2    21
  3.8893662639270565E-01 a      1372     1    23     2    22
  1.8445314003386226E-01 a      1373     1    23     2    23
 -3.2952277632080262E-01 a      1374     1    23     2    24
  5.5741329339257883E-01 a      1375     1    23     2    25
 -1.8997940069093963E-01 a      1376     1    24     2     1
  4.4478695978132915E-01 a      1377     1    24     2     2
 -2.6848248683573905E-01 a      1378     1    24     2     3
 -3.1133029001266466E-01 a      1379     1    24     2     4
  1.4384207103094185E-01 a      1380     1    24     2     5
 -8.7480900902329448E-02 a      1381     1    24     2     6
  1.9470921111976011E-01 a      1382     1    24     2     7
  2.2037117921970700E-01 a      1383     1    24     2     8
 -2.6025283181469727E-01 a      1384     1    24     2     9
 -2.5065916404520626E-02 a      1385     1    24     2    10
  2.4618974102136211E-02 a      1386     1    24     2    11
  2.1689474944547740E-01 a      1387     1    24     2    12
 -4.2189964727691065E-01 a      1388     1    24     2    13
  3.1994942310577296E-01 a      1389     1    24     2    14
 -3.1661240385522005E-01 a      1390     1    24     2    15
 -7.1113149958872346E-01 a      1391     1    24     2    16
  4.8487452553364485E-01 a      1392     1    24     2    17
  8.7884297477615203E-01 a      1393     1    24     2    18
  2.3219338968921510E-01 a      1394     1    24     2    19
 -7.9988449335630429E-01 a      1395     1    24     2    20
 -7.3312126199345920E-02 a      1396     1    24     2    21
 -3.7858645868551460E-01 a      1397     1    24     2    22
  1.5341935935301762E-01 a      1398     1    24     2    23
  4.5648104119761673E-01 a      1399     1    24     2    24
 -3.6327547349723011E-01 a      1400     1    24     2    25
 -2.2008864094779765E-01 a      1401     1    25     2     1
 -3.1427280954047104E-01 a      1402     1    25     2     2
 -7.0152661880542966E-01 a      1403     1    25     2     3
  4.9294253752364980E-01 a      1404     1    25     2     4
  1.6854190508374950E-01 a      1405     1    25     2     5
 -1.3728246268951111E-01 a      1406     1    25     2     6
  3.3126671754301212E-01 a      1407     1    25     2     7
  1.5055967762545888E-01 a      1408     1    25     2     8
 -2.2303198009643723E-02 a      1409     1    25     2     9
  4.3091849509270763E-01 a      1410     1    25     2    10
 -9.0288736926079483E-01 a      1411     1    25     2    11
  1.2171290488029467E-01 a      1412     1    25     2    12
 -8.4641478341814547E-01 a      1413     1    25     2    13
  2.6275030694420781E-01 a      1414     1    25     2    14
 -3.4740280137984780E-01 a      1415     1    25     2    15
 -1.7276822479890969E-01 a      1416     1    25     2    16
 -3.6743520765112370E-01 a      1417     1    25     2    17
  7.8881302372583861E-01 a      1418     1    25     2    18
 -4.5739998935924076E-01 a      1419     1    25     2    19
  2.1329548220653394E-01 a      1420     1    25     2    20
  4.0377139154496083E-01 a      1421     1    25     2    21
  5.7395219729029956E-01 a      1422     1    25     2    22
  5.0546875172715244E-01 a      1423     1    25     2    23
  9.4644388347203540E-02 a      1424     1    25     2    24
 -1.6416703941476618E-01 a      1425     1    25     2    25
 -5.9844843169938589E-01 b      1426     2     1
 -8.4632029439256440E-01 b      1427     2     2
 -6.2984936436132188E-01 b      1428     2     3
 -6.0966129443780714E-01 b      1429     2     4
 -4.9864939191092000E-01 b      1430     2     5
  1.4717760426000948E+00 b      1431     2     6
  1.1279690899415993E+00 b      1432     2     7
 -8.2846340989167411E-01 b      1433     2     8
 -7.7302491958448472E-01 b      1434     2     9
  6.3368351032829384E-01 b      1435     2    10
  2.9681892286492156E-01 b      1436     2    11
  1.6430829564033300E-01 b      1437     2    12
  8.2315732389295670E-01 b      1438     2    13
 -9.6890834028007278E-01 b      1439     2    14
  4.0962332307318944E-01 b      1440     2    15
 -9.5938811526708512E-01 b      1441     2    16
 -5.3734420694457330E-01 b      1442     2    17
  7.9223206105508859E-01 b      1443     2    18
  6.2770992334827658E-01 b      1444     2    19
 -2.6589592435750703E-01 b      1445     2    20
 -3.1927054187698350E-01 b      1446     2    21
  6.2431280980453314E-02 b      1447     2    22
 -1.7069634658034652E-01 b      1448     2    23
  2.3890528536332042E-01 b      1449     2    24
 -1.1900667148116713E+00 b      1450     2    25
  7.9851274390395466E-01 a      1451     2     1     3     1
  1.2499329100404344E+00 a      1452     2     2     3     1
  1.0264725605956799E+00 a      1453     2     3     3     1
  5.3871872329413073E-01 a      1454     2     4     3     1
  1.0846578334405872E+00 a      1455     2     5     3     1
 -1.3553526186318652E+00 a      1456     2     6     3     1
 -1.2096470434864539E+00 a      1457     2     7     3     1
  1.0664396894257673E+00 a      1458     2     8     3     1
  8.0573742379153857E-01 a      1459     2     9     3     1
 -7.9213753018522470E-01 a      1460     2    10     3     1
 -5.6636687635351313E-01 a      1461     2    11     3     1
  1.3627931807746912E-02 a      1462     2    12     3     1
 -4.4665059718676886E-01 a      1463     2    13     3     1
  1.3221212565119256E+00 a      1464     2    14     3     1
 -1.4488793388154610E+00 a      1465     2    15     3     1
  6.9278747917666517E-01 a      1466     2    16     3     1
  5.8042790876053951E-01 a      1467     2    17     3     1
 -1.6195875097087178E-01 a      1468     2    18     3     1
 -7.5235420291700006E-01 a      1469     2    19     3     1
  1.5779224745095659E+00 a      1470     2    20     3     1
  6.2330633539832991E-01 a      1471     2    21     3     1
 -7.2549227445943970E-02 a      1472     2    22     3     1
  1.2319828828939434E-01 a      1473     2    23     3     1
 -5.6230533294864848E-01 a      1474     2    24     3     1
  6.9825981883973254E-01 a      1475     2    25     3     1
 -1.5396499140018998E+00 b      1476     3     1
