################################################################################
# Neural network connection values (weights and biases).
################################################################################
# Col  Name       Description
################################################################################
# 1    connection Neural network connection value.
# 2    t          Connection type (a = weight, b = bias).
# 3    index      Index enumerating weights.
# 4    l_s        Starting point layer (end point layer for biases).
# 5    n_s        Starting point neuron in starting layer (end point neuron for biases).
# 6    l_e        End point layer.
# 7    n_e        End point neuron in end layer.
################################################################################
#                      1 2         3     4     5     6     7
#             connection t     index   l_s   n_s   l_e   n_e
############################################################
  1.9310689800083218E+00 a         1     0     1     1     1
  2.7866368096319878E+00 a         2     0     1     1     2
 -3.5842826060470485E+00 a         3     0     1     1     3
  7.4923269988331151E+00 a         4     0     1     1     4
  2.6234434512770681E+00 a         5     0     1     1     5
 -1.0769124235595007E-01 a         6     0     1     1     6
  9.6750494602273278E+00 a         7     0     1     1     7
  7.1677326741947898E+00 a         8     0     1     1     8
 -1.0960777810809439E+00 a         9     0     1     1     9
  3.3255299692237563E+00 a        10     0     1     1    10
  1.4892390274078822E+00 a        11     0     1     1    11
  1.5929970879012606E+01 a        12     0     1     1    12
  6.3447295454234514E+00 a        13     0     1     1    13
  5.2538363883683052E+00 a        14     0     1     1    14
  4.5463335350223861E+00 a        15     0     1     1    15
  3.2973117632035418E+00 a        16     0     1     1    16
  8.4739619149354972E-01 a        17     0     1     1    17
  3.1336958533342929E+00 a        18     0     1     1    18
 -2.1443105460147787E+00 a        19     0     1     1    19
  1.0521902796227774E+01 a        20     0     1     1    20
  3.2899717323608328E+00 a        21     0     1     1    21
  4.2900887933404324E+00 a        22     0     1     1    22
  2.4788834909655058E+00 a        23     0     1     1    23
  7.6173663972384089E+00 a        24     0     1     1    24
 -6.6482142543046816E+00 a        25     0     1     1    25
 -8.8745138178507921E-01 a        26     0     2     1     1
  9.7604218730732661E+00 a        27     0     2     1     2
  2.7298884234386764E+00 a        28     0     2     1     3
 -7.6981945873697546E+00 a        29     0     2     1     4
  5.4305651905144448E+00 a        30     0     2     1     5
 -7.8768032499924789E+00 a        31     0     2     1     6
 -4.2580320612316367E+00 a        32     0     2     1     7
 -2.4757901349515915E+01 a        33     0     2     1     8
  2.5228608049927082E+01 a        34     0     2     1     9
 -7.4044369963942342E+00 a        35     0     2     1    10
  9.5636322909686537E+00 a        36     0     2     1    11
 -2.4964735300176706E+01 a        37     0     2     1    12
 -1.1156667119123343E+01 a        38     0     2     1    13
 -6.7443085247535706E+00 a        39     0     2     1    14
 -3.5374917942183641E+00 a        40     0     2     1    15
 -1.1477818894910682E+01 a        41     0     2     1    16
  2.2558675638271088E+00 a        42     0     2     1    17
 -7.5170940065718184E-01 a        43     0     2     1    18
 -1.2027958848679003E+01 a        44     0     2     1    19
 -1.6923676638106038E+01 a        45     0     2     1    20
 -5.1229713648098762E+00 a        46     0     2     1    21
  3.9361806854912262E+00 a        47     0     2     1    22
 -1.3034518380356937E+01 a        48     0     2     1    23
 -1.7712082514193239E+00 a        49     0     2     1    24
 -1.0730430828897239E+01 a        50     0     2     1    25
 -3.9696712987578384E+00 a        51     0     3     1     1
 -2.7340366992136484E+00 a        52     0     3     1     2
 -5.2546738752677982E+00 a        53     0     3     1     3
 -3.1559287543603212E+00 a        54     0     3     1     4
  1.6356367016997206E+00 a        55     0     3     1     5
  9.2625305429161724E+00 a        56     0     3     1     6
 -1.7519415602288536E+01 a        57     0     3     1     7
  3.8559051173055275E-01 a        58     0     3     1     8
 -6.5989717721575074E+00 a        59     0     3     1     9
 -4.7567708466850007E+00 a        60     0     3     1    10
 -5.9981122853597704E+00 a        61     0     3     1    11
 -8.2963083883037019E+00 a        62     0     3     1    12
 -3.8912798373485180E+00 a        63     0     3     1    13
 -5.9520438371596107E+00 a        64     0     3     1    14
 -7.4995693141312438E+00 a        65     0     3     1    15
 -6.4682248134108000E-01 a        66     0     3     1    16
 -1.0992102851094614E+01 a        67     0     3     1    17
 -1.4384304381792434E+00 a        68     0     3     1    18
  1.2075373989520518E+01 a        69     0     3     1    19
 -2.9478054763194117E+00 a        70     0     3     1    20
 -7.8313938763618003E+00 a        71     0     3     1    21
 -8.4508543614634029E+00 a        72     0     3     1    22
  1.7379704948755372E+00 a        73     0     3     1    23
 -1.3457217563894606E+01 a        74     0     3     1    24
  1.4540829584040816E+01 a        75     0     3     1    25
  4.9631865380799827E+00 a        76     0     4     1     1
 -1.6860691041773713E+01 a        77     0     4     1     2
  3.4427684034862547E+00 a        78     0     4     1     3
  7.2966780600111836E+00 a        79     0     4     1     4
 -2.0034288283501894E+01 a        80     0     4     1     5
  7.9684598050366446E+00 a        81     0     4     1     6
  4.8491530350604695E+00 a        82     0     4     1     7
  3.1510857669331685E+01 a        83     0     4     1     8
 -4.2662222089645610E+01 a        84     0     4     1     9
  1.2113023897262392E+01 a        85     0     4     1    10
 -1.1316410492343694E+01 a        86     0     4     1    11
  3.6259106785876355E+01 a        87     0     4     1    12
  1.1816001501226991E+01 a        88     0     4     1    13
  4.7774789869547982E+00 a        89     0     4     1    14
  7.6605045327681684E-02 a        90     0     4     1    15
  2.1271149777298948E+01 a        91     0     4     1    16
  1.2937949331685714E+00 a        92     0     4     1    17
 -6.8994932237487117E+00 a        93     0     4     1    18
  1.9815409352539177E+01 a        94     0     4     1    19
  1.2842641962599933E+01 a        95     0     4     1    20
  1.4839097511498050E+01 a        96     0     4     1    21
 -9.7789655840355838E+00 a        97     0     4     1    22
  1.8486577838954894E+01 a        98     0     4     1    23
  5.3345731995098582E+00 a        99     0     4     1    24
  2.5266958758603458E+01 a       100     0     4     1    25
  7.4236066304016264E+00 a       101     0     5     1     1
 -4.1547985842278639E+00 a       102     0     5     1     2
  9.9290209143767836E+00 a       103     0     5     1     3
  3.6658965100866583E+00 a       104     0     5     1     4
  1.1960045957563153E+01 a       105     0     5     1     5
 -2.1922311693395159E+01 a       106     0     5     1     6
  1.4522013963189336E+01 a       107     0     5     1     7
 -1.1644179813199120E+01 a       108     0     5     1     8
  2.6998304768457477E+00 a       109     0     5     1     9
 -4.1368635256129176E+00 a       110     0     5     1    10
  2.2992501362540505E+00 a       111     0     5     1    11
 -3.9612810685370499E+00 a       112     0     5     1    12
 -1.0428871809643146E+01 a       113     0     5     1    13
  8.8324461499151519E-01 a       114     0     5     1    14
  1.3905399366898630E+01 a       115     0     5     1    15
 -5.0974240572341607E+00 a       116     0     5     1    16
  1.6840974263695617E+01 a       117     0     5     1    17
  7.5660815481140871E+00 a       118     0     5     1    18
 -1.4930346205578456E+01 a       119     0     5     1    19
 -2.2021446558818378E+00 a       120     0     5     1    20
  4.7886909710986023E+00 a       121     0     5     1    21
  3.5426922228875957E+00 a       122     0     5     1    22
 -4.9869840685280851E+00 a       123     0     5     1    23
  8.6633661632144339E+00 a       124     0     5     1    24
 -2.1451842666688016E+01 a       125     0     5     1    25
 -1.2159323233790927E+01 a       126     0     6     1     1
  3.9953657292352545E+00 a       127     0     6     1     2
 -7.9069024056783768E+00 a       128     0     6     1     3
 -4.0613864251254874E+00 a       129     0     6     1     4
  1.3735401572959880E+01 a       130     0     6     1     5
  6.1643103077144064E+00 a       131     0     6     1     6
 -2.0238461665230263E+00 a       132     0     6     1     7
 -2.5973110836486972E+00 a       133     0     6     1     8
  4.0162704102255525E+01 a       134     0     6     1     9
  4.8355984513525092E+00 a       135     0     6     1    10
  2.2394742190250190E+00 a       136     0     6     1    11
 -2.5559184909688472E+01 a       137     0     6     1    12
  2.1287303449105246E+00 a       138     0     6     1    13
  8.9349873009753971E+00 a       139     0     6     1    14
  2.9134253329209563E+00 a       140     0     6     1    15
 -8.2438505888877280E+00 a       141     0     6     1    16
 -4.0685735244930896E+00 a       142     0     6     1    17
  1.0340762138865376E+01 a       143     0     6     1    18
 -1.7657410193526779E+01 a       144     0     6     1    19
  5.6749268510509721E+00 a       145     0     6     1    20
 -2.1616167859977132E+01 a       146     0     6     1    21
  1.5858626845795039E+01 a       147     0     6     1    22
 -2.0363859498139632E+01 a       148     0     6     1    23
 -1.6152619911389024E+01 a       149     0     6     1    24
 -1.7014067156439058E+01 a       150     0     6     1    25
 -7.4069066194616795E+00 a       151     0     7     1     1
  1.2060663150383792E+01 a       152     0     7     1     2
 -8.6151118122454680E+00 a       153     0     7     1     3
 -9.0781984279590819E+00 a       154     0     7     1     4
 -3.6821625341743149E+00 a       155     0     7     1     5
  1.5773409902951002E+01 a       156     0     7     1     6
 -8.8852980209076939E+00 a       157     0     7     1     7
  1.1251987768700754E+01 a       158     0     7     1     8
 -3.2069523109222229E+00 a       159     0     7     1     9
  5.0021428858498354E+00 a       160     0     7     1    10
 -3.2810649088232822E+00 a       161     0     7     1    11
  4.6635243749327664E+00 a       162     0     7     1    12
  1.4511562877798012E+01 a       163     0     7     1    13
 -9.6472248108567071E-01 a       164     0     7     1    14
 -1.7583850037614440E+01 a       165     0     7     1    15
 -8.4750615695556653E-01 a       166     0     7     1    16
 -1.3903500591165461E+01 a       167     0     7     1    17
 -1.6486741821742115E+01 a       168     0     7     1    18
  1.2169502469280346E+01 a       169     0     7     1    19
 -6.5741152113158241E-01 a       170     0     7     1    20
  3.1654266996388181E+00 a       171     0     7     1    21
 -2.7160215827915364E+00 a       172     0     7     1    22
  3.5114783535622958E+00 a       173     0     7     1    23
 -9.9837507105846122E+00 a       174     0     7     1    24
  1.4273033161261621E+01 a       175     0     7     1    25
  3.4055283397033618E+00 a       176     0     8     1     1
  1.2145760234242111E+00 a       177     0     8     1     2
  1.1459518987307920E+00 a       178     0     8     1     3
 -3.2878760822550348E+01 a       179     0     8     1     4
 -2.4194452096572096E+01 a       180     0     8     1     5
 -5.0523140037920715E+00 a       181     0     8     1     6
 -9.8471714161908910E+00 a       182     0     8     1     7
 -8.0550529338301864E+00 a       183     0     8     1     8
 -1.1874454368282233E+01 a       184     0     8     1     9
 -1.5630331991863734E+01 a       185     0     8     1    10
  7.3294996761412907E+00 a       186     0     8     1    11
  2.0539587578525000E+00 a       187     0     8     1    12
  1.0014795679596082E+01 a       188     0     8     1    13
 -1.0830227988682857E+01 a       189     0     8     1    14
 -2.8228894794383077E+00 a       190     0     8     1    15
 -1.4297317596445181E+01 a       191     0     8     1    16
 -6.4061147244496297E+00 a       192     0     8     1    17
 -1.3200377504605390E+01 a       193     0     8     1    18
  1.2257047921476564E+01 a       194     0     8     1    19
  8.6007827490421054E+00 a       195     0     8     1    20
  9.4177619496208909E+00 a       196     0     8     1    21
 -1.0127014327560685E+01 a       197     0     8     1    22
  1.1045292008663390E+01 a       198     0     8     1    23
  2.8030765868760042E+01 a       199     0     8     1    24
  1.0784730001286006E+01 a       200     0     8     1    25
  1.2091116303640450E+00 a       201     0     9     1     1
 -8.2559951559349845E+00 a       202     0     9     1     2
  1.5223076365752954E+00 a       203     0     9     1     3
  1.0316213711994523E+01 a       204     0     9     1     4
  8.9285852713561713E+00 a       205     0     9     1     5
 -1.1580087167724042E+01 a       206     0     9     1     6
  5.1292254005135351E+00 a       207     0     9     1     7
 -1.9617902495392445E+00 a       208     0     9     1     8
 -3.7254106847863100E+00 a       209     0     9     1     9
 -3.9635503242366941E+00 a       210     0     9     1    10
 -2.2347288011745467E-01 a       211     0     9     1    11
 -4.8408903490006067E-01 a       212     0     9     1    12
 -8.3761461621075419E+00 a       213     0     9     1    13
  5.6294175041816032E+00 a       214     0     9     1    14
  9.3754163629327767E+00 a       215     0     9     1    15
 -3.2938415697741247E-01 a       216     0     9     1    16
 -7.7233869551274859E-01 a       217     0     9     1    17
  7.5841955927007012E+00 a       218     0     9     1    18
 -2.6265112616412938E+00 a       219     0     9     1    19
 -8.1911097927467189E+00 a       220     0     9     1    20
 -3.4268032815798897E+00 a       221     0     9     1    21
 -6.5465989612460476E+00 a       222     0     9     1    22
 -8.7313314493325156E-01 a       223     0     9     1    23
  2.0215508006387224E+00 a       224     0     9     1    24
 -4.4750208510907967E+00 a       225     0     9     1    25
  7.2833705577311596E+00 a       226     0    10     1     1
  5.7342023724510902E+00 a       227     0    10     1     2
  2.3354687106255927E+00 a       228     0    10     1     3
  1.9150913359578091E+01 a       229     0    10     1     4
  9.2208375627665671E+00 a       230     0    10     1     5
 -1.8978178936654921E-01 a       231     0    10     1     6
  2.7199633436206665E+00 a       232     0    10     1     7
 -4.3241608801831042E+00 a       233     0    10     1     8
 -4.5155434785662232E+00 a       234     0    10     1     9
 -5.9579016814571899E+00 a       235     0    10     1    10
  5.2382979457534473E-01 a       236     0    10     1    11
  9.0584982567341115E+00 a       237     0    10     1    12
 -8.7975650309832361E+00 a       238     0    10     1    13
 -5.2799096554692477E+00 a       239     0    10     1    14
 -4.5536118845344636E-01 a       240     0    10     1    15
  4.2192131082929807E+00 a       241     0    10     1    16
  3.8648671236204075E+00 a       242     0    10     1    17
  4.6206227865883118E+00 a       243     0    10     1    18
 -1.7696513766120003E+00 a       244     0    10     1    19
 -1.3113433750481175E+01 a       245     0    10     1    20
  5.3832433840462084E+00 a       246     0    10     1    21
 -3.3011573532308223E+00 a       247     0    10     1    22
 -2.0102202837760643E+00 a       248     0    10     1    23
 -2.2303094370425374E+00 a       249     0    10     1    24
 -4.1014910486998275E+00 a       250     0    10     1    25
 -1.2501467507012018E+00 a       251     0    11     1     1
 -2.6897137568567214E-01 a       252     0    11     1     2
  5.1849904681441739E-01 a       253     0    11     1     3
 -9.6815437484882736E+00 a       254     0    11     1     4
 -1.8862893292044434E+00 a       255     0    11     1     5
 -1.1973271004527033E+00 a       256     0    11     1     6
  1.7625211605008009E-01 a       257     0    11     1     7
  6.5784545796548499E-01 a       258     0    11     1     8
 -3.6465299718471417E-01 a       259     0    11     1     9
  2.2093540164229222E-01 a       260     0    11     1    10
 -6.4445462575175771E-01 a       261     0    11     1    11
 -2.0713004195258624E+00 a       262     0    11     1    12
  6.3375628534534856E-01 a       263     0    11     1    13
 -2.4546257218335654E+00 a       264     0    11     1    14
 -5.1859866670675636E+00 a       265     0    11     1    15
  4.4239914469292128E+00 a       266     0    11     1    16
 -3.8961439072648735E-01 a       267     0    11     1    17
 -6.1109483648870571E+00 a       268     0    11     1    18
  1.9751290704225005E-01 a       269     0    11     1    19
  1.3098403165303096E+00 a       270     0    11     1    20
  3.6395741130457697E+00 a       271     0    11     1    21
  3.4437327933239588E+00 a       272     0    11     1    22
  6.0999982969041762E+00 a       273     0    11     1    23
 -3.7225945563510004E-01 a       274     0    11     1    24
  3.6120921410110367E+00 a       275     0    11     1    25
 -4.6213629378264072E+00 a       276     0    12     1     1
 -1.3675976895310602E+00 a       277     0    12     1     2
  1.8403959549425970E+00 a       278     0    12     1     3
 -5.5105871899647330E+00 a       279     0    12     1     4
 -2.3609534305719833E+00 a       280     0    12     1     5
  2.8312325651307124E-01 a       281     0    12     1     6
  2.5997228170480566E+00 a       282     0    12     1     7
  5.1229989318130364E+00 a       283     0    12     1     8
 -2.0009533416593013E+00 a       284     0    12     1     9
  5.1774555543948146E+00 a       285     0    12     1    10
 -4.5354536894149691E+00 a       286     0    12     1    11
 -4.4718518881185663E+00 a       287     0    12     1    12
 -1.6498787496434819E+00 a       288     0    12     1    13
  5.4199232660951049E+00 a       289     0    12     1    14
  1.3325585733564558E+00 a       290     0    12     1    15
  3.2142876789757562E+00 a       291     0    12     1    16
  3.1937572853099283E-02 a       292     0    12     1    17
 -2.0227262153760726E+00 a       293     0    12     1    18
 -1.6209959069391469E+00 a       294     0    12     1    19
  9.7045646084536337E+00 a       295     0    12     1    20
 -5.9722007881657406E+00 a       296     0    12     1    21
  6.7154394058240676E+00 a       297     0    12     1    22
  1.2093871657498627E+00 a       298     0    12     1    23
 -3.2251102713107391E+00 a       299     0    12     1    24
  3.8970898650613095E+00 a       300     0    12     1    25
 -1.1290068422565887E-01 a       301     0    13     1     1
  1.4112499786303074E+00 a       302     0    13     1     2
  4.9379180410037145E-02 a       303     0    13     1     3
  6.0844372601289605E+00 a       304     0    13     1     4
  7.3381914776386115E-01 a       305     0    13     1     5
  2.1405292808856036E+00 a       306     0    13     1     6
  1.5556352582833135E+00 a       307     0    13     1     7
 -2.1059662925243536E+00 a       308     0    13     1     8
 -7.1776254522216609E-01 a       309     0    13     1     9
 -6.7149810346728997E-02 a       310     0    13     1    10
 -1.4777468494240742E+00 a       311     0    13     1    11
  1.1861134515315470E+00 a       312     0    13     1    12
  1.1402936118037110E+00 a       313     0    13     1    13
 -1.5567952024713776E-02 a       314     0    13     1    14
  3.6384781248068867E+00 a       315     0    13     1    15
 -2.6419073986221315E+00 a       316     0    13     1    16
  1.6689527071843211E+00 a       317     0    13     1    17
 -6.8907934040472929E-01 a       318     0    13     1    18
 -6.8912453609046254E-01 a       319     0    13     1    19
 -2.1383582156901380E+00 a       320     0    13     1    20
 -6.7218743550305249E-01 a       321     0    13     1    21
  4.4066458137750791E-01 a       322     0    13     1    22
 -2.3862566557954463E+00 a       323     0    13     1    23
  1.5081796028186465E+00 a       324     0    13     1    24
 -1.1972264124752445E+00 a       325     0    13     1    25
  3.9535815265214336E-01 a       326     0    14     1     1
  1.9463149722352246E-01 a       327     0    14     1     2
  2.1706361662426961E+00 a       328     0    14     1     3
  1.0222001220518059E+01 a       329     0    14     1     4
  5.6666313437828769E-02 a       330     0    14     1     5
  4.6568481761973013E+00 a       331     0    14     1     6
 -7.9467542487851062E-01 a       332     0    14     1     7
 -3.5815563366431884E+00 a       333     0    14     1     8
  5.4265553301041225E-01 a       334     0    14     1     9
 -5.4085641547856267E-01 a       335     0    14     1    10
  1.1055574128386916E+00 a       336     0    14     1    11
  2.6944002017360620E+00 a       337     0    14     1    12
  3.1550025997796247E+00 a       338     0    14     1    13
 -3.4853054917549779E+00 a       339     0    14     1    14
 -3.2317480125986509E-01 a       340     0    14     1    15
 -2.1083268753230175E+00 a       341     0    14     1    16
  2.3284383349508269E+00 a       342     0    14     1    17
  1.9050736061102123E+00 a       343     0    14     1    18
 -5.7661427696514433E-01 a       344     0    14     1    19
 -2.7138500691603933E+00 a       345     0    14     1    20
  2.0186266949718510E+00 a       346     0    14     1    21
 -3.7421093577461848E+00 a       347     0    14     1    22
 -1.8991938664694870E+00 a       348     0    14     1    23
  3.4190403772408534E-01 a       349     0    14     1    24
 -5.8303971128154353E-01 a       350     0    14     1    25
  7.0736495893771456E-01 a       351     0    15     1     1
  3.9038651914881377E-03 a       352     0    15     1     2
 -8.9714314755263336E-01 a       353     0    15     1     3
 -1.6068180794086002E+00 a       354     0    15     1     4
 -9.9484290500099049E-01 a       355     0    15     1     5
 -3.9508331498177240E-01 a       356     0    15     1     6
  9.6295115666246123E-01 a       357     0    15     1     7
 -1.7740597049244491E-01 a       358     0    15     1     8
  1.4192378344675340E+00 a       359     0    15     1     9
  8.9570839831846982E-01 a       360     0    15     1    10
  1.8674314292573537E+00 a       361     0    15     1    11
 -2.6387641808518913E-01 a       362     0    15     1    12
 -1.4175323003963758E+00 a       363     0    15     1    13
  1.7488638747547947E+00 a       364     0    15     1    14
 -9.7844358983399504E-01 a       365     0    15     1    15
  2.2412610722956643E+00 a       366     0    15     1    16
  4.4453139121806234E-01 a       367     0    15     1    17
  1.2280154805346561E+00 a       368     0    15     1    18
 -1.6695038784753262E+00 a       369     0    15     1    19
  1.3377516492015604E+00 a       370     0    15     1    20
  5.2664739185932319E-01 a       371     0    15     1    21
 -7.8204716113068828E-01 a       372     0    15     1    22
  7.3921523487935115E-01 a       373     0    15     1    23
 -9.0057949708094931E-01 a       374     0    15     1    24
 -2.7715402442591569E-01 a       375     0    15     1    25
  2.6143053977509539E-01 a       376     0    16     1     1
 -1.0668510897103421E-01 a       377     0    16     1     2
  2.0799549355744236E+00 a       378     0    16     1     3
  1.2986142310205215E+00 a       379     0    16     1     4
 -1.1041784776863495E+00 a       380     0    16     1     5
  7.1475477223740480E-01 a       381     0    16     1     6
  9.2601989854224731E-01 a       382     0    16     1     7
  8.5092660653414409E-01 a       383     0    16     1     8
 -3.9658535413685936E-01 a       384     0    16     1     9
  5.6122446362983547E-01 a       385     0    16     1    10
 -8.2174159267347369E-01 a       386     0    16     1    11
 -7.8150204016697589E-01 a       387     0    16     1    12
 -7.8688911164985997E-02 a       388     0    16     1    13
  1.0420252298639452E+00 a       389     0    16     1    14
  7.8465745467077641E-01 a       390     0    16     1    15
  5.4651388950459034E-01 a       391     0    16     1    16
 -1.1916883379718985E+00 a       392     0    16     1    17
  2.8366859225661019E+00 a       393     0    16     1    18
 -1.7197151654868890E+00 a       394     0    16     1    19
  1.1917944523616852E+00 a       395     0    16     1    20
  1.1662758385047751E+00 a       396     0    16     1    21
  9.3303911831464892E-01 a       397     0    16     1    22
  6.7996299834924523E-01 a       398     0    16     1    23
 -1.7920236045916185E+00 a       399     0    16     1    24
  1.1108440007387116E-01 a       400     0    16     1    25
  2.8547512925450671E+00 a       401     0    17     1     1
 -4.8195197604283315E+00 a       402     0    17     1     2
  2.5403603788035105E+00 a       403     0    17     1     3
  1.8316242936176344E+01 a       404     0    17     1     4
  4.8613854596009718E+00 a       405     0    17     1     5
  8.4156284394686831E-01 a       406     0    17     1     6
  8.3930479307761114E+00 a       407     0    17     1     7
 -9.0690015896779774E-01 a       408     0    17     1     8
  1.3956190244700278E-01 a       409     0    17     1     9
  1.6734469694553957E+00 a       410     0    17     1    10
 -3.6159156926813329E+00 a       411     0    17     1    11
 -5.2748946324271486E+00 a       412     0    17     1    12
  1.6781070758607459E+01 a       413     0    17     1    13
  1.9652117588425584E+00 a       414     0    17     1    14
 -9.6129754667105001E+00 a       415     0    17     1    15
  1.2898330950172539E+00 a       416     0    17     1    16
 -1.7628284446261777E+00 a       417     0    17     1    17
  2.1165649231415973E+00 a       418     0    17     1    18
 -3.5378038388579225E+00 a       419     0    17     1    19
  1.0041282992583260E+00 a       420     0    17     1    20
 -3.3712771650637192E+00 a       421     0    17     1    21
 -2.1246593462990777E+00 a       422     0    17     1    22
 -3.9676824985515202E-01 a       423     0    17     1    23
 -8.2429939696713674E+00 a       424     0    17     1    24
 -1.9141228439124360E+00 a       425     0    17     1    25
 -2.9281247850889387E+00 a       426     0    18     1     1
 -2.9966673503506542E+00 a       427     0    18     1     2
 -1.7997469441791856E+00 a       428     0    18     1     3
 -1.2807073285192084E+01 a       429     0    18     1     4
  7.1268378361050311E-01 a       430     0    18     1     5
 -1.9983402961390504E+00 a       431     0    18     1     6
 -7.6211614415483742E-01 a       432     0    18     1     7
  1.2977815454605270E+00 a       433     0    18     1     8
  5.9259560057762777E-02 a       434     0    18     1     9
 -2.0158959338053299E+00 a       435     0    18     1    10
  7.5813908312328204E-01 a       436     0    18     1    11
 -2.3607767891517213E+00 a       437     0    18     1    12
 -5.9387066257423307E+00 a       438     0    18     1    13
 -2.9619365097446326E-01 a       439     0    18     1    14
  5.5095652500362213E+00 a       440     0    18     1    15
  5.3111204864069084E-01 a       441     0    18     1    16
 -1.9943083069600633E+00 a       442     0    18     1    17
  8.3364222474374727E-01 a       443     0    18     1    18
  1.6660050997433693E+00 a       444     0    18     1    19
  4.8049155476255445E-01 a       445     0    18     1    20
  1.6137866885583458E+00 a       446     0    18     1    21
  6.1997417097054985E-01 a       447     0    18     1    22
 -2.8855710509711616E+00 a       448     0    18     1    23
  3.7495043098519258E+00 a       449     0    18     1    24
  3.5636734982634724E+00 a       450     0    18     1    25
 -6.0652232685719909E-01 a       451     0    19     1     1
  4.2958847920192849E+00 a       452     0    19     1     2
  1.7981204434710985E+01 a       453     0    19     1     3
 -5.4740896627011928E+00 a       454     0    19     1     4
 -2.5817151348795662E+01 a       455     0    19     1     5
 -6.9893255699425847E+00 a       456     0    19     1     6
  7.6490836893452254E+00 a       457     0    19     1     7
 -1.3901374073276822E+00 a       458     0    19     1     8
 -4.8566546581431131E+00 a       459     0    19     1     9
 -2.2896409597027469E+00 a       460     0    19     1    10
  1.1714939002711406E+01 a       461     0    19     1    11
 -1.6479238205665091E+01 a       462     0    19     1    12
  1.6409835958636649E+00 a       463     0    19     1    13
  4.5221361202940660E+00 a       464     0    19     1    14
  5.7552027356294326E+00 a       465     0    19     1    15
 -1.2113794492347180E+01 a       466     0    19     1    16
  7.6197608768468204E+00 a       467     0    19     1    17
 -9.1484113652553951E+00 a       468     0    19     1    18
  3.9468780299692652E+00 a       469     0    19     1    19
 -7.5010680542880133E+00 a       470     0    19     1    20
  1.5403245188804217E+01 a       471     0    19     1    21
 -2.7507269760845064E-03 a       472     0    19     1    22
  2.4735553285512356E+01 a       473     0    19     1    23
  2.5589538914496167E+01 a       474     0    19     1    24
  1.2463865691328294E+01 a       475     0    19     1    25
  1.9094097301872623E+00 a       476     0    20     1     1
 -6.7837879770205181E+00 a       477     0    20     1     2
 -9.6255452214826533E+00 a       478     0    20     1     3
  1.8937060774462101E-02 a       479     0    20     1     4
  1.8109980648897547E+01 a       480     0    20     1     5
  4.6169726178982895E+00 a       481     0    20     1     6
 -2.7573398835740086E+00 a       482     0    20     1     7
  2.3366290028522543E+00 a       483     0    20     1     8
 -3.1820988914156534E-01 a       484     0    20     1     9
 -4.0250957404700269E+00 a       485     0    20     1    10
 -8.6273555262496089E+00 a       486     0    20     1    11
 -3.4665823107701460E-01 a       487     0    20     1    12
  4.3676622938349547E+00 a       488     0    20     1    13
  2.3478182979530366E+00 a       489     0    20     1    14
 -2.9393293568906640E+00 a       490     0    20     1    15
 -4.1736526043136193E+00 a       491     0    20     1    16
 -5.0272217114100242E+00 a       492     0    20     1    17
  5.5370389314922823E+00 a       493     0    20     1    18
 -3.5086078375039595E+00 a       494     0    20     1    19
  2.9539423211625606E+00 a       495     0    20     1    20
 -4.6037086392421687E+00 a       496     0    20     1    21
  4.4588818112746891E+00 a       497     0    20     1    22
 -8.6647962104162524E+00 a       498     0    20     1    23
 -1.0984463928932051E+01 a       499     0    20     1    24
 -1.7878590992742929E+01 a       500     0    20     1    25
  1.1915833749158884E+00 a       501     0    21     1     1
 -1.0065607169483268E+00 a       502     0    21     1     2
 -3.5923688888957694E+00 a       503     0    21     1     3
 -9.0259390084408753E-01 a       504     0    21     1     4
  2.0786649171236977E+00 a       505     0    21     1     5
  6.0829698299745771E-01 a       506     0    21     1     6
 -3.8522999293255134E+00 a       507     0    21     1     7
  3.0229864432749942E-01 a       508     0    21     1     8
  4.0360093598018687E-01 a       509     0    21     1     9
 -2.1215266401283364E+00 a       510     0    21     1    10
  2.0161027420323321E+00 a       511     0    21     1    11
  2.9579119087217225E+00 a       512     0    21     1    12
 -6.4442968306282644E+00 a       513     0    21     1    13
 -1.8042316202849409E-01 a       514     0    21     1    14
  6.4689679648199920E+00 a       515     0    21     1    15
 -2.2893484732354272E+00 a       516     0    21     1    16
  1.4468458920538851E+00 a       517     0    21     1    17
 -5.1654514990930167E-01 a       518     0    21     1    18
  2.3964651563354837E+00 a       519     0    21     1    19
  1.2946262429766409E+00 a       520     0    21     1    20
  1.5240127107268309E+00 a       521     0    21     1    21
  1.1027006436015245E+00 a       522     0    21     1    22
  4.5172350340311009E-02 a       523     0    21     1    23
  3.8617428625629091E+00 a       524     0    21     1    24
  1.1062334076457170E+00 a       525     0    21     1    25
 -6.0309085328540100E+00 a       526     0    22     1     1
  7.5620322951053396E+00 a       527     0    22     1     2
  2.4232333544867046E-02 a       528     0    22     1     3
 -2.2383676989088936E+00 a       529     0    22     1     4
 -1.6134513875810197E+00 a       530     0    22     1     5
  4.2726781741068240E+00 a       531     0    22     1     6
 -4.0361702508836905E-01 a       532     0    22     1     7
 -2.7864838318799063E+00 a       533     0    22     1     8
  1.3449730085655889E+00 a       534     0    22     1     9
  1.1133304526501778E+01 a       535     0    22     1    10
  6.6369106638168074E-01 a       536     0    22     1    11
  2.2886252940498717E+00 a       537     0    22     1    12
 -1.1899264710331792E+00 a       538     0    22     1    13
 -3.7085787542703619E+00 a       539     0    22     1    14
 -2.4172652215017632E+00 a       540     0    22     1    15
  6.4015558627373341E+00 a       541     0    22     1    16
 -1.2305548514425106E+00 a       542     0    22     1    17
  3.8520668331681138E+00 a       543     0    22     1    18
 -5.2863137415875512E+00 a       544     0    22     1    19
 -4.4478450796604632E-02 a       545     0    22     1    20
 -4.5561651586801970E+00 a       546     0    22     1    21
  3.4434644710998351E-02 a       547     0    22     1    22
 -6.2057100072211284E+00 a       548     0    22     1    23
 -7.0417184519260756E+00 a       549     0    22     1    24
  1.8357682057297338E+00 a       550     0    22     1    25
 -4.6290903973741111E+00 a       551     0    23     1     1
  7.0817724950719647E+00 a       552     0    23     1     2
  1.0829054424564063E+01 a       553     0    23     1     3
 -3.0657584053740465E+00 a       554     0    23     1     4
 -2.3692879232601850E+01 a       555     0    23     1     5
  1.3542438184519083E+01 a       556     0    23     1     6
 -2.7223950721533869E+00 a       557     0    23     1     7
 -4.7159588570150515E+00 a       558     0    23     1     8
 -1.8009126966616498E+00 a       559     0    23     1     9
  3.5722326796912065E+00 a       560     0    23     1    10
  6.7657666967307390E+00 a       561     0    23     1    11
  2.5343451371938213E+00 a       562     0    23     1    12
  5.5830758395260895E+00 a       563     0    23     1    13
 -9.2830862771400078E+00 a       564     0    23     1    14
  7.3377931577881030E+00 a       565     0    23     1    15
  1.0473015064641254E+01 a       566     0    23     1    16
  1.3778856013986978E+01 a       567     0    23     1    17
  3.9125931274335288E+00 a       568     0    23     1    18
 -7.5529483647559106E+00 a       569     0    23     1    19
  1.2511904956506998E+01 a       570     0    23     1    20
 -1.7415896342259884E+00 a       571     0    23     1    21
  1.2170965026199188E+01 a       572     0    23     1    22
 -2.5252541485384703E+00 a       573     0    23     1    23
  5.7513548190246286E+00 a       574     0    23     1    24
 -8.6908952489870062E-01 a       575     0    23     1    25
 -6.5442364891712010E+00 a       576     0    24     1     1
  1.9297712993254876E+00 a       577     0    24     1     2
 -2.7278709019064024E+01 a       578     0    24     1     3
  1.9548926178252902E+01 a       579     0    24     1     4
  1.0410036571462513E+01 a       580     0    24     1     5
 -7.3574532022121426E+00 a       581     0    24     1     6
  1.9171223479670822E+01 a       582     0    24     1     7
 -7.8885803628832871E+00 a       583     0    24     1     8
  3.9073851322672271E+00 a       584     0    24     1     9
  1.3316157059993557E+01 a       585     0    24     1    10
 -2.0890359048240860E+01 a       586     0    24     1    11
 -1.6455690416515175E+01 a       587     0    24     1    12
 -1.7016261409186296E+01 a       588     0    24     1    13
  1.9192048910099459E+01 a       589     0    24     1    14
 -1.0251430533883516E+01 a       590     0    24     1    15
  6.4673534054238413E+00 a       591     0    24     1    16
 -4.6299105269790763E-01 a       592     0    24     1    17
  3.9385158312896547E+00 a       593     0    24     1    18
  1.7750972673932210E+01 a       594     0    24     1    19
 -2.6137760345076863E+01 a       595     0    24     1    20
  4.0799716971558935E+00 a       596     0    24     1    21
 -1.9190100728544370E+00 a       597     0    24     1    22
 -2.4161969775990912E+00 a       598     0    24     1    23
 -2.6852328486936430E+00 a       599     0    24     1    24
 -4.6146439215225865E-01 a       600     0    24     1    25
 -1.2589672830912557E+00 a       601     0    25     1     1
  3.7681398147237419E+00 a       602     0    25     1     2
  1.7682542780375773E+01 a       603     0    25     1     3
 -8.6003423105487133E+00 a       604     0    25     1     4
  1.8343551034120132E+01 a       605     0    25     1     5
  6.0936532404497514E+00 a       606     0    25     1     6
  2.8434118945664357E+00 a       607     0    25     1     7
  7.5186972719250527E+00 a       608     0    25     1     8
 -1.0499205770171177E+01 a       609     0    25     1     9
 -3.9343300866099473E+00 a       610     0    25     1    10
  7.4221773404740885E+00 a       611     0    25     1    11
  5.4192730878616127E+00 a       612     0    25     1    12
  8.2035064225720777E+00 a       613     0    25     1    13
 -9.1137836687976339E+00 a       614     0    25     1    14
  2.5821190511627932E+00 a       615     0    25     1    15
 -1.7808945943784206E+01 a       616     0    25     1    16
 -2.1937199747669130E+01 a       617     0    25     1    17
 -8.3884801720442670E-01 a       618     0    25     1    18
 -1.6433578056361540E+01 a       619     0    25     1    19
  1.5784956889511188E+01 a       620     0    25     1    20
 -5.7250756655492134E+00 a       621     0    25     1    21
  9.7111513633950626E+00 a       622     0    25     1    22
  3.5365281346058941E+00 a       623     0    25     1    23
 -2.3280727271828056E-01 a       624     0    25     1    24
  1.5700809315185309E+00 a       625     0    25     1    25
  1.0716765599221612E+01 a       626     0    26     1     1
 -1.9921430788597917E+01 a       627     0    26     1     2
 -4.2810653452876064E+00 a       628     0    26     1     3
  1.6197801050869636E+00 a       629     0    26     1     4
  3.6922622764487034E+00 a       630     0    26     1     5
 -2.1178337999517165E+00 a       631     0    26     1     6
  1.0708270719057689E+00 a       632     0    26     1     7
 -3.8519718093149651E+00 a       633     0    26     1     8
 -3.0868236573732002E+00 a       634     0    26     1     9
 -1.3078513771962779E+01 a       635     0    26     1    10
 -7.0015030807261676E+00 a       636     0    26     1    11
  4.7122054880996511E-01 a       637     0    26     1    12
 -1.0537740582550015E+00 a       638     0    26     1    13
 -2.7334324592436512E+00 a       639     0    26     1    14
 -2.3243784035821062E+00 a       640     0    26     1    15
  1.1081501297485983E+00 a       641     0    26     1    16
 -5.9039212795244378E+00 a       642     0    26     1    17
 -1.2577495789877609E+00 a       643     0    26     1    18
  5.0594543426983041E+00 a       644     0    26     1    19
  8.2700285440143855E+00 a       645     0    26     1    20
 -3.1661247750701329E+00 a       646     0    26     1    21
 -5.7137173492304374E+00 a       647     0    26     1    22
 -1.0499725221359604E+00 a       648     0    26     1    23
  6.1195907112501899E+00 a       649     0    26     1    24
  5.4473899537263399E+00 a       650     0    26     1    25
  5.9582417926593623E+00 a       651     0    27     1     1
 -6.5429491436317810E-01 a       652     0    27     1     2
 -1.4895805512064355E+00 a       653     0    27     1     3
  1.3982734737214619E+01 a       654     0    27     1     4
  2.2124599706438207E+01 a       655     0    27     1     5
 -1.3847336530533685E+00 a       656     0    27     1     6
 -1.6171364117903906E+01 a       657     0    27     1     7
  1.1540053534215494E+01 a       658     0    27     1     8
  2.2789936004043295E+01 a       659     0    27     1     9
  5.3637775977919855E+00 a       660     0    27     1    10
  7.9083432377413558E+00 a       661     0    27     1    11
  2.2801186719964047E+01 a       662     0    27     1    12
 -1.1967370706263729E+01 a       663     0    27     1    13
  5.3774771567025637E+00 a       664     0    27     1    14
  1.3349023316289919E+00 a       665     0    27     1    15
  2.8580424764387811E+01 a       666     0    27     1    16
  1.1855259389908916E+00 a       667     0    27     1    17
  1.6111493757429129E-01 a       668     0    27     1    18
 -8.7330408995509945E+00 a       669     0    27     1    19
 -5.3654666431198601E+00 a       670     0    27     1    20
 -3.3130779971344735E+00 a       671     0    27     1    21
  8.4452200575846099E+00 a       672     0    27     1    22
 -6.8306159344773070E+00 a       673     0    27     1    23
 -1.9089135449096801E+01 a       674     0    27     1    24
 -3.1985391957443742E+01 a       675     0    27     1    25
 -2.2762532117511558E+00 a       676     0    28     1     1
  9.1520709179784063E+00 a       677     0    28     1     2
 -7.4651590881117853E+00 a       678     0    28     1     3
 -7.1398710644072381E+00 a       679     0    28     1     4
 -1.9667772710002513E+01 a       680     0    28     1     5
 -4.3521201070807652E-01 a       681     0    28     1     6
  2.2940013426874324E+00 a       682     0    28     1     7
 -1.7028665525186888E+00 a       683     0    28     1     8
 -1.5255288374500988E+00 a       684     0    28     1     9
 -1.4059587403473937E+00 a       685     0    28     1    10
 -2.2365800074238454E-01 a       686     0    28     1    11
  5.0226362442900943E+00 a       687     0    28     1    12
 -1.8858653086913437E+00 a       688     0    28     1    13
 -5.2997309819489935E+00 a       689     0    28     1    14
  3.0328737806457640E+00 a       690     0    28     1    15
  4.8224780200163071E+00 a       691     0    28     1    16
  1.1800884152470905E+01 a       692     0    28     1    17
 -5.2593457792028317E+00 a       693     0    28     1    18
  1.4604013520131467E+01 a       694     0    28     1    19
 -5.2126061746014241E+00 a       695     0    28     1    20
  3.5041055747275773E-01 a       696     0    28     1    21
 -1.6317185310135464E+01 a       697     0    28     1    22
  1.1630705390584561E+00 a       698     0    28     1    23
  1.8762118614759127E+00 a       699     0    28     1    24
  2.3162988857042286E+01 a       700     0    28     1    25
  3.8276877326890868E+00 a       701     0    29     1     1
 -2.5036835447297792E+00 a       702     0    29     1     2
 -7.2197053935606217E+00 a       703     0    29     1     3
  1.0521699899973866E+00 a       704     0    29     1     4
  7.3627112625149280E+00 a       705     0    29     1     5
 -1.0201167259810446E+00 a       706     0    29     1     6
 -2.7793065445674641E+00 a       707     0    29     1     7
  3.9210255082435501E+00 a       708     0    29     1     8
  1.3971196035456541E+00 a       709     0    29     1     9
 -1.1547771176441655E+00 a       710     0    29     1    10
  4.3887386367800298E-02 a       711     0    29     1    11
 -2.3559868073557899E+00 a       712     0    29     1    12
  1.6750231294891922E+00 a       713     0    29     1    13
 -7.6509634281606442E-01 a       714     0    29     1    14
  1.4410125079828486E+00 a       715     0    29     1    15
 -9.3267191897855675E+00 a       716     0    29     1    16
 -6.9659727090387422E+00 a       717     0    29     1    17
  1.5549832843772338E+00 a       718     0    29     1    18
 -1.9844830175094543E+00 a       719     0    29     1    19
 -1.0750483191760369E+00 a       720     0    29     1    20
 -3.6821383210460965E+00 a       721     0    29     1    21
 -6.4305495940999924E+00 a       722     0    29     1    22
 -3.7178117156695323E+00 a       723     0    29     1    23
 -6.3542822144359183E+00 a       724     0    29     1    24
 -1.3698250191974310E+00 a       725     0    29     1    25
 -1.9363590609907495E+00 a       726     0    30     1     1
  7.4846017896190098E+00 a       727     0    30     1     2
  5.3656860851777362E+00 a       728     0    30     1     3
 -1.6832637843364240E+00 a       729     0    30     1     4
 -5.9626276365283717E+00 a       730     0    30     1     5
  1.8289925666208964E+00 a       731     0    30     1     6
 -4.2456213414455779E-01 a       732     0    30     1     7
 -2.0691606581560049E+00 a       733     0    30     1     8
 -2.4255130059304048E-01 a       734     0    30     1     9
  2.5305060325830735E+00 a       735     0    30     1    10
  6.1536609367360056E+00 a       736     0    30     1    11
  1.5683792260622011E+00 a       737     0    30     1    12
  2.0883287575097920E+00 a       738     0    30     1    13
  1.7672716631502043E+00 a       739     0    30     1    14
  1.3087989262513327E+00 a       740     0    30     1    15
 -2.8877057537044877E+00 a       741     0    30     1    16
  6.5548898749067277E+00 a       742     0    30     1    17
  6.8504353526919748E-01 a       743     0    30     1    18
 -4.1587229670519593E-01 a       744     0    30     1    19
  2.0987026949454513E+00 a       745     0    30     1    20
  5.4781087690142671E+00 a       746     0    30     1    21
  4.2086893757880706E+00 a       747     0    30     1    22
 -2.0974324260266741E-01 a       748     0    30     1    23
  5.0522721945046314E+00 a       749     0    30     1    24
 -3.3949769092016657E+00 a       750     0    30     1    25
 -1.0620810348201605E-01 b       751     1     1
  7.4941814536230544E-01 b       752     1     2
 -1.0613183090159817E+00 b       753     1     3
  7.0376735282915959E-01 b       754     1     4
 -5.6216766253823214E-01 b       755     1     5
  1.1766194315597101E-02 b       756     1     6
  9.5279991536257735E-01 b       757     1     7
 -4.5853742254198332E-01 b       758     1     8
 -4.0024317198383175E-01 b       759     1     9
  1.3916336137294740E+00 b       760     1    10
  6.5101094726759945E-01 b       761     1    11
  4.6520640339901842E-01 b       762     1    12
 -5.5076171932402540E-01 b       763     1    13
 -3.0948547107386387E-01 b       764     1    14
  1.1680492037712888E+00 b       765     1    15
  5.4544567232929686E-01 b       766     1    16
 -6.8133370840041985E-01 b       767     1    17
  8.3518844271215198E-01 b       768     1    18
 -1.4330207999952045E+00 b       769     1    19
 -1.7549712312361160E-01 b       770     1    20
  7.5169232080341528E-02 b       771     1    21
 -4.1485897484736023E-01 b       772     1    22
  4.7369924235350691E-01 b       773     1    23
 -8.0749281389395211E-01 b       774     1    24
 -2.4515723113777560E-01 b       775     1    25
 -8.2876255865892812E-01 a       776     1     1     2     1
 -3.4895167078969347E-01 a       777     1     1     2     2
 -4.7336545187951296E-01 a       778     1     1     2     3
 -1.9813141877303195E+00 a       779     1     1     2     4
  1.1028751258919918E-01 a       780     1     1     2     5
 -1.8662850803631811E-01 a       781     1     1     2     6
 -1.2018449077699791E+00 a       782     1     1     2     7
  1.2854264981250394E+00 a       783     1     1     2     8
  9.4552297892580628E-01 a       784     1     1     2     9
  1.9570829447736975E+00 a       785     1     1     2    10
  9.4286199112842328E-01 a       786     1     1     2    11
  7.5376886808223498E-01 a       787     1     1     2    12
 -1.4474575126411544E+00 a       788     1     1     2    13
 -6.3935121729064692E-01 a       789     1     1     2    14
 -3.7359338934887176E-01 a       790     1     1     2    15
  5.8352911725658052E-01 a       791     1     1     2    16
  1.6940511893032811E-01 a       792     1     1     2    17
 -2.9048583039507103E-01 a       793     1     1     2    18
 -9.3953388245290248E-01 a       794     1     1     2    19
  6.0572199283337447E-01 a       795     1     1     2    20
 -8.1016022794091924E-01 a       796     1     1     2    21
  1.2193263759626345E-01 a       797     1     1     2    22
 -1.1287888984166912E+00 a       798     1     1     2    23
  5.0661691053499514E-01 a       799     1     1     2    24
 -4.6425141035886980E-01 a       800     1     1     2    25
 -5.8859079521970137E-01 a       801     1     2     2     1
  1.2322055392223590E+00 a       802     1     2     2     2
 -6.5699525597676434E-01 a       803     1     2     2     3
 -2.0536718079949834E+00 a       804     1     2     2     4
 -5.8752920586381718E-01 a       805     1     2     2     5
 -8.3623500552714880E-01 a       806     1     2     2     6
 -5.8902713045421651E+00 a       807     1     2     2     7
 -5.3110121868895889E-02 a       808     1     2     2     8
  1.6608410989007401E+00 a       809     1     2     2     9
  2.0146229685930122E+00 a       810     1     2     2    10
 -8.5186442700682097E-01 a       811     1     2     2    11
  1.5291841272752474E-01 a       812     1     2     2    12
 -8.9283793179296655E-01 a       813     1     2     2    13
  1.2747831650369921E+00 a       814     1     2     2    14
  2.4057809646770675E-02 a       815     1     2     2    15
 -4.4162159335121226E-01 a       816     1     2     2    16
 -5.8995509554800540E-01 a       817     1     2     2    17
  1.3507953622056752E+00 a       818     1     2     2    18
 -4.0426437374343882E-01 a       819     1     2     2    19
  2.4934542076074453E-01 a       820     1     2     2    20
 -6.8233961968092149E-01 a       821     1     2     2    21
 -4.7386632350296543E-01 a       822     1     2     2    22
  1.2690976722833687E+00 a       823     1     2     2    23
 -8.3906407978444131E-01 a       824     1     2     2    24
 -1.0779918316650403E+00 a       825     1     2     2    25
  1.9696222979845168E+00 a       826     1     3     2     1
  8.7232706063757826E-01 a       827     1     3     2     2
  6.0339754322877004E-01 a       828     1     3     2     3
 -8.5192548422739511E-01 a       829     1     3     2     4
  1.9292828969048110E+00 a       830     1     3     2     5
 -9.4788255231491730E-02 a       831     1     3     2     6
 -4.1438425443793170E-01 a       832     1     3     2     7
 -4.7593944612596639E-01 a       833     1     3     2     8
  2.2406422725108586E+00 a       834     1     3     2     9
 -2.7808572706786194E-01 a       835     1     3     2    10
  3.8888645436310648E-01 a       836     1     3     2    11
  1.4951547015858264E+00 a       837     1     3     2    12
  2.4211137724388765E+00 a       838     1     3     2    13
 -1.1776974400572842E+00 a       839     1     3     2    14
  1.1338641688351605E+00 a       840     1     3     2    15
  7.7276744225811689E-01 a       841     1     3     2    16
 -6.3364543000391149E-01 a       842     1     3     2    17
 -1.7205097647370315E+00 a       843     1     3     2    18
 -9.6051953046185898E-02 a       844     1     3     2    19
  3.2258210124505887E-01 a       845     1     3     2    20
  4.2434406604474578E-01 a       846     1     3     2    21
  1.4908459256000288E+00 a       847     1     3     2    22
  1.3454454975752925E-01 a       848     1     3     2    23
  1.9185079684015254E+00 a       849     1     3     2    24
 -6.9146166901556039E-01 a       850     1     3     2    25
 -7.2731902601593912E-01 a       851     1     4     2     1
  6.1477563241108157E-01 a       852     1     4     2     2
  3.3721325946215730E-01 a       853     1     4     2     3
 -8.8615835784231500E-01 a       854     1     4     2     4
  1.4506459325186058E-01 a       855     1     4     2     5
  7.5212389551256686E-01 a       856     1     4     2     6
  1.7536121248240351E+00 a       857     1     4     2     7
 -4.0712455096508943E-01 a       858     1     4     2     8
 -1.6338228366474650E+00 a       859     1     4     2     9
 -2.1111036320532270E-01 a       860     1     4     2    10
 -1.2173497608811961E+00 a       861     1     4     2    11
  7.7585675212594785E-01 a       862     1     4     2    12
  1.7031468876483806E+00 a       863     1     4     2    13
 -1.1771618071337244E+00 a       864     1     4     2    14
  1.1744047065529575E-01 a       865     1     4     2    15
  3.8250633485865665E-01 a       866     1     4     2    16
 -3.4383332703858155E-01 a       867     1     4     2    17
 -1.8406114323172507E+00 a       868     1     4     2    18
  9.8356870412587505E-01 a       869     1     4     2    19
  7.3485096636314273E-01 a       870     1     4     2    20
  7.3903805536452749E-01 a       871     1     4     2    21
  4.3872648461750374E-01 a       872     1     4     2    22
 -1.2944047753042984E+00 a       873     1     4     2    23
 -1.4677182463871816E-01 a       874     1     4     2    24
 -1.0506176105603238E+00 a       875     1     4     2    25
  9.4002891512749365E-01 a       876     1     5     2     1
  8.4845446717347028E-01 a       877     1     5     2     2
 -9.3843713817984786E-01 a       878     1     5     2     3
 -2.8174401723088910E-01 a       879     1     5     2     4
  7.0649424725133969E-01 a       880     1     5     2     5
  3.5637014126022126E-01 a       881     1     5     2     6
  9.4205066994127284E-01 a       882     1     5     2     7
  1.6260471158326179E-01 a       883     1     5     2     8
 -9.1711765398783540E-01 a       884     1     5     2     9
 -4.2530784987417625E-01 a       885     1     5     2    10
 -9.7201143177793059E-01 a       886     1     5     2    11
 -7.6463957347394040E-01 a       887     1     5     2    12
  4.6670827005729859E-01 a       888     1     5     2    13
 -1.5213622940637950E+00 a       889     1     5     2    14
  5.3394714402358179E-01 a       890     1     5     2    15
 -3.1030185139638431E-02 a       891     1     5     2    16
  6.7161898813714149E-01 a       892     1     5     2    17
  1.3729680765806263E+00 a       893     1     5     2    18
  7.3891776506725493E-01 a       894     1     5     2    19
  2.9531713205834115E-01 a       895     1     5     2    20
  3.8432486142150246E-01 a       896     1     5     2    21
  3.6495897752911860E-01 a       897     1     5     2    22
 -7.0968807436762815E-01 a       898     1     5     2    23
  2.1534373181132462E+00 a       899     1     5     2    24
 -3.1501422594832756E-01 a       900     1     5     2    25
 -1.7798124093046080E-01 a       901     1     6     2     1
 -2.6541260831736873E+00 a       902     1     6     2     2
 -1.8278153873561291E+00 a       903     1     6     2     3
  1.0274137900677793E+00 a       904     1     6     2     4
 -9.5157475142015879E-01 a       905     1     6     2     5
  3.4445135256564569E-01 a       906     1     6     2     6
  2.8548601647075604E+00 a       907     1     6     2     7
  1.6305128062796562E-01 a       908     1     6     2     8
 -6.0043537689098381E-01 a       909     1     6     2     9
  6.7730209747934733E-01 a       910     1     6     2    10
 -1.8747988111396867E+00 a       911     1     6     2    11
  8.6395390942957151E-01 a       912     1     6     2    12
 -3.0099630790998821E-02 a       913     1     6     2    13
 -1.5021425596839322E+00 a       914     1     6     2    14
 -1.5002714636986897E-01 a       915     1     6     2    15
 -2.4914417048656459E-01 a       916     1     6     2    16
 -7.8011828361484614E-01 a       917     1     6     2    17
  2.7787882770055599E+00 a       918     1     6     2    18
 -8.5792440245430712E-01 a       919     1     6     2    19
  1.1864056515698846E+00 a       920     1     6     2    20
 -7.3858496851295508E-01 a       921     1     6     2    21
 -1.4349456473727448E-01 a       922     1     6     2    22
  1.6470130900830382E+00 a       923     1     6     2    23
  2.7826103071971026E-01 a       924     1     6     2    24
 -6.4273336732868358E-01 a       925     1     6     2    25
  2.3923297768312990E+00 a       926     1     7     2     1
  2.0838944291373669E+00 a       927     1     7     2     2
  1.5638150801925643E+00 a       928     1     7     2     3
  1.3678837304978888E+00 a       929     1     7     2     4
  2.3712362315412530E+00 a       930     1     7     2     5
 -3.6723868443000809E-02 a       931     1     7     2     6
  1.7656298774412862E+00 a       932     1     7     2     7
  2.1286003093983736E+00 a       933     1     7     2     8
  8.0045666698403939E-01 a       934     1     7     2     9
  2.3235727237556167E-01 a       935     1     7     2    10
  1.1011878918338647E+00 a       936     1     7     2    11
 -4.3454602586944008E-01 a       937     1     7     2    12
  7.2548216897453310E-01 a       938     1     7     2    13
 -9.6242191742770944E-01 a       939     1     7     2    14
 -3.9169855560161315E-01 a       940     1     7     2    15
 -4.7350401175688345E-01 a       941     1     7     2    16
  1.8636350129436413E-01 a       942     1     7     2    17
  6.2533854131428757E-01 a       943     1     7     2    18
 -4.5002511167928039E-01 a       944     1     7     2    19
 -1.8616647912254329E+00 a       945     1     7     2    20
  3.4225871481633768E-01 a       946     1     7     2    21
  1.6335449572140709E-01 a       947     1     7     2    22
 -3.0597984241839380E+00 a       948     1     7     2    23
  2.3288682618307179E+00 a       949     1     7     2    24
 -7.6979207740927613E-01 a       950     1     7     2    25
 -2.2538423980900570E+00 a       951     1     8     2     1
 -5.2188851709056805E-01 a       952     1     8     2     2
 -4.6952901516247381E-01 a       953     1     8     2     3
 -1.7874788542011681E+00 a       954     1     8     2     4
 -8.7717875125215128E-01 a       955     1     8     2     5
  8.1100425852174862E-01 a       956     1     8     2     6
  5.0899131629172678E-01 a       957     1     8     2     7
 -3.9797406377830558E-01 a       958     1     8     2     8
  2.6324805796158735E-01 a       959     1     8     2     9
  7.0281357872560557E-01 a       960     1     8     2    10
 -3.2649463986176480E-01 a       961     1     8     2    11
 -6.3469463109099533E-01 a       962     1     8     2    12
  5.6679312369245483E-01 a       963     1     8     2    13
 -6.7153992657006623E-01 a       964     1     8     2    14
 -2.1030654760454742E-01 a       965     1     8     2    15
  4.8701595566226857E-01 a       966     1     8     2    16
  4.5591110832962212E-01 a       967     1     8     2    17
 -4.0187085640858156E-01 a       968     1     8     2    18
 -4.9709625728896789E-01 a       969     1     8     2    19
 -1.8016028225613245E-01 a       970     1     8     2    20
 -4.3016787816655450E-01 a       971     1     8     2    21
  4.6550530039352889E-01 a       972     1     8     2    22
 -1.3309554984300462E-01 a       973     1     8     2    23
 -7.9719730728612526E-01 a       974     1     8     2    24
 -5.0033233342549854E-01 a       975     1     8     2    25
 -1.0670014782911585E+00 a       976     1     9     2     1
  4.6120496247418213E-01 a       977     1     9     2     2
 -5.7125928588219188E-01 a       978     1     9     2     3
 -4.0648372810581618E-01 a       979     1     9     2     4
  4.3068463464249068E-01 a       980     1     9     2     5
  1.2092520654611831E+00 a       981     1     9     2     6
  1.8892163953012535E+00 a       982     1     9     2     7
 -5.2962458128187462E-01 a       983     1     9     2     8
  1.3320633152560946E+00 a       984     1     9     2     9
  2.3566192563076513E+00 a       985     1     9     2    10
  1.6712697103520897E+00 a       986     1     9     2    11
  5.0909571278692833E-01 a       987     1     9     2    12
  3.3220948182562817E+00 a       988     1     9     2    13
  6.3206487171060666E-01 a       989     1     9     2    14
  8.5464685161128773E-01 a       990     1     9     2    15
  5.5824599398926911E-01 a       991     1     9     2    16
  1.0295837022167577E-01 a       992     1     9     2    17
 -2.2244727391198214E+00 a       993     1     9     2    18
  9.1901723734900365E-01 a       994     1     9     2    19
 -1.1054501873689866E-01 a       995     1     9     2    20
  1.0311427133682127E+00 a       996     1     9     2    21
  8.6957933815496047E-01 a       997     1     9     2    22
 -2.7636003338832349E-01 a       998     1     9     2    23
 -5.2484522505593378E-01 a       999     1     9     2    24
 -9.4013600787977891E-01 a      1000     1     9     2    25
  2.1148110068439379E+00 a      1001     1    10     2     1
  1.6699606329830767E+00 a      1002     1    10     2     2
 -2.0261251440945988E-01 a      1003     1    10     2     3
  7.9363974890860778E-01 a      1004     1    10     2     4
  2.2461873762005000E+00 a      1005     1    10     2     5
  4.0590487747451709E-01 a      1006     1    10     2     6
 -4.2664165886301009E-01 a      1007     1    10     2     7
 -3.9350135996697566E-02 a      1008     1    10     2     8
  2.9345775739635166E-01 a      1009     1    10     2     9
 -1.2544163433778415E+00 a      1010     1    10     2    10
  7.8490834478934646E-01 a      1011     1    10     2    11
 -1.1884983134781610E+00 a      1012     1    10     2    12
  1.4296714700938866E+00 a      1013     1    10     2    13
 -2.1923627048566163E+00 a      1014     1    10     2    14
  1.4581230514401861E-01 a      1015     1    10     2    15
  3.2619166451379228E-01 a      1016     1    10     2    16
 -1.5391826691995012E+00 a      1017     1    10     2    17
  4.5012712789846638E+00 a      1018     1    10     2    18
  8.8901237134061029E-01 a      1019     1    10     2    19
  7.6988205074865956E-01 a      1020     1    10     2    20
 -1.6786609440641553E-01 a      1021     1    10     2    21
 -1.5456360057806667E-01 a      1022     1    10     2    22
 -5.5065006031514541E-01 a      1023     1    10     2    23
  1.6536616870728484E+00 a      1024     1    10     2    24
 -9.0546766347623620E-01 a      1025     1    10     2    25
  8.4695875925652586E-01 a      1026     1    11     2     1
 -3.4200807090799601E-01 a      1027     1    11     2     2
 -1.2161253091280375E+00 a      1028     1    11     2     3
 -8.0191365958614047E-01 a      1029     1    11     2     4
 -1.0370844504110992E+00 a      1030     1    11     2     5
 -3.4728322732976613E-01 a      1031     1    11     2     6
  1.8189074913338059E+00 a      1032     1    11     2     7
  8.8457646847295490E-01 a      1033     1    11     2     8
 -1.0000256049489296E+00 a      1034     1    11     2     9
  1.0333027850229597E+00 a      1035     1    11     2    10
 -4.4057525474541248E-01 a      1036     1    11     2    11
  6.6685378230972137E-01 a      1037     1    11     2    12
 -1.9703857487719700E-01 a      1038     1    11     2    13
 -2.1976932326869343E+00 a      1039     1    11     2    14
  1.4193029465913727E+00 a      1040     1    11     2    15
  1.4573733147708368E-01 a      1041     1    11     2    16
  1.4374860714707540E+00 a      1042     1    11     2    17
  1.0906441566003360E+00 a      1043     1    11     2    18
  3.2527698123884736E+00 a      1044     1    11     2    19
 -7.6597967623580832E-01 a      1045     1    11     2    20
  1.7504580195964178E-02 a      1046     1    11     2    21
 -3.2892977471109308E-01 a      1047     1    11     2    22
 -3.3995909597394534E-02 a      1048     1    11     2    23
  9.1759324400883968E-01 a      1049     1    11     2    24
  1.0717900939332559E+00 a      1050     1    11     2    25
  2.5215098957559525E+00 a      1051     1    12     2     1
  5.0648713518938071E-01 a      1052     1    12     2     2
  1.1457975295015421E+00 a      1053     1    12     2     3
  5.8562666741047620E-01 a      1054     1    12     2     4
  1.4414193365777633E-01 a      1055     1    12     2     5
  9.4754236821386184E-01 a      1056     1    12     2     6
  1.9516648314926714E+00 a      1057     1    12     2     7
 -5.9717675912311974E-01 a      1058     1    12     2     8
  1.1863281593205266E+00 a      1059     1    12     2     9
 -1.7489718274499608E+00 a      1060     1    12     2    10
  3.0934704674224378E-01 a      1061     1    12     2    11
 -1.1180240598749334E+00 a      1062     1    12     2    12
 -3.8679815996698097E-01 a      1063     1    12     2    13
  2.1825232957536844E+00 a      1064     1    12     2    14
 -3.6084528641983610E-02 a      1065     1    12     2    15
  2.0713112161225988E-01 a      1066     1    12     2    16
  5.6248605942648000E-01 a      1067     1    12     2    17
  2.2774896459388425E+00 a      1068     1    12     2    18
 -6.5411706663319680E-01 a      1069     1    12     2    19
 -1.5940284625651353E+00 a      1070     1    12     2    20
 -6.2694979068196499E-01 a      1071     1    12     2    21
  4.0133930310354932E-01 a      1072     1    12     2    22
 -3.0577176331071193E-01 a      1073     1    12     2    23
 -2.4597605680527793E-01 a      1074     1    12     2    24
  4.8611446325681240E-01 a      1075     1    12     2    25
  2.6405994878458888E-01 a      1076     1    13     2     1
  6.9306449891044375E-01 a      1077     1    13     2     2
  1.6596108935643342E-02 a      1078     1    13     2     3
  2.6735945973084851E-01 a      1079     1    13     2     4
  8.7108095267779517E-01 a      1080     1    13     2     5
  2.1550599013597060E-01 a      1081     1    13     2     6
  1.7124377919667741E+00 a      1082     1    13     2     7
 -2.5099815856301627E-01 a      1083     1    13     2     8
  4.5881807302620226E-01 a      1084     1    13     2     9
 -9.0278831814265992E-02 a      1085     1    13     2    10
 -1.8882662767368592E+00 a      1086     1    13     2    11
 -8.9603874706108033E-01 a      1087     1    13     2    12
 -1.9431183936028242E+00 a      1088     1    13     2    13
  1.1337599620287848E+00 a      1089     1    13     2    14
  1.2599661125810420E+00 a      1090     1    13     2    15
  2.6655591474676937E-01 a      1091     1    13     2    16
  1.6701052773401046E+00 a      1092     1    13     2    17
  2.6839028437559453E+00 a      1093     1    13     2    18
  3.2247159512196466E-01 a      1094     1    13     2    19
  1.0815079800960268E+00 a      1095     1    13     2    20
 -3.1739141188517422E-01 a      1096     1    13     2    21
 -3.3006430173066270E-01 a      1097     1    13     2    22
 -9.8105701953688973E-01 a      1098     1    13     2    23
  2.1314832648297796E-02 a      1099     1    13     2    24
  2.3229976279094105E-02 a      1100     1    13     2    25
  7.3700959611149064E-01 a      1101     1    14     2     1
  5.5655142441638672E-01 a      1102     1    14     2     2
 -1.5278058784299281E-01 a      1103     1    14     2     3
 -2.5972951111469271E+00 a      1104     1    14     2     4
  3.4768204482674386E-01 a      1105     1    14     2     5
  7.0848345494701440E-02 a      1106     1    14     2     6
 -2.1540981101772219E+00 a      1107     1    14     2     7
  1.2755319700951765E-02 a      1108     1    14     2     8
 -3.7995150304188186E-01 a      1109     1    14     2     9
 -2.2564667638997843E-01 a      1110     1    14     2    10
 -1.0071707716213361E+00 a      1111     1    14     2    11
 -3.9061127123880873E-01 a      1112     1    14     2    12
  2.7042624140426259E-02 a      1113     1    14     2    13
 -1.1669934858879221E+00 a      1114     1    14     2    14
  2.0154693383414965E-01 a      1115     1    14     2    15
  2.4974619361009145E-01 a      1116     1    14     2    16
  1.5280145100220516E-01 a      1117     1    14     2    17
 -4.4258112298334884E-01 a      1118     1    14     2    18
 -1.4285534558805095E+00 a      1119     1    14     2    19
  8.9534215526625016E-01 a      1120     1    14     2    20
 -1.5535185558313485E+00 a      1121     1    14     2    21
  2.5945994380108933E-01 a      1122     1    14     2    22
  7.3888278362488302E-01 a      1123     1    14     2    23
 -4.5551563845185289E-01 a      1124     1    14     2    24
  1.1286299139607217E+00 a      1125     1    14     2    25
  3.3627670213293198E-01 a      1126     1    15     2     1
 -4.2419450224750683E+00 a      1127     1    15     2     2
 -3.1474670408659966E-01 a      1128     1    15     2     3
  1.8446266672077800E+00 a      1129     1    15     2     4
 -6.6931738220194548E-01 a      1130     1    15     2     5
 -1.4243599566127038E-01 a      1131     1    15     2     6
  1.2503771515989797E+00 a      1132     1    15     2     7
 -5.1966427654030767E-01 a      1133     1    15     2     8
  2.4357835730788655E+00 a      1134     1    15     2     9
  3.7518155780411306E+00 a      1135     1    15     2    10
  2.5589348506707768E+00 a      1136     1    15     2    11
  1.3169960918286225E+00 a      1137     1    15     2    12
 -1.2844406175733558E+00 a      1138     1    15     2    13
 -1.0642975059048922E+00 a      1139     1    15     2    14
  3.1910373079762194E-01 a      1140     1    15     2    15
  4.8899493588633758E-01 a      1141     1    15     2    16
 -8.2388976570097450E-01 a      1142     1    15     2    17
  3.4669372459713208E+00 a      1143     1    15     2    18
 -7.2296180482569095E-01 a      1144     1    15     2    19
  1.1443956332872420E+00 a      1145     1    15     2    20
  2.0326384581806592E-02 a      1146     1    15     2    21
 -1.4910829467296055E-01 a      1147     1    15     2    22
  1.0143577403570228E+00 a      1148     1    15     2    23
 -1.5477866376573746E-01 a      1149     1    15     2    24
 -2.1398939311672449E+00 a      1150     1    15     2    25
 -1.1004047929323392E-02 a      1151     1    16     2     1
 -6.8397692554233425E-01 a      1152     1    16     2     2
 -1.8990981188696650E+00 a      1153     1    16     2     3
  2.9689694162459053E+00 a      1154     1    16     2     4
  1.1632091345861697E+00 a      1155     1    16     2     5
  6.4260881270231240E-01 a      1156     1    16     2     6
  6.0414036201403132E+00 a      1157     1    16     2     7
  4.6236522577789962E-01 a      1158     1    16     2     8
  3.7349603989196944E-01 a      1159     1    16     2     9
  1.9278207473981543E+00 a      1160     1    16     2    10
 -7.4390974031812940E-01 a      1161     1    16     2    11
  3.5138906281471127E-01 a      1162     1    16     2    12
  7.2457298254270652E-01 a      1163     1    16     2    13
 -3.3918350286648030E-01 a      1164     1    16     2    14
  2.2932262869095967E+00 a      1165     1    16     2    15
  1.2477228289412226E+00 a      1166     1    16     2    16
 -7.2132430973731865E-01 a      1167     1    16     2    17
 -1.5003171685049765E+00 a      1168     1    16     2    18
  1.4600541249996621E+00 a      1169     1    16     2    19
  1.3130982385806640E+00 a      1170     1    16     2    20
 -6.4954832798213080E-01 a      1171     1    16     2    21
  1.4221839922448332E+00 a      1172     1    16     2    22
 -5.0366731590050021E-03 a      1173     1    16     2    23
  9.5008425904591365E-01 a      1174     1    16     2    24
 -1.2797491453146830E+00 a      1175     1    16     2    25
  1.9769574985891394E+00 a      1176     1    17     2     1
  5.6955928868438832E-01 a      1177     1    17     2     2
 -7.1489789929787251E-01 a      1178     1    17     2     3
  8.9326147804979594E-01 a      1179     1    17     2     4
 -9.6180418045672311E-01 a      1180     1    17     2     5
  7.9412409208861823E-01 a      1181     1    17     2     6
  2.1936414628465553E+00 a      1182     1    17     2     7
  5.1527367559765902E-01 a      1183     1    17     2     8
 -9.3732601502509519E-02 a      1184     1    17     2     9
 -8.4930068269178416E-01 a      1185     1    17     2    10
  9.6881859318434982E-01 a      1186     1    17     2    11
 -5.3358661382300832E-01 a      1187     1    17     2    12
 -1.1759870395568128E+00 a      1188     1    17     2    13
  8.3847438917005024E-01 a      1189     1    17     2    14
  4.6556236770518389E-01 a      1190     1    17     2    15
  1.0473424614291520E+00 a      1191     1    17     2    16
 -1.4937768055636518E+00 a      1192     1    17     2    17
  7.8903156047395573E-01 a      1193     1    17     2    18
 -1.0494719479262801E-02 a      1194     1    17     2    19
 -2.3771812073894982E-01 a      1195     1    17     2    20
  3.0519780482409148E-01 a      1196     1    17     2    21
  6.1003010698347482E-01 a      1197     1    17     2    22
  1.5628083281921454E+00 a      1198     1    17     2    23
  2.7947001689999612E-01 a      1199     1    17     2    24
  8.8665765840044597E-02 a      1200     1    17     2    25
 -5.1560036559641753E-01 a      1201     1    18     2     1
 -2.6873218298022103E+00 a      1202     1    18     2     2
 -1.6351949068110829E+00 a      1203     1    18     2     3
  2.0790109917718329E+00 a      1204     1    18     2     4
 -9.3879027543721039E-01 a      1205     1    18     2     5
  7.0013128224698540E-01 a      1206     1    18     2     6
  3.8524055366583001E+00 a      1207     1    18     2     7
  5.9375401145035568E-02 a      1208     1    18     2     8
 -2.0287478269840924E+00 a      1209     1    18     2     9
  4.9733282238548151E+00 a      1210     1    18     2    10
 -1.1070746467071013E+00 a      1211     1    18     2    11
  4.5305965688819944E-01 a      1212     1    18     2    12
 -1.1613299819442828E+00 a      1213     1    18     2    13
 -2.0442061508962026E+00 a      1214     1    18     2    14
  4.6832304841184946E-01 a      1215     1    18     2    15
  1.6695531573290189E-02 a      1216     1    18     2    16
  5.7379937851189011E-01 a      1217     1    18     2    17
 -7.4489755083370537E-02 a      1218     1    18     2    18
  2.6731125996957208E+00 a      1219     1    18     2    19
  6.4235583045095479E-01 a      1220     1    18     2    20
  1.3326842689495262E+00 a      1221     1    18     2    21
 -2.0937939195006466E-01 a      1222     1    18     2    22
 -2.8833092418501594E-01 a      1223     1    18     2    23
 -2.2982757891407124E-01 a      1224     1    18     2    24
 -6.9491154822776013E-01 a      1225     1    18     2    25
  1.0185614357748229E+01 a      1226     1    19     2     1
  1.3596554270852512E-01 a      1227     1    19     2     2
  1.4928941850677226E+00 a      1228     1    19     2     3
  3.8593116512528751E+00 a      1229     1    19     2     4
  2.3468036397993468E+00 a      1230     1    19     2     5
  2.7057643630859013E-01 a      1231     1    19     2     6
  3.7965600160991793E+00 a      1232     1    19     2     7
 -2.8029033860282859E+00 a      1233     1    19     2     8
  9.4539174227020850E-01 a      1234     1    19     2     9
 -3.5415041858505174E+00 a      1235     1    19     2    10
  1.4229568368797016E+00 a      1236     1    19     2    11
  1.4039856833293021E+00 a      1237     1    19     2    12
  3.1136275104794586E-01 a      1238     1    19     2    13
  7.1966719568387916E-01 a      1239     1    19     2    14
  1.0389159713297638E+00 a      1240     1    19     2    15
  8.2728863649100415E-01 a      1241     1    19     2    16
 -4.3201116576822498E+00 a      1242     1    19     2    17
  2.4372037907492259E+00 a      1243     1    19     2    18
 -1.7830752757634868E-01 a      1244     1    19     2    19
 -1.6375601653656708E+00 a      1245     1    19     2    20
 -2.5123819470001663E+00 a      1246     1    19     2    21
  2.1898918930788085E+00 a      1247     1    19     2    22
 -5.8027611379622135E-01 a      1248     1    19     2    23
  2.9738308640258362E+00 a      1249     1    19     2    24
 -2.8752010110432611E+00 a      1250     1    19     2    25
 -1.2133943032679066E+00 a      1251     1    20     2     1
 -9.9824010263634266E-01 a      1252     1    20     2     2
 -6.7137130283797719E-01 a      1253     1    20     2     3
 -8.1391348109127593E-01 a      1254     1    20     2     4
 -1.0133688374347773E+00 a      1255     1    20     2     5
 -8.8435545082262801E-01 a      1256     1    20     2     6
 -1.7418716364673159E+00 a      1257     1    20     2     7
 -1.6941968910203831E-01 a      1258     1    20     2     8
  4.8119726959954895E-01 a      1259     1    20     2     9
  9.4931952246546270E-01 a      1260     1    20     2    10
  7.0803512265458735E-01 a      1261     1    20     2    11
  7.2482109459105104E-01 a      1262     1    20     2    12
 -1.9020138282034649E+00 a      1263     1    20     2    13
  1.3456010436832129E+00 a      1264     1    20     2    14
 -4.6524006542516427E-01 a      1265     1    20     2    15
  3.6662946944121760E-01 a      1266     1    20     2    16
 -1.7709236218966369E-02 a      1267     1    20     2    17
 -6.8928665027321423E-01 a      1268     1    20     2    18
 -1.9292337119739749E+00 a      1269     1    20     2    19
 -1.1123942954979245E+00 a      1270     1    20     2    20
 -2.1224998712550605E-01 a      1271     1    20     2    21
 -1.3155912817995474E+00 a      1272     1    20     2    22
  7.1585138714171848E-01 a      1273     1    20     2    23
 -1.5976100664069377E+00 a      1274     1    20     2    24
  7.3164191803567435E-01 a      1275     1    20     2    25
  2.8171870503352454E+00 a      1276     1    21     2     1
  2.0172263841653413E+00 a      1277     1    21     2     2
  9.2425842864251351E-01 a      1278     1    21     2     3
  1.0071432019636011E+00 a      1279     1    21     2     4
  6.3416851623659809E-01 a      1280     1    21     2     5
 -1.0065454513006207E-01 a      1281     1    21     2     6
  2.5153632775252110E+00 a      1282     1    21     2     7
 -6.2100794711446561E-01 a      1283     1    21     2     8
  2.8003642424476810E-01 a      1284     1    21     2     9
 -1.3489562661243573E-01 a      1285     1    21     2    10
 -7.8487569081751599E-02 a      1286     1    21     2    11
 -7.3688616259711362E-02 a      1287     1    21     2    12
  5.4390170731656395E-01 a      1288     1    21     2    13
 -5.5935045997789223E-01 a      1289     1    21     2    14
  2.0610181545572231E-01 a      1290     1    21     2    15
  1.4556534992160788E-01 a      1291     1    21     2    16
 -1.7659077007604977E+00 a      1292     1    21     2    17
 -1.3125458887948247E+00 a      1293     1    21     2    18
  1.5657078643021007E+00 a      1294     1    21     2    19
 -1.1682653660737776E+00 a      1295     1    21     2    20
 -6.8255797508662797E-01 a      1296     1    21     2    21
  1.0084707585398820E+00 a      1297     1    21     2    22
  2.0908090447687462E+00 a      1298     1    21     2    23
 -4.1546912166435840E-01 a      1299     1    21     2    24
 -6.8285975745031102E-01 a      1300     1    21     2    25
  1.0765628852565616E+00 a      1301     1    22     2     1
 -1.1000825462484500E+00 a      1302     1    22     2     2
  2.5305729344158795E-01 a      1303     1    22     2     3
  2.0241345291960298E+00 a      1304     1    22     2     4
 -9.0387422630138131E-02 a      1305     1    22     2     5
 -2.8708292375397571E-01 a      1306     1    22     2     6
  4.6830000939046403E+00 a      1307     1    22     2     7
 -6.0271789230540029E-01 a      1308     1    22     2     8
 -9.2170129931372402E-01 a      1309     1    22     2     9
 -3.4272676362013038E-01 a      1310     1    22     2    10
  4.5255926554540360E-01 a      1311     1    22     2    11
  6.1584261345199376E-01 a      1312     1    22     2    12
  4.3132189906783169E-01 a      1313     1    22     2    13
 -2.5595615708063009E+00 a      1314     1    22     2    14
  1.4970727379674820E+00 a      1315     1    22     2    15
  3.2952603111029050E-01 a      1316     1    22     2    16
 -7.3950939086180267E-01 a      1317     1    22     2    17
  2.6166840378310656E+00 a      1318     1    22     2    18
  1.5854652997889265E+00 a      1319     1    22     2    19
  1.3533814300358520E+00 a      1320     1    22     2    20
  6.2113841045330020E-01 a      1321     1    22     2    21
  3.7615998968577469E-01 a      1322     1    22     2    22
 -1.7100799029986213E-01 a      1323     1    22     2    23
  4.8605192885991877E-01 a      1324     1    22     2    24
 -6.8020454975770539E-01 a      1325     1    22     2    25
  1.2649953689679689E+00 a      1326     1    23     2     1
  9.0314773020612416E-01 a      1327     1    23     2     2
  1.9639768716680128E-01 a      1328     1    23     2     3
 -1.5340610523093843E+00 a      1329     1    23     2     4
  2.0207689146606136E-01 a      1330     1    23     2     5
 -3.2868441854416791E-01 a      1331     1    23     2     6
  5.0933151967692691E-01 a      1332     1    23     2     7
  4.7555633285277302E-02 a      1333     1    23     2     8
  1.1851632277357256E-01 a      1334     1    23     2     9
  1.4586304837307063E+00 a      1335     1    23     2    10
 -6.0877352052301981E-01 a      1336     1    23     2    11
  2.8986419204712915E-01 a      1337     1    23     2    12
  1.3458784742590595E+00 a      1338     1    23     2    13
  4.6088845311266056E+00 a      1339     1    23     2    14
 -4.0735317797559889E-01 a      1340     1    23     2    15
  7.5995677091805380E-01 a      1341     1    23     2    16
 -6.2454514294042984E-01 a      1342     1    23     2    17
 -1.5407732081221572E+00 a      1343     1    23     2    18
 -3.0931945398124649E+00 a      1344     1    23     2    19
 -5.9436114059825973E-01 a      1345     1    23     2    20
 -1.7901379275667106E+00 a      1346     1    23     2    21
  1.2999782118250574E+00 a      1347     1    23     2    22
 -1.6191337720910340E-01 a      1348     1    23     2    23
 -2.0012570846874955E-01 a      1349     1    23     2    24
 -3.9110673931291318E-01 a      1350     1    23     2    25
 -4.9987518463227942E-01 a      1351     1    24     2     1
 -7.3293224929931289E-01 a      1352     1    24     2     2
 -1.4402978175517229E+00 a      1353     1    24     2     3
 -2.6556075220576933E+00 a      1354     1    24     2     4
 -1.1850538641656052E-02 a      1355     1    24     2     5
  8.0562991630709146E-01 a      1356     1    24     2     6
 -3.4336262162353330E+00 a      1357     1    24     2     7
  4.4989408456440633E-01 a      1358     1    24     2     8
  3.6781134992427222E-01 a      1359     1    24     2     9
  1.4699409748542274E+00 a      1360     1    24     2    10
  1.9747744563520466E+00 a      1361     1    24     2    11
 -5.7568383274206303E-01 a      1362     1    24     2    12
 -1.3307022751194477E+00 a      1363     1    24     2    13
  2.3272901331824083E+00 a      1364     1    24     2    14
 -2.2319238386345214E-01 a      1365     1    24     2    15
  1.1392688696181614E+00 a      1366     1    24     2    16
 -1.1114037241454091E+00 a      1367     1    24     2    17
 -7.0764040590992727E-01 a      1368     1    24     2    18
 -3.5010162611583012E-01 a      1369     1    24     2    19
 -9.7090086622023519E-01 a      1370     1    24     2    20
 -1.1912195188441892E+00 a      1371     1    24     2    21
 -1.6115700538268629E-01 a      1372     1    24     2    22
  3.8267572013620260E-01 a      1373     1    24     2    23
 -1.6583318325343550E-02 a      1374     1    24     2    24
  1.0192943354736301E+00 a      1375     1    24     2    25
  8.4876856323623961E-01 a      1376     1    25     2     1
 -4.8754900438624055E-01 a      1377     1    25     2     2
 -1.6659646920654467E-01 a      1378     1    25     2     3
 -3.4336547589077187E+00 a      1379     1    25     2     4
  3.6721213131327125E-02 a      1380     1    25     2     5
 -5.5216573586143314E-01 a      1381     1    25     2     6
  5.0800402338411677E-01 a      1382     1    25     2     7
 -2.8798205916596137E-01 a      1383     1    25     2     8
  1.0946433782670786E+00 a      1384     1    25     2     9
 -2.1260263722242216E+00 a      1385     1    25     2    10
 -1.7075001481491765E+00 a      1386     1    25     2    11
  4.8085004519152141E-01 a      1387     1    25     2    12
  1.8343228309082962E-01 a      1388     1    25     2    13
  2.2106483492876206E+00 a      1389     1    25     2    14
 -3.5407517639086805E-01 a      1390     1    25     2    15
 -7.9209753638433833E-01 a      1391     1    25     2    16
 -1.8272765224060354E+00 a      1392     1    25     2    17
  2.6755075943199897E+00 a      1393     1    25     2    18
  1.8589479192853048E-01 a      1394     1    25     2    19
 -9.0842784386721920E-01 a      1395     1    25     2    20
 -6.9966754707081347E-01 a      1396     1    25     2    21
 -1.4498795156300954E+00 a      1397     1    25     2    22
  1.7289558193482544E+00 a      1398     1    25     2    23
  3.8637692112110128E-01 a      1399     1    25     2    24
 -1.2295804356476174E+00 a      1400     1    25     2    25
  7.4834873017943400E+00 b      1401     2     1
  4.4263406479411680E+00 b      1402     2     2
  2.8544519815752141E+00 b      1403     2     3
 -2.9350554507239681E+00 b      1404     2     4
  1.3516779935693233E+00 b      1405     2     5
  1.1400504020065536E+00 b      1406     2     6
  5.4055679627089381E-01 b      1407     2     7
 -6.3336315446548266E+00 b      1408     2     8
  1.7993623381019141E+00 b      1409     2     9
 -7.5904138676714483E+00 b      1410     2    10
  6.6193352148535139E-02 b      1411     2    11
  3.0418783991309878E-01 b      1412     2    12
 -1.7817200671463060E+00 b      1413     2    13
  2.3797190717853249E+00 b      1414     2    14
  1.9515994280306040E-01 b      1415     2    15
  2.6683087222868713E+00 b      1416     2    16
 -3.8685139699474722E+00 b      1417     2    17
 -3.9532863229960657E-01 b      1418     2    18
 -2.8011453892948244E+00 b      1419     2    19
 -4.3675650129211058E-01 b      1420     2    20
 -1.3865105365487211E+00 b      1421     2    21
  2.2412979880115818E+00 b      1422     2    22
  5.6986251497735074E-01 b      1423     2    23
  2.5232300150989957E+00 b      1424     2    24
  1.5708858008248305E+00 b      1425     2    25
 -6.0378287477637915E-01 a      1426     2     1     3     1
 -3.6174071850867748E+00 a      1427     2     2     3     1
 -2.5546120960393166E+00 a      1428     2     3     3     1
 -6.9157239462323039E-01 a      1429     2     4     3     1
 -1.8539412421475314E+00 a      1430     2     5     3     1
  2.3567595565689405E+00 a      1431     2     6     3     1
  5.6118582315873367E-01 a      1432     2     7     3     1
  2.7455281500956521E+00 a      1433     2     8     3     1
  2.2396714408860228E+00 a      1434     2     9     3     1
 -4.7936367432201349E-01 a      1435     2    10     3     1
  1.2254002995543070E+00 a      1436     2    11     3     1
  1.5008106776987962E+00 a      1437     2    12     3     1
  1.0649317906855518E+00 a      1438     2    13     3     1
  3.0727148932116904E-01 a      1439     2    14     3     1
  3.2372855778283007E+00 a      1440     2    15     3     1
  3.6047222305006081E+00 a      1441     2    16     3     1
 -1.7069580766489008E+00 a      1442     2    17     3     1
 -1.0085254343533201E+00 a      1443     2    18     3     1
  8.5404763593463684E-01 a      1444     2    19     3     1
 -9.0338409555446197E-01 a      1445     2    20     3     1
 -1.8681821350398085E+00 a      1446     2    21     3     1
  1.7346251702417887E+00 a      1447     2    22     3     1
  1.4780200461697170E+00 a      1448     2    23     3     1
 -1.7985057285501229E+00 a      1449     2    24     3     1
  1.5277008304103452E+00 a      1450     2    25     3     1
  2.6540918440603889E+00 b      1451     3     1
