################################################################################
# Neural network connection values (weights and biases).
################################################################################
# Col  Name       Description
################################################################################
# 1    connection Neural network connection value.
# 2    t          Connection type (a = weight, b = bias).
# 3    index      Index enumerating weights.
# 4    l_s        Starting point layer (end point layer for biases).
# 5    n_s        Starting point neuron in starting layer (end point neuron for biases).
# 6    l_e        End point layer.
# 7    n_e        End point neuron in end layer.
################################################################################
#                      1 2         3     4     5     6     7
#             connection t     index   l_s   n_s   l_e   n_e
############################################################
 -2.0615965509486389E+00 a         1     0     1     1     1
  8.5673677619780375E-01 a         2     0     1     1     2
 -2.0578812067045900E+00 a         3     0     1     1     3
 -1.9079290893362891E-01 a         4     0     1     1     4
  2.1931297710075319E+00 a         5     0     1     1     5
 -1.0718728887216178E+00 a         6     0     1     1     6
 -6.5700133979754516E-01 a         7     0     1     1     7
  1.4276606007404813E+00 a         8     0     1     1     8
 -3.2618900363071655E+00 a         9     0     1     1     9
  7.9535902296231964E-01 a        10     0     1     1    10
 -5.4007190820651214E+00 a        11     0     1     1    11
 -1.1507026233433577E+00 a        12     0     1     1    12
  2.3016974119671243E+00 a        13     0     1     1    13
  4.4143912978630642E+00 a        14     0     1     1    14
 -1.9729637257437407E+00 a        15     0     1     1    15
 -8.2636991646342173E-01 a        16     0     2     1     1
  1.5592003190811479E+00 a        17     0     2     1     2
 -1.3337547974568691E+00 a        18     0     2     1     3
  3.7011218674124220E-02 a        19     0     2     1     4
 -7.2589676541032999E-01 a        20     0     2     1     5
  5.4282206142477718E-01 a        21     0     2     1     6
  9.8866948058744264E-01 a        22     0     2     1     7
  3.9032408798180320E+00 a        23     0     2     1     8
  4.6275245621025463E-01 a        24     0     2     1     9
 -2.2967200020839848E-01 a        25     0     2     1    10
 -2.9827286313845101E-02 a        26     0     2     1    11
  3.1593717978322339E-01 a        27     0     2     1    12
  4.2578945999572804E-01 a        28     0     2     1    13
  9.4526637804176292E-02 a        29     0     2     1    14
 -1.4042663146580214E+00 a        30     0     2     1    15
 -1.1592055708996953E-01 a        31     0     3     1     1
  1.5110755814239869E+00 a        32     0     3     1     2
 -1.6397758409412864E+00 a        33     0     3     1     3
 -1.8880655795417645E-01 a        34     0     3     1     4
  5.2813641766091546E-01 a        35     0     3     1     5
 -1.6053042169641432E+00 a        36     0     3     1     6
 -1.3572317071820350E+00 a        37     0     3     1     7
 -7.6736656406749826E-01 a        38     0     3     1     8
 -3.0511569283675963E+00 a        39     0     3     1     9
  3.3655053157327308E-01 a        40     0     3     1    10
 -7.8368278976802772E+00 a        41     0     3     1    11
 -2.6592926213494428E-01 a        42     0     3     1    12
  1.8217642341634670E+00 a        43     0     3     1    13
  5.5573749943293005E-01 a        44     0     3     1    14
 -2.1270301263642173E+00 a        45     0     3     1    15
 -5.9567377812078615E-01 a        46     0     4     1     1
 -1.6340541369259609E+00 a        47     0     4     1     2
  2.5588475083647239E-01 a        48     0     4     1     3
  2.0349602699281163E-01 a        49     0     4     1     4
  3.3347366525840920E+00 a        50     0     4     1     5
 -2.6775220754684361E+00 a        51     0     4     1     6
 -9.3583893519611494E-01 a        52     0     4     1     7
 -6.3740509682438624E+00 a        53     0     4     1     8
 -2.7195407128166731E+00 a        54     0     4     1     9
 -4.4444625465889992E-01 a        55     0     4     1    10
 -5.3157202211851970E+00 a        56     0     4     1    11
 -8.9267021174052469E-02 a        57     0     4     1    12
  3.1924873828819216E+00 a        58     0     4     1    13
  2.8555011816248239E+00 a        59     0     4     1    14
  6.5374770421580841E-01 a        60     0     4     1    15
 -2.0135265843067232E+00 a        61     0     5     1     1
  1.2516530965740262E+00 a        62     0     5     1     2
 -2.0057693453842300E+00 a        63     0     5     1     3
 -2.0129360438290372E-01 a        64     0     5     1     4
  9.7446334827343029E-01 a        65     0     5     1     5
 -5.9017735225663537E-01 a        66     0     5     1     6
 -1.4120719080714916E-01 a        67     0     5     1     7
  7.0443990307711868E-01 a        68     0     5     1     8
 -3.6156485553983710E+00 a        69     0     5     1     9
  1.0776491151089169E+00 a        70     0     5     1    10
 -7.0423672073320382E+00 a        71     0     5     1    11
 -8.5148885750339454E-01 a        72     0     5     1    12
  1.9524627542423540E+00 a        73     0     5     1    13
  2.7051519631821037E+00 a        74     0     5     1    14
 -2.3180608911930261E+00 a        75     0     5     1    15
 -4.2675221167096815E+00 a        76     0     6     1     1
  2.8655346981250038E+00 a        77     0     6     1     2
 -2.9646245983916928E+00 a        78     0     6     1     3
  1.3062736053043297E-01 a        79     0     6     1     4
 -9.4280660747229783E-01 a        80     0     6     1     5
  8.5494573488070491E-01 a        81     0     6     1     6
  1.6947862920172914E+00 a        82     0     6     1     7
  6.2568974363286936E+00 a        83     0     6     1     8
 -8.2823301623587853E-01 a        84     0     6     1     9
 -1.0657037571463661E+00 a        85     0     6     1    10
 -3.9007482644547364E+00 a        86     0     6     1    11
  1.2198214150529685E+00 a        87     0     6     1    12
  2.1518878037954638E+00 a        88     0     6     1    13
  1.1189929903899125E-02 a        89     0     6     1    14
 -2.2271237203822345E+00 a        90     0     6     1    15
  6.0348010433214549E-01 a        91     0     7     1     1
  1.4195424847740963E+00 a        92     0     7     1     2
 -2.0418283073246872E+00 a        93     0     7     1     3
 -2.4519682086595277E-02 a        94     0     7     1     4
  6.2642768359888856E-01 a        95     0     7     1     5
 -1.9231821311106130E+00 a        96     0     7     1     6
 -1.3868652485733126E+00 a        97     0     7     1     7
  7.2051084198304194E-01 a        98     0     7     1     8
 -3.5217186930287490E+00 a        99     0     7     1     9
  7.9849801957427791E-01 a       100     0     7     1    10
 -5.6852767012226844E+00 a       101     0     7     1    11
 -1.0247131730543830E+00 a       102     0     7     1    12
  1.5088276746114593E+00 a       103     0     7     1    13
  8.5850186811734486E-01 a       104     0     7     1    14
 -1.7881758141607986E+00 a       105     0     7     1    15
 -6.1911387356267911E-01 a       106     0     8     1     1
 -2.9974957141547570E-01 a       107     0     8     1     2
 -3.5289028749729162E-01 a       108     0     8     1     3
  2.1981037279120616E-01 a       109     0     8     1     4
  1.3583769266270735E+00 a       110     0     8     1     5
 -1.0151675037636654E+00 a       111     0     8     1     6
  2.8542102541185060E-01 a       112     0     8     1     7
 -1.9392274380177272E+00 a       113     0     8     1     8
 -1.9569617611941503E+00 a       114     0     8     1     9
 -3.0045589096628994E-01 a       115     0     8     1    10
 -2.7345929739553583E+00 a       116     0     8     1    11
  1.8227816088649978E-01 a       117     0     8     1    12
  2.2105931599950916E+00 a       118     0     8     1    13
  1.2116679239526187E+00 a       119     0     8     1    14
 -3.8212068013316025E-01 a       120     0     8     1    15
 -1.5658639650870354E+00 a       121     0     9     1     1
  1.0789013365196081E+00 a       122     0     9     1     2
 -1.7342186450183721E+00 a       123     0     9     1     3
 -6.7778170993275183E-02 a       124     0     9     1     4
 -8.8530339064632785E-02 a       125     0     9     1     5
 -5.2107875730116560E-01 a       126     0     9     1     6
  1.1983822520992767E-01 a       127     0     9     1     7
  1.5033592857059383E-01 a       128     0     9     1     8
 -2.4575490742510713E+00 a       129     0     9     1     9
  6.6245423580780050E-01 a       130     0     9     1    10
 -4.2340108195700843E+00 a       131     0     9     1    11
 -1.0055392096577171E+00 a       132     0     9     1    12
  1.6277327782959641E+00 a       133     0     9     1    13
  2.6975642414828160E-01 a       134     0     9     1    14
 -1.6734366289942577E+00 a       135     0     9     1    15
 -2.5579485616675237E+00 a       136     0    10     1     1
  1.0773448957684908E+00 a       137     0    10     1     2
 -1.0232072953555751E+00 a       138     0    10     1     3
  1.7823224739908117E-01 a       139     0    10     1     4
 -3.1389106714698545E-01 a       140     0    10     1     5
 -2.1351450535440827E-01 a       141     0    10     1     6
  1.3627053981507689E+00 a       142     0    10     1     7
  2.1779206865531555E+00 a       143     0    10     1     8
 -1.0898627827720309E+00 a       144     0    10     1     9
 -1.6916662739211333E-01 a       145     0    10     1    10
 -1.5375167494513982E+00 a       146     0    10     1    11
  5.7070272167013839E-02 a       147     0    10     1    12
  1.5257824441301278E+00 a       148     0    10     1    13
 -2.9695215263794766E-01 a       149     0    10     1    14
 -9.1845702488768410E-01 a       150     0    10     1    15
  1.4950407388215656E-01 a       151     0    11     1     1
  1.1581657072145257E+00 a       152     0    11     1     2
 -1.7838484019694618E+00 a       153     0    11     1     3
  3.5118327248120851E-01 a       154     0    11     1     4
 -1.9608662261206056E-01 a       155     0    11     1     5
 -2.2880540302847852E+00 a       156     0    11     1     6
 -1.1956677626171117E+00 a       157     0    11     1     7
  1.3191709025309424E+00 a       158     0    11     1     8
 -2.7800635232854463E+00 a       159     0    11     1     9
  1.1884292111393289E+00 a       160     0    11     1    10
 -3.4647706756701138E+00 a       161     0    11     1    11
 -1.5559525059724550E+00 a       162     0    11     1    12
 -8.6973127176832843E-01 a       163     0    11     1    13
 -7.2782833865296603E-01 a       164     0    11     1    14
 -9.6368336091357620E-01 a       165     0    11     1    15
 -1.2228353403472869E-01 a       166     0    12     1     1
 -3.2162136651327340E-02 a       167     0    12     1     2
  1.3326053993504927E-01 a       168     0    12     1     3
  1.8222019979241685E-01 a       169     0    12     1     4
  2.1544280370884691E-01 a       170     0    12     1     5
  3.1488064260290360E-01 a       171     0    12     1     6
  4.0599338188593309E-01 a       172     0    12     1     7
 -2.4522827593793051E-01 a       173     0    12     1     8
 -1.4399285024552850E+00 a       174     0    12     1     9
  9.5180455740261322E-02 a       175     0    12     1    10
 -7.1278365610616456E-01 a       176     0    12     1    11
  3.2987592458283768E-02 a       177     0    12     1    12
  1.1821258227332443E+00 a       178     0    12     1    13
 -5.4282935772834905E-02 a       179     0    12     1    14
 -3.2662062206382264E-01 a       180     0    12     1    15
 -4.3212022586486282E-01 a       181     0    13     1     1
  3.6674968679626940E-01 a       182     0    13     1     2
 -8.4981948623856018E-01 a       183     0    13     1     3
 -4.5162527373250362E-02 a       184     0    13     1     4
 -2.8162813365093392E-01 a       185     0    13     1     5
 -1.7984763861067496E-01 a       186     0    13     1     6
 -8.1254235583687676E-02 a       187     0    13     1     7
  5.2480966914535288E-01 a       188     0    13     1     8
 -8.5836321483958700E-01 a       189     0    13     1     9
  2.7073088163784870E-01 a       190     0    13     1    10
 -1.0608691747982648E+00 a       191     0    13     1    11
 -6.7281960394835605E-01 a       192     0    13     1    12
  3.3868171329569424E-01 a       193     0    13     1    13
 -2.9067818989817573E-01 a       194     0    13     1    14
 -7.3302589659134243E-01 a       195     0    13     1    15
 -1.3952105624711650E+00 a       196     0    14     1     1
  1.3545720829183447E-01 a       197     0    14     1     2
 -1.1877651846780642E-01 a       198     0    14     1     3
  6.7715996250401519E-02 a       199     0    14     1     4
 -1.7327026047427915E-01 a       200     0    14     1     5
 -9.2545804549300240E-02 a       201     0    14     1     6
  6.6156739637778017E-01 a       202     0    14     1     7
  5.8925231630111530E-01 a       203     0    14     1     8
 -1.2377492092933540E-01 a       204     0    14     1     9
 -5.9369685454240824E-02 a       205     0    14     1    10
 -3.3341172254329987E-01 a       206     0    14     1    11
 -2.2437723418863306E-01 a       207     0    14     1    12
  1.3933203795552337E-01 a       208     0    14     1    13
 -8.9091840862139893E-02 a       209     0    14     1    14
 -2.9742750307290006E-01 a       210     0    14     1    15
 -3.5406203210178888E-01 a       211     0    15     1     1
  4.7143496765882580E-02 a       212     0    15     1     2
 -5.5848192008076658E-01 a       213     0    15     1     3
  1.0817746410177471E-01 a       214     0    15     1     4
 -3.1074500427783786E-01 a       215     0    15     1     5
 -1.2332213586382768E+00 a       216     0    15     1     6
 -8.4457274793287407E-01 a       217     0    15     1     7
  5.3783978605435556E-01 a       218     0    15     1     8
 -8.7398637917765287E-01 a       219     0    15     1     9
  3.6876890957879338E-01 a       220     0    15     1    10
 -1.9740338990140477E-01 a       221     0    15     1    11
 -5.5320851574274432E-01 a       222     0    15     1    12
 -7.5372460177968614E-01 a       223     0    15     1    13
 -1.3082711601784122E-01 a       224     0    15     1    14
 -7.8616295066803024E-02 a       225     0    15     1    15
 -1.3184180706192599E+01 a       226     0    16     1     1
  8.5132695977809743E+00 a       227     0    16     1     2
 -4.8080134838009707E+00 a       228     0    16     1     3
  3.4885232961945838E+00 a       229     0    16     1     4
 -1.7531784699905055E+00 a       230     0    16     1     5
  1.3253760574971396E+01 a       231     0    16     1     6
  7.2754421750872371E+00 a       232     0    16     1     7
  5.4233577547280039E+00 a       233     0    16     1     8
 -6.8575409113950521E+00 a       234     0    16     1     9
  1.8873436841985687E+00 a       235     0    16     1    10
 -7.1161709017976058E+00 a       236     0    16     1    11
 -9.5311776518929516E+00 a       237     0    16     1    12
 -1.3733277248020219E+01 a       238     0    16     1    13
 -5.0951654950526324E+00 a       239     0    16     1    14
  1.7339051998796637E+00 a       240     0    16     1    15
 -4.6304204728662901E+00 a       241     0    17     1     1
 -1.5555441761260058E+00 a       242     0    17     1     2
 -9.6568345991441440E+00 a       243     0    17     1     3
 -7.6131087343150583E-01 a       244     0    17     1     4
  4.2804597574255648E-01 a       245     0    17     1     5
 -8.0565265450181673E+00 a       246     0    17     1     6
  1.2668255426019307E+01 a       247     0    17     1     7
 -2.4592978735446840E+00 a       248     0    17     1     8
 -3.2430571815103217E+00 a       249     0    17     1     9
  2.4774939744115060E-01 a       250     0    17     1    10
 -1.3033753691840948E+00 a       251     0    17     1    11
 -7.0497790530302984E-01 a       252     0    17     1    12
  2.9439663006488774E+00 a       253     0    17     1    13
 -8.7534944842585212E+00 a       254     0    17     1    14
 -1.9142578749886457E-01 a       255     0    17     1    15
  5.3278819912194759E+00 a       256     0    18     1     1
  2.6142715749790875E+00 a       257     0    18     1     2
  8.9860258165889579E+00 a       258     0    18     1     3
  2.8073581437774560E+00 a       259     0    18     1     4
  3.6649472590109946E+00 a       260     0    18     1     5
  2.0349975296167173E+01 a       261     0    18     1     6
 -6.7642719811556817E-01 a       262     0    18     1     7
 -3.2782543077019914E+00 a       263     0    18     1     8
 -9.4543278450097290E+00 a       264     0    18     1     9
 -1.0552723674115403E+00 a       265     0    18     1    10
  2.2294862519829191E+00 a       266     0    18     1    11
 -1.5379032788025712E-01 a       267     0    18     1    12
 -9.0537581079905021E+00 a       268     0    18     1    13
 -1.4072922832204808E+01 a       269     0    18     1    14
 -3.1229009115359676E+00 a       270     0    18     1    15
  1.3053921456209379E+01 a       271     0    19     1     1
 -4.4366275093890600E-01 a       272     0    19     1     2
 -2.7690400486053757E+00 a       273     0    19     1     3
 -2.4626772242311015E+00 a       274     0    19     1     4
  7.0693364842620765E+00 a       275     0    19     1     5
 -9.0663686094968128E+00 a       276     0    19     1     6
 -6.5040767104834507E-01 a       277     0    19     1     7
  5.9112351649224353E+00 a       278     0    19     1     8
  6.1073570845431897E+00 a       279     0    19     1     9
 -1.6835044866007711E+00 a       280     0    19     1    10
 -3.4720644946095708E-01 a       281     0    19     1    11
  7.5501790994353097E+00 a       282     0    19     1    12
 -6.9901504200965796E+00 a       283     0    19     1    13
 -6.0747323574404692E+00 a       284     0    19     1    14
 -3.2256048151106516E+00 a       285     0    19     1    15
  1.5353531524653340E+01 a       286     0    20     1     1
  8.4581361174620895E+00 a       287     0    20     1     2
  1.9972168864980532E+01 a       288     0    20     1     3
  5.5086198240108586E-01 a       289     0    20     1     4
  1.1960119404916769E+01 a       290     0    20     1     5
 -1.7508129435608220E+00 a       291     0    20     1     6
 -3.8468095333355516E+00 a       292     0    20     1     7
  2.7042390273839949E+00 a       293     0    20     1     8
  3.8560191819279184E+00 a       294     0    20     1     9
 -1.5089115884614877E+00 a       295     0    20     1    10
 -4.3536639895016815E+00 a       296     0    20     1    11
  1.0083703203240223E+01 a       297     0    20     1    12
 -1.0762199505207381E+01 a       298     0    20     1    13
 -1.0571209728116169E+00 a       299     0    20     1    14
  1.4673740704987999E+00 a       300     0    20     1    15
  1.2426899297609287E+01 a       301     0    21     1     1
  1.7953420693989481E+00 a       302     0    21     1     2
 -7.2456026209461832E+00 a       303     0    21     1     3
 -1.8893122158385114E+00 a       304     0    21     1     4
 -5.1719408678474803E+00 a       305     0    21     1     5
 -2.2242180946073638E+01 a       306     0    21     1     6
 -6.2050806305784345E+00 a       307     0    21     1     7
 -1.7182665157328749E+00 a       308     0    21     1     8
  4.2445336265599893E+00 a       309     0    21     1     9
 -4.3860147065096369E+00 a       310     0    21     1    10
 -3.1136988044578913E+00 a       311     0    21     1    11
  4.5702925642611918E+00 a       312     0    21     1    12
  1.2047860752659849E+00 a       313     0    21     1    13
  1.2582534808719787E+01 a       314     0    21     1    14
  1.3618466049533176E+00 a       315     0    21     1    15
  2.7539676312530714E+00 a       316     0    22     1     1
 -4.6459116888917391E+00 a       317     0    22     1     2
  2.0257795132057575E-02 a       318     0    22     1     3
 -8.1809626829099569E-01 a       319     0    22     1     4
 -1.9695702930671681E+00 a       320     0    22     1     5
 -2.5165077414287249E+00 a       321     0    22     1     6
  4.1482638408564648E-01 a       322     0    22     1     7
  1.9561296322517555E-01 a       323     0    22     1     8
  3.2337607166304161E+00 a       324     0    22     1     9
 -7.4101632049616040E-01 a       325     0    22     1    10
  1.7478045702506060E+00 a       326     0    22     1    11
  3.2771946827652738E+00 a       327     0    22     1    12
  2.3416859823287646E+00 a       328     0    22     1    13
  2.3456331165695357E+00 a       329     0    22     1    14
  9.9694420113231408E-01 a       330     0    22     1    15
 -5.8961688272157996E-02 a       331     0    23     1     1
 -6.7285048133467307E-02 a       332     0    23     1     2
  2.3824738797539262E+00 a       333     0    23     1     3
  4.9403116379599370E-02 a       334     0    23     1     4
 -3.0875732777121923E+00 a       335     0    23     1     5
  4.8664521191103871E+00 a       336     0    23     1     6
 -3.4929357714957336E+00 a       337     0    23     1     7
  5.2725071365166720E-01 a       338     0    23     1     8
 -1.0785763152110321E+00 a       339     0    23     1     9
 -2.3133621159810291E-01 a       340     0    23     1    10
 -8.4673932831334475E-01 a       341     0    23     1    11
 -4.0769301517573842E-01 a       342     0    23     1    12
  2.1038928600010136E+00 a       343     0    23     1    13
  2.0774598051856794E-01 a       344     0    23     1    14
  3.2329205675304384E-01 a       345     0    23     1    15
  1.4107653404340220E-01 a       346     0    24     1     1
  4.2630560565119385E-01 a       347     0    24     1     2
 -3.1047066309970373E-01 a       348     0    24     1     3
  1.3318990264450008E-02 a       349     0    24     1     4
 -5.1327079286492017E-01 a       350     0    24     1     5
  4.0570190675454909E-01 a       351     0    24     1     6
 -3.4355432607311304E-01 a       352     0    24     1     7
 -2.8589914441733805E-01 a       353     0    24     1     8
  2.5938108045766961E-01 a       354     0    24     1     9
 -3.9638559313576366E-01 a       355     0    24     1    10
 -2.6095673540280767E-01 a       356     0    24     1    11
 -4.1519600994766875E-01 a       357     0    24     1    12
 -2.3189878337485800E-01 a       358     0    24     1    13
 -9.7210434632570689E-02 a       359     0    24     1    14
 -1.0738002434361464E-01 a       360     0    24     1    15
 -1.7778050643934622E+00 a       361     0    25     1     1
  5.4680540689187185E-01 a       362     0    25     1     2
  3.7039908422352891E-01 a       363     0    25     1     3
  6.9020558515072716E-01 a       364     0    25     1     4
 -2.3250651437443262E+00 a       365     0    25     1     5
  2.5507006710515299E+00 a       366     0    25     1     6
  1.6484796350893591E+00 a       367     0    25     1     7
 -1.9346734748825511E+00 a       368     0    25     1     8
  6.4814757395762934E-01 a       369     0    25     1     9
  4.5748421637660491E-01 a       370     0    25     1    10
  1.0255774642168662E+00 a       371     0    25     1    11
 -1.8892677818415964E+00 a       372     0    25     1    12
  3.1528119035798006E+00 a       373     0    25     1    13
  4.1664036104107947E+00 a       374     0    25     1    14
  1.5380613368559588E+00 a       375     0    25     1    15
  3.9769737149361641E+00 a       376     0    26     1     1
 -8.6837192892430615E+00 a       377     0    26     1     2
 -1.2441156801868642E+01 a       378     0    26     1     3
 -2.3057961697404412E+00 a       379     0    26     1     4
  3.2602420176686637E+00 a       380     0    26     1     5
  8.4284636322661821E-01 a       381     0    26     1     6
 -9.4287130460247073E-02 a       382     0    26     1     7
  5.6639468327816616E+00 a       383     0    26     1     8
  3.6998184026001346E+00 a       384     0    26     1     9
  5.7550932017825385E-01 a       385     0    26     1    10
 -2.4687893765912619E+00 a       386     0    26     1    11
 -2.4543953265633718E+00 a       387     0    26     1    12
  5.2449840223045436E+00 a       388     0    26     1    13
 -5.7939601428757559E+00 a       389     0    26     1    14
 -2.8576015465437856E+00 a       390     0    26     1    15
 -9.9677580695201353E+00 a       391     0    27     1     1
  2.6825342973042225E+00 a       392     0    27     1     2
 -1.5621811491061715E+00 a       393     0    27     1     3
 -8.5357355440460203E-01 a       394     0    27     1     4
 -8.3914056228088807E-01 a       395     0    27     1     5
  4.5523185076708055E+00 a       396     0    27     1     6
 -2.8119986896340921E+00 a       397     0    27     1     7
  2.7934940278442206E+00 a       398     0    27     1     8
  2.9012918458822172E+00 a       399     0    27     1     9
 -1.3598022419804214E+00 a       400     0    27     1    10
 -1.8527597179975178E-01 a       401     0    27     1    11
 -2.4991468342862574E-01 a       402     0    27     1    12
  1.5881643396058756E+00 a       403     0    27     1    13
  2.6319553033741108E+00 a       404     0    27     1    14
  7.2315744810101157E-01 a       405     0    27     1    15
  4.7313424262495749E+00 a       406     0    28     1     1
 -9.4208169496475733E+00 a       407     0    28     1     2
  5.8516605583214938E+00 a       408     0    28     1     3
 -3.5661786767916293E+00 a       409     0    28     1     4
 -4.7488813013923812E+00 a       410     0    28     1     5
 -1.6481120968065852E+01 a       411     0    28     1     6
 -8.7717980138855900E+00 a       412     0    28     1     7
 -8.2765463854510539E+00 a       413     0    28     1     8
  4.0180220985737929E+00 a       414     0    28     1     9
  1.4379126704151945E-01 a       415     0    28     1    10
  6.7343965970385922E+00 a       416     0    28     1    11
  7.4266665608077247E+00 a       417     0    28     1    12
  1.1943921343786055E+01 a       418     0    28     1    13
  9.5776009462008282E+00 a       419     0    28     1    14
  1.6179535210200504E+00 a       420     0    28     1    15
 -2.3015239757939714E+00 a       421     0    29     1     1
 -5.9586733656660218E-01 a       422     0    29     1     2
  2.5725633528142096E+00 a       423     0    29     1     3
  1.1567144854681571E-01 a       424     0    29     1     4
 -8.2978808008182945E+00 a       425     0    29     1     5
  1.1205461011365236E+01 a       426     0    29     1     6
 -1.7961134372651461E+01 a       427     0    29     1     7
 -3.4468990582495329E+00 a       428     0    29     1     8
 -1.6568146003215012E+00 a       429     0    29     1     9
 -1.4817938980871526E-01 a       430     0    29     1    10
  3.9863740292974015E+00 a       431     0    29     1    11
 -7.1947093347152364E+00 a       432     0    29     1    12
 -4.1883631727129522E+00 a       433     0    29     1    13
  7.5595018694692158E+00 a       434     0    29     1    14
  5.1302678582283523E-01 a       435     0    29     1    15
  3.2900776710805957E+00 a       436     0    30     1     1
 -3.3449536739681274E+00 a       437     0    30     1     2
 -8.3460201682050936E+00 a       438     0    30     1     3
 -2.5175553903482917E+00 a       439     0    30     1     4
 -1.8044963212080600E+00 a       440     0    30     1     5
 -1.2380980390584748E+01 a       441     0    30     1     6
 -3.1961651595471141E-01 a       442     0    30     1     7
 -4.0909938795065290E+00 a       443     0    30     1     8
  5.9478649729547284E+00 a       444     0    30     1     9
  7.5092151483359049E-01 a       445     0    30     1    10
  9.8807577761138388E-01 a       446     0    30     1    11
  8.7735538917990263E-01 a       447     0    30     1    12
  1.0888788911810723E+01 a       448     0    30     1    13
  1.3264528733925909E+01 a       449     0    30     1    14
  2.1777269002187025E+00 a       450     0    30     1    15
 -1.1288844954847608E+01 a       451     0    31     1     1
  1.3519738284898204E+00 a       452     0    31     1     2
  2.7231687865513661E+00 a       453     0    31     1     3
  2.9345926086686291E+00 a       454     0    31     1     4
 -5.1316039624640597E+00 a       455     0    31     1     5
  1.0121592493604833E+01 a       456     0    31     1     6
  3.0433516984353948E+00 a       457     0    31     1     7
 -2.5468013295965433E+00 a       458     0    31     1     8
 -6.0127526101335382E+00 a       459     0    31     1     9
  2.5968951591011642E+00 a       460     0    31     1    10
  7.2733709239184807E-01 a       461     0    31     1    11
 -7.2706439236604608E+00 a       462     0    31     1    12
  3.2054823412427118E+00 a       463     0    31     1    13
  2.1589731459678174E+00 a       464     0    31     1    14
  1.9759503273955497E+00 a       465     0    31     1    15
 -1.1887574972596429E+01 a       466     0    32     1     1
 -5.7657407398276019E+00 a       467     0    32     1     2
 -1.7939183993543718E+01 a       468     0    32     1     3
 -2.6788596687262201E-01 a       469     0    32     1     4
 -6.3367191285493272E+00 a       470     0    32     1     5
 -1.2212242080031321E+00 a       471     0    32     1     6
  1.0994555636581802E+01 a       472     0    32     1     7
  2.0003536963742787E+00 a       473     0    32     1     8
 -2.4952999630715218E+00 a       474     0    32     1     9
  2.4960191024048326E+00 a       475     0    32     1    10
  2.7513648698593673E+00 a       476     0    32     1    11
 -5.9450994565723247E+00 a       477     0    32     1    12
  9.8154990704419074E+00 a       478     0    32     1    13
  4.4962347116930736E+00 a       479     0    32     1    14
 -1.6597493652714135E+00 a       480     0    32     1    15
 -1.4135484515525055E+01 a       481     0    33     1     1
 -3.8305950449127235E-01 a       482     0    33     1     2
  6.8365634933583204E+00 a       483     0    33     1     3
  2.3192877830993619E+00 a       484     0    33     1     4
  5.5302006432023081E+00 a       485     0    33     1     5
  2.0953444087714331E+01 a       486     0    33     1     6
  1.2666628864863565E+01 a       487     0    33     1     7
  6.5237202564796108E+00 a       488     0    33     1     8
 -2.6270475853246977E+00 a       489     0    33     1     9
  5.6042180981299383E+00 a       490     0    33     1    10
  2.8672984260403509E+00 a       491     0    33     1    11
 -5.2400415621319887E+00 a       492     0    33     1    12
 -5.1913436184050843E-01 a       493     0    33     1    13
 -1.3897082540072965E+01 a       494     0    33     1    14
 -1.3660608682014317E+00 a       495     0    33     1    15
 -9.4513606674930828E-01 a       496     0    34     1     1
  3.3883154821293329E+00 a       497     0    34     1     2
 -1.5202812688379447E-02 a       498     0    34     1     3
  2.0432286428425409E-01 a       499     0    34     1     4
  7.2515566747539362E-01 a       500     0    34     1     5
  1.8161808010383138E+00 a       501     0    34     1     6
 -2.1995155498121797E+00 a       502     0    34     1     7
 -2.2291372611428408E+00 a       503     0    34     1     8
 -2.7420002309373510E+00 a       504     0    34     1     9
 -3.2997005163356180E-01 a       505     0    34     1    10
 -1.3590878210306199E+00 a       506     0    34     1    11
 -1.3843768815752469E+00 a       507     0    34     1    12
 -2.0958567634916645E+00 a       508     0    34     1    13
 -1.5357763186572315E+00 a       509     0    34     1    14
 -7.9780353780544000E-01 a       510     0    34     1    15
 -9.2806005576744033E-01 a       511     0    35     1     1
  3.1297662336196241E-02 a       512     0    35     1     2
 -2.1448663017776197E+00 a       513     0    35     1     3
  2.9850213848273778E-02 a       514     0    35     1     4
  3.1870764940513818E+00 a       515     0    35     1     5
 -4.4918555918421950E+00 a       516     0    35     1     6
  2.7011551217235756E+00 a       517     0    35     1     7
 -1.0378210140196802E+00 a       518     0    35     1     8
  4.2598399176222324E-01 a       519     0    35     1     9
  2.6826022858050425E-01 a       520     0    35     1    10
  5.5135815699876856E-01 a       521     0    35     1    11
  6.0314505926005135E-01 a       522     0    35     1    12
 -1.9384724296399423E+00 a       523     0    35     1    13
 -8.9693786306676881E-01 a       524     0    35     1    14
 -2.7310695004609292E-01 a       525     0    35     1    15
  2.0931185542379356E+00 a       526     0    36     1     1
 -9.2971328711636914E-01 a       527     0    36     1     2
 -2.5451469895135803E-01 a       528     0    36     1     3
 -7.4006982916355646E-01 a       529     0    36     1     4
  2.2924153294394038E+00 a       530     0    36     1     5
 -1.8183751257664955E+00 a       531     0    36     1     6
 -1.4432674862800530E+00 a       532     0    36     1     7
  1.6502990386318046E+00 a       533     0    36     1     8
 -3.2063570254753015E-01 a       534     0    36     1     9
 -6.4242341374117229E-01 a       535     0    36     1    10
 -9.0173432516679242E-01 a       536     0    36     1    11
  1.7774310406923204E+00 a       537     0    36     1    12
 -2.9596365326002925E+00 a       538     0    36     1    13
 -3.2531734423463954E+00 a       539     0    36     1    14
 -1.2808165738998385E+00 a       540     0    36     1    15
 -4.5807550757676072E+00 a       541     0    37     1     1
  8.1853433731570444E+00 a       542     0    37     1     2
  1.3529722780358236E+01 a       543     0    37     1     3
  1.8831883891856653E+00 a       544     0    37     1     4
 -4.6321691706356063E+00 a       545     0    37     1     5
  1.0789313699843612E+00 a       546     0    37     1     6
 -3.6895649812690023E+00 a       547     0    37     1     7
 -5.9019197139784225E+00 a       548     0    37     1     8
 -1.9566148891503752E+00 a       549     0    37     1     9
 -4.9474001504764048E-01 a       550     0    37     1    10
  3.2030224765357236E+00 a       551     0    37     1    11
  7.7473803370579619E-01 a       552     0    37     1    12
 -4.1581453754596804E+00 a       553     0    37     1    13
  2.5467491540055911E+00 a       554     0    37     1    14
  2.7267445665788443E+00 a       555     0    37     1    15
  8.6088473693411860E+00 a       556     0    38     1     1
 -2.9142780030595392E+00 a       557     0    38     1     2
  7.4166104670519728E-01 a       558     0    38     1     3
  4.6744287905409454E-01 a       559     0    38     1     4
  9.4571099159296013E-01 a       560     0    38     1     5
 -4.6537329881029432E+00 a       561     0    38     1     6
  5.7520476725132619E-01 a       562     0    38     1     7
 -4.4944238661037312E+00 a       563     0    38     1     8
 -2.5099837985500764E+00 a       564     0    38     1     9
  6.2395601862814554E-01 a       565     0    38     1    10
  7.9937967669911814E-01 a       566     0    38     1    11
  4.6018783034134114E-01 a       567     0    38     1    12
  4.1170585210501591E-02 a       568     0    38     1    13
 -1.5550456096669534E+00 a       569     0    38     1    14
 -9.0951023924775054E-01 a       570     0    38     1    15
  1.0336556660700833E+00 a       571     0    39     1     1
 -2.2447006008039030E+00 a       572     0    39     1     2
 -1.1977327873508099E+00 a       573     0    39     1     3
  6.7724986471772103E-04 a       574     0    39     1     4
 -2.8267740723673884E+00 a       575     0    39     1     5
  1.7418973868875816E+00 a       576     0    39     1     6
  8.9891349502122160E-04 a       577     0    39     1     7
 -1.2042862385049367E+00 a       578     0    39     1     8
 -7.6975200037645874E-01 a       579     0    39     1     9
 -3.9101172567719406E-01 a       580     0    39     1    10
  5.2441438086314196E-01 a       581     0    39     1    11
  8.5062166811010742E-01 a       582     0    39     1    12
  1.5199188858483876E+00 a       583     0    39     1    13
 -3.5356619628173164E-01 a       584     0    39     1    14
  2.8642548181509686E-01 a       585     0    39     1    15
  1.2217491882508864E+00 a       586     0    40     1     1
 -1.2211276918632998E+00 a       587     0    40     1     2
  1.5360102782668035E+00 a       588     0    40     1     3
  3.9651703078218753E-01 a       589     0    40     1     4
 -1.7616518821534477E-01 a       590     0    40     1     5
  4.3908953422739644E-01 a       591     0    40     1     6
 -1.3509569374513737E+00 a       592     0    40     1     7
 -7.6291952998902202E-01 a       593     0    40     1     8
 -1.7718671179628327E+00 a       594     0    40     1     9
 -1.7229157834861153E-01 a       595     0    40     1    10
 -2.5862616458921600E-01 a       596     0    40     1    11
 -2.8975117397927422E-02 a       597     0    40     1    12
 -5.7518088978158544E-01 a       598     0    40     1    13
 -2.6132476371962563E-02 a       599     0    40     1    14
 -2.0307659952064083E-01 a       600     0    40     1    15
 -2.2545002291022200E+00 a       601     0    41     1     1
  2.8726957106511599E+00 a       602     0    41     1     2
  1.8122576063508213E+00 a       603     0    41     1     3
 -1.7516059200096243E-01 a       604     0    41     1     4
  1.9899384605173176E+00 a       605     0    41     1     5
 -7.9040072127857375E-01 a       606     0    41     1     6
 -1.7755915023238744E+00 a       607     0    41     1     7
  5.0968479496700148E-01 a       608     0    41     1     8
  8.0020050716365621E-01 a       609     0    41     1     9
  7.9141395294929570E-02 a       610     0    41     1    10
 -7.8770236554621798E-01 a       611     0    41     1    11
 -3.2086336089612861E+00 a       612     0    41     1    12
 -2.7116403113528507E+00 a       613     0    41     1    13
  8.6912508229073493E-01 a       614     0    41     1    14
  2.1073660396184321E-01 a       615     0    41     1    15
  4.1879302322356787E-01 a       616     0    42     1     1
  1.2539846709063087E+00 a       617     0    42     1     2
 -1.5321233539519949E+00 a       618     0    42     1     3
 -4.4538921045755325E-01 a       619     0    42     1     4
  5.0819856789028461E-01 a       620     0    42     1     5
 -7.2908038981376599E-01 a       621     0    42     1     6
  2.4660729335221094E+00 a       622     0    42     1     7
  7.1848909675450504E-02 a       623     0    42     1     8
  2.4696702041379983E+00 a       624     0    42     1     9
  7.0970330905341295E-01 a       625     0    42     1    10
  3.3575192867638876E-01 a       626     0    42     1    11
 -2.5345104125892193E-02 a       627     0    42     1    12
  1.4843726440706075E+00 a       628     0    42     1    13
  1.2854241243788636E+00 a       629     0    42     1    14
  6.2646662014082677E-01 a       630     0    42     1    15
  1.8337342297029939E+00 a       631     0    43     1     1
 -1.2240130131055178E+00 a       632     0    43     1     2
 -1.9150997680117603E+00 a       633     0    43     1     3
 -4.2501319925631893E-02 a       634     0    43     1     4
  7.5771169684596673E-01 a       635     0    43     1     5
 -3.0927875350434691E-01 a       636     0    43     1     6
  9.0887259230820161E-01 a       637     0    43     1     7
  2.9470088184325544E-01 a       638     0    43     1     8
 -4.9268632226596393E-01 a       639     0    43     1     9
 -7.5567582338919304E-02 a       640     0    43     1    10
 -5.1654577124668621E-01 a       641     0    43     1    11
  1.3487020310704765E+00 a       642     0    43     1    12
  3.3521960694399100E-01 a       643     0    43     1    13
  7.2258407256105683E-01 a       644     0    43     1    14
 -4.5503968528305161E-01 a       645     0    43     1    15
  6.4222341899751392E+00 a       646     0    44     1     1
  3.5182799519637644E+00 a       647     0    44     1     2
 -1.8675175250827131E+01 a       648     0    44     1     3
 -1.6246886031251027E+00 a       649     0    44     1     4
  6.6704562412794832E+00 a       650     0    44     1     5
 -6.6395095358946108E+00 a       651     0    44     1     6
  1.1185927822795156E+01 a       652     0    44     1     7
 -1.9134668198197150E-02 a       653     0    44     1     8
 -5.2439974025786231E+00 a       654     0    44     1     9
 -1.0129058744326129E+00 a       655     0    44     1    10
 -1.3622095551476963E+01 a       656     0    44     1    11
 -1.0159529596736738E+00 a       657     0    44     1    12
 -8.1347682169664406E+00 a       658     0    44     1    13
  3.8261170340080777E+00 a       659     0    44     1    14
 -4.3301378426445583E+00 a       660     0    44     1    15
 -7.0737048555809190E-01 a       661     0    45     1     1
 -5.6429560105780370E+00 a       662     0    45     1     2
 -1.9116777832646197E+00 a       663     0    45     1     3
 -2.0401554482680387E-01 a       664     0    45     1     4
  4.8958938462084669E+00 a       665     0    45     1     5
 -1.1812232804121232E+01 a       666     0    45     1     6
  1.1075450903700595E+01 a       667     0    45     1     7
 -2.0300097374093822E+00 a       668     0    45     1     8
 -2.1881675117700135E+00 a       669     0    45     1     9
  4.7883776924991261E+00 a       670     0    45     1    10
 -6.1312780323146967E+00 a       671     0    45     1    11
  5.6571825754672540E+00 a       672     0    45     1    12
  1.1442137307635500E+00 a       673     0    45     1    13
 -6.2483095047147517E+00 a       674     0    45     1    14
  1.3325823876087548E+00 a       675     0    45     1    15
  6.4149605358419990E+00 a       676     0    46     1     1
 -5.2834493618856566E+00 a       677     0    46     1     2
  7.3042191889861785E+00 a       678     0    46     1     3
 -2.8872311163842386E+00 a       679     0    46     1     4
  3.2541797336710623E+00 a       680     0    46     1     5
  1.2770983740271907E+01 a       681     0    46     1     6
 -3.2402887238683626E+00 a       682     0    46     1     7
  7.1911389409634756E+00 a       683     0    46     1     8
 -4.6280181677053980E+00 a       684     0    46     1     9
  3.0147476817668917E-01 a       685     0    46     1    10
  2.1460750203038721E+00 a       686     0    46     1    11
  7.9827616519683016E+00 a       687     0    46     1    12
 -3.8185461565043419E+00 a       688     0    46     1    13
  4.6826596801579301E+00 a       689     0    46     1    14
  3.1841826934983737E+00 a       690     0    46     1    15
 -2.1704603342618256E+00 a       691     0    47     1     1
 -3.8114319949953037E+00 a       692     0    47     1     2
  1.8698661642850254E+01 a       693     0    47     1     3
  5.9778788970566477E-01 a       694     0    47     1     4
  4.0410360259346305E+00 a       695     0    47     1     5
  1.1210352608336022E+01 a       696     0    47     1     6
 -1.0561859074699900E+01 a       697     0    47     1     7
 -1.8567929508788168E+00 a       698     0    47     1     8
  2.7416491652303678E+00 a       699     0    47     1     9
 -2.3795822613958184E+00 a       700     0    47     1    10
  2.4937416942719528E+00 a       701     0    47     1    11
  5.2791224363136626E+00 a       702     0    47     1    12
 -8.5595024873253955E-01 a       703     0    47     1    13
 -9.8324376562318481E+00 a       704     0    47     1    14
  6.1405728480698740E-01 a       705     0    47     1    15
 -9.3973073219511116E-01 a       706     0    48     1     1
  8.1944384445601006E+00 a       707     0    48     1     2
 -2.0671496487458656E+00 a       708     0    48     1     3
 -2.0542787550658397E+00 a       709     0    48     1     4
  5.4633229045267004E+00 a       710     0    48     1     5
  1.4587256762821221E+01 a       711     0    48     1     6
 -3.7588596517704058E+00 a       712     0    48     1     7
  4.5570392763454493E+00 a       713     0    48     1     8
 -1.4164690308763455E+00 a       714     0    48     1     9
 -1.8464897603516874E+00 a       715     0    48     1    10
 -5.1133430608176278E+00 a       716     0    48     1    11
  1.0786802777973736E+00 a       717     0    48     1    12
  3.7979133051433536E+00 a       718     0    48     1    13
  8.0576275781810001E+00 a       719     0    48     1    14
 -2.2947150814057125E+00 a       720     0    48     1    15
 -1.1402662935969643E+01 a       721     0    49     1     1
  9.1583058684927412E+00 a       722     0    49     1     2
 -7.1537472301911933E+00 a       723     0    49     1     3
  2.8376017253156292E+00 a       724     0    49     1     4
  6.9583016961767994E+00 a       725     0    49     1     5
 -8.9354198645220730E+00 a       726     0    49     1     6
 -1.2174692791739334E+01 a       727     0    49     1     7
 -8.8318859870989588E+00 a       728     0    49     1     8
 -6.2930546924992550E+00 a       729     0    49     1     9
 -8.8165474597166504E+00 a       730     0    49     1    10
 -1.8356175255717304E-02 a       731     0    49     1    11
  2.7430726872558708E-01 a       732     0    49     1    12
  2.0015489620891809E+00 a       733     0    49     1    13
 -9.1829749290943248E+00 a       734     0    49     1    14
 -7.2343444726858444E+00 a       735     0    49     1    15
 -3.6889670874563171E-02 a       736     0    50     1     1
  1.2442070147827113E+00 a       737     0    50     1     2
  5.3773715861229290E+00 a       738     0    50     1     3
  1.6934690936605299E+00 a       739     0    50     1     4
  3.2624704674309331E+00 a       740     0    50     1     5
  2.4627158384939194E+00 a       741     0    50     1     6
  6.0380982022540692E+00 a       742     0    50     1     7
  4.8188766619902790E+00 a       743     0    50     1     8
 -3.4559205332908938E-01 a       744     0    50     1     9
  2.0727612264613295E+00 a       745     0    50     1    10
 -5.5892148740515690E-01 a       746     0    50     1    11
 -1.5857149994856776E+00 a       747     0    50     1    12
 -8.5546431121042621E-01 a       748     0    50     1    13
 -5.6961516579204954E+00 a       749     0    50     1    14
 -1.2761500264499703E-01 a       750     0    50     1    15
  7.4047222606520933E+00 a       751     0    51     1     1
  2.7264917755599747E+00 a       752     0    51     1     2
  4.8363842211702339E+00 a       753     0    51     1     3
 -2.0169836587938603E-01 a       754     0    51     1     4
 -4.0488699948044132E-01 a       755     0    51     1     5
  3.3427727706536854E+00 a       756     0    51     1     6
 -2.4123063907735047E+00 a       757     0    51     1     7
  2.7640558709221210E+00 a       758     0    51     1     8
  1.9197111809740639E+00 a       759     0    51     1     9
 -1.7314330587423241E+00 a       760     0    51     1    10
  7.7852311293333080E-03 a       761     0    51     1    11
  2.7638603870499146E-02 a       762     0    51     1    12
  3.4732169873659120E+00 a       763     0    51     1    13
  4.3369783264459905E+00 a       764     0    51     1    14
 -6.1606385723234214E-01 a       765     0    51     1    15
 -6.0419693688017713E+00 a       766     0    52     1     1
  7.1791157112789147E-02 a       767     0    52     1     2
 -4.3303117092950325E+00 a       768     0    52     1     3
  3.1490353178356406E-01 a       769     0    52     1     4
  1.8441221647567794E+00 a       770     0    52     1     5
 -1.0589253080114240E+01 a       771     0    52     1     6
  5.5553724790578736E+00 a       772     0    52     1     7
 -1.4751293467751616E+00 a       773     0    52     1     8
  1.8655699288017498E+00 a       774     0    52     1     9
  3.6143945535306976E+00 a       775     0    52     1    10
  3.7292570101768230E-01 a       776     0    52     1    11
 -2.3291588282079997E-01 a       777     0    52     1    12
  4.3297829045427720E+00 a       778     0    52     1    13
  1.4173369329075136E+00 a       779     0    52     1    14
  1.3139804238832431E+00 a       780     0    52     1    15
 -1.3537926165186291E+00 a       781     0    53     1     1
 -2.5663179589547969E-01 a       782     0    53     1     2
 -9.8722290811910629E-01 a       783     0    53     1     3
  3.8232814332014770E-01 a       784     0    53     1     4
 -2.1986658019589944E-01 a       785     0    53     1     5
 -1.1554722050325874E+00 a       786     0    53     1     6
  2.2058047692488700E+00 a       787     0    53     1     7
  2.0413229811546980E+00 a       788     0    53     1     8
 -1.3134395396057446E+00 a       789     0    53     1     9
  1.2839771771881532E+00 a       790     0    53     1    10
 -1.7832861595795221E-01 a       791     0    53     1    11
 -4.4462431356993948E-01 a       792     0    53     1    12
 -2.3737414382303981E-01 a       793     0    53     1    13
 -3.5847597792033108E+00 a       794     0    53     1    14
 -1.6721726649913393E+00 a       795     0    53     1    15
 -4.7168746551034442E+00 a       796     0    54     1     1
  4.9934076267527283E+00 a       797     0    54     1     2
 -8.0326735893861634E-01 a       798     0    54     1     3
  2.7997546526092130E+00 a       799     0    54     1     4
 -1.7194062363412588E+01 a       800     0    54     1     5
  1.2826695317937795E+00 a       801     0    54     1     6
  2.3276138425637449E+00 a       802     0    54     1     7
 -8.4081524169790161E+00 a       803     0    54     1     8
 -1.5277768777572225E+00 a       804     0    54     1     9
 -1.6498910744681738E+00 a       805     0    54     1    10
  5.3049033706297832E+00 a       806     0    54     1    11
 -6.0408868659472397E+00 a       807     0    54     1    12
 -6.8799212920468900E-01 a       808     0    54     1    13
  7.1421897350304899E+00 a       809     0    54     1    14
  2.5613110090548261E+00 a       810     0    54     1    15
  9.1474496519097528E+00 a       811     0    55     1     1
 -6.8950365114345091E+00 a       812     0    55     1     2
  4.8321116606445624E+00 a       813     0    55     1     3
  1.3905719507990895E+00 a       814     0    55     1     4
 -9.3654221506897894E-01 a       815     0    55     1     5
 -1.1740332384794765E+00 a       816     0    55     1     6
  8.7558782262073080E+00 a       817     0    55     1     7
  2.9801727029164899E+00 a       818     0    55     1     8
 -1.4533395233004553E+00 a       819     0    55     1     9
  4.8223202432743388E+00 a       820     0    55     1    10
  1.6533855458214763E+00 a       821     0    55     1    11
 -3.1157528820877132E+00 a       822     0    55     1    12
  1.5014357968204262E+00 a       823     0    55     1    13
 -1.1516338840653388E+01 a       824     0    55     1    14
 -9.4398779802516342E-01 a       825     0    55     1    15
 -9.1282173136153286E+00 a       826     0    56     1     1
 -5.6598409205175502E+00 a       827     0    56     1     2
  2.1381594132144500E+01 a       828     0    56     1     3
  1.5447438127850268E+00 a       829     0    56     1     4
 -9.6133906692997968E+00 a       830     0    56     1     5
  2.5320498215718632E+00 a       831     0    56     1     6
 -1.2014973138903546E+01 a       832     0    56     1     7
 -1.3678533948128935E+00 a       833     0    56     1     8
  7.2637544321543839E+00 a       834     0    56     1     9
  1.8544110256127952E+00 a       835     0    56     1    10
  1.9164431658750260E+01 a       836     0    56     1    11
  5.4384467727309771E-01 a       837     0    56     1    12
  6.0888683088181557E+00 a       838     0    56     1    13
 -5.1156700975096907E+00 a       839     0    56     1    14
  7.0300671225772993E+00 a       840     0    56     1    15
 -1.1149550196025582E+00 a       841     0    57     1     1
  3.8855813603853342E+00 a       842     0    57     1     2
 -4.9070675649805695E-01 a       843     0    57     1     3
  1.0353936652008160E-01 a       844     0    57     1     4
 -6.1723109117290749E+00 a       845     0    57     1     5
  1.1961884621610842E+01 a       846     0    57     1     6
 -1.2329822919658262E+01 a       847     0    57     1     7
 -1.4834568702297029E+00 a       848     0    57     1     8
  1.4671639838743737E+00 a       849     0    57     1     9
 -3.8008017549567463E+00 a       850     0    57     1    10
  9.6073291824920020E+00 a       851     0    57     1    11
 -7.1123531502446191E+00 a       852     0    57     1    12
 -3.4957765148257800E+00 a       853     0    57     1    13
  3.9017985753787112E+00 a       854     0    57     1    14
 -5.1683694231522403E-01 a       855     0    57     1    15
  3.4618397959070295E+00 a       856     0    58     1     1
  4.7473299601063479E+00 a       857     0    58     1     2
 -5.8966712865010251E+00 a       858     0    58     1     3
  3.3047854967783579E+00 a       859     0    58     1     4
 -2.9177799679228889E+00 a       860     0    58     1     5
 -1.0378845000114520E+01 a       861     0    58     1     6
  3.0834930648147258E+00 a       862     0    58     1     7
 -1.0560378652558882E+01 a       863     0    58     1     8
  3.3430857346008640E+00 a       864     0    58     1     9
 -1.5062906129110536E+00 a       865     0    58     1    10
 -1.3421377226443196E+00 a       866     0    58     1    11
 -8.1646768047147074E+00 a       867     0    58     1    12
 -3.9531279153174742E-01 a       868     0    58     1    13
 -2.4465555897401110E+00 a       869     0    58     1    14
 -4.0061249717522438E+00 a       870     0    58     1    15
  3.3813152307543901E+00 a       871     0    59     1     1
  2.0226912794885585E+00 a       872     0    59     1     2
 -1.5973417005002583E+01 a       873     0    59     1     3
 -6.1092991997254875E-01 a       874     0    59     1     4
 -3.7076074592257715E+00 a       875     0    59     1     5
 -7.4166259625911408E+00 a       876     0    59     1     6
  9.8748983080618284E+00 a       877     0    59     1     7
  1.2528073812663918E+00 a       878     0    59     1     8
 -6.3735784922765792E-01 a       879     0    59     1     9
  1.5511680113676973E+00 a       880     0    59     1    10
  1.1901003566035746E+00 a       881     0    59     1    11
 -4.1038993383492857E+00 a       882     0    59     1    12
  6.3965485141222169E+00 a       883     0    59     1    13
  1.2936367748523102E+01 a       884     0    59     1    14
 -4.4671133518815145E-02 a       885     0    59     1    15
  5.2090395080929204E+00 a       886     0    60     1     1
 -8.4621167800886301E+00 a       887     0    60     1     2
  7.4096057352776903E+00 a       888     0    60     1     3
  2.0116117816723587E+00 a       889     0    60     1     4
 -8.3221763039368639E+00 a       890     0    60     1     5
 -1.0436630681124425E+01 a       891     0    60     1     6
 -6.4946733614563801E-01 a       892     0    60     1     7
 -2.5723510659354427E+00 a       893     0    60     1     8
  5.6731454567761368E+00 a       894     0    60     1     9
  6.1231606561901764E-01 a       895     0    60     1    10
  8.7040709964136287E+00 a       896     0    60     1    11
 -2.3754775477902851E-01 a       897     0    60     1    12
 -3.0393746365187152E-01 a       898     0    60     1    13
 -5.0435849398655064E+00 a       899     0    60     1    14
  2.4027696694491310E+00 a       900     0    60     1    15
  2.5367614578354430E-01 a       901     0    61     1     1
 -1.2493211142548315E+01 a       902     0    61     1     2
  7.0297668744600825E+00 a       903     0    61     1     3
 -3.4952973263882932E+00 a       904     0    61     1     4
 -7.2186238910696883E+00 a       905     0    61     1     5
  1.1887340930026422E+00 a       906     0    61     1     6
  1.4072071675385631E+01 a       907     0    61     1     7
  1.1373340482774557E+01 a       908     0    61     1     8
  1.1031509417081425E+01 a       909     0    61     1     9
  1.2437797835574044E+01 a       910     0    61     1    10
 -1.2822604433014642E+00 a       911     0    61     1    11
 -3.6052221521014562E+00 a       912     0    61     1    12
 -4.3913635536818332E-02 a       913     0    61     1    13
  8.7831102391663798E+00 a       914     0    61     1    14
  9.0871384970856983E+00 a       915     0    61     1    15
  8.2901653537079201E-01 a       916     0    62     1     1
 -1.8996956765828110E+00 a       917     0    62     1     2
 -6.3199878437532959E+00 a       918     0    62     1     3
 -2.0282784633766910E+00 a       919     0    62     1     4
 -3.7076896391907375E+00 a       920     0    62     1     5
 -2.4065468206772276E+00 a       921     0    62     1     6
 -7.6148429920248244E+00 a       922     0    62     1     7
 -6.6881813186403614E+00 a       923     0    62     1     8
  4.3490228581557061E-01 a       924     0    62     1     9
 -3.2101215189884971E+00 a       925     0    62     1    10
  1.1089349635846142E+00 a       926     0    62     1    11
  2.3063416011699656E+00 a       927     0    62     1    12
  5.9115451678010844E-01 a       928     0    62     1    13
  6.3039558955887012E+00 a       929     0    62     1    14
 -3.1383185165681338E-01 a       930     0    62     1    15
 -7.2757556038217146E+00 a       931     0    63     1     1
 -2.6306094820270558E+00 a       932     0    63     1     2
 -5.4919249518735169E+00 a       933     0    63     1     3
  1.0013924503876320E-01 a       934     0    63     1     4
  2.3389816254825951E-01 a       935     0    63     1     5
 -3.6884595832808094E+00 a       936     0    63     1     6
  2.3965129800252365E+00 a       937     0    63     1     7
 -3.0635554167924166E+00 a       938     0    63     1     8
 -1.2737427390584317E+00 a       939     0    63     1     9
  1.6119445998346631E+00 a       940     0    63     1    10
 -4.5444706410719083E-03 a       941     0    63     1    11
  1.2000036214285695E-01 a       942     0    63     1    12
 -3.3601066604311827E+00 a       943     0    63     1    13
 -4.3316455182025875E+00 a       944     0    63     1    14
  6.6969687390312416E-01 a       945     0    63     1    15
  4.7412011387354953E+00 a       946     0    64     1     1
  4.5927713757195326E-01 a       947     0    64     1     2
  3.6140637462395984E+00 a       948     0    64     1     3
 -4.9668590706922794E-01 a       949     0    64     1     4
 -2.6551032961395320E+00 a       950     0    64     1     5
  1.0416768362275850E+01 a       951     0    64     1     6
 -6.2677757515464032E+00 a       952     0    64     1     7
  9.9705470486364134E-01 a       953     0    64     1     8
 -1.3264642322011220E+00 a       954     0    64     1     9
 -3.7024242617819993E+00 a       955     0    64     1    10
 -3.4373605169793281E-01 a       956     0    64     1    11
  1.4823400251660579E-01 a       957     0    64     1    12
 -3.7260619490184612E+00 a       958     0    64     1    13
 -9.8967447955125398E-01 a       959     0    64     1    14
 -1.1020753659001086E+00 a       960     0    64     1    15
 -1.8531965084454030E+00 a       961     0    65     1     1
  8.0199246292557957E-01 a       962     0    65     1     2
  1.9901012843470464E-01 a       963     0    65     1     3
 -3.2086255829269750E-01 a       964     0    65     1     4
 -9.8611585578947725E-01 a       965     0    65     1     5
 -7.7822554011481881E-01 a       966     0    65     1     6
 -2.8204434108559782E+00 a       967     0    65     1     7
 -3.0610242048484588E+00 a       968     0    65     1     8
  4.1634267406922137E-01 a       969     0    65     1     9
 -1.1234872034781009E+00 a       970     0    65     1    10
 -2.4812558415304001E-01 a       971     0    65     1    11
 -1.9374058155430249E-01 a       972     0    65     1    12
  1.9669636810600968E+00 a       973     0    65     1    13
  4.7914467770602025E+00 a       974     0    65     1    14
  2.1168673547281385E+00 a       975     0    65     1    15
  1.0685939245701432E+00 a       976     0    66     1     1
 -5.8237640284569663E+00 a       977     0    66     1     2
 -2.9799306108846819E+00 a       978     0    66     1     3
 -2.6049362444502422E+00 a       979     0    66     1     4
  1.6994783079114114E+01 a       980     0    66     1     5
 -2.2122177966114354E+00 a       981     0    66     1     6
 -5.4900941236367440E-01 a       982     0    66     1     7
  6.4272813564918136E+00 a       983     0    66     1     8
 -2.3330778455548611E+00 a       984     0    66     1     9
  1.4568742080457926E+00 a       985     0    66     1    10
 -6.6989236637004961E+00 a       986     0    66     1    11
  5.7438106745914084E+00 a       987     0    66     1    12
 -1.9293172006413104E+00 a       988     0    66     1    13
 -5.8046290666839795E+00 a       989     0    66     1    14
 -1.8905520466004841E+00 a       990     0    66     1    15
 -5.2213564210454253E+00 a       991     0    67     1     1
  7.6261908553818367E+00 a       992     0    67     1     2
 -3.4422744879045721E+00 a       993     0    67     1     3
 -1.0578779348334797E+00 a       994     0    67     1     4
  4.4505956211450243E-01 a       995     0    67     1     5
  5.0611919865136619E+00 a       996     0    67     1     6
 -9.2699149663556728E+00 a       997     0    67     1     7
 -2.5727258424529991E+00 a       998     0    67     1     8
 -1.1938214187963937E-01 a       999     0    67     1     9
 -4.8475878288355938E+00 a      1000     0    67     1    10
 -2.7225432386671273E+00 a      1001     0    67     1    11
  3.2488096998665181E+00 a      1002     0    67     1    12
 -5.7403894898859402E+00 a      1003     0    67     1    13
  1.0899566722466519E+01 a      1004     0    67     1    14
  1.2285397352459431E+00 a      1005     0    67     1    15
  5.5226991116129298E+00 a      1006     0    68     1     1
  3.2673504552203947E+00 a      1007     0    68     1     2
 -2.6035719460632873E+00 a      1008     0    68     1     3
  1.0956976749512368E+00 a      1009     0    68     1     4
  5.0873455822137945E+00 a      1010     0    68     1     5
  7.4847557482810574E+00 a      1011     0    68     1     6
  7.1607904628074426E+00 a      1012     0    68     1     7
  4.8501577278705854E+00 a      1013     0    68     1     8
 -5.3844260379254805E-01 a      1014     0    68     1     9
  1.0903831450705070E-01 a      1015     0    68     1    10
 -1.5125974644907223E+00 a      1016     0    68     1    11
 -1.6253992468708993E+00 a      1017     0    68     1    12
 -7.1217247690017826E-01 a      1018     0    68     1    13
 -2.9339196112667070E+00 a      1019     0    68     1    14
 -3.1851072934484894E+00 a      1020     0    68     1    15
  6.7752690141012515E+00 a      1021     0    69     1     1
  1.0523148300316310E+00 a      1022     0    69     1     2
  4.7264465425112832E+00 a      1023     0    69     1     3
 -5.5241071275832040E-02 a      1024     0    69     1     4
  1.9547298611902735E+00 a      1025     0    69     1     5
 -1.7987754887128589E+00 a      1026     0    69     1     6
  3.9842632271263820E+00 a      1027     0    69     1     7
  5.6168154824048644E+00 a      1028     0    69     1     8
  3.4526650724447987E+00 a      1029     0    69     1     9
  1.8589019622263836E-01 a      1030     0    69     1    10
 -3.1541686925169493E-01 a      1031     0    69     1    11
  2.4350593042700526E+00 a      1032     0    69     1    12
  2.2123792036730654E+00 a      1033     0    69     1    13
  2.0747425287151522E+00 a      1034     0    69     1    14
 -1.3624972779349792E-01 a      1035     0    69     1    15
 -5.2828369674267250E+00 a      1036     0    70     1     1
 -1.6944482339172422E+00 a      1037     0    70     1     2
  7.8058833994319521E-01 a      1038     0    70     1     3
 -5.0783032983209231E-01 a      1039     0    70     1     4
  1.2404971966436193E+00 a      1040     0    70     1     5
 -6.9723512746586982E+00 a      1041     0    70     1     6
  2.2244196713880382E+00 a      1042     0    70     1     7
  3.8963122095856990E+00 a      1043     0    70     1     8
  2.5586587227748279E-02 a      1044     0    70     1     9
  2.3694866381118151E+00 a      1045     0    70     1    10
  3.7012726756232694E-01 a      1046     0    70     1    11
  9.5532924782656692E-01 a      1047     0    70     1    12
  1.6173682181948301E+00 a      1048     0    70     1    13
  4.4539261396206342E-01 a      1049     0    70     1    14
  1.0866989872930695E+00 a      1050     0    70     1    15
  5.1338103717995569E+00 a      1051     0    71     1     1
  2.0655202908144657E-01 a      1052     0    71     1     2
 -6.8071881950603952E-01 a      1053     0    71     1     3
 -1.0832601171429879E+00 a      1054     0    71     1     4
  2.7994246434890599E+00 a      1055     0    71     1     5
 -1.7611618806522520E+00 a      1056     0    71     1     6
 -3.2932928729547859E+00 a      1057     0    71     1     7
 -1.2327358875473093E+00 a      1058     0    71     1     8
  3.0048515478638760E+00 a      1059     0    71     1     9
 -2.7212098586489435E+00 a      1060     0    71     1    10
 -3.1598178721835052E-01 a      1061     0    71     1    11
  2.3397629318611086E+00 a      1062     0    71     1    12
 -2.2545272316346638E+00 a      1063     0    71     1    13
 -3.5019314493588700E+00 a      1064     0    71     1    14
 -6.1629471513155054E-01 a      1065     0    71     1    15
  7.4323340991082718E-02 a      1066     0    72     1     1
  2.0375740916459697E+00 a      1067     0    72     1     2
  1.8059918666729895E+00 a      1068     0    72     1     3
  9.5190893293076824E-04 a      1069     0    72     1     4
  9.8194569955851332E+00 a      1070     0    72     1     5
 -4.3560100476915951E+00 a      1071     0    72     1     6
  4.4320046278611152E+00 a      1072     0    72     1     7
  1.6744940473368368E+00 a      1073     0    72     1     8
  4.5048350820242861E-01 a      1074     0    72     1     9
  8.8330277103103438E-01 a      1075     0    72     1    10
 -3.0254470352470171E+00 a      1076     0    72     1    11
  6.3290384853960928E+00 a      1077     0    72     1    12
 -1.5710101897203583E+00 a      1078     0    72     1    13
 -5.2477460312327375E+00 a      1079     0    72     1    14
 -3.0370289544728152E-01 a      1080     0    72     1    15
 -3.8243694407498414E+00 a      1081     0    73     1     1
  4.5045156925017062E+00 a      1082     0    73     1     2
 -1.8283327986572184E+00 a      1083     0    73     1     3
 -3.1165714371419762E-01 a      1084     0    73     1     4
 -1.9464151401065339E+00 a      1085     0    73     1     5
  1.8693142957900337E+00 a      1086     0    73     1     6
 -4.9357691137440458E+00 a      1087     0    73     1     7
  2.6305426954894151E+00 a      1088     0    73     1     8
  9.9590374366740531E-01 a      1089     0    73     1     9
 -3.1250520561832245E+00 a      1090     0    73     1    10
 -1.2547873401886107E+00 a      1091     0    73     1    11
  3.9461159613515012E-01 a      1092     0    73     1    12
 -4.1103262707270805E+00 a      1093     0    73     1    13
 -1.9064231321595140E+00 a      1094     0    73     1    14
 -7.9002872005695912E-01 a      1095     0    73     1    15
 -1.6765101918505301E+00 a      1096     0    74     1     1
  8.4665142589121989E-01 a      1097     0    74     1     2
  7.4017805093452382E-01 a      1098     0    74     1     3
  5.4279782577046076E-01 a      1099     0    74     1     4
  5.3212547207057681E-01 a      1100     0    74     1     5
 -8.4432108166697684E-01 a      1101     0    74     1     6
  1.8903396491285374E+00 a      1102     0    74     1     7
  2.2382677651107539E+00 a      1103     0    74     1     8
  1.3839565280172317E-02 a      1104     0    74     1     9
  1.3780913588202737E+00 a      1105     0    74     1    10
 -1.2538779191700442E+00 a      1106     0    74     1    11
 -1.2830604995926245E+00 a      1107     0    74     1    12
 -7.0784781011720949E-02 a      1108     0    74     1    13
 -1.5762257232463188E+00 a      1109     0    74     1    14
  4.6661125280835969E-01 a      1110     0    74     1    15
  1.3899554791528013E+00 a      1111     0    75     1     1
 -1.2129217950847631E+00 a      1112     0    75     1     2
  1.4285395984254717E-01 a      1113     0    75     1     3
  8.0480037829112838E-02 a      1114     0    75     1     4
 -6.0300788223268347E+00 a      1115     0    75     1     5
  2.0604546739272336E+00 a      1116     0    75     1     6
 -1.2749672768542908E+00 a      1117     0    75     1     7
 -1.9458409383665938E+00 a      1118     0    75     1     8
 -6.5212498511386233E-02 a      1119     0    75     1     9
 -4.4151938655596429E-01 a      1120     0    75     1    10
  3.3980793466010728E+00 a      1121     0    75     1    11
 -1.4297050982899211E+00 a      1122     0    75     1    12
  2.3929761558882241E+00 a      1123     0    75     1    13
 -8.7572694193284961E-01 a      1124     0    75     1    14
  2.6528718327340922E-01 a      1125     0    75     1    15
  1.1546305117127820E+00 a      1126     0    76     1     1
 -1.7814663472846475E+00 a      1127     0    76     1     2
  1.2610910995263789E+00 a      1128     0    76     1     3
  3.4496369877783395E-01 a      1129     0    76     1     4
 -6.8685602462075956E-01 a      1130     0    76     1     5
 -6.9574225379720422E-01 a      1131     0    76     1     6
 -2.6292589505679014E+00 a      1132     0    76     1     7
 -1.1056486554393055E+00 a      1133     0    76     1     8
 -2.5062312210606197E+00 a      1134     0    76     1     9
 -7.6902019031712265E-01 a      1135     0    76     1    10
  1.9762094698652677E-01 a      1136     0    76     1    11
  6.2166399487409096E-01 a      1137     0    76     1    12
 -7.9078516411830557E-01 a      1138     0    76     1    13
 -1.0081632963628717E+00 a      1139     0    76     1    14
 -7.0132810506897003E-01 a      1140     0    76     1    15
  6.6733041605714594E-01 b      1141     1     1
 -6.5504681803041431E-01 b      1142     1     2
 -2.7692400699400116E-01 b      1143     1     3
  3.1929635579224486E-01 b      1144     1     4
 -2.9335050797889051E-01 b      1145     1     5
 -8.3390292032012558E-01 b      1146     1     6
  6.1507647749127592E-01 b      1147     1     7
  2.7708632541094874E-01 b      1148     1     8
  5.9452312153523301E-01 b      1149     1     9
 -6.7767856687831485E-01 b      1150     1    10
  5.6848888339507146E+00 b      1151     1    11
  3.2820292957644265E-01 b      1152     1    12
  3.5678905676668893E-01 b      1153     1    13
  1.6668803293513007E-01 b      1154     1    14
 -1.7165792339884804E+00 b      1155     1    15
 -8.5303717221779554E-02 a      1156     1     1     2     1
  5.7143411343217536E-02 a      1157     1     1     2     2
 -1.2943841616701021E-01 a      1158     1     1     2     3
  2.5699891222182797E-01 a      1159     1     1     2     4
  4.7278287664519955E-02 a      1160     1     1     2     5
  2.2949129944648222E-01 a      1161     1     1     2     6
  2.9139269802177353E-01 a      1162     1     1     2     7
  1.1185792455467715E-01 a      1163     1     1     2     8
 -8.0937692753940182E-01 a      1164     1     1     2     9
 -7.1778740124681190E-02 a      1165     1     1     2    10
  1.6999035646097016E-01 a      1166     1     1     2    11
 -2.9374364458195573E-01 a      1167     1     1     2    12
 -1.5747260745993596E-02 a      1168     1     1     2    13
  2.9008332588165481E-01 a      1169     1     1     2    14
 -1.8022855535653634E-01 a      1170     1     1     2    15
 -1.1512238101589822E+00 a      1171     1     2     2     1
 -2.1556077888128120E-01 a      1172     1     2     2     2
  4.0269583447445645E-01 a      1173     1     2     2     3
 -1.1780014139317998E+00 a      1174     1     2     2     4
  2.6027105988664662E-01 a      1175     1     2     2     5
 -3.5672337442136898E-01 a      1176     1     2     2     6
 -3.0097177052370236E+00 a      1177     1     2     2     7
  6.6466493485442590E-01 a      1178     1     2     2     8
  6.3396730884706776E-01 a      1179     1     2     2     9
 -6.1858706304835698E-02 a      1180     1     2     2    10
 -3.9970269448614920E-01 a      1181     1     2     2    11
 -2.6603696404375199E-01 a      1182     1     2     2    12
 -6.5118770423139847E-04 a      1183     1     2     2    13
 -9.9175872123266784E-02 a      1184     1     2     2    14
  9.5571839141227377E-01 a      1185     1     2     2    15
  2.1562045377213322E-02 a      1186     1     3     2     1
  1.8416517606283925E-01 a      1187     1     3     2     2
 -1.8937636048601458E-01 a      1188     1     3     2     3
  8.7043653526499631E-01 a      1189     1     3     2     4
 -3.8620556466022293E-01 a      1190     1     3     2     5
  5.5977145778762977E-02 a      1191     1     3     2     6
 -1.2022880200500436E+00 a      1192     1     3     2     7
  8.7215751729940838E-02 a      1193     1     3     2     8
 -3.0584442562181885E-01 a      1194     1     3     2     9
 -2.5162448289574590E-01 a      1195     1     3     2    10
 -4.2457309896694906E-01 a      1196     1     3     2    11
 -4.5239720163167707E-01 a      1197     1     3     2    12
  7.4363980036555553E-03 a      1198     1     3     2    13
  3.3617893518871877E-01 a      1199     1     3     2    14
  1.2847123310595328E+00 a      1200     1     3     2    15
 -4.9983160184509788E-02 a      1201     1     4     2     1
  1.0951756753389570E+00 a      1202     1     4     2     2
  3.4586664344453599E-01 a      1203     1     4     2     3
  1.2628070915196330E+00 a      1204     1     4     2     4
  8.8421241799461103E-01 a      1205     1     4     2     5
  6.7907370918552967E-01 a      1206     1     4     2     6
 -5.7207914444344321E-01 a      1207     1     4     2     7
 -3.2354655341154920E-02 a      1208     1     4     2     8
 -1.1205056344670814E+00 a      1209     1     4     2     9
 -3.4195796120715910E-01 a      1210     1     4     2    10
 -3.9356259967803375E-01 a      1211     1     4     2    11
 -3.2553412675736026E-02 a      1212     1     4     2    12
 -3.4126130970035162E-01 a      1213     1     4     2    13
 -8.7337684134744997E-01 a      1214     1     4     2    14
 -1.2560946564896773E+00 a      1215     1     4     2    15
 -1.1843487907773296E-02 a      1216     1     5     2     1
  4.2625080014079018E-02 a      1217     1     5     2     2
  9.6633403099969950E-01 a      1218     1     5     2     3
  6.2384580422535429E-01 a      1219     1     5     2     4
 -2.9237798721709191E-01 a      1220     1     5     2     5
 -3.1409156804193822E-01 a      1221     1     5     2     6
 -1.1282961398160872E-01 a      1222     1     5     2     7
  1.1916708175493464E-01 a      1223     1     5     2     8
 -1.5580896109411733E+00 a      1224     1     5     2     9
 -1.8911118400915716E-01 a      1225     1     5     2    10
 -2.5981420924502846E-01 a      1226     1     5     2    11
 -4.1319590638023640E-01 a      1227     1     5     2    12
  1.8490724039279243E-02 a      1228     1     5     2    13
  3.0151283574804920E-02 a      1229     1     5     2    14
  6.2045204982454083E-01 a      1230     1     5     2    15
  4.2736183648785153E-03 a      1231     1     6     2     1
 -4.8550246848180857E-02 a      1232     1     6     2     2
 -1.7170974581130936E+00 a      1233     1     6     2     3
 -3.8312671031379547E-01 a      1234     1     6     2     4
  1.8225024640703258E-01 a      1235     1     6     2     5
 -2.1918808554225697E-01 a      1236     1     6     2     6
 -3.4020944663030855E-01 a      1237     1     6     2     7
 -2.1939227751577479E-02 a      1238     1     6     2     8
 -9.4195847800326263E-02 a      1239     1     6     2     9
 -4.2027816941138552E-02 a      1240     1     6     2    10
  1.5600544956741805E-01 a      1241     1     6     2    11
 -4.3112077172499702E-01 a      1242     1     6     2    12
  8.2397043750255569E-02 a      1243     1     6     2    13
  3.5979895308947213E-01 a      1244     1     6     2    14
 -3.6383765734940154E-01 a      1245     1     6     2    15
  6.3360971284591161E-01 a      1246     1     7     2     1
 -9.2025630674226117E-02 a      1247     1     7     2     2
  1.7612767647879463E-01 a      1248     1     7     2     3
 -1.3176371390512152E+00 a      1249     1     7     2     4
 -1.2641799037095072E-01 a      1250     1     7     2     5
 -1.6073747779550157E-01 a      1251     1     7     2     6
  1.5380024688380375E-01 a      1252     1     7     2     7
 -1.1099179691467932E-01 a      1253     1     7     2     8
 -3.1035049655659092E-01 a      1254     1     7     2     9
  8.6623160924940004E-02 a      1255     1     7     2    10
  3.7305147532984051E-01 a      1256     1     7     2    11
 -1.6626050593647279E+00 a      1257     1     7     2    12
 -3.6413114922412372E-02 a      1258     1     7     2    13
  4.1939383359029936E-01 a      1259     1     7     2    14
  5.5868849190938485E-01 a      1260     1     7     2    15
 -9.6670576332538938E-01 a      1261     1     8     2     1
 -1.2283835472281095E-01 a      1262     1     8     2     2
 -1.0948601726003631E+00 a      1263     1     8     2     3
 -4.6973433489019489E-01 a      1264     1     8     2     4
  1.0454405292620307E-01 a      1265     1     8     2     5
  3.4810327387674372E-01 a      1266     1     8     2     6
  1.3765212590784653E-01 a      1267     1     8     2     7
  4.0261771111952428E-02 a      1268     1     8     2     8
 -7.3430757708292682E-01 a      1269     1     8     2     9
 -2.9892101407252081E-01 a      1270     1     8     2    10
  5.6297716728102931E-01 a      1271     1     8     2    11
 -9.0290721250318307E-01 a      1272     1     8     2    12
  1.7911516917998049E-01 a      1273     1     8     2    13
  1.3397550270352387E-01 a      1274     1     8     2    14
  3.2983163907377316E-01 a      1275     1     8     2    15
  4.7533516143466370E-01 a      1276     1     9     2     1
  9.0738895118959037E-02 a      1277     1     9     2     2
  3.2706813011368553E-02 a      1278     1     9     2     3
 -1.7168066966844020E+00 a      1279     1     9     2     4
 -6.1577155596252131E-01 a      1280     1     9     2     5
  2.7650003956194810E-02 a      1281     1     9     2     6
  3.4679851234020365E-01 a      1282     1     9     2     7
 -1.0761392661168358E-02 a      1283     1     9     2     8
  1.4105034707343220E-01 a      1284     1     9     2     9
  6.5333544777694888E-02 a      1285     1     9     2    10
 -9.8647558809217106E-02 a      1286     1     9     2    11
 -4.7354422991140388E-01 a      1287     1     9     2    12
  1.0522996977985052E-03 a      1288     1     9     2    13
 -2.1221906229203288E-01 a      1289     1     9     2    14
 -7.2986688997362026E-01 a      1290     1     9     2    15
 -1.1019468000284463E-01 a      1291     1    10     2     1
  7.0334766905683022E-01 a      1292     1    10     2     2
  5.3049679439862674E-01 a      1293     1    10     2     3
  5.6191442861048280E-01 a      1294     1    10     2     4
  3.5499936503182694E-01 a      1295     1    10     2     5
  3.3177060466840735E-01 a      1296     1    10     2     6
 -3.6086171594277872E-01 a      1297     1    10     2     7
 -3.4316303507024432E-01 a      1298     1    10     2     8
 -4.3668730842475995E-02 a      1299     1    10     2     9
 -2.2238731099736192E-01 a      1300     1    10     2    10
 -2.2568772685681990E-01 a      1301     1    10     2    11
 -6.2907038867849840E-01 a      1302     1    10     2    12
 -2.9942399413893173E-01 a      1303     1    10     2    13
 -1.0335854627000016E+00 a      1304     1    10     2    14
 -3.8804412418993441E-02 a      1305     1    10     2    15
 -1.1456946387862267E-01 a      1306     1    11     2     1
  3.4247890240615524E-02 a      1307     1    11     2     2
 -9.0420388073783969E-02 a      1308     1    11     2     3
 -2.2766882690517171E-01 a      1309     1    11     2     4
 -1.8811301659460239E-01 a      1310     1    11     2     5
 -6.3035385398640442E-01 a      1311     1    11     2     6
  1.3948332539390992E-01 a      1312     1    11     2     7
  1.2200607405779924E-01 a      1313     1    11     2     8
 -1.4957359295527590E+00 a      1314     1    11     2     9
  3.0948587406817712E-01 a      1315     1    11     2    10
 -1.8579130576283776E-01 a      1316     1    11     2    11
 -5.9078392679148362E-01 a      1317     1    11     2    12
  1.7524218555467377E-01 a      1318     1    11     2    13
 -9.9969905871487097E-01 a      1319     1    11     2    14
  1.9378568562645091E+00 a      1320     1    11     2    15
 -1.7200321650382262E+00 a      1321     1    12     2     1
 -8.9142099529358493E-03 a      1322     1    12     2     2
 -2.0393041146752039E-01 a      1323     1    12     2     3
 -6.9000835297876773E-01 a      1324     1    12     2     4
  1.0428725566696373E+00 a      1325     1    12     2     5
 -1.6848519577676932E-01 a      1326     1    12     2     6
 -1.5743042826299619E-01 a      1327     1    12     2     7
 -1.4376412710932862E-01 a      1328     1    12     2     8
  2.9805064945746379E-01 a      1329     1    12     2     9
 -1.0196859653920623E-02 a      1330     1    12     2    10
 -3.4285288697311561E-03 a      1331     1    12     2    11
  2.3575486239672205E-01 a      1332     1    12     2    12
  1.8597867776101362E-01 a      1333     1    12     2    13
 -1.7219482934054575E+00 a      1334     1    12     2    14
 -1.1104723422097662E+00 a      1335     1    12     2    15
 -1.2078541530541429E+00 a      1336     1    13     2     1
  8.1219701890282145E-02 a      1337     1    13     2     2
 -2.9435260381395117E-01 a      1338     1    13     2     3
 -2.0676934860465623E+00 a      1339     1    13     2     4
  9.6402057805122454E-02 a      1340     1    13     2     5
  1.3378384635207846E-01 a      1341     1    13     2     6
 -1.2788863264881636E-01 a      1342     1    13     2     7
  3.6552790066743106E-02 a      1343     1    13     2     8
 -1.0846542368238193E-01 a      1344     1    13     2     9
 -7.5384805277046135E-02 a      1345     1    13     2    10
 -3.2164176205679340E-01 a      1346     1    13     2    11
  1.1065068685359858E+00 a      1347     1    13     2    12
 -9.7160827736155891E-02 a      1348     1    13     2    13
  1.1079500851250927E+00 a      1349     1    13     2    14
 -1.6615149252029643E-01 a      1350     1    13     2    15
 -3.5291388742972724E-01 a      1351     1    14     2     1
  1.5397460931823087E-02 a      1352     1    14     2     2
  1.3325653569991763E-01 a      1353     1    14     2     3
 -1.4615950146667103E+00 a      1354     1    14     2     4
  2.9375796441618470E-02 a      1355     1    14     2     5
 -1.8147399352175473E+00 a      1356     1    14     2     6
 -3.2420690497474919E-01 a      1357     1    14     2     7
 -2.9027675775289713E-01 a      1358     1    14     2     8
  7.7784883975161379E-01 a      1359     1    14     2     9
 -3.0059365429927770E-01 a      1360     1    14     2    10
  2.6626115085782709E-01 a      1361     1    14     2    11
 -6.6174223565204776E-02 a      1362     1    14     2    12
 -1.0576862654606288E-01 a      1363     1    14     2    13
 -5.0213547438835848E-01 a      1364     1    14     2    14
  5.1562012879626906E-01 a      1365     1    14     2    15
 -2.3076410227737765E+00 a      1366     1    15     2     1
 -8.8071470660702936E-02 a      1367     1    15     2     2
 -6.7774341197031729E-01 a      1368     1    15     2     3
 -7.7274605882685488E-01 a      1369     1    15     2     4
  2.2372057054501190E-01 a      1370     1    15     2     5
 -9.6861151148145419E-02 a      1371     1    15     2     6
 -4.0579598962519592E+00 a      1372     1    15     2     7
  4.1586647120832709E-01 a      1373     1    15     2     8
  1.3995058839201306E+00 a      1374     1    15     2     9
 -2.9473800623040047E-01 a      1375     1    15     2    10
  1.6532395366466761E+00 a      1376     1    15     2    11
  1.1203454280314746E+00 a      1377     1    15     2    12
  4.6100702863684118E-01 a      1378     1    15     2    13
  7.1821301928389891E-01 a      1379     1    15     2    14
  2.6392522071371038E+00 a      1380     1    15     2    15
  5.6857122291207807E-01 b      1381     2     1
 -3.4348431149226006E+00 b      1382     2     2
 -2.0086418606633285E+00 b      1383     2     3
  2.1725312238251258E+00 b      1384     2     4
 -2.3886424154196235E+00 b      1385     2     5
 -4.2236829740831677E-02 b      1386     2     6
 -1.9617438572889678E-01 b      1387     2     7
 -4.9151746671534715E+00 b      1388     2     8
  2.1269533594375374E+00 b      1389     2     9
 -1.0652281184413546E+00 b      1390     2    10
 -3.6703671102447615E+00 b      1391     2    11
 -4.6060194139627120E+00 b      1392     2    12
 -2.5178005784211619E+00 b      1393     2    13
  1.0263144248898695E-01 b      1394     2    14
 -1.1074423114563154E+00 b      1395     2    15
  1.9119252798811948E-01 a      1396     2     1     3     1
 -7.3622833620930572E-01 a      1397     2     2     3     1
  2.2971456158334369E-01 a      1398     2     3     3     1
 -7.6077755460766935E-02 a      1399     2     4     3     1
 -2.9150000514937752E-01 a      1400     2     5     3     1
 -4.4903956468121514E-01 a      1401     2     6     3     1
 -1.1145033905117251E-01 a      1402     2     7     3     1
  2.5185640924346337E+00 a      1403     2     8     3     1
 -4.0539919733959229E-01 a      1404     2     9     3     1
  3.5543795901171271E-01 a      1405     2    10     3     1
  3.4947113675155478E-01 a      1406     2    11     3     1
  7.3886097618684488E-01 a      1407     2    12     3     1
  1.0581920921962007E+00 a      1408     2    13     3     1
 -1.9649884591851044E-01 a      1409     2    14     3     1
  2.6856529380200378E-01 a      1410     2    15     3     1
 -4.0780420424690282E+00 b      1411     3     1
