################################################################################
# Neural network connection values (weights and biases).
################################################################################
# Col  Name       Description
################################################################################
# 1    connection Neural network connection value.
# 2    t          Connection type (a = weight, b = bias).
# 3    index      Index enumerating weights.
# 4    l_s        Starting point layer (end point layer for biases).
# 5    n_s        Starting point neuron in starting layer (end point neuron for biases).
# 6    l_e        End point layer.
# 7    n_e        End point neuron in end layer.
################################################################################
#                      1 2         3     4     5     6     7
#             connection t     index   l_s   n_s   l_e   n_e
############################################################
  3.0425647491439562E+00 a         1     0     1     1     1
 -5.5765022299773941E+00 a         2     0     1     1     2
 -7.7599520033078031E+00 a         3     0     1     1     3
 -9.3193455609000111E+00 a         4     0     1     1     4
  1.4184145898671526E+01 a         5     0     1     1     5
  1.0235328206463702E+01 a         6     0     1     1     6
  1.4440389677490191E+00 a         7     0     1     1     7
 -6.5925752393999986E+00 a         8     0     1     1     8
  1.9844606467606432E+00 a         9     0     1     1     9
  5.5667082620689357E+00 a        10     0     1     1    10
  6.3546248524087936E+00 a        11     0     1     1    11
 -5.3339414840009942E+00 a        12     0     1     1    12
 -2.1683604150228986E+00 a        13     0     1     1    13
 -6.0068179993627391E+00 a        14     0     1     1    14
 -1.1035541424993076E+00 a        15     0     1     1    15
  7.5574372284588236E+00 a        16     0     1     1    16
  1.4216383077974511E+01 a        17     0     1     1    17
 -8.3759360965562628E+00 a        18     0     1     1    18
 -3.1389263930525838E-02 a        19     0     1     1    19
  1.6921731078437812E+01 a        20     0     1     1    20
 -1.0347938132184500E+00 a        21     0     1     1    21
  7.7384043335632562E+00 a        22     0     1     1    22
 -3.0252876134440294E+00 a        23     0     1     1    23
 -1.3606346142967128E+01 a        24     0     1     1    24
 -9.1981649990274195E-01 a        25     0     1     1    25
  7.8572120849670557E-01 a        26     0     2     1     1
  1.1622194527125460E+01 a        27     0     2     1     2
  3.4707811116216689E+00 a        28     0     2     1     3
  2.8756682499601331E+00 a        29     0     2     1     4
 -1.2147050193115247E+01 a        30     0     2     1     5
 -2.4482640481645443E+00 a        31     0     2     1     6
  1.3277391999476478E+01 a        32     0     2     1     7
  1.7445271570870876E+01 a        33     0     2     1     8
 -4.2687073176076744E+00 a        34     0     2     1     9
  1.8818269056688490E+00 a        35     0     2     1    10
 -3.8241389930800653E+00 a        36     0     2     1    11
  1.3990937942468701E+01 a        37     0     2     1    12
  3.8449382252944524E+00 a        38     0     2     1    13
  1.5232091823681113E+00 a        39     0     2     1    14
 -2.1173728834536671E+00 a        40     0     2     1    15
 -1.6922331952040683E+00 a        41     0     2     1    16
 -4.7288055411359791E+00 a        42     0     2     1    17
  3.3996332009443795E+00 a        43     0     2     1    18
  4.2952009099598421E+00 a        44     0     2     1    19
 -2.1715990597223914E+01 a        45     0     2     1    20
  3.2789406221278738E-01 a        46     0     2     1    21
 -1.4796707730691653E+01 a        47     0     2     1    22
  1.5749760031830892E-01 a        48     0     2     1    23
  2.1690940464858318E+01 a        49     0     2     1    24
  8.5066001641788613E+00 a        50     0     2     1    25
 -6.0510204999227728E+00 a        51     0     3     1     1
  3.0491563227683458E+00 a        52     0     3     1     2
  1.4401253243236107E+01 a        53     0     3     1     3
  1.3360905068661959E+01 a        54     0     3     1     4
 -1.1700248970938226E+01 a        55     0     3     1     5
 -1.8321219185983669E+01 a        56     0     3     1     6
 -1.1993678358329138E+01 a        57     0     3     1     7
  5.8347353867842200E+00 a        58     0     3     1     8
  1.0924006483205122E+00 a        59     0     3     1     9
 -2.6022625451931254E+00 a        60     0     3     1    10
 -8.5055173840223173E+00 a        61     0     3     1    11
  7.1042910405990680E+00 a        62     0     3     1    12
  4.5805558852927373E+00 a        63     0     3     1    13
  1.1235342786461771E+01 a        64     0     3     1    14
  2.3787374861726689E+00 a        65     0     3     1    15
 -1.9036743897824457E+00 a        66     0     3     1    16
 -1.4737873008166442E+01 a        67     0     3     1    17
  1.0387374251831353E+01 a        68     0     3     1    18
  4.3548345648598188E+00 a        69     0     3     1    19
 -2.3167380735336927E+01 a        70     0     3     1    20
  8.4887730394293239E+00 a        71     0     3     1    21
 -6.8030353332097455E+00 a        72     0     3     1    22
  3.5288747006724286E+00 a        73     0     3     1    23
  1.3289007186710315E+01 a        74     0     3     1    24
 -2.0746639999987320E+00 a        75     0     3     1    25
 -4.6943729898556077E+00 a        76     0     4     1     1
 -2.5289759389658130E+01 a        77     0     4     1     2
 -7.0563865498911360E+00 a        78     0     4     1     3
 -5.8384716832585415E+00 a        79     0     4     1     4
  1.1472442498288567E+01 a        80     0     4     1     5
  4.2029547261658617E+00 a        81     0     4     1     6
 -1.8188900693472657E+01 a        82     0     4     1     7
 -3.0763699602447389E+01 a        83     0     4     1     8
  8.0504072130721376E+00 a        84     0     4     1     9
 -4.5348259147734167E+00 a        85     0     4     1    10
  9.8922483795801526E+00 a        86     0     4     1    11
 -3.2496706255514546E+01 a        87     0     4     1    12
 -9.3471651043984174E+00 a        88     0     4     1    13
  2.2519043033544173E+00 a        89     0     4     1    14
 -7.6942617843660055E-01 a        90     0     4     1    15
 -3.4147586642252357E+00 a        91     0     4     1    16
 -8.9754744316223682E+00 a        92     0     4     1    17
 -3.6806291931944077E+00 a        93     0     4     1    18
 -2.2991162955765443E+01 a        94     0     4     1    19
  3.1395838203866081E+01 a        95     0     4     1    20
 -5.7270648804541437E+00 a        96     0     4     1    21
  2.7429821496480159E+01 a        97     0     4     1    22
  3.1525001274785120E+00 a        98     0     4     1    23
 -3.5642534328762331E+01 a        99     0     4     1    24
 -1.2899973046817319E+01 a       100     0     4     1    25
  1.4505428373872441E+01 a       101     0     5     1     1
  4.1905801297305363E+00 a       102     0     5     1     2
 -9.1874622726742388E+00 a       103     0     5     1     3
 -1.7551605980345915E+00 a       104     0     5     1     4
  8.9262583170311005E-01 a       105     0     5     1     5
  1.4689551460643086E+01 a       106     0     5     1     6
  2.8926225942902331E+01 a       107     0     5     1     7
  2.5668644094307611E+00 a       108     0     5     1     8
 -8.8211800643374865E+00 a       109     0     5     1     9
 -1.3835934825734777E+01 a       110     0     5     1    10
 -2.5028338206764129E+00 a       111     0     5     1    11
  4.5628616786662439E+00 a       112     0     5     1    12
 -2.5967145541364323E+00 a       113     0     5     1    13
 -1.6888223247068890E+01 a       114     0     5     1    14
  2.6634831386538753E+00 a       115     0     5     1    15
 -9.7965805261474941E+00 a       116     0     5     1    16
  7.9938539865109615E+00 a       117     0     5     1    17
  2.3953890769895927E+00 a       118     0     5     1    18
  1.9805389735059853E+00 a       119     0     5     1    19
  1.5413902693871364E+01 a       120     0     5     1    20
 -1.1945091537700909E+01 a       121     0     5     1    21
 -7.5031788044589298E+00 a       122     0     5     1    22
 -1.1217925657365069E+00 a       123     0     5     1    23
  7.3900791316801167E+00 a       124     0     5     1    24
 -1.3891925769587172E+00 a       125     0     5     1    25
  9.7722990574415398E+00 a       126     0     6     1     1
  3.3559079928950325E+01 a       127     0     6     1     2
  5.1883658388754847E+00 a       128     0     6     1     3
  8.9025059144694152E-01 a       129     0     6     1     4
  3.2955115224553646E+00 a       130     0     6     1     5
 -9.9754988839721470E+00 a       131     0     6     1     6
  4.0641880415247716E-01 a       132     0     6     1     7
  3.0748059659067518E+01 a       133     0     6     1     8
 -3.8163062533183583E+00 a       134     0     6     1     9
  3.6530630422064756E+00 a       135     0     6     1    10
 -1.0065870205933942E+01 a       136     0     6     1    11
  3.8135165589349150E+01 a       137     0     6     1    12
  8.6857538866071788E+00 a       138     0     6     1    13
 -5.3141133431301990E-01 a       139     0     6     1    14
 -7.1796656844005147E-01 a       140     0     6     1    15
  5.8125353832823192E+00 a       141     0     6     1    16
  1.8791518945149623E+01 a       142     0     6     1    17
  1.9789804841968839E-01 a       143     0     6     1    18
  2.7317259111385013E+01 a       144     0     6     1    19
 -1.4340577002655095E+01 a       145     0     6     1    20
  1.0624598126221262E+01 a       146     0     6     1    21
 -2.8166541511590744E+01 a       147     0     6     1    22
 -6.1640091127456627E+00 a       148     0     6     1    23
  1.8391056381423343E+01 a       149     0     6     1    24
  1.3479292859724243E+01 a       150     0     6     1    25
 -2.1153900769613596E+01 a       151     0     7     1     1
 -3.4430976785842065E+00 a       152     0     7     1     2
 -7.5635909187841026E+00 a       153     0     7     1     3
 -5.0601017364487371E+00 a       154     0     7     1     4
 -1.9841531373391623E+00 a       155     0     7     1     5
  1.3346574860348714E+00 a       156     0     7     1     6
 -2.6365026581805051E+01 a       157     0     7     1     7
 -1.1010416867385096E+01 a       158     0     7     1     8
  6.6982597048929842E+00 a       159     0     7     1     9
  3.2942122434180938E+01 a       160     0     7     1    10
  6.4762849898695345E+00 a       161     0     7     1    11
 -1.7572497078891391E+01 a       162     0     7     1    12
  2.5304380327145171E+00 a       163     0     7     1    13
  1.3122110284358063E+01 a       164     0     7     1    14
 -3.6603663554093986E+00 a       165     0     7     1    15
 -6.5405986866961765E+00 a       166     0     7     1    16
 -8.6775494103260638E+00 a       167     0     7     1    17
 -9.5881534351174746E+00 a       168     0     7     1    18
 -3.5522719362469153E+00 a       169     0     7     1    19
 -1.7127713498048152E+01 a       170     0     7     1    20
  7.9607374274175866E+00 a       171     0     7     1    21
  3.1212757400279063E+01 a       172     0     7     1    22
  5.4437114544778709E+00 a       173     0     7     1    23
 -5.5013996039284274E+00 a       174     0     7     1    24
  2.0740582774086094E+00 a       175     0     7     1    25
 -1.4926019387786909E+01 a       176     0     8     1     1
 -2.9189587409054564E+01 a       177     0     8     1     2
 -3.3235043670787561E+00 a       178     0     8     1     3
  5.0147715416554748E+00 a       179     0     8     1     4
 -1.2561474267570548E+01 a       180     0     8     1     5
  1.1355298135103503E+01 a       181     0     8     1     6
 -5.0859925010268636E+00 a       182     0     8     1     7
 -2.3887561636633745E+01 a       183     0     8     1     8
  8.3866814167753512E-01 a       184     0     8     1     9
 -8.8245235981957553E+00 a       185     0     8     1    10
  1.0514083064006067E+01 a       186     0     8     1    11
 -3.3958212627222075E+01 a       187     0     8     1    12
 -6.7875044827472042E+00 a       188     0     8     1    13
 -8.3487328300782622E+00 a       189     0     8     1    14
  2.8171427083430975E+00 a       190     0     8     1    15
  1.0720569290831595E+01 a       191     0     8     1    16
 -1.7390129962651223E+01 a       192     0     8     1    17
 -1.5883672624888179E+00 a       193     0     8     1    18
 -1.5337823586766087E+01 a       194     0     8     1    19
 -2.5701086485629383E+00 a       195     0     8     1    20
 -1.4687864482726402E+01 a       196     0     8     1    21
  1.8525355205905083E+01 a       197     0     8     1    22
  7.1453094898295850E+00 a       198     0     8     1    23
  1.1781252136490297E+00 a       199     0     8     1    24
 -7.6080516631941251E+00 a       200     0     8     1    25
  5.8028184454146414E+00 a       201     0     9     1     1
  7.8312725953337008E+00 a       202     0     9     1     2
  3.8414904934979370E+00 a       203     0     9     1     3
  3.6607419591927632E+00 a       204     0     9     1     4
  8.0567412282498108E+00 a       205     0     9     1     5
 -4.4898914765727227E+00 a       206     0     9     1     6
  9.6482627664266640E-01 a       207     0     9     1     7
  1.1220014204720222E+01 a       208     0     9     1     8
 -1.6122428754589893E+00 a       209     0     9     1     9
 -7.2389323713409048E-01 a       210     0     9     1    10
 -3.7611718043360525E+00 a       211     0     9     1    11
  1.2543486622329537E+01 a       212     0     9     1    12
  2.4865186402122483E+00 a       213     0     9     1    13
  1.0859239331030615E+01 a       214     0     9     1    14
 -3.7237785579335694E+00 a       215     0     9     1    15
 -4.1055771784575370E+00 a       216     0     9     1    16
  1.4582560661068735E+00 a       217     0     9     1    17
 -2.9988116724369669E+00 a       218     0     9     1    18
  6.5385950572437757E-01 a       219     0     9     1    19
 -1.4001616798570418E+00 a       220     0     9     1    20
  1.9606538858918978E+00 a       221     0     9     1    21
 -7.1768387236611293E+00 a       222     0     9     1    22
 -1.0186158013309271E+01 a       223     0     9     1    23
 -4.7248394431106551E+00 a       224     0     9     1    24
  5.1824255429043120E+00 a       225     0     9     1    25
  1.4238155965986088E+01 a       226     0    10     1     1
  1.9740442551607855E+00 a       227     0    10     1     2
  9.8069426885133915E+00 a       228     0    10     1     3
  2.6722576549591937E+00 a       229     0    10     1     4
 -1.9181702990018461E+00 a       230     0    10     1     5
 -6.9826696069273044E+00 a       231     0    10     1     6
  9.8567738210069820E+00 a       232     0    10     1     7
  5.3145595211848047E+00 a       233     0    10     1     8
 -8.7799888798690373E-01 a       234     0    10     1     9
 -1.3997755615734894E+01 a       235     0    10     1    10
 -2.6371636282183921E+00 a       236     0    10     1    11
  1.9291093011128009E+01 a       237     0    10     1    12
 -3.6939108627731587E-01 a       238     0    10     1    13
 -1.5518305397150454E+00 a       239     0    10     1    14
  5.4417429252142444E+00 a       240     0    10     1    15
  1.3687748563211932E+00 a       241     0    10     1    16
  9.1078082730825951E+00 a       242     0    10     1    17
  8.4003750587536103E+00 a       243     0    10     1    18
  1.5151373461828685E+00 a       244     0    10     1    19
  1.1253831954560798E+01 a       245     0    10     1    20
 -4.4194776850226569E-01 a       246     0    10     1    21
 -1.9200929648742125E+01 a       247     0    10     1    22
 -7.7623809933848849E+00 a       248     0    10     1    23
 -2.9852912801250935E+00 a       249     0    10     1    24
 -5.9983016220867649E+00 a       250     0    10     1    25
  2.1015029406396821E+00 a       251     0    11     1     1
 -3.3195629981416368E+00 a       252     0    11     1     2
  3.1279336124227053E-01 a       253     0    11     1     3
 -2.2220560773844449E+00 a       254     0    11     1     4
 -5.2320716233453206E+00 a       255     0    11     1     5
  2.9548596933997353E+00 a       256     0    11     1     6
 -5.1077645814699988E+00 a       257     0    11     1     7
 -9.4164202518805808E+00 a       258     0    11     1     8
  3.8094038569103028E+00 a       259     0    11     1     9
 -1.5709400451263766E+00 a       260     0    11     1    10
  2.7005757191633579E+00 a       261     0    11     1    11
 -4.4334818422518296E+00 a       262     0    11     1    12
 -1.2804209066011620E+00 a       263     0    11     1    13
 -1.2076136782657600E+00 a       264     0    11     1    14
 -9.5010083046797800E-01 a       265     0    11     1    15
  6.2823452207476231E+00 a       266     0    11     1    16
  3.3283252678700967E+00 a       267     0    11     1    17
  2.4144663939604234E+00 a       268     0    11     1    18
 -3.0217064000874450E+00 a       269     0    11     1    19
  3.8278805590850018E+00 a       270     0    11     1    20
 -2.6179794447509241E+00 a       271     0    11     1    21
  4.0989872792289699E+00 a       272     0    11     1    22
  8.1981541329330785E+00 a       273     0    11     1    23
  4.3292945250450723E+00 a       274     0    11     1    24
  1.4911999023768017E+00 a       275     0    11     1    25
 -2.3803903598926886E-03 a       276     0    12     1     1
  2.3912460300809624E+00 a       277     0    12     1     2
 -4.9196951283560102E+00 a       278     0    12     1     3
 -3.2179493325095669E+00 a       279     0    12     1     4
  5.3251125240454904E+00 a       280     0    12     1     5
  2.8519651581439867E+00 a       281     0    12     1     6
 -2.8831403720099646E+00 a       282     0    12     1     7
 -9.2088174316036375E-01 a       283     0    12     1     8
 -2.1661268056823473E+00 a       284     0    12     1     9
  3.0346402933545944E+00 a       285     0    12     1    10
 -4.0963509283763937E+00 a       286     0    12     1    11
 -5.5079527224253439E+00 a       287     0    12     1    12
  1.6292352686756941E+00 a       288     0    12     1    13
 -2.5502530067972646E+00 a       289     0    12     1    14
  2.6482150926798238E+00 a       290     0    12     1    15
  4.9009945992386994E+00 a       291     0    12     1    16
 -3.2243978399275268E+00 a       292     0    12     1    17
  2.1641351739211117E+00 a       293     0    12     1    18
 -1.1741198578185884E-01 a       294     0    12     1    19
 -4.5022577001873287E+00 a       295     0    12     1    20
  2.5096114939934766E-01 a       296     0    12     1    21
  6.8347842340387714E+00 a       297     0    12     1    22
  4.7730446866270215E+00 a       298     0    12     1    23
  5.5099272318770716E+00 a       299     0    12     1    24
  4.8886862344608650E-01 a       300     0    12     1    25
 -2.9870512477214506E+00 a       301     0    13     1     1
  4.5755055270191120E-01 a       302     0    13     1     2
 -6.9681802275252125E-01 a       303     0    13     1     3
  2.8679229489418923E+00 a       304     0    13     1     4
  2.9800078276300330E+00 a       305     0    13     1     5
  1.0551655542720479E+00 a       306     0    13     1     6
  4.4372274405016841E+00 a       307     0    13     1     7
  3.7766262361336649E+00 a       308     0    13     1     8
 -1.8356514883457353E+00 a       309     0    13     1     9
 -2.1073772181572512E-01 a       310     0    13     1    10
 -1.6741709892837988E+00 a       311     0    13     1    11
  1.1809903679300764E+00 a       312     0    13     1    12
  1.5801000544086650E+00 a       313     0    13     1    13
 -2.5823725283188117E+00 a       314     0    13     1    14
 -7.8248214138627425E-02 a       315     0    13     1    15
 -1.6311102622206437E+00 a       316     0    13     1    16
 -3.1785926660005166E+00 a       317     0    13     1    17
  1.5837695985809315E+00 a       318     0    13     1    18
  3.7947402041034497E+00 a       319     0    13     1    19
 -2.0769293351149414E+00 a       320     0    13     1    20
  2.1063194569892416E+00 a       321     0    13     1    21
 -9.6061453497060512E-01 a       322     0    13     1    22
 -6.2619496499305161E-01 a       323     0    13     1    23
 -2.3511838941832477E+00 a       324     0    13     1    24
 -1.8754649282463864E+00 a       325     0    13     1    25
  2.8972177340273175E+00 a       326     0    14     1     1
 -3.1163739875031262E+00 a       327     0    14     1     2
  6.2865495697195621E+00 a       328     0    14     1     3
 -1.5293498645231518E+00 a       329     0    14     1     4
 -4.4137701890095854E-01 a       330     0    14     1     5
 -1.5644294398218423E-02 a       331     0    14     1     6
  4.5480978253782478E+00 a       332     0    14     1     7
  9.7100172426634390E-01 a       333     0    14     1     8
  2.5902998359959297E+00 a       334     0    14     1     9
  1.0512154820295116E+00 a       335     0    14     1    10
  3.2543756554394885E+00 a       336     0    14     1    11
  4.2300866716956413E+00 a       337     0    14     1    12
 -3.0814467638980724E-02 a       338     0    14     1    13
  1.8919240739380498E+00 a       339     0    14     1    14
 -8.5170080847217955E-01 a       340     0    14     1    15
 -1.2886384703024314E-01 a       341     0    14     1    16
  4.1793747143186639E+00 a       342     0    14     1    17
  9.9366221990604509E-01 a       343     0    14     1    18
 -5.2278974143105232E+00 a       344     0    14     1    19
  7.8668594603551900E-01 a       345     0    14     1    20
  1.3359731622270905E+00 a       346     0    14     1    21
 -5.6357002089444102E+00 a       347     0    14     1    22
 -1.3348409317816063E+00 a       348     0    14     1    23
 -3.4622523989280127E+00 a       349     0    14     1    24
 -1.9889594724065545E+00 a       350     0    14     1    25
  1.3783454585106030E+00 a       351     0    15     1     1
 -8.3320208490622805E-01 a       352     0    15     1     2
  1.2092168654865249E-01 a       353     0    15     1     3
 -1.9610881502144799E+00 a       354     0    15     1     4
 -1.1885675249508329E-01 a       355     0    15     1     5
 -3.9654793079952855E-01 a       356     0    15     1     6
 -8.0962801094463110E-01 a       357     0    15     1     7
  7.5143923539448487E-01 a       358     0    15     1     8
  1.6041922700874538E+00 a       359     0    15     1     9
  1.3744100191512680E+00 a       360     0    15     1    10
  1.8715084461008830E-01 a       361     0    15     1    11
 -1.0728716221752307E-01 a       362     0    15     1    12
  1.9705379651568964E+00 a       363     0    15     1    13
 -8.8174522977804337E-01 a       364     0    15     1    14
  6.4602948474866390E-02 a       365     0    15     1    15
 -1.9268741186299108E+00 a       366     0    15     1    16
  1.9364337311171260E+00 a       367     0    15     1    17
  2.8411433815091403E-01 a       368     0    15     1    18
 -8.4926894769091110E-01 a       369     0    15     1    19
  4.8342344682710126E-01 a       370     0    15     1    20
  7.9535703141267067E-01 a       371     0    15     1    21
 -2.0924155253028561E-03 a       372     0    15     1    22
 -7.1140572940007818E-01 a       373     0    15     1    23
 -9.2867865621338552E-01 a       374     0    15     1    24
 -3.9383892920276764E-01 a       375     0    15     1    25
  3.0404135171647508E-02 a       376     0    16     1     1
  1.1568333000340745E+00 a       377     0    16     1     2
 -1.9684684963439114E+00 a       378     0    16     1     3
  1.2689960956262207E+00 a       379     0    16     1     4
  5.7396272214415756E-01 a       380     0    16     1     5
 -1.9731204744060604E-01 a       381     0    16     1     6
  7.6938549924898980E-01 a       382     0    16     1     7
 -3.7475587861238002E-01 a       383     0    16     1     8
  8.4939524668253219E-02 a       384     0    16     1     9
 -3.3414944078383239E-02 a       385     0    16     1    10
 -1.2052715874100566E+00 a       386     0    16     1    11
 -1.1618533375981162E-01 a       387     0    16     1    12
  2.3631193534572112E-01 a       388     0    16     1    13
 -1.2050350671857828E+00 a       389     0    16     1    14
  1.4038137539466589E-01 a       390     0    16     1    15
 -1.0466285961782162E+00 a       391     0    16     1    16
  1.2031290502561085E+00 a       392     0    16     1    17
  6.1594582133654530E-01 a       393     0    16     1    18
  1.4037670652221337E+00 a       394     0    16     1    19
 -8.4641103038120979E-01 a       395     0    16     1    20
 -1.6681556599547767E-01 a       396     0    16     1    21
 -8.6811720381591728E-01 a       397     0    16     1    22
  3.0365170272594455E-01 a       398     0    16     1    23
  4.3960128627907957E-01 a       399     0    16     1    24
 -3.7227433793440101E-01 a       400     0    16     1    25
  1.0505700842364605E+00 a       401     0    17     1     1
  3.2866928329621046E+00 a       402     0    17     1     2
  1.3561032611239723E+00 a       403     0    17     1     3
  4.9333281103634818E-01 a       404     0    17     1     4
 -2.1360714889876187E+00 a       405     0    17     1     5
  2.0512119979621973E-01 a       406     0    17     1     6
  4.7312289627580983E-01 a       407     0    17     1     7
  1.3025787180397761E+00 a       408     0    17     1     8
  1.3051494547328094E-01 a       409     0    17     1     9
  1.2009243595121950E+00 a       410     0    17     1    10
 -2.4043378456741357E-01 a       411     0    17     1    11
  3.2284862576858164E+00 a       412     0    17     1    12
  4.3265591921737395E-01 a       413     0    17     1    13
 -1.3611836425658892E+00 a       414     0    17     1    14
 -1.0543524596735350E+00 a       415     0    17     1    15
 -2.6024954224000303E+00 a       416     0    17     1    16
  1.7236567793973445E+00 a       417     0    17     1    17
  1.3433026744962921E+00 a       418     0    17     1    18
  7.1663717050416875E-01 a       419     0    17     1    19
 -7.8302915170180315E-02 a       420     0    17     1    20
  1.5640863463147716E+00 a       421     0    17     1    21
  5.9572758703821771E-01 a       422     0    17     1    22
  6.4631227503604487E+00 a       423     0    17     1    23
  2.0861970305178552E+00 a       424     0    17     1    24
  2.9190020812023915E-01 a       425     0    17     1    25
 -2.3178823735180204E-01 a       426     0    18     1     1
  2.1576835853267222E+00 a       427     0    18     1     2
 -5.1028469574893958E+00 a       428     0    18     1     3
  6.1222581992265583E+00 a       429     0    18     1     4
 -7.4004088254232228E+00 a       430     0    18     1     5
  8.9514145877095981E+00 a       431     0    18     1     6
 -1.6939718809238936E+01 a       432     0    18     1     7
 -7.9164297760070959E+00 a       433     0    18     1     8
 -6.1008123717393419E+00 a       434     0    18     1     9
  8.2522605477968680E-01 a       435     0    18     1    10
 -2.1829330352762586E+00 a       436     0    18     1    11
 -7.9725188005076637E+00 a       437     0    18     1    12
  3.6259767739036258E-01 a       438     0    18     1    13
 -1.1629453351904630E+01 a       439     0    18     1    14
  2.6845212490398809E+00 a       440     0    18     1    15
 -1.0378198950864483E+00 a       441     0    18     1    16
 -8.6999442740907984E-01 a       442     0    18     1    17
 -9.1482205994627037E+00 a       443     0    18     1    18
  1.5462293915028690E+01 a       444     0    18     1    19
 -1.0178769570579128E+01 a       445     0    18     1    20
 -6.0225555800498940E+00 a       446     0    18     1    21
  8.0197755985369810E+00 a       447     0    18     1    22
 -7.8026449315468127E-01 a       448     0    18     1    23
  5.1436227035761650E+00 a       449     0    18     1    24
 -7.6576049112734319E+00 a       450     0    18     1    25
  1.7418044978410119E+00 a       451     0    19     1     1
 -3.0996266141196700E+00 a       452     0    19     1     2
 -1.2964341823761441E+00 a       453     0    19     1     3
 -2.1502826658185845E+00 a       454     0    19     1     4
  9.5974372235174998E-01 a       455     0    19     1     5
  9.7411969689785771E-02 a       456     0    19     1     6
  3.8262208617661493E+00 a       457     0    19     1     7
  2.3710224488685361E-01 a       458     0    19     1     8
  1.0888366730607499E+00 a       459     0    19     1     9
  1.4984207427331762E+00 a       460     0    19     1    10
 -9.3007986650195829E-01 a       461     0    19     1    11
 -4.8615976195557735E+00 a       462     0    19     1    12
 -9.3667724989667722E-01 a       463     0    19     1    13
 -2.4460094316237355E+00 a       464     0    19     1    14
  4.5196919406744251E-01 a       465     0    19     1    15
  5.1177452556859597E+00 a       466     0    19     1    16
 -2.7215820950408536E+00 a       467     0    19     1    17
 -2.3603929111204236E+00 a       468     0    19     1    18
  5.1929996187685115E+00 a       469     0    19     1    19
  2.4447981605949229E-01 a       470     0    19     1    20
 -2.0709302315273472E+00 a       471     0    19     1    21
 -1.3299709952123888E+00 a       472     0    19     1    22
 -1.8748426801110321E+00 a       473     0    19     1    23
  1.9889821663488216E+00 a       474     0    19     1    24
  1.3344061252676198E+00 a       475     0    19     1    25
 -1.1169352768347199E+01 a       476     0    20     1     1
 -2.6464018195722780E+00 a       477     0    20     1     2
  9.2071784295781391E+00 a       478     0    20     1     3
 -2.3536637989410729E+00 a       479     0    20     1     4
 -4.6558302302952184E+00 a       480     0    20     1     5
 -1.8523124748367287E+01 a       481     0    20     1     6
  1.8426682042874877E+01 a       482     0    20     1     7
  3.0938081772186465E+00 a       483     0    20     1     8
  4.2931761911376052E+00 a       484     0    20     1     9
 -1.2673657207296898E+01 a       485     0    20     1    10
  6.1365235782835859E+00 a       486     0    20     1    11
  1.2849856198776246E+01 a       487     0    20     1    12
  1.1688830264319300E-01 a       488     0    20     1    13
  2.2836301196674562E+01 a       489     0    20     1    14
  1.5035682342859577E-02 a       490     0    20     1    15
  1.5847420119206355E+01 a       491     0    20     1    16
  1.5026310587469561E+01 a       492     0    20     1    17
  1.0448723334029335E+01 a       493     0    20     1    18
 -1.8178501362940047E+01 a       494     0    20     1    19
  1.6486782650261503E+01 a       495     0    20     1    20
  1.0042873476243042E+01 a       496     0    20     1    21
 -1.2713700512934315E+01 a       497     0    20     1    22
 -1.0958935259474483E+01 a       498     0    20     1    23
 -2.0367740783394922E+01 a       499     0    20     1    24
  9.1834340403873522E+00 a       500     0    20     1    25
 -2.5536563686688720E+00 a       501     0    21     1     1
 -1.7829108923569240E+01 a       502     0    21     1     2
 -4.2541392525227071E+00 a       503     0    21     1     3
  5.1715876571757482E+00 a       504     0    21     1     4
 -1.9903684350857858E+01 a       505     0    21     1     5
 -1.1238730349045657E+01 a       506     0    21     1     6
 -4.3737060654603157E+00 a       507     0    21     1     7
  4.6734782329892308E+00 a       508     0    21     1     8
 -2.6889737228068795E+00 a       509     0    21     1     9
 -3.1195053391468765E+01 a       510     0    21     1    10
  7.5568920735161784E+00 a       511     0    21     1    11
 -3.0049351437206466E+00 a       512     0    21     1    12
  9.0799247408716444E-01 a       513     0    21     1    13
 -2.1620624683939877E+00 a       514     0    21     1    14
 -1.4917795677735683E+01 a       515     0    21     1    15
 -4.8628123646106642E+00 a       516     0    21     1    16
 -4.8767535635862480E-01 a       517     0    21     1    17
 -3.0829260924015376E+00 a       518     0    21     1    18
  9.1149873000463906E+00 a       519     0    21     1    19
 -1.8297475063374485E+01 a       520     0    21     1    20
 -4.3423536358557477E+00 a       521     0    21     1    21
 -8.7716317402274679E+00 a       522     0    21     1    22
 -1.4409415118006910E+01 a       523     0    21     1    23
 -7.6422384100218022E+00 a       524     0    21     1    24
  2.0664199513954409E+00 a       525     0    21     1    25
  1.6138316001617923E+00 a       526     0    22     1     1
  1.3226909337003086E+01 a       527     0    22     1     2
 -4.7030796325804864E+00 a       528     0    22     1     3
 -7.1636976270930557E+00 a       529     0    22     1     4
  1.2392307391407881E+01 a       530     0    22     1     5
 -2.2916075100224078E+00 a       531     0    22     1     6
  6.8331425597663227E+00 a       532     0    22     1     7
 -1.2538587132088619E+00 a       533     0    22     1     8
 -9.6916553714675135E-01 a       534     0    22     1     9
  1.0853081258268576E+01 a       535     0    22     1    10
 -4.7628808027066754E+00 a       536     0    22     1    11
  8.0095636943508774E-01 a       537     0    22     1    12
  7.2495999186720372E-01 a       538     0    22     1    13
 -2.4596430606392441E+00 a       539     0    22     1    14
  1.3584797069021377E+01 a       540     0    22     1    15
 -3.9887463929641640E+01 a       541     0    22     1    16
  4.1394486588182264E+00 a       542     0    22     1    17
  4.2647090416543163E+00 a       543     0    22     1    18
 -1.6045071071481007E+00 a       544     0    22     1    19
  5.6866016361913196E+00 a       545     0    22     1    20
  1.8136407657563076E+01 a       546     0    22     1    21
 -8.5358829526925417E-01 a       547     0    22     1    22
  1.2485373790136425E+01 a       548     0    22     1    23
 -1.3125634091014163E+01 a       549     0    22     1    24
 -3.5360918668859718E+00 a       550     0    22     1    25
  1.3904784666311880E+01 a       551     0    23     1     1
  5.3899340352665597E+00 a       552     0    23     1     2
  1.8665610532516357E+01 a       553     0    23     1     3
  1.0799494420487552E+00 a       554     0    23     1     4
  3.6944742120220816E+01 a       555     0    23     1     5
  1.7992103264504745E+01 a       556     0    23     1     6
  2.6881727917641993E+00 a       557     0    23     1     7
  7.8726149918587147E+00 a       558     0    23     1     8
  5.6499812646726619E+00 a       559     0    23     1     9
  2.9020655854802513E+01 a       560     0    23     1    10
 -1.0873366052787844E+01 a       561     0    23     1    11
 -1.8468646364330180E+01 a       562     0    23     1    12
 -3.8531211634692291E+00 a       563     0    23     1    13
 -5.5690513688242920E+00 a       564     0    23     1    14
  4.2907973204045362E+00 a       565     0    23     1    15
  6.7016946349865369E+00 a       566     0    23     1    16
 -1.0210832312484674E+01 a       567     0    23     1    17
 -7.0520434225113133E+00 a       568     0    23     1    18
 -3.4078627663666334E+00 a       569     0    23     1    19
  1.8836732184785159E+01 a       570     0    23     1    20
  9.9336821881252091E-02 a       571     0    23     1    21
  3.8983650398636049E+00 a       572     0    23     1    22
  1.3965214680749513E+01 a       573     0    23     1    23
  1.8999824331066453E+01 a       574     0    23     1    24
 -1.3699737617399697E+00 a       575     0    23     1    25
  5.8302157937965857E+00 a       576     0    24     1     1
 -7.7211123848762480E+00 a       577     0    24     1     2
 -5.9216171327349292E+00 a       578     0    24     1     3
 -8.3529858626714226E+00 a       579     0    24     1     4
 -4.7874605436770645E+00 a       580     0    24     1     5
  1.2828662577696825E+00 a       581     0    24     1     6
  4.0780475341231437E+00 a       582     0    24     1     7
 -1.7150064058977796E-01 a       583     0    24     1     8
 -8.4260357113505879E-01 a       584     0    24     1     9
  2.3343528135433558E+00 a       585     0    24     1    10
 -4.2188207318120625E+00 a       586     0    24     1    11
  9.2369932261144587E+00 a       587     0    24     1    12
  1.6200877716842959E+00 a       588     0    24     1    13
  1.9967844433833519E+00 a       589     0    24     1    14
 -3.2983035998335168E+00 a       590     0    24     1    15
  4.3657290136435138E+00 a       591     0    24     1    16
 -4.9858528294167570E+00 a       592     0    24     1    17
  3.4663183108245086E+00 a       593     0    24     1    18
 -7.1647054934720904E+00 a       594     0    24     1    19
 -1.3791151599370373E+01 a       595     0    24     1    20
 -7.5991845785097407E+00 a       596     0    24     1    21
  2.3405706346595068E+00 a       597     0    24     1    22
  2.8567046059929333E+00 a       598     0    24     1    23
  1.1551608647785774E+00 a       599     0    24     1    24
  3.4800812454418506E+00 a       600     0    24     1    25
 -8.3731755778214367E+00 a       601     0    25     1     1
  7.2572295130585243E+00 a       602     0    25     1     2
  6.3340825506461362E+00 a       603     0    25     1     3
  5.5111127202495833E+00 a       604     0    25     1     4
  1.9362597597045588E+00 a       605     0    25     1     5
  4.0904364337059365E+00 a       606     0    25     1     6
  1.0620785354564124E+01 a       607     0    25     1     7
 -1.8421163535336833E+00 a       608     0    25     1     8
  6.1824673302758519E+00 a       609     0    25     1     9
  1.0588114560869128E+01 a       610     0    25     1    10
 -4.2541529432168605E+00 a       611     0    25     1    11
 -2.5143725103376311E+00 a       612     0    25     1    12
 -2.9628993114490547E+00 a       613     0    25     1    13
  8.2380242534324051E+00 a       614     0    25     1    14
  1.4631769368951510E+00 a       615     0    25     1    15
  1.2777349002504790E+01 a       616     0    25     1    16
  2.0195170537734422E+00 a       617     0    25     1    17
 -2.7587522382416623E+00 a       618     0    25     1    18
 -7.4571355484980781E+00 a       619     0    25     1    19
  1.5272114028929300E+01 a       620     0    25     1    20
 -4.2155646934832571E+00 a       621     0    25     1    21
  4.9178125726729460E+00 a       622     0    25     1    22
  2.8989623997217795E-01 a       623     0    25     1    23
  4.6921768765918328E+00 a       624     0    25     1    24
  5.7362587129981097E+00 a       625     0    25     1    25
 -4.0814009673489116E+00 a       626     0    26     1     1
  6.2085624079354726E+00 a       627     0    26     1     2
 -1.6113071276981746E+01 a       628     0    26     1     3
 -8.8794040253178652E-01 a       629     0    26     1     4
 -2.3917554678598123E+01 a       630     0    26     1     5
 -3.9580004627460226E+00 a       631     0    26     1     6
 -7.7424682230711426E+00 a       632     0    26     1     7
 -7.2134263535744458E-01 a       633     0    26     1     8
 -4.6990915529812192E+00 a       634     0    26     1     9
 -1.4504385834772478E+01 a       635     0    26     1    10
  1.3729728943482005E+01 a       636     0    26     1    11
  8.6171472788651986E+00 a       637     0    26     1    12
  1.9252628615226559E+00 a       638     0    26     1    13
 -1.0682982511520953E+01 a       639     0    26     1    14
 -2.6290028000393426E+00 a       640     0    26     1    15
 -8.1110723542820509E+00 a       641     0    26     1    16
 -1.0136764743875282E+00 a       642     0    26     1    17
 -6.4572419329031909E+00 a       643     0    26     1    18
  1.4612709167956659E+01 a       644     0    26     1    19
 -8.3650777483770113E+00 a       645     0    26     1    20
 -3.8778862643317252E-01 a       646     0    26     1    21
 -5.2056991483620152E+00 a       647     0    26     1    22
 -3.7339869892022479E+00 a       648     0    26     1    23
 -4.4380801504346268E+00 a       649     0    26     1    24
 -1.9713304056340433E+00 a       650     0    26     1    25
 -4.5595938356849952E-01 a       651     0    27     1     1
 -2.1913914275952511E+00 a       652     0    27     1     2
  2.1341978841094407E+00 a       653     0    27     1     3
  2.1824061982926407E-01 a       654     0    27     1     4
  1.3527191386021700E+00 a       655     0    27     1     5
 -1.3824782060436567E+00 a       656     0    27     1     6
 -9.8965996639025455E-01 a       657     0    27     1     7
 -1.2691192179983104E+00 a       658     0    27     1     8
  6.2902728921748163E-01 a       659     0    27     1     9
  7.6904934190481178E-01 a       660     0    27     1    10
 -8.1991290705198843E+00 a       661     0    27     1    11
 -4.0436754692243132E-01 a       662     0    27     1    12
 -1.0739905361894216E-01 a       663     0    27     1    13
  2.7659444766665429E+00 a       664     0    27     1    14
  8.9633428630435219E-01 a       665     0    27     1    15
 -5.5269940488482998E+00 a       666     0    27     1    16
 -1.4749026551646407E+00 a       667     0    27     1    17
 -1.2195736693358021E+00 a       668     0    27     1    18
 -1.7755402071962008E+00 a       669     0    27     1    19
  1.1391299387457074E+00 a       670     0    27     1    20
  8.2668607165648800E-01 a       671     0    27     1    21
  2.0327501389908225E+00 a       672     0    27     1    22
 -1.5426666417648394E-01 a       673     0    27     1    23
  9.1949402710926553E-01 a       674     0    27     1    24
  1.7630793116129277E+00 a       675     0    27     1    25
  7.9486620078633297E-01 b       676     1     1
 -1.9921445707569569E+00 b       677     1     2
 -2.1968058418478234E-01 b       678     1     3
  1.1712640975498126E-01 b       679     1     4
  2.8225053027703961E-01 b       680     1     5
 -9.2437640284526690E-01 b       681     1     6
  1.7445048090272333E+00 b       682     1     7
  7.7616965553222006E-01 b       683     1     8
  1.1747852162566508E+00 b       684     1     9
  6.2667753457590536E-01 b       685     1    10
 -2.2259769720111451E+00 b       686     1    11
  9.1212813063952047E-01 b       687     1    12
 -2.1848030844874797E+00 b       688     1    13
 -1.3745632322943979E+00 b       689     1    14
 -9.7427833441532752E-01 b       690     1    15
 -3.6282970543106758E+00 b       691     1    16
  1.1657078244448851E+00 b       692     1    17
  2.8666759161482852E-01 b       693     1    18
  1.6330383491834664E+00 b       694     1    19
  1.8161556036710186E-01 b       695     1    20
  1.0558629005289093E+00 b       696     1    21
 -1.2990258784569880E-01 b       697     1    22
  2.2296596209188726E+00 b       698     1    23
 -7.9153312469669068E-01 b       699     1    24
  8.9067438038013647E-02 b       700     1    25
 -1.9039543681364395E+00 a       701     1     1     2     1
  3.6181679119608112E-01 a       702     1     1     2     2
 -1.2147846530710620E+00 a       703     1     1     2     3
 -4.1012872675526346E-01 a       704     1     1     2     4
 -5.2562148893950411E-01 a       705     1     1     2     5
 -2.5048821662524583E+00 a       706     1     1     2     6
  1.4932903889619999E+00 a       707     1     1     2     7
 -5.9179848006833879E-01 a       708     1     1     2     8
 -8.4681074135103129E-01 a       709     1     1     2     9
 -2.7943544503674267E-01 a       710     1     1     2    10
  3.3475585653384039E+00 a       711     1     1     2    11
  9.8342224568007508E-01 a       712     1     1     2    12
  1.3429715864034177E+00 a       713     1     1     2    13
  1.0701568434175743E+00 a       714     1     1     2    14
  5.2904113899235827E-01 a       715     1     1     2    15
 -7.8731866916647408E-01 a       716     1     1     2    16
  9.3744429332476142E-01 a       717     1     1     2    17
  1.2167990965290450E-01 a       718     1     1     2    18
  1.7992535634424032E+00 a       719     1     1     2    19
  4.2144435981208261E-01 a       720     1     1     2    20
  9.2949734998323530E-01 a       721     1     1     2    21
 -2.3719523888877698E+00 a       722     1     1     2    22
 -1.4943593587374354E-01 a       723     1     1     2    23
 -6.3555616618605288E+00 a       724     1     1     2    24
  3.5100863203592608E-01 a       725     1     1     2    25
  2.2264344713526811E+00 a       726     1     2     2     1
  2.9934601407596464E+00 a       727     1     2     2     2
  3.0889766132057743E+00 a       728     1     2     2     3
  1.8336893518001920E+00 a       729     1     2     2     4
  4.0303514256354065E+00 a       730     1     2     2     5
  1.8315961179140796E+00 a       731     1     2     2     6
 -1.3925557358597309E+00 a       732     1     2     2     7
  2.0850339131913915E+00 a       733     1     2     2     8
  6.5850509540154585E+00 a       734     1     2     2     9
  3.0743407681167065E+00 a       735     1     2     2    10
  1.3759193299391170E+00 a       736     1     2     2    11
  2.3130352752436765E+00 a       737     1     2     2    12
  1.2208104822168115E+01 a       738     1     2     2    13
  6.2873552539735851E+00 a       739     1     2     2    14
 -2.6297002402007535E-01 a       740     1     2     2    15
  1.1631378535107688E+00 a       741     1     2     2    16
 -3.0874516260167786E+00 a       742     1     2     2    17
 -1.3170470807536552E+00 a       743     1     2     2    18
 -3.6996603579682632E+00 a       744     1     2     2    19
 -1.9637731277419335E+00 a       745     1     2     2    20
  3.1385257506386597E+00 a       746     1     2     2    21
  3.8246109130924610E+00 a       747     1     2     2    22
  1.0104965899613152E+00 a       748     1     2     2    23
 -1.3478549158258435E+00 a       749     1     2     2    24
  1.8768154774817432E+00 a       750     1     2     2    25
 -6.8358013855872035E-01 a       751     1     3     2     1
 -1.3457119536745760E-01 a       752     1     3     2     2
  2.7603952889509512E-02 a       753     1     3     2     3
  6.0714626655368997E-01 a       754     1     3     2     4
  3.2198004939510055E-01 a       755     1     3     2     5
  1.6730033625146827E+00 a       756     1     3     2     6
 -9.8854956509227321E-01 a       757     1     3     2     7
 -2.5544613860902043E-01 a       758     1     3     2     8
  9.1536707621986291E-02 a       759     1     3     2     9
 -2.7388288322208432E+00 a       760     1     3     2    10
  1.2122014197812776E+00 a       761     1     3     2    11
  4.4032418595302458E-01 a       762     1     3     2    12
 -1.0203412177979292E+00 a       763     1     3     2    13
 -3.7285707045855188E-01 a       764     1     3     2    14
 -5.2531632438935377E-04 a       765     1     3     2    15
  6.2112868187118542E-01 a       766     1     3     2    16
  4.0437133859966909E+00 a       767     1     3     2    17
 -9.2403246536515285E-02 a       768     1     3     2    18
 -7.5411390361331321E-01 a       769     1     3     2    19
  1.4108917541562541E-01 a       770     1     3     2    20
  8.4657440223689462E-01 a       771     1     3     2    21
  7.0320695572022440E-01 a       772     1     3     2    22
  1.9207138583704783E-01 a       773     1     3     2    23
 -4.0040811307373125E-01 a       774     1     3     2    24
  4.2729578134404095E-01 a       775     1     3     2    25
 -9.5111453594401485E-01 a       776     1     4     2     1
 -6.4797301337925695E-01 a       777     1     4     2     2
 -7.1372051133466341E-01 a       778     1     4     2     3
 -1.7409101505285712E-02 a       779     1     4     2     4
 -1.0214632269145942E+00 a       780     1     4     2     5
  8.3151857057281109E-01 a       781     1     4     2     6
  1.2701234798978145E+00 a       782     1     4     2     7
 -1.3756356533303919E+00 a       783     1     4     2     8
  1.8938819075371962E+00 a       784     1     4     2     9
  1.2034873819765033E+00 a       785     1     4     2    10
  6.7548064100488170E-01 a       786     1     4     2    11
 -1.1290450892249433E+00 a       787     1     4     2    12
  9.3453317751700926E-01 a       788     1     4     2    13
  1.3427844117662113E+00 a       789     1     4     2    14
  9.0966753884428009E-01 a       790     1     4     2    15
  8.0315721548478144E-02 a       791     1     4     2    16
 -4.3439288904233528E+00 a       792     1     4     2    17
 -3.4092003268411913E-01 a       793     1     4     2    18
  7.0054604186311875E-01 a       794     1     4     2    19
 -7.9647924004602377E-01 a       795     1     4     2    20
  1.0566225761910553E+00 a       796     1     4     2    21
 -1.1890369031934887E-01 a       797     1     4     2    22
  4.0795641992368026E-01 a       798     1     4     2    23
  4.1343704097528383E-01 a       799     1     4     2    24
  7.8285019299429093E-01 a       800     1     4     2    25
  6.6260100454213589E-01 a       801     1     5     2     1
  7.2334044714949541E-01 a       802     1     5     2     2
  1.4624080251986709E+00 a       803     1     5     2     3
  1.5339892449754652E-01 a       804     1     5     2     4
  8.2014138007938844E-02 a       805     1     5     2     5
 -2.8631485909001912E+00 a       806     1     5     2     6
  1.5917413446973272E+00 a       807     1     5     2     7
  6.5877441686428034E-02 a       808     1     5     2     8
  1.1382049785550165E-01 a       809     1     5     2     9
 -2.3329307901814467E+00 a       810     1     5     2    10
 -1.0031203366262278E+00 a       811     1     5     2    11
 -2.3149918352236756E+00 a       812     1     5     2    12
  6.0995061244524940E-01 a       813     1     5     2    13
 -3.4178212261518515E-02 a       814     1     5     2    14
 -8.5162602907965373E-02 a       815     1     5     2    15
  3.4770129354204253E-02 a       816     1     5     2    16
 -8.3952964838727684E-01 a       817     1     5     2    17
 -4.5447666318938978E-01 a       818     1     5     2    18
 -7.5522505873122014E-01 a       819     1     5     2    19
 -8.9902471839255549E-01 a       820     1     5     2    20
 -2.1203530967969259E-01 a       821     1     5     2    21
 -2.0589301971950003E-01 a       822     1     5     2    22
  3.3931281316645184E-01 a       823     1     5     2    23
 -1.4573686753321184E+00 a       824     1     5     2    24
  9.8541360597993455E-01 a       825     1     5     2    25
 -5.3192306526772948E-01 a       826     1     6     2     1
 -5.9060239256053726E-01 a       827     1     6     2     2
 -1.1688917376396430E+00 a       828     1     6     2     3
 -1.7047941119046053E+00 a       829     1     6     2     4
 -2.3707970951509170E+00 a       830     1     6     2     5
  9.4637896488856399E-01 a       831     1     6     2     6
  1.3101274101887525E-01 a       832     1     6     2     7
  5.1433941811444917E-01 a       833     1     6     2     8
  1.0171124532565416E+00 a       834     1     6     2     9
 -1.8480713027425252E-01 a       835     1     6     2    10
 -1.4592325198665400E-03 a       836     1     6     2    11
 -1.1916228719022799E+00 a       837     1     6     2    12
 -5.3194971510089428E-01 a       838     1     6     2    13
  4.5508916577650688E-01 a       839     1     6     2    14
 -3.8452135108297819E-01 a       840     1     6     2    15
 -1.6681072635840282E+00 a       841     1     6     2    16
  1.3835680595858785E-01 a       842     1     6     2    17
 -3.5012925136335626E-01 a       843     1     6     2    18
  1.9633720586750441E+00 a       844     1     6     2    19
 -1.4796503909102587E+00 a       845     1     6     2    20
 -6.4789360119336670E-01 a       846     1     6     2    21
 -6.5072075183892641E-01 a       847     1     6     2    22
 -4.3629353961713119E-01 a       848     1     6     2    23
  1.1544830415475920E+00 a       849     1     6     2    24
  1.8378589286493296E-01 a       850     1     6     2    25
  7.4535655106071497E-01 a       851     1     7     2     1
 -3.6754581268073483E-01 a       852     1     7     2     2
  9.0605680125048138E-01 a       853     1     7     2     3
 -3.3123749100836747E-01 a       854     1     7     2     4
 -3.3841117808966870E-01 a       855     1     7     2     5
  1.5727923611362197E+01 a       856     1     7     2     6
 -3.1233560035157151E+00 a       857     1     7     2     7
  5.6029397153281639E+00 a       858     1     7     2     8
  1.6317371558060236E+00 a       859     1     7     2     9
 -4.6641487232494256E+00 a       860     1     7     2    10
 -4.0619577119991390E-01 a       861     1     7     2    11
  1.0056869057339798E+01 a       862     1     7     2    12
 -6.1558510209118067E-01 a       863     1     7     2    13
  2.2281012940058358E+00 a       864     1     7     2    14
 -1.2952757386568390E+00 a       865     1     7     2    15
 -2.0115306020704771E+00 a       866     1     7     2    16
 -1.1038000336355698E+00 a       867     1     7     2    17
 -1.2495111789839555E+00 a       868     1     7     2    18
 -1.8783533479433594E+00 a       869     1     7     2    19
 -1.0076413501448009E+00 a       870     1     7     2    20
 -2.3299329908757902E+00 a       871     1     7     2    21
  3.6803847884799130E+00 a       872     1     7     2    22
 -3.3671229224397172E+00 a       873     1     7     2    23
 -3.3440392387899780E+00 a       874     1     7     2    24
 -4.1023001585243657E+00 a       875     1     7     2    25
  3.7821354903306187E-01 a       876     1     8     2     1
 -1.2060591936392000E+00 a       877     1     8     2     2
  3.1809847597443963E-01 a       878     1     8     2     3
  2.1656762643550270E-01 a       879     1     8     2     4
  2.1821592215102267E-01 a       880     1     8     2     5
 -1.0487379802804575E+00 a       881     1     8     2     6
 -5.2955740263640139E-01 a       882     1     8     2     7
  4.5944972442122101E-01 a       883     1     8     2     8
  2.3102789882916586E+00 a       884     1     8     2     9
  1.4675584267845514E+00 a       885     1     8     2    10
 -7.6414260428167746E-01 a       886     1     8     2    11
 -2.9348489621640601E+00 a       887     1     8     2    12
  2.7520862008357994E+00 a       888     1     8     2    13
  9.2885825659478061E-01 a       889     1     8     2    14
  6.8877523693185860E-01 a       890     1     8     2    15
  6.8082284731694742E-01 a       891     1     8     2    16
  2.6890120786334375E+00 a       892     1     8     2    17
 -8.9430793832402000E-01 a       893     1     8     2    18
  1.5701306398289264E-01 a       894     1     8     2    19
 -6.9166147764378849E-01 a       895     1     8     2    20
  2.0718286995211108E+00 a       896     1     8     2    21
  1.1805321494402967E+00 a       897     1     8     2    22
  5.3820481717703195E-01 a       898     1     8     2    23
  3.3264747584716065E-01 a       899     1     8     2    24
  5.4785458173519863E-01 a       900     1     8     2    25
 -1.3193533888816064E-01 a       901     1     9     2     1
 -1.3137009846870551E+00 a       902     1     9     2     2
 -1.5070850448092072E+00 a       903     1     9     2     3
 -9.5048206557374226E-01 a       904     1     9     2     4
 -1.4160490729687907E+00 a       905     1     9     2     5
 -2.7068273452255780E+00 a       906     1     9     2     6
  9.1563049193012314E-01 a       907     1     9     2     7
 -3.4010946342942933E-01 a       908     1     9     2     8
  4.7061899505976079E+00 a       909     1     9     2     9
  2.7783599174230988E+00 a       910     1     9     2    10
 -2.9718700090077765E-01 a       911     1     9     2    11
 -3.0758854928459090E+00 a       912     1     9     2    12
  5.8251520836754462E+00 a       913     1     9     2    13
 -3.8519907652988150E-01 a       914     1     9     2    14
  6.4258020714386230E-02 a       915     1     9     2    15
  1.1301643164816408E+00 a       916     1     9     2    16
 -8.0306924777497066E+00 a       917     1     9     2    17
  9.1220977736055131E-01 a       918     1     9     2    18
  3.1536433949790386E+00 a       919     1     9     2    19
 -1.2631791357958657E+00 a       920     1     9     2    20
 -1.8308439040655686E-02 a       921     1     9     2    21
 -1.6745680907568212E+00 a       922     1     9     2    22
  2.7996795072623377E+00 a       923     1     9     2    23
  1.7503641543083333E+00 a       924     1     9     2    24
  2.0202640096443214E+00 a       925     1     9     2    25
  1.0687505223794755E+00 a       926     1    10     2     1
  1.6874818755658996E-01 a       927     1    10     2     2
 -5.0965805498434069E-01 a       928     1    10     2     3
  2.6877202048523829E-01 a       929     1    10     2     4
  3.1604841753227692E-01 a       930     1    10     2     5
  1.2440076214185773E+00 a       931     1    10     2     6
  1.0113190194872854E-01 a       932     1    10     2     7
 -1.4795552136225272E+00 a       933     1    10     2     8
 -1.7898105435597017E-01 a       934     1    10     2     9
  4.0408981792723453E-01 a       935     1    10     2    10
 -1.0331496849624824E+00 a       936     1    10     2    11
 -1.4142837245872768E+00 a       937     1    10     2    12
  1.3094268748106366E+00 a       938     1    10     2    13
  1.5278595723919324E+00 a       939     1    10     2    14
 -2.0318641330949150E-01 a       940     1    10     2    15
  1.8405465131108847E-01 a       941     1    10     2    16
 -2.1307636087334032E+00 a       942     1    10     2    17
 -3.7675229704226898E-01 a       943     1    10     2    18
 -1.7863631504994886E+00 a       944     1    10     2    19
 -1.1479449983743409E-01 a       945     1    10     2    20
  2.0723604066305243E-01 a       946     1    10     2    21
 -2.6599279485138339E-01 a       947     1    10     2    22
 -2.4863278490511934E-01 a       948     1    10     2    23
 -1.9176204236116783E+00 a       949     1    10     2    24
 -5.6842964792688792E-02 a       950     1    10     2    25
 -4.2288809459002341E-01 a       951     1    11     2     1
 -1.0011968097487136E+00 a       952     1    11     2     2
  9.4824865503463840E-01 a       953     1    11     2     3
 -3.9301607097558827E-01 a       954     1    11     2     4
 -2.8172849446488311E+00 a       955     1    11     2     5
  4.6583990563326978E-03 a       956     1    11     2     6
 -1.1181793936127089E+00 a       957     1    11     2     7
 -6.4183071830023275E-01 a       958     1    11     2     8
 -3.4164725330313086E+00 a       959     1    11     2     9
  2.1734925232720634E+00 a       960     1    11     2    10
 -2.9525854269821878E+00 a       961     1    11     2    11
  8.5729908153200416E+00 a       962     1    11     2    12
 -5.5411222920806633E+00 a       963     1    11     2    13
  3.6377038593906210E+00 a       964     1    11     2    14
 -2.6798269068843856E+00 a       965     1    11     2    15
  6.3252135071667537E-01 a       966     1    11     2    16
  7.1898441511644196E+00 a       967     1    11     2    17
  1.4977062901074174E+00 a       968     1    11     2    18
 -3.7174772980710112E-02 a       969     1    11     2    19
  1.3436170099543399E+00 a       970     1    11     2    20
  5.0664743906915632E-01 a       971     1    11     2    21
 -4.4181766860799349E-01 a       972     1    11     2    22
  3.5824878685227501E-01 a       973     1    11     2    23
 -1.0918506003832544E+00 a       974     1    11     2    24
 -3.4020947149542908E+00 a       975     1    11     2    25
  1.1940353375906663E+00 a       976     1    12     2     1
 -1.4930725803795333E+00 a       977     1    12     2     2
  3.6385352950930825E+00 a       978     1    12     2     3
 -1.8812314533111767E+00 a       979     1    12     2     4
 -1.2262495453617923E+00 a       980     1    12     2     5
 -1.5519471775619551E+00 a       981     1    12     2     6
 -1.4463966300365170E+00 a       982     1    12     2     7
  6.0879719506298127E-02 a       983     1    12     2     8
  6.0208653775758258E-01 a       984     1    12     2     9
 -1.6642335961834076E+00 a       985     1    12     2    10
 -1.7588989797501318E+00 a       986     1    12     2    11
 -2.4970990732241205E+00 a       987     1    12     2    12
 -7.8933931798628021E-01 a       988     1    12     2    13
 -6.1298868358322756E-01 a       989     1    12     2    14
 -3.4013305871892502E-01 a       990     1    12     2    15
 -1.7144972918470223E+00 a       991     1    12     2    16
 -1.9369568001156806E-01 a       992     1    12     2    17
 -1.0360018478976818E-01 a       993     1    12     2    18
  6.4128543036978047E-01 a       994     1    12     2    19
 -7.3111203805242131E-01 a       995     1    12     2    20
  1.4049006426420609E+00 a       996     1    12     2    21
  2.4869393444737908E+00 a       997     1    12     2    22
  1.5577206426835991E-01 a       998     1    12     2    23
 -6.5161784809997462E-03 a       999     1    12     2    24
  3.5250745299340536E-01 a      1000     1    12     2    25
 -1.6333613397226290E+00 a      1001     1    13     2     1
  1.3538913256619134E-01 a      1002     1    13     2     2
 -2.0229766372456455E+00 a      1003     1    13     2     3
 -2.9966421545387099E+00 a      1004     1    13     2     4
  1.7408387787432122E+00 a      1005     1    13     2     5
  3.2572358654149647E-01 a      1006     1    13     2     6
  3.8274124370299570E-03 a      1007     1    13     2     7
  9.6731556648978712E-01 a      1008     1    13     2     8
 -2.5741281693451041E+00 a      1009     1    13     2     9
  1.6747542003693834E+00 a      1010     1    13     2    10
  4.7552377040178495E+00 a      1011     1    13     2    11
  4.7860983080681097E+00 a      1012     1    13     2    12
 -5.2103264143733643E+00 a      1013     1    13     2    13
  1.6768870841608674E+00 a      1014     1    13     2    14
 -2.4657101298860762E+00 a      1015     1    13     2    15
 -5.0899749608825529E+00 a      1016     1    13     2    16
 -2.7059961256084759E+00 a      1017     1    13     2    17
  2.1854735372962857E+00 a      1018     1    13     2    18
  3.3181462427143580E+00 a      1019     1    13     2    19
  1.1701113159867309E+00 a      1020     1    13     2    20
 -2.8004013053056669E+00 a      1021     1    13     2    21
 -1.9705732744492859E+00 a      1022     1    13     2    22
 -1.2048518920854236E+00 a      1023     1    13     2    23
 -8.5593998889984624E-01 a      1024     1    13     2    24
 -1.0625004805038945E+00 a      1025     1    13     2    25
  1.1626012034362263E+00 a      1026     1    14     2     1
  2.9198199444619355E-01 a      1027     1    14     2     2
  7.2172002416728098E-01 a      1028     1    14     2     3
 -1.6298409558415363E+00 a      1029     1    14     2     4
  4.9767837757638700E-01 a      1030     1    14     2     5
  1.6688510483319940E+00 a      1031     1    14     2     6
 -5.0225028286712470E-01 a      1032     1    14     2     7
  1.4938866430076141E+00 a      1033     1    14     2     8
 -1.9685026315852208E+00 a      1034     1    14     2     9
 -4.1460696726471093E+00 a      1035     1    14     2    10
  1.5304508699218353E+00 a      1036     1    14     2    11
 -3.3288223491253448E+00 a      1037     1    14     2    12
  4.2875728667202981E+00 a      1038     1    14     2    13
 -2.6637619220997117E+00 a      1039     1    14     2    14
  2.3191247272888882E+00 a      1040     1    14     2    15
 -1.7235412632372398E+00 a      1041     1    14     2    16
 -7.9755681287951907E-01 a      1042     1    14     2    17
 -1.7502627018467094E+00 a      1043     1    14     2    18
  7.6245966628900397E-01 a      1044     1    14     2    19
 -2.8250223893376720E+00 a      1045     1    14     2    20
 -2.2988677304950049E+00 a      1046     1    14     2    21
  1.8767176216178869E+00 a      1047     1    14     2    22
 -6.7930356995157459E-01 a      1048     1    14     2    23
 -1.2437184490806230E+00 a      1049     1    14     2    24
  4.6636602574196617E-01 a      1050     1    14     2    25
  1.8618379301422667E+00 a      1051     1    15     2     1
  1.6647016475463308E+00 a      1052     1    15     2     2
  1.4118352193315886E+00 a      1053     1    15     2     3
  2.2492557196749011E-01 a      1054     1    15     2     4
 -1.2912264121780798E-01 a      1055     1    15     2     5
  4.4170502496946018E-01 a      1056     1    15     2     6
  1.3551403862567231E+00 a      1057     1    15     2     7
 -7.4625239843294264E-02 a      1058     1    15     2     8
 -2.4024525013636278E+00 a      1059     1    15     2     9
  1.8453334632344058E+00 a      1060     1    15     2    10
 -1.4027389034408078E+00 a      1061     1    15     2    11
 -9.4459312669472384E-01 a      1062     1    15     2    12
 -1.2395110765764206E+00 a      1063     1    15     2    13
  2.9242547674397004E-02 a      1064     1    15     2    14
  1.0566633612527909E+00 a      1065     1    15     2    15
 -9.8917015278329512E-01 a      1066     1    15     2    16
 -1.3073280036578352E+00 a      1067     1    15     2    17
  5.0254789804125988E-01 a      1068     1    15     2    18
 -1.5308200321967140E+00 a      1069     1    15     2    19
 -5.3826536684243989E-02 a      1070     1    15     2    20
 -4.3490989578993461E-01 a      1071     1    15     2    21
  9.2719234051469213E-01 a      1072     1    15     2    22
 -9.9302042719203221E-01 a      1073     1    15     2    23
 -2.0713784122201603E-01 a      1074     1    15     2    24
 -1.1449124129117736E+00 a      1075     1    15     2    25
  5.5553714356747719E+00 a      1076     1    16     2     1
 -4.1570119733652486E+00 a      1077     1    16     2     2
  4.8572694380702580E-01 a      1078     1    16     2     3
 -2.8159347618651855E+00 a      1079     1    16     2     4
  1.2887786387611229E+00 a      1080     1    16     2     5
  6.1756337168286057E+00 a      1081     1    16     2     6
  2.2533606871141028E+00 a      1082     1    16     2     7
 -4.2728713643699079E+00 a      1083     1    16     2     8
  5.7598471063997776E+00 a      1084     1    16     2     9
 -1.7614852381535642E+00 a      1085     1    16     2    10
 -3.4774563318913949E+00 a      1086     1    16     2    11
 -1.0076398700267251E+01 a      1087     1    16     2    12
 -7.1382309468375738E-01 a      1088     1    16     2    13
 -3.0896737986119263E+00 a      1089     1    16     2    14
  7.3640201674491290E-01 a      1090     1    16     2    15
  1.6858193169262587E+00 a      1091     1    16     2    16
  1.7832544705004205E+00 a      1092     1    16     2    17
  1.0699275886537345E+01 a      1093     1    16     2    18
  1.1582087426850967E+01 a      1094     1    16     2    19
 -7.2435805179942694E+00 a      1095     1    16     2    20
 -4.6960230806829992E+00 a      1096     1    16     2    21
  4.6684134094697392E+00 a      1097     1    16     2    22
  8.0810982675724450E+00 a      1098     1    16     2    23
 -8.4735062419009104E+00 a      1099     1    16     2    24
 -2.6396052511757757E+00 a      1100     1    16     2    25
 -6.7331209412787318E-01 a      1101     1    17     2     1
  1.1665487554054190E+00 a      1102     1    17     2     2
  2.0489540201194409E+00 a      1103     1    17     2     3
  5.8581425056433094E-02 a      1104     1    17     2     4
  1.4956114554425224E+00 a      1105     1    17     2     5
 -9.7704661507334478E+00 a      1106     1    17     2     6
  9.5501823366001626E-01 a      1107     1    17     2     7
  3.3116916523807755E-01 a      1108     1    17     2     8
 -9.3639363392784369E-01 a      1109     1    17     2     9
  3.0939013839652949E+00 a      1110     1    17     2    10
 -4.3791002415748786E-01 a      1111     1    17     2    11
  7.1582186877072307E-01 a      1112     1    17     2    12
  2.2356403384942163E+00 a      1113     1    17     2    13
  1.3663916967090306E+00 a      1114     1    17     2    14
  1.0311537374759003E+00 a      1115     1    17     2    15
 -6.9019409059714965E-01 a      1116     1    17     2    16
 -4.2957641551821268E+00 a      1117     1    17     2    17
 -4.2431089875326317E-01 a      1118     1    17     2    18
  9.5024020128441689E-01 a      1119     1    17     2    19
 -6.5942274421968661E-01 a      1120     1    17     2    20
 -4.9073833055178886E-02 a      1121     1    17     2    21
 -1.8461619952116415E+00 a      1122     1    17     2    22
 -6.8361888086360489E-01 a      1123     1    17     2    23
  2.6403637382993206E+00 a      1124     1    17     2    24
 -1.6153213032721936E-01 a      1125     1    17     2    25
  1.3892290047419471E+00 a      1126     1    18     2     1
 -2.0197546280720444E-01 a      1127     1    18     2     2
 -2.2608546762307899E-01 a      1128     1    18     2     3
  3.3311561664009948E-01 a      1129     1    18     2     4
  6.4508733413116826E-01 a      1130     1    18     2     5
  1.5018231760941247E+00 a      1131     1    18     2     6
  5.0614308699497745E-01 a      1132     1    18     2     7
  2.8518721301224564E-01 a      1133     1    18     2     8
 -1.2272254396103034E-01 a      1134     1    18     2     9
 -1.5386190435707228E+00 a      1135     1    18     2    10
  9.2825905597763803E-01 a      1136     1    18     2    11
 -2.0320178001214200E+00 a      1137     1    18     2    12
  6.2784866048366341E+00 a      1138     1    18     2    13
  7.2538765397107052E-01 a      1139     1    18     2    14
 -3.4292100470539105E-01 a      1140     1    18     2    15
  3.6737565562458258E-01 a      1141     1    18     2    16
  9.4675276420063015E-01 a      1142     1    18     2    17
 -5.7330688426709597E-01 a      1143     1    18     2    18
 -2.1851712520949120E+00 a      1144     1    18     2    19
 -4.4846262504307971E-01 a      1145     1    18     2    20
 -6.5767661865973015E-01 a      1146     1    18     2    21
  3.5627671425168761E-01 a      1147     1    18     2    22
 -6.6653644757944898E-03 a      1148     1    18     2    23
 -9.6108105451148862E-01 a      1149     1    18     2    24
 -1.5534580204180821E+00 a      1150     1    18     2    25
  2.4672962547236934E+00 a      1151     1    19     2     1
 -4.1504009074519826E-01 a      1152     1    19     2     2
  2.2659554348652775E+00 a      1153     1    19     2     3
 -2.8352722573147942E+00 a      1154     1    19     2     4
 -6.2684611860842754E-01 a      1155     1    19     2     5
 -1.2538913179605469E+00 a      1156     1    19     2     6
 -3.1696349345739061E+00 a      1157     1    19     2     7
  1.3616550742132483E+00 a      1158     1    19     2     8
  7.5603517273468357E-01 a      1159     1    19     2     9
 -2.0004371404514369E+00 a      1160     1    19     2    10
  1.1818317082331955E+00 a      1161     1    19     2    11
 -1.4788927160614065E+00 a      1162     1    19     2    12
  1.5805609189799588E+00 a      1163     1    19     2    13
  1.6176574221657565E+00 a      1164     1    19     2    14
  3.3411860672985394E-01 a      1165     1    19     2    15
 -1.6098156845151181E+00 a      1166     1    19     2    16
 -3.3760494565633103E+00 a      1167     1    19     2    17
 -1.6454095845589983E-01 a      1168     1    19     2    18
  5.5598585929486033E-01 a      1169     1    19     2    19
 -1.4051733014534029E+00 a      1170     1    19     2    20
 -2.0798344860765536E+00 a      1171     1    19     2    21
  9.8279907253244270E-01 a      1172     1    19     2    22
  5.2388890130941768E-01 a      1173     1    19     2    23
 -5.7952372262829199E-01 a      1174     1    19     2    24
  9.6812903403917061E-01 a      1175     1    19     2    25
  1.0708333457253900E+00 a      1176     1    20     2     1
  7.8892757007132441E-01 a      1177     1    20     2     2
 -1.0339088985985867E+00 a      1178     1    20     2     3
  4.7665248477321903E-01 a      1179     1    20     2     4
 -4.8586138046946459E-01 a      1180     1    20     2     5
 -2.4149035131105428E-02 a      1181     1    20     2     6
  3.8861301868370518E-01 a      1182     1    20     2     7
 -4.3245922917124457E-01 a      1183     1    20     2     8
  4.9154513168920680E-02 a      1184     1    20     2     9
  1.5610253686992848E+00 a      1185     1    20     2    10
 -7.1108715235056208E-01 a      1186     1    20     2    11
  8.2896797505956438E-02 a      1187     1    20     2    12
  3.2460979042314575E+00 a      1188     1    20     2    13
 -3.8093556950748125E-01 a      1189     1    20     2    14
 -7.1185348523837455E-02 a      1190     1    20     2    15
  7.1484742521291256E-01 a      1191     1    20     2    16
  6.6214708098391273E-01 a      1192     1    20     2    17
 -3.1524851175467428E-01 a      1193     1    20     2    18
 -6.5629688718134083E-01 a      1194     1    20     2    19
 -4.4596823079040837E-01 a      1195     1    20     2    20
 -3.6765043133110809E-01 a      1196     1    20     2    21
  1.7550538803292219E+00 a      1197     1    20     2    22
  3.3256758088537969E-01 a      1198     1    20     2    23
 -1.1493456085478437E-01 a      1199     1    20     2    24
  2.5718628561682461E-01 a      1200     1    20     2    25
 -1.6042978423947787E-03 a      1201     1    21     2     1
  4.8266553068563881E-02 a      1202     1    21     2     2
  3.2811229804179622E+00 a      1203     1    21     2     3
  1.1497137819449053E+00 a      1204     1    21     2     4
  1.5028374046509909E+00 a      1205     1    21     2     5
  1.5207908857723864E+00 a      1206     1    21     2     6
 -1.6858287223980178E-01 a      1207     1    21     2     7
  1.6003009774873058E+00 a      1208     1    21     2     8
 -2.0610570294196262E+00 a      1209     1    21     2     9
  3.0295188631158726E-01 a      1210     1    21     2    10
 -1.8557776776009207E+00 a      1211     1    21     2    11
  4.0117379700271121E+00 a      1212     1    21     2    12
  7.5567805255492515E-01 a      1213     1    21     2    13
 -5.2449876157486974E+00 a      1214     1    21     2    14
  3.5952745816526788E-01 a      1215     1    21     2    15
  1.6521155140146835E+00 a      1216     1    21     2    16
  3.6843223537767193E+00 a      1217     1    21     2    17
 -7.1515711890678557E-01 a      1218     1    21     2    18
 -2.2704944084786876E+00 a      1219     1    21     2    19
  1.1201289700459147E+00 a      1220     1    21     2    20
  1.3212971246578633E+00 a      1221     1    21     2    21
 -1.1253975188095902E+00 a      1222     1    21     2    22
 -3.5310831684010968E-01 a      1223     1    21     2    23
 -3.1425700414732263E+00 a      1224     1    21     2    24
 -1.3636984953556153E+00 a      1225     1    21     2    25
 -8.7710554514625094E-01 a      1226     1    22     2     1
  2.7311383476951251E-01 a      1227     1    22     2     2
 -2.3704314265836732E-02 a      1228     1    22     2     3
 -8.7185731477530712E-02 a      1229     1    22     2     4
 -2.4545839503958700E-01 a      1230     1    22     2     5
 -7.9616525504005531E-01 a      1231     1    22     2     6
  9.7546692588910355E-01 a      1232     1    22     2     7
  4.7320391695066938E-01 a      1233     1    22     2     8
 -1.5953857375473064E+00 a      1234     1    22     2     9
 -9.3494902127974100E-01 a      1235     1    22     2    10
 -2.9667634294936196E-01 a      1236     1    22     2    11
 -2.0063982411223336E+00 a      1237     1    22     2    12
 -1.1270778938442039E+00 a      1238     1    22     2    13
  3.4272780537795444E-01 a      1239     1    22     2    14
  3.6222165843826920E-01 a      1240     1    22     2    15
 -7.1576232677123908E-01 a      1241     1    22     2    16
  4.5262963305310313E+00 a      1242     1    22     2    17
 -1.1498386731070342E+00 a      1243     1    22     2    18
  6.8132679573369026E-01 a      1244     1    22     2    19
 -1.0605733220978326E+00 a      1245     1    22     2    20
  8.7098842922526321E-01 a      1246     1    22     2    21
 -2.7105099768510682E-01 a      1247     1    22     2    22
 -5.5219302755510469E-01 a      1248     1    22     2    23
  1.9823865284254044E-01 a      1249     1    22     2    24
  1.1270254157051645E+00 a      1250     1    22     2    25
  4.9608958434592330E+00 a      1251     1    23     2     1
  3.4691926078614035E+00 a      1252     1    23     2     2
  6.3029284455989689E+00 a      1253     1    23     2     3
  4.1581345498158635E+00 a      1254     1    23     2     4
  3.1067123900455855E+00 a      1255     1    23     2     5
  1.2164272132704966E+01 a      1256     1    23     2     6
  5.0460948276116602E-01 a      1257     1    23     2     7
  5.2007652231479362E-01 a      1258     1    23     2     8
 -1.6216431554101025E+00 a      1259     1    23     2     9
  5.3810685704116068E+00 a      1260     1    23     2    10
 -5.2984195032486197E+00 a      1261     1    23     2    11
  4.7868477865430537E+00 a      1262     1    23     2    12
 -4.4740547260859492E-01 a      1263     1    23     2    13
 -2.1293230331598494E+00 a      1264     1    23     2    14
 -1.5622564439197466E+00 a      1265     1    23     2    15
 -3.3600737178406690E+00 a      1266     1    23     2    16
  6.8290023101424415E+00 a      1267     1    23     2    17
  3.0089795934810262E+00 a      1268     1    23     2    18
 -4.9587457431269524E+00 a      1269     1    23     2    19
 -3.6061221383657669E+00 a      1270     1    23     2    20
  5.8123798540162885E-01 a      1271     1    23     2    21
  7.9677054978006101E+00 a      1272     1    23     2    22
 -5.0395648465343132E+00 a      1273     1    23     2    23
  2.1299846070633470E+00 a      1274     1    23     2    24
 -4.8625546528109584E+00 a      1275     1    23     2    25
 -1.4209190309844273E+00 a      1276     1    24     2     1
 -2.2936564648981048E+00 a      1277     1    24     2     2
  2.8583246731766820E-01 a      1278     1    24     2     3
  4.1511943537978296E-01 a      1279     1    24     2     4
  6.8178991052754601E-01 a      1280     1    24     2     5
 -5.6621489503061206E-01 a      1281     1    24     2     6
 -1.5955662998807660E+00 a      1282     1    24     2     7
  4.4020923486327723E-01 a      1283     1    24     2     8
 -3.7812170788910779E+00 a      1284     1    24     2     9
 -2.0532094523220090E+00 a      1285     1    24     2    10
  9.7472201214190216E-03 a      1286     1    24     2    11
 -2.0853288749135515E+00 a      1287     1    24     2    12
  3.7707238186645533E+00 a      1288     1    24     2    13
 -2.1707567913783525E+00 a      1289     1    24     2    14
  9.2848876079868851E-03 a      1290     1    24     2    15
  5.9028013695908554E-01 a      1291     1    24     2    16
 -1.4250157518251412E+00 a      1292     1    24     2    17
 -5.7934576002967375E-01 a      1293     1    24     2    18
  7.4880581155634263E-01 a      1294     1    24     2    19
  1.0150248018476737E+00 a      1295     1    24     2    20
 -4.4156750421429780E-01 a      1296     1    24     2    21
 -1.5993627139191711E+00 a      1297     1    24     2    22
  5.2840655757899790E-01 a      1298     1    24     2    23
  3.6732041996345632E+00 a      1299     1    24     2    24
  1.1615467145359546E+00 a      1300     1    24     2    25
  9.9624307364185027E-01 a      1301     1    25     2     1
 -2.3010398959022553E+00 a      1302     1    25     2     2
 -5.3444654841938544E-01 a      1303     1    25     2     3
 -4.0781851845454492E-01 a      1304     1    25     2     4
  5.1911691380196934E-01 a      1305     1    25     2     5
 -1.6301262027820280E+00 a      1306     1    25     2     6
 -4.5746475699996425E-01 a      1307     1    25     2     7
  5.5231763564477655E-02 a      1308     1    25     2     8
 -1.7560279594281538E+00 a      1309     1    25     2     9
 -1.5249233396618507E+00 a      1310     1    25     2    10
  2.9397306048266691E+00 a      1311     1    25     2    11
 -2.7020738380247660E+00 a      1312     1    25     2    12
  5.0480563678449852E-01 a      1313     1    25     2    13
  8.7926921471936870E-01 a      1314     1    25     2    14
 -1.2629253583695960E-01 a      1315     1    25     2    15
  6.2881776469368311E-01 a      1316     1    25     2    16
 -1.0461624480778768E+00 a      1317     1    25     2    17
 -1.0765035693300686E+00 a      1318     1    25     2    18
 -7.9019713519466972E-01 a      1319     1    25     2    19
 -1.9614042526858495E+00 a      1320     1    25     2    20
 -1.0352703338825868E+00 a      1321     1    25     2    21
 -1.4569420465304257E+00 a      1322     1    25     2    22
  9.3229344473621867E-01 a      1323     1    25     2    23
 -1.9320202574538108E+00 a      1324     1    25     2    24
  8.9943245404556005E-01 a      1325     1    25     2    25
 -1.3648119317392495E+00 b      1326     2     1
 -4.8691540009107470E+00 b      1327     2     2
 -1.2164481434492380E+01 b      1328     2     3
 -6.2966350972937262E+00 b      1329     2     4
 -4.2141906790057876E-01 b      1330     2     5
 -7.3398626248024676E+00 b      1331     2     6
  9.4782992023628040E-02 b      1332     2     7
 -5.6535707858252691E+00 b      1333     2     8
  2.5979582754893609E+00 b      1334     2     9
 -2.3882793768716102E+00 b      1335     2    10
  3.4057083528742038E+00 b      1336     2    11
 -7.7693615428657674E+00 b      1337     2    12
  6.0776219174611779E+00 b      1338     2    13
  1.7306681085336459E+00 b      1339     2    14
  1.0090126788116189E+00 b      1340     2    15
  5.8026992217489037E-01 b      1341     2    16
  1.6837379722552399E+00 b      1342     2    17
  1.0916271578342650E+01 b      1343     2    18
  1.5744342123053599E+01 b      1344     2    19
 -2.7194525475482867E-01 b      1345     2    20
 -5.0026501541485082E+00 b      1346     2    21
 -4.3841335351505046E+00 b      1347     2    22
  1.2863358796606882E+01 b      1348     2    23
  1.4624602589772191E+00 b      1349     2    24
  3.6886126779532096E+00 b      1350     2    25
 -1.3398521282038853E+00 a      1351     2     1     3     1
  1.8504533605976041E+00 a      1352     2     2     3     1
  1.6634866131127715E+00 a      1353     2     3     3     1
 -2.6002804625053910E+00 a      1354     2     4     3     1
  1.4517888049407845E+00 a      1355     2     5     3     1
  1.1360552869696672E+00 a      1356     2     6     3     1
 -1.3782802006180213E+00 a      1357     2     7     3     1
  1.5242508388752307E+00 a      1358     2     8     3     1
  9.9548885260923503E-01 a      1359     2     9     3     1
 -1.1252580918200930E-01 a      1360     2    10     3     1
  1.0749558293475479E+00 a      1361     2    11     3     1
  3.6725219157056727E-01 a      1362     2    12     3     1
 -8.2963159579127066E-01 a      1363     2    13     3     1
  2.1643364687597693E+00 a      1364     2    14     3     1
 -4.9704382096539019E+00 a      1365     2    15     3     1
 -1.9025051249342759E+00 a      1366     2    16     3     1
  7.1128454833627446E+00 a      1367     2    17     3     1
  1.4974201102103069E+00 a      1368     2    18     3     1
  1.3573816510864674E+00 a      1369     2    19     3     1
  1.1096714148200653E+00 a      1370     2    20     3     1
 -9.9556996333800041E-01 a      1371     2    21     3     1
 -1.5132553068472607E+00 a      1372     2    22     3     1
 -1.8458256189059212E+00 a      1373     2    23     3     1
  1.6481275394566129E+01 a      1374     2    24     3     1
 -1.6907352704251524E+00 a      1375     2    25     3     1
  6.2723402765711223E+00 b      1376     3     1
