################################################################################
# Neural network connection values (weights and biases).
################################################################################
# Col  Name       Description
################################################################################
# 1    connection Neural network connection value.
# 2    t          Connection type (a = weight, b = bias).
# 3    index      Index enumerating weights.
# 4    l_s        Starting point layer (end point layer for biases).
# 5    n_s        Starting point neuron in starting layer (end point neuron for biases).
# 6    l_e        End point layer.
# 7    n_e        End point neuron in end layer.
################################################################################
#                      1 2         3     4     5     6     7
#             connection t     index   l_s   n_s   l_e   n_e
############################################################
  8.0735906881528685E-01 a         1     0     1     1     1
  9.5152809695625749E+00 a         2     0     1     1     2
 -1.8673124920353958E+00 a         3     0     1     1     3
 -1.4921150418025073E+00 a         4     0     1     1     4
 -3.9945968342532328E+00 a         5     0     1     1     5
 -1.1074416181070816E+00 a         6     0     1     1     6
 -8.4736745825384985E-02 a         7     0     1     1     7
 -5.4341512156727241E+00 a         8     0     1     1     8
 -5.8213802300166471E+00 a         9     0     1     1     9
 -9.3232864143428140E-01 a        10     0     1     1    10
  9.4051464983096933E-01 a        11     0     1     1    11
  1.7642780626237231E-01 a        12     0     1     1    12
  9.7517986791610696E+00 a        13     0     1     1    13
  2.9539158665066676E+00 a        14     0     1     1    14
  1.7093810383384478E+00 a        15     0     1     1    15
  1.0154996294394310E+01 a        16     0     1     1    16
 -7.2127681789139253E-02 a        17     0     1     1    17
 -2.0614106967055527E+01 a        18     0     1     1    18
 -3.2730937942834100E+00 a        19     0     1     1    19
  7.3574486307124261E+00 a        20     0     1     1    20
 -1.2573336324711589E+01 a        21     0     1     1    21
  1.5435999352108219E+01 a        22     0     1     1    22
 -6.4337000760669802E+00 a        23     0     1     1    23
  9.8401692918660355E-01 a        24     0     1     1    24
  1.3728144317426196E+01 a        25     0     1     1    25
  9.3235651745059460E+00 a        26     0     2     1     1
 -1.1173231687357539E+01 a        27     0     2     1     2
 -9.8812206162685108E+00 a        28     0     2     1     3
 -2.1144173918158575E+00 a        29     0     2     1     4
 -5.8439234346474258E+00 a        30     0     2     1     5
 -3.8094157459603570E+00 a        31     0     2     1     6
 -1.8789263517845893E+00 a        32     0     2     1     7
  1.0916511830458633E+01 a        33     0     2     1     8
  5.7408247251013584E+00 a        34     0     2     1     9
  1.4841706445847695E+00 a        35     0     2     1    10
  1.0725175452473208E+00 a        36     0     2     1    11
 -5.6356071594702666E+00 a        37     0     2     1    12
 -6.1544435998554308E+00 a        38     0     2     1    13
  9.8440149431915867E+00 a        39     0     2     1    14
  3.2101910062143904E+00 a        40     0     2     1    15
 -2.0314943775166537E+01 a        41     0     2     1    16
 -2.7905934417491189E+00 a        42     0     2     1    17
  1.4609651154582657E+01 a        43     0     2     1    18
 -7.6025215250238460E+00 a        44     0     2     1    19
 -1.0434617416238824E+01 a        45     0     2     1    20
  1.2113229768819849E+01 a        46     0     2     1    21
 -2.5328701403817806E+01 a        47     0     2     1    22
  3.9748950152231033E+00 a        48     0     2     1    23
 -8.0530416565592038E+00 a        49     0     2     1    24
 -3.0837476019765631E+01 a        50     0     2     1    25
 -6.3004850759284858E+00 a        51     0     3     1     1
 -1.4592518744332171E+01 a        52     0     3     1     2
  7.8472974691668780E+00 a        53     0     3     1     3
  2.8446409920117994E+00 a        54     0     3     1     4
  8.9933758722110753E+00 a        55     0     3     1     5
  1.1180640068932336E+01 a        56     0     3     1     6
 -7.4760469057012244E+00 a        57     0     3     1     7
  3.2348653773131124E+00 a        58     0     3     1     8
  7.7876246830509936E+00 a        59     0     3     1     9
 -1.9768891841411238E+00 a        60     0     3     1    10
 -7.8530665145333831E+00 a        61     0     3     1    11
  3.6321905549719040E+00 a        62     0     3     1    12
 -1.1131860825780580E+01 a        63     0     3     1    13
 -5.9100637776527076E+00 a        64     0     3     1    14
  4.4540041182763321E+00 a        65     0     3     1    15
 -6.6273625192400187E+00 a        66     0     3     1    16
 -8.4597690419097005E-01 a        67     0     3     1    17
  2.8940856451484706E+01 a        68     0     3     1    18
  1.3623860998519875E+01 a        69     0     3     1    19
 -5.5434330054787910E+00 a        70     0     3     1    20
  1.3768140492902699E+01 a        71     0     3     1    21
 -1.8825381808396752E+01 a        72     0     3     1    22
 -2.7226015700575328E+00 a        73     0     3     1    23
  5.1892837917439660E-01 a        74     0     3     1    24
 -1.3292714352526650E+01 a        75     0     3     1    25
 -2.3684232693654632E+01 a        76     0     4     1     1
  1.5513542956783787E+01 a        77     0     4     1     2
  1.3155869609952108E+01 a        78     0     4     1     3
  3.3152040060593038E+00 a        79     0     4     1     4
  9.0839537674798461E+00 a        80     0     4     1     5
 -4.7896137926880007E+00 a        81     0     4     1     6
  9.5617567463057416E+00 a        82     0     4     1     7
 -1.3370636647779907E+01 a        83     0     4     1     8
 -1.4655438185023762E+01 a        84     0     4     1     9
 -2.8818340268554787E+00 a        85     0     4     1    10
  6.0906272197310853E+00 a        86     0     4     1    11
  1.7434164967715517E+01 a        87     0     4     1    12
  1.1496487312244236E+01 a        88     0     4     1    13
 -2.0172432446312296E+01 a        89     0     4     1    14
 -1.9396245487292489E+01 a        90     0     4     1    15
  3.0122579528388698E+01 a        91     0     4     1    16
  1.4147986381371080E+01 a        92     0     4     1    17
 -1.9005933781504464E+01 a        93     0     4     1    18
  7.3880250783653691E+00 a        94     0     4     1    19
  1.4804791059011473E+01 a        95     0     4     1    20
 -1.5295025955186183E+01 a        96     0     4     1    21
  4.0819695099666532E+01 a        97     0     4     1    22
  1.6992436563526425E+00 a        98     0     4     1    23
  1.4782519477688323E+01 a        99     0     4     1    24
  4.6419010107178700E+01 a       100     0     4     1    25
  2.8375450425068081E+01 a       101     0     5     1     1
  1.3196877859642601E+01 a       102     0     5     1     2
 -3.1039259532317387E+00 a       103     0     5     1     3
  8.3960603397321185E-02 a       104     0     5     1     4
 -7.1684573449759403E+00 a       105     0     5     1     5
 -9.2728636324910685E+00 a       106     0     5     1     6
  1.1325545068568738E+01 a       107     0     5     1     7
  9.2032721447688086E+00 a       108     0     5     1     8
 -4.9316403768524033E+00 a       109     0     5     1     9
  5.9353460008015668E+00 a       110     0     5     1    10
  4.8348045127363592E+00 a       111     0     5     1    11
 -1.4692803180103558E+01 a       112     0     5     1    12
 -5.0989418583315569E+00 a       113     0     5     1    13
  1.0293849722529153E+01 a       114     0     5     1    14
  3.5623631302239227E+00 a       115     0     5     1    15
 -4.8485281546769636E+00 a       116     0     5     1    16
 -4.9319938516646111E-01 a       117     0     5     1    17
 -1.0022165776192727E+01 a       118     0     5     1    18
 -1.9588201754499373E+01 a       119     0     5     1    19
 -3.0257025941370248E+00 a       120     0     5     1    20
  1.9435635236913080E+00 a       121     0     5     1    21
  5.0813515353050542E+00 a       122     0     5     1    22
  1.3420641223795544E+01 a       123     0     5     1    23
 -3.3038534117906728E+00 a       124     0     5     1    24
  7.3648692245925762E+00 a       125     0     5     1    25
  1.8299082765931441E+01 a       126     0     6     1     1
 -6.2413317625018587E+00 a       127     0     6     1     2
 -9.3758301862726423E+00 a       128     0     6     1     3
 -4.0323093104731447E+00 a       129     0     6     1     4
 -9.8994357265392097E+00 a       130     0     6     1     5
  9.5964317465424802E+00 a       131     0     6     1     6
 -1.6416511047746500E+01 a       132     0     6     1     7
 -2.8699641575973152E+00 a       133     0     6     1     8
  2.1715229094153198E+01 a       134     0     6     1     9
  7.2083297336664112E+00 a       135     0     6     1    10
 -8.2746892004023582E+00 a       136     0     6     1    11
 -2.5313758147300216E+01 a       137     0     6     1    12
 -1.2376396322779533E+01 a       138     0     6     1    13
  1.5475479015753587E+01 a       139     0     6     1    14
  1.6925183811586997E+01 a       140     0     6     1    15
 -1.4604119566428860E+01 a       141     0     6     1    16
 -2.5086895546957461E+01 a       142     0     6     1    17
 -2.1205146643685451E+00 a       143     0     6     1    18
  4.7802678267519330E+00 a       144     0     6     1    19
 -6.3765721217590281E+00 a       145     0     6     1    20
  4.1956254717268742E+00 a       146     0     6     1    21
 -2.7183767414748576E+01 a       147     0     6     1    22
 -1.3041727170500076E+01 a       148     0     6     1    23
 -1.2305340768841736E+01 a       149     0     6     1    24
 -3.7803326268383131E+01 a       150     0     6     1    25
 -3.3941346704391165E+01 a       151     0     7     1     1
 -2.0756851802373696E+01 a       152     0     7     1     2
 -6.1453344368819556E+00 a       153     0     7     1     3
 -2.5451778884565761E+00 a       154     0     7     1     4
  7.1890030388065549E+00 a       155     0     7     1     5
  5.5465514049238562E+00 a       156     0     7     1     6
 -1.6856352138932222E+00 a       157     0     7     1     7
 -7.2447569891625037E+00 a       158     0     7     1     8
  1.3016573988578428E+00 a       159     0     7     1     9
 -8.9026286468279601E+00 a       160     0     7     1    10
 -1.2055998342253091E+00 a       161     0     7     1    11
  2.0358822734944070E+01 a       162     0     7     1    12
  1.5281639113723804E+01 a       163     0     7     1    13
 -5.4047346263930898E+00 a       164     0     7     1    14
 -7.2980237623109847E+00 a       165     0     7     1    15
 -2.0687094683283966E+00 a       166     0     7     1    16
 -1.4320006915408907E+00 a       167     0     7     1    17
 -8.4676836037688208E-01 a       168     0     7     1    18
  1.7719831931254419E+01 a       169     0     7     1    19
  9.0000930400548373E+00 a       170     0     7     1    20
 -1.5904446038567331E+01 a       171     0     7     1    21
  5.3784862240439502E+00 a       172     0     7     1    22
  9.5882646284740325E-01 a       173     0     7     1    23
  7.2473126063476077E+00 a       174     0     7     1    24
 -3.7936125558427333E-02 a       175     0     7     1    25
 -1.5713038748971695E+01 a       176     0     8     1     1
  6.0939323004633730E+00 a       177     0     8     1     2
  4.6488802566848246E+00 a       178     0     8     1     3
  3.8305093778688035E+00 a       179     0     8     1     4
  6.9253159571729466E+00 a       180     0     8     1     5
 -1.0896412390504892E+01 a       181     0     8     1     6
  1.3944166014192875E+01 a       182     0     8     1     7
  4.6369234403293698E+00 a       183     0     8     1     8
 -2.3183190741346809E+01 a       184     0     8     1     9
 -9.1178826297433933E+00 a       185     0     8     1    10
 -2.2300416265743661E+00 a       186     0     8     1    11
  2.8874245620010925E+01 a       187     0     8     1    12
  1.1856782967175960E+01 a       188     0     8     1    13
 -1.1012362940076367E+01 a       189     0     8     1    14
  9.3666848881344711E-01 a       190     0     8     1    15
  1.9266477932798225E+00 a       191     0     8     1    16
  2.2384681582535475E+01 a       192     0     8     1    17
  1.1681323498934436E+01 a       193     0     8     1    18
 -7.5085666655456071E+00 a       194     0     8     1    19
 -5.2531089633708872E-01 a       195     0     8     1    20
  1.5858558574617687E+01 a       196     0     8     1    21
  1.0263395027104597E+01 a       197     0     8     1    22
  1.1959974795516750E+01 a       198     0     8     1    23
  6.3093663096451946E+00 a       199     0     8     1    24
  2.2055884323800431E+01 a       200     0     8     1    25
  7.2842838960484029E+00 a       201     0     9     1     1
 -3.8751610557895888E+00 a       202     0     9     1     2
 -2.5298257724082527E+00 a       203     0     9     1     3
 -4.6385512057707545E-01 a       204     0     9     1     4
 -2.6730323999277767E+00 a       205     0     9     1     5
 -2.8358548298970407E+00 a       206     0     9     1     6
 -3.0176788840933519E+00 a       207     0     9     1     7
 -7.3670395697484015E+00 a       208     0     9     1     8
  1.0645787243098324E+01 a       209     0     9     1     9
 -2.2326794054457155E-01 a       210     0     9     1    10
  5.4490965404435103E+00 a       211     0     9     1    11
 -9.7756980058199474E+00 a       212     0     9     1    12
 -2.9748789101596431E+00 a       213     0     9     1    13
  2.9521026764858558E+00 a       214     0     9     1    14
 -5.8883252254682077E+00 a       215     0     9     1    15
 -2.5806967362704314E+00 a       216     0     9     1    16
 -1.0938289004834138E+01 a       217     0     9     1    17
 -2.8830797431251765E+00 a       218     0     9     1    18
  1.1403179509054266E+00 a       219     0     9     1    19
  3.2497501566616003E+00 a       220     0     9     1    20
 -1.6289096866920556E+01 a       221     0     9     1    21
 -7.0375186429329981E-02 a       222     0     9     1    22
 -7.5955131376235130E+00 a       223     0     9     1    23
  2.7389447601102268E+00 a       224     0     9     1    24
 -1.2050313470937310E+01 a       225     0     9     1    25
  1.7228150078943553E+01 a       226     0    10     1     1
  1.1010187910200553E+01 a       227     0    10     1     2
  1.9268245703698412E+00 a       228     0    10     1     3
 -5.6550754142857063E-01 a       229     0    10     1     4
 -5.5629281403528772E+00 a       230     0    10     1     5
  1.6025588081504873E+00 a       231     0    10     1     6
 -5.2549202082397795E+00 a       232     0    10     1     7
  1.2048191112769222E+00 a       233     0    10     1     8
 -4.4278005314818492E+00 a       234     0    10     1     9
  2.5749273057543656E+00 a       235     0    10     1    10
 -1.4841876556784599E+00 a       236     0    10     1    11
 -1.3833355207418602E+01 a       237     0    10     1    12
 -1.4164738490865536E+01 a       238     0    10     1    13
  2.6580502847260687E+00 a       239     0    10     1    14
  5.3900493210868285E+00 a       240     0    10     1    15
  2.1919916274703302E+00 a       241     0    10     1    16
 -2.1439641086653944E+00 a       242     0    10     1    17
  2.3111235181788126E+00 a       243     0    10     1    18
 -7.8386867676723293E+00 a       244     0    10     1    19
 -7.5765718627676515E+00 a       245     0    10     1    20
  5.9330566977622903E+00 a       246     0    10     1    21
 -3.7093665585300362E+00 a       247     0    10     1    22
 -5.8526614955394862E+00 a       248     0    10     1    23
 -6.3790477549739553E+00 a       249     0    10     1    24
  4.0576685756613440E+00 a       250     0    10     1    25
 -2.0431467208541467E+00 a       251     0    11     1     1
  4.6832706017507499E+00 a       252     0    11     1     2
  2.0084893634454950E+00 a       253     0    11     1     3
  6.4787454748674964E-02 a       254     0    11     1     4
 -3.9563881186794236E+00 a       255     0    11     1     5
 -8.8058886926409807E-01 a       256     0    11     1     6
  6.0850286548976298E-02 a       257     0    11     1     7
  5.4279686533640623E+00 a       258     0    11     1     8
 -4.3227727178837387E+00 a       259     0    11     1     9
 -4.7437267166926409E+00 a       260     0    11     1    10
 -2.3353148830805188E+00 a       261     0    11     1    11
  1.1971911528958850E+00 a       262     0    11     1    12
  1.4537256226177728E+00 a       263     0    11     1    13
 -2.9576766047964238E+00 a       264     0    11     1    14
  3.6851419491337967E+00 a       265     0    11     1    15
 -5.9776784785091996E-01 a       266     0    11     1    16
  6.7173710237845015E+00 a       267     0    11     1    17
  2.3855624535786579E+00 a       268     0    11     1    18
  3.7031644753075604E-01 a       269     0    11     1    19
  4.7984562487802638E+00 a       270     0    11     1    20
  9.2474652473924781E+00 a       271     0    11     1    21
  1.7123525560027482E+00 a       272     0    11     1    22
  3.3117796595721005E+00 a       273     0    11     1    23
  2.3751747716677762E+00 a       274     0    11     1    24
  2.2249466568024601E+00 a       275     0    11     1    25
 -2.2117783361315442E+00 a       276     0    12     1     1
 -7.0261649396894628E+00 a       277     0    12     1     2
 -1.8580624243321646E+00 a       278     0    12     1     3
 -8.8786947577194564E-01 a       279     0    12     1     4
 -3.5695932540523474E+00 a       280     0    12     1     5
 -1.1992055899893423E+00 a       281     0    12     1     6
  2.8165464593259602E+00 a       282     0    12     1     7
  6.0964502316594293E+00 a       283     0    12     1     8
  6.8852340027289634E+00 a       284     0    12     1     9
  2.2662262983219041E+00 a       285     0    12     1    10
  5.3660506210267620E+00 a       286     0    12     1    11
 -4.2041445814946726E-01 a       287     0    12     1    12
  6.0595078070274999E-01 a       288     0    12     1    13
  3.2648241196278107E+00 a       289     0    12     1    14
  1.3793355198028154E+00 a       290     0    12     1    15
  2.5563871373236385E-01 a       291     0    12     1    16
 -5.3577141605129464E-01 a       292     0    12     1    17
 -2.4011873398129806E+00 a       293     0    12     1    18
  9.7098443919997912E-01 a       294     0    12     1    19
  2.5062880910712186E+00 a       295     0    12     1    20
 -6.0287450597449044E-01 a       296     0    12     1    21
  1.1734361340891228E+00 a       297     0    12     1    22
  4.8140977155952731E+00 a       298     0    12     1    23
  6.4651986061764355E-01 a       299     0    12     1    24
 -3.8734968708753531E-01 a       300     0    12     1    25
  2.9828212064633375E+00 a       301     0    13     1     1
  1.1463897394040257E-01 a       302     0    13     1     2
 -1.4185626030230807E+00 a       303     0    13     1     3
  1.6612638278460288E+00 a       304     0    13     1     4
  3.1828032951534886E+00 a       305     0    13     1     5
  2.5404138451421421E+00 a       306     0    13     1     6
  1.9468595428817388E+00 a       307     0    13     1     7
 -7.3911659823315567E-01 a       308     0    13     1     8
  2.2465208308367806E+00 a       309     0    13     1     9
  1.9781910352751602E+00 a       310     0    13     1    10
 -6.3236273556636607E-02 a       311     0    13     1    11
  2.2070050886512677E-01 a       312     0    13     1    12
  2.4665951417170864E-01 a       313     0    13     1    13
  1.6519915477662441E+00 a       314     0    13     1    14
 -6.8330599433422956E-01 a       315     0    13     1    15
  1.0007214578801773E+00 a       316     0    13     1    16
 -2.4676091703227305E+00 a       317     0    13     1    17
 -9.9436111197815824E-01 a       318     0    13     1    18
  3.5111542083738906E-01 a       319     0    13     1    19
 -3.4666439985137383E+00 a       320     0    13     1    20
 -1.2650259858903528E+00 a       321     0    13     1    21
 -3.3061696712911277E+00 a       322     0    13     1    22
 -9.4901412033096455E-01 a       323     0    13     1    23
  9.9373190224985725E-02 a       324     0    13     1    24
  1.6922747642400469E+00 a       325     0    13     1    25
  4.7512188771862576E+00 a       326     0    14     1     1
  3.8655202284111807E+00 a       327     0    14     1     2
  2.4473468985244717E+00 a       328     0    14     1     3
 -5.6361980298521497E-01 a       329     0    14     1     4
 -3.8265826139967363E-01 a       330     0    14     1     5
  2.7855416773785713E+00 a       331     0    14     1     6
 -5.2955541922877636E+00 a       332     0    14     1     7
 -6.6566676573682482E-01 a       333     0    14     1     8
 -6.5460715990019178E+00 a       334     0    14     1     9
 -4.3049106180944835E-01 a       335     0    14     1    10
 -2.9370394990004094E+00 a       336     0    14     1    11
  1.8530158660248758E-01 a       337     0    14     1    12
 -5.0143796877831388E+00 a       338     0    14     1    13
  9.8594891333726009E-01 a       339     0    14     1    14
  2.5794044988322110E-02 a       340     0    14     1    15
  1.1712224099161197E+00 a       341     0    14     1    16
  1.0046842213951475E+00 a       342     0    14     1    17
 -7.0887648994334293E-02 a       343     0    14     1    18
 -1.3109192879959202E+00 a       344     0    14     1    19
 -2.9118151936749381E+00 a       345     0    14     1    20
  1.0869242684951281E+00 a       346     0    14     1    21
 -9.9887971411410426E-01 a       347     0    14     1    22
 -3.5201244394516396E+00 a       348     0    14     1    23
 -2.6763335898293678E-01 a       349     0    14     1    24
  1.3082674804214351E+00 a       350     0    14     1    25
 -6.1726429603454980E-01 a       351     0    15     1     1
 -6.9327781577822689E-01 a       352     0    15     1     2
  5.7413881316788240E-01 a       353     0    15     1     3
 -3.4999578007353076E+00 a       354     0    15     1     4
 -1.0765961051440212E+00 a       355     0    15     1     5
 -3.5750962488556670E-01 a       356     0    15     1     6
  2.5442007930037452E-01 a       357     0    15     1     7
  1.5650628841212062E+00 a       358     0    15     1     8
 -9.1324301475883482E-02 a       359     0    15     1     9
  1.0440095566460863E+00 a       360     0    15     1    10
 -4.1779699275451743E-01 a       361     0    15     1    11
 -7.3987397717418069E-01 a       362     0    15     1    12
 -1.6408900019173560E+00 a       363     0    15     1    13
  2.6763799926049279E+00 a       364     0    15     1    14
  1.0071947990238799E+00 a       365     0    15     1    15
  1.7908592933036599E-01 a       366     0    15     1    16
  6.7955664938581217E-01 a       367     0    15     1    17
  1.8528581286299886E-01 a       368     0    15     1    18
  7.5881474875383248E-01 a       369     0    15     1    19
  9.3778705224062819E-01 a       370     0    15     1    20
 -4.9537532823851393E-01 a       371     0    15     1    21
  2.0341768017058368E+00 a       372     0    15     1    22
  4.6203141298357953E-01 a       373     0    15     1    23
  5.4268887374949082E-01 a       374     0    15     1    24
 -4.8922183749754522E-01 a       375     0    15     1    25
  1.8055726519412840E+00 a       376     0    16     1     1
 -8.4993715043696449E-01 a       377     0    16     1     2
 -7.9739900523112153E-02 a       378     0    16     1     3
 -8.1648772939855202E-02 a       379     0    16     1     4
  3.6924990976263439E-01 a       380     0    16     1     5
 -9.6241070700185904E-01 a       381     0    16     1     6
  1.1407095964431733E+00 a       382     0    16     1     7
  2.0049903520783222E-01 a       383     0    16     1     8
  1.5486946786482223E+00 a       384     0    16     1     9
 -2.0816322785391433E-01 a       385     0    16     1    10
 -1.2797585682155045E+01 a       386     0    16     1    11
 -5.7067729232308373E-01 a       387     0    16     1    12
 -8.2308157419298444E-01 a       388     0    16     1    13
  2.9635464111853438E-01 a       389     0    16     1    14
  4.0530702997915996E-01 a       390     0    16     1    15
  6.6762810705014483E-02 a       391     0    16     1    16
 -7.2692601130077561E-01 a       392     0    16     1    17
 -1.7839400695394655E-01 a       393     0    16     1    18
  3.6182683370446184E-01 a       394     0    16     1    19
  2.4460458429698337E-01 a       395     0    16     1    20
 -5.3266078823050023E-01 a       396     0    16     1    21
  1.0064709964612741E-01 a       397     0    16     1    22
 -3.2646942321676814E-01 a       398     0    16     1    23
 -1.7749203719690262E-01 a       399     0    16     1    24
  1.1924790460146738E-01 a       400     0    16     1    25
  2.9278290388027948E+00 a       401     0    17     1     1
 -8.7526187681874157E-01 a       402     0    17     1     2
 -3.3022686442360545E+00 a       403     0    17     1     3
 -3.1999270871880614E-01 a       404     0    17     1     4
  9.9235408673805825E-01 a       405     0    17     1     5
  3.8738221898398666E+00 a       406     0    17     1     6
 -7.4613711360563728E-01 a       407     0    17     1     7
  3.1524168722228557E-01 a       408     0    17     1     8
 -1.2642048932045831E+00 a       409     0    17     1     9
  9.0944339725477177E-02 a       410     0    17     1    10
  2.0689748680277620E-01 a       411     0    17     1    11
 -2.1531298085886350E+00 a       412     0    17     1    12
 -2.1376083738241873E+00 a       413     0    17     1    13
  1.3693087250096836E+00 a       414     0    17     1    14
  2.3090529129668567E+00 a       415     0    17     1    15
 -1.6633242241303339E+00 a       416     0    17     1    16
 -2.4685693695570810E+00 a       417     0    17     1    17
  1.5044190573320111E+00 a       418     0    17     1    18
 -6.9335632957936133E-01 a       419     0    17     1    19
  1.9770656877773516E+00 a       420     0    17     1    20
  3.5130426668228814E+00 a       421     0    17     1    21
 -1.1938524413392935E+00 a       422     0    17     1    22
 -2.7073508563734632E+00 a       423     0    17     1    23
 -3.8819344709194137E-01 a       424     0    17     1    24
 -4.5958265191134207E-01 a       425     0    17     1    25
 -5.6807629310894159E+00 a       426     0    18     1     1
 -1.4895419848147179E-01 a       427     0    18     1     2
  7.6570181202449685E+00 a       428     0    18     1     3
  1.1255467228111915E+00 a       429     0    18     1     4
  5.8542924138590582E+00 a       430     0    18     1     5
  1.2167268801108924E+00 a       431     0    18     1     6
  2.4564397651389291E+00 a       432     0    18     1     7
 -1.3695672821080807E+00 a       433     0    18     1     8
 -4.9041967080790663E+00 a       434     0    18     1     9
 -1.0502764238103721E+01 a       435     0    18     1    10
 -6.9731381201574854E+00 a       436     0    18     1    11
  4.2768126978814331E+00 a       437     0    18     1    12
  1.8079187580854807E+00 a       438     0    18     1    13
  9.1418140505940035E-02 a       439     0    18     1    14
  2.2322052976602116E+01 a       440     0    18     1    15
 -1.2701324081650247E+01 a       441     0    18     1    16
 -1.4303329320752072E+01 a       442     0    18     1    17
  5.7921154565506727E+00 a       443     0    18     1    18
  6.3239105089201442E-01 a       444     0    18     1    19
 -4.5245016338554418E+00 a       445     0    18     1    20
  2.3409919661272487E+00 a       446     0    18     1    21
  4.8263597269444656E+00 a       447     0    18     1    22
  3.3867428194409683E+00 a       448     0    18     1    23
 -9.1162928065585369E-01 a       449     0    18     1    24
  1.5897540923351318E+01 a       450     0    18     1    25
 -2.5966509585521598E+00 a       451     0    19     1     1
  3.0075481538771992E-01 a       452     0    19     1     2
  5.8683634955488877E+00 a       453     0    19     1     3
  8.0162147922778615E-01 a       454     0    19     1     4
  2.5548910460212833E+00 a       455     0    19     1     5
 -4.4247469684824701E+00 a       456     0    19     1     6
 -1.8679369592189952E+00 a       457     0    19     1     7
  7.7453494297663864E-02 a       458     0    19     1     8
  1.8612564850230786E+00 a       459     0    19     1     9
  1.0906584649332700E+00 a       460     0    19     1    10
 -9.1001615374975853E-01 a       461     0    19     1    11
  5.5993275930830244E-01 a       462     0    19     1    12
  3.4463023490357596E+00 a       463     0    19     1    13
 -6.2192715751449874E-03 a       464     0    19     1    14
  3.7398173062080171E+00 a       465     0    19     1    15
  1.0725509960813573E+00 a       466     0    19     1    16
  2.7907406082746511E+00 a       467     0    19     1    17
 -2.0054598502712877E+00 a       468     0    19     1    18
  1.7149521166886479E+00 a       469     0    19     1    19
  1.1013601206927570E+00 a       470     0    19     1    20
  2.8099583704703179E+00 a       471     0    19     1    21
  1.5185763074649985E+00 a       472     0    19     1    22
  4.7665142780430436E+00 a       473     0    19     1    23
  5.2324332421542585E-01 a       474     0    19     1    24
 -1.1906709811695539E-02 a       475     0    19     1    25
  4.8036481953344099E+00 a       476     0    20     1     1
  4.6806945956802100E+00 a       477     0    20     1     2
 -7.3366780922171175E+00 a       478     0    20     1     3
 -2.3228859416806316E+00 a       479     0    20     1     4
 -1.2291488921278294E+01 a       480     0    20     1     5
 -2.4156566383178646E+00 a       481     0    20     1     6
 -1.3104434959596607E+00 a       482     0    20     1     7
 -2.4449097898408549E+00 a       483     0    20     1     8
  1.0850944690816267E+01 a       484     0    20     1     9
  4.7283248677338285E+00 a       485     0    20     1    10
  1.7074603624230132E+01 a       486     0    20     1    11
  2.4125521862314048E+00 a       487     0    20     1    12
 -2.8171169165639629E+00 a       488     0    20     1    13
 -7.8160992451686573E+00 a       489     0    20     1    14
 -2.4692561908924635E+01 a       490     0    20     1    15
  2.3083990122609809E+01 a       491     0    20     1    16
  1.5876871790794850E+01 a       492     0    20     1    17
  1.7628709211221456E+00 a       493     0    20     1    18
 -5.9252945688195044E+00 a       494     0    20     1    19
 -7.5864617716562526E+00 a       495     0    20     1    20
 -1.4163192906643973E+01 a       496     0    20     1    21
 -1.2621504541221633E+01 a       497     0    20     1    22
 -1.1295579232294642E+01 a       498     0    20     1    23
 -2.2016276045777747E+00 a       499     0    20     1    24
 -1.9499441158136346E+01 a       500     0    20     1    25
  2.0804993329053509E+00 a       501     0    21     1     1
  6.7634574565557362E+00 a       502     0    21     1     2
  1.9065579676662136E+01 a       503     0    21     1     3
  4.2973885555186597E-01 a       504     0    21     1     4
  1.4815552211927399E+01 a       505     0    21     1     5
 -1.3757940121198564E+01 a       506     0    21     1     6
  7.5293512887084315E+00 a       507     0    21     1     7
 -7.8878045166504567E+00 a       508     0    21     1     8
 -2.2834984703326726E+00 a       509     0    21     1     9
 -9.0885645323315689E+00 a       510     0    21     1    10
  2.1762386840720263E+00 a       511     0    21     1    11
  2.1549677461959604E+01 a       512     0    21     1    12
 -1.5801548376137381E+01 a       513     0    21     1    13
 -1.2425772520902100E+01 a       514     0    21     1    14
 -4.9800046081418359E-01 a       515     0    21     1    15
 -1.7917667364341092E+00 a       516     0    21     1    16
 -9.7844202833313632E-01 a       517     0    21     1    17
  2.0845586678170932E+01 a       518     0    21     1    18
 -7.9852970427505179E+00 a       519     0    21     1    19
 -6.4851929076716148E+00 a       520     0    21     1    20
 -9.5227887520008476E+00 a       521     0    21     1    21
  3.6749120936543617E-01 a       522     0    21     1    22
  4.8410326021589967E+00 a       523     0    21     1    23
 -2.3274755087069039E+00 a       524     0    21     1    24
 -4.1879676200533860E+00 a       525     0    21     1    25
 -3.0952542286509819E+00 a       526     0    22     1     1
 -2.8768362567749461E+00 a       527     0    22     1     2
 -2.0823147198514085E+00 a       528     0    22     1     3
 -1.6889269616551488E+00 a       529     0    22     1     4
 -4.7683922194941166E+00 a       530     0    22     1     5
  2.5166704641414555E+01 a       531     0    22     1     6
 -4.6911519180607000E+00 a       532     0    22     1     7
  1.9766421510511358E+00 a       533     0    22     1     8
  2.7555368383811993E+00 a       534     0    22     1     9
  8.3258429729097756E+00 a       535     0    22     1    10
 -2.5826182118164178E+00 a       536     0    22     1    11
 -1.1080767830372196E+01 a       537     0    22     1    12
 -2.8234012512963083E+00 a       538     0    22     1    13
  4.9074929698688736E+00 a       539     0    22     1    14
 -5.6567821644170859E+00 a       540     0    22     1    15
  1.4338185898002770E+01 a       541     0    22     1    16
 -3.3495743165075278E+00 a       542     0    22     1    17
 -1.4304461181893485E+01 a       543     0    22     1    18
  4.3339594380166462E+00 a       544     0    22     1    19
 -3.8653466355353849E-01 a       545     0    22     1    20
 -7.6782302783799175E+00 a       546     0    22     1    21
  1.1797140592825412E+00 a       547     0    22     1    22
  1.2422838614093004E+00 a       548     0    22     1    23
 -3.9412597998488477E+00 a       549     0    22     1    24
  8.8710078202833760E+00 a       550     0    22     1    25
  3.1986135882533344E+00 a       551     0    23     1     1
 -9.6143260815626341E-01 a       552     0    23     1     2
  5.1098720919113534E+00 a       553     0    23     1     3
  4.3950660082010291E+00 a       554     0    23     1     4
 -5.3412661079530688E+00 a       555     0    23     1     5
  6.6036868134542743E+00 a       556     0    23     1     6
 -4.6626049790547750E+00 a       557     0    23     1     7
  5.7089769259953345E+00 a       558     0    23     1     8
  1.1212457564416878E+01 a       559     0    23     1     9
  2.5154427219752055E+01 a       560     0    23     1    10
 -4.1030800024282712E+00 a       561     0    23     1    11
 -2.9127998488524646E+01 a       562     0    23     1    12
  2.8144289096749784E+01 a       563     0    23     1    13
  1.2980639377005231E+01 a       564     0    23     1    14
  5.9341217900025525E+00 a       565     0    23     1    15
  3.5063829372664423E-01 a       566     0    23     1    16
  5.3641863587930949E+00 a       567     0    23     1    17
 -6.5596128299966336E+00 a       568     0    23     1    18
  1.3608018833730128E+01 a       569     0    23     1    19
  2.7357705536423520E+00 a       570     0    23     1    20
  2.1037012331845155E+01 a       571     0    23     1    21
  4.8136413377520049E-01 a       572     0    23     1    22
 -1.2844230678945774E+01 a       573     0    23     1    23
  1.0310169830252120E+01 a       574     0    23     1    24
  5.8370118680269814E+00 a       575     0    23     1    25
  7.2050084480105847E-01 a       576     0    24     1     1
 -4.9914863770145468E+00 a       577     0    24     1     2
 -5.6863863403166439E+00 a       578     0    24     1     3
 -1.1296429119669957E+00 a       579     0    24     1     4
 -5.4240256119802288E-01 a       580     0    24     1     5
 -9.0963477227653300E+00 a       581     0    24     1     6
 -2.8555061655235390E+00 a       582     0    24     1     7
  3.4045444691705304E+00 a       583     0    24     1     8
 -3.9673678055335979E+00 a       584     0    24     1     9
 -6.7578470957488586E+00 a       585     0    24     1    10
  6.2207757210558148E+00 a       586     0    24     1    11
  1.0876966059806294E+01 a       587     0    24     1    12
 -1.2235950984470881E+01 a       588     0    24     1    13
  9.0251838890650415E-01 a       589     0    24     1    14
 -1.0806977941950466E+00 a       590     0    24     1    15
 -9.2513719338984917E+00 a       591     0    24     1    16
  3.6386431553128036E+00 a       592     0    24     1    17
 -5.5393316591934214E+00 a       593     0    24     1    18
 -6.2979649614204458E+00 a       594     0    24     1    19
  1.2010293331169946E+01 a       595     0    24     1    20
  2.9528345025304730E+00 a       596     0    24     1    21
  5.6829035671904453E+00 a       597     0    24     1    22
  7.0775131922937895E+00 a       598     0    24     1    23
 -1.4293400078080019E+00 a       599     0    24     1    24
 -4.8323888201901202E+00 a       600     0    24     1    25
  2.7390408700236248E+00 a       601     0    25     1     1
  4.1710986483715651E+00 a       602     0    25     1     2
 -6.6717830339550348E+00 a       603     0    25     1     3
  2.3627941132904633E+00 a       604     0    25     1     4
 -4.6617812761855140E+00 a       605     0    25     1     5
 -1.2890837078850099E+00 a       606     0    25     1     6
 -3.5791053282591965E+00 a       607     0    25     1     7
 -1.3038553705117426E+00 a       608     0    25     1     8
  3.1760861779842271E+00 a       609     0    25     1     9
  3.4264247367743446E+00 a       610     0    25     1    10
 -2.5833163946297812E+00 a       611     0    25     1    11
 -4.6406646341609736E+00 a       612     0    25     1    12
  1.8934354604868375E+01 a       613     0    25     1    13
 -4.6691539206989996E-01 a       614     0    25     1    14
 -6.5311419770621777E+00 a       615     0    25     1    15
 -3.9861840926477576E-01 a       616     0    25     1    16
  6.5511266898067824E+00 a       617     0    25     1    17
 -3.0868348489041565E-02 a       618     0    25     1    18
  5.2862741957306394E+00 a       619     0    25     1    19
  1.1911320283638265E+00 a       620     0    25     1    20
  7.9375243488668961E+00 a       621     0    25     1    21
 -2.8678617011917149E+00 a       622     0    25     1    22
 -1.5848145490718923E+00 a       623     0    25     1    23
  2.4385026587631201E-01 a       624     0    25     1    24
 -4.5779502372372596E+00 a       625     0    25     1    25
 -6.0518483501375444E+00 a       626     0    26     1     1
  8.9231630678746221E-01 a       627     0    26     1     2
  7.1678923626137268E+00 a       628     0    26     1     3
 -3.0378700986063878E+00 a       629     0    26     1     4
  1.0363870590946664E+01 a       630     0    26     1     5
  5.9333423213362435E-01 a       631     0    26     1     6
  9.4665979628982679E+00 a       632     0    26     1     7
 -6.7893556708862430E+00 a       633     0    26     1     8
 -1.3427534906379181E+01 a       634     0    26     1     9
 -1.0609765165880750E+01 a       635     0    26     1    10
 -1.2869071033047847E+01 a       636     0    26     1    11
  1.2067846720928193E+01 a       637     0    26     1    12
 -1.2892256123523406E+01 a       638     0    26     1    13
 -3.3027704589711719E+00 a       639     0    26     1    14
 -2.0444461493784871E+00 a       640     0    26     1    15
 -7.6324108041028618E+00 a       641     0    26     1    16
 -9.7849510962866937E+00 a       642     0    26     1    17
 -1.8231467858051498E+00 a       643     0    26     1    18
 -2.1311087234295427E+00 a       644     0    26     1    19
 -2.9198497706851332E+00 a       645     0    26     1    20
 -1.1620019017314879E+01 a       646     0    26     1    21
 -1.3842752059705237E+00 a       647     0    26     1    22
  4.4848826917545450E+00 a       648     0    26     1    23
 -4.0301306123982439E+00 a       649     0    26     1    24
  3.2405758297000620E-01 a       650     0    26     1    25
 -1.4785172933788095E+00 a       651     0    27     1     1
 -1.1095830571934000E+00 a       652     0    27     1     2
 -1.0503536652223153E+00 a       653     0    27     1     3
  1.9099938615599002E-01 a       654     0    27     1     4
 -1.3380217014563729E+00 a       655     0    27     1     5
  1.4766587106544804E+00 a       656     0    27     1     6
 -1.4810389846884173E+00 a       657     0    27     1     7
 -6.0206621947914118E-01 a       658     0    27     1     8
  8.1745810594230885E+00 a       659     0    27     1     9
 -6.5526800526891904E-01 a       660     0    27     1    10
  5.9071501980876917E+00 a       661     0    27     1    11
 -2.3338497182159582E-02 a       662     0    27     1    12
  2.6012554250641209E+00 a       663     0    27     1    13
 -1.5209496219782321E+00 a       664     0    27     1    14
 -5.1573784003415268E-01 a       665     0    27     1    15
  1.1466111141874333E+00 a       666     0    27     1    16
  1.4214100505165523E+00 a       667     0    27     1    17
  7.3809936535601273E-01 a       668     0    27     1    18
  1.0732106451275114E+00 a       669     0    27     1    19
  6.7689475554230327E-01 a       670     0    27     1    20
  7.7345181099858529E-01 a       671     0    27     1    21
  3.4855089327556765E-01 a       672     0    27     1    22
  1.8073255386681650E-01 a       673     0    27     1    23
 -5.6304286092781908E-01 a       674     0    27     1    24
 -1.0707063873575657E+00 a       675     0    27     1    25
  1.8168827276558415E+00 b       676     1     1
  1.2987476188758020E+00 b       677     1     2
  1.0200504925970153E+00 b       678     1     3
  1.6408607488668570E+00 b       679     1     4
  6.2777097318693020E-01 b       680     1     5
  1.4614676670044835E+00 b       681     1     6
  1.2544515828696399E+00 b       682     1     7
 -1.3566763731282048E+00 b       683     1     8
  2.1259732590731457E+00 b       684     1     9
  8.5597259658511349E-01 b       685     1    10
 -2.6606802384794097E+00 b       686     1    11
  5.6797939204221093E-01 b       687     1    12
  2.0054287497625578E-01 b       688     1    13
  1.0706485461130226E+00 b       689     1    14
  2.1870371435113305E+00 b       690     1    15
  6.6882515897349826E-01 b       691     1    16
  1.2402379769108296E-02 b       692     1    17
  9.3282428250791705E-01 b       693     1    18
  6.6698826620201346E-01 b       694     1    19
 -1.5438704079959804E+00 b       695     1    20
  1.7660610048540395E+00 b       696     1    21
 -3.8543111158066148E-02 b       697     1    22
  6.2547250856419756E-01 b       698     1    23
 -1.0505404068111672E+00 b       699     1    24
 -4.6087609186839695E-01 b       700     1    25
  1.3147306199056898E+00 a       701     1     1     2     1
 -1.4579036721313881E+00 a       702     1     1     2     2
 -2.0061720795556037E+00 a       703     1     1     2     3
  1.4527050767232013E+00 a       704     1     1     2     4
 -1.1993425064943228E+00 a       705     1     1     2     5
 -4.4001218714349338E-01 a       706     1     1     2     6
  4.1922963634845285E+00 a       707     1     1     2     7
 -7.3311656873642161E-01 a       708     1     1     2     8
 -3.2033138977545123E-01 a       709     1     1     2     9
  1.2432481561165203E+00 a       710     1     1     2    10
  3.0097795282183886E+00 a       711     1     1     2    11
 -1.9687339262514661E-01 a       712     1     1     2    12
  1.9612142807402433E-01 a       713     1     1     2    13
 -4.8547494341900577E-01 a       714     1     1     2    14
  7.9335266867950756E+00 a       715     1     1     2    15
 -2.6801027488284053E+00 a       716     1     1     2    16
  1.1930254251399798E-01 a       717     1     1     2    17
  5.4210579825026315E+00 a       718     1     1     2    18
  7.4900537982389037E-01 a       719     1     1     2    19
 -1.0758855782035311E-01 a       720     1     1     2    20
  1.0415886965551651E+00 a       721     1     1     2    21
 -3.4798306474432366E+00 a       722     1     1     2    22
  3.4105604632944071E+00 a       723     1     1     2    23
 -4.0270527323958998E+00 a       724     1     1     2    24
  1.2339908041828151E+00 a       725     1     1     2    25
  2.5116347512214610E+00 a       726     1     2     2     1
 -1.5328094043441112E+00 a       727     1     2     2     2
  5.9151445285465065E-01 a       728     1     2     2     3
 -1.4554597899060100E+00 a       729     1     2     2     4
  1.9060293307396730E+00 a       730     1     2     2     5
 -3.5980118597828490E+00 a       731     1     2     2     6
 -1.2343684880321808E+00 a       732     1     2     2     7
 -1.2145524624305630E+00 a       733     1     2     2     8
 -1.2897514223165827E+00 a       734     1     2     2     9
  6.8599805416604787E-01 a       735     1     2     2    10
 -1.6804619350645720E+00 a       736     1     2     2    11
  1.0270418846764104E+00 a       737     1     2     2    12
  5.1473006910753316E-01 a       738     1     2     2    13
  7.7721735319093391E-02 a       739     1     2     2    14
 -9.9251023150377726E+00 a       740     1     2     2    15
 -9.8086982942721335E-01 a       741     1     2     2    16
 -4.8865639982816789E-02 a       742     1     2     2    17
  2.8238636383468680E+00 a       743     1     2     2    18
 -6.3753281946661980E-02 a       744     1     2     2    19
  7.4176830171399949E-02 a       745     1     2     2    20
 -1.6132009177955151E+00 a       746     1     2     2    21
  1.8689377773571576E+00 a       747     1     2     2    22
  6.3780134786194587E-01 a       748     1     2     2    23
  5.9705115655472218E-01 a       749     1     2     2    24
 -7.3664702488047029E-01 a       750     1     2     2    25
  1.0348400672493525E+00 a       751     1     3     2     1
  1.2522767200255061E-01 a       752     1     3     2     2
  2.6752502880294609E+00 a       753     1     3     2     3
  1.9936252841027582E+00 a       754     1     3     2     4
 -6.0971481511522825E+00 a       755     1     3     2     5
  2.1703258178901180E-01 a       756     1     3     2     6
 -5.7688667735995047E-01 a       757     1     3     2     7
 -1.3706333735644453E-02 a       758     1     3     2     8
 -1.4233304552695983E-01 a       759     1     3     2     9
  1.7704118487554805E+00 a       760     1     3     2    10
  1.1873520840876717E+00 a       761     1     3     2    11
  9.9943081875244688E-01 a       762     1     3     2    12
 -8.9217798861720843E-01 a       763     1     3     2    13
  4.3447424189666423E-01 a       764     1     3     2    14
 -3.6765107355638573E+00 a       765     1     3     2    15
  2.6225166820591445E-01 a       766     1     3     2    16
  7.9553728376760624E-01 a       767     1     3     2    17
 -1.9057002003149381E+00 a       768     1     3     2    18
  2.3240022347876770E+00 a       769     1     3     2    19
  1.8591335617428571E-02 a       770     1     3     2    20
 -3.4458486303023539E-01 a       771     1     3     2    21
 -3.0732964101536044E+00 a       772     1     3     2    22
 -7.7899135421335164E-01 a       773     1     3     2    23
  2.7909075601425448E-01 a       774     1     3     2    24
  1.5865231581219466E-01 a       775     1     3     2    25
  1.4660759831478187E-01 a       776     1     4     2     1
  1.7040709948637229E-02 a       777     1     4     2     2
  4.3096777854871676E-01 a       778     1     4     2     3
 -7.1710608252302577E-01 a       779     1     4     2     4
  5.9903043590428706E-01 a       780     1     4     2     5
  2.2668934615942176E+00 a       781     1     4     2     6
 -9.2018201013955825E-01 a       782     1     4     2     7
 -6.1157802731594557E-01 a       783     1     4     2     8
 -3.1322967914128919E-01 a       784     1     4     2     9
 -5.3822295388327868E-01 a       785     1     4     2    10
 -3.6325394317648008E-01 a       786     1     4     2    11
  1.3393609387357635E+00 a       787     1     4     2    12
  6.9450160095201263E-01 a       788     1     4     2    13
  1.0283768738301708E+00 a       789     1     4     2    14
  1.2202394196493527E+00 a       790     1     4     2    15
  1.8344901408970262E+00 a       791     1     4     2    16
 -3.7485347109942385E-01 a       792     1     4     2    17
 -4.9825693801553900E-01 a       793     1     4     2    18
 -6.2059792838922667E-01 a       794     1     4     2    19
 -1.0080777603654809E+00 a       795     1     4     2    20
  1.4077026463928231E+00 a       796     1     4     2    21
  4.2269149888212025E+00 a       797     1     4     2    22
 -5.6018007645310541E-01 a       798     1     4     2    23
  4.5112751381710398E-01 a       799     1     4     2    24
  1.9855925628003657E+00 a       800     1     4     2    25
  1.4642479407343165E-01 a       801     1     5     2     1
 -4.0787420381176737E-01 a       802     1     5     2     2
 -3.5568133498418880E-01 a       803     1     5     2     3
 -1.2577316008172847E+00 a       804     1     5     2     4
 -3.1923238254953912E+00 a       805     1     5     2     5
  4.8479062316385330E-01 a       806     1     5     2     6
  5.1921439765013910E-01 a       807     1     5     2     7
  5.6587481489237079E-01 a       808     1     5     2     8
 -2.5454747277896539E-01 a       809     1     5     2     9
  2.7147210218698820E-01 a       810     1     5     2    10
 -5.0005005015189230E-01 a       811     1     5     2    11
  3.3429799170495669E-02 a       812     1     5     2    12
 -1.6072625845045558E+00 a       813     1     5     2    13
  1.1501853112894896E-01 a       814     1     5     2    14
  2.3133663712955821E-01 a       815     1     5     2    15
 -2.1780181964241882E-01 a       816     1     5     2    16
  1.4470014357949235E+00 a       817     1     5     2    17
 -1.9951851894892130E+00 a       818     1     5     2    18
 -3.9740840762239449E-01 a       819     1     5     2    19
 -6.2281074035825312E-01 a       820     1     5     2    20
 -1.0269029741214797E+00 a       821     1     5     2    21
 -3.7821034814194454E+00 a       822     1     5     2    22
  4.9451606456326674E-01 a       823     1     5     2    23
 -5.9263788676067377E-03 a       824     1     5     2    24
 -3.7273800138558322E-01 a       825     1     5     2    25
  4.9153456873917607E+00 a       826     1     6     2     1
  1.1988757456291266E+00 a       827     1     6     2     2
  8.4184020250091613E+00 a       828     1     6     2     3
 -2.6942489550514093E-01 a       829     1     6     2     4
 -2.2737927739373656E+00 a       830     1     6     2     5
  2.5410319050413075E+00 a       831     1     6     2     6
  1.8169824215012227E+00 a       832     1     6     2     7
  3.0479636967540857E+00 a       833     1     6     2     8
 -5.8781151417992472E-01 a       834     1     6     2     9
 -1.0318391544301921E+00 a       835     1     6     2    10
 -1.3566442071780838E+00 a       836     1     6     2    11
 -9.8138005780983306E-02 a       837     1     6     2    12
 -1.8293219937846941E-01 a       838     1     6     2    13
  1.1220734284422784E+00 a       839     1     6     2    14
 -3.2474515813586176E+00 a       840     1     6     2    15
 -2.9536229294096992E+00 a       841     1     6     2    16
 -7.1600037543561623E-01 a       842     1     6     2    17
 -1.6359111090884615E-02 a       843     1     6     2    18
 -1.2324741243534012E+00 a       844     1     6     2    19
  1.2133829439100066E+00 a       845     1     6     2    20
 -4.1128036239747662E-01 a       846     1     6     2    21
  1.2939618882118171E+00 a       847     1     6     2    22
 -1.9665749410002311E+00 a       848     1     6     2    23
  8.7385485890822390E-01 a       849     1     6     2    24
  1.2532491955514038E+00 a       850     1     6     2    25
  8.3086373367781119E-01 a       851     1     7     2     1
 -2.0111197421270884E-02 a       852     1     7     2     2
 -1.6067278507529050E+00 a       853     1     7     2     3
 -7.9184558611257205E-01 a       854     1     7     2     4
 -1.2108575461320974E+00 a       855     1     7     2     5
  1.3668678961768495E+00 a       856     1     7     2     6
 -1.6205698745108295E+00 a       857     1     7     2     7
  6.6828094427186358E-01 a       858     1     7     2     8
  1.0999504464129224E-01 a       859     1     7     2     9
  2.9633008486444234E-01 a       860     1     7     2    10
  1.2707454157661837E+00 a       861     1     7     2    11
 -7.1270183518510555E-01 a       862     1     7     2    12
  1.9111626258187828E-02 a       863     1     7     2    13
  8.4170142775846946E-02 a       864     1     7     2    14
  7.9196800773497167E-02 a       865     1     7     2    15
  2.0663357681626744E+00 a       866     1     7     2    16
 -4.5227608392948587E-01 a       867     1     7     2    17
  1.4714933369531191E+00 a       868     1     7     2    18
 -5.0300740556712797E-01 a       869     1     7     2    19
 -3.5959470096952373E-01 a       870     1     7     2    20
 -3.3763910837573543E+00 a       871     1     7     2    21
 -1.1374275339742237E+00 a       872     1     7     2    22
  4.5152703823439921E+00 a       873     1     7     2    23
  1.1577887947868386E+00 a       874     1     7     2    24
 -9.0967879713743571E-01 a       875     1     7     2    25
  1.5725550161038107E-01 a       876     1     8     2     1
  9.8703304625362542E-01 a       877     1     8     2     2
 -1.1009151441884544E+00 a       878     1     8     2     3
  1.4227934270361418E+00 a       879     1     8     2     4
 -2.7680390923783499E-01 a       880     1     8     2     5
 -7.9606396110106348E-01 a       881     1     8     2     6
  2.8888862405093835E-02 a       882     1     8     2     7
  2.0976390061176731E+00 a       883     1     8     2     8
  1.9534305874744062E+00 a       884     1     8     2     9
 -7.5251016067956689E-01 a       885     1     8     2    10
  1.1390635689671096E+00 a       886     1     8     2    11
 -1.6717572211452394E+00 a       887     1     8     2    12
  3.4057161728680861E-02 a       888     1     8     2    13
  7.9491479477094409E-02 a       889     1     8     2    14
  5.6982937293395464E-01 a       890     1     8     2    15
  1.1978385030365457E+00 a       891     1     8     2    16
 -9.4445969427045606E-01 a       892     1     8     2    17
  1.2650617265506370E+00 a       893     1     8     2    18
 -6.0576320973432560E-02 a       894     1     8     2    19
  6.8417475355355639E-01 a       895     1     8     2    20
  2.0277264144203005E-01 a       896     1     8     2    21
 -4.0966411953659483E+00 a       897     1     8     2    22
 -1.9515646733931319E-01 a       898     1     8     2    23
 -1.6819991284728100E+00 a       899     1     8     2    24
 -1.3517971670437881E+00 a       900     1     8     2    25
 -4.3317562114971535E+00 a       901     1     9     2     1
  6.2462183068315946E-01 a       902     1     9     2     2
 -2.0335239539878418E+00 a       903     1     9     2     3
  1.0107151779081121E+00 a       904     1     9     2     4
  2.9704288169571478E+00 a       905     1     9     2     5
  1.9326447560277955E+00 a       906     1     9     2     6
 -8.3927681139211885E-01 a       907     1     9     2     7
 -5.1894653244784628E-01 a       908     1     9     2     8
  7.5791609286782680E-01 a       909     1     9     2     9
  1.6712579145789519E-01 a       910     1     9     2    10
 -7.0163535255728188E-02 a       911     1     9     2    11
  4.3529226944802218E-01 a       912     1     9     2    12
 -2.7794111182022205E+00 a       913     1     9     2    13
  1.5291426166684413E-01 a       914     1     9     2    14
  3.8432694757868813E+00 a       915     1     9     2    15
  6.6510981256581847E-01 a       916     1     9     2    16
 -4.1045953647268768E-01 a       917     1     9     2    17
 -4.3045153738705499E-01 a       918     1     9     2    18
  3.0686150352181629E-01 a       919     1     9     2    19
 -1.1478837855269285E-02 a       920     1     9     2    20
  1.1937747748482721E+01 a       921     1     9     2    21
 -1.6122249878696826E+00 a       922     1     9     2    22
 -4.0613842137787799E+00 a       923     1     9     2    23
 -9.4185286542692959E-01 a       924     1     9     2    24
  9.7485969400816308E-01 a       925     1     9     2    25
 -1.0958312370401828E+00 a       926     1    10     2     1
  5.8458779605455324E-01 a       927     1    10     2     2
  4.7322369725301811E-01 a       928     1    10     2     3
  5.2036551292510236E-01 a       929     1    10     2     4
  1.0141931293776172E+00 a       930     1    10     2     5
 -4.4722753677500710E-01 a       931     1    10     2     6
  8.4004608402081504E-01 a       932     1    10     2     7
  7.5048342040428107E-01 a       933     1    10     2     8
 -8.4931237398723469E-01 a       934     1    10     2     9
 -9.9337367484561490E-01 a       935     1    10     2    10
 -1.8269123518242931E+00 a       936     1    10     2    11
  1.8207176787145840E-01 a       937     1    10     2    12
 -2.6279633866816776E-01 a       938     1    10     2    13
  6.6859447771541392E-01 a       939     1    10     2    14
  1.2200175284803653E-01 a       940     1    10     2    15
  2.2450204098841193E+00 a       941     1    10     2    16
 -2.0097040767508079E-01 a       942     1    10     2    17
  4.7444955085750423E-01 a       943     1    10     2    18
 -1.6744450049618975E-01 a       944     1    10     2    19
  2.4846437354306225E-01 a       945     1    10     2    20
  1.7504244745274462E+00 a       946     1    10     2    21
  2.8421275549061300E+00 a       947     1    10     2    22
 -9.9160927303943747E-01 a       948     1    10     2    23
 -8.3526860066731068E-01 a       949     1    10     2    24
  1.0755882506838315E+00 a       950     1    10     2    25
  5.6069217298210772E+00 a       951     1    11     2     1
 -3.8882432835607228E-01 a       952     1    11     2     2
  6.1351587472404443E+00 a       953     1    11     2     3
  6.1528223035087859E-01 a       954     1    11     2     4
 -6.2038039581430615E-01 a       955     1    11     2     5
  6.7435662765417659E-01 a       956     1    11     2     6
  3.8149204454933234E+00 a       957     1    11     2     7
  7.8582371063820045E-03 a       958     1    11     2     8
 -1.1231078789758908E+00 a       959     1    11     2     9
  4.1647900088797524E-01 a       960     1    11     2    10
  2.2982328691271728E-01 a       961     1    11     2    11
  5.7370492615467972E-01 a       962     1    11     2    12
 -1.5530847213471286E+00 a       963     1    11     2    13
  5.7828210477807840E-01 a       964     1    11     2    14
 -3.7652300838352732E+00 a       965     1    11     2    15
 -1.6494512647101067E+00 a       966     1    11     2    16
  1.1760916405722992E-01 a       967     1    11     2    17
  1.5130280774177680E+00 a       968     1    11     2    18
  8.5397839207864146E-02 a       969     1    11     2    19
  1.3455417738982043E+00 a       970     1    11     2    20
 -1.3725769127190336E+01 a       971     1    11     2    21
  1.8999086520021984E+00 a       972     1    11     2    22
 -2.0652058656584804E-01 a       973     1    11     2    23
 -9.7112764544783084E-02 a       974     1    11     2    24
  4.4200946286765858E-01 a       975     1    11     2    25
  9.6543338547403185E-02 a       976     1    12     2     1
  4.8151185818187187E-01 a       977     1    12     2     2
  8.7533448047780002E-02 a       978     1    12     2     3
 -7.9748336541141185E-01 a       979     1    12     2     4
  5.5198437646779530E-01 a       980     1    12     2     5
 -2.7671483742212122E-01 a       981     1    12     2     6
  7.2421731824806890E-01 a       982     1    12     2     7
  3.6230801519134387E-01 a       983     1    12     2     8
 -6.4453168301367902E-01 a       984     1    12     2     9
  1.1598908369011036E+00 a       985     1    12     2    10
  1.7066812533568182E-01 a       986     1    12     2    11
  8.4651922464252738E-01 a       987     1    12     2    12
 -1.3965463116142465E-01 a       988     1    12     2    13
 -1.5724262299682404E-01 a       989     1    12     2    14
 -3.1415860942271123E-01 a       990     1    12     2    15
 -7.4277304380599998E-02 a       991     1    12     2    16
  1.5138695259445667E+00 a       992     1    12     2    17
 -1.1824725271512966E+00 a       993     1    12     2    18
  2.1029625605912599E+00 a       994     1    12     2    19
 -8.4138213269209478E-02 a       995     1    12     2    20
  5.0077636056684016E-01 a       996     1    12     2    21
 -2.5590443411923918E+00 a       997     1    12     2    22
 -8.6333099208465858E-01 a       998     1    12     2    23
 -4.5997085267008947E-01 a       999     1    12     2    24
 -2.5244410258595359E-02 a      1000     1    12     2    25
 -1.3091595211369149E+00 a      1001     1    13     2     1
 -5.6180704824694983E-01 a      1002     1    13     2     2
 -1.2093638504958650E+00 a      1003     1    13     2     3
 -2.4444723769646404E-01 a      1004     1    13     2     4
  2.0592866914614434E+00 a      1005     1    13     2     5
 -2.0261412547316513E+00 a      1006     1    13     2     6
  4.7633836663189755E-01 a      1007     1    13     2     7
 -1.1293920808833442E+00 a      1008     1    13     2     8
 -5.4765971447845652E-01 a      1009     1    13     2     9
  1.8056143098668020E-01 a      1010     1    13     2    10
 -4.8016546829954737E-01 a      1011     1    13     2    11
  7.9137435773342124E-01 a      1012     1    13     2    12
  1.9426992882340491E-01 a      1013     1    13     2    13
 -7.8294574544860551E-01 a      1014     1    13     2    14
  4.8299541537249852E-01 a      1015     1    13     2    15
  1.8446384785970940E+00 a      1016     1    13     2    16
 -6.4925198147285823E-01 a      1017     1    13     2    17
 -1.1492039597989676E-01 a      1018     1    13     2    18
  1.5515008649813161E-01 a      1019     1    13     2    19
 -2.1141838585614803E-01 a      1020     1    13     2    20
  4.7429429903695663E-01 a      1021     1    13     2    21
 -2.0825387655308663E+00 a      1022     1    13     2    22
 -1.1183676197214718E+00 a      1023     1    13     2    23
 -7.0034641053037172E-01 a      1024     1    13     2    24
  1.9175440529459392E-01 a      1025     1    13     2    25
 -1.1188878013864280E-01 a      1026     1    14     2     1
 -4.9827797787536326E-01 a      1027     1    14     2     2
 -1.4328636746851655E+00 a      1028     1    14     2     3
 -3.5528693209779210E+00 a      1029     1    14     2     4
 -2.4549593955517777E+00 a      1030     1    14     2     5
 -4.5784620109714225E-01 a      1031     1    14     2     6
 -5.2071618339218606E-01 a      1032     1    14     2     7
 -1.7741654169208670E-01 a      1033     1    14     2     8
 -8.1823624225607128E-01 a      1034     1    14     2     9
 -5.1283389673323343E-01 a      1035     1    14     2    10
 -8.1638194195700464E-01 a      1036     1    14     2    11
  5.4002575746326242E-01 a      1037     1    14     2    12
  2.0161143214452504E-01 a      1038     1    14     2    13
 -7.8823621453752074E-02 a      1039     1    14     2    14
  5.0527226311500895E-01 a      1040     1    14     2    15
  3.0898088462668288E-01 a      1041     1    14     2    16
 -2.4967294767063458E-01 a      1042     1    14     2    17
 -8.9741472172979619E-01 a      1043     1    14     2    18
 -2.2380269396946360E+00 a      1044     1    14     2    19
  2.4045454362007612E-02 a      1045     1    14     2    20
 -2.4366874935430545E+00 a      1046     1    14     2    21
 -3.7206939150117835E+00 a      1047     1    14     2    22
  1.0811114865182744E-01 a      1048     1    14     2    23
  1.3703639682954869E+00 a      1049     1    14     2    24
 -1.9007331036768327E-02 a      1050     1    14     2    25
 -9.4890676388994399E-01 a      1051     1    15     2     1
 -1.7294760451903335E+00 a      1052     1    15     2     2
  5.9587300727431138E+00 a      1053     1    15     2     3
 -3.0559332438724556E+00 a      1054     1    15     2     4
  3.3751988229709236E+00 a      1055     1    15     2     5
  7.0422891515812811E+00 a      1056     1    15     2     6
  8.4785360311304769E-01 a      1057     1    15     2     7
  1.4055288990721475E+00 a      1058     1    15     2     8
 -1.7443104735364836E+00 a      1059     1    15     2     9
 -5.8890648639039644E-02 a      1060     1    15     2    10
  8.2895042175762548E+00 a      1061     1    15     2    11
 -2.8371626582405041E+00 a      1062     1    15     2    12
 -4.3038471741848925E+00 a      1063     1    15     2    13
 -3.0451177946362216E+00 a      1064     1    15     2    14
  1.8174216804100498E+00 a      1065     1    15     2    15
  5.7470489688421607E+00 a      1066     1    15     2    16
  3.8850647568369240E-01 a      1067     1    15     2    17
 -2.6641792998972704E+00 a      1068     1    15     2    18
  7.5567973928838077E+00 a      1069     1    15     2    19
  1.6130104175365259E+00 a      1070     1    15     2    20
  2.2851739723301780E+00 a      1071     1    15     2    21
  4.1321432360006769E+00 a      1072     1    15     2    22
  4.6468803511683854E+00 a      1073     1    15     2    23
 -7.3660963240596866E-01 a      1074     1    15     2    24
 -9.5621376106829714E-01 a      1075     1    15     2    25
 -8.7876349322345360E-01 a      1076     1    16     2     1
  2.7987155916055690E+00 a      1077     1    16     2     2
 -1.4535840907438493E+00 a      1078     1    16     2     3
  6.8933408509581018E-01 a      1079     1    16     2     4
 -1.1094020605829010E-02 a      1080     1    16     2     5
 -5.2664856697923257E-01 a      1081     1    16     2     6
 -1.0523673657081047E+00 a      1082     1    16     2     7
  1.8400864837331761E+00 a      1083     1    16     2     8
  1.3422948111031183E+00 a      1084     1    16     2     9
 -1.3990296163778273E+00 a      1085     1    16     2    10
 -1.3487128281553202E+00 a      1086     1    16     2    11
  2.5053201010066345E-01 a      1087     1    16     2    12
  4.9029003633401486E-01 a      1088     1    16     2    13
  9.4643123155539954E-01 a      1089     1    16     2    14
  5.7200903360343847E-01 a      1090     1    16     2    15
  4.7909696658716994E-01 a      1091     1    16     2    16
 -1.4664491359061680E+00 a      1092     1    16     2    17
 -9.7924292298699445E-01 a      1093     1    16     2    18
 -2.2396921850423843E+00 a      1094     1    16     2    19
 -6.7679982189787580E-01 a      1095     1    16     2    20
 -1.2306682869279468E+00 a      1096     1    16     2    21
 -7.6998156293744791E-01 a      1097     1    16     2    22
  1.2005037198940702E-01 a      1098     1    16     2    23
 -8.1774438574215080E-01 a      1099     1    16     2    24
 -7.8506269047504018E-01 a      1100     1    16     2    25
  3.8507210893955285E-01 a      1101     1    17     2     1
 -3.3728831048989805E-01 a      1102     1    17     2     2
 -1.0284022685840282E+00 a      1103     1    17     2     3
  8.6056205482613168E-01 a      1104     1    17     2     4
 -1.9892193704584487E+00 a      1105     1    17     2     5
  2.4512519171090794E+00 a      1106     1    17     2     6
  2.1146100377231806E-02 a      1107     1    17     2     7
 -1.7174699183851611E-01 a      1108     1    17     2     8
 -8.9300271433853023E-02 a      1109     1    17     2     9
 -6.7650165082606517E-02 a      1110     1    17     2    10
 -8.5640789054628552E-01 a      1111     1    17     2    11
  1.7261034622766136E-01 a      1112     1    17     2    12
 -1.2966030546763676E+00 a      1113     1    17     2    13
  4.3695844880072865E-01 a      1114     1    17     2    14
  1.0600920335323223E+00 a      1115     1    17     2    15
 -6.3136207866806482E-01 a      1116     1    17     2    16
 -8.8606682872347542E-01 a      1117     1    17     2    17
 -1.3679402957075375E+00 a      1118     1    17     2    18
 -1.2906895439819718E-01 a      1119     1    17     2    19
 -1.3439298311311351E-01 a      1120     1    17     2    20
 -8.9262627218760771E-01 a      1121     1    17     2    21
 -4.2427929804866682E-01 a      1122     1    17     2    22
  7.2761826088747361E-01 a      1123     1    17     2    23
 -5.5228027128419073E-03 a      1124     1    17     2    24
 -1.1820926149747837E-01 a      1125     1    17     2    25
 -2.4053519580378677E+00 a      1126     1    18     2     1
  1.1353109759745934E+00 a      1127     1    18     2     2
 -2.5202970991749973E+00 a      1128     1    18     2     3
 -8.0584492919392167E-02 a      1129     1    18     2     4
  7.7131293509855559E-01 a      1130     1    18     2     5
  1.8197207346825957E+00 a      1131     1    18     2     6
  6.3633091817987741E-01 a      1132     1    18     2     7
 -4.5108971237646400E-01 a      1133     1    18     2     8
 -9.5829072105154056E-01 a      1134     1    18     2     9
 -9.0367222165991343E-02 a      1135     1    18     2    10
 -2.9358053362001697E+00 a      1136     1    18     2    11
  1.1779769673727711E+00 a      1137     1    18     2    12
 -2.3338542903236590E+00 a      1138     1    18     2    13
  1.2446642984893679E+00 a      1139     1    18     2    14
  2.4790083108326693E+00 a      1140     1    18     2    15
  7.0477822399604961E-01 a      1141     1    18     2    16
  2.2267781832550066E+00 a      1142     1    18     2    17
 -2.8088126962001425E+00 a      1143     1    18     2    18
  1.4264978851363843E+00 a      1144     1    18     2    19
 -9.3991249120981435E-01 a      1145     1    18     2    20
 -7.1561583833565923E-02 a      1146     1    18     2    21
  3.0590727393829900E+00 a      1147     1    18     2    22
 -1.6974087383376646E+00 a      1148     1    18     2    23
 -6.4265119618447353E-01 a      1149     1    18     2    24
  1.0053594351655177E+00 a      1150     1    18     2    25
 -1.4900646898606129E+00 a      1151     1    19     2     1
 -1.7520687926552148E+00 a      1152     1    19     2     2
  5.7678647885241952E-01 a      1153     1    19     2     3
 -1.9511894304909455E-01 a      1154     1    19     2     4
  4.2418282228562081E+00 a      1155     1    19     2     5
 -1.6673100595751700E+00 a      1156     1    19     2     6
  1.6912383462439897E+00 a      1157     1    19     2     7
 -1.8763699095117616E+00 a      1158     1    19     2     8
 -6.9469717376783990E-01 a      1159     1    19     2     9
 -1.5046683334634706E-01 a      1160     1    19     2    10
  2.6341119579346173E-01 a      1161     1    19     2    11
  2.3062251341971926E-01 a      1162     1    19     2    12
  1.5290285406253652E+00 a      1163     1    19     2    13
 -2.1837862265930552E-01 a      1164     1    19     2    14
 -5.4248354526096776E-01 a      1165     1    19     2    15
  3.3080165932244667E+00 a      1166     1    19     2    16
  2.4625903701266469E-01 a      1167     1    19     2    17
 -3.1888703212186387E-01 a      1168     1    19     2    18
  5.2961015901162123E-01 a      1169     1    19     2    19
 -3.5888547678540716E-01 a      1170     1    19     2    20
 -4.5290777931254071E+00 a      1171     1    19     2    21
 -1.3065727868740804E+00 a      1172     1    19     2    22
 -6.7826216562440922E-02 a      1173     1    19     2    23
  2.7318989143802985E-01 a      1174     1    19     2    24
  1.9681037630296412E+00 a      1175     1    19     2    25
 -5.3052760964527437E+00 a      1176     1    20     2     1
  1.3864996741463906E+00 a      1177     1    20     2     2
  1.6685861561329967E+00 a      1178     1    20     2     3
  4.3744485538486122E-01 a      1179     1    20     2     4
 -3.2431464838616062E+00 a      1180     1    20     2     5
  2.4791910881902863E+00 a      1181     1    20     2     6
 -5.2377928027274881E-02 a      1182     1    20     2     7
 -1.1845218966864877E+00 a      1183     1    20     2     8
 -4.0647507232008612E-01 a      1184     1    20     2     9
 -2.5699217677315165E+00 a      1185     1    20     2    10
 -5.0278363196343445E+00 a      1186     1    20     2    11
 -7.8286339976871888E-01 a      1187     1    20     2    12
 -2.2721711567919796E+00 a      1188     1    20     2    13
  1.9076081348262621E+00 a      1189     1    20     2    14
  7.8366963668960077E+00 a      1190     1    20     2    15
  3.7879981140331100E+00 a      1191     1    20     2    16
  2.6917948754144727E+00 a      1192     1    20     2    17
 -1.2855783484873708E+00 a      1193     1    20     2    18
  2.2974517284871916E+00 a      1194     1    20     2    19
 -7.0154155896650594E-01 a      1195     1    20     2    20
  1.0372118803226751E+00 a      1196     1    20     2    21
  2.7822082843269205E+00 a      1197     1    20     2    22
 -2.3190501193957078E+00 a      1198     1    20     2    23
 -1.5851477882993255E+00 a      1199     1    20     2    24
 -6.1433993231926598E-01 a      1200     1    20     2    25
 -6.0475039890599025E-01 a      1201     1    21     2     1
  1.7548857873844526E+00 a      1202     1    21     2     2
  4.3251702598763053E+00 a      1203     1    21     2     3
  1.0193056816314612E+00 a      1204     1    21     2     4
  1.7494865464277121E+00 a      1205     1    21     2     5
  1.7975822795236960E+00 a      1206     1    21     2     6
  5.3990134476560914E-01 a      1207     1    21     2     7
  1.1393688613451867E+00 a      1208     1    21     2     8
  9.1659632437759331E-01 a      1209     1    21     2     9
 -1.6082818658255882E+00 a      1210     1    21     2    10
 -1.5310014768593856E+00 a      1211     1    21     2    11
  1.6370924022644981E+00 a      1212     1    21     2    12
  7.1661789923460395E-01 a      1213     1    21     2    13
  2.2378988911953273E+00 a      1214     1    21     2    14
 -2.7087704936104511E+00 a      1215     1    21     2    15
 -2.2609901904526026E+00 a      1216     1    21     2    16
  9.8639335869884381E-01 a      1217     1    21     2    17
  1.5874951978838352E+00 a      1218     1    21     2    18
 -1.2500118081686420E+00 a      1219     1    21     2    19
 -1.3195381534948016E+00 a      1220     1    21     2    20
  1.1725953650342837E+00 a      1221     1    21     2    21
 -2.0792521595573660E-01 a      1222     1    21     2    22
  7.4984939638508163E-01 a      1223     1    21     2    23
  2.8600514386952741E-01 a      1224     1    21     2    24
  4.2166850071549089E-01 a      1225     1    21     2    25
 -1.6231366607887163E+00 a      1226     1    22     2     1
  7.7592476210904038E-01 a      1227     1    22     2     2
 -1.4450645768292500E+00 a      1228     1    22     2     3
 -4.2629636188843872E-01 a      1229     1    22     2     4
  1.6754143201807556E+00 a      1230     1    22     2     5
 -9.6196269023735315E-01 a      1231     1    22     2     6
  1.1378648868092376E+00 a      1232     1    22     2     7
  6.0169572099616497E-01 a      1233     1    22     2     8
 -4.6132140844225328E-01 a      1234     1    22     2     9
  6.7557121692428301E-01 a      1235     1    22     2    10
  2.1644623273595736E+00 a      1236     1    22     2    11
  6.2648036728191170E-01 a      1237     1    22     2    12
  1.3334883682126935E+00 a      1238     1    22     2    13
  9.7036465530467159E-02 a      1239     1    22     2    14
  2.6084718263750797E+00 a      1240     1    22     2    15
 -1.3785383629120534E-01 a      1241     1    22     2    16
 -3.7820442422779832E-01 a      1242     1    22     2    17
 -6.4252299397187229E-01 a      1243     1    22     2    18
 -2.9314455166266501E-01 a      1244     1    22     2    19
  1.1024250044656958E+00 a      1245     1    22     2    20
  5.8098518459291604E-01 a      1246     1    22     2    21
 -2.9050211573063123E-01 a      1247     1    22     2    22
  4.6763920993744817E-01 a      1248     1    22     2    23
  4.9484088250326014E-01 a      1249     1    22     2    24
  5.3690232274782801E-01 a      1250     1    22     2    25
  9.9109696252340274E-01 a      1251     1    23     2     1
 -2.1301511195610896E+00 a      1252     1    23     2     2
  1.6840616186030548E+00 a      1253     1    23     2     3
  6.1225270370226348E-01 a      1254     1    23     2     4
  1.7389454876161148E+00 a      1255     1    23     2     5
 -2.7825591705433350E-01 a      1256     1    23     2     6
 -2.7936640048403444E-01 a      1257     1    23     2     7
 -6.8785220516820200E-01 a      1258     1    23     2     8
  1.4129342774254123E+00 a      1259     1    23     2     9
  9.6226938167429887E-02 a      1260     1    23     2    10
  1.2293260721760859E+00 a      1261     1    23     2    11
 -4.4616821726263356E-01 a      1262     1    23     2    12
 -1.9083846564229379E-01 a      1263     1    23     2    13
 -3.6884783691584566E-01 a      1264     1    23     2    14
 -1.0041903320137768E+00 a      1265     1    23     2    15
  4.7930861755437199E-01 a      1266     1    23     2    16
  4.2812422624895215E-02 a      1267     1    23     2    17
  6.0207563320172040E-02 a      1268     1    23     2    18
  8.4489767015494521E-01 a      1269     1    23     2    19
 -3.4197762568537077E-01 a      1270     1    23     2    20
  8.4871980352970244E-01 a      1271     1    23     2    21
  1.5208224166599209E+00 a      1272     1    23     2    22
 -7.3736564633959689E-01 a      1273     1    23     2    23
 -8.1797992422084376E-01 a      1274     1    23     2    24
 -5.2278258877628625E-01 a      1275     1    23     2    25
  1.5256186357397050E+00 a      1276     1    24     2     1
 -2.1455531408680995E+00 a      1277     1    24     2     2
 -1.5568221546571417E+00 a      1278     1    24     2     3
 -5.6689362794308495E-01 a      1279     1    24     2     4
  6.7196510954510874E-02 a      1280     1    24     2     5
  4.0353650410021846E-01 a      1281     1    24     2     6
  4.9582642428596174E-01 a      1282     1    24     2     7
 -1.6762668141158183E+00 a      1283     1    24     2     8
 -9.8015927664843694E-01 a      1284     1    24     2     9
  2.1170185047142867E+00 a      1285     1    24     2    10
  1.1957531569153477E+00 a      1286     1    24     2    11
  2.3447293445934236E+00 a      1287     1    24     2    12
  1.4931304393493630E+00 a      1288     1    24     2    13
 -1.0451746846286616E+00 a      1289     1    24     2    14
  7.8815890404439204E-01 a      1290     1    24     2    15
 -2.1690938662911408E+00 a      1291     1    24     2    16
  2.0072371036865526E+00 a      1292     1    24     2    17
 -2.3536113139343384E+00 a      1293     1    24     2    18
  9.9837463510304303E-01 a      1294     1    24     2    19
 -6.6741098614539140E-01 a      1295     1    24     2    20
  7.0077691900556724E-02 a      1296     1    24     2    21
 -3.2245495563021951E+00 a      1297     1    24     2    22
  6.1176855787161522E-01 a      1298     1    24     2    23
  1.0908342843395060E+00 a      1299     1    24     2    24
 -3.4982510208278345E-01 a      1300     1    24     2    25
  9.3413308277184304E-01 a      1301     1    25     2     1
  2.9846251731104463E+00 a      1302     1    25     2     2
  1.7950959732373815E+00 a      1303     1    25     2     3
  1.0653568438943410E-02 a      1304     1    25     2     4
  1.2469282105484043E+00 a      1305     1    25     2     5
 -2.4656845431600463E+00 a      1306     1    25     2     6
  2.2241670626786603E-01 a      1307     1    25     2     7
  2.8480146727970634E-01 a      1308     1    25     2     8
  4.3958908003768796E-02 a      1309     1    25     2     9
 -9.0498248468787262E-02 a      1310     1    25     2    10
 -7.5862221536035179E-01 a      1311     1    25     2    11
 -1.1596931310817784E+00 a      1312     1    25     2    12
  3.2248813272081833E-01 a      1313     1    25     2    13
 -3.4898744657559377E-01 a      1314     1    25     2    14
 -6.0581377862811769E-01 a      1315     1    25     2    15
 -6.9538674207613960E-01 a      1316     1    25     2    16
 -1.2933715338403378E+00 a      1317     1    25     2    17
  1.0764319977163297E+00 a      1318     1    25     2    18
  7.5670705635446422E-02 a      1319     1    25     2    19
  8.6424707235936638E-01 a      1320     1    25     2    20
  8.7940688504894921E-02 a      1321     1    25     2    21
  2.2963194795305375E+00 a      1322     1    25     2    22
 -1.1300434941638113E-01 a      1323     1    25     2    23
 -7.3850001035370794E-01 a      1324     1    25     2    24
  9.1084791273218058E-01 a      1325     1    25     2    25
  3.5465426928528104E-01 b      1326     2     1
  1.9767504103811522E+00 b      1327     2     2
 -8.7876046976353592E+00 b      1328     2     3
  3.6286993020560248E+00 b      1329     2     4
 -7.4534482130708462E+00 b      1330     2     5
 -8.4270364607848300E+00 b      1331     2     6
 -2.0070696831929400E+00 b      1332     2     7
 -4.4572585549906378E+00 b      1333     2     8
  2.7405277313354537E+00 b      1334     2     9
 -2.2301666152942629E-01 b      1335     2    10
 -5.7470207743018307E+00 b      1336     2    11
 -4.3283185778505935E+00 b      1337     2    12
  3.2882291221188682E+00 b      1338     2    13
 -8.7825670313464177E-01 b      1339     2    14
  1.0606381391506696E+01 b      1340     2    15
 -6.6716751495223185E+00 b      1341     2    16
  9.0804190622752218E-02 b      1342     2    17
 -1.7390790394862194E+00 b      1343     2    18
 -4.5562470492282259E+00 b      1344     2    19
  2.6200081451057153E+00 b      1345     2    20
 -1.6593574084970598E+01 b      1346     2    21
 -7.2244644581041468E+00 b      1347     2    22
 -6.7616201338778525E+00 b      1348     2    23
  4.9733756067270918E-01 b      1349     2    24
 -3.5090269306013258E+00 b      1350     2    25
  8.1864155982481901E-01 a      1351     2     1     3     1
  4.1967230381179321E-01 a      1352     2     2     3     1
 -5.1041478935160656E-01 a      1353     2     3     3     1
  7.6196665267511166E-01 a      1354     2     4     3     1
 -5.6968024729457412E-01 a      1355     2     5     3     1
 -1.1593628963494720E+00 a      1356     2     6     3     1
  4.2290839860644116E+00 a      1357     2     7     3     1
  1.2221133692033337E+00 a      1358     2     8     3     1
  1.2382017635579501E+00 a      1359     2     9     3     1
  1.2385120295637035E+00 a      1360     2    10     3     1
  6.2479313975067896E-01 a      1361     2    11     3     1
 -2.2764044053776513E+00 a      1362     2    12     3     1
 -7.6942685622162299E-01 a      1363     2    13     3     1
 -1.9926775963828947E+00 a      1364     2    14     3     1
  1.3984670737562956E+01 a      1365     2    15     3     1
 -6.1375361984584398E-01 a      1366     2    16     3     1
  1.4444159247106247E+00 a      1367     2    17     3     1
 -7.0626293034546983E-01 a      1368     2    18     3     1
  1.1596861804550633E+00 a      1369     2    19     3     1
  1.5406302730642631E+00 a      1370     2    20     3     1
 -2.9512515221010136E+00 a      1371     2    21     3     1
 -1.3403717278838181E+00 a      1372     2    22     3     1
  1.7649424192273069E+00 a      1373     2    23     3     1
 -1.4177429126335237E+00 a      1374     2    24     3     1
 -4.3776020658348918E+00 a      1375     2    25     3     1
  5.3081836905455138E+00 b      1376     3     1
