     -1.4888017024
     -1.0017511436
     -1.1705029344
      0.6414103790
      0.2140403300
     -0.1026432602
     -0.0174383388
      0.3331085986
      0.3793430722
     -0.3303750465
      1.4789792152
     -0.8809387034
     -0.7433616539
      1.9484973301
      0.3899739566
     -1.5454192398
     -0.9055489974
     -0.8277917923
     -0.5777927282
     -0.5223132192
     -0.8810762974
     -0.1101163560
     -0.1533430498
     -0.2377377963
      0.2138962565
     -0.0132007576
      0.4904505541
     -0.0335941714
     -0.3806985032
     -0.5236784919
     -0.6209355724
     -0.1368801342
     -0.0088625262
     -0.3759965136
     -0.0733722403
     -0.0012326042
     -0.1624516438
     -0.0273982461
      0.3317405833
      0.2815090995
      0.1875439696
      0.6260027685
      0.5215529418
     -0.5322396567
      0.3446091767
      0.0347493778
     -0.4563104126
      0.1104412679
     -0.1347965805
     -0.5622254472
      0.3871238242
      0.3362064347
      0.1822209069
     -0.3223321905
      0.0701017737
      0.3762275128
      0.3961039164
      0.4778753236
     -0.5685960130
      0.4814378311
      0.1993690095
     -0.1235293614
      0.2910057032
     -0.9505893382
      0.2692414487
      0.6278566042
      0.1037176712
      0.4841582715
     -0.1892464641
      0.9434407586
     -0.6178794870
      0.9091361754
      1.1933435533
     -1.4155870671
     -0.1189239170
      0.7269244449
      0.2703700120
     -0.1793085568
      0.1248321810
      0.2106361067
      0.8806724501
      0.4276010456
      0.4776106525
      0.0506541684
     -0.1786751640
     -0.0763037363
     -0.3420462616
     -0.1143970958
      0.3704849225
      1.5066744083
     -0.2367170132
     -0.1457966423
     -0.0308319311
     -0.2730000774
      0.6488153491
      0.8879587482
      0.2063419313
      0.0122982782
      0.4502714143
      0.1871250710
     -0.2165619759
     -0.0435890354
     -0.5560803877
      1.4521312199
      0.2342364551
      0.7601873569
     -0.1991963220
      0.2642172811
      0.1158846780
      1.1960869146
     -1.0889586625
     -0.8817908502
      0.3506735846
     -0.8351667224
     -0.9248840778
     -0.5400175749
      0.4998695561
     -0.3882540978
     -0.3622393196
     -0.6569324324
      0.0363303904
      0.5447484487
     -0.7338996921
     -0.0781323293
      0.2238236356
     -0.9167299330
      0.4580166800
      0.0143999708
      0.5247884201
     -1.0815517756
      0.0402330966
      0.1056890409
     -0.0094211343
     -0.0013035368
      0.4797689057
      0.5187854610
      0.5723168941
     -0.1819713182
      0.4015321816
     -0.1681640071
      0.5301870488
      0.0931431814
      0.0290987728
      0.4205243136
      0.4264724644
     -0.6957253717
      0.1909090918
      0.3581991152
     -0.1416601912
     -0.1123970840
     -0.1314235841
      0.1688318613
     -0.1379177947
      0.3532596357
     -0.6704295045
     -0.2946578835
     -0.1720089868
     -0.1537416401
     -0.2688881698
     -0.3799738100
     -0.7106331481
      0.4367219986
      0.5855889382
     -0.3899779563
     -0.2792952026
     -1.5245808139
     -0.5513806266
      0.8692974234
     -0.2741632804
     -0.6062190375
     -0.3604725451
      0.3259486516
      0.3363966232
     -0.0442549617
     -0.0188410038
      0.6462078306
     -0.1180726862
      0.3669540581
      0.3128139913
      0.0581398132
      0.1778325171
      0.0148846415
     -0.4429995921
      0.2390172381
     -0.1331025880
     -0.6024920452
      0.5117700657
     -0.2691642687
     -0.2315779607
     -0.3163003641
     -0.0127591756
     -0.4391654338
     -0.3925018208
     -0.4744533821
     -0.2107614189
      0.0018311472
      0.0994113312
     -0.3325323373
     -0.0877343069
     -0.0968864505
      0.6322296571
     -0.6009314321
      0.5239541145
      0.4070156005
     -0.2424100255
      0.1701964662
     -0.1891924004
     -0.1725962288
     -0.7454897924
     -0.5669621459
      0.1908183223
      0.1942187055
      0.0604871372
     -0.2492556116
     -0.0385591976
     -0.4468781371
     -0.5177978893
     -0.4064720805
     -0.1066245329
     -0.0948811797
      0.1951580772
     -0.4209040086
      0.3766356111
     -0.3915380758
     -0.0757449805
      0.1359964622
     -0.3250915212
      0.0933939924
      1.1579791964
      0.0838738469
      0.2034585376
     -0.1635881649
     -0.1456949933
     -0.3592021673
      0.2137216945
      0.8663164242
     -0.5406019849
      0.5695388479
     -0.5641558406
     -0.5315446888
      0.1534782506
      0.1169388218
      0.5654266064
      1.0147237347
      1.3732022653
      0.6500158986
      1.1632835797
     -0.5884712191
      0.2854592057
     -0.7358820889
     -1.4883158150
     -1.4659492093
      0.6832997457
     -0.8368397154
     -1.1717355422
     -1.1242763048
      0.8232282353
      1.0516581383
     -1.2828360647
     -0.6386923945
     -0.1513156265
     -0.9376289558
      1.3851629835
      0.8867636168
      0.7387855490
     -0.8683467466
     -0.4716412042
     -0.6897128476
      0.4095249979
      0.5762449737
     -0.2665504893
      0.3188790824
      0.1051138437
      0.6889232475
      0.9968166073
      1.1289109944
      0.6421847440
      0.6455952692
     -1.3277342307
      0.6607803174
      0.3282420919
     -0.6982637371
      0.6609483163
      0.3439666041
     -0.3715966414
      0.0159730175
     -0.1205577528
      1.0197327655
     -1.3260767632
      0.4947942862
     -0.1771262309
      0.2152509228
      0.7073444199
      0.4952289425
     -0.3648873709
     -0.6717529937
     -0.8970037869
     -0.3106776487
      1.4756607507
      1.3109554608
      0.7761662035
      0.2478030259
      0.7158647333
     -0.9846390602
     -0.2666931357
      0.7091981268
     -0.5826017017
     -0.5602419898
      0.7390021308
     -0.5504342883
     -0.1375936285
     -0.4514210761
      0.2099406133
      0.2125369737
     -0.2521348016
     -0.0029157092
      0.4677337161
      0.1809599129
      1.0144127591
      0.3451893959
     -0.6337317414
     -0.0508060743
     -0.3488065093
     -0.5868150461
     -0.4057516293
     -0.5513580134
     -0.5037365214
      1.0618947134
     -0.4053124485
     -0.1073099713
     -0.1983561674
      0.9143174940
      0.3711851453
      0.1675915481
      0.9442410385
      1.4169059444
      0.8964498483
      0.6351748598
      0.3771924872
      0.1182449734
      0.5090113687
      0.6708904047
     -0.8270112269
     -0.5649866970
     -0.4874200759
     -0.3287438684
      0.3092346389
     -0.2279650134
     -0.4421639806
      0.4831869975
     -0.7094794603
      0.1960570902
     -0.4975532963
     -0.9423000986
      1.0156191991
      0.0337459525
      0.4260312858
     -0.0937523612
     -0.0741517372
     -0.7627368761
     -0.0551132364
     -1.2669094800
      1.5714913564
     -0.4710485224
      0.3959194509
     -1.4738849406
      0.6445191585
      0.6742980006
     -0.0153435455
     -0.1322922446
     -0.1080074201
      0.2635518470
      0.0378352369
      0.0536731840
      0.0140530090
     -0.2031779658
     -0.0237474741
      0.0096196990
      0.2266015533
     -0.0147361168
     -0.1884361464
