     -0.7239126988
      0.2887945015
      0.6150030559
     -0.0745244807
      0.1922931645
      0.5450717030
      0.3523676687
     -0.1354191259
     -0.4936744039
      0.1006712283
     -0.1249498936
     -0.0498441201
      0.7917993654
     -0.9537905777
      0.1535540424
      1.1353879291
      0.8394531997
     -0.1487668139
      0.5615669417
      0.6303217018
     -1.3897871019
      0.1019402863
      0.2169914029
      0.5194776737
      0.1420931646
      0.3045739822
     -0.1394122767
     -0.5010318613
      1.7758500650
     -0.1554600431
     -0.5045970714
      0.2563171005
      0.5823023801
     -0.0725409840
      0.1710907699
      0.5224949313
      0.2841406013
      0.0568434388
     -0.4695470699
      0.2630172573
     -0.1188187700
     -0.0879247900
      0.7626911139
     -0.9619696508
      0.1454271827
     -0.3125763270
      0.2306723887
      0.5560414749
     -0.0693472884
      0.1540542690
      0.5078318715
      0.2313327463
      0.2058223962
     -0.4430843269
      0.3880126730
     -0.1174862436
     -0.1161946387
      0.7389624395
     -0.9685547341
      0.1391173811
      0.5645167545
      0.7628765708
     -0.2203116335
      0.2004507556
      0.4062148600
     -1.2051051907
     -0.0634363545
     -0.0214503453
     -0.0149790536
     -0.0295144439
     -0.0087060105
     -0.1128214180
     -0.6628413561
      1.4950818081
     -0.1945978324
     -0.0306869670
      0.1969387456
      0.5206802343
     -0.0627198851
      0.1311674263
      0.4931101702
      0.1632129264
      0.3980196606
     -0.3967856189
      0.5481332932
     -0.1208889239
     -0.1507878648
      0.7063686033
     -0.9772722099
      0.1309606921
      0.3087799901
      0.1612352084
      0.4823153576
     -0.0522329278
      0.1062933702
      0.4840830818
      0.0934882240
      0.5955203461
     -0.3315142730
      0.7110224688
     -0.1312952873
     -0.1835558144
      0.6703846021
     -0.9868310017
      0.1224942606
      0.1645689037
      0.7456473392
     -0.2548105745
     -0.0484937609
      0.2691606171
     -0.9735649496
     -0.0784310651
     -0.2610924679
     -0.3687166683
     -0.0776682545
     -0.2496702204
     -0.1243964768
     -0.7156606934
      1.1853099325
     -0.2208803374
      0.7107428608
      0.1245972705
      0.4415987072
     -0.0369375045
      0.0798279814
      0.4828351875
      0.0248961836
      0.7911487769
     -0.2434317705
      0.8704968862
     -0.1500529782
     -0.2126115506
      0.6313874451
     -0.9970004981
      0.1141144175
     -0.1274427812
      0.7962309534
     -0.2355889924
     -0.2060073369
      0.1910720306
     -0.6214600035
      0.0472471455
     -0.4316682249
     -0.5628749916
      0.0120005476
     -0.3350581770
     -0.1316403958
     -0.6548931281
      0.7609628003
     -0.2327586835
     -0.2768308979
      0.8730846939
     -0.1601281293
     -0.2698680072
      0.1350275859
     -0.1300726988
      0.2200795206
     -0.4192710269
     -0.5002853590
      0.2144201100
     -0.0746440503
     -0.0573796222
     -0.5010319615
      0.2090737107
     -0.2296608955
     -0.2919412227
      0.9199288763
     -0.1678026400
     -0.4874382412
      0.0104018057
      0.4823744279
      0.2394210410
     -0.5488072029
     -0.1042034269
      0.3657093808
      0.4959985506
      0.1205643819
     -0.4413892972
     -0.4391649291
     -0.2742281945
      0.4190684820
      0.0961204989
      0.3742642447
     -0.0171133830
      0.0203259161
      0.4647012616
     -0.2965170081
      1.8299799256
     -0.4520321626
      1.0376472514
      0.2889218837
     -0.5121277956
      0.7371164386
     -1.3915502658
      0.2035161470
      0.0944302736
      0.6031245807
      0.1694854581
      0.0567357054
      1.1948460688
     -2.0744300664
     -0.0421715484
     -0.1279228219
     -0.3393347509
     -0.3636796090
     -0.1941195551
     -0.3918831342
     -0.5527915590
      3.1383790735
      0.1619652185
      0.1351417172
      0.2566600444
      0.3415858815
      0.0329822840
      0.5259712518
      0.3166428024
      0.2720544405
     -0.2031928098
     -0.1497130702
      0.2554227301
      0.2339795465
     -0.0878247890
     -0.0723732895
     -0.3918308227
      0.1990581192
      0.0593433379
      0.3970395692
     -0.1280192008
     -0.0501565679
      0.2820328181
     -1.1162176032
     -0.3177856041
     -0.0345549372
     -0.1427282580
     -0.3678336601
     -0.1217450488
     -0.5615115812
     -0.0329209585
      1.6222840291
     -0.3004304712
      0.3646963055
      0.1172227234
      0.2525152644
     -0.1376848947
      0.2744847796
     -0.0109005959
     -0.4498082488
      2.3178548262
     -0.2323073111
      0.9457303992
     -0.2287075151
     -0.7730263612
      0.7899339793
     -0.5741564614
      0.3032007929
      0.1406696628
      0.2663864897
     -0.0127404972
      0.5875261240
      1.7735411304
     -2.6978192791
      0.2070051097
      0.1667685917
      0.2479740621
      0.5553491185
      0.0414389085
     -0.4501472767
     -0.7994033710
      3.9393911257
      0.2313818101
      0.0832620405
      0.2733349294
      0.3193271475
      0.0352032634
      0.5959985179
      0.2638648244
      0.3461860157
     -0.4985821414
     -0.0882419264
      0.1190710412
      0.1973403747
     -0.0273337073
     -0.1955923495
     -0.1889123056
      0.1947804572
      0.0474601895
      0.2959144791
     -0.2131217107
     -0.0525941651
      0.0294741906
     -0.7973019953
     -0.3638396473
      0.0083016994
     -0.0494791596
     -0.3015065003
     -0.0819766246
     -0.5754300076
      0.1063354627
      1.1185932995
     -0.4093722556
      0.0049910518
      0.3042999527
      0.2652808211
     -0.0052164558
      0.7406048061
      0.1091470368
      0.4845402185
     -1.0343627009
      0.0936152692
     -0.1893893992
      0.1000810173
      0.0975413541
     -0.4382750302
      0.2876280917
      0.1899321260
      0.0251268282
     -0.0496490847
     -0.4135288160
      0.0471904219
     -0.4907787450
      0.0273322797
     -0.3347088908
      0.0964025273
      0.2904086691
      0.0350674705
      0.0407696838
     -0.5227634769
      0.3908111682
     -0.1894856454
     -0.5676421016
      0.1746333982
      0.3587163358
      0.1750061981
     -0.2178521416
      0.9895748995
     -0.3338608730
      0.7415126920
     -1.8146086903
      0.7171423069
     -0.8616635025
     -0.0561670403
      0.4615826984
     -0.8480832721
      1.2984942136
      0.1903746795
      0.0123249513
     -0.5384806607
     -0.6266730119
      0.4080290844
     -0.6960440685
      0.8037444530
      0.1534830613
     -0.1082628251
      0.9160962132
      0.6094984776
      0.1015100027
     -0.4095258021
      0.5530678481
     -1.4513164547
     -0.4176735583
      0.6346935615
      2.1342150657
     -0.6811663238
      1.1314779128
      3.1425857700
     -1.5331326022
      0.6633948167
     -0.1257700039
      0.5103854134
     -0.4036848360
      0.5530186902
     -0.3081965212
      0.2267315032
      0.3953745349
      2.1314590509
      0.0565887093
     -1.7287202730
     -0.4589396281
     -3.9674600260
     -0.3000178951
     -0.5077335546
     -0.9441158289
      0.4217663337
      0.2207614838
     -0.7552903929
      0.0607160013
      0.0433462892
      0.1653548351
      0.9324766316
      0.0403372731
      0.5823005196
      0.1293038028
     -0.6749382658
     -2.7186293281
     -0.4312921665
     -0.8536178045
     -0.8076109696
     -0.0726977714
      1.1214362946
     -1.0555716640
      0.1304363388
     -0.2045229328
      0.2352474674
      0.1926039953
      0.5830906528
     -0.6816685445
     -0.1219082562
      0.2032388797
     -3.9778307429
     -0.3625004369
     -0.5444155305
      0.0833169442
      0.0497830738
     -0.1059298415
     -0.0026989849
      0.2915446945
     -0.3954467122
      0.6944652336
     -0.2978191663
     -0.0985009952
     -0.1319256551
     -1.3654246516
     -0.3531906351
      2.3658249178
     -1.1640141859
     -0.0451295578
     -0.1396520714
     -0.1397737977
     -0.5282354995
      2.3234506544
      0.3510921999
     -1.2286488405
     -0.5877684953
     -1.5754038597
      0.1386181482
      0.4747896480
      2.3124974834
     -0.1154091427
     -3.6717826431
     -0.5023448531
     -0.6634228915
     -0.8648122660
      0.5539908295
      1.0074287123
      1.3430095267
      0.0067782116
     -1.0468210452
      0.1383696007
      0.1570136118
      0.4493222267
     -0.3346364851
     -0.1868017266
     -0.2347218182
     -1.4470639662
      0.7605456187
      0.7841721636
      0.4708420770
     -0.9033096823
      0.4785602343
     -1.1030022637
     -0.4532598361
      0.3365565343
     -0.1454912361
      0.1181116339
     -0.3800355191
      0.7345303172
     -0.9597798454
     -0.7593524378
     -4.9509841157
     -0.0791575638
     -0.1941862936
      0.0403468596
      0.4081339705
      0.6630843610
      1.2388688837
     -0.0153231897
     -0.3277678472
      0.7134093224
     -0.5071853265
      0.1478687622
     -0.0325646715
      0.1222625370
      0.6566890964
     -4.1343551145
      1.3662111661
      0.1412444701
      1.4503396439
      0.7993987216
      0.5994844244
      0.0292441111
      0.5708091715
     -0.4254289643
     -0.1941677388
      0.2561759817
      0.2735867279
      0.1316485273
     -1.0894526110
      0.5556607416
      4.4500328768
      0.4410308445
      0.3543669125
     -0.1052225181
     -0.4690297496
      0.1141796344
      2.1248699847
      0.0022755636
     -0.7325704842
     -0.1991589858
      0.7124456787
      0.4243076956
     -0.1563484087
     -0.2978063306
     -0.0738618473
      3.3125562022
      1.1759899194
      0.0868697799
      0.6244515067
      0.0511522888
      0.1448706733
      3.2682369874
     -0.1900761605
     -0.5510733940
      0.0007320805
      0.3008907036
     -0.0816518405
     -0.1901205116
     -0.2092354986
     -0.7583277390
     -3.0644584043
     -0.4967502537
     -0.3073948323
      0.9990127518
      0.8120039124
      0.8554327591
      0.7317616298
     -0.0775118554
      0.8018506965
      0.1471018000
      0.4613604031
      0.2072089488
      0.1542755371
     -0.1095362468
      0.6381305577
      4.0018429281
      0.6281128253
      0.7028093418
     -0.0437240014
     -1.0087236425
      0.0156791310
     -0.6836828591
     -0.2949673395
     -0.8724872409
      0.7499870822
      0.9287312435
      0.4051324357
      0.2084318549
     -0.1747018390
     -0.8937037212
     -3.8584537053
      0.8123533897
     -0.3158531386
      0.6815400658
     -0.2587989522
      0.3639319981
     -0.0574495276
     -0.4512306469
      0.2783051568
     -0.2116473900
     -0.3536653580
     -0.2402199614
     -0.7511133513
      0.0268811114
     -0.2455716463
      0.4720913886
      1.7052264664
      0.2252507052
      1.6914659042
      0.4837011843
     -0.2641889797
      2.4983549561
      0.3316240415
     -0.1391239447
     -0.0430273584
     -0.8350089762
      0.0138247041
      0.5678806626
     -0.9440236217
     -0.2564781384
     -3.5351246883
     -0.4108630846
     -0.6762060218
     -1.4204506660
      0.7914188615
      1.1217823212
      1.2261844975
     -0.1246705707
     -0.4724473857
      0.5627514398
     -0.0571710112
      0.5224112001
      0.9402373999
     -0.0869344925
     -0.4840434548
     -3.5744349016
     -0.4644765623
     -0.6562664307
     -0.9681411741
      0.5690881460
      1.1160327322
      1.1285989852
     -0.0522574649
     -0.6006459821
      0.2366735539
      0.4033268660
      0.5282199402
     -0.0916954836
      0.1348333259
      0.0187912308
     -0.7910483770
     -0.2771410030
      0.0551254333
      0.4589554261
      0.0470266344
     -0.2366829854
     -0.3155131560
     -0.0041708841
      0.1896004802
      0.0178864492
     -0.0090079392
     -0.0002511347
      0.1319248759
