     -0.4585604868
     -0.7675412208
      0.2621257041
      0.2779028370
      1.1979669560
     -0.2910217745
      1.1854996931
      2.6438620577
     -0.1625728023
     -0.0499552667
      0.3977953652
     -1.1410982655
     -0.1875686774
     -0.6605365423
     -0.2446167211
     -2.0045260214
      2.4577746814
      1.4958938570
     -0.4708334491
      0.7574459151
     -0.0441827440
      2.2518988391
      2.8644046137
      0.7110614595
      0.3510475590
     -0.1915871146
      2.3829171007
      1.1681601446
     -1.3828758802
     -0.1104878156
     -1.5139369829
      1.1857141253
      0.7300764989
     -0.5611199815
      0.5042607934
      0.1003813254
      0.7791812565
      0.7591630077
      0.4839417902
      0.0742983854
     -0.2646980250
      0.8568832249
      0.6208036561
     -0.4236168046
      0.0610404901
     -0.5394891815
      0.5348049050
     -0.2693181757
     -0.2090807927
      0.7674762162
      2.4626831723
      0.6123381216
      0.5330286656
      0.3644693991
      1.8788519316
     -0.1188392009
     -1.6784541644
     -0.3578632002
     -0.3616958115
     -0.2486547081
     -1.0668788567
      0.2193850936
     -0.0615710517
     -0.5722450458
      0.2366797525
      0.5855974005
     -0.2578827688
     -0.7403826140
      0.3408501953
      0.0437565710
     -0.3029888832
     -0.4275639257
      0.2052253059
      0.3860094713
      0.2038172460
     -0.4402608046
      1.0129199291
     -0.1539367246
     -0.2382128494
      0.3450939382
      2.9674537805
      0.3548587861
     -0.2746657635
      0.3969556835
      2.3849962652
     -0.3005945526
     -1.5613818931
     -0.4556864587
     -0.1482299646
     -0.2628242931
     -0.6579176582
     -0.1539110386
     -0.7982879517
     -0.7626990141
     -0.0780439596
      2.2485460618
     -0.8408087833
     -1.6278937883
      0.4131383652
      0.7633139660
     -0.3657512907
     -1.6703480874
     -0.0734942366
      1.0072167585
      0.2517233035
     -0.1600854981
      0.8206414860
      0.4471010130
     -0.0041265145
     -0.0478288745
      1.9970517316
      0.2984465764
     -0.1635439497
      0.0945733193
      1.7982519584
     -0.2536691852
     -0.9321231148
     -0.5067267590
      0.0136623261
     -0.3498785977
     -0.3055729125
      0.1069512298
     -0.4272531170
     -1.1349573189
     -0.2847827808
      3.9341484515
     -0.8465655848
     -1.3127582824
      0.6248650180
      1.7414504215
     -0.4288922361
     -2.3605349422
     -0.2815633269
      1.3016989779
      0.1494539710
      0.2554445689
      0.1444901554
      1.2036217692
      0.1815177383
     -0.2761984649
      0.7746684393
      0.2510299835
      0.3476706502
     -0.2342498628
      0.6329589565
     -0.0846850524
     -0.0514387533
     -0.5672160818
      0.1059301776
     -0.5029685334
      0.0290837125
      0.1472929882
      5.1682255220
     -0.5459256027
      0.3310290227
     -2.4608034031
      0.2818974326
      3.1161624446
      0.1720637251
     -0.8877720433
     -0.1434830635
      0.3772570693
     -0.7609301188
      1.0070856542
     -0.0099002509
      0.8381044061
     -0.5654455734
      2.1246363816
      0.0586620892
     -0.4402042280
      0.3063459003
     -0.1232939893
      0.3695713195
     -0.3639632040
     -0.5757249734
      0.1533560337
      1.1911497104
     -0.7992138607
      0.0742686824
     -0.4109837167
     -1.1424991644
     -1.0021716277
     -0.1125221170
      0.0027236899
      1.3904987211
     -1.4132328349
     -0.2322054144
      0.3136987599
     -0.2759667499
     -0.5154159928
     -0.3502480398
     -0.8777128112
     -0.0506362555
      0.0950842662
      1.0123613282
     -0.0940445351
     -0.2741035146
      1.1713043273
      0.9696493987
      0.0214767984
     -1.2604674016
      0.5117483036
      0.0880440127
      0.4217428286
     -0.8853368328
     -0.6115408946
      0.9172122162
     -0.4760333806
      0.5499250085
     -0.2704654038
      0.2449174326
     -0.1050311993
     -0.1485510317
      1.0146321724
     -1.6743211709
      0.2380767417
     -0.1328144437
      0.3638814031
     -0.1239239708
     -0.9601038260
     -0.1806512904
     -0.2575698971
     -1.2162814460
     -0.1610690177
     -0.7615870513
     -0.4591059211
     -0.4612198156
     -0.1540382710
      0.3441983173
      0.6391384300
     -0.7455779825
     -0.4627302238
      0.1314744334
     -0.7014068370
     -0.2033579104
      0.1212232083
     -0.6067023954
      0.5069908346
     -0.1774228426
      0.5536857046
      0.7152596430
     -0.2418226948
     -0.0352134388
      0.6312171276
     -0.0538997573
     -1.8036093239
     -0.1168802607
      0.7909203414
     -0.2117160212
     -0.4390582068
      0.4336737889
      0.0565324994
      0.8931585316
      0.0435124833
      0.3879218289
      0.6662162305
     -0.6033649501
     -0.6728141812
      0.2764534423
      0.8692009451
     -0.3103588626
     -0.3246343119
      0.0805694796
     -0.7924980381
     -0.4734892016
      0.7774455099
     -0.3552006863
     -0.1311372105
     -0.4510464545
      0.0872751413
     -1.0068512474
     -0.9366882501
     -0.1412700750
     -0.0692648205
      1.2727720375
     -1.2412274225
     -0.1330418616
      0.2253218249
     -0.1290402095
     -0.4364647730
     -0.4358748116
     -0.7905074940
     -0.1598844773
      0.2305348727
      0.9211109539
     -0.5239096769
      0.1874155714
      0.9697008034
      0.7611261866
     -0.0697588311
     -0.5518943437
      0.5789207512
      0.0244157208
      0.9491052451
     -0.7439931541
     -0.6774484135
      0.8670996480
     -0.4929419890
      0.5412678292
     -0.5268373832
      0.0840376342
     -0.2607310769
     -0.1247074014
      0.9302104239
     -1.6082907232
     -0.0934733327
     -0.0544075839
     -0.0659296363
      0.1060982776
     -0.3862593619
     -0.3381255597
     -0.0133900094
     -1.0318316002
     -0.3504094283
     -0.7014289303
      0.3079766203
     -0.0389294618
     -0.3651490085
      0.6087736787
     -0.0317926478
     -0.0373969409
     -0.6111852963
     -0.2307355678
     -1.0033829768
      0.2033559075
      0.3339897170
     -0.4331902160
      0.9350283302
     -0.0916543374
      0.1739349306
      0.4961860405
      0.1048187453
     -0.4115258728
      0.3354771239
     -0.1223458088
     -1.1934187986
     -0.1850137586
      0.7827224665
      0.0378443840
     -0.1925403772
      0.5438516370
     -0.1610405300
      1.0382208971
     -0.0721478188
      0.2986940144
      0.5508842218
     -0.7215798344
     -0.6587087954
      0.2018763434
      0.9514517105
     -0.5609427673
     -0.2681244852
     -0.2380255405
     -0.6299317154
     -0.0444312503
      0.6723833199
     -0.1755227672
      0.0214165418
     -0.5909926702
      0.1439287461
     -0.4741347554
     -0.7723338598
     -0.2175892032
     -0.1319381853
      0.8237379200
     -0.6223845297
      0.0655192356
      0.0791274955
      0.0241765665
     -0.2064087004
     -0.3940068910
     -0.5444628729
     -0.1359227526
      0.3800822323
      0.5993674359
     -0.7269496390
      0.8367187022
      0.1374179268
      0.7344415866
     -0.2551345486
     -0.1743276516
      0.9910772307
      0.3316258177
      1.2238138235
     -0.4179177766
     -0.2008342288
      0.6387734163
     -0.1928348474
      0.6881137644
     -0.7000929936
      0.0735157620
     -0.3324781162
      0.0420307653
      0.9959977273
     -0.7450342041
     -0.8529960883
      0.2969544922
     -0.0602600691
      0.2766838148
     -0.1003145324
      0.1700644349
     -0.0641415901
     -0.9352716760
     -0.6402313900
     -0.4651572692
      0.7722681957
      1.0887719406
     -0.4964838793
      0.7038089902
     -0.7986021023
      0.5782880196
     -0.6165892783
     -1.0079411424
     -0.9160050730
      0.7999285374
      0.1367149508
     -0.0647141492
      0.7688656893
      0.2878636341
     -0.3722237651
      0.1111473417
      0.3828950059
     -0.4378732916
     -0.1316414863
     -0.1096866025
     -0.3705437296
     -0.4851148132
      0.6206502475
      0.7147946611
     -0.0178212911
      0.3792484954
     -0.2507005539
      1.0659073038
     -0.2027245679
      0.2017199777
      0.3003215698
     -0.8389435343
     -0.6369460665
     -0.0933321836
      0.5776260865
     -0.5767028069
     -0.4353569523
     -0.7078700015
     -0.4528725887
      0.4402600593
      0.0847773972
      0.2788315779
      0.2652386196
     -0.5934642654
      0.0606796684
     -0.0240946437
     -0.5221134615
     -0.2158837878
     -0.1666201799
      0.2831691942
      0.1548712159
      0.4069982742
      0.0614233895
      0.0076948724
      0.1343740575
     -0.1587786167
     -0.2949905912
      0.0568310441
      0.2915891973
      0.2089325098
      0.0021438982
      0.1311775629
     -0.6705841369
      0.7347319618
     -0.1484791977
     -0.2162294124
      0.8309982253
     -0.0401276045
      0.8479086493
     -0.2065159209
      0.9296989088
     -0.0481041026
      0.5809043146
      0.4089903880
      0.2223221997
      0.1160041545
     -0.4602602639
     -0.1334080950
     -0.0435590321
      1.0788682386
      0.1605417540
      0.4218863145
     -0.3317259475
      0.4283293595
      0.0611642978
      0.9183707139
     -0.2723340672
     -1.0920471036
     -0.3713786255
     -0.2472463119
     -0.4721194768
      1.4978735406
      0.3286069439
      0.0938603768
      0.1690412455
     -0.5012145404
      0.6166936354
     -0.8298359733
     -0.6693731422
      0.5221510234
      0.4215053294
      0.0656388111
      0.4861742881
     -0.0081073075
     -0.4925803428
     -0.6600221667
      0.1272019508
     -0.0090456956
     -1.3715130022
      0.3109905053
      0.4535667158
     -1.6915038027
      0.8338429940
      2.2347737978
      0.0804225592
     -0.0308499916
     -0.1486614136
      0.9753636261
      0.3032806837
      0.0604180499
     -0.2851974368
     -0.1318419288
     -0.1369773622
     -1.0050621724
      0.4592854729
     -0.5367611149
     -0.7810309148
     -0.9202002259
      0.0669989367
      1.7276884639
     -0.9999769999
      1.0285707457
      1.1542196303
     -0.6086259937
     -0.0759605467
     -0.9023685322
     -0.1508870075
      0.6164065665
      0.3333376818
     -0.7858766466
      0.4294231053
     -0.4407090829
      0.7736383708
     -0.2359834008
     -0.0202907128
     -0.2180730486
     -0.6840055578
     -0.8463543049
     -0.1538054213
      0.8565837683
     -0.2703235873
     -0.0508505534
      0.0559036001
     -1.2569307297
      0.0145876741
      0.3387996939
      0.3199708674
     -0.2029252897
     -0.0472493730
     -0.6309356950
      0.8896411965
     -2.0955514047
      0.4279469201
      0.0266378958
      1.4070332400
     -0.0294007300
      0.3407484478
     -0.8172902279
      1.6487546807
     -0.0623547386
      0.3883346270
      0.0784087968
      0.5987994829
     -2.0482785708
     -0.0878347656
     -1.5024420974
      2.8311533001
     -1.9208463310
     -0.9728285530
     -0.4000267303
      0.0916188942
      0.0652916261
     -0.2063674689
     -0.4998824884
      0.5934900052
     -0.3538291998
     -0.2192364250
      0.7330223549
     -0.0143295732
     -1.0152116046
      0.4316079184
     -2.2107091847
     -2.7316551236
     -0.6181078170
     -2.3335805886
     -0.2451520870
     -0.3100282558
      0.0797196058
     -0.5008548511
     -0.8840659238
     -0.1130072915
      0.2551511750
     -0.3179275739
      1.0384571273
      0.6575601296
      1.6034851298
     -2.3886312909
     -0.9339623524
     -1.2643663283
     -0.0148557048
      0.1206068884
      0.0133351930
     -0.3060192388
      1.2442941197
      1.2913622498
      0.4127824106
     -0.0259057296
     -0.6683841364
     -0.7607917591
     -1.5364039498
     -2.0420547619
      1.0021196401
      0.6885654807
      0.8722571125
     -1.8557931911
     -0.1943362643
     -0.0334702134
     -0.1250534993
      0.7684573398
     -0.6287528033
     -0.1237433239
      0.3552105233
     -0.1326254090
     -1.1625292734
     -0.3730818618
     -0.1193215635
      5.2965831132
     -0.4618024048
     -0.0004434927
      4.2724404576
     -0.2706485705
     -0.2992525783
      0.4444540238
      1.1950931653
      0.2349044910
     -0.1070516985
      0.4369045762
     -0.0444983410
      0.2153442351
     -1.1251010384
     -1.4979626726
     -0.5551913574
     -2.0694528611
      0.2606234991
     -2.2022190083
     -0.1144456894
     -0.1258836280
     -0.3684364718
     -0.2583360506
     -0.4544922852
     -0.2618750396
      0.2359057839
      0.1613573769
      0.9904412492
     -0.1016524499
     -1.0657100465
      0.8605886894
      0.1413029799
     -0.1893761626
     -3.7391061335
      0.0036828432
      0.3886376713
     -0.6562280624
      0.1083763220
     -0.0391240429
      0.2267509693
     -0.2058136409
     -0.1430979256
      0.7009168993
      0.4931955095
      0.7863721995
      0.2472528221
     -1.2495204718
      0.6875830102
      1.9466142831
      0.1023390652
     -0.2558956548
      0.2852365762
      0.0029291118
      0.9868865541
      0.0403577509
     -0.1047418136
     -0.3488408483
     -0.9674470264
      0.1494635568
      0.2065713356
      2.3167621560
     -0.4749087023
      1.3388042843
      2.6993169368
      0.0429258126
      0.0103415735
      0.2764993198
      0.6813767545
     -0.4331521111
      0.2551211682
     -0.2364161739
     -0.3079983949
      0.6467916994
     -1.5260399719
      0.6265168530
     -0.8105200453
     -0.3736370520
      0.3084884217
     -0.2992212659
     -0.0273815678
      0.1049134175
      0.2536801614
     -1.1511637867
     -0.9000689224
      0.1443339389
      0.0620394402
      1.9992994309
      0.7843928157
      1.4391271323
     -0.3321939402
     -2.4382905743
     -1.6734428117
     -0.9249641999
     -1.3018867082
      0.0152212636
      0.3104785525
     -0.2492140028
     -0.8955123746
      0.9869474327
      0.0822669444
     -0.1830559445
     -1.1230333927
     -0.1385515232
     -0.3696105195
      0.1082286260
      0.1748680549
     -1.2177151081
      0.1079492551
     -0.2859594318
     -0.3121904922
      0.1034155480
      0.1806808724
     -0.2580117886
      0.3535325828
      0.0229540981
      0.3238516401
     -0.7821787424
     -0.5357628124
      1.2345527437
      1.8953010665
      0.3961253271
     -0.4570288514
      0.4972780485
      1.5141288000
      0.1366535654
     -0.0558186183
      0.5826411377
     -0.1801513810
      0.4953259346
     -0.0545313333
     -0.1340448904
     -0.1234905918
     -1.2417564423
     -0.8220806959
      0.1234736475
     -0.3094409144
      0.3831220587
     -0.1464400551
     -0.2343229869
      0.0007787294
     -0.4790095880
      0.6993700632
     -0.1998249300
      0.2858428262
     -0.2110018462
      0.1624702703
      0.6789582127
     -0.4868270904
     -0.2768406958
     -0.7069002115
     -0.6879166506
     -2.0867370236
     -0.7994656137
      0.1719842944
     -0.0000752220
     -0.0003613176
     -0.0029232214
      0.0445647221
      0.0222816566
     -0.0003398342
      0.0003305899
     -0.0272082042
     -0.0176071818
      0.0295840498
      0.0939072748
     -0.0735707973
      0.0340777246
     -0.0573394490
     -0.1135653336
     -0.1319696539
