################################################################################
# Neural network connection values (weights and biases).
################################################################################
# Col  Name       Description
################################################################################
# 1    connection Neural network connection value.
# 2    t          Connection type (a = weight, b = bias).
# 3    index      Index enumerating weights.
# 4    l_s        Starting point layer (end point layer for biases).
# 5    n_s        Starting point neuron in starting layer (end point neuron for biases).
# 6    l_e        End point layer.
# 7    n_e        End point neuron in end layer.
################################################################################
#                      1 2         3     4     5     6     7
#             connection t     index   l_s   n_s   l_e   n_e
############################################################
 -1.8106107312134547E+00 a         1     0     1     1     1
 -1.7361647980817299E+00 a         2     0     1     1     2
  1.5835335042260468E+00 a         3     0     1     1     3
 -2.9031977295015876E+00 a         4     0     1     1     4
  5.8292159417945766E-01 a         5     0     1     1     5
 -6.7588490502437792E-01 a         6     0     1     1     6
 -2.4198710581938383E+00 a         7     0     1     1     7
  4.2221160182839601E-01 a         8     0     1     1     8
  1.5960552137102288E-01 a         9     0     1     1     9
 -3.1683388713249689E+00 a        10     0     1     1    10
 -2.9311362741703957E+00 a        11     0     1     1    11
  4.7618136344419604E-01 a        12     0     1     1    12
  1.8876715400104964E+00 a        13     0     1     1    13
 -1.7171211114446112E+00 a        14     0     1     1    14
  1.0058834036740747E-02 a        15     0     1     1    15
 -2.0385505330353906E-01 a        16     0     2     1     1
 -8.5713219403928800E-02 a        17     0     2     1     2
 -3.0974766558871442E-01 a        18     0     2     1     3
  1.4063985395399554E+00 a        19     0     2     1     4
  1.1852207126490935E+00 a        20     0     2     1     5
  1.5935125884324519E-01 a        21     0     2     1     6
 -1.1033116056940153E+00 a        22     0     2     1     7
  1.3091818235224535E+00 a        23     0     2     1     8
 -6.3824991473749693E-01 a        24     0     2     1     9
 -5.1479501204983319E-02 a        25     0     2     1    10
 -1.5066931567749131E-01 a        26     0     2     1    11
 -1.2554535090324165E-01 a        27     0     2     1    12
 -5.7657349833683369E-01 a        28     0     2     1    13
  2.1863073223861326E-01 a        29     0     2     1    14
  1.5381523943286893E-01 a        30     0     2     1    15
 -1.0912675853953420E+00 a        31     0     3     1     1
  5.4013221861735561E-01 a        32     0     3     1     2
 -9.5363103052270493E-01 a        33     0     3     1     3
 -3.6521140288293026E+00 a        34     0     3     1     4
  2.0482582858458656E-01 a        35     0     3     1     5
 -7.6614468592201168E-02 a        36     0     3     1     6
 -2.1825254898348043E+00 a        37     0     3     1     7
 -2.2320059538100481E-01 a        38     0     3     1     8
 -3.2774140240379529E-01 a        39     0     3     1     9
 -5.8808688810461280E+00 a        40     0     3     1    10
 -9.4766967741630614E-01 a        41     0     3     1    11
  1.2247408478967605E+00 a        42     0     3     1    12
  1.0377027588359131E+00 a        43     0     3     1    13
  8.6762847625450534E-01 a        44     0     3     1    14
 -6.0004638489316912E-02 a        45     0     3     1    15
 -2.5182756170570697E-01 a        46     0     4     1     1
  3.9948968459000306E-01 a        47     0     4     1     2
  1.0456874556996665E+00 a        48     0     4     1     3
 -5.8829746886214531E+00 a        49     0     4     1     4
 -2.4982665087561218E+00 a        50     0     4     1     5
 -5.2147905158034202E-01 a        51     0     4     1     6
  7.3716662458948223E-01 a        52     0     4     1     7
 -3.1696482333709342E+00 a        53     0     4     1     8
  1.0617605079254124E+00 a        54     0     4     1     9
 -2.7396391677051106E+00 a        55     0     4     1    10
 -2.6476062925562776E+00 a        56     0     4     1    11
  3.1912480231724314E+00 a        57     0     4     1    12
  6.2409812699034972E-01 a        58     0     4     1    13
 -1.4046225749214480E+00 a        59     0     4     1    14
  1.3661648294604406E-01 a        60     0     4     1    15
 -1.4136744169041831E+00 a        61     0     5     1     1
 -7.3342072128690752E-04 a        62     0     5     1     2
  1.3151057623705756E-01 a        63     0     5     1     3
 -2.7346995760891297E+00 a        64     0     5     1     4
  4.6038501908401080E-01 a        65     0     5     1     5
 -6.5500565134613231E-01 a        66     0     5     1     6
 -2.8089657949557489E+00 a        67     0     5     1     7
 -5.7839098195405880E-01 a        68     0     5     1     8
  3.4728683746726124E-01 a        69     0     5     1     9
 -2.8146245873011422E+00 a        70     0     5     1    10
 -2.2559693749031853E+00 a        71     0     5     1    11
 -5.9635100110746075E-01 a        72     0     5     1    12
  1.9398515494027442E+00 a        73     0     5     1    13
 -8.4630117076398637E-01 a        74     0     5     1    14
  9.4171536539213285E-02 a        75     0     5     1    15
 -3.9392104440905384E-01 a        76     0     6     1     1
  2.2840967093074357E-01 a        77     0     6     1     2
 -5.2712296663265168E-01 a        78     0     6     1     3
  3.8278873024969218E-01 a        79     0     6     1     4
  1.3544189764913934E+00 a        80     0     6     1     5
  2.3530789659439614E-02 a        81     0     6     1     6
 -2.9452591069277845E-01 a        82     0     6     1     7
  1.1590719934600662E+00 a        83     0     6     1     8
 -7.9785899907981361E-01 a        84     0     6     1     9
 -1.9178290167423966E+00 a        85     0     6     1    10
 -4.9130124842952250E-01 a        86     0     6     1    11
 -2.4353550519032272E-01 a        87     0     6     1    12
 -1.1721896013584288E+00 a        88     0     6     1    13
 -1.2366479386924160E-01 a        89     0     6     1    14
  1.1494670420284787E-01 a        90     0     6     1    15
 -7.7959554317787927E-01 a        91     0     7     1     1
  1.0988826519104311E+00 a        92     0     7     1     2
  2.1390093853348432E-01 a        93     0     7     1     3
 -3.0197124171376317E+00 a        94     0     7     1     4
 -1.9812880348982770E-01 a        95     0     7     1     5
 -6.0209516133369320E-02 a        96     0     7     1     6
 -1.9235034736682837E+00 a        97     0     7     1     7
  1.7564445014523872E-01 a        98     0     7     1     8
 -4.8905956528993580E-03 a        99     0     7     1     9
 -2.4360151585344596E+00 a       100     0     7     1    10
 -8.0318506874402307E-01 a       101     0     7     1    11
  4.4647019479733741E-01 a       102     0     7     1    12
  2.2495675988190986E+00 a       103     0     7     1    13
  8.7410057269956076E-01 a       104     0     7     1    14
 -3.0867287005366950E-01 a       105     0     7     1    15
  4.0267403606221559E-02 a       106     0     8     1     1
  4.9136327740690183E-01 a       107     0     8     1     2
  1.1846299234546875E+00 a       108     0     8     1     3
 -2.6671505116701626E+00 a       109     0     8     1     4
 -1.2635796153814129E+00 a       110     0     8     1     5
 -5.4004182907509612E-01 a       111     0     8     1     6
  2.7283259880823679E-01 a       112     0     8     1     7
 -1.8946584696475979E+00 a       113     0     8     1     8
  9.0043463348908381E-01 a       114     0     8     1     9
 -2.1250428829676071E-01 a       115     0     8     1    10
 -2.1217934828354084E+00 a       116     0     8     1    11
  5.7711624670128470E-01 a       117     0     8     1    12
  9.9203744451268328E-01 a       118     0     8     1    13
 -6.9931059448656807E-01 a       119     0     8     1    14
  4.9577236186435747E-01 a       120     0     8     1    15
 -7.7148439568789118E-01 a       121     0     9     1     1
  8.9960379595288775E-01 a       122     0     9     1     2
 -9.5211775542149391E-01 a       123     0     9     1     3
 -1.3263953836190745E+00 a       124     0     9     1     4
  1.6052103041864876E-01 a       125     0     9     1     5
 -1.8346457345586806E-02 a       126     0     9     1     6
 -1.7984033731529934E+00 a       127     0     9     1     7
 -6.3286749913749019E-01 a       128     0     9     1     8
  5.1802963044556161E-01 a       129     0     9     1     9
 -7.9094911032788362E-01 a       130     0     9     1    10
 -1.9528665127227283E+00 a       131     0     9     1    11
 -1.6236543868864703E+00 a       132     0     9     1    12
  1.8100734267914511E+00 a       133     0     9     1    13
  1.0121476195627357E+00 a       134     0     9     1    14
 -2.3512078515235360E-01 a       135     0     9     1    15
 -2.4929854896420975E-01 a       136     0    10     1     1
  6.1310114379916480E-01 a       137     0    10     1     2
  3.6766127344365712E-01 a       138     0    10     1     3
 -1.3468632317828573E+00 a       139     0    10     1     4
 -4.6232365755085314E-01 a       140     0    10     1     5
  1.5369251006130316E-01 a       141     0    10     1     6
 -1.0168679211587317E+00 a       142     0    10     1     7
 -1.6910128752058418E-01 a       143     0    10     1     8
 -3.9959279914250960E-02 a       144     0    10     1     9
 -8.5235458620717630E-01 a       145     0    10     1    10
  4.4278021257432243E-01 a       146     0    10     1    11
 -3.7804279034411187E-01 a       147     0    10     1    12
  1.7263069893748697E+00 a       148     0    10     1    13
  6.8290624750438433E-01 a       149     0    10     1    14
 -5.3980048213672756E-02 a       150     0    10     1    15
  2.0177727242587226E-01 a       151     0    11     1     1
 -3.2641511805886719E-01 a       152     0    11     1     2
  5.8239242889060838E-01 a       153     0    11     1     3
 -6.2587212112013413E-01 a       154     0    11     1     4
 -4.9990716443997435E-01 a       155     0    11     1     5
 -4.6999690400984973E-01 a       156     0    11     1     6
  2.9581211042073518E-02 a       157     0    11     1     7
 -7.8316249209072830E-01 a       158     0    11     1     8
  3.6581075486139492E-01 a       159     0    11     1     9
  8.9978032135282590E-02 a       160     0    11     1    10
 -6.1099126579491170E-01 a       161     0    11     1    11
 -3.7936797424946406E-01 a       162     0    11     1    12
  1.0603698207890808E+00 a       163     0    11     1    13
 -6.6467416786665756E-01 a       164     0    11     1    14
  2.0725391469023285E-01 a       165     0    11     1    15
 -2.7906833957835270E-01 a       166     0    12     1     1
  5.1582484621362190E-01 a       167     0    12     1     2
 -6.8404159152205934E-01 a       168     0    12     1     3
 -3.8849409791100381E-01 a       169     0    12     1     4
  2.6316729873717420E-01 a       170     0    12     1     5
  4.5970377944927740E-02 a       171     0    12     1     6
 -3.4930349381245562E-01 a       172     0    12     1     7
 -5.6406436498769440E-02 a       173     0    12     1     8
  3.1913836016326091E-01 a       174     0    12     1     9
 -2.5113989841341033E-01 a       175     0    12     1    10
 -1.6049285923305121E+00 a       176     0    12     1    11
 -1.4447732817567029E+00 a       177     0    12     1    12
  1.0638219883231506E+00 a       178     0    12     1    13
  3.2702403965515092E-01 a       179     0    12     1    14
  4.3360375565330948E-03 a       180     0    12     1    15
  5.1551254726728590E+00 a       181     0    13     1     1
 -9.7769945493775108E+00 a       182     0    13     1     2
  4.1943405699850329E+00 a       183     0    13     1     3
  2.8128692634640018E+00 a       184     0    13     1     4
 -4.5651827544493004E+00 a       185     0    13     1     5
 -3.1750051521392177E+00 a       186     0    13     1     6
 -3.1847126397240784E+00 a       187     0    13     1     7
 -1.1859516432497768E+00 a       188     0    13     1     8
 -5.1514444416622029E-01 a       189     0    13     1     9
 -1.2046062815599419E+00 a       190     0    13     1    10
 -9.9932555961746972E-01 a       191     0    13     1    11
 -6.8807615210572646E+00 a       192     0    13     1    12
 -4.8716589432124051E+00 a       193     0    13     1    13
  6.0559877768141934E-01 a       194     0    13     1    14
 -1.7290611614060110E+00 a       195     0    13     1    15
 -4.0498308697362007E-01 a       196     0    14     1     1
  4.5957484776848323E-01 a       197     0    14     1     2
 -6.1925402421802005E+00 a       198     0    14     1     3
  8.5839562899230728E+00 a       199     0    14     1     4
 -4.2470709477934534E+00 a       200     0    14     1     5
 -1.3995700707098560E+00 a       201     0    14     1     6
 -6.1317717475178801E+00 a       202     0    14     1     7
  4.1995183995912511E-02 a       203     0    14     1     8
 -1.4153916761567100E+00 a       204     0    14     1     9
 -3.8274306100065603E-01 a       205     0    14     1    10
  2.4698912242561550E+00 a       206     0    14     1    11
  1.8458033577927841E+00 a       207     0    14     1    12
 -4.4589488617321882E+00 a       208     0    14     1    13
  1.1683086125864032E+01 a       209     0    14     1    14
 -9.4964889175834344E-01 a       210     0    14     1    15
  2.3664583722549368E+00 a       211     0    15     1     1
 -9.8796905810361597E+00 a       212     0    15     1     2
  4.6862936932159744E+00 a       213     0    15     1     3
  4.7552207439001730E+00 a       214     0    15     1     4
  2.0761517937943061E+00 a       215     0    15     1     5
 -3.7139710086250770E+00 a       216     0    15     1     6
 -3.5775662820055927E+00 a       217     0    15     1     7
  2.4024795412889477E-01 a       218     0    15     1     8
 -1.0809647246273213E+01 a       219     0    15     1     9
 -5.1775799862471876E+00 a       220     0    15     1    10
  1.0060972561963246E+00 a       221     0    15     1    11
 -7.4729671643427844E+00 a       222     0    15     1    12
  4.0754396218468196E+00 a       223     0    15     1    13
 -7.5104346996361135E+00 a       224     0    15     1    14
  6.2999341723930971E-02 a       225     0    15     1    15
 -2.4103214650568496E+00 a       226     0    16     1     1
  1.3218038883019068E+00 a       227     0    16     1     2
  2.2975665010268385E+00 a       228     0    16     1     3
 -5.3504188005424702E-01 a       229     0    16     1     4
 -3.5860133537864980E-01 a       230     0    16     1     5
  1.8946940938032568E+00 a       231     0    16     1     6
 -9.7320961785801052E-01 a       232     0    16     1     7
  3.3735234363994717E+00 a       233     0    16     1     8
 -2.0562225530133191E+00 a       234     0    16     1     9
 -1.1194587104227247E+00 a       235     0    16     1    10
  2.8407208336531622E+00 a       236     0    16     1    11
  2.1784400856395796E+00 a       237     0    16     1    12
 -6.3480966289265428E-01 a       238     0    16     1    13
 -3.8903629639503901E-01 a       239     0    16     1    14
  2.0411212860140528E+00 a       240     0    16     1    15
  1.3014711566008699E+00 a       241     0    17     1     1
  6.5583624850472670E+00 a       242     0    17     1     2
  2.0598058214424791E-01 a       243     0    17     1     3
 -1.4163105006400651E+01 a       244     0    17     1     4
  1.0650764416154285E+01 a       245     0    17     1     5
 -4.9662095205801018E+00 a       246     0    17     1     6
  1.1157410784310896E+01 a       247     0    17     1     7
 -9.8643854349895950E+00 a       248     0    17     1     8
 -1.0381821256435696E+01 a       249     0    17     1     9
  4.8041276235356927E+00 a       250     0    17     1    10
  1.1532392403761639E+01 a       251     0    17     1    11
  1.4498960137574008E+00 a       252     0    17     1    12
 -3.2209530062999527E+00 a       253     0    17     1    13
 -1.0702819159094293E+01 a       254     0    17     1    14
  9.7562247144660343E+00 a       255     0    17     1    15
 -5.8090725504676755E+00 a       256     0    18     1     1
  1.0220477541236582E+01 a       257     0    18     1     2
 -6.1661992725637538E-01 a       258     0    18     1     3
 -1.4591553520944260E+01 a       259     0    18     1     4
 -2.3635108418238908E+00 a       260     0    18     1     5
 -4.8561424626912381E-01 a       261     0    18     1     6
  4.3763567825169654E+00 a       262     0    18     1     7
 -6.8247118351097722E+00 a       263     0    18     1     8
  1.4997491871227249E+01 a       264     0    18     1     9
  2.1563007755532548E+00 a       265     0    18     1    10
  6.7870165557416873E-01 a       266     0    18     1    11
  5.8475286347879170E+00 a       267     0    18     1    12
 -1.0124759467309005E+01 a       268     0    18     1    13
  1.2667588174568210E+00 a       269     0    18     1    14
  8.4107295149216004E+00 a       270     0    18     1    15
 -1.2725992878787871E+00 a       271     0    19     1     1
  5.2397704831884848E+00 a       272     0    19     1     2
 -9.4961922102844032E-01 a       273     0    19     1     3
  2.0940519222971639E+00 a       274     0    19     1     4
 -1.5268532513744322E+00 a       275     0    19     1     5
  1.9077202417874104E+00 a       276     0    19     1     6
  2.4904517515226638E+00 a       277     0    19     1     7
  1.1636919664190108E+00 a       278     0    19     1     8
  1.9248802150763415E+00 a       279     0    19     1     9
 -3.8161486196015120E+00 a       280     0    19     1    10
  2.7850438325127640E+00 a       281     0    19     1    11
 -3.2111081951567655E-01 a       282     0    19     1    12
  6.5644631900027750E-01 a       283     0    19     1    13
  4.0036918150270689E-01 a       284     0    19     1    14
  3.9130785360723308E-01 a       285     0    19     1    15
  5.2397050028442013E-02 a       286     0    20     1     1
 -2.1748849807961133E+00 a       287     0    20     1     2
  2.0797691049216933E+00 a       288     0    20     1     3
  3.9504521797193193E-01 a       289     0    20     1     4
  3.6450491551778014E-01 a       290     0    20     1     5
  5.1784938478160392E-01 a       291     0    20     1     6
  5.3150184067517126E-01 a       292     0    20     1     7
 -3.1805946870033935E-01 a       293     0    20     1     8
  1.5239409021282169E+00 a       294     0    20     1     9
 -1.8605811830098689E+00 a       295     0    20     1    10
  5.5176354151362861E-01 a       296     0    20     1    11
 -1.8095116429337443E-01 a       297     0    20     1    12
  5.7181025223753734E-01 a       298     0    20     1    13
 -5.0031538067639296E+00 a       299     0    20     1    14
  1.2840010987136132E+00 a       300     0    20     1    15
 -3.5256518196655828E-01 a       301     0    21     1     1
 -1.0096639493725010E-02 a       302     0    21     1     2
  4.5772024423511154E-01 a       303     0    21     1     3
  3.2633441232403987E-01 a       304     0    21     1     4
 -1.5496304296432737E-02 a       305     0    21     1     5
  1.7425906571419550E-01 a       306     0    21     1     6
  1.5606013002736241E-01 a       307     0    21     1     7
 -2.1664956803500662E-01 a       308     0    21     1     8
  1.8416466877835008E-01 a       309     0    21     1     9
 -2.3001846846797167E-01 a       310     0    21     1    10
  3.1418437554624118E-02 a       311     0    21     1    11
 -2.6808846934637692E-01 a       312     0    21     1    12
  1.9579830546770904E-01 a       313     0    21     1    13
 -3.6297001851200206E-01 a       314     0    21     1    14
  1.4906211163000271E-01 a       315     0    21     1    15
 -2.1901038185138497E+00 a       316     0    22     1     1
  3.1580576962373801E+00 a       317     0    22     1     2
 -5.3909366973166453E+00 a       318     0    22     1     3
  1.0380870002849647E+00 a       319     0    22     1     4
 -8.0157396065730442E+00 a       320     0    22     1     5
  1.3822525355639128E+00 a       321     0    22     1     6
 -5.4671688453533376E+00 a       322     0    22     1     7
  9.4987835338307640E+00 a       323     0    22     1     8
  5.6210211078736350E-01 a       324     0    22     1     9
 -5.2470325348386115E+00 a       325     0    22     1    10
 -1.9388656593023441E+01 a       326     0    22     1    11
  4.5567865812661851E-01 a       327     0    22     1    12
  2.8047862033377586E+00 a       328     0    22     1    13
  6.5375823086591778E+00 a       329     0    22     1    14
 -3.9660157277811172E+00 a       330     0    22     1    15
  1.8753962207264383E+00 a       331     0    23     1     1
 -1.9750053355390724E+00 a       332     0    23     1     2
  7.7833707659172848E+00 a       333     0    23     1     3
  5.2257303024870643E+00 a       334     0    23     1     4
  4.3176881912306460E+00 a       335     0    23     1     5
  3.1743392125421663E+00 a       336     0    23     1     6
 -3.0790876669321325E+00 a       337     0    23     1     7
  4.2701144721566724E+00 a       338     0    23     1     8
 -1.3319207585831381E+00 a       339     0    23     1     9
  1.1892327164984990E+00 a       340     0    23     1    10
  1.1140388472294034E+00 a       341     0    23     1    11
  1.0819104090060312E+00 a       342     0    23     1    12
  5.2269560543247595E-01 a       343     0    23     1    13
 -3.7265790059177073E+00 a       344     0    23     1    14
 -3.9163188240158506E+00 a       345     0    23     1    15
 -6.3830322923808493E+00 a       346     0    24     1     1
  1.3816358398135105E+01 a       347     0    24     1     2
 -7.8673564828396776E+00 a       348     0    24     1     3
 -4.1894557690040607E-01 a       349     0    24     1     4
  6.7465934836625570E+00 a       350     0    24     1     5
  2.0786592112697764E+00 a       351     0    24     1     6
  5.9986300189350565E+00 a       352     0    24     1     7
 -1.5235983182367132E+00 a       353     0    24     1     8
  1.3002626525123473E+00 a       354     0    24     1     9
 -8.8925044357181771E-01 a       355     0    24     1    10
  4.0057855293810646E-01 a       356     0    24     1    11
  4.3865050250076196E+00 a       357     0    24     1    12
  1.9642903181585647E+00 a       358     0    24     1    13
  2.3245424199350295E+00 a       359     0    24     1    14
  2.1277751947863814E+00 a       360     0    24     1    15
 -8.2924034180237072E-01 a       361     0    25     1     1
 -2.8349768417247092E+00 a       362     0    25     1     2
 -2.3458777951580965E+00 a       363     0    25     1     3
 -6.5512990616289857E+00 a       364     0    25     1     4
 -7.4069776472667681E-01 a       365     0    25     1     5
 -1.1336001384295371E+00 a       366     0    25     1     6
  6.4065979827844277E+00 a       367     0    25     1     7
  4.6103074183761308E+00 a       368     0    25     1     8
  4.0466527995476254E+00 a       369     0    25     1     9
 -4.1285543474031847E+00 a       370     0    25     1    10
 -3.0352497285528921E+00 a       371     0    25     1    11
 -5.2683708534238463E+00 a       372     0    25     1    12
  2.7099568162909020E+00 a       373     0    25     1    13
 -8.5004721562254666E+00 a       374     0    25     1    14
 -3.1212753615392450E+00 a       375     0    25     1    15
 -2.1339429751543664E+00 a       376     0    26     1     1
  5.3304559477639657E+00 a       377     0    26     1     2
 -6.7651577542543482E+00 a       378     0    26     1     3
 -6.9564107278431697E-01 a       379     0    26     1     4
 -3.6663987429198825E+00 a       380     0    26     1     5
  1.3130917300634846E+00 a       381     0    26     1     6
  2.4802357672823483E+00 a       382     0    26     1     7
  7.1450578663982567E-01 a       383     0    26     1     8
  5.6774660329051825E+00 a       384     0    26     1     9
  4.1311746450572784E+00 a       385     0    26     1    10
 -3.9037846044945694E+00 a       386     0    26     1    11
  6.9567246894075847E+00 a       387     0    26     1    12
 -1.8551001910211915E+00 a       388     0    26     1    13
  9.5071091784448178E+00 a       389     0    26     1    14
  2.9885582974507385E+00 a       390     0    26     1    15
  2.5192727072264232E+00 a       391     0    27     1     1
 -2.5241020039262465E+00 a       392     0    27     1     2
 -3.7274012741603374E-01 a       393     0    27     1     3
  3.5740953231768718E-01 a       394     0    27     1     4
 -1.1654772830070139E+00 a       395     0    27     1     5
 -2.4936801078755484E+00 a       396     0    27     1     6
 -1.5865955136736340E-01 a       397     0    27     1     7
 -2.1679770811188495E+00 a       398     0    27     1     8
  7.1468425432933358E-01 a       399     0    27     1     9
  3.6734005071846245E+00 a       400     0    27     1    10
 -3.0513665958237084E+00 a       401     0    27     1    11
 -3.3439829151435729E+00 a       402     0    27     1    12
  3.4950103523062936E-01 a       403     0    27     1    13
 -1.2571088743277645E+00 a       404     0    27     1    14
 -9.6936439924636930E-01 a       405     0    27     1    15
 -1.1105703594299907E+00 a       406     0    28     1     1
 -6.3386672774206083E+00 a       407     0    28     1     2
  3.3565458984256176E+00 a       408     0    28     1     3
  1.3637817075041406E+01 a       409     0    28     1     4
 -7.2362316312984198E+00 a       410     0    28     1     5
  5.2763796477328553E+00 a       411     0    28     1     6
 -1.2293303465088503E+01 a       412     0    28     1     7
  9.1926191726704118E+00 a       413     0    28     1     8
  8.6391538162177497E+00 a       414     0    28     1     9
 -2.1146899723938462E+00 a       415     0    28     1    10
 -8.4371272987504895E+00 a       416     0    28     1    11
 -2.6188801624653929E-01 a       417     0    28     1    12
  5.1564844360616089E+00 a       418     0    28     1    13
  1.3984153340337929E+01 a       419     0    28     1    14
 -5.4812946955157287E+00 a       420     0    28     1    15
  5.6952695584774036E+00 a       421     0    29     1     1
 -1.0201505529479975E+01 a       422     0    29     1     2
 -9.8734619468774976E-01 a       423     0    29     1     3
  1.3459226714674331E+01 a       424     0    29     1     4
  6.3231978767922747E-01 a       425     0    29     1     5
  1.3835611039199014E+00 a       426     0    29     1     6
 -5.5916716080643152E+00 a       427     0    29     1     7
  6.1729205173418507E+00 a       428     0    29     1     8
 -1.4162000070565410E+01 a       429     0    29     1     9
 -1.1151183508328875E+00 a       430     0    29     1    10
  6.2017277314641128E-02 a       431     0    29     1    11
 -8.0055409113432514E+00 a       432     0    29     1    12
  1.0055067078669980E+01 a       433     0    29     1    13
 -2.9356437834526088E+00 a       434     0    29     1    14
 -1.0681057833669710E+01 a       435     0    29     1    15
  1.1853616949487473E+00 a       436     0    30     1     1
 -5.1684922803952240E+00 a       437     0    30     1     2
  3.1023282701988042E-01 a       438     0    30     1     3
 -1.8862827830348916E+00 a       439     0    30     1     4
  1.8411314794482936E+00 a       440     0    30     1     5
 -2.0368142353471268E+00 a       441     0    30     1     6
 -1.6185680229298944E+00 a       442     0    30     1     7
 -1.3251214551329247E+00 a       443     0    30     1     8
 -1.3897075230908424E+00 a       444     0    30     1     9
  2.4676879747088396E+00 a       445     0    30     1    10
 -1.8095056153436007E+00 a       446     0    30     1    11
  6.6955285387783303E-01 a       447     0    30     1    12
 -9.4871722979192374E-01 a       448     0    30     1    13
 -8.3399023640439407E-01 a       449     0    30     1    14
  1.9821270514123782E-01 a       450     0    30     1    15
  2.1008322871272761E-01 a       451     0    31     1     1
  1.8540580587068194E+00 a       452     0    31     1     2
 -2.3121378082736581E+00 a       453     0    31     1     3
 -2.5653359193028819E-01 a       454     0    31     1     4
 -5.8794289843446323E-01 a       455     0    31     1     5
 -6.6097853114992300E-01 a       456     0    31     1     6
 -3.2524910514473354E-01 a       457     0    31     1     7
 -2.5308923049702425E-01 a       458     0    31     1     8
 -1.7715441035440711E+00 a       459     0    31     1     9
  1.6291902082030143E+00 a       460     0    31     1    10
 -6.9288783866812764E-01 a       461     0    31     1    11
  1.0655823689441732E+00 a       462     0    31     1    12
 -1.0136717183132473E+00 a       463     0    31     1    13
  4.6276004435298033E+00 a       464     0    31     1    14
 -1.3492418398738759E+00 a       465     0    31     1    15
  1.5985080272737400E+00 a       466     0    32     1     1
 -2.6187855562776332E+00 a       467     0    32     1     2
  4.2274913119191613E+00 a       468     0    32     1     3
 -2.0515909494587063E+00 a       469     0    32     1     4
  8.1639766800529632E+00 a       470     0    32     1     5
 -1.3270318680573236E+00 a       471     0    32     1     6
  6.9337538500756413E+00 a       472     0    32     1     7
 -8.6888524307020010E+00 a       473     0    32     1     8
 -1.0564022286352339E+00 a       474     0    32     1     9
  5.4334775718039658E+00 a       475     0    32     1    10
  1.6728488532457060E+01 a       476     0    32     1    11
 -1.0822098774427620E+00 a       477     0    32     1    12
 -2.0811988771602574E+00 a       478     0    32     1    13
 -1.0100366812626374E+01 a       479     0    32     1    14
  2.5883477530300651E+00 a       480     0    32     1    15
 -2.2545205376308770E+00 a       481     0    33     1     1
  2.7735335556556069E+00 a       482     0    33     1     2
 -7.1803238467196104E+00 a       483     0    33     1     3
 -5.5286393293911953E+00 a       484     0    33     1     4
 -4.4385753950413189E+00 a       485     0    33     1     5
 -2.4020062186900772E+00 a       486     0    33     1     6
  2.8151387249268169E+00 a       487     0    33     1     7
 -3.6803325363498121E+00 a       488     0    33     1     8
  1.5099358534179153E+00 a       489     0    33     1     9
 -5.4264465908252391E-01 a       490     0    33     1    10
 -1.3024735186767329E+00 a       491     0    33     1    11
 -1.2633134768270834E-01 a       492     0    33     1    12
 -4.3119634005138180E-01 a       493     0    33     1    13
  3.8941501050701297E+00 a       494     0    33     1    14
  3.7611578872562248E+00 a       495     0    33     1    15
 -9.1267294168169844E-01 a       496     0    34     1     1
 -1.1801392812761651E+00 a       497     0    34     1     2
 -3.1906112300556116E-01 a       498     0    34     1     3
 -7.8340971827199557E-01 a       499     0    34     1     4
  3.0907458762513285E-01 a       500     0    34     1     5
 -8.5661080918859656E-01 a       501     0    34     1     6
  6.6621520124836120E-01 a       502     0    34     1     7
  1.7297073747341987E-01 a       503     0    34     1     8
 -3.3749828548017008E-01 a       504     0    34     1     9
  3.1397616357429986E-01 a       505     0    34     1    10
  5.7019779432261564E-01 a       506     0    34     1    11
 -2.7678523602435217E+00 a       507     0    34     1    12
 -2.3340126364969710E-01 a       508     0    34     1    13
 -2.9978422353543710E+00 a       509     0    34     1    14
 -1.4067668650626635E+00 a       510     0    34     1    15
  6.8488868873801081E-02 a       511     0    35     1     1
  7.4359326997403852E-01 a       512     0    35     1     2
  4.5436242602752208E-01 a       513     0    35     1     3
 -2.0835640504160882E-01 a       514     0    35     1     4
  1.9152426396863296E-02 a       515     0    35     1     5
  2.9216246839019644E-01 a       516     0    35     1     6
 -1.1445376875123876E+00 a       517     0    35     1     7
  6.5305264971794463E-01 a       518     0    35     1     8
 -1.4489354083787476E-01 a       519     0    35     1     9
 -1.2319380508496856E+00 a       520     0    35     1    10
 -7.3406075097595636E-01 a       521     0    35     1    11
  1.0808277208027606E+00 a       522     0    35     1    12
  3.9463299540307278E-01 a       523     0    35     1    13
  3.2612827635389086E+00 a       524     0    35     1    14
  7.0473332306821057E-01 a       525     0    35     1    15
 -1.2079375191170605E+00 a       526     0    36     1     1
  3.8790462603221366E-02 a       527     0    36     1     2
  2.2444537637831981E+00 a       528     0    36     1     3
 -2.5339450709574809E+00 a       529     0    36     1     4
 -1.0482217375202509E+01 a       530     0    36     1     5
 -1.8458185193346168E+00 a       531     0    36     1     6
 -1.2442518363421842E+01 a       532     0    36     1     7
  7.9064329609434134E+00 a       533     0    36     1     8
  2.8085840495151748E+00 a       534     0    36     1     9
 -9.4552146785674420E+00 a       535     0    36     1    10
  3.0497467599307129E+00 a       536     0    36     1    11
  3.5405600406562843E+00 a       537     0    36     1    12
 -3.9065028612726813E+00 a       538     0    36     1    13
  5.6326132488011700E+00 a       539     0    36     1    14
  1.6423806518470263E+00 a       540     0    36     1    15
  2.5070197828250325E+00 a       541     0    37     1     1
  5.3191872394035684E+00 a       542     0    37     1     2
  8.7247818284925949E-01 a       543     0    37     1     3
  3.3133664774025871E+00 a       544     0    37     1     4
 -6.2484336477889912E-01 a       545     0    37     1     5
 -3.5871660097270697E+00 a       546     0    37     1     6
 -9.4056366551239612E-01 a       547     0    37     1     7
 -2.1728920704088659E+00 a       548     0    37     1     8
  7.9666677840827873E+00 a       549     0    37     1     9
 -5.0109928237708168E+00 a       550     0    37     1    10
  2.3607172170108917E+00 a       551     0    37     1    11
  6.2013037657829955E+00 a       552     0    37     1    12
  9.8962516959304281E-01 a       553     0    37     1    13
  1.8485695704241947E+00 a       554     0    37     1    14
  1.0498143721996667E+00 a       555     0    37     1    15
 -2.4863682080769833E+00 a       556     0    38     1     1
 -3.6320665594753963E-03 a       557     0    38     1     2
  2.3167565552482707E+00 a       558     0    38     1     3
  4.6674107551806704E-01 a       559     0    38     1     4
  8.9983829719137933E+00 a       560     0    38     1     5
 -5.1542193777093628E+00 a       561     0    38     1     6
  4.9311066375523520E+00 a       562     0    38     1     7
 -8.6126722690694084E+00 a       563     0    38     1     8
  9.0656816152263549E+00 a       564     0    38     1     9
 -3.4529010576383445E+00 a       565     0    38     1    10
 -4.9168774778323492E+00 a       566     0    38     1    11
 -7.0411557507064053E+00 a       567     0    38     1    12
 -5.9374933618037085E-01 a       568     0    38     1    13
  7.4644056741227316E-01 a       569     0    38     1    14
  1.1048154814567097E+00 a       570     0    38     1    15
 -2.7506611641267575E+00 a       571     0    39     1     1
  3.7859393009394291E-03 a       572     0    39     1     2
 -4.5860353591713915E-01 a       573     0    39     1     3
  8.2146315867482511E-01 a       574     0    39     1     4
  4.9680533171148218E+00 a       575     0    39     1     5
 -4.2486063900662101E+00 a       576     0    39     1     6
  1.6155480719262874E+00 a       577     0    39     1     7
 -9.9129763309406904E+00 a       578     0    39     1     8
 -7.7421544604546657E+00 a       579     0    39     1     9
  4.0754007051278602E+00 a       580     0    39     1    10
 -1.2032269360599605E+01 a       581     0    39     1    11
 -7.0528341258672986E+00 a       582     0    39     1    12
 -6.6468945502741694E-01 a       583     0    39     1    13
 -1.2175997586620584E+01 a       584     0    39     1    14
  3.7637438577394127E+00 a       585     0    39     1    15
 -2.5307920573410980E+00 a       586     0    40     1     1
 -2.0599492920846147E+00 a       587     0    40     1     2
 -1.2620101509747045E+01 a       588     0    40     1     3
 -4.8480594113648490E+00 a       589     0    40     1     4
  5.9642421251791555E-01 a       590     0    40     1     5
  3.7005127302612667E-01 a       591     0    40     1     6
  2.2159340756661945E+00 a       592     0    40     1     7
  9.6146425537508087E+00 a       593     0    40     1     8
 -6.1728504927787053E+00 a       594     0    40     1     9
 -9.2921474383834246E-01 a       595     0    40     1    10
  1.6997785957820237E+00 a       596     0    40     1    11
  5.8545093715898346E+00 a       597     0    40     1    12
 -2.9169008294858094E+00 a       598     0    40     1    13
  1.6362966950893099E+00 a       599     0    40     1    14
  8.9194166436150157E-01 a       600     0    40     1    15
  2.2100199989604095E+00 a       601     0    41     1     1
 -3.4459045784636144E-01 a       602     0    41     1     2
  3.2496669901898123E+00 a       603     0    41     1     3
 -4.3053554823985447E+00 a       604     0    41     1     4
 -3.3105971511699286E+00 a       605     0    41     1     5
  2.3020721181467185E+00 a       606     0    41     1     6
 -2.1450077407292802E+00 a       607     0    41     1     7
  2.6689940379110881E+00 a       608     0    41     1     8
 -1.5769870409329116E+01 a       609     0    41     1     9
  9.5747397670291505E+00 a       610     0    41     1    10
 -8.1002128730034961E+00 a       611     0    41     1    11
  3.7945712137264080E+00 a       612     0    41     1    12
 -2.7732594550441023E+00 a       613     0    41     1    13
  4.5347834062325161E+00 a       614     0    41     1    14
  2.9108576462530493E+00 a       615     0    41     1    15
 -4.8028697586022728E-01 a       616     0    42     1     1
 -2.1683056734370103E+00 a       617     0    42     1     2
  7.8429916892582963E-01 a       618     0    42     1     3
 -1.1938719931482701E-01 a       619     0    42     1     4
  6.2997010841257153E-02 a       620     0    42     1     5
  5.1399993491959235E-02 a       621     0    42     1     6
 -8.3123086048473516E-02 a       622     0    42     1     7
 -2.0791346518692913E+00 a       623     0    42     1     8
 -2.7846627092287122E+00 a       624     0    42     1     9
  3.5228712221801177E+00 a       625     0    42     1    10
  3.0693697581377394E-01 a       626     0    42     1    11
 -4.4897853549380995E-01 a       627     0    42     1    12
 -8.7295022585838977E-01 a       628     0    42     1    13
 -4.4485006712653927E+00 a       629     0    42     1    14
  1.2498060641727480E+00 a       630     0    42     1    15
 -1.2122024433782648E+00 a       631     0    43     1     1
 -3.3410829412234047E+00 a       632     0    43     1     2
  7.5843300233288931E+00 a       633     0    43     1     3
 -8.0916713058895562E-01 a       634     0    43     1     4
  3.7900016119033753E+00 a       635     0    43     1     5
  2.4739223784531221E+00 a       636     0    43     1     6
 -6.5554345277063375E-01 a       637     0    43     1     7
 -3.3401253946271359E+00 a       638     0    43     1     8
 -2.1420658534179138E+00 a       639     0    43     1     9
  3.6191708206067355E+00 a       640     0    43     1    10
 -2.7335004330192860E+00 a       641     0    43     1    11
  5.7341726543604511E-02 a       642     0    43     1    12
  3.0176795364229938E+00 a       643     0    43     1    13
 -7.9718719344361295E+00 a       644     0    43     1    14
  2.7163738788986720E+00 a       645     0    43     1    15
  2.4799361344274778E-01 a       646     0    44     1     1
  2.9929276593160745E+00 a       647     0    44     1     2
 -2.3634338669708721E+00 a       648     0    44     1     3
 -3.0826846441351914E+00 a       649     0    44     1     4
 -3.5569833879425015E+00 a       650     0    44     1     5
  2.1969178473915814E+00 a       651     0    44     1     6
 -6.8615043896602534E-01 a       652     0    44     1     7
  1.4725634658083637E+00 a       653     0    44     1     8
  2.0207255752795672E+00 a       654     0    44     1     9
  3.1452043441398296E+00 a       655     0    44     1    10
  2.0557533366291465E+00 a       656     0    44     1    11
  4.3961695009742723E+00 a       657     0    44     1    12
 -2.4269230994942509E-01 a       658     0    44     1    13
 -1.0043002207586798E+00 a       659     0    44     1    14
 -2.0358916503419757E+00 a       660     0    44     1    15
  1.6739197830976322E+00 a       661     0    45     1     1
  1.3728665225719936E+00 a       662     0    45     1     2
 -4.7041803121667874E-01 a       663     0    45     1     3
 -8.0945166379293065E-01 a       664     0    45     1     4
 -2.2675112059734697E+00 a       665     0    45     1     5
  7.0303249222426833E-01 a       666     0    45     1     6
 -2.6090645352001907E-01 a       667     0    45     1     7
 -2.0270794005095974E-01 a       668     0    45     1     8
  8.3276245170320062E-01 a       669     0    45     1     9
  3.6063406874803920E+00 a       670     0    45     1    10
  2.4180279526178694E+00 a       671     0    45     1    11
 -1.4008190865558159E+00 a       672     0    45     1    12
  1.1644098056932499E+00 a       673     0    45     1    13
  4.1759249091523056E+00 a       674     0    45     1    14
 -1.8128039824827760E+00 a       675     0    45     1    15
  2.2918049778694227E+00 a       676     0    46     1     1
 -5.9719272890051851E+00 a       677     0    46     1     2
  1.2502632055181452E+01 a       678     0    46     1     3
  5.3580005076425401E+00 a       679     0    46     1     4
  3.0496500923599790E+00 a       680     0    46     1     5
  3.4161205675789281E+00 a       681     0    46     1     6
  1.0784286385138349E-01 a       682     0    46     1     7
 -3.5298657261594566E+00 a       683     0    46     1     8
  7.7717781336179135E+00 a       684     0    46     1     9
  1.9664781664318030E+00 a       685     0    46     1    10
  1.7075307838706625E+01 a       686     0    46     1    11
 -6.0308899359308139E+00 a       687     0    46     1    12
  3.8994157018989446E+00 a       688     0    46     1    13
  2.5303824182755168E+00 a       689     0    46     1    14
 -1.8199650975987842E+00 a       690     0    46     1    15
 -1.2084433444390943E+00 a       691     0    47     1     1
 -4.2377583977005584E-01 a       692     0    47     1     2
 -1.1848785272209899E+01 a       693     0    47     1     3
 -2.8612002685273158E-01 a       694     0    47     1     4
 -8.3782534109272877E+00 a       695     0    47     1     5
 -2.9379293499246439E+00 a       696     0    47     1     6
  5.7166967501315191E-01 a       697     0    47     1     7
 -2.8464619452589268E+00 a       698     0    47     1     8
 -8.8308725919266295E-01 a       699     0    47     1     9
 -2.2078066184672127E+00 a       700     0    47     1    10
 -3.4512873890499702E+00 a       701     0    47     1    11
 -6.6719784078622748E+00 a       702     0    47     1    12
  3.7416154871708733E+00 a       703     0    47     1    13
  3.0159595562908698E-01 a       704     0    47     1    14
  6.6381350532009498E-01 a       705     0    47     1    15
  1.1806690228845726E+00 a       706     0    48     1     1
  1.2972679913455780E+00 a       707     0    48     1     2
 -4.0299283370666146E+00 a       708     0    48     1     3
  5.5471288714576783E+00 a       709     0    48     1     4
  1.1621172339743444E+01 a       710     0    48     1     5
  9.6882253725345147E-01 a       711     0    48     1     6
  1.6302207261715523E+01 a       712     0    48     1     7
 -8.1028761686299458E+00 a       713     0    48     1     8
 -1.7969523136325609E+00 a       714     0    48     1     9
  9.0362297073297313E+00 a       715     0    48     1    10
 -5.3438512377201421E+00 a       716     0    48     1    11
 -4.7386447761036745E+00 a       717     0    48     1    12
  2.2815355044455554E+00 a       718     0    48     1    13
 -5.2299800942504682E+00 a       719     0    48     1    14
 -2.0770278937243694E+00 a       720     0    48     1    15
 -2.0473534079136400E+00 a       721     0    49     1     1
 -6.0276068468677426E+00 a       722     0    49     1     2
 -6.8489550178471648E+00 a       723     0    49     1     3
 -2.3009239130103798E+00 a       724     0    49     1     4
 -1.5847367384624012E+00 a       725     0    49     1     5
  1.6462450026130522E+00 a       726     0    49     1     6
  2.3918577816794593E+00 a       727     0    49     1     7
  3.5453546780744509E+00 a       728     0    49     1     8
 -8.3371858729984485E+00 a       729     0    49     1     9
  3.3070116608246654E+00 a       730     0    49     1    10
 -1.6502622460225955E+00 a       731     0    49     1    11
 -6.8215138865878151E+00 a       732     0    49     1    12
 -3.3367411343931774E+00 a       733     0    49     1    13
  2.5904550013523799E+00 a       734     0    49     1    14
 -2.7094182558123410E+00 a       735     0    49     1    15
  2.2920363872148286E+00 a       736     0    50     1     1
 -2.8431381014879658E+00 a       737     0    50     1     2
 -2.3503798287577267E+00 a       738     0    50     1     3
  2.1178015269640715E+00 a       739     0    50     1     4
 -1.0894386002342742E+01 a       740     0    50     1     5
  3.5870386034253405E+00 a       741     0    50     1     6
 -6.8236194656246880E+00 a       742     0    50     1     7
  7.9848293733742635E+00 a       743     0    50     1     8
 -1.2634193519591388E+01 a       744     0    50     1     9
  2.5645884213972918E+00 a       745     0    50     1    10
  5.0382020839814556E+00 a       746     0    50     1    11
  4.3259822534845274E+00 a       747     0    50     1    12
  1.8635557692389413E+00 a       748     0    50     1    13
 -7.7754583469463068E-02 a       749     0    50     1    14
  2.8818522338413932E+00 a       750     0    50     1    15
  3.6113748130724304E+00 a       751     0    51     1     1
 -2.3615609424545214E-01 a       752     0    51     1     2
  1.8063088121195756E+00 a       753     0    51     1     3
 -1.0383368380302527E+00 a       754     0    51     1     4
 -4.5389402115822692E+00 a       755     0    51     1     5
  5.4276643965039382E+00 a       756     0    51     1     6
 -4.3108379982432343E-01 a       757     0    51     1     7
  9.0813558824506035E+00 a       758     0    51     1     8
  7.1637588595301551E+00 a       759     0    51     1     9
 -1.9981839438650701E+00 a       760     0    51     1    10
  1.3887803052686607E+01 a       761     0    51     1    11
  8.8446003232529886E+00 a       762     0    51     1    12
  1.8478912011718371E+00 a       763     0    51     1    13
  1.0684137660762362E+01 a       764     0    51     1    14
 -3.6556197131830479E+00 a       765     0    51     1    15
  2.6505185076691640E+00 a       766     0    52     1     1
 -1.2923458324925338E-01 a       767     0    52     1     2
  2.1640244667553560E+01 a       768     0    52     1     3
  4.8789970007406893E+00 a       769     0    52     1     4
  3.9143752455704885E+00 a       770     0    52     1     5
  3.7869559342094479E+00 a       771     0    52     1     6
 -2.6962027776379789E+00 a       772     0    52     1     7
 -1.0211290597546608E+01 a       773     0    52     1     8
  7.5717474399681599E+00 a       774     0    52     1     9
  3.4486838017210655E+00 a       775     0    52     1    10
 -2.1375580760429052E+00 a       776     0    52     1    11
 -4.4561418824099146E+00 a       777     0    52     1    12
  6.4460677355668849E+00 a       778     0    52     1    13
 -1.0360777220832269E+01 a       779     0    52     1    14
 -1.6853640324082071E+00 a       780     0    52     1    15
 -2.2793738933005283E+00 a       781     0    53     1     1
  6.0737704294119359E+00 a       782     0    53     1     2
 -3.9558013390728126E+00 a       783     0    53     1     3
  4.2718499248148500E+00 a       784     0    53     1     4
  2.8669187108533154E+00 a       785     0    53     1     5
  1.2624378408833667E+00 a       786     0    53     1     6
  1.4400770722178571E+00 a       787     0    53     1     7
 -7.9494380537064135E-01 a       788     0    53     1     8
  1.8783208595198715E+01 a       789     0    53     1     9
 -8.8042127693252805E+00 a       790     0    53     1    10
  8.2402950921619667E+00 a       791     0    53     1    11
 -1.5648665387348595E+00 a       792     0    53     1    12
  1.6236795865450568E+00 a       793     0    53     1    13
 -3.1808558174658375E+00 a       794     0    53     1    14
 -9.1002138511939279E+00 a       795     0    53     1    15
  6.6119157420218877E-01 a       796     0    54     1     1
  2.1068180253572106E+00 a       797     0    54     1     2
 -7.5651128407500612E-01 a       798     0    54     1     3
  2.1820865880547111E-01 a       799     0    54     1     4
 -1.3419488048958053E-02 a       800     0    54     1     5
  6.1009556418575438E-02 a       801     0    54     1     6
 -1.9279180557452308E-01 a       802     0    54     1     7
  1.8432369450174719E+00 a       803     0    54     1     8
  3.1313874192180284E+00 a       804     0    54     1     9
 -3.7104229280181928E+00 a       805     0    54     1    10
 -1.4582214359767187E+00 a       806     0    54     1    11
  6.5299266010190271E-01 a       807     0    54     1    12
  6.7017314399156080E-01 a       808     0    54     1    13
  5.2199420402064147E+00 a       809     0    54     1    14
 -1.1903017185132587E+00 a       810     0    54     1    15
  1.1846365119057511E+00 a       811     0    55     1     1
  3.5353920367674143E+00 a       812     0    55     1     2
 -7.6677470422305820E+00 a       813     0    55     1     3
  1.2512250950895509E+00 a       814     0    55     1     4
 -3.8542642697615426E+00 a       815     0    55     1     5
 -2.2031680813963788E+00 a       816     0    55     1     6
  4.1095458464914925E-01 a       817     0    55     1     7
  3.3624636128530270E+00 a       818     0    55     1     8
  2.2373386076563091E+00 a       819     0    55     1     9
 -3.6509863861292664E+00 a       820     0    55     1    10
  2.2517723350512857E+00 a       821     0    55     1    11
  1.3206510000557062E-01 a       822     0    55     1    12
 -3.1648818257896658E+00 a       823     0    55     1    13
  8.8091341334516855E+00 a       824     0    55     1    14
 -2.6146689794098150E+00 a       825     0    55     1    15
 -1.9978014776643252E-01 a       826     0    56     1     1
 -2.5310203881059850E+00 a       827     0    56     1     2
  2.5392655109687814E+00 a       828     0    56     1     3
  2.8929014161454041E+00 a       829     0    56     1     4
  4.1684706332102923E+00 a       830     0    56     1     5
 -1.8531906827843778E+00 a       831     0    56     1     6
  7.7487461640045663E-01 a       832     0    56     1     7
 -1.0705819919539876E+00 a       833     0    56     1     8
 -1.5910992224467786E+00 a       834     0    56     1     9
 -3.1610387323378859E+00 a       835     0    56     1    10
 -1.5705284743254528E+00 a       836     0    56     1    11
 -3.7166919395387299E+00 a       837     0    56     1    12
  1.3699510502431839E-01 a       838     0    56     1    13
  1.5901191616407944E+00 a       839     0    56     1    14
  1.7733265630654003E+00 a       840     0    56     1    15
 -8.4538146822809368E-01 a       841     0    57     1     1
 -1.0341643350323435E+00 a       842     0    57     1     2
 -9.7800694413309386E-01 a       843     0    57     1     3
  1.0986444540901526E-01 a       844     0    57     1     4
  2.9670978931510259E+00 a       845     0    57     1     5
 -3.9346177906486851E-01 a       846     0    57     1     6
  8.5690243318784187E-01 a       847     0    57     1     7
  2.1707546801362962E-01 a       848     0    57     1     8
 -2.0866716734568772E-01 a       849     0    57     1     9
 -4.1564706622713015E+00 a       850     0    57     1    10
 -2.1721384082438329E+00 a       851     0    57     1    11
  2.4962356417014968E+00 a       852     0    57     1    12
 -1.7620195213302861E+00 a       853     0    57     1    13
 -1.6185731381710384E+00 a       854     0    57     1    14
  2.7568041044536462E-01 a       855     0    57     1    15
 -1.7298726832897797E+00 a       856     0    58     1     1
  4.5513128053107845E+00 a       857     0    58     1     2
 -1.4851832071548962E+01 a       858     0    58     1     3
 -3.3627648587702179E+00 a       859     0    58     1     4
 -5.9458531470196458E+00 a       860     0    58     1     5
 -4.8113931349839492E+00 a       861     0    58     1     6
 -8.4974955727634405E-01 a       862     0    58     1     7
  3.6519390305873523E+00 a       863     0    58     1     8
 -6.5188921074134258E+00 a       864     0    58     1     9
 -4.9617596710050833E+00 a       865     0    58     1    10
 -1.4742340436573718E+01 a       866     0    58     1    11
  5.7624165932515652E+00 a       867     0    58     1    12
 -7.0387670219089715E+00 a       868     0    58     1    13
  1.4128159072894206E+00 a       869     0    58     1    14
  1.1355796731608325E+00 a       870     0    58     1    15
  1.8247032089026862E+00 a       871     0    59     1     1
 -1.7709153719739874E+00 a       872     0    59     1     2
  1.2305810725967177E+01 a       873     0    59     1     3
  1.6357097842115416E+00 a       874     0    59     1     4
  1.0258643331166267E+01 a       875     0    59     1     5
  8.8670352702526112E-01 a       876     0    59     1     6
  5.5012247291513028E-01 a       877     0    59     1     7
  2.8902212874712658E+00 a       878     0    59     1     8
 -6.5412580977053103E-01 a       879     0    59     1     9
  1.1855685061734932E-01 a       880     0    59     1    10
  3.4058981452668124E+00 a       881     0    59     1    11
  5.4797347763399138E+00 a       882     0    59     1    12
 -3.6115989650956730E+00 a       883     0    59     1    13
 -4.8889426339698017E-01 a       884     0    59     1    14
  1.1330859192714648E+00 a       885     0    59     1    15
  9.7451592696641010E-01 a       886     0    60     1     1
 -1.9145267408567097E+00 a       887     0    60     1     2
  3.2065603995192609E+00 a       888     0    60     1     3
 -1.9101814551857481E+00 a       889     0    60     1     4
 -4.0578141756134301E+00 a       890     0    60     1     5
  8.4746295723802600E-01 a       891     0    60     1     6
 -5.4775785157527830E+00 a       892     0    60     1     7
  1.9470806794652717E+00 a       893     0    60     1     8
 -1.2191655017591685E+00 a       894     0    60     1     9
  5.5523882683200352E+00 a       895     0    60     1    10
  1.8877102795773442E+00 a       896     0    60     1    11
  1.7328223898522774E-01 a       897     0    60     1    12
  2.6160394978972712E+00 a       898     0    60     1    13
 -9.0790867762602190E-01 a       899     0    60     1    14
 -1.0887012508062361E+00 a       900     0    60     1    15
 -2.4654086959113677E-01 a       901     0    61     1     1
  1.8763175300519186E+00 a       902     0    61     1     2
  8.4523160128809689E+00 a       903     0    61     1     3
 -9.9344245956763866E-01 a       904     0    61     1     4
  3.4903560715644160E+00 a       905     0    61     1     5
  2.1685319027151349E+00 a       906     0    61     1     6
 -2.9507511621057686E-01 a       907     0    61     1     7
 -1.3380182603347330E+00 a       908     0    61     1     8
  8.2999333295513511E-01 a       909     0    61     1     9
  3.9810367144077929E+00 a       910     0    61     1    10
  9.1622733834458669E-01 a       911     0    61     1    11
 -5.4362235555832239E-01 a       912     0    61     1    12
  4.3730204554577226E+00 a       913     0    61     1    13
 -5.0126329153163640E+00 a       914     0    61     1    14
  2.0716410262627907E+00 a       915     0    61     1    15
 -3.7048118746575398E-01 a       916     0    62     1     1
  2.4822286486568652E+00 a       917     0    62     1     2
 -8.6605249016754726E-01 a       918     0    62     1     3
 -2.3436108206269979E+00 a       919     0    62     1     4
  1.1519415299462363E+00 a       920     0    62     1     5
  7.9268758253263472E-01 a       921     0    62     1     6
  7.3920004112004878E-01 a       922     0    62     1     7
 -6.0966026611547941E-01 a       923     0    62     1     8
  4.0409634700361794E+00 a       924     0    62     1     9
  9.9328776341299441E-01 a       925     0    62     1    10
 -7.2248105335026180E-02 a       926     0    62     1    11
  2.4419089900516763E-01 a       927     0    62     1    12
 -1.6179939164669996E+00 a       928     0    62     1    13
 -1.5769837458761764E+00 a       929     0    62     1    14
 -2.8664277940556171E+00 a       930     0    62     1    15
  1.7034578123384085E+00 a       931     0    63     1     1
  3.6493835049208561E+00 a       932     0    63     1     2
 -2.4503808933065434E+00 a       933     0    63     1     3
  6.0409020097490307E-01 a       934     0    63     1     4
 -1.0324014467256288E+00 a       935     0    63     1     5
 -7.3581341635496289E-01 a       936     0    63     1     6
  1.0480026225236887E+00 a       937     0    63     1     7
 -3.1387766962888279E+00 a       938     0    63     1     8
 -3.4652573933000430E+00 a       939     0    63     1     9
  2.8152819699694156E+00 a       940     0    63     1    10
  3.2626519544537663E-01 a       941     0    63     1    11
  5.3223006857403519E+00 a       942     0    63     1    12
 -2.7885209823930945E+00 a       943     0    63     1    13
  4.4186040818953298E+00 a       944     0    63     1    14
  3.2293549964126451E+00 a       945     0    63     1    15
  5.4026918642111348E-04 a       946     0    64     1     1
  8.7694227333565800E-01 a       947     0    64     1     2
  3.9840509387080081E+00 a       948     0    64     1     3
 -2.3280750400481280E+00 a       949     0    64     1     4
  2.7351488209683721E+00 a       950     0    64     1     5
 -2.4012069537021494E-01 a       951     0    64     1     6
  1.6260540762622400E+00 a       952     0    64     1     7
 -4.8477406568895698E-01 a       953     0    64     1     8
  2.4848494205486812E-01 a       954     0    64     1     9
  6.4780485195999349E-01 a       955     0    64     1    10
  2.0721345999336060E+00 a       956     0    64     1    11
 -6.7770536541542792E-01 a       957     0    64     1    12
  1.1479727371564243E-01 a       958     0    64     1    13
 -4.2800079639109578E-01 a       959     0    64     1    14
  1.3854858832060386E+00 a       960     0    64     1    15
  4.9888051481415613E-01 a       961     0    65     1     1
  1.6610405269069574E-02 a       962     0    65     1     2
 -6.8704908562473399E-01 a       963     0    65     1     3
  4.2163785810473831E-01 a       964     0    65     1     4
 -7.7152635924055402E-01 a       965     0    65     1     5
  4.7404349065984763E-01 a       966     0    65     1     6
  9.9146354873769804E-01 a       967     0    65     1     7
 -9.2759179271503456E-02 a       968     0    65     1     8
  1.7443426858563491E+00 a       969     0    65     1     9
  1.5939344556786281E+00 a       970     0    65     1    10
  4.8427007964389181E-02 a       971     0    65     1    11
 -8.2136334424380175E-01 a       972     0    65     1    12
  7.1600794022352077E-01 a       973     0    65     1    13
 -1.4487200459639809E+00 a       974     0    65     1    14
 -8.1183568425834829E-01 a       975     0    65     1    15
 -3.3802389939481609E-01 a       976     0    66     1     1
 -1.3167739378068885E-01 a       977     0    66     1     2
 -1.4267188855495661E-01 a       978     0    66     1     3
 -3.0977939061818960E-01 a       979     0    66     1     4
 -1.0680168143152053E+00 a       980     0    66     1     5
 -3.6997120921781251E-01 a       981     0    66     1     6
 -2.5765001324693765E-01 a       982     0    66     1     7
 -8.3793792427699454E-01 a       983     0    66     1     8
  6.5998304227785831E-01 a       984     0    66     1     9
 -8.1948617154925310E-02 a       985     0    66     1    10
 -3.6344195090891712E-01 a       986     0    66     1    11
  1.7483906591502332E-01 a       987     0    66     1    12
 -5.3413952898067019E-01 a       988     0    66     1    13
 -1.7327042096749676E-01 a       989     0    66     1    14
  1.1013771729212365E+00 a       990     0    66     1    15
 -1.2381589253222065E+00 b       991     1     1
 -7.1219477527760922E-01 b       992     1     2
 -1.1152801797380041E+00 b       993     1     3
 -1.1298100585888355E+00 b       994     1     4
 -4.4063865193030616E-01 b       995     1     5
  1.2539623110220266E+00 b       996     1     6
 -1.0222719258375674E+00 b       997     1     7
 -3.3926370235273179E-01 b       998     1     8
  4.1027160936609980E-01 b       999     1     9
  5.3802380220448223E+00 b      1000     1    10
 -1.5343086467320819E+00 b      1001     1    11
 -1.7676610166667570E-01 b      1002     1    12
 -1.4833675506638966E+00 b      1003     1    13
  2.9580889829247231E-01 b      1004     1    14
 -3.6724665895990277E-01 b      1005     1    15
 -2.8341360507350553E+00 a      1006     1     1     2     1
 -9.2651773985002583E-01 a      1007     1     1     2     2
  6.4554418089754340E-01 a      1008     1     1     2     3
  1.3889119851910610E+00 a      1009     1     1     2     4
  1.4525114363776588E+00 a      1010     1     1     2     5
  1.6007502095759536E+00 a      1011     1     1     2     6
 -1.7940972886982129E+00 a      1012     1     1     2     7
  3.0256504238434587E+00 a      1013     1     1     2     8
  8.8350299450225089E-01 a      1014     1     1     2     9
 -1.9876515766205280E+00 a      1015     1     1     2    10
  6.2435792830636638E-01 a      1016     1     1     2    11
 -8.0579634565595992E-01 a      1017     1     1     2    12
 -7.1470192411537015E-01 a      1018     1     1     2    13
 -1.1906862039600725E+00 a      1019     1     1     2    14
 -4.2158543449434810E-01 a      1020     1     1     2    15
 -5.2510708025645780E-01 a      1021     1     2     2     1
 -1.0510323457946915E+00 a      1022     1     2     2     2
 -2.7215892317876034E-01 a      1023     1     2     2     3
  7.3726441433799611E-02 a      1024     1     2     2     4
 -5.9417440143253764E-01 a      1025     1     2     2     5
 -2.1473641516076118E+00 a      1026     1     2     2     6
 -2.0496811369057530E+00 a      1027     1     2     2     7
  5.0384970778907900E-01 a      1028     1     2     2     8
  1.2187981966251529E-01 a      1029     1     2     2     9
 -1.3043331031755490E-01 a      1030     1     2     2    10
 -1.6541414328429183E-01 a      1031     1     2     2    11
 -2.6389154388557723E-01 a      1032     1     2     2    12
  9.0311116558571117E-02 a      1033     1     2     2    13
  7.6298952530047015E-01 a      1034     1     2     2    14
 -1.0271196139933635E-01 a      1035     1     2     2    15
  3.5085570812501726E-01 a      1036     1     3     2     1
 -8.5777054135656094E-01 a      1037     1     3     2     2
  1.8873544525357561E-01 a      1038     1     3     2     3
 -1.8739630670251910E+00 a      1039     1     3     2     4
  3.9058413819048948E-01 a      1040     1     3     2     5
  1.5820753056150560E-01 a      1041     1     3     2     6
 -3.3347926914686106E+00 a      1042     1     3     2     7
 -5.2585827862012080E-01 a      1043     1     3     2     8
  1.5791345716099001E-02 a      1044     1     3     2     9
 -8.6219648981224628E-01 a      1045     1     3     2    10
 -1.4503556711678780E+00 a      1046     1     3     2    11
  6.3174802868810220E-01 a      1047     1     3     2    12
 -2.0444097540501213E-01 a      1048     1     3     2    13
 -8.4961634566176647E-01 a      1049     1     3     2    14
  4.2917593423772599E-01 a      1050     1     3     2    15
  4.7888267600130929E-01 a      1051     1     4     2     1
 -3.6305472613195838E-01 a      1052     1     4     2     2
  3.9478109952187279E-01 a      1053     1     4     2     3
 -5.3540726724581700E-01 a      1054     1     4     2     4
 -1.3726337289471242E+00 a      1055     1     4     2     5
  3.7244224560295824E-01 a      1056     1     4     2     6
 -7.7515526234927046E-01 a      1057     1     4     2     7
 -1.0886863838659711E-01 a      1058     1     4     2     8
  2.3431852847711712E-01 a      1059     1     4     2     9
 -2.4027422838133661E+00 a      1060     1     4     2    10
 -1.1688398319242277E+00 a      1061     1     4     2    11
 -1.9056158927560157E-01 a      1062     1     4     2    12
  1.5748478430111368E-01 a      1063     1     4     2    13
  2.0909351067443036E+00 a      1064     1     4     2    14
  3.6669553732694049E-01 a      1065     1     4     2    15
  5.2932849985853181E-01 a      1066     1     5     2     1
  1.2572241818575103E+00 a      1067     1     5     2     2
 -4.2879328680879986E-01 a      1068     1     5     2     3
  3.2778170852927357E-01 a      1069     1     5     2     4
  2.9984123619215169E-01 a      1070     1     5     2     5
  3.3655238405337590E-01 a      1071     1     5     2     6
 -2.5151312532119607E-01 a      1072     1     5     2     7
 -5.2686624521511083E-01 a      1073     1     5     2     8
  1.1382538889501773E-01 a      1074     1     5     2     9
  6.7108453260515699E-01 a      1075     1     5     2    10
 -1.1848341494981480E+00 a      1076     1     5     2    11
  9.3138168509389374E-01 a      1077     1     5     2    12
 -2.7034622339448744E-01 a      1078     1     5     2    13
 -3.2123568626196475E-01 a      1079     1     5     2    14
  5.7193971725174167E-02 a      1080     1     5     2    15
 -1.0521417919485934E+00 a      1081     1     6     2     1
 -1.4344100376204105E-01 a      1082     1     6     2     2
 -3.1081950668515956E-01 a      1083     1     6     2     3
 -1.7808040868723649E+00 a      1084     1     6     2     4
 -7.1159674699692137E-03 a      1085     1     6     2     5
 -2.5617744099889257E+00 a      1086     1     6     2     6
 -2.0760204306299483E+00 a      1087     1     6     2     7
  6.4047288168425243E-01 a      1088     1     6     2     8
 -4.2157919103440344E-01 a      1089     1     6     2     9
 -3.9928477987062871E-01 a      1090     1     6     2    10
  1.9066282582301614E-01 a      1091     1     6     2    11
  2.9567804805940173E-01 a      1092     1     6     2    12
  1.0103741696197792E+00 a      1093     1     6     2    13
 -9.4801145759068917E-01 a      1094     1     6     2    14
 -5.1883270787939129E-01 a      1095     1     6     2    15
  8.5070585978715174E-01 a      1096     1     7     2     1
  6.7967087428916662E-01 a      1097     1     7     2     2
  5.4523409699327796E-01 a      1098     1     7     2     3
 -6.9470190643149729E-02 a      1099     1     7     2     4
 -6.1214583655461577E-02 a      1100     1     7     2     5
 -1.8092672341504701E+00 a      1101     1     7     2     6
 -2.0067545191803626E+00 a      1102     1     7     2     7
 -1.7995849556545289E+00 a      1103     1     7     2     8
  4.4576906323443150E-01 a      1104     1     7     2     9
  2.2389935935188072E+00 a      1105     1     7     2    10
 -1.4761240715716806E+00 a      1106     1     7     2    11
 -9.2843422855778579E-01 a      1107     1     7     2    12
  3.4851339872162856E-01 a      1108     1     7     2    13
 -3.8078769921024267E+00 a      1109     1     7     2    14
  1.6925462926316212E-01 a      1110     1     7     2    15
  8.0323166366755527E-01 a      1111     1     8     2     1
  6.0846015903287298E-01 a      1112     1     8     2     2
  3.9012185721876841E-01 a      1113     1     8     2     3
  1.0944212835579057E+00 a      1114     1     8     2     4
 -5.7376738272071781E-01 a      1115     1     8     2     5
 -1.8790565442082952E+00 a      1116     1     8     2     6
  3.1855880924322127E-01 a      1117     1     8     2     7
 -8.8587528711227181E-01 a      1118     1     8     2     8
 -8.2287494711371048E-02 a      1119     1     8     2     9
 -2.5450724347232776E+00 a      1120     1     8     2    10
  1.2100508641941716E+00 a      1121     1     8     2    11
 -1.1451807064889958E+00 a      1122     1     8     2    12
  2.5988388926291274E-02 a      1123     1     8     2    13
  8.3934474945411064E-01 a      1124     1     8     2    14
 -1.9866812918147736E-01 a      1125     1     8     2    15
  6.0068276857625691E-01 a      1126     1     9     2     1
  1.2303347634264028E+00 a      1127     1     9     2     2
 -3.5499942183418320E-01 a      1128     1     9     2     3
 -3.3777881747167177E-01 a      1129     1     9     2     4
  7.1827654562097609E-01 a      1130     1     9     2     5
  6.5671235553487484E-01 a      1131     1     9     2     6
  1.3156445466369071E+00 a      1132     1     9     2     7
 -5.4162436554825755E-01 a      1133     1     9     2     8
 -1.9296268349725362E-02 a      1134     1     9     2     9
  2.2673062828692930E-01 a      1135     1     9     2    10
  4.8339592213883870E-01 a      1136     1     9     2    11
  4.3705853195087047E-01 a      1137     1     9     2    12
 -5.2968819354515029E-01 a      1138     1     9     2    13
 -7.0428311936943389E-01 a      1139     1     9     2    14
  3.1945317101519016E-01 a      1140     1     9     2    15
  1.3595601798460786E+00 a      1141     1    10     2     1
  7.3945849963574950E-02 a      1142     1    10     2     2
 -1.3995658316258527E-01 a      1143     1    10     2     3
 -3.8188426219619176E-01 a      1144     1    10     2     4
 -1.4892156318125271E-01 a      1145     1    10     2     5
 -7.2370318083999841E-01 a      1146     1    10     2     6
 -9.2795207504706678E-01 a      1147     1    10     2     7
 -1.3317374615605566E+00 a      1148     1    10     2     8
  3.8183710719747334E-02 a      1149     1    10     2     9
 -5.6411219188408512E-01 a      1150     1    10     2    10
 -8.3680267893062321E-01 a      1151     1    10     2    11
 -3.4103888410923029E-03 a      1152     1    10     2    12
 -1.2929072461625643E-01 a      1153     1    10     2    13
 -3.8189203057051335E-01 a      1154     1    10     2    14
  1.2985151079424440E-01 a      1155     1    10     2    15
  2.1318011732410255E-01 a      1156     1    11     2     1
  8.5521269969155900E-01 a      1157     1    11     2     2
  9.8363773423435952E-01 a      1158     1    11     2     3
  4.9227103796655694E-02 a      1159     1    11     2     4
  1.1754571078519466E-01 a      1160     1    11     2     5
 -1.7089613025859360E+00 a      1161     1    11     2     6
  1.3845135066219090E+00 a      1162     1    11     2     7
 -3.2525089379158517E-02 a      1163     1    11     2     8
 -6.9302562237945967E-02 a      1164     1    11     2     9
 -1.2272317887004655E-01 a      1165     1    11     2    10
  1.6000273197212600E-01 a      1166     1    11     2    11
 -6.7111495949139477E-01 a      1167     1    11     2    12
  9.5127786763235953E-02 a      1168     1    11     2    13
  8.1611632527858702E-01 a      1169     1    11     2    14
  4.0611618073636502E-01 a      1170     1    11     2    15
 -3.8029209779712497E-01 a      1171     1    12     2     1
 -9.2827666523364583E-01 a      1172     1    12     2     2
  3.7212504128894025E-01 a      1173     1    12     2     3
 -4.9899469283640113E-01 a      1174     1    12     2     4
 -2.6108506780301105E-01 a      1175     1    12     2     5
  4.5758013146205029E-01 a      1176     1    12     2     6
 -1.4698917273914553E+00 a      1177     1    12     2     7
  4.6204054003641382E-01 a      1178     1    12     2     8
  2.3266657345303997E-02 a      1179     1    12     2     9
 -2.9166017311836884E-01 a      1180     1    12     2    10
 -9.5708189070651328E-01 a      1181     1    12     2    11
  2.9752301107667756E-01 a      1182     1    12     2    12
 -2.4242449272391095E-01 a      1183     1    12     2    13
 -1.8291086931879752E+00 a      1184     1    12     2    14
 -6.8482112884460627E-02 a      1185     1    12     2    15
 -4.6447292613740565E-01 a      1186     1    13     2     1
 -4.8759541880717822E-01 a      1187     1    13     2     2
 -1.0524399323624305E+00 a      1188     1    13     2     3
 -5.7383263806359726E-02 a      1189     1    13     2     4
 -7.6983646046820522E-02 a      1190     1    13     2     5
 -5.7350668569979835E-01 a      1191     1    13     2     6
  6.6138741461561656E-01 a      1192     1    13     2     7
  3.8537117264640980E-01 a      1193     1    13     2     8
 -1.6702195198747657E-01 a      1194     1    13     2     9
 -1.7542919137135302E+00 a      1195     1    13     2    10
  1.0026516132490158E-01 a      1196     1    13     2    11
  2.7099522503927009E-01 a      1197     1    13     2    12
  6.6711562807364022E-01 a      1198     1    13     2    13
 -2.3900107252241398E-01 a      1199     1    13     2    14
 -3.0943652743883604E-01 a      1200     1    13     2    15
  1.7085325697003420E-01 a      1201     1    14     2     1
  1.7536972648999058E-01 a      1202     1    14     2     2
  1.8256520690617034E-01 a      1203     1    14     2     3
 -8.5297348847831178E-01 a      1204     1    14     2     4
 -7.7324970575196961E-01 a      1205     1    14     2     5
  1.9455994700750651E-01 a      1206     1    14     2     6
 -1.3221734974500490E+00 a      1207     1    14     2     7
 -1.0243534464975254E-01 a      1208     1    14     2     8
 -2.9766603103362921E-01 a      1209     1    14     2     9
  9.1686853619056807E-01 a      1210     1    14     2    10
 -5.5686136674155262E-01 a      1211     1    14     2    11
  5.7072311946239773E-01 a      1212     1    14     2    12
 -1.7933992860443929E-01 a      1213     1    14     2    13
  3.8830278973878873E-01 a      1214     1    14     2    14
  9.1004881671094093E-02 a      1215     1    14     2    15
 -7.8848960027125825E-01 a      1216     1    15     2     1
  1.3313531813468020E+00 a      1217     1    15     2     2
 -1.3000572150920930E-01 a      1218     1    15     2     3
 -3.8108663672102766E-01 a      1219     1    15     2     4
 -1.1572520355532838E+00 a      1220     1    15     2     5
  9.5679486935243385E-01 a      1221     1    15     2     6
  1.0112352334747265E+00 a      1222     1    15     2     7
  8.3060696339079532E-01 a      1223     1    15     2     8
 -7.5082407328404960E-02 a      1224     1    15     2     9
 -3.1775766992994727E+00 a      1225     1    15     2    10
 -7.0029123487038170E-01 a      1226     1    15     2    11
  2.2213499893632740E-01 a      1227     1    15     2    12
 -3.3589048486021171E-02 a      1228     1    15     2    13
  3.2449745796068336E-01 a      1229     1    15     2    14
  1.8567803476890962E-01 a      1230     1    15     2    15
 -2.7260033691876273E-01 b      1231     2     1
 -5.8271762207400188E+00 b      1232     2     2
 -4.7745850917278903E+00 b      1233     2     3
 -6.7740941032718638E-01 b      1234     2     4
 -1.5209803479567836E+00 b      1235     2     5
  2.7124735849444170E+00 b      1236     2     6
 -1.0361603802017290E-02 b      1237     2     7
  6.6492760482378266E-01 b      1238     2     8
 -2.7545614175741417E+00 b      1239     2     9
  4.6288886921142663E-01 b      1240     2    10
  1.3374107125039634E+00 b      1241     2    11
 -4.1722071191342778E+00 b      1242     2    12
 -1.2128767443610640E+00 b      1243     2    13
 -2.3785041095252759E+00 b      1244     2    14
 -1.2371330976919677E+00 b      1245     2    15
  3.8092103678649486E-01 a      1246     2     1     3     1
  7.2586657036320043E-02 a      1247     2     2     3     1
  9.1236205188336750E-01 a      1248     2     3     3     1
 -1.0449650648308071E+00 a      1249     2     4     3     1
  2.7444910139724155E-01 a      1250     2     5     3     1
 -2.4943846071118453E-01 a      1251     2     6     3     1
  2.7329648471251455E-01 a      1252     2     7     3     1
 -5.1835226551255897E-01 a      1253     2     8     3     1
  8.7080975222524226E-01 a      1254     2     9     3     1
  1.5117301852979884E-01 a      1255     2    10     3     1
 -1.4902403068354381E-01 a      1256     2    11     3     1
  2.0034607555985373E-01 a      1257     2    12     3     1
 -2.7232030882381020E-01 a      1258     2    13     3     1
  1.0153405059590825E-01 a      1259     2    14     3     1
  2.2045144762654137E-01 a      1260     2    15     3     1
 -3.0960509257594269E+00 b      1261     3     1
