     -0.0797436466
      0.0752912334
     -0.0489901026
      0.0089452996
     -0.0214947398
      0.0074417583
     -0.0509076571
      0.1199397726
      0.0066795048
      0.0438870484
     -0.0419973002
      0.0305994556
     -0.0079491452
      0.0238599415
      0.0570739199
     -0.0880837440
      0.1368111692
     -0.0657958130
      0.0831323769
     -0.0563983573
      0.0638553215
      0.0687230808
     -0.0418487787
      0.0614081417
      0.0788671876
      0.0076408443
     -0.0180908911
     -0.0487692780
     -0.0088813717
     -0.0294242932
     -0.0884776646
      0.1376378468
     -0.0674354976
      0.0799697404
     -0.0557347362
      0.0650480765
      0.0701030051
     -0.0442440122
      0.0625015604
      0.0776113373
      0.0020925972
     -0.0242818316
     -0.0440488929
     -0.0078863928
     -0.0256468656
     -0.0886561397
      0.1369560800
     -0.0648145713
      0.0783975455
     -0.0592582408
      0.0678555889
      0.0759977128
     -0.0485774560
      0.0661469572
      0.0753443501
     -0.0045062775
     -0.0286511321
     -0.0399514192
     -0.0036208318
     -0.0230320496
     -0.0758770839
      0.0755906030
     -0.0415898852
      0.0057262166
     -0.0239439530
      0.0004904728
     -0.0535403201
      0.1165561231
     -0.0013638171
      0.0533027763
     -0.0290682941
      0.0337631161
     -0.0024032264
      0.0297775053
      0.0597649456
     -0.0873022107
      0.1346466520
     -0.0634714643
      0.0734231727
     -0.0590750478
      0.0676466247
      0.0779987316
     -0.0534806053
      0.0670692363
      0.0698415699
     -0.0123696183
     -0.0369837463
     -0.0345283476
     -0.0008246631
     -0.0206046802
     -0.0881380324
      0.1347477941
     -0.0657768725
      0.0682982493
     -0.0601059523
      0.0694061024
      0.0801290038
     -0.0568959427
      0.0709351961
      0.0702879749
     -0.0158615356
     -0.0434095904
     -0.0304524039
     -0.0003659008
     -0.0141948359
     -0.0740006368
      0.0796123745
     -0.0351561682
      0.0059606333
     -0.0250716172
     -0.0023160917
     -0.0535090379
      0.1127528749
     -0.0092349092
      0.0555351857
     -0.0180324847
      0.0337970112
     -0.0025058511
      0.0334363236
      0.0612423552
     -0.0859804853
      0.1340595394
     -0.0633583304
      0.0669284817
     -0.0615163223
      0.0691757012
      0.0817899584
     -0.0582229642
      0.0735977647
      0.0672671686
     -0.0256534911
     -0.0483615569
     -0.0259375531
      0.0050644398
     -0.0111133157
     -0.0698230676
      0.0826618731
     -0.0283001695
      0.0060681439
     -0.0271085688
     -0.0036504740
     -0.0560715799
      0.1120360160
     -0.0136821759
      0.0629526337
     -0.0073053141
      0.0382639233
      0.0002984190
      0.0333219677
      0.0594972500
     -0.0668209007
      0.0849194426
     -0.0212478786
      0.0049988503
     -0.0257544149
     -0.0071139566
     -0.0596028591
      0.1060711499
     -0.0196876408
      0.0705729196
      0.0042830291
      0.0421513166
      0.0006809113
      0.0366936364
      0.0626458784
     -0.0647972829
      0.0851180883
     -0.0136186732
      0.0078160638
     -0.0295756756
     -0.0134931650
     -0.0642780895
      0.1043212342
     -0.0236146930
      0.0739579506
      0.0103174878
      0.0476734380
      0.0027754188
      0.0354719030
      0.0654152141
     -0.0862201191
      0.0666252181
     -0.0293503114
     -0.0500319988
     -0.0450613592
     -0.0235358550
     -0.0357259459
      0.0579580518
     -0.0091008374
      0.0381202264
     -0.0733312900
      0.0100283476
      0.0279405708
      0.0833231889
      0.0927382285
     -0.1515579368
      0.0979726540
     -0.0900423310
      0.1015171168
     -0.1439027584
      0.0662081920
      0.0443632420
      0.0550981257
      0.0771063221
     -0.0206420662
     -0.1387861645
     -0.0005470316
     -0.1357929358
      0.0289811949
     -0.0446524642
     -0.1120941072
      0.0559348556
     -0.0167111933
     -0.0340171856
     -0.0431001384
     -0.0174832575
     -0.0471045811
      0.0770221898
      0.0109139255
      0.0310925136
     -0.0658338534
      0.0274743747
      0.0046233560
      0.0427296683
      0.0779030871
     -0.1300707425
      0.1588856046
     -0.0850438444
      0.0900326714
     -0.0678005282
      0.0648741903
      0.0308021306
      0.0357248773
      0.0496481596
      0.0956234836
     -0.0295814311
      0.0008291052
     -0.0461101373
      0.0089975866
     -0.0004475182
     -0.1391911302
      0.0943581751
     -0.0596000604
      0.1575069281
     -0.0760959364
      0.0853932472
      0.0533975734
     -0.0717485268
      0.0323555553
      0.0550417114
      0.0335612357
     -0.0568207542
      0.0193499266
     -0.0255689288
      0.0310544213
     -0.0652507583
      0.0742367526
     -0.0374844115
     -0.0694351907
     -0.0556996180
     -0.0213968598
     -0.0133231400
      0.0318150142
      0.0054671153
      0.0146004685
     -0.1191898609
     -0.0187821922
      0.0455423261
      0.1013463804
      0.1121108031
     -0.1166050933
      0.0498819230
     -0.0155869026
     -0.0389643450
     -0.0458610489
     -0.0140211698
     -0.0362746543
      0.0693404154
      0.0411674432
      0.0042108742
     -0.1033431444
      0.0160161958
      0.0057535651
      0.0211645207
      0.0828480798
     -0.1244950938
      0.1664073298
     -0.0812079967
      0.0920002783
     -0.0522018166
      0.0603629014
      0.0261387928
      0.0305824329
      0.0406209856
      0.1195196393
     -0.0069300303
      0.0137942304
     -0.0325460931
     -0.0018225846
      0.0083512381
     -0.4954161426
      0.2156759048
     -0.1218482570
      0.2474151239
     -0.3405896153
     -0.3110004703
     -0.3206175812
     -0.3005557992
      0.3728778435
     -0.0420612974
     -0.0476820417
      0.1311864545
     -0.2061640745
     -0.1255749684
     -0.3691180730
      0.0522801990
      0.0351123286
     -0.0995604629
     -0.0601584184
     -0.0615392953
     -0.0019646709
      0.1982823110
      0.2282626395
      0.1581246891
     -0.0988610606
     -0.0127963116
      0.0281956591
      0.0317903952
      0.0245848945
     -0.0444391101
     -0.0364348191
     -0.0422021804
      0.0869128018
      0.1636574134
     -0.1023641824
     -0.0570090012
     -0.1233087777
     -0.2303614709
     -0.0781073883
      0.0121989314
     -0.0062185676
      0.0514093654
     -0.0158969692
      0.0106755973
     -0.1696542173
      0.0418045299
      0.0337679862
     -0.1009565019
      0.0230177935
     -0.0155219306
      0.0457689068
      0.0293535193
      0.0627624032
      0.0480843738
     -0.0555452599
      0.0572246178
     -0.0138897499
     -0.0064633020
     -0.0296314100
     -0.0895951649
      0.0069061031
     -0.0622272447
      0.0241921935
      0.0474587226
     -0.0503679028
     -0.1159147736
     -0.1694221414
     -0.1385508017
     -0.0032845567
     -0.0196859139
      0.0530454932
     -0.0038621670
      0.0188829333
     -0.0102196547
      0.0021133652
      0.0863922454
     -0.0638986061
     -0.0346814763
     -0.0009828872
     -0.0804548877
      0.0335691196
      0.1006607727
     -0.0660194716
      0.0830917683
     -0.0095131631
      0.1030125906
      0.0034922570
      0.0637808059
     -0.0590338002
      0.1318696591
     -0.0233593974
      0.0695456386
     -0.1377311481
     -0.0485335826
      0.0004204757
     -0.0257285878
      0.1532092542
      0.1144156516
      0.0690069184
     -0.0807495369
     -0.0188717620
     -0.0677914683
      0.0387275708
      0.0490639582
     -0.0755210116
      0.0437139199
     -0.0416013465
     -0.0917097127
     -0.0407703400
     -0.0239110006
      0.0159232140
      0.1948027474
      0.1086480120
      0.0770000859
     -0.0189561506
      0.0389977727
     -0.0119995420
      0.0446911780
     -0.0075377489
     -0.0916793944
      0.0355113070
      0.0900022630
     -0.1045800182
      0.0365063041
      0.0643999976
     -0.0708190808
     -0.0669078160
      0.1824598817
      0.1178401170
     -0.1069454663
     -0.0757224283
      0.0050402982
     -0.0077236692
      0.0984459181
      0.1347901864
     -0.0904235945
     -0.0269181941
      0.1180614917
      0.0376464234
     -0.0300585067
     -0.0497759634
     -0.0431772978
     -0.3143049707
     -0.0198611518
      0.0837487377
     -0.0203882320
     -0.0124528433
     -0.0367807616
     -0.0059959325
      0.0135183141
     -0.0294765988
      0.0574308605
     -0.0272184619
      0.0230694136
     -0.0420329200
     -0.0071959738
      0.0601115390
     -0.1126356670
     -0.0066769047
     -0.0080112200
      0.0175518925
     -0.0900056436
      0.0007717844
      0.0003549575
     -0.0407456295
      0.0151626531
      0.0415087758
     -0.0752379750
      0.0105331253
     -0.0176387467
     -0.0391565854
     -0.0190820125
      0.0906876954
      0.0733734739
     -0.0092028951
      0.0435040907
     -0.0750215867
      0.0242027443
      0.0151192518
      0.1005141061
     -0.0868430165
      0.0116016600
      0.1215348428
      0.1187380191
     -0.0717594133
      0.0286177938
     -0.1480422467
     -0.1039125901
     -0.0039717822
      0.0083550469
      0.0358211901
     -0.1470964888
     -0.0285722437
     -0.0169598727
      0.1581907600
      0.0462342731
      0.0252106253
      0.0287738387
     -0.1062426111
      0.1548412452
      0.0291266757
      0.1055786908
      0.1605924862
     -0.0180849065
     -0.0458549216
     -0.0843012886
      0.0688427326
      0.0331198729
      0.0219978630
     -0.1429675581
      0.0589988633
     -0.0237491346
     -0.0605323262
      0.0296339875
     -0.0207930465
      0.0130607749
      0.1425902823
      0.0311623563
      0.0689163994
     -0.0101517388
     -0.0293511200
     -0.0202135096
      0.0431407675
      0.0157446366
     -0.0414428443
      0.0747110872
      0.0395300246
     -0.1329127418
      0.0453412914
      0.0621489972
     -0.0075325333
      0.1976922044
     -0.0375723269
      0.0997187021
     -0.0665467359
     -0.0551253069
      0.0903670029
      0.0240318692
      0.0678941626
     -0.0076667517
     -0.1119209304
     -0.1211541579
      0.3433691458
      0.1874841891
      0.0383695686
     -0.0296623415
     -0.1351436185
     -0.5350315280
     -0.2024334990
      0.1878766047
     -0.0143499907
      0.0219733839
     -0.0526368062
     -0.1140079600
      0.0077382369
     -0.0802597140
     -0.1900003559
      0.4134966686
     -0.1091828822
      0.2257537618
      0.2889377591
      1.0302332067
     -0.4936770203
     -0.0469426753
      0.0786061914
     -0.3488754956
      0.7010847980
     -0.0182485396
      0.0414070027
     -0.4581530932
      0.5773429983
