      0.4988126195
      0.2333500107
     -0.6270625769
     -0.5561242588
     -1.7136514762
     -0.8495140302
      1.3807889920
     -1.2253237904
     -5.5851930899
      4.4336543038
     -5.8310059573
      9.6854307799
    -11.5845873869
      2.9915781442
     -1.7609454569
     -0.7263099698
     -5.3972782280
      7.4276127494
      8.1843507119
      5.2695680615
      1.7370641889
     -1.0478094589
      2.3580633268
      0.3656238471
      1.4000726410
     -2.1379177958
      0.8018837667
     -3.6232407545
      0.5784167988
      2.0037711657
     -1.7386969168
      0.5661766613
     -0.8552876467
      1.5278877215
      0.9277625481
      0.4945624721
     -1.1469065843
      0.6952428253
      1.2478624896
     -0.6247735638
      4.6401707962
     -5.3890483040
      7.4057861676
     -0.7563956219
      1.5085808253
     -1.5338851576
      2.4343947310
     -5.8766288936
     -3.2789983987
     -0.9531639771
     -0.7797074194
      0.9770324587
     -0.3658168434
      2.0555735602
      0.9151165129
      1.0694077035
     -2.3265720460
      1.0474519127
      3.4676467267
     -1.6817176305
      1.8901741894
     -3.1493610925
      4.3195675913
     -0.9101387445
     -0.0235615856
     -0.6341420316
      1.4391787624
     -1.1700818698
     -4.4647611899
     -4.6297294139
      0.5307326772
      0.4522905573
      0.0281025392
      0.8022153008
     -0.2020008715
      1.1630244599
     -1.7975982238
     -0.7161971065
      2.4945847312
     -1.1030933654
     -1.7917926534
      1.5089729983
     -1.9135120454
      0.2219832303
     -1.4067304601
      1.3393584012
     -0.9444882990
      4.0295931163
     -1.5028677166
     -4.3035049355
      0.3228761674
     -0.7117266734
      0.8716567530
     -0.8834077268
     -2.7781412728
      0.4227685619
      0.1096695390
     -2.1299870380
      0.9464395153
      0.7675960895
     -2.5730115385
      1.9441568677
     -1.8953940211
      0.4468980042
     -2.2908365293
      5.8189722038
      2.6613268856
     -5.3896681325
      4.3875814858
      5.5886578572
     -2.9868073365
     -0.5252196518
      3.7757167958
     -2.5820113912
     -1.5679499812
     -1.8767402692
      4.2438720196
     -2.6314236910
      0.7309157677
      1.7766412668
      0.4688814169
     -0.7220988720
     -0.7991922350
      0.0028254203
      0.0941370702
      0.5208512290
     -0.5706618504
     -0.5515441156
     -0.2659123095
     -1.4694000130
      1.7186450474
      0.6273878425
     -0.0207374255
      1.0827373756
      0.4692959942
      0.0259924907
     -0.3359692841
      1.9232335680
     -1.0385466417
     -1.5644351663
      0.7442681208
      0.2161678894
     -0.5195251983
      0.8084709251
      0.3693888916
     -0.4677395359
     -1.0386942178
      1.2508562861
      0.0713683648
     -0.0881808842
     -0.1655617047
      0.1027044043
     -0.5976710876
     -0.0810256897
      0.2880694229
      0.5107853918
     -0.9855111317
     -0.6061617451
     -0.1532335023
     -1.3921311755
      0.4831152350
      0.7934273899
      0.6914495965
     -2.6423096523
     -0.7341511560
      0.2266669956
      0.9685629898
      0.6701614788
      0.0610384671
     -0.3647890996
      0.4577273718
     -0.2450614892
     -0.0206617557
     -0.6428462404
      0.2040841335
      0.8660110279
      0.2394171932
      0.1193455495
     -0.5206197631
      0.0458338748
      0.2789626545
     -0.0816378637
     -0.1398145562
     -0.2623553687
     -0.5776440456
      0.1673237487
     -0.3751247933
      0.0955357161
     -0.3032770808
     -0.6104619098
      0.3767111264
     -0.5853577220
     -0.1880251309
      2.9031811042
      1.5204530577
     -1.2153431350
     -0.6105367488
      1.7361159985
      0.1607948255
     -1.1338007119
      0.4323525468
     -0.2207223591
      0.2551006556
      0.4553235775
      0.3039502614
     -0.7839329268
     -0.5790589876
      0.9034380562
     -0.9863057696
     -0.3341275762
     -0.3103878231
      1.1747628451
     -0.4955912341
     -0.2593085971
     -0.1831933255
      0.1386239703
      0.1351348903
      0.5477194317
     -0.5852767156
      0.5303955820
     -0.1446033209
      0.2191720387
      0.1932086031
     -1.9319020430
     -0.5559595163
     -0.0102985254
     -0.1302326978
     -0.2617692823
      1.6419795171
      0.5776204725
     -0.9412750040
     -0.1993628739
      0.6521382145
     -0.9929785697
      0.5950700057
      0.1429896132
      0.2651382898
     -0.0189151326
     -0.8032739586
     -0.6451458292
      0.7252048304
      0.8505826762
     -0.4891713698
      0.1010309961
     -0.5094773773
      0.5657754422
      0.7641180083
      1.2538636374
     -0.8359820870
      0.9522253814
     -0.5702427911
      1.3939143256
     -0.9199561700
     -2.0753920527
      0.0078065840
     -0.4958894527
     -0.7762367335
      1.0550235312
      0.3118497625
      0.7820816840
     -0.9580272705
     -0.0695754577
      0.5996762419
     -0.5302170878
      0.5337786263
     -1.3151379227
      0.6298211124
      0.3903511152
     -1.5886272636
     -1.5952001021
      1.4229885183
     -1.5926416700
      1.1544891882
     -0.0823616956
     -0.6719403413
     -0.5465337112
      2.5362655453
     -0.6824943880
      0.7371571536
      0.6914815828
     -0.3715961810
     -1.9788947764
     -0.2007003560
      1.3764862469
      1.7063721276
     -0.7941208807
     -1.2979073114
      0.2929389776
      2.6607356014
     -0.3501880708
     -0.5698942370
     -0.1145690272
      0.7052623903
     -0.0986231493
      0.0501052240
      0.4840264173
      0.0718993610
     -0.4473618125
     -0.4468800945
     -0.2926686878
     -0.5160829222
     -0.1073865266
     -0.0488785732
     -0.1190745629
      0.5322601573
     -0.9505109166
     -0.4998731660
     -0.6076463535
      0.2005808398
     -0.3496677080
      0.5126591628
     -0.4106614867
      0.3118806403
      0.2054533727
     -0.1310373811
      0.5281343242
      0.2381720944
     -0.2516175087
     -0.1524070306
     -0.1712794805
      0.5201635284
     -0.4885309229
     -0.2702192595
     -0.0765496464
      0.2018052961
      0.9774501867
     -0.0010153244
      0.6831955554
      0.4232323683
      0.2710436411
     -0.9704675986
      0.9331251968
     -1.1416029699
     -0.2575623083
     -0.3708609736
     -0.0022606783
     -1.8611528320
      0.3692998870
      1.0962265993
      0.0167031497
     -0.0330012823
     -0.3495008580
      0.2345062287
      1.7149879655
     -0.1015769556
      0.7210845730
     -0.5351232644
      0.3835052218
     -5.1265617747
     -1.2069301503
      1.1218620976
     -0.2008038187
     -0.3298501778
      0.6375943878
     -0.8440773745
     -0.4000842443
     -1.2623349544
     -0.2331283624
      1.8507340611
      0.7364544060
     -0.6986400942
      1.5643414321
      0.7031080372
     -1.3217719817
      0.2464932181
      0.4855388690
      0.4472271081
     -1.8950013354
     -0.0291165217
     -0.3889000759
     -0.3449918120
      0.9259621865
      0.4445829001
      1.0044290441
      0.3064796837
     -1.2920560397
     -0.7465311208
     -0.9761810139
     -1.4261964870
     -0.3268210343
     -1.2902810803
     -0.3870526851
      0.4620780948
      1.2062408859
     -0.3616392115
      1.7336733627
     -1.0950013342
      0.3023868640
     -1.6207717188
      0.8309459819
      1.2040729358
      1.5755857071
      0.4106146399
     -1.7040928178
      0.1209045965
      0.2446312674
      0.8825766451
      0.7464427796
     -2.1354541817
      0.8762824188
     -0.5214255764
      1.8837087741
     -2.3583224756
     -1.2646593990
      0.6298794549
      1.8265123394
      0.0274750581
     -0.3847340403
     -1.2963772886
      0.0425333956
     -0.3194681394
     -0.7714960386
     -1.0299329334
     -0.8918931353
     -0.5063708996
      0.7947193602
     -0.9883677913
      0.5941103791
     -0.0174986380
     -0.4513428041
     -1.3948559828
      0.6865237388
      0.1779267221
     -1.0582507946
      0.0902351914
      0.8593035599
     -0.7109676092
     -0.5495865215
     -0.7680305365
     -0.2293672380
      1.2127216520
      0.4703594846
      2.2597517861
     -0.9316702669
      1.1374446354
      0.0605951928
     -1.1767977150
      0.6458472740
      0.7435539228
     -0.5967863639
      1.7213512625
      1.4608923575
     -0.0230722317
      0.9245740916
     -0.5670412157
      1.0923707101
      2.5579603162
     -0.4084933162
     -2.4465662329
      1.1029078037
     -0.1337530669
     -0.7335264146
      0.5612610379
      0.7601368841
      1.2256803127
     -0.2319108010
     -0.1660455553
      0.4558733055
      1.2737366265
     -0.1617116068
      1.7168877113
      1.3642093066
     -4.2142988879
     -2.3157088970
     -0.8576456604
      0.4277985001
      0.8520764758
     -1.5974616550
      0.1448753171
     -0.3901123062
      0.4094018849
     -0.2279592277
      1.6430874190
      0.2973413908
      0.9081956646
      1.1774480522
     -0.8284716649
     -0.4132023133
      1.7034401216
     -0.1379073676
      1.6521417102
     -0.9910527696
     -1.2614006319
     -0.1850375673
      1.2375387159
      0.6645192080
     -1.0078191133
     -2.0557353834
      0.4970859499
     -0.1532364135
      0.1075238564
     -0.0767842582
     -0.0405978443
      0.0170841168
      0.1272549346
     -0.1389386596
      0.0209758886
      0.1410290303
      0.0375120806
      0.1433812705
     -0.0562850466
