     -0.9204217177
     -0.3890858779
      0.1521122945
      0.2613280526
     -0.3567201299
     -0.6461570957
     -0.0441428519
      0.5420807739
      0.5648284188
     -0.2377346778
      0.6862632106
     -0.8302633101
     -0.4467073815
     -0.3360848462
      0.1456261973
     -0.5163967785
      0.1896649811
     -1.0115718142
      0.6333721129
      0.2237274188
     -0.6943733935
      0.6970659266
      0.9190671189
     -0.6454718038
     -0.1743897900
     -0.4170389847
      0.7979440593
     -0.0533545376
     -0.4959685003
     -0.9575307928
     -0.7249866419
      0.2206363085
      0.2908236758
      0.0384912204
     -0.2982328606
     -0.4584913341
     -0.3407314060
      0.1080736610
      0.7893851597
      0.3558930755
     -0.0354569427
      0.4364743743
     -0.6143987877
      0.0394154021
      0.0875184608
      0.3490990106
     -0.4188663336
      0.5909632236
      0.4141922129
     -0.3623026683
      0.2708877613
      0.5190823762
     -0.1230414847
      0.3401389303
      0.0950719456
      0.3690174115
      0.7106941470
      0.8790184988
     -0.7031185473
      0.2259705351
     -0.8526761142
     -0.8890342314
     -0.6128242750
     -0.5272410640
      0.6997458877
      0.8516500822
      0.3093138675
      0.7945475208
     -0.0601771759
      0.4956716939
     -0.9547226252
      0.4992308887
      0.4830997428
     -0.7504965008
     -0.3790367776
      0.2121268663
      0.0793343913
      0.0496074318
      0.1874274282
      0.3455440981
     -0.5100807839
     -0.5157029450
     -0.6166086500
      0.8021516599
      0.3051231571
     -0.3718978204
     -0.2485058108
     -0.4449659770
      0.9542125244
      0.7860366573
     -0.2917252706
     -0.7566073539
      0.1060796867
     -0.6408517055
      0.7920461175
     -0.1008356177
     -0.7729678157
     -0.2077229096
      0.4197309940
     -0.6892459767
     -0.2319349185
      0.2117164295
      0.7409949472
      0.5077629501
      0.0680416198
      0.3829313976
     -0.5089400560
     -0.1631809407
     -0.3364894607
      0.9296199676
      0.0320694475
     -0.0521532542
      0.0919121071
      0.9784421402
     -0.5042410746
     -0.1445438461
      0.2479916188
     -0.6423714677
     -0.8195377758
     -0.3745485984
      0.7852541856
      0.8018313033
     -0.7542161353
     -0.7153326346
     -0.4909420700
     -0.8563994734
     -0.2532803327
     -0.2187218676
      0.7496354442
     -0.6004513110
      0.7274579841
      0.0976898591
      0.0422463941
      0.5256472938
      0.7065485629
      0.7805437722
      1.1556267715
      0.0629576645
      0.8375307155
     -0.1080594206
      0.7743804777
      0.0822927063
      0.0655056596
      0.0415101685
      0.6475648753
     -0.8005221990
     -0.2890034330
      0.3179704194
     -0.0250782299
      0.7391866907
      0.2379482236
      0.1125129463
     -0.4003888637
      1.0326482136
     -0.7180332999
     -0.4440658862
     -0.4578492465
      0.0277047476
     -0.6573816278
     -0.8888682382
     -0.0826936053
      0.5215676856
      0.6764770552
     -0.8610984349
     -0.4357482313
     -0.9028832087
     -0.1152628572
     -0.0058134993
      0.0216406102
     -0.7868699543
     -0.4010374489
      0.7015871589
      0.7039298604
      0.4439695878
      0.3949770702
      0.3055608647
     -0.0063678433
     -0.1215328990
      0.5438868105
      0.0826708069
     -0.0398920167
     -0.1854806333
     -0.7783358378
     -0.2913606710
     -0.0991221463
     -0.7029883280
      0.6152251521
     -0.8311144423
     -0.1471106359
      0.2306460250
      0.3642303156
     -0.9321690080
     -1.0659020644
     -0.5275848806
      0.1343225237
      0.3376967770
      0.3663144636
     -0.2531958558
     -0.2208428091
     -0.4934455740
      0.7521798463
     -0.9388075859
      0.6081966336
      0.2414131572
      0.0079783212
      0.7730937392
     -0.2685874538
     -0.4438010075
     -1.0423683407
     -0.7071854376
      0.5207335077
      0.3306960433
     -0.1230041501
     -0.3023567720
      0.2544679335
     -0.6839722918
     -0.9484962125
     -0.9070855858
     -0.2821478438
     -0.6008364327
      0.6379239243
     -0.5768482168
      0.2234581630
      0.3893983635
     -0.7063708520
      0.8415828394
      0.3639918839
      0.4892545222
      0.8738531877
     -0.6551700369
      0.3408395701
      0.7971687044
     -0.1025292245
     -0.3639453211
     -0.0518147644
      0.7621671642
     -0.6399979051
      0.0580168419
     -0.6875592557
     -0.6526407085
      0.6103087980
      0.2819999171
      0.5220447876
     -0.8960923867
      0.3341731426
     -0.8100023659
      0.9329035925
      0.0459493647
     -0.1749454628
     -0.5956392738
     -0.9691299718
     -0.8394415936
      0.5159942281
     -0.6107283568
     -0.6672452476
     -0.5797933886
      0.5166717385
      0.6112393703
     -0.7574325464
     -0.2564593884
     -0.7600458275
     -0.4694910032
      0.7508229176
      0.5695288420
      0.2422886802
     -0.4408669927
     -0.7063695571
     -0.3944821754
      0.5695451096
      0.7978964308
      0.0430504691
      0.2979298582
      0.9495187916
      0.3385043471
      0.7592163836
      0.5927491362
      0.5757295943
      0.5938435614
     -0.3605557384
      0.6200631160
      0.8709291909
     -0.7718974395
      0.9020602047
      0.6447130871
     -0.1266142435
     -0.5740083616
     -0.6424576985
      0.8517608325
     -0.9777361841
      0.2613851733
     -0.4392103809
      0.1031834545
      0.9205686815
     -0.1449926198
     -0.3546307773
     -1.0060947549
     -0.6473112267
     -0.5051473602
      1.0420027806
      0.8818097648
      0.9323399324
     -0.2931164567
      0.2933135889
     -0.2889429464
     -0.0100941623
      0.9459692000
     -0.4809195009
     -0.5681108361
      0.8079438015
     -0.6404084327
      0.2446745314
     -0.5837393280
     -0.0632273299
      0.8939935504
     -0.4589441061
     -0.9939418726
     -0.1049859793
      0.2375121653
      0.6340748577
      0.1736986580
     -0.7853849257
      0.1016152971
     -0.1050792955
     -0.7098523035
     -0.2475290039
     -0.4169170393
     -0.6571069657
      0.5610073939
     -0.6352328657
     -0.4613245312
      0.2319687192
      0.0424861456
      0.7556534379
     -0.0278704582
      0.3298208919
      0.7604167431
      0.5260335361
      0.6662856946
      0.0879100698
      0.1106085153
      0.4211525260
      0.4559003766
     -0.9030857586
     -0.3286532544
     -0.5987238268
     -0.1802436895
      0.0362355121
     -0.2316400628
     -0.4780609094
      0.3170233775
     -0.6719928182
      0.2690834901
     -0.9859283131
     -0.8579330847
      0.4971897165
      0.0565629941
      0.2975622712
      0.0558968169
     -0.1020887844
     -0.4846765724
     -0.3474658620
     -0.5760512782
      0.5173047490
     -0.0736302259
     -0.0437536043
     -0.6348289885
      0.3168088316
      0.3015661169
     -0.0267930139
     -0.0982616470
      0.8711151865
      0.0524821343
     -0.5016022941
     -0.6291017543
      0.1884788113
     -0.7659746799
     -0.7653583955
     -0.2425399788
      0.6633875577
      0.0020665091
      0.8360598786
      0.8797299847
      0.5484591177
     -0.0069701399
      0.4569649457
     -0.9203322632
      0.9098328250
      0.6286545650
      0.2048504006
     -0.8960668511
      0.7502217654
     -0.0678398871
     -0.3358807767
     -0.9257081984
      0.6498511387
     -0.5966120086
      0.3189843273
     -0.0912916594
      0.6292409481
     -0.6652094658
      0.6730520272
     -0.4332730113
      0.1973808051
     -0.8090908292
     -0.1254508679
      0.8658045063
     -0.6713264536
      0.5819810700
      1.0661800176
     -1.0355761262
     -0.7773518424
     -0.9705845772
     -0.5567817638
      0.5024687158
     -0.7612534181
     -0.0883371593
      0.1988845043
      0.2108837265
     -0.6198379316
      0.9299995657
     -0.0321128184
      0.6333458884
      0.2343779829
     -0.6612172105
     -0.0599368490
     -0.0115454758
      0.7856875000
     -0.2882082848
      0.8750069522
      0.5471763945
      0.6136709763
     -0.3654908766
      0.2173816318
      0.5131433324
     -0.2161771815
     -0.9972779197
      0.1560030849
     -0.4195355367
      0.8297057432
      0.7598486331
      0.5529076930
     -0.2334067313
      0.5701923739
     -0.2050598133
     -0.3152051906
     -0.5561276676
      0.3335449171
      0.7772411170
     -0.2143847174
     -0.6648071571
     -0.8148231389
     -0.3726263363
      0.0860034645
     -0.1000979727
      0.1370102865
     -0.2096973296
      0.4621685249
      0.2362775165
      0.0114329133
     -0.4256142419
     -0.7591580347
      1.0309618190
     -0.0615346348
      0.2603055476
      0.8878466402
      0.1933188386
      0.3167411587
      0.4101989369
     -0.7757794029
     -0.8342456254
     -0.9096189171
      0.0252971177
     -0.8677268266
      0.4998131651
      0.9192183943
     -0.2495374796
      0.7233753604
      0.6979226814
      0.5574512037
     -0.2480090605
     -0.4801191238
      0.3688933249
     -0.3280987216
      0.6674443088
      0.9704012046
      0.5922874894
     -0.3384011991
     -0.0900780479
      0.2169386247
      0.3529824269
      1.0545666323
     -0.0641055864
      0.1904011598
      0.4106505021
      0.1197348177
     -0.2373999687
     -0.4642325377
     -0.5984005043
      0.2695392789
      0.0899761156
     -0.5752805296
      0.5018346381
     -0.6529092787
     -0.3612750238
     -0.0923432543
      0.3595105840
     -0.1120658675
      0.0424358443
      0.0449633853
      0.1565843240
     -0.4554082695
      0.0171294341
      0.6714629488
     -0.5181393910
     -0.6359065538
     -0.4538151075
      0.8439399383
     -0.5788203436
      0.9606415119
      0.0448854643
     -0.1030940137
     -0.6017035171
      0.3516757186
      0.0754367580
     -0.1591802274
      0.3908837748
      0.3682369227
     -0.4704085351
      0.0445802898
     -0.0193954481
     -0.6748698223
      0.2863819691
      0.4304279664
     -0.2218729376
      0.3588861753
      0.0420791890
      0.3336474155
     -0.4472791468
     -0.3441409599
      0.3196127034
     -0.7394329978
     -0.8734724392
     -0.2364006734
      0.1578315400
     -0.5038725010
     -0.3107255834
     -0.7982290033
      0.5956309614
      0.3423890266
      0.2542794079
     -0.4197012379
      1.0839639421
      0.8457189682
      0.0783291919
     -0.8484079547
      0.3269404584
     -0.2283401028
      0.0749115058
     -0.7726331677
     -0.2065598801
      0.6288774077
     -0.5710251501
      0.3633560553
      0.8497310157
     -0.9667799755
     -0.5840146559
     -0.9022470872
     -0.4453182459
      0.3475609780
      0.2699015342
     -0.1264272742
     -0.7891420963
      0.3890616963
      0.5287746382
      0.5609912201
      0.2970037217
     -0.2510486401
      0.8066394080
      0.7608862506
     -1.0039248525
      0.4007339509
      0.2194547203
     -0.2928265392
      0.7400064947
      0.2408622193
     -0.1807236957
      0.8597936762
     -0.0745409051
      0.4347072825
     -0.8532634007
      0.1962545948
      0.0062879915
      0.8094743780
     -0.7843338177
     -0.5971673179
     -0.2286995565
     -0.4006405280
     -0.4472324511
     -0.7752305267
     -0.4181793622
     -0.1944009917
     -0.0735536381
      0.0237522430
      0.4684326615
      0.2538676151
     -0.5923000848
     -0.4464468236
     -0.4840185890
     -0.8360238550
      0.7984587459
      0.7708632631
     -0.8563149299
      0.9073131219
      0.2177380799
     -0.6416847576
      0.5542756149
     -1.0566988762
     -0.3469116612
     -0.2373341680
      0.4289643534
      0.0743749663
      0.5117984128
     -0.1725958291
     -0.2775141489
     -0.5130770067
     -0.4160606972
      0.0533607400
      0.6639604439
     -0.6555556249
     -0.5070151151
     -0.4281135235
     -0.2931071771
     -0.3531345679
     -0.8364375769
      0.7117064021
      0.1662706556
     -0.0173748525
      0.3659003309
     -0.7650361424
      0.0373456976
      0.8584659059
     -0.2358130440
      0.3515398519
     -0.2182691659
      0.8681659528
     -0.6495171517
     -0.1119565890
      0.5165285820
      0.0710607524
     -0.1370656072
     -0.7757654327
      0.1629299537
     -0.1275905788
     -0.1572958718
     -0.7478543233
      0.8760268397
     -0.5332872297
     -0.4564493938
      0.3919373820
      0.1563630252
     -0.7175775332
      0.1806125865
     -0.5339425819
      1.2569759324
     -0.3351099315
      0.9695197520
     -0.1140691463
      0.1771659523
      0.1073161514
      0.1570879856
     -0.5316120061
     -0.3638474465
      0.5728392999
      0.5175599335
      0.2082137126
     -0.6523690003
