     -1.0108086508
     -0.4063663554
      0.0997905118
      0.1496758881
     -0.3728702687
     -0.6242685691
     -0.0731018640
      0.5497653336
      0.6024910151
     -0.3040664027
      0.6924758664
     -0.6148612519
     -0.3989104530
     -0.2792913772
      0.1083424370
     -0.4016810328
      0.3869011778
     -0.8308101387
      0.6630042845
      0.3087878566
     -0.6529802213
      0.7240913602
      0.7553524138
     -0.3910621159
     -0.0828722319
     -0.4462967782
      0.8389875415
      0.0647787133
     -0.6524117794
     -0.9591270219
     -0.8037115662
      0.2139278425
      0.2419666750
     -0.0728430588
     -0.3006482076
     -0.4381858755
     -0.3576447499
      0.1046233590
      0.8349084289
      0.3107069919
     -0.0389986918
      0.6458083020
     -0.5592733671
      0.0929129503
      0.0652092662
      0.4616230871
     -0.3966487678
      0.7164264983
      0.4511269025
     -0.2931179441
      0.3278662363
      0.5467598208
     -0.2612069522
      0.4934161340
      0.1816151650
      0.3424085696
      0.7296457167
      0.9487580419
     -0.7910595470
      0.2244351997
     -0.9167123761
     -0.9276226617
     -0.6728144962
     -0.6394223640
      0.7202150446
      0.8778680888
      0.3177579052
      0.7965630851
     -0.0332930774
      0.4811707981
     -0.9683972704
      0.6747745743
      0.5376834932
     -0.7033101947
     -0.3775183127
      0.3043494788
     -0.1943169213
      0.0367716602
      0.2323127271
      0.3976186966
     -0.4445245032
     -0.4932026960
     -0.6822734440
      0.7541001322
      0.3661915456
     -0.4029040758
     -0.2755890816
     -0.4773880961
      1.0073492676
      0.7757164708
     -0.3483317429
     -0.8823907987
      0.0287641580
     -0.7541663375
      0.8166014310
     -0.0802836211
     -0.7609975801
     -0.1866903095
      0.3991158910
     -0.6854962195
     -0.2362840715
      0.3486616751
      0.7451392558
      0.5843169919
      0.0967533952
      0.4564779874
     -0.9465214543
     -0.2937514750
     -0.3022628743
      0.9809794659
      0.1074412272
     -0.0266822792
      0.1134461794
      0.7885748462
     -0.4975736308
     -0.1596640416
      0.1996072075
     -0.7117057633
     -0.6958213401
     -0.3984238401
      0.8430580043
      0.5081395135
     -0.9008237892
     -0.7031364362
     -0.4420874340
     -0.8035118067
     -0.2316094790
     -0.1707264799
      0.5909350520
     -0.6433184469
      0.7364065812
      0.0494434551
      0.0436276133
      0.6300581455
      0.7044348186
      0.7407537430
      0.9904523301
     -0.0397241399
      0.7251104510
     -0.0907267797
      0.8017896641
      0.1079662350
      0.1063500213
     -0.0248428011
      0.6730157861
     -0.8051601230
     -0.1752355956
      0.3013435394
      0.0588034432
      0.7917469089
      0.3037798796
      0.2468894195
     -0.4455038100
      1.0124815941
     -0.5866596495
     -0.4123842021
     -0.4530855672
      0.0689902679
     -0.5988989771
     -0.9363435506
     -0.0489443809
      0.5498798384
      0.8220307370
     -0.9352282116
     -0.4527921958
     -0.9865415143
     -0.4729046705
     -0.1487459046
     -0.0691838973
     -0.7966852488
     -0.3729497590
      0.7071539206
      0.8195632651
      0.2660470455
      0.4215550094
      0.3281586389
      0.0547071125
     -0.3002714119
      0.6819208435
      0.1234354133
      0.0127722085
      0.0754876067
     -0.7888024398
     -0.3446456937
      0.0634456178
     -0.6895579906
      0.6051424155
     -0.7715755846
     -0.0320391638
      0.2176343675
      0.4151663710
     -0.8538315513
     -0.9601109068
     -0.6514228758
      0.0890264622
      0.2279071245
      0.0270116254
     -0.3250242044
     -0.2313455849
     -0.5090848391
      0.7903161908
     -0.9699363774
      0.7213300370
      0.1173203002
      0.0206178640
      0.7950974374
     -0.2476338679
     -0.7171182771
     -0.9137581059
     -0.7171489317
      0.5569068195
      0.5654137009
     -0.1628553102
     -0.3793505307
      0.4157624246
     -0.6789123062
     -0.9746429955
     -0.8191569599
     -0.1993933590
     -0.6175252882
      0.7078899577
     -0.4729162710
      0.2988690623
      0.3008183492
     -0.7639350491
      0.7776780767
      0.3534168779
      0.6707836528
      0.9800935332
     -0.6690996698
      0.3356633556
      0.7840937914
     -0.1205307687
     -0.1951626029
      0.0059230365
      0.7733788322
     -0.6742305797
     -0.0870329070
     -0.6826899096
     -0.7248902527
      0.6385681101
     -0.2025917569
      0.3787889609
     -0.8692976225
      0.3112999011
     -0.7734874278
      0.9839729568
      0.0746247975
     -0.3948559851
     -0.6697361979
     -0.9895916052
     -0.9874504654
      0.4965971632
     -0.4442215346
     -0.6113089068
     -0.6383501419
      0.6337665115
      0.5596922464
     -0.8986636407
     -0.2715133766
     -0.8501475608
     -0.4334051701
      0.8553748725
      0.6480082613
      0.2730005075
     -0.3944211943
     -0.7271328834
     -0.7563670023
      0.6552272266
      0.8163523206
      0.0156022404
     -0.0496342605
      0.8018638374
      0.3646656957
      0.8442604225
      0.6761327332
      0.5476913156
      0.6419198512
     -0.5344152369
      0.6393907939
      0.9060584580
     -0.7954258800
      0.8465016946
      0.6859367348
     -0.0991485538
     -0.5865703065
     -0.2341761764
      1.0012867224
     -0.9813269816
      0.5713245273
     -0.4326929355
      0.1598448743
      0.7911692504
      0.1287053011
     -0.2958700939
     -0.9901745793
     -0.6240566595
     -0.2492733925
      0.9123414887
      0.8919375851
      0.9084204775
      0.0502351047
      0.3927653896
     -0.3498602187
      0.1297827439
      0.9667903526
     -0.4627759634
     -0.6482029482
      1.0188910524
     -0.6554456651
      0.2774892241
     -0.4726288832
      0.0722029574
      0.7855515125
     -0.3850551749
     -0.9293966391
     -0.1478586233
      0.2422803542
      0.6975273730
      0.2032705981
     -0.7449618847
      0.1383037729
     -0.2250418747
     -0.6782357344
     -0.2882629908
     -0.4120689012
     -0.7952576110
      0.7750959202
     -0.6290700172
     -0.3664905904
      0.1908088730
      0.4340509086
      0.8989940094
     -0.0644772483
      0.5445337606
      0.7608237585
      0.5826006109
      0.5894362122
      0.3896376541
      0.1000611253
      0.4242639970
      0.5246669515
     -0.6826952455
     -0.4294880731
     -0.5894440148
     -0.1030039260
      0.1652754215
     -0.2432171387
     -0.5811882867
      0.1799245113
     -0.6771524991
      0.2226100816
     -1.0041649133
     -0.8700328363
      0.7234150342
      0.0631589521
      0.3937810637
     -0.1801243620
     -0.1348918177
     -0.4960505970
     -0.4279630100
     -0.7124452484
      0.4930798230
     -0.1537234945
     -0.0801260142
     -0.6338977385
      0.3191552321
      0.3825793623
     -0.0397351556
     -0.1282792252
      0.8975332519
      0.1299339088
     -0.6717249827
     -0.5369609739
      0.2255264820
     -0.8445812338
     -0.8104383294
     -0.2199770354
      0.6522713429
      0.0580869319
      0.8404801457
      0.9039374048
      0.6199675754
      0.0713476317
      0.4394419527
     -0.9339204139
      0.9234949587
      0.6338722551
      0.2571977306
     -0.9545287407
      0.6809170353
     -0.0298245470
     -0.2197523991
     -0.8629857608
      0.7192972207
     -0.6153713114
      0.3299484455
     -0.0806768548
      0.7819361237
     -0.6716538782
      0.6826576195
     -0.4458832118
      0.2127106769
     -0.8239690652
     -0.2637918308
      0.5920496674
     -0.6824974054
      0.4311439436
      0.7198293149
     -0.7862512907
     -0.8113096883
     -0.9308973942
     -0.5647724471
      0.5168445785
     -0.5651647755
      0.0908140464
      0.4088569120
      0.2125489536
     -0.5382772278
      0.9479784325
     -0.0899655038
      0.5446007586
      0.1207292233
     -0.6126430999
      0.0109684009
      0.0180297932
      0.6687187696
     -0.1915894848
      0.8896864013
      0.7219668095
      0.5124497928
     -0.4155908737
      0.2171486545
      0.6346425976
     -0.0987497729
     -0.9285396121
      0.1248484569
     -0.4318506146
      0.6132856985
      0.7764454468
      0.4749163209
     -0.1816787550
      0.6246662507
     -0.2568025918
     -0.2638717041
     -0.5421911446
      0.5450567114
      0.9177959504
      0.0728488278
     -0.6972702035
     -0.8152420925
     -0.5134957946
      0.0330122155
      0.1660287444
      0.1167239680
     -0.2201319871
      0.5020111450
      0.1982816812
      0.0649546385
     -0.5090785315
     -0.7309718364
      0.9595939622
     -0.1063862665
      0.2396045375
      0.8900337450
      0.0269569959
      0.2253213543
      0.3274122207
     -0.7032473502
     -0.7925060046
     -0.6940665496
     -0.0937036264
     -0.9389014841
      0.5132011654
      0.9519149514
     -0.3829265970
      0.6158482439
      0.6437973331
      0.4892355004
     -0.2785170137
     -0.5553798611
      0.5732818496
     -0.3776245411
      0.5304791386
      0.9112785293
      0.3815473214
     -0.3186497390
      0.0239311776
      0.1647744611
      0.3912368438
      0.9965435631
     -0.0129836494
      0.4456922474
      0.6203364675
      0.1077646520
     -0.2714441886
     -0.4356683263
     -0.5893000638
      0.2584061519
      0.0318961359
     -0.6655155955
      0.4338038753
     -0.5295093953
     -0.3231374214
      0.0481137770
      0.3274020066
     -0.0831087233
      0.2192634968
     -0.0593774809
      0.2725774461
     -0.5048651710
      0.0166340629
      0.7293522829
     -0.6426126633
     -0.6987909817
     -0.6422250566
      0.8775819233
     -0.5673046561
      0.9186812160
      0.0913544457
     -0.1935155887
     -0.6402226719
      0.3944473206
      0.3211656791
     -0.1333123055
      0.5499676610
      0.2467585340
     -0.4378101754
     -0.0547036480
     -0.1969332807
     -0.8652249407
      0.3769225547
      0.4039673705
     -0.1538612377
      0.2664504512
      0.1042415697
      0.4397813531
     -0.5015112213
     -0.4508009983
      0.2105088458
     -0.6945392207
     -0.8826036249
     -0.1274003808
      0.2523034102
     -0.4661258481
     -0.4334687235
     -0.7835915194
      0.4660020933
      0.3867548199
      0.1519665104
     -0.3085263819
      0.9501214489
      0.6773085377
     -0.3406853777
     -0.8688593382
      0.2605073675
     -0.3851106720
      0.0600765534
     -0.8903389040
     -0.2939200485
      0.6855100787
     -0.6224204735
      0.4183142351
      0.8694519134
     -0.9281540055
     -0.6504770751
     -0.9270056372
     -0.4270157392
      0.4130005403
      0.2758940416
     -0.1392742493
     -0.7888698409
      0.2894141572
      0.6465329158
      0.6200302788
      0.2472373707
     -0.3943794184
      0.8801009833
      0.8436714235
     -0.9616849866
      0.3232515884
      0.2125990988
     -0.6482512105
      0.7053750716
      0.2409215776
     -0.2890882188
      0.8850652726
     -0.0803918088
      0.4565844264
     -0.8961415873
      0.2137101456
     -0.0439441983
      0.8896625770
     -0.7875265743
     -0.4411801064
     -0.3117046319
     -0.4520710878
     -0.3369855179
     -0.9250683494
     -0.3313407860
     -0.1334278615
     -0.1154551302
      0.0794425653
      0.2981789940
      0.2296310630
     -0.5931458929
     -0.4266141517
     -0.5667894885
     -0.9171832155
      0.7880214915
      1.0074100754
     -0.8945211247
      0.8610518496
      0.2191627283
     -0.7989520748
      0.5832026260
     -1.0198828648
     -0.3624703237
     -0.2589827330
      0.3574208645
      0.2541823689
      0.5405553002
     -0.1360348234
     -0.2906767238
     -0.5511762741
     -0.3565563334
      0.0889084670
      0.8313777418
     -0.5443561545
     -0.4078952739
     -0.3162864093
     -0.3464320363
     -0.4137060283
     -0.8516811380
      0.7247865100
      0.3775857099
      0.0358668453
      0.3238954196
     -0.7370110796
     -0.0493240440
      0.9547425623
     -0.2373579550
      0.2828355306
     -0.3529608985
      0.8297727147
     -0.6759352738
     -0.1703388158
      0.4452373968
      0.2260172256
     -0.0819724862
     -0.5436886307
      0.1572542723
     -0.1770796357
     -0.1297736531
     -0.8013203332
      0.9362203267
     -0.6612830914
     -0.6425690412
      0.2197215600
      0.1197623579
     -0.6194158760
      0.3469437375
     -0.2803600778
      1.0632764487
     -0.6111100721
      0.8826775264
      0.3693041231
     -0.1264408092
      0.4001674392
     -0.2241126106
     -0.5693101383
     -0.5787257978
      0.5772308454
      0.7452780602
      0.3499319707
     -0.3758392741
      0.7489877231
      0.4119817851
     -0.6447050754
      0.4402220484
      0.5960408732
     -0.6259280548
     -0.5285062872
     -0.2648450940
     -0.8035646837
     -0.3555768716
     -0.5099510586
     -0.8558474409
     -0.3855440480
     -0.6369858674
      0.7816873995
